{"conv_1_1": {"kernel": [[[[-0.5342404246330261, -0.18611381947994232, -0.18214116990566254, 0.3123646378517151, -0.22446909546852112, 0.04886161908507347, -0.144675150513649, -0.4060726761817932, 0.19994990527629852, -0.08378134667873383]], [[-0.5333334803581238, 0.4867212176322937, -0.25430944561958313, 0.004157645627856255, 0.18486350774765015, 0.38033780455589294, -0.8398220539093018, -0.0602303072810173, 0.09571126103401184, 0.1176549419760704]], [[-0.5780998468399048, 0.6259836554527283, -0.5407794713973999, 0.2308756411075592, 0.33646586537361145, 0.4956400692462921, -0.5609531402587891, 0.4450410008430481, -0.0012978232698515058, -0.1529472917318344]]], [[[-0.3948933780193329, -0.7167273163795471, -0.14275968074798584, 0.3812488317489624, 0.06729359924793243, 0.29540157318115234, -0.7406527996063232, -0.5566052794456482, 0.3636922836303711, 0.3611921966075897]], [[-0.5261151194572449, -0.5471223592758179, -0.23103205859661102, 0.46967995166778564, 0.4545566439628601, 0.36474838852882385, -0.04587705060839653, -0.49453383684158325, 0.44278737902641296, 0.20957215130329132]], [[-0.4060729146003723, -0.4034448564052582, -0.13313695788383484, 0.22719931602478027, 0.24843892455101013, 0.3440721333026886, 0.39445582032203674, -0.4155333936214447, 0.3156709671020508, 0.33134880661964417]]], [[[0.8120059967041016, -0.1969590038061142, -0.2819383442401886, 0.027271950617432594, 0.3119480609893799, 0.5394062995910645, 0.014319640584290028, 0.548058271408081, 0.47265252470970154, -0.07634887844324112]], [[0.7802706360816956, -0.43184158205986023, -0.38352373242378235, 0.16666315495967865, -0.19284066557884216, 0.46815285086631775, 0.32486093044281006, -0.2591022849082947, 0.42052558064460754, 0.2827642261981964]], [[0.10948635637760162, -0.5671882629394531, -0.18461942672729492, -0.07416528463363647, -0.22172100841999054, 0.46803370118141174, 0.36455151438713074, -0.43667399883270264, 0.07665538787841797, 0.40170517563819885]]]], "bias": [-0.1992901712656021, 0.10466805845499039, 0.14203429222106934, -0.11675520241260529, -0.11293136328458786, -0.12046284228563309, -0.11902131885290146, -0.0072443378157913685, -0.12359065562486649, -0.10533050447702408], "kernel_shape": [3, 3, 1, 10], "bias_shape": [10]}, "dense_1": {"kernel": [[0.04606219753623009, -0.020127516239881516, -0.08053768426179886, -0.05662906914949417, 0.06587793678045273, -0.08698572963476181, -0.02438800036907196, 0.016738658770918846, 0.13089649379253387, 0.08154699206352234], [0.014358069747686386, 0.10048942267894745, 0.09870752692222595, -0.012981876730918884, 0.0005906221340410411, 0.03032120317220688, -0.0661448985338211, 0.06957575678825378, -0.12840275466442108, -0.10500014573335648], [0.012057998217642307, 0.022824224084615707, 0.04766025021672249, -0.03825562819838524, -0.07249142974615097, 0.13187088072299957, 0.0033844178542494774, 0.0007618489908054471, -0.06423404812812805, -0.0931808203458786], [0.021992726251482964, -0.05959916487336159, -0.10904163122177124, -0.02540723606944084, -0.032876625657081604, -0.03779255598783493, 0.07089567929506302, -0.041918374598026276, 0.11196155101060867, 0.05916576832532883], [0.07191735506057739, -0.08911224454641342, -0.0435568131506443, 0.03131135553121567, 0.03300568461418152, -0.1154143437743187, 0.037778664380311966, -0.07272358983755112, 0.15093880891799927, 0.06965946406126022], [0.08025249093770981, -0.022838633507490158, -0.014216717332601547, -0.0010193247580900788, 0.0066761439666152, -0.030407320708036423, -0.014396606013178825, -0.04543551430106163, 0.11772892624139786, 0.10848921537399292], [0.0125478096306324, -0.040371157228946686, -0.09744724631309509, -0.035405151546001434, 0.004626373294740915, -0.09329988807439804, -0.016600413247942924, 0.009838594123721123, 0.0869259461760521, 0.07267240434885025], [0.02298055775463581, -0.07034637778997421, 0.0006817150861024857, 0.03552921488881111, 0.009743886068463326, 0.01867157779633999, 0.06634273380041122, -0.010200178250670433, 0.06698541343212128, -0.010891222395002842], [0.06872239708900452, -0.023388870060443878, -0.025746392086148262, -0.008458288386464119, 0.011624493636190891, -0.061922475695610046, -0.0008133621304295957, -0.09084101021289825, 0.06346885859966278, 0.005632903892546892], [0.05014214292168617, 0.01355867087841034, -0.058672983199357986, -0.08710355311632156, 0.016904233023524284, -0.14362388849258423, 0.05552053079009056, -0.017864955589175224, 0.06359190493822098, 0.07930361479520798], [0.07780616730451584, -0.015019668266177177, -0.017444347962737083, -0.03111335076391697, -0.02706191875040531, -0.029815949499607086, 0.00775220338255167, -0.009934237226843834, 0.11921607702970505, 0.02722759358584881], [0.002443478209897876, 0.0061173876747488976, 0.04663976654410362, -0.030777156352996826, 0.013759003020823002, 0.1356995850801468, 0.011018196120858192, 0.033014483749866486, -0.049696605652570724, -0.005699437111616135], [0.006794278975576162, -0.02049068547785282, 0.08464518189430237, -0.025564640760421753, -0.01835968717932701, 0.03125666454434395, -0.01853264681994915, 0.005231188144534826, -0.09149596095085144, -0.007004250772297382], [0.10338614881038666, -0.06414302438497543, -0.031030569225549698, 0.052700310945510864, -0.007580151781439781, -0.05694916471838951, 0.00891330000013113, -0.08551061153411865, 0.1252177208662033, 0.11767911165952682], [0.09136587381362915, -0.09548497945070267, -0.011989516206085682, 0.030430180951952934, -0.034668851643800735, -0.027788879349827766, 0.03693048283457756, -0.02985558845102787, 0.10361108928918839, 0.07237780094146729], [0.05035531520843506, -0.06125027313828468, -0.03332722932100296, -0.012332947924733162, 0.0439898706972599, -0.14301081001758575, 0.06443783640861511, -0.08462929725646973, 0.0856161043047905, 0.01485820859670639], [0.017728621140122414, -0.021080592647194862, -0.020108671858906746, -0.034192074090242386, -0.035444315522909164, -0.05963459238409996, 0.037432119250297546, -0.00047119546798057854, 0.14981088042259216, 0.026170535013079643], [0.03307170793414116, -0.025687402114272118, -0.055752210319042206, -0.031580980867147446, -0.07542992383241653, 0.02586410753428936, 0.06892899423837662, -0.022678041830658913, -0.032558511942625046, 0.0769507959485054], [0.0862245112657547, -0.010768537409603596, -0.03292336314916611, 0.016142170876264572, 0.01711195707321167, -0.14196515083312988, -0.0028179397340863943, -0.02656704932451248, 0.14565929770469666, 0.0831497460603714], [0.018399065360426903, 0.05332962051033974, -0.10915932059288025, 0.014337074011564255, 0.025885166600346565, -0.14312605559825897, 0.010564147494733334, 0.008224657736718655, 0.038580272346735, -0.0032933468464761972], [0.020897168666124344, -0.05505651980638504, -0.029817629605531693, 0.028531096875667572, 0.009344802238047123, -0.1209821105003357, 0.08131802082061768, -0.08193722367286682, 0.10466725379228592, 0.0083970557898283], [-0.0470014326274395, 0.05688124895095825, 0.1092875674366951, -0.01767633482813835, -0.036612123250961304, 0.06017638370394707, 0.0196557454764843, 0.005523142870515585, -0.1311115324497223, -0.006334648933261633], [-0.09509652853012085, 0.0827239528298378, 0.00268715457059443, 0.004507408011704683, -0.016852445900440216, 0.09089306741952896, -0.031601063907146454, 0.029603786766529083, -0.08073931932449341, -0.05719020962715149], [0.031252358108758926, 0.005786162801086903, -0.1103702038526535, 0.05348489060997963, -0.0341968834400177, -0.03176748752593994, 0.045863065868616104, -0.013515090569853783, 0.05440206825733185, 0.006491248961538076], [0.08924498409032822, -0.06819601356983185, -0.04379648715257645, 0.040215909481048584, 0.022150656208395958, -0.12721450626850128, 0.0395134761929512, -0.011950813233852386, 0.1481291949748993, 0.08108273893594742], [-0.037237539887428284, -0.08439601212739944, -0.11159249395132065, 0.04950372874736786, -0.02218625321984291, -0.05635496973991394, 0.09307926148176193, -0.11838097870349884, 0.06411426514387131, 0.09159389138221741], [0.0012831358471885324, -0.10307194292545319, -0.026880161836743355, 0.07622891664505005, -0.06524071842432022, -0.14087221026420593, 0.1589418649673462, -0.04509440064430237, 0.040395863354206085, 0.09151095151901245], [0.04415801167488098, -0.09075500071048737, 0.0037457244470715523, 0.06579186022281647, -0.025106899440288544, -0.05891688913106918, 0.027441198006272316, -0.08493576943874359, -0.0014066272415220737, 0.08285951614379883], [0.042191967368125916, -0.05447208508849144, -0.007983802817761898, -0.044269077479839325, -0.061347298324108124, -0.06864248961210251, 0.0931926965713501, -0.0700337365269661, 0.0436064749956131, 0.025546152144670486], [-0.0800759345293045, 0.056359726935625076, -0.029722778126597404, 0.029943788424134254, -0.004092405550181866, -0.11234469711780548, 0.0654592365026474, -0.03855184465646744, 0.034813400357961655, 0.03960498794913292], [-0.0024148698430508375, -0.044247955083847046, 0.005144953727722168, 0.1043044850230217, -0.04318717122077942, -0.11716362833976746, 0.12045786529779434, -0.11005005240440369, 0.08233723789453506, 0.06060432642698288], [-0.06533309072256088, 0.04886794462800026, 0.005991544108837843, -0.014044524170458317, 0.0387008935213089, 0.07776734232902527, -0.1344243288040161, -0.011296427808701992, -0.10239316523075104, -0.05728684738278389], [-0.007289295084774494, -0.013770993798971176, 0.08837922662496567, 0.05202210322022438, 0.024078555405139923, 0.053293317556381226, -0.02277323044836521, 0.009910699911415577, -0.1436680108308792, -0.0789804607629776], [0.013608231209218502, -0.02281070500612259, -0.026366202160716057, -0.037572406232357025, -0.04629617556929588, -0.07469993084669113, 0.1347457319498062, -0.10382916033267975, 0.06092788279056549, -0.0029025340918451548], [0.0530492328107357, -0.04330436885356903, -0.10213498771190643, -0.030108973383903503, 0.011647303588688374, -0.09276942163705826, 0.16629067063331604, -0.11113733053207397, 0.06704705208539963, 0.056017570197582245], [-0.03382991626858711, -0.038910336792469025, -0.0076672835275530815, -0.03291160613298416, -0.13377036154270172, -0.13931120932102203, 0.16216237843036652, -0.033471446484327316, 0.07026233524084091, 0.01893402449786663], [-0.022989733144640923, -0.08268585801124573, 0.09320907294750214, -0.029320256784558296, -0.1354796141386032, -0.029871772974729538, 0.13045071065425873, -0.08999507129192352, 0.0710853636264801, -0.014395272359251976], [0.0705023854970932, -0.04264232516288757, 0.006261588539928198, 0.011720593087375164, 0.05251546576619148, -0.07033350318670273, -0.0888228714466095, -0.05456567928195, 0.05524858087301254, -0.01939750276505947], [-0.017919493839144707, -0.0869390219449997, -0.042981330305337906, 0.004905265290290117, -0.07420840114355087, -0.11403018981218338, 0.0806819424033165, -0.013338649645447731, 0.06236463785171509, 0.05746183544397354], [-0.07412730157375336, -0.05019080638885498, 0.04546133801341057, 0.03256868198513985, -0.10205483436584473, -0.13314345479011536, 0.13440345227718353, -0.05961443483829498, -0.03494719788432121, -0.019422447308897972], [-0.010620597749948502, -0.16053274273872375, 0.09776826202869415, -0.033426716923713684, -0.20892152190208435, -0.1277833729982376, 0.01757962442934513, -0.11611948162317276, -0.028646141290664673, -0.02903876267373562], [-0.01983177289366722, 0.10808058083057404, 0.03940623253583908, 0.04373861849308014, 0.0008988493937067688, 0.13902989029884338, -0.0711137130856514, 0.08958736807107925, -0.06650005280971527, 0.002875120146200061], [-0.06095705181360245, 0.007886380888521671, 0.05130262300372124, -0.013558797538280487, -0.02544204704463482, 0.0649411603808403, 0.02198098413646221, 0.009775705635547638, -0.11449909955263138, -0.048602353781461716], [-0.02390681393444538, -0.1046622022986412, 0.0005391164449974895, 0.012371464632451534, -0.09186357259750366, -0.07497348636388779, 0.18769466876983643, -0.04297281801700592, 0.09920453280210495, 0.05744244530797005], [0.04824185371398926, -0.028022317215800285, -0.09560190141201019, -0.04751737788319588, -0.08852584660053253, -0.15182006359100342, 0.11508652567863464, -0.03142809122800827, 0.09886761009693146, 0.021426526829600334], [-0.02431814931333065, -0.13435430824756622, 0.07513612508773804, 0.0505039282143116, -0.19547757506370544, -0.07843919843435287, 0.1370985209941864, -0.07475252449512482, -0.017614169046282768, -0.006929109804332256], [0.0009837934048846364, -0.1273145079612732, 0.1323338747024536, -0.038140811026096344, -0.1915474683046341, -0.09771793335676193, 0.11602628976106644, -0.11760246753692627, 0.03292503580451012, -0.008630715310573578], [0.03286871686577797, -0.08373922854661942, -0.05912192538380623, 0.028743315488100052, 0.05522716045379639, 0.027871396392583847, -0.0395122729241848, -0.03201048821210861, 0.012888302095234394, 0.026887524873018265], [-0.046318646520376205, -0.13938672840595245, 0.027874182909727097, 0.016645215451717377, -0.22243089973926544, -0.1051175445318222, 0.13037072122097015, -0.08639161288738251, 0.09078275412321091, 0.053017180413007736], [-0.0281943641602993, -0.09196408092975616, 0.04842430725693703, -0.0458766371011734, -0.1846706122159958, -0.08837857097387314, 0.08146987855434418, -0.05637834593653679, 0.04141443967819214, 0.03146203234791756], [-0.00780978798866272, -0.19349737465381622, 0.12089726328849792, 0.07533028721809387, -0.10918837785720825, -0.00633756909519434, -0.04443158209323883, -0.1911860853433609, -0.06296941637992859, -0.035655245184898376], [0.03250865265727043, 0.07926634699106216, 0.03765127807855606, 0.032949574291706085, 0.027996044605970383, 0.14798757433891296, -0.04936248064041138, 0.09654277563095093, -0.1112920343875885, -0.08718313276767731], [-0.005121147725731134, -0.008650020696222782, 0.08042172342538834, -0.006808411795645952, -0.0032148738391697407, 0.15181896090507507, -0.015829646959900856, -0.02099483646452427, -0.10760162025690079, -0.07890413701534271], [0.03652254119515419, -0.01683392934501171, -0.005383048672229052, -0.0479125939309597, -0.14258712530136108, -0.06665929406881332, 0.1015496775507927, -0.043016016483306885, 0.10822770744562149, 0.019267993047833443], [-0.020812083035707474, -0.06455065310001373, 0.013657564297318459, -0.03500662371516228, -0.1461072564125061, -0.13256654143333435, 0.20946304500102997, -0.032923515886068344, 0.018734730780124664, 0.04964137822389603], [-0.043634288012981415, -0.11296150088310242, 0.11094582825899124, 0.05991988629102707, -0.25987508893013, -0.051728054881095886, 0.1316150724887848, -0.169197678565979, -0.079501673579216, -0.01699608564376831], [0.004647417459636927, -0.029635634273290634, 0.05026289075613022, 0.027791054919362068, -0.20912803709506989, -0.09659682214260101, 0.10531731694936752, -0.12192702293395996, -0.004911895841360092, -0.008325711823999882], [0.02010425366461277, -0.021142607554793358, -0.003951665945351124, -0.06835626810789108, 0.06287277489900589, 0.08228074759244919, 0.07628774642944336, -0.026822121813893318, -0.006404658313840628, -0.03615482524037361], [-0.036166757345199585, -0.04573097825050354, 0.06870397180318832, 0.08453000336885452, -0.17532888054847717, -0.05729369819164276, 0.09939701855182648, -0.10020406544208527, -0.027260897681117058, -0.0756455510854721], [0.0047132354229688644, -0.10405337065458298, 0.15283802151679993, 0.02357540838420391, -0.26039358973503113, -0.10079581290483475, 0.1130937933921814, -0.148643359541893, -0.00942098069936037, -0.05008579418063164], [0.05614832788705826, -0.07182624191045761, 0.055196985602378845, 0.05566497892141342, -0.1611904352903366, 0.01946394331753254, 0.033721212297677994, -0.1558409035205841, -0.030638400465250015, -0.04076870530843735], [-0.017681093886494637, 0.029293963685631752, 0.04929005354642868, 0.0405895933508873, 0.047655146569013596, 0.09292597323656082, -0.028763100504875183, 0.07709624618291855, -0.09451263397932053, -0.03969096764922142], [-0.04961417242884636, 0.003309351857751608, 0.07185538113117218, -0.06690305471420288, 0.02444498799741268, 0.06125045195221901, 0.043219078332185745, 0.046034831553697586, -0.0584568977355957, -0.03986038267612457], [-0.00403848011046648, 0.03996285796165466, -0.004960488062351942, 0.03127320855855942, -0.1613067388534546, -0.08664559572935104, 0.16171550750732422, -0.11378419399261475, 0.005406902637332678, -0.035866014659404755], [-0.0018778776284307241, 0.07824943214654922, -0.026976197957992554, -0.07137023657560349, -0.15847527980804443, -0.17078723013401031, 0.16006436944007874, -0.1445590704679489, 0.06453052908182144, 0.03454166650772095], [-0.07012809067964554, -0.03668120875954628, 0.0019730099011212587, 0.08635847270488739, -0.1716679185628891, -0.0894262045621872, 0.06096082553267479, -0.05987633019685745, -0.0592469722032547, -0.11317503452301025], [0.037919770926237106, 0.05263420194387436, -0.012531069107353687, 0.015060980804264545, -0.1603231430053711, -0.06140090152621269, 0.098635233938694, -0.09635418653488159, -0.021504858508706093, -0.030302733182907104], [0.07774984836578369, -0.01861622743308544, -0.03877853974699974, -0.03953556343913078, -0.08487875014543533, 0.042739320546388626, 0.17490723729133606, -0.07938389480113983, -0.010194678790867329, 0.0076775881461799145], [0.0060106622986495495, 0.03029687888920307, 0.1259847730398178, 0.030387496575713158, -0.17208163440227509, -0.030328163877129555, 0.04522310569882393, -0.05318170785903931, -0.02415023185312748, -0.07804030925035477], [0.0020085747819393873, 0.044874392449855804, 0.019530629739165306, 0.007655672263354063, -0.15706796944141388, -0.12126027047634125, 0.08133916556835175, -0.07412073761224747, -0.05722067132592201, -0.09943291544914246], [0.003833683440461755, -0.058404549956321716, 0.053711771965026855, 0.09214123338460922, -0.05481940507888794, 0.014159781858325005, -0.08281002193689346, -0.07949373126029968, -0.06844692677259445, -0.10643230378627777], [0.026648519560694695, -0.07684829831123352, 0.0852305218577385, 0.05004231259226799, 0.10254281759262085, 0.11843965202569962, -0.07268359512090683, 0.11645542085170746, -0.03366923704743385, 0.0317707285284996], [-0.02879585511982441, -0.07917655259370804, -0.008873204700648785, 0.027079740539193153, -0.03657860681414604, 0.025824861600995064, 0.0957016795873642, 0.06733442097902298, -0.062072500586509705, -0.07586536556482315], [-0.05172814801335335, 0.1066933125257492, -0.011720417067408562, 0.0012424474116414785, -0.0885016918182373, -0.12137963622808456, 0.07892891764640808, -0.05143839865922928, -0.0035614080261439085, -0.005484465509653091], [-0.0983426421880722, 0.055281877517700195, -0.1083565428853035, -0.05910174921154976, -0.07276870310306549, -0.09273255616426468, 0.10001561790704727, -0.047365594655275345, -0.03572407737374306, -0.09394620358943939], [-0.024291176348924637, 0.011454218067228794, 0.08535537868738174, 0.1035161241889, -0.088627889752388, -0.049414828419685364, 0.060016073286533356, -0.05332830920815468, -0.030445897951722145, -0.09078679233789444], [0.07716280966997147, -0.07010253518819809, -0.03302738815546036, 0.050489820539951324, -0.10692472010850906, -0.08815961331129074, 0.036268655210733414, -0.09257683902978897, -0.01709938235580921, -0.11900796741247177], [0.1660914570093155, -0.11466247588396072, -0.08748220652341843, 0.06725046038627625, 0.07438146322965622, -0.08133093267679214, 0.14709632098674774, -0.021356040611863136, 0.10380665212869644, -0.08233790099620819], [-0.040809545665979385, -0.006200635340064764, -0.0256742425262928, 0.06691522151231766, -0.13242578506469727, -0.03029870241880417, 0.021579105406999588, -0.045537788420915604, -0.011412530206143856, -0.06561645120382309], [-0.003390438621863723, 0.07499198615550995, -0.019820814952254295, 0.044873375445604324, -0.09393201023340225, -0.0051158033311367035, 0.010764786042273045, -0.10823656618595123, -0.04822723567485809, -0.10843353718519211], [-0.008482078090310097, -0.08155081421136856, 0.08266519755125046, 0.1100543886423111, -0.1378026306629181, 0.027699753642082214, -7.002524216659367e-05, -0.03737955912947655, -0.0011074005160480738, -0.069941446185112], [-0.028680169954895973, 0.017844201996922493, 0.04906485229730606, -0.009747580625116825, 0.047086771577596664, 0.02497495897114277, -0.08952326327562332, 0.07425510138273239, -0.07354898005723953, 0.013377583585679531], [-0.05945241451263428, 0.005056850146502256, 0.02824821136891842, 0.02829884923994541, -0.03696998953819275, 0.027821624651551247, -0.02220413275063038, 0.025716545060276985, -0.06964421272277832, -0.12588278949260712], [-0.06402946263551712, 0.04243447259068489, -0.1070837453007698, -0.09884040057659149, -0.06761005520820618, -0.050123609602451324, 0.03144100680947304, -0.09013751894235611, -0.0044689602218568325, -0.05393516272306442], [0.006794075481593609, 0.05372631177306175, -0.13129620254039764, 0.00899110734462738, -0.030611619353294373, -0.020481448620557785, 0.032459624111652374, -0.07654669880867004, 0.03504518046975136, 0.009384176693856716], [-0.07871752977371216, -0.09490389376878738, -0.03948848322033882, 0.041506167501211166, -0.1393328458070755, -0.04812220484018326, 0.02597973681986332, -0.12014240771532059, -0.02696695551276207, -0.03237717226147652], [-0.004908367991447449, -0.04958081617951393, -0.1754295974969864, 0.0505937896668911, -0.07104797661304474, -0.01237005926668644, 0.1204485297203064, -0.08181576430797577, 0.04221662878990173, 0.03283774480223656], [0.03403710573911667, 0.04650072380900383, -0.06668655574321747, -0.04231083765625954, 0.04539622738957405, -0.15552712976932526, -0.021048929542303085, -0.012433488853275776, -0.05934898555278778, -0.09780289232730865], [0.03507043048739433, -0.06023939326405525, 0.07737978547811508, 0.049783382564783096, -0.12928424775600433, -0.09043344110250473, -0.03475195914506912, -0.10842671245336533, 0.01440086867660284, -0.025947537273168564], [-0.10701459646224976, -0.11673994362354279, -0.07770217955112457, -0.047906555235385895, -0.15113455057144165, 0.05540524050593376, 0.08071137219667435, -0.03717167675495148, -0.03146561607718468, -0.024160057306289673], [-0.10479691624641418, -0.18274234235286713, -0.0707668885588646, 0.07865216583013535, -0.03573138266801834, 0.07938027381896973, 0.023405635729432106, -0.07993510365486145, -0.0753219947218895, -0.008207612670958042], [-0.0005802081432193518, 0.09034676104784012, 0.07006765156984329, -0.03050304390490055, -0.018837010487914085, 0.04167173430323601, -0.08520866930484772, 0.04758094996213913, -0.022631630301475525, 0.011709616519510746], [-0.007231984753161669, -0.03091837652027607, -0.004858882166445255, -0.045294422656297684, -0.04062871262431145, 0.02807416208088398, -0.0034993260633200407, 0.0034747913014143705, -0.07280903309583664, -0.10069826990365982], [-0.08134741336107254, -0.05504567548632622, -0.14409729838371277, -0.08520643413066864, -0.101667620241642, -0.062411170452833176, 0.14580081403255463, -0.026798373088240623, 0.01954258792102337, 0.030202282592654228], [-0.12782596051692963, -0.05237511917948723, -0.11028820276260376, -0.019881051033735275, -0.005503992550075054, -0.09419915080070496, 0.12778542935848236, -0.023851506412029266, -0.013268956914544106, -0.0034765361342579126], [-0.11665963381528854, -0.15645301342010498, -0.03761913254857063, -0.03986106812953949, -0.0819578692317009, -0.004896269645541906, 0.04688796028494835, -0.051447004079818726, -0.009288199245929718, -0.07508683949708939], [-0.08818301558494568, -0.08962641656398773, -0.1006728783249855, -0.009811872616410255, 0.017468871548771858, 0.0022406280040740967, 0.12745371460914612, -0.024621019139885902, -0.005676708184182644, -0.02200433798134327], [-0.10281866788864136, 0.0063788858242332935, -0.05561866983771324, 0.010482038371264935, 0.02620929479598999, -0.018666578456759453, 0.018081234768033028, -0.02217375673353672, 0.04849628359079361, 0.0029070740565657616], [-0.12140360474586487, -0.08610635995864868, -0.09304957091808319, 0.018292635679244995, -0.09132211655378342, -0.056225407868623734, 0.059297867119312286, -0.1105644702911377, -0.05308135598897934, 0.024141548201441765], [-0.1136937215924263, -0.13249115645885468, -0.16007423400878906, -0.05366896465420723, -0.033975519239902496, -0.033975984901189804, 0.11116385459899902, -0.0371275320649147, 0.00683184526860714, -0.00656435452401638], [-0.13096030056476593, -0.1350131630897522, -0.1261044591665268, -0.016853172332048416, 0.03569707274436951, 0.03955460712313652, -0.04424349591135979, -0.009577637538313866, 0.022792235016822815, -0.04253213852643967], [-0.01984109915792942, 0.058253105729818344, 0.12463884800672531, 0.055735163390636444, 0.03276706114411354, 0.11581721901893616, -0.06283172965049744, 0.07316656410694122, -0.08935254067182541, -0.06948880851268768], [0.00038328609662130475, -0.033836472779512405, 0.037376128137111664, -0.04485050216317177, -0.020524175837635994, 0.12264378368854523, -0.005853971932083368, 0.008298072963953018, -0.13543254137039185, -0.05632609501481056], [-0.05110646039247513, -0.05930209904909134, -0.054179802536964417, 0.001951337791979313, -0.06956395506858826, -0.11655108630657196, 0.06699536740779877, -0.09974052011966705, 0.042500175535678864, 0.001068391022272408], [-0.08511931449174881, -0.08155766874551773, -0.14200067520141602, 0.03174801543354988, 0.04157036170363426, -0.09785673022270203, 0.1207326129078865, -0.017242923378944397, 0.011525429785251617, 0.019357385113835335], [-0.12132591009140015, -0.13555718958377838, -0.1499650478363037, -0.046338070183992386, -0.03895393759012222, 0.015002359636127949, 0.11988311260938644, -0.07453340291976929, -0.03084077686071396, 0.031723909080028534], [-0.05660930275917053, -0.06175408139824867, -0.05918417125940323, 0.00871763750910759, -0.014092976227402687, 0.050496701151132584, 0.0021265894174575806, -0.038027044385671616, 0.06760166585445404, 0.0068425945937633514], [-0.047134317457675934, -0.12742175161838531, 0.025215327739715576, 0.09791786968708038, 0.04068157076835632, -0.08663088083267212, 0.020872076973319054, -0.09453155100345612, 0.001017691334709525, -0.0700165331363678], [-0.056263893842697144, -0.06729521602392197, -0.11460843682289124, -0.023842478170990944, 0.032312218099832535, 0.04587365314364433, 0.036691948771476746, -0.10747422277927399, 0.05844787508249283, -0.03645016998052597], [-0.09836035966873169, -0.06087980046868324, -0.15726204216480255, -0.050105057656764984, 0.035076916217803955, -0.004003108013421297, 0.1444360464811325, -0.0033873787615448236, 0.07762382924556732, 0.05078756809234619], [-0.12154656648635864, -0.08540171384811401, -0.04077199846506119, -0.07381554692983627, -0.039069950580596924, 0.043349333107471466, 0.11712971329689026, -0.08030188828706741, 0.10518842190504074, 0.028940163552761078], [0.00810466893017292, 0.005872380919754505, 0.05587143078446388, -0.052856240421533585, 0.025676917284727097, 0.1284538060426712, -0.028506577014923096, 0.06103099510073662, -0.11170008033514023, -0.10403882712125778], [-0.06687475740909576, 0.030386539176106453, -0.011486419476568699, -0.019608017057180405, 0.005954043008387089, 0.11130937933921814, 0.0631188377737999, 0.0732426866889, -0.06306127458810806, -0.08259018510580063], [0.06614206731319427, -0.019038310274481773, -0.09261535108089447, 0.047157395631074905, -0.04072155803442001, -0.08915452659130096, 0.08017036318778992, -0.0429006926715374, 0.06953312456607819, 0.05213756114244461], [-0.008301718160510063, -0.09009366482496262, -0.06509236991405487, -0.02956831268966198, 0.02602670155465603, -0.008137324824929237, 0.11027824878692627, -0.1070893183350563, 0.07698413729667664, 0.050406020134687424], [-0.050225384533405304, -0.09624747931957245, -0.11159878224134445, -0.014416164718568325, -0.04228183627128601, 0.022938299924135208, 0.08918661624193192, -0.028983263298869133, 0.08825511485338211, -4.899787745671347e-05], [0.06354916095733643, -0.07051651924848557, 0.0007937358459457755, -0.0033613755367696285, -0.006938823498785496, -0.09876502305269241, 0.08307790756225586, -0.0036919277627021074, 0.03342781960964203, 0.029905546456575394], [-0.09673667699098587, -0.11579413712024689, -0.022091520950198174, -0.10988011956214905, -0.05671948567032814, 0.13265232741832733, 0.07687147706747055, -0.020109914243221283, 0.07228492200374603, -0.012637119740247726], [-0.013765753246843815, -0.10339649021625519, -0.07877600938081741, -0.0361369363963604, -0.06140557676553726, -0.006792906671762466, 0.10432141274213791, -0.08427800983190536, 0.06125703454017639, -0.005977855529636145], [-0.0675438642501831, -0.015749476850032806, -0.02857193723320961, 0.0012082989560440183, -0.010744411498308182, -0.11050617694854736, 0.08988983184099197, -0.07617177069187164, 0.07357022911310196, 0.04569723829627037], [-0.01987338811159134, -0.06461375951766968, -0.04407680407166481, 0.03713240101933479, -0.053222015500068665, -0.0006412413204088807, 0.04734887555241585, -0.09845499694347382, 0.025593915954232216, 0.0007765481132082641], [-0.08164697140455246, 0.05586908012628555, 0.1060321107506752, -0.03668764606118202, 0.022371500730514526, 0.07819825410842896, 0.03250999376177788, 0.10163969546556473, -0.12677066028118134, -0.07177583873271942], [-0.08326341211795807, 0.05256614834070206, 0.03773723915219307, -0.033874962478876114, -0.01304114330559969, 0.0482136569917202, -0.06652311235666275, 0.09530280530452728, -0.11767592281103134, -0.053327932953834534], [0.017171399667859077, -0.0061368574388325214, 0.01684560626745224, 0.011015881784260273, 0.06706734001636505, -0.02730906568467617, -0.04496388137340546, -0.06490408629179001, 0.07910777628421783, 0.1008603423833847], [-0.003175562946125865, -0.05542416870594025, -0.031078185886144638, 0.02721284329891205, 0.002611869014799595, -0.06312620639801025, 0.07055775821208954, -0.07787784934043884, 0.10861169546842575, 0.06668227910995483], [0.037906669080257416, -0.09817486256361008, -0.04304611310362816, 0.03138694167137146, -0.03458555415272713, -0.048745203763246536, 0.03130727633833885, -0.1058964729309082, 0.08960898220539093, 0.0681709498167038], [0.009753421880304813, -0.04691280797123909, -0.002176485024392605, -0.035233885049819946, -0.012753180228173733, -0.007843084633350372, 0.03963083773851395, -0.006605333648622036, 0.041911784559488297, 0.016454538330435753], [0.02517058327794075, -0.04918796196579933, -0.006786196026951075, 0.03498489409685135, -0.040783870965242386, 0.018377603963017464, 0.021207738667726517, 0.02457193285226822, -0.0005822493694722652, 0.02257157862186432], [-0.004917204845696688, -0.0684872418642044, -0.039689574390649796, -0.028598954901099205, -0.04001181200146675, -0.03648274391889572, 0.08053778856992722, -0.03861009329557419, 0.059074677526950836, 0.08218953013420105], [0.01711314171552658, -0.01217891089618206, -0.07933805137872696, -0.014475524425506592, 0.019287798553705215, -0.0824054405093193, 0.04357347637414932, -0.06696007400751114, 0.07928986102342606, 0.1116786003112793], [-0.002191794803366065, -0.08621325343847275, -0.023757105693221092, -0.05509207025170326, 0.04869304969906807, -0.05524858832359314, 0.010464636608958244, -0.03467269614338875, 0.11486741900444031, 0.01673503965139389], [-0.03769361227750778, 0.0025994321331381798, 0.0053866831585764885, 0.029732150956988335, -0.04614439234137535, 0.06578806042671204, -0.05796916037797928, 0.08624579757452011, -0.07831252366304398, -0.10274618864059448], [-0.01251606922596693, 0.06749260425567627, 0.0013551735319197178, 0.02223881334066391, -0.01318284124135971, 0.08323521912097931, -0.038687583059072495, -0.007107546087354422, -0.15199080109596252, -0.10481098294258118], [-0.01384707260876894, -0.039450570940971375, -0.021678652614355087, 0.007918309420347214, 0.0364876389503479, -0.07753413915634155, 0.07764099538326263, -0.038868438452482224, 0.09234628826379776, 0.030230635777115822], [0.01525912806391716, -0.06002357229590416, -0.05188819766044617, -0.01355482917279005, -0.004098875448107719, -0.14115078747272491, -0.03676991909742355, -0.09852734953165054, 0.13466748595237732, 0.06268903613090515], [0.0015275106998160481, -0.013768386095762253, -0.07605841010808945, -0.03542163223028183, 0.014875599183142185, -0.13516287505626678, -0.03498876839876175, -0.02470485307276249, 0.11650014668703079, -0.00970377679914236], [0.08436805754899979, -0.06745857000350952, -0.09646943211555481, -0.03189508989453316, -0.005872317589819431, -0.03921627253293991, -0.02582583576440811, -0.10442788898944855, 0.13799205422401428, 0.04338667914271355], [0.01097739115357399, 0.011333256959915161, -0.004590481985360384, 0.0005274126888252795, -0.06307630985975266, -0.07480273395776749, -0.011137701570987701, 0.02153353951871395, -0.0027862885035574436, 0.02479199878871441], [0.003097466891631484, 0.005776209756731987, -0.03492963686585426, -0.0613081119954586, 0.051627811044454575, -0.08782151341438293, -0.007102177012711763, -0.02314120903611183, 0.10726974159479141, 0.02540290355682373], [-0.05916078761219978, -0.02158559300005436, -0.03512626513838768, 0.023432189598679543, 0.030019398778676987, -0.11977550387382507, 0.05785226449370384, -0.05021084100008011, 0.07193244993686676, 0.09567613154649734], [0.009566130116581917, -0.03464990854263306, -0.11957355588674545, 0.06403385102748871, -0.016772055998444557, -0.1309056133031845, 0.015146611258387566, -0.05351864919066429, 0.05362562835216522, 0.0015213488368317485], [-0.0607357881963253, 0.0830976739525795, 0.03574587032198906, 0.003356741974130273, 0.023417873308062553, 0.032026223838329315, -0.08196928352117538, 0.036191727966070175, -0.16013284027576447, -0.0867876261472702], [-0.06771446019411087, 0.010774368420243263, 0.046420544385910034, 0.05202857404947281, -0.009842506609857082, 0.09665748476982117, -0.009325085207819939, 0.03231281787157059, -0.13257300853729248, -0.026382865384221077], [0.058842048048973083, -0.08868321031332016, -0.014447505585849285, 0.022891895845532417, 0.00904268492013216, -0.14237502217292786, 0.046404942870140076, -0.0844046026468277, 0.14037422835826874, 0.08072365075349808], [0.0034573301672935486, 0.01492766197770834, -0.12268462777137756, -0.016664719209074974, -0.02381030283868313, -0.11949926614761353, -0.009584161452949047, -0.04378160089254379, 0.09462971240282059, 0.1123335063457489], [-0.09589900076389313, 0.04272760823369026, -0.008443932980298996, 0.058884065598249435, 0.07597868889570236, -0.09126430004835129, 0.04659011960029602, -0.04720678552985191, -0.016424445435404778, -0.028817467391490936], [-0.09153615683317184, 0.05973116680979729, -0.08710390329360962, 0.0982811450958252, -0.032691068947315216, -0.09805590659379959, 0.04897255823016167, -0.07506437599658966, 0.07561546564102173, -0.0048385486006736755], [0.10911677777767181, 0.01936863362789154, -0.028104785829782486, -0.04568967968225479, -0.03309764713048935, -0.07657600939273834, 0.010395736433565617, 0.01086948812007904, 0.030323516577482224, 0.07964488863945007], [0.006128524895757437, -0.03654982149600983, -0.09325496107339859, 0.04670247063040733, -0.017379239201545715, -0.07611946761608124, 0.0869801938533783, -0.0587620735168457, 0.10846836864948273, 0.08519871532917023], [-0.09321820735931396, 0.030052972957491875, -0.09807151556015015, 0.09329617768526077, 0.029817737638950348, -0.11259954422712326, -0.006415958981961012, -0.06221798434853554, -0.03162822499871254, 0.020356759428977966], [-0.059888504445552826, 0.10393758863210678, -0.11135684698820114, 0.07387184351682663, 0.05953415483236313, -0.09439059346914291, -0.10662733018398285, 0.019259367138147354, -0.049572963267564774, 0.032461777329444885], [0.06619776040315628, -0.005640472751110792, 0.057025499641895294, -0.10188300162553787, 0.01705922558903694, 0.10970859229564667, 0.008167997933924198, 0.017453335225582123, -0.11100611090660095, -0.024988709017634392], [-0.05143535137176514, 0.030514273792505264, 0.05067043751478195, -0.04171242564916611, -0.0030442806892096996, 0.13986463844776154, -0.08991070836782455, 0.06946513056755066, -0.1221068724989891, -0.07714170217514038], [0.0029926958959549665, 0.01232749130576849, 0.003746654372662306, 0.09631703048944473, 0.046468596905469894, -0.17301751673221588, 0.03601083904504776, -0.08488686382770538, 0.10337909311056137, 0.0718388631939888], [-0.10012104362249374, -0.006998883094638586, 0.0044264961034059525, 0.05482643097639084, 0.02202538773417473, -0.16244947910308838, 0.10940708965063095, -0.086557537317276, 0.005236417520791292, -0.01715470477938652], [-0.12711074948310852, -0.007904552854597569, -0.013998609036207199, 0.05785302072763443, -0.0006039254367351532, -0.06184667348861694, -0.004459260031580925, -0.004154173657298088, -0.03177808225154877, 0.009386813268065453], [-0.06410134583711624, -0.055543575435876846, 0.03546769917011261, 0.13557270169258118, 0.027026858180761337, -0.09616535902023315, -0.01037263497710228, 0.026785943657159805, 0.02583053521811962, 0.016361866146326065], [0.15661649405956268, 0.029513418674468994, -0.0926927775144577, -0.1430622935295105, 0.07300981134176254, -0.04133294150233269, 0.005184143781661987, 0.0060245380736887455, 0.11097056418657303, 0.09579704701900482], [-0.00192926824092865, -0.006210880354046822, -0.09150069206953049, 0.07048710435628891, 0.006210283376276493, -0.17236244678497314, 0.05460866168141365, -0.07754472643136978, -0.0015126095386222005, -0.007414181716740131], [-0.1092483326792717, 0.02376496233046055, 0.03568749874830246, 0.04975365474820137, -0.022240618243813515, -0.14084145426750183, -0.06041305139660835, -0.07160601019859314, -0.08320173621177673, 0.0013164239935576916], [0.02943744696676731, 0.010798459872603416, 0.03882928192615509, 0.04202505573630333, 0.12063231319189072, -0.029634883627295494, -0.1339053213596344, 0.08251120150089264, -0.11087097227573395, -0.0781666487455368], [-0.03288302570581436, 0.03771268203854561, 0.020693117752671242, -0.14089415967464447, 0.01118934340775013, 0.09174386411905289, -0.053392697125673294, 0.1495654284954071, -0.008811084553599358, -0.054884858429431915], [-0.05718106031417847, 0.0026163808070123196, 0.0008540551643818617, -0.07621632516384125, 0.035305723547935486, 0.056630730628967285, -0.08048602938652039, 0.06920448690652847, -0.13464465737342834, -0.07107102870941162], [-0.0033768056891858578, 0.006184689700603485, 0.03737197443842888, 0.04623377323150635, -0.03384850546717644, -0.09923671931028366, 0.08418832719326019, -0.06552838534116745, 0.03791488707065582, -0.018720543012022972], [-0.03871732950210571, -0.08390551805496216, 0.05363624170422554, 0.06840379536151886, -0.06526371091604233, -0.150661438703537, 0.0763360857963562, -0.058947738260030746, 0.07691288739442825, 0.0012276858324185014], [-0.05608892813324928, -0.08150018751621246, 0.08815479278564453, -0.0032571004703640938, -0.10533446073532104, -0.05750119686126709, 0.04061438515782356, 0.03869288042187691, -0.005954028107225895, -0.12840095162391663], [-0.06104101240634918, -0.0318249836564064, 0.03299285098910332, 0.03840110823512077, 0.056587234139442444, -0.007505370303988457, -0.05359004810452461, -0.04873374104499817, -0.00046696094796061516, -0.08497731387615204], [0.05229772627353668, -0.00812060758471489, -0.09067792445421219, -0.14765553176403046, 0.18558380007743835, 0.027258582413196564, -0.10018619149923325, 0.16204209625720978, 0.058564890176057816, 0.047098882496356964], [0.013671177439391613, -0.07744646072387695, 0.03906669840216637, 0.027542494237422943, -0.09531424939632416, -0.02905162051320076, 0.0036936290562152863, -0.049805980175733566, -0.06267105042934418, -0.005672940518707037], [-0.028648406267166138, -0.08637408167123795, 0.10703101009130478, 0.04655676335096359, 0.004596357233822346, -0.03787394240498543, 0.060486745089292526, -0.004730441141873598, 0.024878032505512238, -0.12748393416404724], [0.022169241681694984, -0.1342703402042389, 0.008751891553401947, 0.06334010511636734, 0.15898647904396057, 0.03426969796419144, -0.24109748005867004, 0.1226569190621376, -0.0017299663741141558, -0.06992968171834946], [0.031434763222932816, 0.12030088901519775, -0.04889846220612526, -0.11187519133090973, 0.17990785837173462, 0.0977325364947319, -0.07560662180185318, 0.19535067677497864, -0.01740492321550846, 0.054251283407211304], [-0.06674572080373764, 0.055264122784137726, -0.06883824616670609, -0.09838952124118805, 0.10310188680887222, 0.032960761338472366, -0.005573710892349482, 0.0976981595158577, -0.12777401506900787, -0.07313467562198639], [-0.03771025314927101, -0.016751570627093315, 0.06029627472162247, 0.06834354996681213, -0.11237058788537979, -0.046212486922740936, 0.06105406582355499, -0.17454248666763306, -0.015162552706897259, -0.04272660240530968], [-0.021983906626701355, -0.10715232789516449, 0.08145147562026978, 0.01670018956065178, -0.11796373128890991, -0.029435785487294197, 0.020596403628587723, -0.1588166505098343, 0.03282428905367851, -0.05168461054563522], [-0.09298021346330643, -0.11660783737897873, -0.0013068311382085085, 0.06335695087909698, -0.02359539270401001, -0.04149005189538002, 0.028828054666519165, -0.09978066384792328, -0.022309226915240288, -0.03880580887198448], [-0.0023864787071943283, -0.0545489527285099, -0.052848655730485916, 0.04793933033943176, 1.5671044820919633e-05, -0.03678594157099724, -0.11214683949947357, -0.12317364662885666, 0.10236513614654541, -0.0008095395751297474], [-0.005792754702270031, 0.1950618177652359, -0.17602352797985077, -0.1184592992067337, 0.27493205666542053, -0.010212885215878487, -0.0005183118628337979, 0.18460430204868317, -0.03835967183113098, 0.0666671097278595], [-0.08012769371271133, -0.04883206635713577, 0.09938129782676697, -0.01769857108592987, -0.00946746300905943, -0.029214220121502876, -0.007222756743431091, -0.054072678089141846, -0.03940960764884949, -0.04176683723926544], [-0.011455006897449493, -0.07193067669868469, 0.00011095716035924852, 0.014255810528993607, -0.057123299688100815, -0.013891185633838177, -0.10397052019834518, -0.11952901631593704, -0.027485063299536705, 0.035580825060606], [0.0070620630867779255, -0.14243187010288239, 0.029762577265501022, 0.07781978696584702, 0.16668523848056793, 0.012455410324037075, -0.32152995467185974, 0.0017407870618626475, 0.14942005276679993, 0.14553368091583252], [0.1132875606417656, 0.12011630088090897, -0.0460272952914238, -0.11068539321422577, 0.044563449919223785, -0.06409748643636703, -0.03450782969594002, 0.11646422743797302, -0.039778415113687515, 0.04288230091333389], [0.06204715743660927, 0.10393837839365005, -0.013679278083145618, -0.12200973182916641, 0.09946432709693909, 0.04118690267205238, 0.09029699116945267, 0.058803848922252655, -0.15122337639331818, -0.0409061461687088], [-0.022049598395824432, -0.04244530200958252, 0.1018022671341896, 0.1299440711736679, -0.14049917459487915, -0.1220412403345108, 0.0029261093586683273, -0.17379766702651978, 0.06901681423187256, -0.03444351255893707], [-0.08027198165655136, -0.0750509575009346, 0.03988468647003174, 0.10201410204172134, -0.08861589431762695, -0.07599722594022751, -0.02251279726624489, -0.14514486491680145, 0.008745658211410046, -0.06679315119981766], [-0.021261965855956078, -0.11212292313575745, 0.01068264339119196, 0.08195147663354874, -0.12381268292665482, -0.09140990674495697, -0.07448223233222961, -0.013854279182851315, 0.05026279389858246, 0.041508618742227554], [0.04869909957051277, -0.09560327976942062, -0.009746766649186611, 0.02317703142762184, 0.007256718352437019, -0.12373066693544388, -0.05895719677209854, -0.02242645062506199, 0.17302876710891724, 0.12031103670597076], [0.09387218952178955, 0.13140688836574554, -0.11461977660655975, -0.04909045621752739, 0.349452942609787, -0.07222740352153778, 0.024541541934013367, 0.0374017059803009, 0.044664207845926285, -0.08060620725154877], [-0.058668430894613266, -0.055607423186302185, 0.10460870712995529, 0.05925009399652481, -0.01938987337052822, -0.02426043152809143, -0.05512412637472153, -0.09830361604690552, 0.005301994271576405, 0.09571539610624313], [0.0026225426699966192, -0.048949938267469406, 0.10877424478530884, 0.08635031431913376, -0.02070109359920025, -0.02878364734351635, -0.08134227991104126, -0.09271902590990067, 0.04604050889611244, 0.02218695543706417], [0.1267106682062149, -0.07929093390703201, 0.11659835278987885, 0.021191971376538277, 0.12214873731136322, -0.10868450254201889, -0.30962178111076355, 0.002975449664518237, 0.030488133430480957, 0.09835638105869293], [0.05940554291009903, -0.051931485533714294, 0.04856102168560028, -0.06960603594779968, 0.09110518544912338, -0.006738339550793171, -0.08370444178581238, 0.1458490490913391, -0.0739690437912941, -0.0028808668721467257], [0.13803885877132416, 0.010396623983979225, -0.025669367983937263, -0.0728466659784317, 0.05886303633451462, -0.1293427050113678, 0.07302087545394897, 0.09895477443933487, -0.09234985709190369, -0.053231239318847656], [-0.03821520134806633, -0.03036458231508732, 0.06338046491146088, 0.15404373407363892, -0.12433832138776779, -0.04040321335196495, -0.01027130801230669, -0.15751060843467712, -0.003962092101573944, -0.06329803168773651], [-0.014723807573318481, 0.02267874963581562, 0.0376453660428524, 0.06401590257883072, -0.03403114154934883, -0.03622174263000488, -0.06553306430578232, -0.15585480630397797, 0.11490167677402496, -0.15658026933670044], [0.1022348701953888, 0.004198071081191301, 0.06502252072095871, 0.013041920028626919, -0.014734541065990925, -0.13401766121387482, 0.04933842644095421, -0.057518042623996735, 0.05404552444815636, -0.04113864153623581], [0.0449923537671566, -0.030142081901431084, -0.0487859733402729, 0.007838688790798187, 0.010842693969607353, -0.08009835332632065, 0.04948548972606659, -0.0745188295841217, 0.08464714139699936, -0.07938960194587708], [0.08443057537078857, -0.03541701287031174, -0.09308475255966187, -0.011279848404228687, 0.4009914696216583, -0.19325469434261322, 0.010736987926065922, 0.05418840050697327, 0.09595473110675812, -0.12720029056072235], [0.002471506129950285, -0.06657026708126068, 0.09541165828704834, 0.022155724465847015, -0.006234421394765377, -0.06335882842540741, -0.004749580752104521, -0.11511507630348206, 0.06235456466674805, 0.0559607669711113], [0.04297095164656639, 0.03654507175087929, 0.09172438830137253, 0.08444763720035553, 0.036134786903858185, -0.08197574317455292, -0.026439251378178596, -0.13429445028305054, 0.08977747708559036, -0.07273760437965393], [0.047464385628700256, -0.00039992723031900823, 0.05856020748615265, -0.015245737507939339, 0.09767163544893265, -0.04059522971510887, -0.18796926736831665, 0.032708540558815, 0.05694970488548279, 0.003969990182667971], [0.06710600852966309, 0.037771254777908325, -0.008677196688950062, -0.028661049902439117, 0.1092170923948288, -0.07567761838436127, -0.020119519904255867, 0.09049811959266663, 0.007133565843105316, -0.0032748491503298283], [0.15506190061569214, 0.07828892022371292, -0.01748124323785305, -0.060901839286088943, 0.11750249564647675, -0.15016740560531616, 0.06680344045162201, 0.019350634887814522, -0.07382646948099136, -0.036097921431064606], [0.03759794682264328, 0.055024921894073486, -0.003377547487616539, 0.06440240144729614, -0.022035665810108185, -0.022717218846082687, 0.06884551793336868, -0.16107144951820374, 0.11032610386610031, -0.1411585509777069], [0.03918638452887535, 0.051687322556972504, -0.1012408584356308, -0.05178412050008774, 0.019767029210925102, -0.032791867852211, 0.08187124878168106, -0.11288449913263321, 0.05553435534238815, -0.1622343361377716], [0.015269896015524864, -0.033346183598041534, 0.05053459480404854, -0.0055896928533911705, 0.04465540871024132, -0.05190122872591019, 0.09120676666498184, -0.08341608941555023, 0.026003176346421242, -0.02079964242875576], [0.07260742783546448, -0.01258434634655714, -0.12081965059041977, -0.0653170719742775, 0.04998444393277168, 0.023209819570183754, 0.08303219825029373, -0.14440682530403137, 0.005310479085892439, -0.04495840519666672], [0.11593493819236755, 0.04038902372121811, -0.02544041909277439, -0.05151911452412605, 0.3419032096862793, -0.16265903413295746, -0.023398788645863533, 0.031485315412282944, 0.1218818724155426, -0.09295706450939178], [0.048384666442871094, -0.03293100744485855, 0.040780503302812576, 0.01561775803565979, -0.058143533766269684, 0.006446660030633211, -0.038792673498392105, -0.09439114481210709, 0.09382490813732147, -0.11283052712678909], [0.05225842073559761, -0.004882130306214094, 0.012328911572694778, 0.018671249970793724, -0.03954964131116867, -0.015437358990311623, -0.002092767274007201, -0.12086942791938782, 0.09817249327898026, -0.1248008981347084], [0.06613081693649292, -0.06670323014259338, 0.07444703578948975, -0.016379915177822113, 0.006686522159725428, -0.019535792991518974, -0.07637869566679001, -0.1366848349571228, 0.02970402128994465, -0.014425806701183319], [0.09278082102537155, 0.09430021792650223, -0.02081192098557949, -0.04471759870648384, 0.11069680005311966, -0.04741254821419716, 0.05106207728385925, 0.07332968711853027, 0.01919364184141159, 0.010180235840380192], [0.004717550706118345, 0.13054172694683075, -0.03574027121067047, -0.1473337709903717, 0.049004800617694855, -0.16936349868774414, 0.07623250037431717, 0.07532280683517456, -0.010966993868350983, -0.017197437584400177], [-0.06424937397241592, -0.008082627318799496, -0.05668777972459793, -0.00020532330381684005, -0.044455140829086304, 0.05776389688253403, 0.011511269956827164, -0.12083159387111664, -0.003921395633369684, -0.06837325543165207], [-0.00841229036450386, -0.05310065671801567, -0.0668174996972084, -0.06405993551015854, 0.09838469326496124, 0.09091296046972275, 0.014295874163508415, -0.19521589577198029, 0.0714820846915245, -0.14914336800575256], [0.053728166967630386, 0.01161671057343483, 0.060152553021907806, -0.009405902586877346, 0.048376716673374176, 0.00852489098906517, 0.0411694161593914, -0.06111813709139824, 0.09936174750328064, -0.08636390417814255], [-0.021495310589671135, 0.01592302694916725, -0.16275224089622498, -0.14955119788646698, 0.14550334215164185, 0.04380575940012932, 0.22831109166145325, -0.11571437120437622, 0.060525793582201004, -0.025018608197569847], [0.054050713777542114, 0.11984109878540039, -0.021074747666716576, -0.13790780305862427, 0.287199467420578, -0.1602105349302292, -0.03813471645116806, -0.03149009495973587, 0.07922150939702988, -0.0381268709897995], [0.06668373197317123, -0.008825905621051788, -0.027913358062505722, 0.01849893480539322, 0.028860241174697876, 0.038450174033641815, 0.056008871644735336, -0.11226663738489151, 0.0842488557100296, -0.09523968398571014], [-0.030794229358434677, -0.027081700041890144, 0.013520007021725178, -0.00456869276240468, 0.08429542928934097, 0.03868480026721954, 0.08829769492149353, -0.13623248040676117, 0.0733204185962677, -0.09729674458503723], [0.053833507001399994, 0.018788332119584084, 0.09586667269468307, -0.02646700106561184, -0.042736127972602844, -0.014649317599833012, -0.0878508985042572, -0.18693111836910248, 0.06493976712226868, -0.00032255472615361214], [0.0896599069237709, 0.07029828429222107, 0.10816431790590286, 0.02244507521390915, 0.041524115949869156, -0.04980647563934326, -0.02571795880794525, 0.03682754933834076, 0.02304445020854473, 0.053505755960941315], [0.06812734156847, 0.044323064386844635, 0.1337319016456604, -0.08210978657007217, -0.014253679662942886, 0.02093390002846718, 0.0241483636200428, 0.03097601793706417, -0.04857116565108299, -0.06518800556659698], [-0.0732642188668251, -0.0925147756934166, -0.13740314543247223, -0.06852111965417862, 0.0038676660042256117, 0.07943300157785416, 0.09368810057640076, -0.10884581506252289, 0.033995065838098526, -0.13310454785823822], [-0.06484945863485336, -0.025971682742238045, -0.10052809119224548, -0.08660810440778732, 0.08751055598258972, 0.06924917548894882, 0.12157628685235977, -0.19036471843719482, 0.05627434700727463, -0.023228051140904427], [0.04851080849766731, 0.005254641640931368, 0.015501363202929497, 0.011252889409661293, 0.05506749823689461, 0.016918553039431572, 0.11926262825727463, -0.15610453486442566, 0.024610331282019615, -0.027860190719366074], [-0.08968925476074219, 0.11561868339776993, -0.12582407891750336, -0.15277503430843353, 0.03423585370182991, 0.09672877192497253, 0.19253557920455933, -0.1335935890674591, 0.01677299477159977, -0.07886431366205215], [0.09706002473831177, 0.06394406408071518, 0.05117564648389816, -0.014179373160004616, 0.08124247938394547, -0.13015949726104736, -0.04733777046203613, -0.027156461030244827, 0.10212741047143936, 0.08187287300825119], [0.04367272928357124, -0.03709668666124344, -0.014368293806910515, -0.06227666884660721, 0.05004354566335678, 0.0034537764731794596, 0.034674908965826035, -0.19294346868991852, -0.004617856349796057, -0.003847031155601144], [0.035149700939655304, 0.03978896886110306, -0.13226495683193207, -0.0478639230132103, 0.03523312881588936, 0.04906177148222923, 0.09561062604188919, -0.20476992428302765, 0.02231420762836933, -0.03222822770476341], [-0.05366702750325203, 0.04186955466866493, 0.058378640562295914, -0.013068635016679764, 0.028789730742573738, -0.043967101722955704, -0.011829545721411705, -0.17372195422649384, 0.10206497460603714, -0.034505683928728104], [0.11692523211240768, 0.11050865799188614, 0.148126021027565, 0.07711154222488403, -0.04200746491551399, -0.06314537674188614, -0.02177518606185913, 0.10062822699546814, 0.00583623768761754, -0.006320909596979618], [0.04525772109627724, 0.06922893226146698, 0.040396444499492645, -0.026136837899684906, -0.05558406561613083, 0.008663596585392952, -0.07511241734027863, -0.03511802852153778, 0.004236273467540741, -0.05663707107305527], [-0.05230453982949257, -0.02040858194231987, -0.145913764834404, -0.04602165147662163, 0.054603688418865204, 0.03027266636490822, 0.10443347692489624, -0.13901956379413605, 0.024129508063197136, -0.01648159697651863], [-0.08890505880117416, 0.023400278761982918, -0.06876691430807114, -0.12731130421161652, 0.05392411723732948, 0.06287131458520889, 0.19650939106941223, -0.09013409912586212, 0.0643317773938179, -0.0990043580532074], [-0.06877940148115158, 0.05892033874988556, -0.06882898509502411, -0.0348655991256237, 0.010164798237383366, -0.01722000166773796, 0.1012505516409874, -0.16974866390228271, 0.03421325609087944, -0.0821884348988533], [-0.023943502455949783, -0.02163741923868656, -0.0728389099240303, -0.12705914676189423, 0.12310663610696793, 0.1649542897939682, 0.094537653028965, -0.17387175559997559, 0.020038727670907974, -0.053734637796878815], [-0.002014088910073042, 0.0878419354557991, -0.026432424783706665, 0.11462698876857758, 0.042324721813201904, -0.15583254396915436, -0.08800939470529556, -0.08787470310926437, 0.1814822256565094, 0.09538978338241577], [-0.016118954867124557, 0.022632557898759842, 0.01812097802758217, -0.10333525389432907, 0.0542653352022171, -0.02242461033165455, 0.07072030007839203, -0.16777697205543518, -0.03545309603214264, -0.0009894055547192693], [-0.1003483384847641, 0.013238824903964996, -0.10292976349592209, -0.1157037690281868, 0.09055010974407196, 0.03491663560271263, 0.12586602568626404, -0.10898921638727188, -0.10011350363492966, -0.07096143066883087], [-0.015659896656870842, 0.01542889978736639, -0.11819188296794891, -0.09078275412321091, 0.12575015425682068, 0.0982966423034668, 0.04087107256054878, -0.1656445860862732, -0.08266711980104446, -0.047881659120321274], [0.07722804695367813, 0.13867560029029846, 0.0679948627948761, 0.08499697595834732, -0.05015990883111954, -0.04629816487431526, -0.055816687643527985, 0.031773924827575684, -0.06813957542181015, -0.033354729413986206], [-0.04763511195778847, 0.031516749411821365, -0.009751788340508938, -0.05886862799525261, -0.045619163662195206, 0.008424724452197552, -0.022605130448937416, -0.046032365411520004, -0.09644018113613129, -0.12024204432964325], [-0.08884614706039429, -0.088215172290802, -0.15483124554157257, -0.142562136054039, 0.06722753494977951, 0.1222347617149353, 0.10659164935350418, -0.07930204272270203, -0.053807854652404785, 0.03047776222229004], [-0.012562901712954044, 0.006261532660573721, -0.05805468186736107, -0.08493375033140182, 0.10064378380775452, 0.10186165571212769, 0.03711593523621559, -0.13021230697631836, 0.005133414175361395, 0.01192556507885456], [-0.0916580930352211, -0.0566214993596077, -0.00882410816848278, -0.090664803981781, 0.12211182713508606, 0.10855569690465927, 0.03836822882294655, -0.12997828423976898, -0.08765558898448944, -0.01243664138019085], [0.023678280413150787, -0.08437059074640274, -0.04585869982838631, 0.01400909572839737, 0.07981222122907639, 0.1408141702413559, 0.08548884093761444, -0.12292025983333588, -0.012829444371163845, -0.02049863710999489], [0.0634436160326004, 0.03113258071243763, 0.07455211877822876, 0.10240495204925537, 0.08055572956800461, -0.055185385048389435, -0.030739175155758858, -0.15709950029850006, 0.07544973492622375, -0.039593446999788284], [-0.1074376329779625, -0.03359377756714821, -0.0380125418305397, -0.1271788477897644, 0.13407094776630402, 0.039384182542562485, 0.07194797694683075, -0.0957951471209526, -0.03258246183395386, -0.08400706946849823], [-0.15670883655548096, -0.05975646153092384, -0.1902160346508026, -0.17707976698875427, 0.04196377843618393, 0.05963670089840889, 0.10316091775894165, -0.07862168550491333, -0.02066025696694851, -0.0056465137749910355], [-0.08066234737634659, -0.03207460418343544, -0.17699940502643585, -0.07503443956375122, 0.09551350027322769, 0.08137951046228409, 0.06900426745414734, -0.022441579028964043, -0.0401473231613636, -0.06148360297083855], [-0.08433167636394501, 0.07592125982046127, -0.012801961041986942, 0.035195134580135345, 0.025762539356946945, 0.04190108925104141, 0.00338788446970284, 0.025578953325748444, -0.063078872859478, -0.0877852663397789], [-0.0864000990986824, 0.031067615374922752, 0.06339167058467865, -0.003207508008927107, -0.03509117290377617, 0.1226932629942894, -0.014230037108063698, -0.012072637677192688, -0.08878295123577118, -0.1311824470758438], [-0.04114982858300209, -0.061690278351306915, -0.04547105357050896, -0.031307145953178406, 0.010501832701265812, 0.05818352848291397, 0.0517716147005558, -0.0018221574136987329, 0.05025942623615265, 0.10201779007911682], [-0.07501702010631561, -0.017901921644806862, -0.15645819902420044, -0.01905996724963188, -0.016628004610538483, -0.017816685140132904, 0.09549222141504288, -0.036919232457876205, 0.09396528452634811, 0.045344915241003036], [-0.020383046939969063, -0.07679954171180725, -0.07468921691179276, -0.03562075272202492, 0.03984455019235611, -0.010227079503238201, 0.1269090175628662, -0.08661658316850662, -0.003394810948520899, 0.006413687486201525], [0.014174421317875385, -0.0637897253036499, -0.10408250242471695, -0.06185460463166237, -0.00486389733850956, -0.07272342592477798, 0.02293841354548931, -0.015020404011011124, 0.0555894710123539, 0.10377483069896698], [-0.13332535326480865, 0.0036748703569173813, -0.1027522087097168, 0.04633700102567673, 0.08271098136901855, 0.014360767789185047, 0.07648399472236633, -0.051077861338853836, -0.02173943631350994, -0.0012810127809643745], [-0.07492360472679138, -0.11421898007392883, -0.13915003836154938, -0.07974635064601898, 0.03976158797740936, 0.08542218804359436, 0.06320630759000778, -0.11797751486301422, 0.06476126611232758, 0.004247500095516443], [-0.0029530536849051714, -0.03584876284003258, -0.037970248609781265, -0.09808669984340668, 0.02450087107717991, 0.046147964894771576, -0.012621508911252022, -0.004326912108808756, 0.11480880528688431, 0.07428576797246933], [0.07192722707986832, -0.10835016518831253, -0.014532006345689297, -0.025181062519550323, 0.0037704140413552523, -0.03954043984413147, -0.011724023148417473, -0.0037531612906605005, 0.0659453347325325, 0.08442135155200958], [-0.07811573892831802, 0.03549882769584656, 0.057759471237659454, -0.029379090294241905, -0.016065070405602455, 0.05502358824014664, -0.024723386391997337, -0.015894809737801552, -0.11349811404943466, -0.029689250513911247], [-0.04300134256482124, 0.02564571239054203, 0.022090071812272072, 0.06418978422880173, -0.028138557448983192, 0.09060031920671463, -0.025301357731223106, 0.018115190789103508, -0.0499706044793129, -0.09390421211719513], [0.020392078906297684, -0.054602235555648804, -0.04159098118543625, 0.03996540233492851, 0.0222092866897583, -0.07466980069875717, 0.07527599483728409, -0.07111888378858566, 0.03886036202311516, 0.07753157615661621], [0.07479801774024963, -0.09807278215885162, -0.12280282378196716, 0.02114792913198471, 0.04726455733180046, -0.055928297340869904, -0.00037301480188034475, -0.06825771927833557, 0.14455778896808624, 0.07875736802816391], [0.058197129517793655, -0.002811702201142907, -0.0063493079505860806, 0.03496512398123741, 0.01561992522329092, -0.09529966861009598, 0.03920670226216316, -0.020495101809501648, 0.11812898516654968, -0.035209160298109055], [0.028171356767416, -0.09457186609506607, -0.05933433771133423, 0.06587307900190353, 0.05789860337972641, -0.10862786322832108, -0.05053422600030899, -0.0050866007804870605, 0.0705159455537796, 0.07442320883274078], [0.04330214112997055, -0.02619265206158161, 0.008344004862010479, 0.03293913975358009, 0.0116188433021307, 0.01106239203363657, -0.014996137470006943, -0.013234436511993408, 0.009219243191182613, 0.005065330769866705], [0.061373963952064514, -0.04291102662682533, -0.022438300773501396, 0.04214994236826897, 2.3387146939057857e-05, -0.07196792215108871, 0.027146052569150925, -0.07568392157554626, 0.13648033142089844, 0.05620913580060005], [-0.0144672691822052, 0.052463214844465256, -0.06095090135931969, 0.06602691113948822, -0.028142424300312996, -0.16475091874599457, 0.017515476793050766, 0.039034586399793625, 0.016345685347914696, 0.029078282415866852], [-0.007246228866279125, -0.04002152010798454, 0.01167819183319807, 0.09126032143831253, 0.01606622152030468, -0.14084270596504211, -0.02860465832054615, 0.014818580821156502, -0.013236607424914837, -0.06797622889280319], [-0.036976881325244904, 0.016365699470043182, -0.009083634242415428, 0.05621381103992462, -0.012745394371449947, 0.10537450015544891, -0.03051421232521534, 0.12329944968223572, -0.05641943961381912, -0.02796044386923313], [-0.011293170973658562, 0.03265143558382988, 0.07123756408691406, 0.033531635999679565, -0.062024250626564026, 0.14934931695461273, -0.00729737151414156, 0.10656799376010895, -0.123019739985466, -0.05130127817392349], [-0.0723792314529419, -0.028169572353363037, -0.006419849116355181, 0.11595042049884796, 0.06253286451101303, -0.08494144678115845, 0.05136263370513916, -0.06711865216493607, 0.027454832568764687, 0.057843126356601715], [-0.10806278884410858, 0.07110469788312912, -0.054285433143377304, 0.08228406310081482, -0.007299565244466066, -0.1357729732990265, -0.00498938700184226, 0.0076485187746584415, -0.04825630038976669, -0.05018437281250954], [-0.06372667104005814, -0.048214610666036606, -0.024761302396655083, 0.1218939870595932, 0.08251750469207764, -0.1452266424894333, -0.007963991723954678, -0.04563046619296074, -0.06870730221271515, -0.07543160766363144], [0.025607246905565262, 0.006582159083336592, -0.003355548717081547, 0.09944353252649307, 0.1176934465765953, -0.049698956310749054, -0.006650285329669714, -0.030978016555309296, -0.06158342584967613, -0.07053923606872559], [0.06973757594823837, -0.017273232340812683, -0.12016603350639343, -0.031109478324651718, -0.08252433687448502, -0.0331680029630661, -0.10995352268218994, 0.057148173451423645, 0.08714796602725983, 0.06230870634317398], [0.009847965091466904, -0.01882782392203808, 0.052650053054094315, 0.11012869328260422, 0.03497358411550522, -0.20745235681533813, -0.027920609340071678, -0.07239820808172226, 0.05805692821741104, -0.046895645558834076], [-0.014510717242956161, -0.02350841462612152, 0.08997175097465515, 0.13987906277179718, 0.10846144706010818, -0.18601666390895844, 0.009604517370462418, 0.049745768308639526, -0.02715202048420906, -0.10380303859710693], [0.0698288157582283, -0.12857139110565186, 0.013566724956035614, 0.07954248785972595, 0.03562168404459953, -0.11011292785406113, -0.1397860050201416, 0.12313113361597061, -0.11391428858041763, -0.09232291579246521], [-0.05073385685682297, 0.062590591609478, 0.11440231651067734, 0.00932095106691122, -0.018666265532374382, -0.012849249877035618, -0.05789221450686455, 0.02715376764535904, 0.003183780238032341, 0.01739567145705223], [-0.03009897470474243, 0.0448959544301033, -0.01920241490006447, -0.12428636103868484, 0.022088205441832542, 0.062225520610809326, -0.013434190303087234, 0.0009451463120058179, 0.03210779279470444, 0.056147608906030655], [-0.04309616610407829, 0.000982398632913828, 0.06968262791633606, 0.08997517079114914, 0.06481295078992844, -0.11602167785167694, -0.0487675778567791, -0.015750400722026825, -0.042873647063970566, -0.0030872405041009188], [-0.009825730696320534, -0.03824428468942642, 0.04655839130282402, 0.1324033886194229, 0.025744538754224777, -0.08837801218032837, -0.07398651540279388, 0.048242419958114624, -0.11632244288921356, -0.11408039182424545], [-0.10120033472776413, -0.07079107314348221, 0.03208807110786438, 0.08908680826425552, 0.03529535233974457, -0.0667242705821991, 0.049910396337509155, 0.061150647699832916, -0.14079314470291138, -0.0695057287812233], [0.000140313059091568, -0.12655611336231232, 0.027478933334350586, 0.03356856852769852, 0.0436217300593853, -0.032861240208148956, -0.04379991069436073, 0.10172170400619507, 0.03425954654812813, -0.06939807534217834], [0.02253021113574505, -0.04454534873366356, 0.007063732016831636, -0.03142596408724785, 0.14795517921447754, -0.07448131591081619, 0.05104783922433853, -0.10550104081630707, 0.07002168893814087, 0.026360871270298958], [0.004214463755488396, -0.0690169632434845, 0.08189602941274643, 0.042593952268362045, 0.04769735410809517, -0.12207022309303284, -0.07221722602844238, 0.04313630983233452, -0.0664658471941948, -0.051192205399274826], [-0.03587548807263374, -0.10957761108875275, -0.03385486453771591, 0.02140696905553341, 0.03258618339896202, -0.03368035703897476, -0.03593287989497185, 0.14214812219142914, -0.12161291390657425, -0.032602518796920776], [-0.1391739696264267, -0.11500769853591919, 0.03642680495977402, 0.05378606915473938, 0.03173702210187912, -0.06415443867444992, -0.1829383671283722, 0.24791397154331207, -0.09991998970508575, -0.03859648108482361], [0.006967312190681696, 0.031163569539785385, 0.08478432148694992, 0.07508841902017593, 0.0045804413966834545, -0.06719407439231873, -0.07431583851575851, 0.024903999641537666, -0.07768064737319946, -0.03401292860507965], [0.008600435219705105, 0.0723389983177185, 0.018297141417860985, -0.05385763943195343, 0.0759330540895462, 0.05862239748239517, -0.09670868515968323, -0.05410684645175934, -0.014666769653558731, -0.026238001883029938], [-0.110301174223423, -0.09608680754899979, -0.022924968972802162, 0.08321934193372726, 0.01211078092455864, -0.07206937670707703, -0.015529190190136433, -0.03502118960022926, -0.008944454602897167, -0.10229232162237167], [-0.015961548313498497, -0.06008481979370117, 0.07133422046899796, 0.09081876277923584, 0.03183519467711449, -0.11369261890649796, -0.036673177033662796, 0.011887161061167717, -0.023044075816869736, -0.06442292034626007], [-0.09764759242534637, -0.1004500463604927, 0.02133861929178238, 0.11149569600820541, -0.004823345225304365, -0.06408647447824478, -0.005360402166843414, 0.0859309732913971, 0.0067876907996833324, -0.1113126277923584], [-0.08662598580121994, -0.15161824226379395, 0.0003190637507941574, 0.08118785917758942, 0.09996150434017181, -0.021479088813066483, 0.006577880587428808, 0.14616113901138306, 0.0970386415719986, 0.0019691267516463995], [0.07270792871713638, 0.08076916635036469, 0.0356241911649704, 0.048436857759952545, 0.12084606289863586, -0.17607055604457855, 0.012104623951017857, -0.009563388302922249, -0.043752167373895645, -0.116615429520607], [-0.12240845710039139, -0.0660611167550087, 0.03427261486649513, 0.026042327284812927, 0.039351921528577805, -0.02060401253402233, 0.03515360876917839, 0.08702757209539413, -0.07204830646514893, -0.10945932567119598], [-0.08995030075311661, -0.08227106928825378, -0.04731229692697525, 0.05341074615716934, 0.045955028384923935, 0.016389716416597366, -0.08572817593812943, 0.09152275323867798, -0.049817174673080444, -0.08865328133106232], [-0.15125057101249695, -0.13950197398662567, 0.0041407630778849125, 0.08025646209716797, 0.0657852366566658, -0.111794114112854, -0.249297097325325, 0.12976785004138947, -0.03237295150756836, -0.03299807384610176], [-0.08127115666866302, 0.04696107655763626, 0.029894694685935974, 0.1658802479505539, 0.15377455949783325, -0.11982560902833939, -0.0701606497168541, -0.012350678443908691, -0.007364435121417046, -0.08599240332841873], [-0.008763948455452919, 0.07361414283514023, -0.04698607698082924, -0.020854150876402855, 0.2390957623720169, -0.051560040563344955, 0.0932072177529335, -0.029656371101737022, 0.010463102720677853, -0.13093501329421997], [-0.07071413844823837, -0.09269081801176071, 0.0400252565741539, 0.1202581450343132, -0.001573644345626235, -0.1005818247795105, -0.0719648152589798, -0.007177628111094236, -0.05270952358841896, -0.034442514181137085], [-0.1070089042186737, -0.15137247741222382, 0.024911822751164436, 0.11295964568853378, 0.019133049994707108, -0.051687855273485184, -0.12199336290359497, 0.026100195944309235, -0.0369015671312809, 0.05022804066538811], [-0.04865521192550659, -0.1752418428659439, 0.012751508504152298, 0.1327207237482071, 0.037348099052906036, -0.04908673092722893, -0.04147050529718399, 0.1348189115524292, -0.009787829592823982, -0.08965174108743668], [-0.007292836904525757, -0.18002763390541077, -0.008018775843083858, 0.010004562325775623, 0.03738819807767868, -0.08463374525308609, -0.0658126249909401, 0.10309560596942902, 0.0984799712896347, -0.0026490394957363605], [0.016096653416752815, 0.09241226315498352, -0.019059309735894203, 0.029674606397747993, 0.32444390654563904, -0.1367969661951065, -0.0037447670474648476, -0.019865984097123146, 0.011188498698174953, -0.22430336475372314], [-0.07439737766981125, -0.1490875482559204, -0.029367879033088684, 0.08534257858991623, 0.05584004148840904, -0.07645529508590698, -0.02380271814763546, 0.062488116323947906, -0.034791965037584305, -0.0073708053678274155], [-0.03240421414375305, -0.12858572602272034, -0.015886399894952774, 0.13354434072971344, 0.03091512620449066, 0.01621345244348049, -0.036797940731048584, 0.023139672353863716, 0.028522783890366554, -0.04113692790269852], [-0.08107499778270721, -0.09409981220960617, 0.09249795228242874, 0.2128872573375702, -0.10377958416938782, -0.18849188089370728, -0.25450581312179565, 0.11658114939928055, -0.09105077385902405, 0.10553500801324844], [-0.0911838635802269, -0.005837808363139629, 0.09553955495357513, 0.10081451386213303, 0.21134206652641296, -0.11195497214794159, -0.04970833286643028, 0.040724016726017, -0.00515599362552166, -0.10764680802822113], [0.026482094079256058, 0.10789303481578827, -0.035494860261678696, 0.00639807665720582, 0.4238970875740051, -0.017726024612784386, 0.08440274000167847, -0.009982318617403507, -0.059909410774707794, -0.1956704556941986], [-0.033958595246076584, -0.20503424108028412, 0.06537255644798279, 0.08258778601884842, -0.02644455060362816, -0.08267508447170258, -0.09550955146551132, -0.05218910053372383, 0.021715950220823288, 0.011113635264337063], [-0.03274954855442047, -0.1104823425412178, 0.07771864533424377, 0.09566416591405869, -0.02741408161818981, -0.03175193816423416, -0.08280494064092636, -0.04962975159287453, 0.06185560300946236, -0.020382070913910866], [-0.10623938590288162, -0.15345606207847595, -0.004706708714365959, 0.1012386754155159, 0.06633071601390839, -0.023508284240961075, -0.13412708044052124, 0.04625976085662842, 0.004465337842702866, -0.02965196967124939], [-0.07256264984607697, -0.17824102938175201, -0.11290089786052704, -0.053100310266017914, -0.05999499931931496, -0.0504067987203598, 0.13096937537193298, -0.03743003308773041, 0.17354297637939453, 0.19313347339630127], [-0.06369829922914505, -0.02151247300207615, 0.003605071920901537, 0.00973137840628624, 0.3633836507797241, -0.14388711750507355, -0.006672204472124577, -0.049683377146720886, -0.016229717060923576, -0.22874318063259125], [-0.03451799601316452, -0.098584845662117, -0.04236491397023201, 0.06285768002271652, -0.010056034661829472, -0.04074545204639435, -0.07790307700634003, 0.036037445068359375, 0.030602917075157166, -0.03595537319779396], [-0.014361396431922913, -0.18264004588127136, -0.05337020382285118, 0.09794143587350845, 0.0022883578203618526, -0.050720587372779846, -0.14875388145446777, -0.005831945221871138, 0.0416017584502697, 0.13298949599266052], [-0.022911526262760162, -0.3042775094509125, 0.05409029498696327, 0.16679954528808594, -0.3819446861743927, -0.14344388246536255, -0.23110844194889069, 0.09742575138807297, 0.04438352957367897, 0.270853191614151], [-0.09481840580701828, -0.09706887602806091, 0.06027019023895264, -0.0065273321233689785, 0.12630046904087067, -0.09547454118728638, -0.013698824681341648, -0.005650618579238653, -0.019129833206534386, -0.04575245454907417], [0.020488684996962547, 0.05531999468803406, -0.020622946321964264, -0.06512252986431122, 0.39257049560546875, -0.09001819789409637, 0.06709372997283936, -0.009007805958390236, -0.03978462517261505, -0.18123583495616913], [-0.02509264647960663, -0.13143262267112732, 0.013705401681363583, 0.10882776975631714, -0.0749356597661972, -0.059801626950502396, -0.09098080545663834, -0.078175388276577, 0.12789428234100342, -0.005856500938534737], [0.024129124358296394, -0.07501322776079178, 0.08360453695058823, 0.005225261673331261, -0.0329023115336895, -0.08720957487821579, 0.00746344868093729, -0.11942052841186523, 0.11709849536418915, 0.08981884270906448], [-0.02894350327551365, -0.15967676043510437, 0.03307044506072998, 0.04908369109034538, -0.06371783465147018, -0.007318372838199139, -0.061873193830251694, -0.06565273553133011, 0.15649327635765076, 0.12831443548202515], [-0.04502006992697716, -0.16326680779457092, -0.06123368442058563, -0.05265412479639053, -0.10019779950380325, -0.03458303213119507, 0.181203693151474, -0.042853619903326035, 0.08586686104536057, 0.19288353621959686], [0.015122084878385067, -0.06605343520641327, 0.020833052694797516, 0.04624352604150772, 0.2970695495605469, -0.12819981575012207, 0.02392856404185295, -0.010163427330553532, 0.007816962897777557, -0.21060800552368164], [-0.10096236318349838, -0.14122550189495087, 0.03129686787724495, 0.051362063735723495, -0.019681470468640327, -0.10085108131170273, -0.1095256507396698, -0.059450842440128326, 0.07959411293268204, 0.08575740456581116], [-0.07572360336780548, -0.1140558198094368, -0.024491973221302032, 0.06416488438844681, -0.0603925921022892, -0.0006901095039211214, -0.07008074969053268, -0.025545574724674225, 0.06630269438028336, 0.1892390102148056], [0.028180764988064766, -0.47508999705314636, 0.08518343418836594, -0.04476651921868324, -0.4827994704246521, -0.0826643779873848, -0.18108312785625458, 0.06852225959300995, 0.19297561049461365, 0.33042317628860474], [-0.0073159197345376015, -0.019901638850569725, -0.0012163692153990269, -0.06628008931875229, 0.14724896848201752, -0.05100904405117035, -0.0685662180185318, -0.024648968130350113, 0.00890097115188837, 0.006898526102304459], [0.08683367818593979, 0.24708516895771027, -0.1290157586336136, -0.08544743061065674, 0.4528496563434601, -0.06954135000705719, -0.01734219677746296, -0.04015786200761795, 0.05454698204994202, -0.1744895726442337], [-0.050517309457063675, -0.12107381224632263, -0.013367521576583385, 0.06385113298892975, -0.0742606520652771, -0.04409950599074364, -0.026631493121385574, -0.08600090444087982, 0.09515385329723358, 0.01941598206758499], [0.01644510217010975, -0.09250380098819733, -0.00190784374717623, 0.06612180173397064, -0.06415989995002747, 0.018315017223358154, -0.02690870873630047, -0.1402435153722763, 0.0602094829082489, 0.013632209040224552], [0.04769633337855339, -0.13067889213562012, -0.0011778688058257103, -0.037792086601257324, -0.021641554310917854, -0.04858691617846489, -0.10061921179294586, -0.04061650484800339, 0.08401025831699371, 0.08316448330879211], [0.049082376062870026, -0.13745741546154022, -0.14960874617099762, -0.20249201357364655, 0.05473057180643082, 0.07767115533351898, 0.15351225435733795, -0.045577522367239, 0.10954821109771729, 0.09182815253734589], [-0.013785302639007568, -0.02657141722738743, -0.039441853761672974, 0.011861853301525116, 0.22202590107917786, -0.08614914119243622, -0.05813118815422058, -0.09259158372879028, -0.011418509297072887, -0.03829997405409813], [0.02779204584658146, -0.17959418892860413, 0.05992633104324341, 0.07163158059120178, -0.030831750482320786, -0.03254098445177078, -0.09185797721147537, -0.04514259099960327, 0.0593637153506279, 0.14695942401885986], [0.05586041510105133, -0.1470252424478531, 0.028248731046915054, -0.04469526559114456, -0.0264783576130867, 0.02351432293653488, -0.08621280640363693, -0.09160271286964417, 0.07801386713981628, 0.13038823008537292], [0.09097304940223694, -0.36348095536231995, -0.04247712343931198, -0.11690939962863922, -0.3176567256450653, -0.030586931854486465, -0.10762445628643036, 0.15708602964878082, 0.06691011041402817, 0.2615768611431122], [0.007859287783503532, 0.0034458052832633257, 0.026151904836297035, -0.06483902037143707, 0.12572996318340302, -0.04895778000354767, -0.037559833377599716, 0.07310519367456436, 0.021604735404253006, -0.09658345580101013], [0.017993789166212082, 0.20342542231082916, -0.11913995444774628, -0.09689756482839584, 0.35040733218193054, -0.021356238052248955, -0.08945741504430771, -0.041563715785741806, 0.016468966379761696, -0.1235957220196724], [-0.03884780406951904, -0.11191659420728683, 0.03895287960767746, 0.006263884715735912, -0.013468172401189804, 0.04361094534397125, 0.017218537628650665, -0.09637095034122467, 0.12492801249027252, 0.009685147553682327], [-0.019457075744867325, -0.09082292020320892, -0.06007504463195801, -0.02585383877158165, -0.0192087534815073, 0.03734699264168739, -0.007600823417305946, -0.12726524472236633, 0.04073807969689369, 0.01481238566339016], [0.04023914784193039, -0.10016145557165146, -0.04847406968474388, -0.08132331818342209, 0.07432425767183304, 0.1234382838010788, -0.07878115773200989, -0.010094276629388332, 0.11801142245531082, 0.016867443919181824], [-0.057370007038116455, 0.034837327897548676, -0.34411129355430603, -0.2663465440273285, 0.23298931121826172, 0.16146618127822876, 0.13313612341880798, 0.06490480899810791, 0.07086841762065887, -0.07852733135223389], [-0.021510731428861618, 0.01173884142190218, -0.03143744170665741, -0.10680600255727768, 0.24056199193000793, -0.17525345087051392, -0.031323619186878204, -0.0129063930362463, 0.03032000921666622, -0.0018580055329948664], [-0.04049073904752731, -0.12375088781118393, 0.005260477773845196, -0.030087145045399666, 0.00025346290203742683, 0.11081144958734512, -0.08123522996902466, 0.0041521224193274975, 0.04239562898874283, 0.024350540712475777], [0.05780160427093506, -0.06261274963617325, -0.06448496133089066, -0.05125453323125839, -0.01001171488314867, 0.03241625428199768, -0.14204959571361542, -0.03336584195494652, 0.1276579201221466, -0.025327768176794052], [0.05113761126995087, -0.282286137342453, -0.04735775664448738, -0.05966852605342865, -0.18342405557632446, 0.17031656205654144, -0.06648268550634384, 0.13376402854919434, 0.12748481333255768, 0.116655133664608], [0.019162042066454887, -0.015028226189315319, 0.05032678321003914, -0.11072160303592682, 0.14575855433940887, -0.04009697958827019, -0.10640446096658707, 0.11425749957561493, -0.0028984977398067713, -0.039694249629974365], [0.08854924887418747, 0.08003824204206467, -0.009784359484910965, -0.030417656525969505, 0.20228543877601624, 0.00962173193693161, -0.15045739710330963, 0.06075700744986534, -0.013620077632367611, -0.023384032770991325], [-0.048140645027160645, 0.014704628847539425, 0.026760051026940346, -0.05628964304924011, 0.04011819139122963, 0.14180491864681244, -0.04316054284572601, -0.08456743508577347, 0.01974516548216343, -0.05109931156039238], [-0.06311382353305817, 0.02170449122786522, -0.10364023596048355, -0.09220047295093536, 0.09670412540435791, 0.07800726592540741, -0.0493290051817894, -0.0539972297847271, -0.0035311165265738964, -0.12449466437101364], [0.017466405406594276, -0.0008587596821598709, -0.07675698399543762, -0.037567127496004105, 0.0391756147146225, 0.06244683638215065, -0.10330138355493546, -0.07786067575216293, 0.09015752375125885, -0.0237752515822649], [-0.15550068020820618, 0.11895080655813217, -0.2730281352996826, -0.3432733416557312, 0.24887502193450928, 0.2980194091796875, -0.0026280744932591915, 0.08116593211889267, 0.062050797045230865, -0.17924807965755463], [0.05251419171690941, -0.14063651859760284, -0.0020592310465872288, -0.04552336037158966, 0.14076659083366394, -0.12037790566682816, -0.1366017758846283, 0.12725059688091278, 0.057762760668992996, 0.02143521048128605], [0.032370343804359436, -0.06427229195833206, -0.0012308210134506226, -0.02747083082795143, 0.006247206591069698, 0.07428176701068878, -0.09724755585193634, 0.010786483995616436, 0.07965856045484543, 0.04375281557440758], [-0.009310365654528141, -0.016009895130991936, -0.011162337847054005, 0.014706786721944809, 0.06658796221017838, 0.13483765721321106, -0.06594939529895782, 0.015991710126399994, 0.10399894416332245, 0.022367097437381744], [0.06249048933386803, -0.19896501302719116, -0.04478006437420845, -0.13199563324451447, -0.1648796945810318, 0.12925784289836884, -0.04827786237001419, 0.12429332733154297, 0.09076988697052002, 0.11870922148227692], [-0.06424248218536377, -0.03866565600037575, -0.03335234895348549, -0.027023132890462875, 0.05118126794695854, 0.04423297196626663, -0.0551174134016037, 0.07886791974306107, 0.07773634046316147, -0.02482743188738823], [0.001476742560043931, 0.02557258866727352, 0.03952693194150925, -0.04077524319291115, 0.1078086793422699, 0.019217150285840034, -0.09024012833833694, 0.0013010052498430014, 0.011368630453944206, -0.01543375477194786], [0.0262279212474823, 0.02445179596543312, -0.04034734144806862, -0.06995800882577896, 0.08143807202577591, 0.020189180970191956, 0.10322993248701096, -0.11344404518604279, 0.024425750598311424, -0.06845860183238983], [-0.06378147751092911, 0.025493226945400238, -0.06577848643064499, -0.031553175300359726, 0.08662883937358856, 0.09208852052688599, -0.03584391251206398, -0.09780280292034149, -0.02049289457499981, -0.11768632382154465], [-0.07013462483882904, -0.03225287050008774, -0.11016736924648285, -0.08353458344936371, 0.04928956925868988, 0.15107031166553497, -0.043599266558885574, -0.06031370908021927, 0.05058826133608818, 0.004280442371964455], [-0.10927042365074158, 0.06469418853521347, -0.29114365577697754, -0.3562086522579193, 0.1783120483160019, 0.2985927164554596, -0.07230094075202942, 0.004932693671435118, -0.06860046833753586, -0.23653000593185425], [0.05954086408019066, -0.10003863275051117, -0.010809656232595444, -0.02761848457157612, 0.06683732569217682, -0.025827812030911446, -0.07938360422849655, 0.14530007541179657, 0.04607660323381424, 0.14135314524173737], [-0.028987733647227287, 0.0280471071600914, -0.08806690573692322, -0.08045604825019836, 0.11355790495872498, 0.11743293702602386, -0.07377143204212189, -0.07693032175302505, 0.06743480265140533, -0.05588486045598984], [0.04632185027003288, -0.022800151258707047, -0.03727414831519127, -0.10595505684614182, 0.10326958447694778, 0.06990530341863632, -0.005874274298548698, -0.0739542543888092, 0.07386720925569534, -0.0812564417719841], [0.10588911920785904, -0.20549342036247253, -0.14391063153743744, -0.07479005306959152, -0.010263290256261826, 0.05717669799923897, -0.0320633128285408, -0.02084672451019287, 0.03418837860226631, -0.10401472449302673], [0.07773508876562119, 0.0001604437129572034, 0.1272161453962326, 0.01887945830821991, -0.1251596063375473, -0.0922526866197586, -0.08306535333395004, 0.11986379325389862, 0.08455751836299896, 0.08225341141223907], [0.08333901315927505, 0.00624119071289897, 0.12645000219345093, -0.045374322682619095, -0.0402182899415493, 0.01723603531718254, -0.12449849396944046, -0.009315542876720428, 0.02514464408159256, -0.004003850743174553], [-0.03128950670361519, -0.014381028711795807, -0.1469457745552063, -0.03387899324297905, 0.10789655148983002, 0.06356751173734665, 0.00591916311532259, -0.1600404679775238, 0.034347500652074814, -0.17332181334495544], [-0.0021907719783484936, -0.010323991067707539, -0.121388740837574, -0.1368188112974167, 0.10610859841108322, 0.08052218705415726, 0.06555070728063583, -0.14486508071422577, -0.01764010637998581, -0.09615864604711533], [0.03794388100504875, -0.11614734679460526, -0.05015607923269272, -0.16097553074359894, 0.06014977768063545, 0.0806305855512619, -0.07772419601678848, -0.06586578488349915, -0.01540337223559618, -0.08866481482982635], [-0.09440472722053528, -0.06573627889156342, -0.19771841168403625, -0.12073099613189697, 0.14328202605247498, 0.14953236281871796, 0.08027160912752151, -0.09176865965127945, 0.028289657086133957, -0.06190693750977516], [0.13011275231838226, -0.04020586237311363, 0.05076177418231964, -0.006629946641623974, -0.019502215087413788, -0.20242008566856384, -0.1126832515001297, 0.13903404772281647, 0.14775817096233368, 0.15058927237987518], [-0.01209611352533102, -0.034671589732170105, -0.04515701159834862, -0.06789213418960571, 0.07042329013347626, 0.06526295840740204, -0.023621119558811188, -0.03374804928898811, 0.0635947436094284, -0.13490118086338043], [-0.05378437414765358, -0.1270352303981781, -0.1867508888244629, -0.11174479871988297, 0.14978952705860138, 0.1256508082151413, 0.08622509241104126, -0.08371178805828094, -0.01648123376071453, -0.18188636004924774], [-0.10502009838819504, -0.11551197618246078, -0.15406714379787445, -0.08101487904787064, 0.1007024496793747, 0.10010451078414917, 0.011227206327021122, -0.09720629453659058, 0.022466449066996574, -0.13972190022468567], [-0.011510766111314297, 0.06116948649287224, 0.08496773988008499, 0.08238127082586288, 0.0007262435974553227, -0.013042285107076168, -0.003777908394113183, 0.09449558705091476, -0.08527871966362, -0.0703524649143219], [0.0245060995221138, 0.023440035060048103, 0.050824202597141266, -0.00983351469039917, 0.045653920620679855, 0.056888628751039505, -0.14586657285690308, -0.029831217601895332, -0.0333208292722702, -0.12972551584243774], [-0.15602242946624756, -0.10114704072475433, -0.08002374321222305, -0.03947445750236511, 0.06206832453608513, 0.1704288125038147, 0.13129623234272003, -0.09332141280174255, 0.00783967599272728, -0.03439106047153473], [-0.0787772610783577, -0.12898817658424377, -0.07714523375034332, -0.13704723119735718, 0.06203059107065201, 0.08131518959999084, 0.08437167853116989, -0.1343294382095337, 0.06944617629051208, -0.1009259968996048], [-0.14419060945510864, -0.1296130269765854, -0.09524350613355637, -0.0728163942694664, 0.03900020569562912, 0.1391211450099945, -0.008453992195427418, -0.15593883395195007, 0.05050012096762657, -0.12740635871887207], [-0.06865915656089783, -0.01519675925374031, -0.036681756377220154, -0.04056396335363388, 0.021866479888558388, 0.014959713444113731, -0.059959761798381805, -0.08191663771867752, 0.12619425356388092, 0.013894165866076946], [0.002617322839796543, -0.13034263253211975, -0.1289745420217514, -0.07909505069255829, 0.023849964141845703, 0.06859518587589264, -0.04837489128112793, -0.06976980715990067, 0.01813971810042858, -0.060388803482055664], [-0.10855471342802048, -0.16878792643547058, -0.14256690442562103, -0.036338090896606445, 0.07250650972127914, 0.11744468659162521, 0.05685131624341011, -0.12127266824245453, 0.02211427502334118, -0.10790445655584335], [-0.1783190667629242, -0.04843026027083397, -0.18488241732120514, -0.13100957870483398, 0.09108789265155792, 0.1392483413219452, 0.07749629765748978, -0.11833559721708298, 0.004505737219005823, -0.06302736699581146], [0.06690062582492828, -0.09783203154802322, -0.09602527320384979, 0.00804690271615982, -0.041399601846933365, -0.05630460008978844, -0.01006544753909111, 0.07791692763566971, 0.05468185618519783, 0.038662753999233246], [0.00011607336637098342, 0.09561698883771896, 0.044741105288267136, 0.04108908027410507, -0.037782203406095505, 0.07042130082845688, -0.06918260455131531, -0.028361480683088303, -0.15299955010414124, -0.07475929707288742], [-0.08265963196754456, 0.0181445125490427, 0.08890095353126526, -0.02171037718653679, -0.07830432802438736, 0.05034644529223442, -0.07269585877656937, -0.02975872904062271, -0.14375489950180054, -0.07894673943519592], [0.04470476135611534, -0.07920528203248978, -0.04228231683373451, -0.02410094626247883, 0.01372748427093029, -0.13887491822242737, -0.00953178945928812, 0.004911360330879688, 0.08636096119880676, 0.00669911690056324], [0.04031897708773613, -0.04395594075322151, -0.07444886863231659, 0.054626621305942535, 0.06216144189238548, -0.0759548768401146, -0.06219242885708809, 0.05487982556223869, 0.07703019678592682, 0.04581482335925102], [-0.04513466730713844, -0.026642663404345512, 0.004929142538458109, 0.07069825381040573, -0.055822208523750305, -0.1707739382982254, -0.013175591826438904, 0.08763859421014786, 0.072484590113163, 0.006249550264328718], [0.0495389848947525, -0.08405859023332596, 0.020229453220963478, 0.0363779291510582, -0.028054986149072647, -0.10265141725540161, 0.03600786253809929, 0.08704765886068344, 0.030552659183740616, 0.005571780260652304], [0.04426581412553787, 0.0009494535624980927, 0.010611088946461678, 0.041124988347291946, -0.06756666302680969, 0.0085715651512146, -0.03429417312145233, 0.024687007069587708, -0.029679402709007263, 0.10321050882339478], [0.04963838681578636, -0.009652310982346535, -0.013955184258520603, -0.05231563001871109, -0.013465686701238155, -0.11036623269319534, -0.039822474122047424, 0.09774927794933319, 0.04659145325422287, -0.04927785322070122], [0.023379184305667877, -0.027154356241226196, -0.07290615141391754, 0.09317144751548767, -0.04515093192458153, -0.12639977037906647, -0.05668431520462036, 0.0964670330286026, 0.016236569732427597, -0.00365359615534544], [0.00888380128890276, -0.06969273835420609, -0.08655320852994919, 0.05809616297483444, -0.08022557944059372, -0.17502151429653168, -0.033098261803388596, 0.24505512416362762, 0.024801991879940033, 0.004092092625796795], [-0.03671671450138092, 0.08638057857751846, 0.020582599565386772, 0.08425084501504898, -0.0663890540599823, 0.12390042841434479, -0.056639306247234344, -0.01944434829056263, -0.060796160250902176, -0.0334455706179142], [-0.04156172275543213, 0.017316652461886406, -0.0646776482462883, -0.0328763946890831, -0.09110357612371445, 0.21693219244480133, -0.0018889761995524168, 0.0037157186307013035, -0.09530477225780487, 0.04434617981314659], [-0.002498222980648279, -0.09817039221525192, 0.08940864354372025, 0.07165344804525375, 0.048876840621232986, -0.2235039919614792, 0.027715308591723442, 0.08073385804891586, -0.055882472544908524, -0.1313646137714386], [-0.062154822051525116, -0.03851855918765068, 0.029996180906891823, 0.09451924264431, 0.06643513590097427, -0.15297843515872955, 0.010448487475514412, 0.08492761105298996, -0.06925302743911743, -0.11150510609149933], [-0.0982673168182373, -0.05392644181847572, 0.04996075481176376, 0.09240429103374481, 0.06473870575428009, -0.1611028015613556, -0.10972311347723007, 0.09942931681871414, -0.041048314422369, -0.1293817162513733], [-0.04411950334906578, -0.05525293946266174, 0.05271105840802193, 0.12144431471824646, -0.05634215474128723, -0.21239294111728668, -0.03314846009016037, 0.04812847077846527, 0.04323093593120575, -0.08724917471408844], [0.08960787206888199, -0.060276105999946594, -0.13893398642539978, 0.0073617128655314445, -0.05029549449682236, 0.049232371151447296, -0.04960669204592705, 0.037581365555524826, 0.11373870074748993, 0.1793856918811798], [-0.056994929909706116, -0.10300734639167786, 0.04989108443260193, 0.0792236253619194, -0.0008516715606674552, -0.17935331165790558, -0.020401611924171448, 0.05381482094526291, -0.06785515695810318, -0.08697409927845001], [-0.12761805951595306, -0.11747752875089645, 0.08274666965007782, 0.09613420069217682, 0.07023182511329651, -0.22117391228675842, -0.09311473369598389, 0.07702627032995224, 0.02604466862976551, -0.09030050039291382], [-0.05220649763941765, -0.11428683996200562, 0.0948871523141861, 0.15021929144859314, -0.010358748026192188, -0.2182418555021286, -0.10505150258541107, 0.12859220802783966, -0.07760857790708542, 0.055796898901462555], [-0.08947630971670151, 0.013410914689302444, 0.1505390852689743, 0.13579368591308594, -0.14103074371814728, -0.01241085771471262, -0.12905707955360413, 0.11643936485052109, -0.16942709684371948, -0.043482713401317596], [0.02130773290991783, 0.11374861747026443, -0.0004641064442694187, 0.012418337166309357, -0.08814141154289246, -0.013300370424985886, 0.06464052945375443, -0.0171408262103796, 0.0005341012729331851, 0.07926321029663086], [-0.09789278358221054, -0.08049245923757553, -0.01746772602200508, 0.03379983827471733, -0.08296157419681549, -0.146037295460701, 0.010747136548161507, 0.10771116614341736, 0.010139388963580132, -0.1166459321975708], [-0.07756420224905014, -0.10633506625890732, -0.006891251541674137, 0.12197959423065186, -0.09103279560804367, -0.16936124861240387, -0.0061885579489171505, 0.11909584701061249, -0.09058023244142532, -0.10985202342271805], [-0.016748180612921715, 0.001022160635329783, 0.07273367047309875, 0.14004682004451752, -0.026650650426745415, -0.11908307671546936, 0.004520420916378498, 0.049705035984516144, -0.010959760285913944, -0.015749884769320488], [-0.029399337247014046, -0.11398334056138992, 0.038399819284677505, 0.1848423182964325, -0.060313183814287186, -0.19072625041007996, -0.056641820818185806, 0.010138074867427349, 0.02326466701924801, 0.05731229856610298], [0.004924412351101637, 0.024901023134589195, 0.06524835526943207, 0.07164476066827774, 0.03330396115779877, -0.1354060173034668, -0.0006649258430115879, -0.003672931110486388, -0.0028800617437809706, -0.014444838277995586], [-0.10669274628162384, -0.03766188025474548, 0.08166860789060593, 0.06693752110004425, -0.11025681346654892, -0.10986386239528656, -0.06717173010110855, 0.053252287209033966, 0.03441130369901657, -0.0725918710231781], [-0.03664610907435417, -0.056221749633550644, 0.0055787996388971806, 0.04685376584529877, -0.0798797532916069, -0.010744146071374416, -0.0015717148780822754, 0.023372260853648186, -0.010334241203963757, -0.04851919785141945], [-0.13558271527290344, 0.029633674770593643, 0.17635765671730042, 0.2131190001964569, -0.02476315200328827, -0.3580109477043152, -0.2491878718137741, 0.18202908337116241, -0.0538829043507576, -0.10418681055307388], [-0.09727473556995392, 0.06224238872528076, 0.20574995875358582, 0.21205787360668182, -0.04001954197883606, -0.14759507775306702, -0.06430793553590775, 0.061705395579338074, -0.145906001329422, -0.06322968751192093], [-0.010410395450890064, 0.06421151012182236, 0.09161429107189178, 0.039906855672597885, 0.13765664398670197, -0.10411626100540161, -0.06147066503763199, 0.04489398002624512, -0.09983964264392853, -0.0746942088007927], [-0.006032307166606188, -0.09966094046831131, -0.04533276706933975, 0.0838526263833046, -0.0195744801312685, -0.07127184420824051, -0.06247107312083244, 0.09609515964984894, -0.023196950554847717, -0.04967775195837021], [-0.02097451314330101, -0.09803596884012222, 0.054593950510025024, 0.0648474469780922, -0.0679611936211586, -0.060752954334020615, -0.060522716492414474, 0.07417254149913788, 0.0404297299683094, -0.03559347242116928], [-0.0015239266213029623, -0.06585434824228287, -0.011776573956012726, 0.06170259788632393, 0.028700733557343483, -0.09914718568325043, -0.012094896286725998, 0.09203560650348663, -0.01532529853284359, -0.04763730987906456], [-0.10340341180562973, -0.10738765448331833, 0.05805351585149765, 0.1656634360551834, -0.09839317202568054, -0.1903231143951416, 0.01880815252661705, -0.06979772448539734, 0.027421949431300163, 0.1406438946723938], [0.013980408199131489, 0.03530367091298103, 0.10740343481302261, 0.09908119589090347, 0.0883956253528595, -0.13012290000915527, 0.03874828293919563, 0.038985926657915115, -0.05663526803255081, -0.12337692826986313], [-0.03325552120804787, -0.07442178577184677, 0.07430777698755264, 0.045796122401952744, -0.040751926600933075, -0.06432980298995972, 0.0419551320374012, 0.09343130886554718, -0.00685351574793458, -0.09311694651842117], [0.013451116159558296, -0.15517911314964294, 0.02244698256254196, 0.005115426145493984, -0.05206850543618202, -0.04480382055044174, -0.020632429048419, 0.06113598868250847, -0.01847054250538349, 0.005206165369600058], [-0.16940177977085114, 0.013879337348043919, 0.16145499050617218, 0.2489692121744156, -0.09703906625509262, -0.2211652398109436, -0.2780315577983856, 0.1088140532374382, -0.028545286506414413, -0.1650194227695465], [-0.07462744414806366, -0.02697957679629326, 0.06481534242630005, 0.09097277373075485, 0.011045066639780998, -0.09442992508411407, -0.05923162400722504, 0.04172661527991295, -0.062180403620004654, -0.05706699937582016], [-0.10211813449859619, -0.01002232264727354, 0.04296184703707695, -0.06416421383619308, 0.2596231698989868, -0.087277851998806, 0.048474039882421494, 0.020210199058055878, 0.0027210391126573086, -0.09442075341939926], [-0.04109177365899086, -0.11962074041366577, 0.035855233669281006, 0.09085943549871445, -0.01841825619339943, -0.046831678599119186, -0.004822982475161552, 0.11573723703622818, 0.048820607364177704, -0.010962361469864845], [-0.013576465658843517, -0.08161338418722153, 0.07917305827140808, 0.12805511057376862, -0.012495161034166813, -0.06286819279193878, -0.014825524762272835, 0.06670930981636047, 0.045669492334127426, -0.029111849144101143], [-0.0675634890794754, -0.095613494515419, 0.048612769693136215, -0.03131606802344322, 0.007834511809051037, -0.07709099352359772, -0.05379690229892731, 0.09542518854141235, 0.03975870832800865, 0.040037281811237335], [-0.033362142741680145, -0.22568021714687347, 0.004904455505311489, 0.10328670591115952, -0.1679941862821579, -0.20970037579536438, 0.07484841346740723, -0.04101214185357094, 0.09149054437875748, 0.17480404675006866], [-0.03763967007398605, 0.05921485275030136, -0.016264354810118675, -0.014320001006126404, 0.2285003662109375, -0.14928139746189117, -0.0026671667583286762, 0.08997318148612976, -0.030021626502275467, -0.13605429232120514], [0.0027856803499162197, -0.03805882856249809, 0.07227572798728943, 0.04143853858113289, -0.015110109932720661, 0.025345411151647568, 0.01960495114326477, 0.0513259693980217, 0.06526168435811996, -0.0163563322275877], [-0.062108270823955536, -0.06543080508708954, 0.07059625536203384, -0.05364197865128517, 0.00783691555261612, 0.06785852462053299, -0.0010061635402962565, 0.021187517791986465, -0.020371174439787865, -0.023480329662561417], [-0.24584044516086578, -0.13269004225730896, 0.18839076161384583, 0.18560072779655457, -0.3310214877128601, -0.09169851988554001, -0.2895366847515106, -0.0010771292727440596, 0.13651463389396667, 0.14885812997817993], [-0.045998916029930115, -0.05484645813703537, 0.09882413595914841, -0.029055414721369743, -0.009499371983110905, -0.04352977126836777, -0.06425663828849792, 0.0320502333343029, 0.005589917302131653, 0.11872759461402893], [-0.01848617009818554, -0.03309496492147446, -0.03927304968237877, -0.11435043066740036, 0.31807199120521545, -0.03811987489461899, 0.13758206367492676, -0.08306729048490524, -0.05067192390561104, 0.035933416336774826], [-0.08674011379480362, -0.08126881718635559, 0.046112045645713806, 0.002541613532230258, -0.03983467072248459, -0.0002994579554069787, -0.1182965338230133, 0.04058351367712021, 0.022309452295303345, 0.030123980715870857], [-0.03815248981118202, -0.09638389945030212, -0.00917020346969366, 0.10827108472585678, -0.07842980325222015, 0.0025206897407770157, -0.1030726358294487, 