{"conv_1_1": {"kernel": [[[[0.1138727143406868, -3.339626709930599e-05, 0.05481486767530441, -0.16019275784492493, 0.044490110129117966, 0.08939852565526962, 0.11723797023296356, 0.13659846782684326, -0.0331675224006176, -0.09348496049642563]], [[0.07422900944948196, 0.00917217880487442, -0.0570216067135334, -0.10207585245370865, 0.051001325249671936, -0.02676563523709774, -0.023204971104860306, -0.019184358417987823, 0.032811544835567474, -0.03611762449145317]], [[0.12953872978687286, -0.08214830607175827, -0.05727704241871834, -0.16461195051670074, 0.1050025075674057, -0.20018845796585083, -0.053762126713991165, 0.06807667762041092, -0.005943508353084326, -0.002728091087192297]], [[-0.055119067430496216, -0.043762169778347015, 0.06997739523649216, -0.000510275480337441, 0.027693886309862137, -0.09164224565029144, 0.019604679197072983, -0.1481633335351944, -0.044323768466711044, 0.015062946826219559]], [[0.0906657874584198, 0.10159246623516083, 0.005118148867040873, -0.1834276169538498, 0.04176179692149162, 0.02904502861201763, 0.089863121509552, -0.11732533574104309, 0.021511567756533623, 0.06374843418598175]], [[-0.01881563290953636, -0.07091741263866425, -0.04850577935576439, -9.546804358251393e-05, 0.04039173573255539, 0.07602275907993317, -0.09232702851295471, -0.14780165255069733, -0.1605529487133026, 0.11085909605026245]], [[0.10855899751186371, -0.05417881906032562, 0.10868217796087265, 0.011310174129903316, -0.0007805067580193281, 0.07494251430034637, 0.045189134776592255, -0.03212931379675865, -0.09533665329217911, 0.024931911379098892]]], [[[0.09005053341388702, 0.040781520307064056, 0.0008371175499632955, -0.10843119770288467, -0.10773111879825592, -0.07007084786891937, 0.13055498898029327, 0.18625769019126892, -0.09387005120515823, -0.016565723344683647]], [[0.06481760740280151, -0.044954102486371994, 0.06824661046266556, -0.0692097470164299, -0.02148260921239853, -0.18806971609592438, 0.1726420372724533, -0.002438320778310299, -0.13188183307647705, -0.005319087766110897]], [[0.18093685805797577, 0.1162044033408165, 0.045825958251953125, -0.15681342780590057, 0.09461285918951035, -0.1186528131365776, 0.1895241141319275, 0.007392286788672209, -0.016721639782190323, 0.07777171581983566]], [[0.08781728148460388, 0.0069327522069215775, -0.0630815401673317, -0.2785305976867676, 0.004036476835608482, -0.026788802817463875, 0.10274872183799744, -0.010072825476527214, -0.16886600852012634, 0.11728066205978394]], [[0.11981038004159927, 0.047535937279462814, 0.06666457653045654, -0.28320616483688354, 0.13668280839920044, 0.018915003165602684, 0.18019254505634308, -0.2421250343322754, -0.19623558223247528, 0.1424063891172409]], [[-0.042222730815410614, 0.0094209099188447, 0.04621691629290581, -0.2316969931125641, -0.02141639031469822, 0.022968517616391182, 0.18048720061779022, -0.23588523268699646, -0.31185707449913025, 0.0367044135928154]], [[-0.0005387305282056332, 0.09409463405609131, 0.14444170892238617, -0.10797972232103348, 0.09323740005493164, -0.002768693957477808, -0.02170155942440033, -0.13257528841495514, -0.27532824873924255, 0.020154183730483055]]], [[[-0.001921607181429863, -0.007937336340546608, -0.03575363755226135, -0.024837035685777664, -0.08526547253131866, -0.11002131551504135, 0.11951875686645508, 0.09521418809890747, 0.018191512674093246, 0.09020214527845383]], [[0.01872764341533184, 0.12989991903305054, -0.006314858794212341, -0.07528363168239594, -0.041891466826200485, 0.1440434753894806, 0.08568951487541199, 0.1211632564663887, 0.08813387155532837, -0.03968307748436928]], [[0.10613439232110977, 0.07928527146577835, 0.059310585260391235, -0.2006150484085083, 0.05311903730034828, 0.19106698036193848, 0.07603812217712402, 0.14680074155330658, -0.011156112886965275, -0.017989015206694603]], [[0.14606040716171265, 0.07018876075744629, 0.19124484062194824, -0.1574997901916504, 0.1426616907119751, 0.2362852394580841, 0.16973266005516052, 0.020313959568738937, -0.04145142063498497, 0.02856486290693283]], [[-0.046811752021312714, -0.012397750280797482, 0.10077161341905594, -0.24302294850349426, 0.07891670614480972, 0.16005344688892365, 0.05593646317720413, -0.03095913864672184, -0.05584521219134331, 0.11298421025276184]], [[-0.009988651610910892, 0.11458791047334671, 0.11352893710136414, -0.1387258619070053, 0.03328065574169159, 0.09002764523029327, 0.16612234711647034, -0.0718284472823143, -0.10851272940635681, 0.12913694977760315]], [[0.05028938502073288, 0.029599402099847794, 0.104812853038311, -0.07850562781095505, 0.13222599029541016, 0.12130013853311539, 0.012885374017059803, -0.025682462379336357, -0.17900961637496948, 0.006380188278853893]]], [[[-0.09135163575410843, -0.011158041656017303, 0.0022246253211051226, -0.02873268909752369, -0.016303174197673798, 0.05099296197295189, -0.1788734346628189, 0.07942379266023636, -0.028263483196496964, 0.009607293643057346]], [[-0.11570964008569717, 0.1026231199502945, 0.23403511941432953, -0.07204651832580566, -0.0015999091556295753, 0.07642505317926407, -0.1131194531917572, 0.2021009922027588, 0.1353779435157776, 0.11471866071224213]], [[0.059241004288196564, 0.19663922488689423, 0.23795443773269653, -0.14065568149089813, -0.09421823918819427, 0.24564684927463531, -0.08790343254804611, 0.2420593798160553, 0.18210674822330475, -0.03387156128883362]], [[0.1354552060365677, 0.13763052225112915, 0.13454900681972504, -0.09588932245969772, -0.07022657245397568, 0.023595625534653664, -0.11999025195837021, 0.2181851863861084, 0.23704485595226288, -0.08419012278318405]], [[-0.08154940605163574, 0.16275005042552948, 0.08215955644845963, 0.0972263440489769, 0.1589513123035431, 0.10277756303548813, -0.09731940180063248, 0.04940415546298027, 0.10771186649799347, 0.022265497595071793]], [[0.04527143016457558, -0.037090808153152466, 0.09741216152906418, 0.0759705975651741, 0.1276194006204605, -0.06377045810222626, -0.04640906676650047, 0.03564827889204025, 0.03709855675697327, -0.015419870615005493]], [[-0.12396756559610367, 0.02558472566306591, 0.017807774245738983, 0.04873459413647652, 0.012653500773012638, -0.05568104237318039, 0.09241757541894913, -0.0979597419500351, -0.004573800601065159, 0.009007105603814125]]], [[[-0.15504957735538483, 0.03865627199411392, 0.03122645430266857, 0.09048906713724136, -0.12373705953359604, 0.10260710120201111, -0.3434528708457947, 0.05210980027914047, -0.001640882808715105, 0.0349019430577755]], [[-0.10057684034109116, 0.08575533330440521, 0.08055366575717926, 0.045753248035907745, -0.20025844871997833, 0.17417167127132416, -0.28043487668037415, 0.1488569676876068, 0.11724406480789185, -0.13272619247436523]], [[-0.07953868061304092, 0.07942128926515579, -0.023605018854141235, -0.0304546095430851, -0.05982142314314842, -0.04488813877105713, -0.32924148440361023, 0.2729090452194214, 0.09944415837526321, -0.03888539969921112]], [[0.04102650284767151, 0.0843745544552803, 0.012713727541267872, 0.006359095685184002, 0.073819100856781, 0.10666291415691376, -0.1910499930381775, 0.15879303216934204, 0.2691742181777954, -0.07366973161697388]], [[-0.046504613012075424, 0.10563544929027557, -0.09124100208282471, 0.08340983092784882, 0.10664635896682739, -0.0867454782128334, -0.07396350800991058, 0.06184450909495354, 0.26269158720970154, -0.11172448098659515]], [[0.0554683618247509, -0.03938988968729973, -0.17350490391254425, 0.15007621049880981, 0.16591867804527283, -0.04948854446411133, -0.11821484565734863, 0.04598110914230347, 0.18860888481140137, -0.12988899648189545]], [[-0.12696048617362976, 0.08480468392372131, -0.05943930149078369, 0.0660126656293869, 0.16496968269348145, -0.16421274840831757, 0.014648540876805782, -0.1253136694431305, 0.08699975907802582, 0.051765985786914825]]], [[[-0.13442116975784302, 0.001933315652422607, -0.029449550434947014, 0.05737778916954994, -0.048304483294487, 0.09666843712329865, 0.004977243486791849, 0.07781757414340973, -0.15774071216583252, -0.04790227860212326]], [[-0.1680048555135727, -0.002589876065030694, 0.03625102341175079, 0.04745666682720184, -0.2046656757593155, -0.1218002438545227, -0.022378919646143913, 0.05393998324871063, 0.09572447836399078, -0.08972468227148056]], [[0.04525059461593628, 0.004075431730598211, -0.039616722613573074, 0.08706594258546829, -0.06374541670084, -0.029531454667448997, -0.023442449048161507, 0.08933253586292267, 0.0922069177031517, -0.14895105361938477]], [[0.03787035867571831, 0.05943449214100838, -0.28937098383903503, 0.031784579157829285, -0.13665495812892914, -0.009382622316479683, -0.11806097626686096, 0.1051136776804924, 0.05314725637435913, 0.029578547924757004]], [[-0.021604733541607857, 0.0471489280462265, -0.3149213492870331, 0.20858082175254822, 0.11267489939928055, -0.008871235884726048, -0.09089186042547226, -0.09891646355390549, 0.024785010144114494, -0.15141844749450684]], [[0.01817416585981846, -0.04394584521651268, -0.30000030994415283, 0.2174774408340454, 0.07603288441896439, 0.05305278301239014, -0.09005129337310791, -0.025561554357409477, -0.0076823728159070015, -0.028470652177929878]], [[-0.022621864452958107, 0.004089117981493473, -0.18465828895568848, 0.14792561531066895, 0.08643997460603714, -0.010471880435943604, -0.07976001501083374, -0.08378884941339493, -0.014527619816362858, 0.027870994061231613]]], [[[-0.025012945756316185, -0.0555715337395668, -0.06575573980808258, 0.060032933950424194, -0.11079774796962738, -0.11399289965629578, 0.0294679943472147, 0.055211178958415985, -0.15522725880146027, -0.03334098309278488]], [[-0.11046852171421051, 0.07950157672166824, 0.026995519176125526, -0.039829447865486145, -0.1934329867362976, -0.17108599841594696, 0.1984827220439911, -0.08325469493865967, -0.10899074375629425, 0.049350060522556305]], [[-0.10583608597517014, 0.10876340419054031, -0.25672513246536255, 0.12533032894134521, -0.07270383834838867, -0.25171905755996704, 0.011772197671234608, -0.0916382223367691, 0.07265947759151459, -0.004569082520902157]], [[0.032741159200668335, 0.09333671629428864, -0.33471915125846863, 0.1659684181213379, -0.1251840740442276, -0.09764929860830307, 0.09982674568891525, -0.1308041214942932, 0.06646064668893814, 0.08672253042459488]], [[0.05633707344532013, -0.014348305761814117, -0.2004660665988922, 0.16488017141819, 0.09422936290502548, 0.06543571501970291, 0.002939582336694002, -0.08810227364301682, 0.02413714863359928, 0.07240365445613861]], [[0.06232579052448273, -0.02939544804394245, -0.0614873431622982, 0.1090688556432724, 0.013485461473464966, 0.021751414984464645, 0.05380469560623169, 0.0833243727684021, -0.0938957929611206, -0.039816584438085556]], [[-0.04200655594468117, -0.07303286343812943, -0.01090790331363678, 0.1448395997285843, 0.02566440962255001, 0.028005344793200493, -0.07530365139245987, 0.06391303986310959, 0.019019804894924164, -0.04555363580584526]]]], "bias": [0.08423831313848495, 0.010545499622821808, 0.1682267040014267, 0.08553256839513779, 0.011967078782618046, 0.02987653575837612, 0.11385339498519897, -0.009045431390404701, 0.09171169996261597, 0.07386231422424316], "kernel_shape": [7, 7, 1, 10], "bias_shape": [10]}, "conv_1_2": {"kernel": [[[[-0.04194559156894684, -0.030269641429185867, -0.09886354207992554, 0.01886400580406189, -0.11933938413858414, -0.08770520240068436, 0.028758058324456215, -0.05506179854273796, -0.03695838525891304, 0.04385152459144592], [0.028163962066173553, -0.12337589263916016, -0.03391054645180702, -0.11123771220445633, -0.009765366092324257, -0.02251948043704033, -0.061706624925136566, -0.018352661281824112, -0.04786718636751175, -0.019358620047569275], [-0.22998549044132233, -0.10310238599777222, 0.006104653235524893, 0.03860780969262123, 0.018449360504746437, -0.21625341475009918, 0.08400633186101913, -0.03343060612678528, -0.11630662530660629, -0.03463451936841011], [0.09124048799276352, -0.1460123360157013, 0.0214804969727993, -0.2700768709182739, -0.06298976391553879, 0.03293175995349884, 0.11450383812189102, -0.02787942811846733, -0.05967330187559128, -0.01304839737713337], [0.020914558321237564, -0.003156954888254404, -0.016904881224036217, -0.01768402010202408, -0.043932318687438965, 0.026265230029821396, -0.030941525474190712, 0.01783648692071438, -0.04317999631166458, -0.05744067579507828], [0.07435362786054611, -0.05279606580734253, -0.07005691528320312, -0.13556091487407684, 0.1503680795431137, -0.12551607191562653, -0.03546097129583359, 0.007075383793562651, 0.14195393025875092, 0.10974705219268799], [-0.0841749981045723, 0.0862155333161354, 0.00020114349899813533, 0.057565003633499146, -0.062189750373363495, -0.06393014639616013, 0.044861454516649246, -0.025261826813220978, -0.07975894957780838, 0.07240331918001175], [-0.060712963342666626, -0.1380603164434433, -0.021143143996596336, -0.02940315380692482, 0.009981033392250538, -0.020056240260601044, -0.032743629068136215, -0.059936169534921646, -0.0807061418890953, -0.05053219571709633], [0.07946521043777466, -0.11019784212112427, -0.005750458221882582, 0.08499307930469513, 0.12040809541940689, 0.037292253226041794, 0.19579844176769257, -0.023231325671076775, -0.16530746221542358, -0.06833494454622269], [-0.021400537341833115, -0.05965223163366318, -0.08156151324510574, 0.06826194375753403, -0.04502498358488083, 0.0461224690079689, -0.040605757385492325, 0.006627844180911779, -0.035706777125597, 0.04631670564413071]], [[-0.010157674551010132, 0.019793055951595306, -0.05709797516465187, 0.06954188644886017, -0.0714607760310173, 0.008284211158752441, -0.018008412793278694, -0.018825814127922058, -0.056673891842365265, -0.061501506716012955], [0.09007062762975693, -0.1591310054063797, -0.01861225999891758, -0.11857762932777405, -0.014670620672404766, 0.07094583660364151, -0.05698468163609505, 0.03258931636810303, -0.039028484374284744, -0.05063968524336815], [-0.09587119519710541, -0.05792257934808731, -0.0006825067102909088, 0.18137405812740326, 0.036195579916238785, -0.15503013134002686, 0.014799731783568859, 0.013419556431472301, -0.2000986933708191, -0.12297718226909637], [0.1580200344324112, -0.04968950152397156, -0.07778707146644592, -0.2179752141237259, -0.17856162786483765, 0.00524300429970026, 0.0052089267410337925, 0.035878539085388184, -0.08481092751026154, 0.04061448946595192], [-0.07777435332536697, 0.09150651097297668, 0.02612927556037903, 0.09313838928937912, 0.0068567246198654175, 0.018701590597629547, -0.0718025416135788, -0.05966133624315262, -0.06973043084144592, -0.11648527532815933], [0.05840224400162697, -0.038133226335048676, 0.03404061868786812, 0.0062719909474253654, 0.07000952959060669, -0.030020760372281075, -0.05396377667784691, 0.007214972749352455, 0.14458590745925903, -0.02863945998251438], [-0.09584061056375504, 0.02051732689142227, 0.010625317692756653, 0.004475140478461981, -0.03484722971916199, 0.10249915719032288, 0.1490831822156906, 0.07223483920097351, -0.034767407923936844, -0.00519216526299715], [0.011696417815983295, -0.14480212330818176, -0.049757566303014755, -0.027987921610474586, 0.137762650847435, -0.09201053529977798, 0.02977387048304081, -0.04188213869929314, -0.031192045658826828, -0.12010931223630905], [-0.05431465059518814, -0.054182954132556915, -0.16129550337791443, 0.015708358958363533, 0.08071792870759964, -0.05045456439256668, 0.025470150634646416, -0.032279763370752335, -0.16162098944187164, 0.008982423692941666], [-0.07541792094707489, 0.028107792139053345, -0.03228820487856865, 0.09326868504285812, -0.049605634063482285, 0.06819072365760803, -0.05944012477993965, 0.06111221760511398, -0.04119952768087387, 0.009253660216927528]], [[-0.08037231862545013, 0.03372707590460777, 0.04814703017473221, 0.08533750474452972, -0.05166452005505562, 0.10599052906036377, -0.0698842853307724, 0.005982007831335068, 0.013607025146484375, -0.13496671617031097], [-0.013695236295461655, -0.07575339078903198, 0.06492235511541367, -0.0551607608795166, 0.05462167039513588, -0.04335962235927582, -0.14700813591480255, 0.03579552844166756, 0.006062772590667009, -0.04407716542482376], [0.09170377999544144, -0.1340632140636444, -0.094804547727108, 0.08987751603126526, 0.043640006333589554, 0.004478208255022764, -0.07167109847068787, 0.04264954477548599, -0.14955386519432068, -0.04347166419029236], [0.09282799065113068, -0.14538826048374176, -0.049136485904455185, -0.1021544337272644, -0.001415984588675201, -0.041922010481357574, 0.04914495721459389, 0.03669444099068642, -0.011305179446935654, -0.01650635339319706], [-0.1255941540002823, 0.07475364953279495, 0.026781147345900536, 0.02270421013236046, -0.053607333451509476, 0.07129441946744919, -0.013417360372841358, 0.033675987273454666, -0.013753230683505535, -0.032629210501909256], [0.056457340717315674, -0.02928713709115982, -0.038340937346220016, 0.09280630201101303, -0.02947195991873741, -0.07962668687105179, -0.11855751276016235, 0.026219120249152184, 0.09084706008434296, -0.03333445265889168], [-0.16025233268737793, -0.007831204682588577, -0.11925824731588364, 0.1369137018918991, -0.006123778410255909, 0.035806797444820404, 0.1690555065870285, 0.009776029735803604, -0.11567101627588272, 0.054207488894462585], [0.012139697559177876, -0.021704185754060745, -0.04046410322189331, 0.0927092432975769, 0.039180342108011246, -0.08329547196626663, -0.13789987564086914, 0.01823587529361248, -0.16703245043754578, -0.10757838934659958], [-0.11204950511455536, 0.025878865271806717, -0.12108436971902847, 0.028436925262212753, 0.13599486649036407, -0.016704004257917404, 0.02998194471001625, -0.1587904989719391, -0.0932040810585022, -0.08476602286100388], [0.027249302715063095, -0.022457292303442955, 0.07641328871250153, 0.03230910375714302, -0.019210394471883774, -0.06055629253387451, -0.014331123791635036, -0.0047967080026865005, -0.0655401200056076, 0.004397339187562466]], [[-0.13958962261676788, 0.03720816597342491, -0.009416697546839714, -0.0009524155175313354, -0.10084255039691925, 0.030472705140709877, 0.06681649386882782, 0.05117048695683479, -0.13283491134643555, -0.0397382415831089], [0.09203951060771942, 0.038513414561748505, 0.07574903219938278, -0.09067106992006302, -0.06814754754304886, -0.02819819189608097, -0.09541898965835571, -0.007881704717874527, 0.08439776301383972, 0.03046395070850849], [0.07403919845819473, -0.08315760642290115, -0.08622078597545624, 0.07433240860700607, -0.03168428689241409, 0.09558895230293274, 0.013057994656264782, 0.05946773663163185, -0.14780107140541077, -0.0744246393442154], [0.07969419658184052, -0.07397840917110443, 0.023928863927721977, -0.05372384563088417, -0.0216141939163208, 0.0804821327328682, -0.09569838643074036, 0.0944289043545723, -0.007167754229158163, -0.041794322431087494], [-0.11844771355390549, 0.03003576211631298, 0.06826434284448624, -0.01747007854282856, 0.06942366808652878, 0.08833809196949005, -0.09286470711231232, -0.03217296302318573, -0.10038663446903229, -0.14421789348125458], [0.07429207861423492, -0.13628405332565308, 0.02066021040081978, 0.055972952395677567, 0.00809444859623909, -0.060215309262275696, -0.05495182052254677, 0.06793032586574554, 0.12826624512672424, -0.005416571162641048], [-0.1412927657365799, 0.02086811140179634, -0.04978511109948158, 0.07053316384553909, -0.00727620255202055, 0.04485447332262993, 0.11621595919132233, -0.0866178348660469, -0.028146255761384964, 0.104497030377388], [-0.14884412288665771, -0.07324118167161942, -0.12214740365743637, 0.11951763927936554, 0.013947700150310993, 0.023245293647050858, -0.12443709373474121, 0.021350346505641937, -0.15076200664043427, -0.09047883003950119], [0.026492394506931305, 0.11434485763311386, -0.20226004719734192, 0.047188062220811844, 0.042511217296123505, -0.05856717377901077, -0.08302614837884903, -0.1543266773223877, -0.04991407319903374, -0.07381848990917206], [-0.060968246310949326, -0.025912897661328316, 0.06159677356481552, 0.04901602491736412, -0.023798678070306778, -0.018770620226860046, 0.05192210152745247, -0.06269347667694092, 0.032794710248708725, -0.03804868459701538]], [[-0.13879308104515076, 0.07896433770656586, 0.0387735590338707, -0.018628831952810287, -0.1091117411851883, -0.02964125946164131, 0.0707220733165741, -0.0024566997308284044, -0.1136583611369133, -0.06370522826910019], [-0.055717725306749344, 0.07417193800210953, -0.034647952765226364, -0.006976724602282047, -0.04848574101924896, 0.10171674937009811, -0.09091226011514664, -0.00255197798833251, -0.06419763714075089, -0.09785877913236618], [0.11348847299814224, -0.11153947561979294, -0.03681851550936699, 0.1283280849456787, 0.04556376114487648, 0.14100360870361328, 0.04662957414984703, 0.1706918478012085, -0.10223010927438736, -0.017979083582758904], [0.11241278052330017, -0.09826486557722092, 0.05534745007753372, 0.016986660659313202, 0.003591844579204917, -0.0706549733877182, 0.030642161145806313, 0.052386991679668427, -0.09119558334350586, -0.006936352699995041], [-0.18100985884666443, 0.10368568450212479, 0.01024449709802866, 0.11576105654239655, 0.07589955627918243, 0.09720383584499359, 0.007599218748509884, -0.02267303876578808, -0.028175536543130875, 0.0036626015789806843], [0.08092668652534485, -0.15631327033042908, 0.038865573704242706, 0.16245922446250916, 0.12241760641336441, 0.019698161631822586, -0.02509051188826561, 0.13700731098651886, 0.04436183720827103, -0.016992991790175438], [0.02535107173025608, 0.055730998516082764, -0.13775785267353058, 0.09921806305646896, 0.006937873084098101, -0.10264415293931961, 0.13357028365135193, -0.06562221050262451, -0.08521074801683426, 0.09873828291893005], [-0.0352666936814785, 0.03875705599784851, -0.07941628247499466, 0.07508744299411774, 0.11170129477977753, 0.09317607432603836, -0.026197699829936028, -0.026015443727374077, -0.04158461093902588, -0.12782861292362213], [-0.10060054063796997, -0.020595982670783997, -0.0679747462272644, 0.15516974031925201, -0.014119083993136883, 0.03128533437848091, 0.00675916625186801, -0.12001678347587585, -0.11466477811336517, -0.02042350172996521], [0.07020281255245209, 0.050623707473278046, 0.09766247123479843, 0.03802702575922012, -0.021812282502651215, -0.07658766210079193, -0.017914025112986565, 0.015444724820554256, 0.11533015966415405, 0.0448065847158432]], [[-0.011519764550030231, 0.06258644908666611, 0.05187234655022621, 0.06453834474086761, 0.005104048177599907, -0.09005940705537796, -0.06213902682065964, -0.012709042057394981, 0.0035356285516172647, -0.0735204815864563], [-0.07765078544616699, 0.03251924365758896, 0.10482847690582275, 0.05088634416460991, 0.020632930099964142, -0.011603360064327717, -0.007350964937359095, 0.043433208018541336, -0.003996244631707668, -0.10191521048545837], [0.08652761578559875, -0.018781423568725586, -0.11502964049577713, 0.20359814167022705, 0.11838895082473755, 0.1552383005619049, 0.17649707198143005, 0.03751160204410553, -0.07153437286615372, -0.03498416021466255], [-0.045592110604047775, -0.05326199531555176, 0.08089639246463776, 0.07666155695915222, 0.025826796889305115, 0.04567687585949898, 0.04972837492823601, 0.09631150215864182, -0.0930241197347641, 0.027114227414131165], [-0.14536502957344055, 0.025984017178416252, 0.05981136113405228, -0.03461425006389618, -0.04599408805370331, 0.058496758341789246, -0.13107064366340637, 0.07655032724142075, 0.010901568457484245, -0.024204431101679802], [-0.007822629995644093, -0.010567455552518368, 0.04953989014029503, 0.0671839639544487, 0.20396502315998077, -0.007637983188033104, 0.02641359157860279, 0.06060652807354927, -0.061209894716739655, -0.007271700073033571], [0.0743362233042717, 0.09551949799060822, -0.1862107366323471, 0.07731480896472931, -0.11083430051803589, -0.19206997752189636, 0.06346321105957031, -0.006331957411020994, 0.034012433141469955, 0.1830533891916275], [-0.15380945801734924, -0.022975657135248184, -0.07565607130527496, -0.027221523225307465, -0.03782306984066963, 0.040318563580513, -0.06457775086164474, -0.07126617431640625, -0.09739980846643448, -0.002336250152438879], [-0.014421544037759304, -0.06548230350017548, -0.04883492738008499, 0.08572010695934296, 0.10500680655241013, -0.013695759698748589, 0.021881813183426857, 0.04155249521136284, -0.08614980429410934, 0.05966244265437126], [0.005034922622144222, -0.0005378914065659046, 0.0940810963511467, 0.02935902774333954, 0.01237265020608902, -0.07614456862211227, -0.05744388699531555, 0.0803726464509964, 0.017329497262835503, 0.013913433998823166]], [[-0.03503754734992981, 0.07055504620075226, 0.07197418808937073, 0.07157028466463089, -0.011015010066330433, -0.02364175394177437, 0.03886360675096512, -0.008922548033297062, -0.09607689827680588, -0.054473597556352615], [-0.08268246054649353, -0.026500975713133812, 0.10043080151081085, 0.06043800339102745, -0.04574127122759819, -0.0042209019884467125, -0.10668274015188217, -0.02759520523250103, 0.02262161299586296, -0.03703104704618454], [0.028643997386097908, 0.03808067366480827, -0.0034233590122312307, 0.1512736976146698, 0.14940358698368073, 0.11145175993442535, 0.1826033592224121, 0.04639061912894249, -0.22724594175815582, -0.05095904320478439], [-0.015712035819888115, -0.16827146708965302, 0.009588083252310753, 0.07169254124164581, -0.07802584767341614, 0.05611926689743996, 0.11041688919067383, 0.0049219196662306786, -0.11551333218812943, 0.05109881982207298], [-0.0020198808051645756, 0.0657498762011528, -0.008550657890737057, 0.023015806451439857, -0.00035763336927630007, -0.04487915709614754, -0.030357180163264275, 0.09953547269105911, -0.09848937392234802, 0.018487798050045967], [0.12665832042694092, 0.028854554519057274, 0.12677739560604095, 0.15637460350990295, 0.18952834606170654, -0.028988970443606377, 0.11744216829538345, 0.0613534078001976, -0.11419321596622467, -0.05824213847517967], [0.07210308313369751, 0.014205662533640862, -0.06402833014726639, 0.13687525689601898, 0.029350994154810905, -0.11672847718000412, 0.04204779118299484, 0.004734470974653959, 0.11930558830499649, 0.12620128691196442], [-0.05346032604575157, 0.0898270532488823, -0.03751988336443901, -0.032978713512420654, 0.04321564361453056, 0.06295641511678696, -0.12046200037002563, -0.05939719080924988, -0.047644536942243576, -0.10590703785419464], [-0.10016459971666336, -0.07094857096672058, -0.1496324986219406, 0.18884925544261932, 0.08096949011087418, 0.09345456212759018, 0.03717416897416115, 0.08338232338428497, 0.0008671658579260111, -0.055306293070316315], [-0.024091821163892746, 0.06529214233160019, 0.02201789803802967, 0.1032220646739006, -0.038074903190135956, -0.027729257941246033, 0.09717509150505066, -0.005764721892774105, 0.05454592406749725, 0.04605928063392639]]], [[[-0.05659979581832886, 0.010269911028444767, 0.03470056131482124, -0.04328891262412071, 0.04850916191935539, 0.00995942298322916, 0.039922457188367844, 0.06926022469997406, -0.014204327017068863, 0.03397450968623161], [0.005130068864673376, -0.18669164180755615, -0.08685968816280365, -0.11830882728099823, -0.03866393119096756, -0.006683699786663055, 0.061088718473911285, -0.023686498403549194, 0.0026345746591687202, 0.02409394457936287], [-0.20428653061389923, -0.13801391422748566, -0.07804922014474869, 0.05325287953019142, -0.011853300034999847, -0.2470168024301529, 0.04783768206834793, -0.06573460251092911, -0.022121351212263107, 0.008709704503417015], [0.1123766303062439, -0.07031714171171188, -0.034803662449121475, -0.18920762836933136, -0.2283613532781601, 0.022718163207173347, -0.002676810836419463, -0.004118714015930891, -0.03912986442446709, 0.055200573056936264], [0.039400044828653336, -0.006727651692926884, -0.09669250249862671, -0.03409726172685623, -0.027809925377368927, -0.03165049850940704, -0.02155914157629013, 0.04456312581896782, 0.04123625159263611, -0.06667662411928177], [0.19446231424808502, -0.20364712178707123, -0.006100126542150974, -0.04953152313828468, -0.05666813626885414, -0.16155418753623962, -0.11135004460811615, -0.06290598213672638, 0.11519484221935272, 0.0826198160648346], [-0.11342284828424454, -0.09008954465389252, -0.03561306372284889, 0.12772241234779358, 0.12171315401792526, -0.00949877966195345, -0.05525212734937668, -0.0391743928194046, -0.09152910113334656, 0.04237587749958038], [0.06781738251447678, -0.09099359065294266, 0.021037260070443153, -0.03708421066403389, -0.03026420995593071, -0.0393383726477623, 0.10440003871917725, -0.009341021068394184, -0.05218237265944481, 0.018604304641485214], [0.049132440239191055, -0.25069814920425415, -0.07633260637521744, -0.21738867461681366, 0.1022086814045906, -0.018099956214427948, 0.20983298122882843, 0.06872427463531494, -0.07208626717329025, 0.06323928385972977], [-0.07539071142673492, 0.03823438659310341, -0.07409702986478806, 0.04712304845452309, 0.003634844673797488, 0.014726127497851849, 0.024444010108709335, 0.027210194617509842, -0.028834497556090355, -0.04988906905055046]], [[0.06807925552129745, 0.05152231454849243, 0.011871031485497952, -0.007163112983107567, 0.03612426295876503, -0.07464269548654556, -0.026534540578722954, -0.0447748638689518, -0.005511729046702385, -0.02988419495522976], [0.04828418418765068, -0.04965611547231674, -0.036263562738895416, -0.03505384549498558, 0.042458128184080124, 0.0453505776822567, 0.003350001759827137, 0.011317672207951546, 0.025971759110689163, 0.07434368878602982], [-0.25861284136772156, -0.012758830562233925, -0.026728756725788116, 0.1260591447353363, 0.12117405235767365, -0.1656377613544464, -0.09388146549463272, -0.036645807325839996, -0.12269314378499985, -0.10568517446517944], [0.1131989136338234, 0.04607320576906204, 0.04557444900274277, -0.2061573565006256, -0.18787881731987, 0.03199630603194237, 0.07307490706443787, -0.0618414506316185, 0.008272041566669941, 0.010305571369826794], [0.025623898953199387, 0.07581185549497604, -0.07257909327745438, 0.03884776309132576, -0.024440215900540352, -0.032039985060691833, -0.02096429094672203, -0.030285460874438286, 0.050242383033037186, -0.12723447382450104], [0.12271050363779068, -0.213192418217659, -0.03969410061836243, -0.029276162385940552, -0.1440230756998062, -0.17441295087337494, -0.17843957245349884, -0.03581341728568077, 0.15176229178905487, 0.13634367287158966], [-0.16245196759700775, 0.04033559933304787, 0.034125037491321564, 0.14231470227241516, 0.07266354560852051, 0.04061918705701828, 0.039364151656627655, -0.02997606061398983, -0.06622178852558136, 0.004453469533473253], [0.028609726577997208, -0.20043353736400604, -0.02793857268989086, -0.16445139050483704, 0.010007424280047417, -0.02855672501027584, -0.020670101046562195, 0.04361431673169136, -0.09906642884016037, 0.054904717952013016], [0.07539302855730057, -0.039046015590429306, -0.18490765988826752, -0.060113269835710526, 0.10632219165563583, -0.10202058404684067, 0.13788262009620667, 0.029877007007598877, -0.1365063488483429, 0.050065480172634125], [0.009881789796054363, -0.08362103253602982, 0.012217182666063309, -0.02628597989678383, -0.050227321684360504, -0.013789013959467411, -0.03895369917154312, -0.035597335547208786, -0.003989890217781067, -0.0401054248213768]], [[0.06757457554340363, 0.06143034249544144, -0.07983392477035522, -0.02890091948211193, -0.05235910415649414, -0.10026714205741882, 0.03297661617398262, -0.0025434826966375113, -0.06626991182565689, -0.12998250126838684], [-0.03596523031592369, -0.058176469057798386, 0.024551400914788246, -0.0042130607180297375, 0.05606410279870033, 0.02882324531674385, -0.10406476259231567, 0.07153632491827011, -0.036678165197372437, 0.02178836241364479], [-0.2018224596977234, 0.0012011706130579114, -0.09246039390563965, 0.14271004498004913, 0.1103081926703453, 0.003210032358765602, 0.04195422679185867, -0.07153201848268509, -0.1454421728849411, -0.15527886152267456], [0.051705412566661835, -0.031004084274172783, -0.00893026776611805, -0.10253100842237473, -0.18940001726150513, -0.03978746756911278, 0.05173935368657112, 0.08550075441598892, -0.09854701906442642, 0.08355475217103958], [0.0059522888623178005, 0.06838523596525192, 0.014170218259096146, 0.041130173951387405, -0.11748684197664261, -0.0027773419860750437, -0.017242761328816414, 0.019134702160954475, 0.03988870605826378, -0.0025297023821622133], [0.11471258848905563, -0.07688450813293457, -0.040880195796489716, -0.04748735576868057, -0.007339131087064743, -0.05244002491235733, -0.16369082033634186, 0.05421553924679756, 0.03565094619989395, 0.007317910902202129], [-0.06229666620492935, -0.0640764981508255, -0.050250109285116196, 0.14809797704219818, -0.006743537727743387, 0.019468551501631737, 0.1217040866613388, -0.09672641009092331, 0.010044612921774387, -0.08022752404212952], [0.04735893756151199, -0.09320283681154251, -0.06391192227602005, -0.07625387609004974, 0.05180949345231056, 0.08202949166297913, -0.06376025825738907, 0.04997337609529495, -0.06260450929403305, 0.0945647805929184], [-0.020466120913624763, 0.0687175989151001, -0.17467381060123444, -0.010031726211309433, -0.032083816826343536, -0.05706501752138138, -0.08019907772541046, -0.015535397455096245, -0.013756017200648785, 0.10687007755041122], [-0.009665155783295631, 0.021721921861171722, -0.015546690672636032, 0.011583846062421799, -0.0030191256664693356, -0.050221022218465805, 0.04953642934560776, -0.029795851558446884, 0.0005703341448679566, -0.05690458416938782]], [[-0.0413384847342968, 0.06757708638906479, -0.051590949296951294, 0.056831106543540955, 0.019724365323781967, -0.02636999636888504, 0.048930734395980835, -0.010737432166934013, 0.031610965728759766, -0.06350406259298325], [0.09037908166646957, -0.029992463067173958, 0.05409613996744156, -0.007641168776899576, -0.07854235172271729, 0.11772744357585907, -0.03009859472513199, 0.06458748131990433, -0.07699331641197205, -0.006012034136801958], [-0.1378002166748047, -0.09888874739408493, -0.11993564665317535, 0.04616457223892212, 0.07026393711566925, 0.22587622702121735, -0.06611686944961548, 0.05812219902873039, -0.10415730625391006, -0.15698310732841492], [-0.04961626976728439, -0.03945855051279068, -0.06950098276138306, -0.2617838978767395, -0.16818886995315552, 0.018815763294696808, 0.02439090609550476, 0.04122200608253479, -0.02045213058590889, 0.07373707741498947], [-0.15846039354801178, -0.052325498312711716, 0.08383998274803162, -0.024767324328422546, -0.10905611515045166, 0.02646041475236416, -0.036340340971946716, -0.05078839510679245, -0.0567479282617569, -0.058723799884319305], [0.03918955847620964, -0.109364815056324, -0.013845161534845829, 0.03811630234122276, -0.019129730761051178, 0.009685125201940536, -0.14542219042778015, 0.08355451375246048, 0.01042407751083374, 0.052424389868974686], [-0.07473496347665787, -0.07760288566350937, 0.01976536586880684, 0.17526546120643616, 0.0037450441159307957, -0.0707186833024025, 0.14615046977996826, -0.0984480157494545, -0.025184618309140205, -0.10898124426603317], [0.033279161900281906, -0.015004408545792103, -0.1378701776266098, -0.012652323581278324, 0.053111303597688675, 0.12961791455745697, -0.07863952219486237, 0.007056664675474167, 0.023429255932569504, 0.046343620866537094], [0.03260897845029831, 0.19733139872550964, -0.12076083570718765, -0.014186679385602474, 0.08841586858034134, 0.04990308731794357, -0.13033173978328705, -0.07477230578660965, -0.07750086486339569, 0.06979572772979736], [-0.016091087833046913, 0.06137543171644211, 0.049618352204561234, 0.09739125519990921, 0.056994903832674026, -0.017614610493183136, -0.03661129251122475, -0.028113851323723793, 0.0558188259601593, -0.016816016286611557]], [[-0.10638900101184845, -0.052000224590301514, 0.013517134822905064, 0.04724695160984993, -0.05419063940644264, -0.020048050209879875, -0.03885291889309883, -0.018821198493242264, -0.04801299050450325, -0.056920092552900314], [-0.00837289821356535, 0.086122065782547, -0.018904462456703186, -0.06910497695207596, -0.03551718592643738, 0.09031082689762115, -0.11531224101781845, 0.08589635789394379, -0.0294214878231287, -0.07929141074419022], [-0.1129351332783699, -0.04358058050274849, -0.18768174946308136, 0.08401326835155487, 0.06066324934363365, 0.1815299093723297, 0.02503920905292034, -0.04385220631957054, -0.07815031707286835, -0.024216214194893837], [-0.030230501666665077, -0.0878063514828682, 0.015893535688519478, -0.17317739129066467, -0.11481686681509018, -0.03406694903969765, -0.04692623019218445, 0.06169964745640755, -0.007145607378333807, 0.03244972229003906], [-0.16093511879444122, 0.0074851117096841335, 0.07385323196649551, 0.057173602283000946, -0.1006806418299675, 0.014906683936715126, -0.0978086069226265, -0.0683194249868393, -0.118962861597538, -0.044903017580509186], [0.035512421280145645, -0.10634693503379822, 0.10669761896133423, 0.05786372721195221, 0.16382013261318207, -0.035237718373537064, -0.08120443671941757, 0.08716117590665817, 0.0032864855602383614, -0.08263347297906876], [0.009369805455207825, 0.02209051512181759, -0.11121683567762375, 0.09499172866344452, 0.05140793323516846, -0.17333684861660004, 0.09335114806890488, 0.0359039381146431, -0.09669846296310425, -0.017130589112639427], [-0.12582284212112427, -0.02111586183309555, -0.10135272890329361, -0.02080646902322769, 0.07363075017929077, 0.019246568903326988, -0.1365324854850769, -0.05203897878527641, 0.05375245586037636, -0.04792795330286026], [0.0023682834580540657, 0.14539684355258942, -0.07748865336179733, 0.05317899212241173, -0.017124148085713387, 0.01023713406175375, -0.056042034178972244, 0.021855272352695465, 0.027292413637042046, 0.08637592941522598], [-0.039533015340566635, -0.020022200420498848, 0.053459275513887405, 0.0360431931912899, -0.027323251590132713, 0.05142924189567566, 0.02458813786506653, 0.11450053006410599, -0.0675240233540535, 0.0489698201417923]], [[-0.1209159791469574, 0.07273289561271667, -0.02348019741475582, 0.07801256328821182, 0.019291691482067108, -0.045844316482543945, 0.007014678791165352, -0.04460723698139191, -0.10943873971700668, -0.12533651292324066], [-0.0828801840543747, -0.023068808019161224, 0.043709415942430496, 0.04197487235069275, 0.020493360236287117, -0.024746540933847427, -0.12406665086746216, 0.046659860759973526, 0.02716006152331829, -0.011171801015734673], [-0.07963580638170242, 0.0335654690861702, -0.10670439153909683, 0.21715563535690308, 0.13349977135658264, 0.1571689248085022, 0.10632257163524628, -0.07149511575698853, -0.06256849318742752, -0.10712765157222748], [-0.049679018557071686, -0.13511045277118683, 0.032176557928323746, -0.24849729239940643, -0.23342043161392212, -0.13072143495082855, 0.0016041077906265855, 0.09015660732984543, -0.08686896413564682, -0.01824036054313183], [-0.18145984411239624, 0.039007287472486496, 0.07783551514148712, 0.014970142394304276, -0.0694749727845192, -0.03847018629312515, -0.07306095957756042, -0.056331854313611984, 0.014272011816501617, -0.0012724286643788218], [-0.046140674501657486, -0.12829935550689697, 0.09963306784629822, 0.054535746574401855, 0.10469343513250351, -0.0065489718690514565, -0.06838983297348022, 0.05693305656313896, -0.005705029703676701, -0.052829205989837646], [0.10318103432655334, -0.013840217143297195, -0.09040975570678711, 0.11729416251182556, 0.1146148294210434, -0.11382514983415604, 0.048628292977809906, 0.06493318825960159, -0.036083854734897614, 0.12495400011539459], [-0.18809911608695984, 0.08458132296800613, -0.07216741889715195, -0.007810769136995077, 0.037647295743227005, 0.038884080946445465, -0.07427584379911423, 0.009151178412139416, 0.10491954535245895, 0.0013648993335664272], [-0.16033975780010223, 0.09779103845357895, -0.031632959842681885, 0.02819088287651539, -0.0030537243001163006, -0.013474414125084877, 0.01274156291037798, 0.10117341578006744, 0.10349803417921066, 0.06427159160375595], [0.07453078776597977, 0.07865676283836365, 0.0004633047210518271, 0.052753522992134094, 0.070531465113163, 0.10812068730592728, -0.0523085780441761, 0.06272250413894653, -0.08357363194227219, 0.05331653356552124]], [[-0.10547221451997757, 0.048559531569480896, 0.010590745136141777, 0.1134345680475235, -0.04340009018778801, -0.042351096868515015, 0.04602701589465141, -0.03143906593322754, -0.12352240085601807, -0.023575041443109512], [-0.01697385683655739, -0.04844648018479347, 0.05006849765777588, -0.02359527349472046, 0.036179423332214355, 0.04803982004523277, -0.038326703011989594, 0.10681203007698059, -0.02591615356504917, 0.025651251897215843], [0.009984100237488747, -0.09137126058340073, -0.18693235516548157, 0.24353116750717163, 0.012252485379576683, 0.05369618907570839, -0.00424358993768692, 0.07204842567443848, 0.027227910235524178, 0.020104028284549713], [-0.10448519140481949, -0.03095659799873829, -0.05441565439105034, -0.2937900424003601, -0.22519409656524658, -0.06636914610862732, 0.10232869535684586, 0.05247250199317932, 0.04127250984311104, 0.07307200133800507], [-0.005365109071135521, 0.13027481734752655, 0.01307092048227787, 0.07241836935281754, -0.049728620797395706, -0.0801822692155838, -0.017155561596155167, 0.03496331349015236, -0.08611772209405899, -0.01514909416437149], [0.06464424729347229, -0.10821948200464249, -0.052534863352775574, 0.05676296725869179, 0.07763924449682236, 0.0649208202958107, -0.11656847596168518, 0.08600682020187378, -0.05042750760912895, 0.0409952849149704], [0.12365079671144485, 0.052898745983839035, -0.045032672584056854, 0.19254092872142792, 0.026737622916698456, 0.0035913551691919565, -0.04444548487663269, 0.07229876518249512, -0.07784243673086166, 0.13595542311668396], [-0.2073906809091568, 0.062492772936820984, 0.039798442274332047, 0.07163491100072861, 0.001829182030633092, 0.026405077427625656, -0.1176261305809021, 0.04990387707948685, -0.017313022166490555, -0.05705307051539421], [-0.0968582034111023, -0.053537461906671524, 0.06878764182329178, 0.01774323172867298, -0.029299963265657425, 0.06436929106712341, 0.046538591384887695, 0.011239422485232353, 0.08377626538276672, 0.07925966382026672], [-0.04804036393761635, 0.057055599987506866, 0.012117681093513966, 0.13981600105762482, -0.00035020665382035077, 0.012651529163122177, -0.09673009812831879, 0.054469913244247437, 0.0005163787864148617, 0.05552031844854355]]], [[[0.08545929193496704, -0.08079668134450912, -0.09310931712388992, 0.028057778254151344, 0.03090180829167366, -0.08803080022335052, -0.08772315084934235, -0.0609300471842289, 0.007893813773989677, 0.0711916983127594], [0.06805632263422012, -0.17258743941783905, 0.048243679106235504, -0.1871761679649353, -0.08659867197275162, -0.021455911919474602, -0.05738857761025429, -0.04272894561290741, 0.026093538850545883, -0.005142005160450935], [-0.2712126076221466, -0.05199577286839485, 0.06439194828271866, 0.032316144555807114, 0.10090091824531555, -0.1304602175951004, 0.035293880850076675, -0.07928255945444107, -0.010788395069539547, 0.04437324032187462], [-0.031100183725357056, 0.028531566262245178, 0.020345862954854965, 0.13823583722114563, -0.23843197524547577, 0.104840487241745, 0.011181706562638283, -0.007065164390951395, -0.06797516345977783, 0.038122303783893585], [0.04463164508342743, 0.05527336150407791, -0.0719606876373291, -0.11175523698329926, -0.06668490916490555, -0.08670540153980255, 0.08019932359457016, -0.04632594808936119, 0.03696541115641594, 0.016875755041837692], [0.039064474403858185, -0.22352837026119232, 0.029431544244289398, -0.04337102174758911, -0.1407453417778015, -0.07140032947063446, -0.03311583772301674, -0.04230663925409317, 0.056930702179670334, 0.010345540940761566], [-0.01833423413336277, -0.043062347918748856, -0.11075491458177567, 0.08448543399572372, 0.1390881985425949, -0.14245417714118958, -0.19826839864253998, 0.02190895937383175, 0.04951170086860657, -0.00256800907664001], [0.08843095600605011, -0.12949103116989136, -0.07158325612545013, -0.19895772635936737, -0.07131768763065338, -0.05638395994901657, 0.06320531666278839, -0.00995849259197712, 0.025279009714722633, 0.04954303428530693], [-0.01013531070202589, -0.13850441575050354, -0.06779805570840836, -0.04544682800769806, -0.010212059132754803, -0.09472930431365967, 0.21509841084480286, 0.025346850976347923, 0.036803774535655975, 0.06763821095228195], [0.04011693224310875, -0.07304361462593079, 0.013014767318964005, -0.01888720504939556, 0.07175159454345703, -0.07828731834888458, 0.008194884285330772, -0.025185683742165565, 0.05216016620397568, -0.1015155166387558]], [[0.042578909546136856, -0.06717710196971893, -0.09295084327459335, -0.0013453962747007608, -0.01910974644124508, -0.003763070097193122, 0.019318003207445145, 0.07182604819536209, 0.00022176295169629157, 0.0026200017891824245], [0.02892516553401947, -0.07877428829669952, 0.019243603572249413, -0.12682995200157166, 0.006853771861642599, 0.032570548355579376, 0.010289743542671204, -0.05814007297158241, 0.015179567970335484, -0.03090485744178295], [-0.3467499315738678, -0.07335745543241501, 0.052712395787239075, 0.08945085853338242, 0.07334541529417038, 0.03372746706008911, 0.06845246255397797, -0.026592282578349113, 0.052251577377319336, 0.042777806520462036], [-0.016179028898477554, 0.07346007227897644, 0.034169137477874756, 0.02296571247279644, -0.09131962060928345, 0.11101216822862625, -0.011140174232423306, -0.09991241246461868, -0.045684486627578735, -0.0061996919102966785], [0.11492421478033066, 0.07032503187656403, -0.06090344861149788, -0.037118423730134964, -0.02785010077059269, -0.028607867658138275, 0.004693477880209684, -0.004708855878561735, -0.07496464997529984, -0.05065863952040672], [0.11389713734388351, -0.13789871335029602, 0.03721488267183304, -0.10692928731441498, -0.1007373034954071, 0.0037820611614733934, -0.05589015781879425, -0.0008725480292923748, 0.010219031944870949, 0.07279542088508606], [-0.11606210470199585, -0.0060599870048463345, -0.06268562376499176, 0.11678005754947662, -0.012944089248776436, -0.13287295401096344, -0.04836876317858696, -0.0749448612332344, 0.10520945489406586, -0.029768001288175583], [-0.05146671459078789, -0.10273217409849167, 0.017475996166467667, -0.24631978571414948, -0.0008264687494374812, -0.023079873993992805, 0.1037122830748558, 0.0715876892209053, 0.06323859095573425, 0.13655021786689758], [0.062519371509552, -0.10343080759048462, -0.02518899366259575, -0.20332862436771393, -0.05231176316738129, -0.10030583292245865, 0.1572100967168808, 0.07906506955623627, 0.11183103919029236, 0.10303474962711334], [-0.04805649071931839, -0.053152792155742645, 0.01200859621167183, -0.039803244173526764, 0.010107681155204773, -0.01514437422156334, 0.017182866111397743, -0.03240112587809563, 0.04300246387720108, 0.00036257400643080473]], [[-0.0012742732651531696, -0.047062572091817856, -0.05672585219144821, -0.012071073986589909, 0.08700645714998245, -0.12395399808883667, -0.09888508170843124, 0.07104814797639847, 0.03236865997314453, -0.07139245420694351], [-0.04986131936311722, -0.09337425976991653, 0.02734685130417347, -0.19160641729831696, 0.010951432399451733, 0.06492695957422256, 0.02305944636464119, -0.0070867701433598995, 0.05063731595873833, 0.06530967354774475], [-0.4646330773830414, -0.09491770714521408, -0.016900738701224327, 0.017756320536136627, 0.11959312856197357, 0.14885099232196808, -0.015234646387398243, 0.0439266636967659, 0.034090347588062286, -0.00020560513075906783], [0.0251941941678524, 0.010252395644783974, 0.025310397148132324, -0.0916985273361206, -0.10814200341701508, -0.01876864954829216, -0.007863872684538364, -0.07786303758621216, -0.034675437957048416, 0.10850518196821213], [0.07375352829694748, 0.045381635427474976, 0.05108854919672012, 0.02572645992040634, -0.009431276470422745, 0.03412743657827377, -0.1072261780500412, 0.0780196562409401, -0.008201023563742638, 0.02722548320889473], [0.05478717014193535, -0.09134466201066971, -0.06728925555944443, -0.1318497508764267, -0.0010376311838626862, 0.11240135878324509, -0.09231597185134888, 0.10477463155984879, 0.008503330871462822, 0.14278513193130493], [-0.14457279443740845, -0.10204044729471207, 0.06887023895978928, 0.23433363437652588, 0.1092049852013588, -0.22060097754001617, -0.0648350790143013, -0.05639548599720001, 0.08833877742290497, -0.0008158816490322351], [-0.04013609513640404, -0.10477571189403534, 0.01370203960686922, -0.24032212793827057, -0.00956566073000431, 0.09785076975822449, 0.006304380018264055, 0.039819661527872086, 0.11955831944942474, 0.1315382570028305], [0.0749107226729393, 0.1775003969669342, -0.12892600893974304, -0.2508929967880249, -0.1570596545934677, -0.06540735810995102, -0.03336339071393013, -0.04383299499750137, 0.16422219574451447, 0.19398047029972076], [-0.14193491637706757, -0.042649172246456146, 0.09193217009305954, 0.05973326787352562, 0.054480522871017456, 0.008233091793954372, 0.005975710693746805, -0.055520541965961456, -0.09401343017816544, -0.07131262123584747]], [[-0.021569382399320602, 0.09555494040250778, -0.041719671338796616, 0.08512435853481293, -0.04553389176726341, -0.08126914501190186, -0.08592909574508667, 0.028592398390173912, -0.05823403596878052, -0.05144709348678589], [0.02165764756500721, -0.04207918792963028, -0.017316129058599472, -0.17640456557273865, 0.007242143154144287, 0.06031368672847748, -0.08970703184604645, -0.006810221821069717, 0.00395090039819479, -0.06432870030403137], [-0.4004197120666504, -0.11048652231693268, -0.11526640504598618, 0.10070870816707611, 0.1155354380607605, 0.13226687908172607, -0.06117141619324684, -0.09758851677179337, 0.08325313776731491, -0.05515819415450096], [0.008490104228258133, 0.02956043742597103, -0.09321071952581406, -0.12238024175167084, -0.12023942172527313, -0.028679169714450836, 0.0718393474817276, -0.027468468993902206, 0.029889777302742004, 0.09358405321836472], [-0.089363694190979, 0.026987917721271515, -0.01793070137500763, 0.046196479350328445, 0.013753026723861694, -0.10742257535457611, -0.1034015491604805, 0.00951395183801651, -0.04606381431221962, -0.10001050680875778], [0.06183609738945961, -0.04883124679327011, 0.09688059240579605, 0.00970039889216423, 0.005141702946275473, 0.08264610171318054, -0.09871581196784973, 0.0012942163739353418, -0.05900042876601219, 0.10711078345775604], [-0.18070577085018158, -0.08581550419330597, 0.0014457731740549207, 0.10342143476009369, 0.05521400272846222, -0.2426621913909912, -0.09371316432952881, -0.09232029318809509, 0.056811533868312836, 0.032759346067905426], [0.04248763248324394, 0.0163189135491848, -0.06744398176670074, -0.0791093111038208, 0.060346461832523346, 0.06873980909585953, -0.048551954329013824, -0.06802269071340561, 0.13152502477169037, 0.13723990321159363], [-0.04640916362404823, 0.16945235431194305, -0.10681214183568954, -0.23626165091991425, -0.1288207322359085, 0.008303805254399776, -0.11870633065700531, -0.08928286284208298, 0.12696108222007751, 0.15823592245578766], [-0.0020860203076153994, -0.015584600158035755, 0.06371854245662689, -0.004238612484186888, 0.11065523326396942, -0.07744067907333374, 0.0007787595968693495, -0.032380107790231705, -0.021163787692785263, -0.0765753984451294]], [[-0.0672818273305893, 0.031829576939344406, -0.0315738171339035, 0.052241001278162, -0.02011331170797348, -0.005549548659473658, -0.09754543751478195, -0.00869955588132143, -0.10675205290317535, -0.1087450385093689], [-0.04675985127687454, 0.039910294115543365, 0.04043447971343994, -0.11935406178236008, 0.04276152700185776, -0.02199012041091919, -0.05882107838988304, -0.05592208355665207, -0.07700155675411224, 0.03596645966172218], [-0.2724255621433258, 0.08199725300073624, -0.18709464371204376, 0.13573910295963287, 0.07627199590206146, 0.1250879019498825, -0.05671926960349083, -0.03835943713784218, 0.05983133986592293, -0.15184928476810455], [-0.0525195449590683, -0.0912635326385498, 0.0009077435825020075, -0.18794837594032288, -0.14796949923038483, -0.04944853484630585, 0.03386465832591057, 0.04581774026155472, 0.02467476576566696, 0.033392708748579025], [-0.1491616815328598, 0.03728874400258064, 0.0517476387321949, 0.005358018446713686, -0.020749902352690697, -0.06584500521421432, -0.04853348433971405, 0.039964452385902405, -0.071810282766819, -0.0637042447924614], [0.007566335145384073, -0.0065930974669754505, 0.10027462989091873, -0.0375947430729866, 0.03183210268616676, 0.14194826781749725, -0.14728982746601105, -0.01485347282141447, 0.058608971536159515, -0.0019476019078865647], [-0.15128681063652039, -0.057763952761888504, -0.1418723613023758, 0.16741140186786652, 0.030065804719924927, -0.09908023476600647, -0.13382695615291595, -0.004262768663465977, -0.05627641826868057, -0.09569558501243591], [-0.09168719500303268, 0.12181749939918518, -0.062276773154735565, -0.04284397512674332, 0.01793683134019375, 0.05912580341100693, -0.09983108937740326, -0.05828399956226349, 0.08622270822525024, -0.005017363931983709], [0.028684115037322044, 0.20676665008068085, 0.016984596848487854, -0.17063485085964203, -0.15323254466056824, -0.08071006834506989, -0.10465217381715775, -0.03488373011350632, 0.008839418180286884, 0.15453766286373138], [0.054642390459775925, -0.0813596248626709, 0.03894529864192009, 0.0658973976969719, 0.09805349260568619, 0.06583160161972046, 0.004254444502294064, -0.010040460154414177, -0.06118077412247658, -0.051396679133176804]], [[-0.07180371135473251, -0.0032163250725716352, -0.012554698623716831, 0.0910438522696495, 0.11548063158988953, -0.005321914795786142, -0.1079249233007431, 0.003541372250765562, -0.007154577877372503, -0.06239987909793854], [-0.009168381802737713, -0.011467734351754189, 0.03324156627058983, -0.0998765304684639, -0.08080533891916275, 0.015138836577534676, -0.0077364216558635235, 0.10023956000804901, 0.06093621626496315, -0.07623441517353058], [-0.2680639326572418, -0.05540606379508972, -0.22303669154644012, 0.2226443588733673, 0.022284600883722305, 0.1153678372502327, -0.08515243977308273, -0.07861073315143585, 0.053016092628240585, -0.021393703296780586], [-0.0054938034154474735, -0.061777252703905106, -0.014803004451096058, -0.20259568095207214, -0.19937986135482788, -0.1510591357946396, 0.11153382062911987, 0.0011490283068269491, 0.0003465890185907483, 0.05361154302954674], [-0.10575324296951294, -0.004243075847625732, 0.11315718293190002, -0.04083617404103279, 0.0038160423282533884, -0.04784161224961281, 0.039515573531389236, -0.07339008897542953, -0.03673408180475235, -0.06251245737075806], [-0.038649287074804306, -0.15918120741844177, -0.008290033787488937, 0.057221848517656326, 0.10688057541847229, 0.11360088735818863, -0.1533842831850052, 0.03897169977426529, 0.12924116849899292, 0.027694327756762505], [-0.006273982115089893, 0.04090731590986252, -0.03460073471069336, 0.07660220563411713, 0.15113422274589539, -0.0761123076081276, -0.06647080183029175, 0.061137549579143524, -0.021449841558933258, 0.02016201987862587], [-0.13058938086032867, 0.062476444989442825, 0.04245763644576073, 0.013427592813968658, 0.017747685313224792, 0.0356312096118927, -0.03926171734929085, 0.00478034932166338, -0.02330431155860424, 0.0176372230052948], [-0.09764985740184784, 0.03404178097844124, 0.03486035391688347, -0.24560929834842682, -0.1603183150291443, -0.09358605742454529, 0.1105784922838211, -0.0033273263834416866, 0.08402425050735474, 0.04759908840060234], [0.00839226134121418, 0.03333249315619469, 0.08300118148326874, 0.12503176927566528, 0.016398631036281586, 0.09831772744655609, -0.05904298275709152, 0.06235458701848984, -0.02441217750310898, 0.05242646485567093]], [[-0.07677146047353745, 0.015263546258211136, 0.07798732072114944, 0.08084087818861008, 0.018995871767401695, -0.011397453024983406, -0.09789883345365524, 0.07273072004318237, -0.12421740591526031, -0.09463682770729065], [0.018451575189828873, -0.0917772501707077, 0.007263367995619774, -0.09334065020084381, 0.00997666921466589, -0.08185357600450516, -0.04933793097734451, 0.04769330471754074, 0.05736728757619858, 0.030135754495859146], [-0.1437085121870041, 0.00036059855483472347, -0.1806841343641281, 0.13705027103424072, -0.012447391636669636, 0.036454737186431885, -0.18541035056114197, 0.05620122328400612, 0.12467829138040543, -0.08825463056564331], [-0.034856587648391724, -0.0003077446308452636, -0.06515678018331528, -0.17601972818374634, -0.22585584223270416, -0.03724733367562294, 0.08256493508815765, 0.08809851109981537, -0.031243156641721725, 0.10989430546760559], [-0.1710658222436905, 0.05218157172203064, -0.0497368760406971, 0.06400050222873688, -0.042005933821201324, 0.06266284734010696, -0.019569704309105873, -0.03946025297045708, -0.039216283708810806, -0.04127751290798187], [0.08078733831644058, -0.1989467889070511, 0.0708669051527977, 0.0328153520822525, -0.017401406541466713, -0.007456540130078793, -0.20370380580425262, 0.054335203021764755, 0.1486605703830719, 0.040942467749118805], [0.03780177980661392, -0.03635475039482117, -0.053227975964546204, 0.22559873759746552, 0.13669516146183014, 0.08009766787290573, -0.1576203554868698, 0.051142316311597824, -0.0025134028401225805, -0.0016328259371221066], [-0.17495734989643097, 0.07090520858764648, 0.07710817456245422, -0.03717322275042534, 0.024981174618005753, 0.04603419080376625, -0.07391387969255447, 0.04126683995127678, 0.012341518886387348, -0.11320408433675766], [-0.06225151568651199, -0.04750390350818634, 0.16351404786109924, -0.12311547249555588, -0.10640856623649597, 0.025659827515482903, 0.10932532697916031, -0.025743374601006508, 0.15025286376476288, -0.01162542775273323], [-0.011598782613873482, -0.0054229795932769775, 0.007927264086902142, 0.05988771840929985, -0.018862759694457054, 0.007141720037907362, -0.18806175887584686, 0.003720227163285017, -0.05261602625250816, -0.013827160932123661]]], [[[0.019805315881967545, -0.07520090788602829, 0.023225490003824234, -0.007688780780881643, 0.0678672194480896, -0.08307047188282013, -0.02541058510541916, 0.03156983107328415, -0.006608167663216591, 0.07302343845367432], [0.10653872787952423, 0.0026853145100176334, -0.08565367013216019, -0.17839457094669342, -0.052655238658189774, 0.02755020558834076, 0.07281199097633362, -0.05008384585380554, -0.002340138889849186, 0.037350744009017944], [-0.09727563709020615, -0.03867637738585472, 0.042778804898262024, -0.07314085960388184, -0.00884417537599802, 0.013673986308276653, 0.026577498763799667, -0.13690024614334106, 0.08898791670799255, 0.09125839173793793], [-0.09805500507354736, 0.012929832562804222, 0.046530045568943024, 0.11212512105703354, -0.07082549482584, 0.039175450801849365, 0.01384276058524847, 0.007193104363977909, 0.05901384353637695, 0.09228290617465973], [0.13025958836078644, -0.08720453828573227, 0.010644652880728245, -0.06086685508489609, -0.07045211642980576, 0.002543752547353506, -0.054764557629823685, -0.026761772111058235, -0.0477229505777359, 0.02027321234345436], [-0.06326363235712051, -0.10350742191076279, 0.04522118344902992, -0.15584386885166168, -0.07974336296319962, 0.022777054458856583, -0.04469864442944527, 0.03564295172691345, -0.045881450176239014, 0.11737045645713806], [0.08697452396154404, -0.005294609349220991, 0.05096614360809326, -0.01665155030786991, 0.04058746248483658, -0.14454008638858795, -0.17401640117168427, 0.01187206245958805, -0.009381809271872044, 0.16764390468597412], [0.04565078765153885, -0.06696552783250809, -0.05178528279066086, -0.09865973144769669, -0.03441033884882927, -0.024402527138590813, 0.16989852488040924, 0.03235507011413574, 0.10481410473585129, 0.048336729407310486], [0.06975441426038742, -0.08302152156829834, 0.0016889238031581044, 0.09810829162597656, -0.01210455596446991, -0.047245051711797714, 0.06858021765947342, -0.070701003074646, 0.13820038735866547, -0.01822369173169136], [0.14080998301506042, -0.06293604522943497, -0.04851256310939789, -0.012724826112389565, 0.0623813234269619, -0.10070550441741943, -0.10914530605077744, 0.014782637357711792, 0.048636842519044876, -0.023456400260329247]], [[0.06133601441979408, -0.01184794120490551, 0.016319632530212402, -0.11071798950433731, -0.010557415895164013, -0.0826571062207222, -0.06573271006345749, 0.08005928248167038, -0.0015133288688957691, 0.013840163126587868], [0.08248361945152283, -0.04638470709323883, -0.07929270714521408, -0.1906806081533432, -0.03163830563426018, 0.06894584000110626, 0.044909607619047165, 0.05109216272830963, -0.04455750808119774, -0.0006970241665840149], [-0.17121544480323792, -0.11501335352659225, 0.04940875247120857, -0.00841146893799305, 0.10841067880392075, 0.03713957592844963, 0.0318441241979599, -0.051464878022670746, 0.08158109337091446, 0.04140061140060425], [-0.030192792415618896, 0.04569106176495552, 0.019277164712548256, 0.11602474004030228, 0.09447867423295975, 0.038891538977622986, -0.07339844852685928, -0.15288272500038147, 0.04463906213641167, 0.09140164405107498], [0.009689530357718468, -0.012710782699286938, 0.02962230145931244, -0.03688817843794823, -0.09247685223817825, -0.05300753191113472, 0.014827730134129524, 0.0264795683324337, -0.03287006914615631, -0.04857318103313446], [-0.021779783070087433, -0.049363214522600174, 0.07148098945617676, -0.2230914682149887, -0.02617928758263588, 0.13051600754261017, 0.04390639439225197, 0.015179251320660114, 0.027414197102189064, 0.06900575011968613], [0.00817143265157938, -0.022219687700271606, 0.025424251332879066, 0.028064021840691566, 0.03882741183042526, -0.18886935710906982, -0.1542154848575592, -0.028590841218829155, 0.07782464474439621, 0.16032512485980988], [-0.009558786638081074, -0.10877680033445358, 0.07873754948377609, -0.10567250102758408, -0.08966966718435287, 0.020037712529301643, 0.06342977285385132, -0.005920583847910166, 0.14931577444076538, 0.06355872005224228], [0.06630218774080276, -0.06923723220825195, 0.07937121391296387, 0.06976886093616486, -0.08671748638153076, -0.06900683045387268, 0.0452926903963089, -0.01168108731508255, 0.1809154450893402, 0.005143086891621351], [-0.04750189185142517, -0.07671526819467545, 0.07315388321876526, -0.059358861297369, 0.04372812435030937, -0.11364524811506271, -0.04798554256558418, 0.0668867975473404, 0.08491795510053635, 0.025116274133324623]], [[0.13255147635936737, 0.03831972926855087, -0.03539758548140526, 0.006464238744229078, 0.03739653900265694, -0.07625912129878998, -0.14246800541877747, -0.0346011184155941, 0.0028220084495842457, -0.04002709314227104], [0.08669262379407883, 0.013329925946891308, -0.08291501551866531, -0.12574812769889832, -0.09159103780984879, 0.016771838068962097, -0.06385034322738647, 0.025025859475135803, 0.03233937546610832, 0.04857932776212692], [-0.2435724437236786, -0.09161871671676636, 0.05095483735203743, 0.03229409083724022, 0.007281053811311722, 0.14081640541553497, 0.15751975774765015, -0.0691070407629013, 0.13201923668384552, 0.10531046241521835], [-0.054983045905828476, 0.08247155696153641, -0.0641171857714653, 0.07000330835580826, 0.0421004593372345, -0.021444670855998993, -0.08002714067697525, -0.15319564938545227, 0.06816080957651138, 0.08930255472660065], [0.01721176691353321, 0.07641734182834625, 0.06438734382390976, 0.05984870344400406, -0.09521615505218506, -0.09658954292535782, -0.026745527982711792, 0.03142917528748512, 0.05435419827699661, 0.04099703207612038], [0.0012095302809029818, -0.10263630747795105, -0.017426591366529465, -0.1629144251346588, -0.06045116111636162, 0.08900674432516098, 0.01583060808479786, 0.07965236157178879, 0.05034460499882698, 0.038731589913368225], [-0.13069237768650055, 0.03556496649980545, 0.06671024113893509, 0.041065167635679245, -0.0326952263712883, -0.25346672534942627, -0.1693674623966217, 0.009787037968635559, 0.0526386983692646, 0.11699964106082916], [-0.00672853272408247, -0.04136538505554199, 0.059782810509204865, -0.129267618060112, -0.04035472869873047, -0.0150797413662076, 0.044292353093624115, -0.0865589901804924, 0.1553230881690979, 0.050813786685466766], [-0.023828621953725815, 0.06702901422977448, -0.05250786617398262, -0.13511216640472412, -0.07627148181200027, -0.057158853858709335, 0.05018545314669609, 0.11117186397314072, 0.06341470032930374, 0.04015151038765907], [-0.046947281807661057, -0.03996744006872177, 0.0035671358928084373, -0.04618463292717934, 0.09558228403329849, -0.05518856644630432, -0.014454971067607403, -0.014434881508350372, 0.017100170254707336, -0.035798657685518265]], [[0.05349387601017952, -0.03569238260388374, -0.06362374871969223, 0.034891556948423386, -0.03847147524356842, -0.02529752068221569, -0.13585442304611206, 0.059579137712717056, -0.07916124910116196, -0.05671314522624016], [-0.03196321800351143, -9.223098459187895e-05, -0.00541608314961195, -0.1857692301273346, -0.1325511485338211, 0.10540466010570526, -0.0006988621316850185, -0.05559983476996422, -0.05285399407148361, 0.03577243909239769], [-0.214331716299057, 0.022395193576812744, 0.061728689819574356, 0.012032965198159218, -0.06904231756925583, 0.09281910210847855, 0.06577613949775696, -0.10076615959405899, 0.06318606436252594, 0.03695434331893921], [0.009117760695517063, 0.02002769336104393, -0.07123266160488129, 0.009112045168876648, 0.01671893149614334, -0.14283707737922668, -0.043772075325250626, 0.02737601473927498, -0.017141295596957207, 0.0736331045627594], [0.03588924929499626, 0.024385033175349236, 0.09415962547063828, 0.0036001750268042088, 0.0007732406957075, -0.13133196532726288, -0.10701949894428253, 0.10379912704229355, -0.09041062742471695, -0.05358300730586052], [0.006374301388859749, -0.09390164911746979, 0.0027167319785803556, -0.028005514293909073, -0.0033765851985663176, 0.13426382839679718, 0.06756119430065155, 0.05036218464374542, 0.0942787379026413, 0.09307169169187546], [-0.08680549263954163, -0.04335673525929451, 0.011724735610187054, 0.05914308503270149, 0.04058421775698662, -0.22004130482673645, -0.11417490243911743, -0.015597407706081867, 0.07233903557062149, 0.0548730306327343], [0.04078080877661705, 0.007259421516209841, 0.035656217485666275, -0.10904302448034286, -0.05390997976064682, -0.01816973276436329, 0.02870439551770687, -0.01963084749877453, 0.049868643283843994, 0.12637615203857422], [-0.0030388529412448406, 0.1480763852596283, -0.045757800340652466, -0.21687006950378418, -0.2257874757051468, -0.10439879447221756, -0.09229997545480728, 0.05530136078596115, 0.01306298840790987, 0.1084936186671257], [-0.06870389729738235, -0.06724599003791809, -0.04717804118990898, 0.04916726425290108, 0.1020456999540329, 0.004062379710376263, -0.10960139334201813, -0.07837025821208954, 0.019149050116539, 0.004932516720145941]], [[0.01106431894004345, -0.026795348152518272, -0.05895458534359932, 0.019685089588165283, 0.04340270534157753, 0.011143650859594345, -0.048155296593904495, 0.004457337316125631, 0.015200143679976463, -0.05424417555332184], [-0.02759667858481407, 0.011745915748178959, 0.03994704410433769, -0.10266388207674026, -0.13652192056179047, -0.04125621169805527, -0.15105365216732025, 0.060672663152217865, -0.031293682754039764, -0.022093890234827995], [-0.2592698037624359, -0.013258966617286205, -0.1378617286682129, 0.11315204203128815, -0.1075792908668518, 0.04057985171675682, -0.09759728610515594, -0.12458714842796326, 0.023240966722369194, -0.04163457453250885], [0.026860322803258896, -0.03742220252752304, -0.03490627929568291, 0.10007116198539734, 0.05954531952738762, -0.1639491319656372, 0.09686072170734406, 0.06547851115465164, 0.07256592810153961, -0.02776704728603363], [-0.043338194489479065, 0.0005171471857465804, 0.00944252498447895, -0.0168728306889534, 0.04013446345925331, -0.0208527073264122, -0.014713232405483723, -0.002673793351277709, -0.07123737037181854, 0.0536971241235733], [0.062236592173576355, -0.1464700549840927, 0.03578918054699898, 0.05006669834256172, -0.08218700438737869, 0.03909354656934738, 0.004974929615855217, -0.017031356692314148, 0.14230047166347504, 0.05443413555622101], [-0.1398731917142868, -0.13373620808124542, 0.02108784392476082, 0.1768086850643158, 0.14593617618083954, -0.015116360038518906, -0.18037183582782745, -0.052279993891716, 0.10111744701862335, 0.03598199039697647], [0.10695373266935349, 0.12891477346420288, 0.022890813648700714, -0.10248596966266632, -0.06632600724697113, 0.03193690627813339, -0.11463069915771484, 0.001658826950006187, 0.036322202533483505, 0.025438474491238594], [0.02034960314631462, 0.1807960569858551, -0.017251648008823395, -0.21382063627243042, -0.04582711309194565, -0.012543284334242344, 0.04225202277302742, 0.03321259841322899, -0.004429445136338472, 0.06650439649820328], [-0.0394863486289978, -0.09242463856935501, -0.010546201840043068, 0.08337680250406265, -0.02750064618885517, -0.016675930470228195, -0.03575827181339264, 0.06564319133758545, 0.024154407903552055, -0.00949601735919714]], [[0.0055008381605148315, -0.01334475539624691, 0.005928198341280222, 0.0031105235684663057, 0.03824015334248543, 0.023889416828751564, -0.028555629774928093, 0.0724896639585495, -0.011158222332596779, -0.04547015577554703], [-0.03476336970925331, -0.013634130358695984, -0.005539248697459698, -0.033558439463377, -0.08114282041788101, -0.02244691178202629, -0.10608894377946854, 0.08495726436376572, 0.07057905942201614, 0.05460592731833458], [-0.19871264696121216, -0.048732928931713104, -0.18361905217170715, 0.08710040897130966, -0.1389167159795761, 0.07196783274412155, -0.025596147403120995, -0.021407540887594223, 0.08365777879953384, -0.0895533636212349], [-0.0545845702290535, 0.013323825784027576, 0.02439546212553978, 0.03522130101919174, 0.09315576404333115, -0.13681337237358093, 0.045998863875865936, 0.008190160617232323, -0.04645492881536484, 0.004179246723651886], [-0.050062283873558044, -0.030402692034840584, 0.06273370236158371, -0.06462714076042175, 0.056874100118875504, -0.051064323633909225, 0.07658904790878296, 0.08580292016267776, -0.027081532403826714, -0.03986212611198425], [0.0349029004573822, -0.17563343048095703, 0.0395541712641716, 0.06060090661048889, -0.04625358060002327, -0.020950961858034134, -0.09322046488523483, 0.0032571274787187576, 0.16574014723300934, 0.06512006372213364], [-0.10833339393138885, 0.02580513060092926, -0.11157070100307465, 0.17482085525989532, 0.13640421628952026, 0.008697370998561382, -0.17061415314674377, 0.0696975439786911, 0.030784694477915764, 0.0227418914437294], [-0.1008247584104538, 0.1251116693019867, 0.052890315651893616, -0.07889293134212494, -0.08494722098112106, -0.08320613950490952, -0.04115205258131027, -0.023219026625156403, -0.004359087906777859, 0.08953933417797089], [-0.05112902447581291, 0.038040224462747574, 0.12339810281991959, -0.14858819544315338, -0.201372429728508, -0.019340697675943375, 0.0995379313826561, 0.09303948283195496, 0.06324964016675949, -0.007237144745886326], [-0.047166433185338974, 0.022584494203329086, 0.0922132357954979, 0.05031105503439903, 0.020349012687802315, 0.04444805905222893, -0.09104622155427933, 0.05646968260407448, 0.1094769537448883, -0.054684847593307495]], [[-0.1627025455236435, 0.010102183558046818, 0.03542504087090492, -0.03520233556628227, 0.03322878107428551, 0.056044284254312515, -0.014438376761972904, 0.022942079231142998, 0.008465917780995369, -0.041701313108205795], [-0.10939426720142365, -0.06710956990718842, 0.004842224530875683, -0.06663967669010162, -0.0589158795773983, -0.059990234673023224, 0.05486159771680832, -0.023560568690299988, 0.07689420133829117, -0.047094035893678665], [-0.048265520483255386, -0.03914191573858261, -0.14650912582874298, 0.08130869269371033, -0.10898927599191666, 0.006635111756622791, -0.08146379888057709, 0.0018939947476610541, -0.0052779437974095345, -0.09236615896224976], [-0.010212428867816925, -0.02234119549393654, -0.021052565425634384, -0.04319113492965698, 0.06159849092364311, -0.05698433518409729, 0.11002498120069504, 0.02605745941400528, 0.017610616981983185, 0.03406038135290146], [-0.16512468457221985, 0.011857515200972557, 0.03916851803660393, -0.04016554728150368, 0.06437616050243378, 0.06058385595679283, 0.1228746622800827, 0.00742056081071496, -0.10080063343048096, -0.07513824105262756], [0.0060930089093744755, -0.16063886880874634, 0.10571547597646713, 0.08272223174571991, -0.17310494184494019, 0.033964190632104874, -0.041262753307819366, 0.0051626707427203655, 0.07304783165454865, -0.004249322693794966], [-0.08763287961483002, -0.017673617228865623, -0.035798318684101105, 0.1347724050283432, 0.06864214688539505, 0.05057118088006973, -0.16379189491271973, 0.05248316749930382, 0.05203944817185402, 0.011259506456553936], [-0.11402934789657593, 0.11918233335018158, 0.07834649831056595, -0.04201725125312805, -0.07021058350801468, 0.0624731071293354, -0.05107957124710083, 0.03335302323102951, -0.09405656903982162, 0.07352020591497421], [-0.13674525916576385, -0.03731377422809601, 0.20357947051525116, -0.11684957891702652, -0.03499814122915268, -0.09376556426286697, 0.16145901381969452, 0.08172765374183655, 0.03685201704502106, 0.0016158267389982939], [-0.061419229954481125, 0.06723975390195847, 0.05484836548566818, 0.04054485261440277, 0.02655838429927826, 0.07541251927614212, -0.16763153672218323, 0.012937154620885849, -0.014935937710106373, -0.09173363447189331]]], [[[0.10357248783111572, -0.10061067342758179, -0.07052207738161087, -0.18100441992282867, -0.0432734377682209, -0.005036240443587303, 0.07991310209035873, 0.003115779720246792, -0.03603806719183922, 0.013791614212095737], [0.04480261355638504, -0.012360074557363987, -0.040150970220565796, -0.0800788402557373, 0.007519603706896305, 0.10481053590774536, 0.023539923131465912, 0.016614113003015518, 0.11884848028421402, 0.05481632426381111], [0.05672702193260193, -0.07402513176202774, 0.04132341593503952, -0.005094548221677542, 0.008748234249651432, 0.07797369360923767, 0.06405504792928696, -0.09991549700498581, 0.029272843152284622, 0.09782588481903076], [-0.08940356969833374, 0.027916239574551582, 0.030553022399544716, 0.10051380842924118, 0.14319680631160736, 0.020363597199320793, -0.14512205123901367, -0.10474301874637604, 0.13048449158668518, -0.009187798015773296], [0.08433499187231064, 0.05982493981719017, -0.122553750872612, 0.023730643093585968, -0.028755327686667442, -0.036381710320711136, 0.025977369397878647, 0.03448869287967682, -0.08681138604879379, -0.06722864508628845], [-0.14395713806152344, 0.032397154718637466, 0.04310052841901779, -0.1214677169919014, -0.030676603317260742, 0.14472584426403046, 0.010966051369905472, 0.012471090070903301, 0.03218899294734001, 0.07367972284555435], [0.15485672652721405, 0.11012020707130432, 0.06233586370944977, -0.024750616401433945, -0.010450165718793869, 0.023831797763705254, -0.02367429994046688, 0.05054198578000069, 0.10486190021038055, 0.06198456883430481], [-0.011866956949234009, 0.0078065963461995125, 0.1143605038523674, 0.15681099891662598, -0.10260283946990967, -0.04769029840826988, 0.05832799896597862, -0.05491924285888672, 0.07624810934066772, -0.10424333065748215], [-0.06093103438615799, -0.059575267136096954, 0.1892067939043045, 0.2996629476547241, 0.009636779315769672, -0.1603936403989792, 0.06677147001028061, 0.03300853446125984, 0.0910785049200058, -0.1490687131881714], [0.1317177563905716, -0.036385852843523026, 0.06588619947433472, -0.07959369570016861, 0.0073249610140919685, 0.006425846833735704, 0.016046060249209404, 0.005208774469792843, 0.04157502204179764, 0.00021003122674301267]], [[-0.03188096731901169, -0.1344255954027176, 0.005358314607292414, -0.1551171988248825, -0.030511511489748955, 0.012940943241119385, 0.04943307489156723, -0.044656671583652496, -0.06718671321868896, 0.10926566272974014], [-0.05874881520867348, -0.05701471492648125, -0.028292933478951454, -0.11543968319892883, -0.01733047515153885, 0.015500607900321484, 0.04186525195837021, 0.05449244752526283, -0.009402788244187832, 0.01963604800403118], [-0.03057447448372841, -0.09573309123516083, -0.0098296869546175, 0.034697163850069046, 0.013464927673339844, 0.08262907713651657, 0.14375905692577362, 0.01087877806276083, -0.04779487103223801, 0.03136148303747177], [-0.1392696052789688, 0.09549292176961899, 0.05574697628617287, 0.12761636078357697, 0.1803264021873474, -0.03231288492679596, -0.06356357783079147, -0.15984857082366943, 0.11217255890369415, 0.07477838546037674], [0.09791400283575058, 0.0773572102189064, -0.09812796115875244, -0.08417123556137085, 0.0168246291577816, -0.07097741961479187, -0.012051355093717575, 0.04150739684700966, 0.020005932077765465, 0.06398981809616089], [-0.08491723239421844, 0.03987792879343033, -0.03861932083964348, -0.08838290721178055, -0.0648038238286972, 0.20411713421344757, -0.050819799304008484, -0.03243089094758034, -0.01869324967265129, 0.022475125268101692], [0.05568220093846321, -0.0026153363287448883, 0.08660157024860382, 0.025477340444922447, -0.0856902226805687, -0.09825902432203293, -0.06790300458669662, 0.015572525560855865, 0.11733057349920273, 0.05943872407078743], [0.0021962448954582214, -0.1265268474817276, 0.005927195306867361, -0.019357657060027122, -0.052842024713754654, 0.04606861621141434, 0.00400886032730341, 0.029939571395516396, 0.025311114266514778, -0.03729071468114853], [0.10486824810504913, -0.07733932882547379, 0.14318199455738068, 0.22035472095012665, -0.011186199262738228, -0.08066859841346741, 0.01171621773391962, -0.0026565392035990953, 0.08267882466316223, -0.10911732912063599], [0.09033763408660889, 0.02539891190826893, 0.060979027301073074, -0.03738486394286156, -0.08629756420850754, 0.0802215039730072, 0.02197563461959362, 0.04561294987797737, 0.0878346711397171, -0.0031660194508731365]], [[-0.0021297098137438297, 0.03287807106971741, 0.024097763001918793, -0.042294736951589584, -0.07536595314741135, 0.0588676892220974, -0.13634954392910004, -0.06127392500638962, 0.06873375922441483, 0.034684162586927414], [0.01081480085849762, 0.00835480447858572, -0.05137467384338379, -0.02194168046116829, -0.10115165263414383, 0.06392787396907806, -0.06865327060222626, -0.05106506124138832, 0.08431653678417206, 0.08827648311853409], [-0.06340102851390839, -0.008413011208176613, 0.10315718501806259, 0.07475122064352036, -0.0488228015601635, 0.051211774349212646, 0.05328837037086487, 0.017278283834457397, -0.06076996028423309, -0.018202517181634903], [-0.11828972399234772, 0.054450877010822296, -0.03101399913430214, 0.18212543427944183, 0.11514457315206528, -0.20305489003658295, -0.011687775142490864, -0.18234239518642426, 0.02916022017598152, -0.001036343746818602], [0.12094195932149887, -0.04137931391596794, 0.0008094668155536056, -0.030812568962574005, -0.03150324150919914, -0.028140926733613014, -0.08960651606321335, 0.017105236649513245, 0.012218104675412178, 0.08422858268022537], [-0.041799020022153854, 0.0005954302614554763, 0.004073230549693108, -0.11663268506526947, -0.08426950871944427, 0.17938508093357086, 0.05514517053961754, -0.026450537145137787, 0.07654894143342972, 0.023794637992978096], [0.017674995586276054, 0.04020492732524872, -0.0027675654273480177, -0.05390573665499687, 0.045818548649549484, -0.09160521626472473, 0.014483713544905186, 0.06391940265893936, 0.12355633080005646, 0.13787606358528137], [0.11993598192930222, -0.032324522733688354, 0.09953084588050842, -0.07292014360427856, 0.0035576445516198874, 0.08140449970960617, 0.037547964602708817, -0.077952079474926, -0.018892556428909302, 0.0394524410367012], [0.02800902910530567, 0.03450746461749077, 0.06843115389347076, 0.029230985790491104, -0.012379797175526619, -0.06158463656902313, -0.04936392977833748, 0.1363733857870102, 0.004155749920755625, -0.1016802191734314], [0.022332951426506042, 0.07687914371490479, -0.043325312435626984, -0.04651707783341408, 0.014391085132956505, -0.006720277480781078, -0.008215600624680519, -0.005153215955942869, 0.05284800007939339, -0.015617438592016697]], [[0.07815764844417572, -0.03782645985484123, 0.039700113236904144, -0.11500531435012817, -0.12307091057300568, -0.02988399937748909, -0.021329717710614204, 0.01935478299856186, 0.002268419601023197, 0.08447960019111633], [0.00809925701469183, 0.025138380005955696, -0.07117026299238205, -0.022649407386779785, -0.08303098380565643, 0.005070880986750126, -0.12021434307098389, -0.03756275027990341, 0.048350803554058075, 0.06229117885231972], [-0.11978105455636978, 0.0533515140414238, 0.08526096493005753, 0.02712463214993477, -0.1599922776222229, 0.14099693298339844, 0.06818857789039612, 0.057651981711387634, -0.012833947315812111, -0.030030088499188423], [-0.022521987557411194, 0.06931520998477936, -0.11002013832330704, 0.1660189926624298, 0.17627841234207153, -0.22574497759342194, 0.006630342919379473, -0.18149881064891815, -0.021679116412997246, -0.008398523554205894], [0.07804254442453384, 0.0006510503008030355, 0.056023940443992615, -0.0030011050403118134, -0.08520690351724625, -0.0963394045829773, -0.07937102764844894, 0.09040221571922302, -0.057960689067840576, -0.0487121045589447], [0.0906689316034317, -0.08940398693084717, 0.01928073726594448, -0.04201257973909378, -0.1266825646162033, 0.10850103199481964, -0.055838797241449356, -0.002509203739464283, 0.0233707744628191, -0.0010390490060672164], [-0.11731167882680893, -0.08095677196979523, 0.06439822167158127, 0.08264590799808502, 0.03933839127421379, -0.06417177617549896, -0.10908964276313782, -0.0020771194249391556, 0.13938917219638824, 0.08668456226587296], [0.03456413373351097, -0.07119762897491455, 0.0553908571600914, -0.08752064406871796, -0.037821099162101746, -0.026893245056271553, -0.07708482444286346, 0.057581234723329544, -0.07113239914178848, -0.019773241132497787], [0.0734468623995781, 0.1382550299167633, 0.09536541998386383, -0.042908694595098495, 0.013346392661333084, 0.07677683234214783, -0.15298786759376526, 0.11801142245531082, 0.0517302043735981, -0.0022046708036214113], [-0.029925037175416946, 0.003783243242651224, 0.040734630078077316, -0.012350792996585369, 0.023183800280094147, -0.006562188733369112, -0.010657110251486301, 0.0928935706615448, 0.0752052292227745, 0.07383464276790619]], [[0.1419847309589386, -0.04047120735049248, -0.07642640173435211, -0.07157985121011734, -0.10863017290830612, 0.0841367244720459, -0.1213391050696373, 0.07862891256809235, -0.0036903703585267067, 0.010463871993124485], [0.06435040384531021, 0.1182747632265091, 0.015485826879739761, -0.1217673122882843, -0.0452062152326107, 0.008228790014982224, -0.13463522493839264, -0.011948698200285435, 0.08865679055452347, -0.03015710972249508], [-0.08041522651910782, 0.09146294742822647, -0.008046013303101063, 0.03353751823306084, -0.2146652191877365, 0.016370601952075958, -0.056442756205797195, 0.0027626771479845047, 0.13280059397220612, -1.868902108981274e-05], [0.0035625947639346123, 0.10852597653865814, -0.11575274169445038, 0.07859007269144058, 0.17987973988056183, -0.19066601991653442, 0.12497967481613159, -0.07126200944185257, -0.013917723670601845, -0.020456591621041298], [-0.019489241763949394, -0.0013723918236792088, 0.14033252000808716, -0.04993187636137009, -0.0223612729460001, -0.001918165129609406, 0.02856420911848545, 0.09601989388465881, -0.08639121055603027, 0.03138648346066475], [0.049376100301742554, -0.08013392239809036, 0.10695638507604599, -0.10454783588647842, -0.14062093198299408, 0.10993073880672455, -0.03628550097346306, 0.0242142453789711, 0.11596084386110306, -0.07875341176986694], [-0.07981910556554794, -0.1841968446969986, 0.0865158662199974, -0.011229461058974266, 0.0024357654619961977, 0.011982420459389687, -0.05114302784204483, -0.03818707913160324, 0.10964332520961761, -0.011020364239811897], [0.12471027672290802, 0.06868306547403336, -0.07710747420787811, -0.11356652528047562, -0.06451595574617386, -0.0574803501367569, -0.1601719707250595, -0.007100673858076334, -0.016973063349723816, 0.10291242599487305], [0.026450395584106445, 0.11687415093183517, 0.013530820608139038, 0.027646657079458237, 0.06778562068939209, -0.03382709249854088, -0.05862464755773544, 0.11617986857891083, -0.10332120954990387, -0.08701156079769135], [-0.11400067061185837, -0.08293525874614716, 0.09713621437549591, -0.0790051519870758, -0.082034632563591, 0.06706280261278152, 0.046092163771390915, -0.0507269948720932, 0.05252998322248459, 0.029720524325966835]], [[0.04816863313317299, -0.07304160296916962, 0.05760759487748146, -0.022858120501041412, -0.09400109201669693, 0.014284084551036358, -0.036573659628629684, 0.09674995392560959, 0.025288326665759087, 0.015381986275315285], [0.031866416335105896, 0.04774138703942299, 0.0921110212802887, -0.01763770915567875, -0.004220092203468084, -0.0928894430398941, -0.07901514321565628, -0.04296194016933441, 0.003549321321770549, 0.051882483065128326], [-0.07847312092781067, 0.025173023343086243, -0.05802307277917862, -0.0007162520196288824, -0.23903940618038177, 0.03019511140882969, 0.059481408447027206, 0.026644958183169365, 0.0032200533896684647, -0.05178222060203552], [0.08298036456108093, 0.10457368940114975, -0.07743506133556366, 0.065142922103405, 0.12411464750766754, -0.13989844918251038, 0.11972425132989883, -0.0005888587329536676, -0.061212290078401566, 0.016977768391370773], [-0.033311426639556885, -0.016060473397374153, 0.14144259691238403, -0.009054891765117645, -0.04430026188492775, 0.032498639076948166, 0.0442582443356514, -0.0012097649741917849, -0.0250095222145319, -0.08242049813270569], [0.032681066542863846, -0.08233021944761276, 0.016632454469799995, -0.10888487100601196, -0.09938492625951767, -0.07000419497489929, 0.013097001239657402, 0.07738901674747467, 0.08521651476621628, 0.04488365724682808], [0.02614450268447399, -0.021216105669736862, 0.028105532750487328, -0.04891689121723175, -0.058269791305065155, 0.05212780088186264, -0.07717863470315933, -0.008019499480724335, 0.22031280398368835, 0.017177391797304153], [0.07033944875001907, 0.129658043384552, 0.018021434545516968, -0.03856075182557106, 0.037888891994953156, 0.03770006448030472, -0.11640645563602448, -0.012511920183897018, -0.08772071450948715, 0.012403026223182678], [0.07745518535375595, 0.008791851811110973, 0.19238479435443878, -0.06471361219882965, 0.03819391876459122, -0.04611571133136749, 0.07350187003612518, 0.06902089715003967, -0.060542069375514984, 0.010882011614739895], [-0.12428078800439835, -0.09697101265192032, 0.005005846731364727, -0.03498029708862305, -0.00922922883182764, 0.0373147651553154, -0.08483002334833145, -0.013411171734333038, 0.10066903382539749, -0.032426733523607254]], [[-0.04795931279659271, 0.015082268044352531, -0.037927836179733276, 0.022985044866800308, -0.06046130508184433, -0.03204461932182312, 0.015194087289273739, 0.06558266282081604, 0.05914577469229698, -0.07364792376756668], [-0.051307134330272675, -0.051235638558864594, -0.004731738939881325, -0.0813303217291832, -0.05184149742126465, -0.006217136513441801, 0.061513062566518784, -0.004355079960078001, -0.015188007615506649, 0.055509600788354874], [-0.0002502170973457396, -0.10709355026483536, -0.07590476423501968, 0.06988593935966492, -0.12515147030353546, 0.012623393908143044, 0.11763382703065872, 0.06468643993139267, 0.1067533865571022, -0.06923525035381317], [0.014584801159799099, 0.022436022758483887, -0.10785159468650818, 0.10768188536167145, 0.1317438930273056, 0.006887449882924557, 0.04679258167743683, -0.02035178430378437, -0.06700330972671509, -0.06298132985830307], [-0.062018897384405136, 0.025741692632436752, 0.09769333153963089, -0.09356983751058578, 0.006501616444438696, -0.02629583515226841, 0.1550634652376175, 0.09338179230690002, -0.04441545903682709, 0.03916367143392563], [0.030705207958817482, -0.14853879809379578, 0.04913730546832085, -0.10537147521972656, -0.06896848231554031, -0.10120538622140884, 0.013111182488501072, 0.1239103376865387, 0.12706038355827332, -0.02253040485084057], [-0.07222851365804672, -0.04366590455174446, 0.02350618503987789, 0.025527294725179672, -0.0523761510848999, 0.009650343097746372, -0.042918287217617035, -0.002282235072925687, 0.14936186373233795, -0.017237655818462372], [0.040468741208314896, 0.06877587735652924, 0.1075654923915863, -0.1330607682466507, 0.02350156381726265, -0.005151687655597925, -0.019062593579292297, 0.05977634713053703, -0.07262180000543594, -0.03540743887424469], [0.11531675606966019, -0.08991315960884094, 0.1241535171866417, -0.010752077214419842, 0.10117403417825699, -0.14420479536056519, 0.0431586392223835, 0.02195451408624649, -0.023002762347459793, -0.00036776356864720583], [0.015183275565505028, -0.08685813844203949, 0.010502779856324196, -0.026287037879228592, -0.09398437291383743, 0.0658106729388237, -0.06285963952541351, -0.0006971245747990906, 0.13783469796180725, 0.05007721856236458]]], [[[0.05041827633976936, 0.05406702682375908, 0.05600971728563309, -0.10459990799427032, -0.05331988260149956, 0.03771255165338516, 0.1226939931511879, 0.012886052951216698, -0.05638981983065605, -0.02780219167470932], [-0.024793239310383797, -0.03254779800772667, 0.04355977475643158, -0.05300955846905708, -0.03582434728741646, 0.07069505006074905, 0.08978448808193207, -0.057795386761426926, -0.02717764861881733, -0.02938077226281166], [0.13807177543640137, -0.1017475575208664, -0.004833238665014505, -0.09169270843267441, 0.035650499165058136, 0.17105133831501007, 0.03462037816643715, -0.07256464660167694, 0.031015142798423767, 0.07026827335357666], [-0.04939952492713928, 0.09171377122402191, 0.009652283973991871, 0.09436449408531189, 0.1524716317653656, -0.05887608230113983, 0.005154756363481283, -0.12623339891433716, -0.06962977349758148, 0.08838589489459991], [-0.03905538469552994, 0.06783570349216461, -0.111248679459095, -0.0011113117216154933, -0.09367493540048599, -0.09892086684703827, -0.07893060147762299, -0.008128194138407707, 0.028624029830098152, 0.022419244050979614], [-0.00502972025424242, 0.029639389365911484, 0.057888053357601166, 0.13156354427337646, -0.15607091784477234, 0.23492039740085602, -0.002626249333843589, 0.03943759575486183, 0.12597008049488068, -0.0005740260821767151], [0.12080447375774384, 0.07337331026792526, 0.07058130204677582, -0.019443083554506302, -0.07871051877737045, 0.03256602957844734, -0.03942470625042915, 0.010097932070493698, -0.04639226570725441, 0.015769081190228462], [0.05610298365354538, 0.03989192470908165, 0.02461203932762146, 0.11421287059783936, 0.016404805704951286, -0.010934376157820225, 0.14873374998569489, -0.02775672823190689, -0.09207309782505035, -0.10991234332323074], [-0.03250085934996605, -0.04156135395169258, 0.06455500423908234, 0.22483496367931366, 0.07358365505933762, -0.10831740498542786, 0.14084959030151367, 0.0162360817193985, 0.00015166062803473324, -0.07359448075294495], [0.1314830482006073, -0.029885340481996536, 0.04431918263435364, -0.06706567108631134, -0.07034018635749817, 0.06347837299108505, 0.0338982529938221, -0.010534445755183697, -0.026019500568509102, 0.014832931570708752]], [[0.02827625721693039, 0.002114237518981099, -0.06253749132156372, -0.1153663843870163, -0.1082674190402031, -0.01950715109705925, -0.02936423383653164, 0.09487400203943253, -0.04052099585533142, -0.01755705289542675], [-0.05406646803021431, -0.06309203058481216, -0.029856599867343903, -0.028784550726413727, -0.07794327288866043, 0.06594043225049973, 0.002538507804274559, 0.01515662670135498, 0.0019575555343180895, -0.046305958181619644], [0.06578725576400757, -0.09169361740350723, -0.07263104617595673, 0.012158901430666447, -0.10574709624052048, 0.13897950947284698, 0.1289595365524292, -0.01880687102675438, -0.06044480577111244, -0.07640944421291351], [-0.03993167355656624, 0.15700434148311615, -0.08087027817964554, 0.15539222955703735, 0.1683630496263504, -0.12207014113664627, -0.044892989099025726, -0.21344241499900818, -0.05387222394347191, 0.07570209354162216], [0.10591554641723633, 0.0987028032541275, -0.134107768535614, -0.09119556099176407, 0.05228491127490997, -0.024679502472281456, -0.08136409521102905, -0.06266769021749496, 0.011793382465839386, -0.006381489336490631], [-0.10703051835298538, 0.022394318133592606, 0.0860254094004631, -0.01927587017416954, -0.10421936959028244, 0.1555863320827484, -0.0027270985301584005, -0.015613705851137638, 0.011488454416394234, -0.058706581592559814], [0.1362648457288742, 0.040005240589380264, 0.09455566108226776, -0.0951525866985321, -0.03611595928668976, -0.00248116347938776, 0.04655103385448456, -0.03762076795101166, 0.09941200166940689, 0.08729030936956406], [0.14530375599861145, -0.04359886422753334, 0.005279092118144035, 0.003873786423355341, 0.008634507656097412, -0.05535119026899338, 0.11884607374668121, -0.025007031857967377, 0.00953470729291439, -0.10041999071836472], [0.06516516953706741, -0.0813787505030632, 0.11668621003627777, 0.11202558130025864, 0.007087867707014084, -0.04713908210396767, -0.024859953671693802, -0.045812759548425674, -0.0889924094080925, -0.07518211752176285], [0.15109552443027496, 0.009179165586829185, 0.02164304256439209, -0.03217482566833496, -0.12061954289674759, 0.006192903034389019, 0.05968967080116272, 0.0819370299577713, 0.07781311869621277, 0.11334913969039917]], [[0.08209020644426346, -0.0666096955537796, -0.017961867153644562, -0.15823222696781158, -0.09060128778219223, 0.051240578293800354, -0.07960126549005508, 0.028576530516147614, 0.08820129930973053, -0.021690070629119873], [0.026550980284810066, 0.010613496415317059, -0.06026569381356239, 0.003456494538113475, -0.026106111705303192, -0.05010729655623436, 0.029421593993902206, -0.07817283272743225, 0.03404025360941887, -0.05391887575387955], [0.05405748263001442, -0.1125546544790268, -0.00398827763274312, -0.027768205851316452, -0.06055238097906113, 0.10979339480400085, -0.006562135182321072, -0.01190321147441864, 0.0010355684207752347, -0.023663554340600967], [-0.04342859610915184, 0.13397429883480072, -0.046276986598968506, 0.1250004917383194, 0.18015091121196747, -0.2601785659790039, -0.014963538385927677, -0.12219083309173584, -0.08279460668563843, -0.007390780374407768], [0.11076150834560394, 0.0018188541289418936, -0.04309699311852455, -0.0529828704893589, 0.04803323745727539, -0.08763796836137772, -0.04900282993912697, 0.06439176946878433, -0.02145794965326786, -0.012525632046163082], [-0.11001801490783691, 0.06724893301725388, 0.11153749376535416, -0.03240739554166794, -0.13057783246040344, 0.13233143091201782, -0.05829930305480957, -0.18316946923732758, 0.07059232890605927, -0.0030580598395317793], [0.07598794996738434, 0.007328829728066921, 0.035996630787849426, -0.03280792757868767, -0.09436501562595367, -0.025132417678833008, -0.019382881000638008, 0.017484985291957855, 0.15568102896213531, 0.1203080266714096], [0.048353809863328934, -0.1303381472826004, 0.05938568711280823, -0.041213661432266235, 0.03938576951622963, 0.04734340310096741, 0.057851642370224, -0.013227296993136406, -0.1597001850605011, -0.0830213651061058], [0.06098848953843117, -0.05463138222694397, 0.04120052233338356, 0.04623498395085335, -0.0711142048239708, -0.015165911987423897, -0.029202183708548546, 0.08853264153003693, -0.15104329586029053, -0.029582690447568893], [0.09567994624376297, 0.05682981386780739, 5.7505909353494644e-05, -0.14868012070655823, 0.0047805109061300755, 0.074025459587574, -0.004419021774083376, 0.005682423245161772, 0.0752689391374588, 0.013088901527225971]], [[0.009662662632763386, 0.0636034831404686, -0.056681420654058456, -0.17806082963943481, -0.09432879090309143, -0.009328766725957394, -0.05101520195603371, 0.0020724486093968153, 0.01353742741048336, 0.014308021403849125], [-0.02177513763308525, -0.006522424519062042, -0.0020614706445485353, 0.027238354086875916, -0.0822027176618576, -0.09910289943218231, -0.02921540103852749, -0.05549995228648186, 0.03355703502893448, -0.034272730350494385], [-0.09905905276536942, 0.009262043051421642, -0.015921171754598618, -0.009559374302625656, -0.10421304404735565, 0.138531893491745, 0.007322716526687145, 0.04396054148674011, -0.05793691426515579, -0.045582495629787445], [-0.12633828818798065, 0.09943169355392456, -0.1390547901391983, 0.05435413867235184, 0.1950264573097229, -0.23940473794937134, 0.09366557002067566, -0.10916558653116226, -0.039716996252536774, -0.018248457461595535], [0.13799302279949188, -0.0024789031594991684, -0.01440224889665842, -0.009964216500520706, -0.05394488945603371, -0.0315760038793087, -0.0366927795112133, 0.06145619601011276, 0.016305971890687943, -0.05338858813047409], [-0.02207164466381073, -0.03797835856676102, 0.06476923078298569, -0.04293910786509514, 0.05871199071407318, 0.07497765123844147, -0.07695571333169937, -0.07896602153778076, -0.1062273308634758, -0.0006795262452214956], [0.08549715578556061, -0.06340797245502472, 0.009315324947237968, -0.0457703098654747, 0.016118058934807777, -0.05797562003135681, 0.0274767205119133, 0.08528905361890793, 0.1712377667427063, 0.09863074868917465], [0.11813348531723022, -0.025069929659366608, -0.07738155871629715, -0.035673588514328, 0.020470168441534042, 0.07497846335172653, -0.05043511092662811, -0.020828256383538246, -0.0530761256814003, 0.041050635278224945], [0.13189029693603516, 0.12002171576023102, -0.02963605895638466, 0.1463114470243454, -0.015968576073646545, -0.08139532059431076, -0.11518168449401855, 0.12298374623060226, -0.0661441907286644, -0.15246020257472992], [0.0217670239508152, -0.028774170204997063, 0.027225885540246964, -0.054344210773706436, -0.07414560765028, 0.08163058012723923, 0.013447919860482216, 0.014759543351829052, -0.013425823301076889, 0.03452422842383385]], [[0.13346640765666962, -0.004813282750546932, -0.05619993433356285, -0.16507598757743835, -0.1591441035270691, 0.014542676508426666, -0.09243738651275635, -0.0037567010149359703, 0.045001473277807236, 0.098190538585186], [-0.04014206677675247, 0.12258880585432053, 0.06604068726301193, -0.06041810289025307, 0.025401970371603966, -0.07599898427724838, -0.05557195469737053, -0.05298960581421852, -0.04281660169363022, -0.02021690644323826], [-0.10354629158973694, 0.14199618995189667, 0.04556679725646973, 0.02920627035200596, 0.007154272869229317, 0.10661009699106216, -0.03497510775923729, 0.03366081789135933, 0.04439947381615639, -0.05725643038749695], [-0.005615755449980497, 0.049851518124341965, -0.11109591275453568, 0.1509731411933899, 0.04578471928834915, -0.08529716730117798, 0.16486655175685883, -0.17330552637577057, 0.00975498091429472, -0.08590737730264664], [0.015684932470321655, -0.0572076179087162, 0.04593650996685028, 0.010919270105659962, -0.04634702205657959, -0.02753642573952675, 0.008014433085918427, 0.042054567486047745, -0.0324268639087677, 0.023288575932383537], [0.07206754386425018, -0.08104433864355087, 0.061424802988767624, 0.016812369227409363, 0.04756317660212517, 0.03182908892631531, -0.0921500027179718, -0.05802610144019127, 0.05936051160097122, 0.03650229796767235], [-0.035384081304073334, -0.1575382500886917, 0.07995876669883728, -0.0040808687917888165, -0.12293345481157303, 0.016007330268621445, 0.06365805119276047, 0.053103603422641754, 0.14012740552425385, 0.0285724438726902], [0.1671355813741684, 0.06091425195336342, -0.0480320006608963, -0.08610934764146805, 0.056188806891441345, -0.03532833978533745, -0.06922662258148193, 0.0015244733076542616, -0.056208062916994095, 0.08036117255687714], [0.2442668080329895, 0.041086770594120026, 0.09441865980625153, 0.11262140423059464, 0.16500703990459442, -0.0741635113954544, -0.12412172555923462, -0.006172692868858576, -0.045107778161764145, -0.06749852001667023], [-0.02926509641110897, -0.08823724836111069, 0.06203707307577133, -0.0004758925933856517, -0.17702746391296387, 0.07784895598888397, 0.012513549998402596, -0.04077450558543205, 0.04341680184006691, 0.03270412236452103]], [[0.008761603385210037, 0.00795970018953085, -0.0034407353959977627, -0.01549723744392395, -0.04798690229654312, -0.06104375049471855, -0.022662239149212837, 0.06766441464424133, 0.014481719583272934, 0.06517147272825241], [0.07267064601182938, -0.007118783425539732, 0.03711865842342377, 0.00036251128767617047, 0.06717388331890106, -0.04769473150372505, 0.05251597985625267, 0.05857793986797333, 0.062118060886859894, 0.042388733476400375], [-0.12155728042125702, 0.014917978085577488, 0.053001005202531815, -0.009766407310962677, 0.08747245371341705, 0.10984208434820175, 0.10404317080974579, -0.07134511321783066, 0.096763476729393, 0.06429172307252884], [-0.024019164964556694, 0.07492077350616455, -0.07547172904014587, 0.1534358561038971, 0.05992124602198601, 0.07761775702238083, 0.08249165862798691, -0.11263754963874817, 0.0076395017094910145, -0.18968158960342407], [0.04929925873875618, -0.05353839695453644, 0.02962852455675602, -0.00859244167804718, -0.007812658324837685, 