{"conv_1_1": {"kernel": [[[[0.1864263415336609, 0.07664991170167923, -0.08052589744329453, -0.09672992676496506, -0.07145978510379791, 0.03768152371048927, -0.014665006659924984, 0.040931981056928635, -0.15783411264419556, -0.01947902888059616]], [[0.1218360885977745, 0.09761791676282883, -0.12308569997549057, -0.08514373749494553, -0.16251467168331146, -0.06895550340414047, 0.05911221355199814, -0.013381178490817547, -0.16926643252372742, 0.05746137350797653]], [[0.13943512737751007, 0.13445846736431122, -0.09736837446689606, -0.16115815937519073, -0.17411884665489197, 0.0004156396898906678, 0.07414493709802628, 0.15638990700244904, -0.14175692200660706, -0.044806819409132004]], [[0.14577051997184753, 0.03182046860456467, -0.054936349391937256, -0.1368550956249237, 0.01613668166100979, 0.04983463138341904, 0.14685149490833282, -0.05249796435236931, -0.15368422865867615, -0.08031324297189713]], [[-0.001449348172172904, 0.03481338545680046, -0.12249985337257385, -0.04262913763523102, -0.10891597718000412, -0.0644436776638031, 0.07981641590595245, -0.07443762570619583, 0.006348968483507633, 0.04447776451706886]], [[-0.03729689121246338, 0.11334826052188873, -0.13542470335960388, 0.06548477709293365, 0.07454152405261993, -0.054928623139858246, 0.15630392730236053, 0.09178418666124344, -0.08503006398677826, -0.14016808569431305]], [[-0.045644111931324005, 0.07770681381225586, -0.01474898774176836, 0.16132532060146332, -0.1287575215101242, -0.13619482517242432, 0.115261971950531, -0.0006601568893529475, 0.009915110655128956, -0.11749932169914246]]], [[[0.004693418741226196, -0.09117663651704788, -0.04961133003234863, 0.04646313935518265, -0.16804657876491547, 0.12552151083946228, -0.001533742994070053, 0.06592036783695221, 0.03463942930102348, -0.09027157723903656]], [[0.21832500398159027, 0.004010665696114302, -0.09917217493057251, -0.011785461567342281, 0.007714324630796909, 0.19477327167987823, 0.09851119667291641, 0.08413757383823395, 0.12515556812286377, -0.09330141544342041]], [[0.18984679877758026, 0.027176713570952415, -0.029683072119951248, -0.06542257219552994, -0.18415898084640503, 0.226520836353302, -0.009841526858508587, 0.17841503024101257, 0.11842465400695801, -0.05640782415866852]], [[0.14911966025829315, 0.11630520969629288, -0.1734788715839386, 0.06304959952831268, -0.14447970688343048, 0.1914517879486084, 0.022928670048713684, 0.251634418964386, 0.041415125131607056, -0.050685007125139236]], [[0.04938618093729019, 0.1853417307138443, -0.03009486384689808, 0.019173696637153625, 0.060594458132982254, 0.15113092958927155, -0.010691826231777668, 0.03353167325258255, 0.058192361146211624, 0.00865266565233469]], [[0.04175039380788803, 0.19481441378593445, -0.06930011510848999, 0.10786699503660202, -0.08322107046842575, -0.01852009817957878, 0.19071146845817566, 0.019356021657586098, -0.08540251106023788, -0.10652284324169159]], [[-0.22472916543483734, 0.09025951474905014, 0.037333935499191284, 0.11058487743139267, 0.025676656514406204, -0.10898161679506302, 0.1373927742242813, 0.22214843332767487, 0.049266695976257324, -0.19060596823692322]]], [[[0.048174552619457245, -0.1419830322265625, -0.09783024340867996, 0.08459621667861938, -0.06654419749975204, -0.09277432411909103, -0.09528332948684692, -0.04066216200590134, 0.23521530628204346, -0.05143515765666962]], [[0.09307248890399933, -0.12438718974590302, -0.03814935311675072, 0.0746561735868454, -0.06859120726585388, -0.017665991559624672, 0.05694539099931717, 0.029051639139652252, 0.04142344370484352, -0.0876433476805687]], [[-0.04179035499691963, -0.07301580160856247, -0.15103363990783691, 0.07152538746595383, -0.05792934447526932, 0.0036395597271621227, 0.09467870742082596, -0.030076414346694946, 0.05495374649763107, 0.04940083250403404]], [[0.03844960406422615, -0.014954245649278164, -0.28181684017181396, 0.13802319765090942, -0.013711250387132168, 0.013542558066546917, -0.03272564709186554, 0.1389962136745453, 0.08475195616483688, -0.10610326379537582]], [[0.06847582012414932, -0.021865492686629295, -0.1967601776123047, 0.14699526131153107, 0.04206814616918564, 0.057807557284832, 0.10995660722255707, 0.09291479736566544, -0.09748011082410812, -0.20514421164989471]], [[-0.18108436465263367, 0.05394183471798897, 0.06007262319326401, 0.0522887147963047, 0.009215719066560268, -0.04934035241603851, 0.03633483126759529, 0.020066184923052788, 0.0007021648343652487, -0.048669930547475815]], [[-0.27397748827934265, 0.059018153697252274, 0.15567034482955933, 0.014484361745417118, -0.10553272813558578, -0.1811138242483139, -0.056263260543346405, 0.16713137924671173, -0.09791470319032669, -0.21824495494365692]]], [[[0.023001715540885925, -0.10618189722299576, 0.10526742041110992, -0.1551114320755005, -0.052308063954114914, -0.1944306343793869, -0.10895198583602905, -0.22873646020889282, 0.1279916763305664, -0.005381157621741295]], [[-0.03640330210328102, -0.1554560661315918, -0.1521177887916565, -0.1237805113196373, -0.09264479577541351, -0.16062282025814056, -0.035242702811956406, -0.18251414597034454, 0.25287529826164246, 0.04194832965731621]], [[-0.1165960282087326, -0.17221108078956604, -0.13771502673625946, -0.10904144495725632, -0.20621894299983978, -0.07249300181865692, -0.033890653401613235, -0.073747918009758, 0.17551761865615845, -0.0311542097479105]], [[-0.097118079662323, -0.026534056290984154, -0.05174382030963898, -0.05549498647451401, -0.13329346477985382, -0.1776990294456482, -0.16214413940906525, -0.051200225949287415, -0.060126494616270065, 0.028082985430955887]], [[-0.16461528837680817, -0.09531703591346741, -0.055477239191532135, -0.04776321351528168, -0.03205455467104912, -0.10042411834001541, -0.1903650015592575, 0.01653219759464264, -0.06311537325382233, -0.06777359545230865]], [[-0.16563627123832703, -0.11604328453540802, 0.13031266629695892, -0.07230279594659805, -0.08665823191404343, -8.105913002509624e-05, -0.2531658411026001, 0.01257949136197567, -0.13615523278713226, -0.1678313910961151]], [[-0.08652732521295547, -0.16108399629592896, 0.059806957840919495, -0.01800234615802765, 0.06435183435678482, -0.1664244830608368, -0.1366368681192398, 0.07166433334350586, 0.017041245475411415, -0.13530388474464417]]], [[[-0.07151617109775543, -0.07041064649820328, 0.039198338985443115, -0.2054470330476761, -0.024747025221586227, -0.2354946881532669, -0.1143181100487709, -0.02804676629602909, 0.10510081797838211, -0.037907324731349945]], [[-0.161759153008461, -0.1235036700963974, 0.010784955695271492, -0.1106705516576767, -0.044145453721284866, -0.27218908071517944, -0.0678059533238411, -0.17096726596355438, 0.21800141036510468, 0.13771674036979675]], [[-0.0478246845304966, -0.2837056815624237, -0.03140730783343315, -0.10522192716598511, 0.055054277181625366, -0.19369681179523468, -0.18970534205436707, -0.14070498943328857, -0.021273372694849968, 0.0514279380440712]], [[0.03940417617559433, -0.2571597695350647, -0.002625698922201991, -0.03263550624251366, -0.016697218641638756, -0.028779078274965286, -0.29101768136024475, -0.06752925366163254, -0.1703275591135025, 0.14370785653591156]], [[0.060458824038505554, -0.30281689763069153, 0.19732441008090973, -0.09588458389043808, 0.07065597921609879, -0.026996245607733727, -0.309904009103775, -0.0032208964694291353, -0.07653941959142685, 0.08240725100040436]], [[-0.043043725192546844, -0.2733972370624542, 0.043351251631975174, -0.0018961743917316198, 0.051369644701480865, 0.12614686787128448, -0.1851905733346939, -0.0750085711479187, 0.025349538773298264, -0.001481605926528573]], [[-0.050973206758499146, -0.1350211203098297, -0.05885593593120575, 0.007129139266908169, -0.023045511916279793, -0.0456119067966938, -0.22786809504032135, 0.06506552547216415, -0.1331738382577896, 0.051375098526477814]]], [[[-0.05165558308362961, -0.181626558303833, 0.10028208792209625, -0.09139446914196014, -0.04391217976808548, -0.10256820917129517, -0.2316514402627945, 0.17284637689590454, 0.1985909789800644, 0.0983976423740387]], [[0.038374368101358414, -0.23658011853694916, 0.13963043689727783, -0.09101080149412155, 0.18342554569244385, -0.027453074231743813, -0.21576714515686035, -0.04993140324950218, 0.12737390398979187, 0.028376415371894836]], [[-0.015091247856616974, -0.23827755451202393, 0.07133375108242035, -0.06892959773540497, 0.1977253556251526, 0.11323516070842743, -0.11423983424901962, 0.004993305541574955, 0.07858564704656601, 0.1748856157064438]], [[0.06478274613618851, -0.22357048094272614, 0.19772601127624512, -0.1211407482624054, 0.12886729836463928, 0.1689782589673996, -0.26715630292892456, 0.07863333821296692, -0.09341967850923538, 0.178141787648201]], [[-0.08427993208169937, -0.16304518282413483, 0.15003307163715363, 0.058054596185684204, 0.16466636955738068, 0.14182646572589874, -0.25276586413383484, 0.09103012830018997, -0.11780416965484619, 0.1565331667661667]], [[0.043265897780656815, -0.17225950956344604, 0.07827766239643097, 0.054448630660772324, 0.11992282420396805, 0.07398634403944016, -0.19381335377693176, 0.08094388246536255, -0.12892189621925354, 0.12546631693840027]], [[0.025997089222073555, -0.14352159202098846, 0.03613448143005371, 0.12179040908813477, 0.07991725206375122, 0.04364190623164177, -0.14524920284748077, 0.08178838342428207, -0.1602146029472351, -0.02510000392794609]]], [[[0.07803481072187424, -0.09580428898334503, -0.07957413792610168, 0.00017542483692523092, 0.08792880922555923, 0.15272578597068787, -0.05291345342993736, 0.21577569842338562, 0.10366275161504745, 0.07440417259931564]], [[0.12657567858695984, -0.07149583846330643, 0.13837604224681854, -0.12796443700790405, 0.19846048951148987, 0.1734534204006195, -0.05598783493041992, 0.17480172216892242, 0.044509198516607285, 0.153236985206604]], [[-0.0639110654592514, -0.09584415704011917, 0.08158627152442932, -0.08225544542074203, 0.03297724947333336, 0.09929319471120834, -0.13941365480422974, 0.16531620919704437, 0.04004048928618431, 0.044275879859924316]], [[0.05250505357980728, -0.0632452666759491, 0.18627622723579407, 0.028369195759296417, 0.18534409999847412, 0.09082865715026855, -0.03933985158801079, -0.014962074346840382, -0.11289709061384201, 0.0624714121222496]], [[-0.1303945928812027, 0.029345056042075157, 0.09535279870033264, 0.14554333686828613, 0.1328965574502945, 0.07856908440589905, -0.019913213327527046, 0.09711863845586777, 0.0816204622387886, 0.1220155581831932]], [[-0.12075349688529968, 0.02535277232527733, 0.13268570601940155, 0.10734453797340393, 0.01420544646680355, 0.172544464468956, -0.023570243269205093, 0.01773056946694851, 0.05080384388566017, 0.1819196492433548]], [[-0.12739475071430206, -0.08125198632478714, -0.022306371480226517, 0.06030886620283127, 0.08857686072587967, -0.05227779224514961, -0.0895296186208725, 0.06740553677082062, 3.956840373575687e-06, 0.14315521717071533]]]], "bias": [0.12608753144741058, 0.03791826218366623, -0.08808253705501556, 0.0741797611117363, -0.08536200225353241, -0.03896971046924591, 0.052903566509485245, 0.12926538288593292, -0.11139465868473053, 0.04743826761841774], "kernel_shape": [7, 7, 1, 10], "bias_shape": [10]}, "conv_1_2": {"kernel": [[[[-0.17904405295848846, -0.11954594403505325, -0.09450457245111465, -0.042307619005441666, -0.10593192279338837, -0.08827686309814453, 0.023911098018288612, -0.019077852368354797, -0.16278240084648132, -0.13059373199939728], [-0.09595207124948502, 0.0866549089550972, 0.21753200888633728, 0.1596125215291977, 0.07804932445287704, 0.025999272242188454, -0.0198536179959774, -0.10135753452777863, 0.062459349632263184, -0.09965147823095322], [0.17922981083393097, -0.003223131177946925, 0.02497098594903946, 0.013984949328005314, -0.04969096556305885, 0.09569095075130463, 0.11753522604703903, 0.1491934061050415, 0.09334424138069153, 0.03740275651216507], [0.016163688153028488, 0.023866701871156693, 0.026002613827586174, 0.24631772935390472, 0.044645700603723526, -0.11860352009534836, -0.008389055728912354, 0.011197728104889393, 0.07330508530139923, -0.042062483727931976], [0.24834348261356354, 0.06586985290050507, 0.05548876151442528, 0.07642938196659088, -0.027833543717861176, -0.03784961998462677, 0.06420157849788666, 0.11909537762403488, 0.04807695373892784, 0.024343598634004593], [0.05988526716828346, 0.008286314085125923, 0.1803748607635498, 0.060778647661209106, -0.02061564289033413, -0.08580279350280762, 0.06249062344431877, -0.09816725552082062, -0.06203099340200424, -0.033091966062784195], [-0.060529354959726334, 0.009844032116234303, 0.18998825550079346, 0.1499718576669693, 0.07582927495241165, 0.11889908462762833, -0.04805585741996765, -0.133553147315979, 0.06551361829042435, -0.08720674365758896], [0.03850864991545677, -0.13996420800685883, 0.015510878525674343, 0.05539746582508087, -0.050210196524858475, -0.016353124752640724, -0.04396338760852814, -0.07235384732484818, -0.04789714142680168, -0.042069293558597565], [-0.09015323221683502, -0.056920748203992844, -0.06007451191544533, -0.19847223162651062, 0.0070158448070287704, 0.029123369604349136, 0.0014325105585157871, 0.13752861320972443, -0.02824232541024685, 0.08232001215219498], [0.07379958778619766, 0.0654941126704216, -0.06249353289604187, -0.051279082894325256, -0.006909091956913471, -0.08325329422950745, 0.1189878061413765, 0.06714241951704025, -0.0032071112655103207, -0.028376666828989983]], [[-0.027126025408506393, -0.033205296844244, 0.017545342445373535, 0.0989866703748703, -0.06252001225948334, -0.15018928050994873, 0.011243084445595741, -0.052039679139852524, -0.20401576161384583, -0.07435321062803268], [-0.023369265720248222, 0.13163936138153076, 0.1739826202392578, 0.06932737678289413, 0.09749200940132141, 0.06796060502529144, -0.05061670392751694, -0.060063838958740234, 0.03530668094754219, -0.11225917190313339], [0.11293972283601761, -0.017599506303668022, 0.08454390615224838, -0.019838783890008926, -0.07373020797967911, -0.0863676518201828, 0.038032952696084976, 0.03209073469042778, 0.0007369282539002597, -0.023705894127488136], [0.10892650485038757, 0.05451926216483116, 0.0013998460490256548, 0.12539716064929962, 0.11368859559297562, -0.08837975561618805, -0.006739781703799963, -0.0965074673295021, 0.03912645950913429, -0.06779986619949341], [0.1674327701330185, 0.08354304730892181, 0.07096672803163528, -0.05599304661154747, 0.03693027049303055, -0.032218560576438904, 0.0026396382600069046, 0.07198609411716461, -0.04790646210312843, 0.0676485151052475], [0.030270466580986977, 0.10124897211790085, -0.007566334679722786, 0.10646526515483856, 0.02618640661239624, -0.03405759111046791, 0.042189933359622955, 0.03643826022744179, -0.1303251087665558, -0.10450012981891632], [-0.005048638675361872, 0.15979814529418945, 0.19378432631492615, 0.05956074967980385, 0.11559171229600906, -0.007397404406219721, 0.024132080376148224, 0.025044148787856102, 0.05636626482009888, -0.05167504400014877], [0.10176989436149597, -0.1448383778333664, 0.10940045118331909, -0.018770448863506317, -0.09534141421318054, 0.015411078929901123, -0.09226779639720917, -0.05190424993634224, -0.040825698524713516, -0.10582717508077621], [-0.07542234659194946, 0.024091629311442375, -0.03641268238425255, -0.21063922345638275, 0.17627233266830444, 0.07417292892932892, -0.059999190270900726, 0.18274886906147003, 0.10845943540334702, 0.07292980700731277], [0.09069108963012695, 0.08364168554544449, -0.07864227145910263, -0.041913773864507675, 0.04642569646239281, -0.09046141058206558, -0.0023118203971534967, 0.05908939614892006, -0.10897891968488693, 0.16218461096286774]], [[-0.10472147911787033, -0.09535835683345795, -0.022409742698073387, -0.022069409489631653, 0.062026020139455795, -0.12684674561023712, -0.01197402086108923, -0.027107717469334602, -0.21660520136356354, -0.15356694161891937], [0.021203594282269478, 0.03343850001692772, 0.14887741208076477, 0.11345352977514267, 0.07365484535694122, 0.09408938139677048, -0.001238380093127489, -0.02673880010843277, 0.09291665256023407, -0.045647285878658295], [0.10748229920864105, -0.008855856023728848, -0.09089135378599167, -0.09319037944078445, 0.016630524769425392, -0.01703471690416336, 0.03945418819785118, 0.022856436669826508, -0.007511414587497711, 0.008417075499892235], [0.004932823590934277, 0.007545938715338707, -0.030522197484970093, 0.05987986549735069, 0.01452691201120615, 0.015706632286310196, 0.02224614843726158, -0.033862099051475525, 0.11201855540275574, -0.026979947462677956], [0.10802645236253738, 0.12457803636789322, -0.04438187927007675, -0.013962537981569767, 0.003955114632844925, -0.03908051177859306, 0.14466342329978943, 0.09204097837209702, -0.02161884307861328, 0.03445470705628395], [0.051238127052783966, 0.06715002655982971, -0.051120955497026443, 0.09895628690719604, 0.0029459272045642138, -0.021368414163589478, 0.04736066609621048, 0.10883559286594391, -0.03308167681097984, -0.027401559054851532], [-0.0741417333483696, 0.0015391974011436105, 0.030656874179840088, 0.1589043140411377, 0.046972163021564484, 0.056617382913827896, -0.13523715734481812, -0.03882807120680809, 0.047706488519907, -0.10065320134162903], [0.07875154912471771, -0.1617143601179123, 0.057506263256073, -0.033711355179548264, -0.10670554637908936, 0.009195961058139801, -0.12076599895954132, 0.0349973663687706, 0.0328725203871727, -0.06807634979486465], [-0.04217417165637016, -0.03430822864174843, -0.09978582710027695, -0.002063390566036105, 0.10186665505170822, 0.0771641731262207, -0.067120760679245, 0.08232063800096512, -0.09623666107654572, 0.06332989782094955], [0.06350532919168472, 0.03491391986608505, -0.1079074889421463, -0.16537664830684662, 0.053487371653318405, -0.042599014937877655, 0.07953077554702759, 0.09036510437726974, -0.15902502834796906, 0.017812710255384445]], [[0.01045283768326044, 0.03987246751785278, -0.0695493221282959, -0.005091901868581772, 0.04998849332332611, -0.15812651813030243, 0.05540376529097557, -0.0973801463842392, -0.16803227365016937, -0.10368082672357559], [-0.05724792182445526, 0.0657687559723854, 0.0072777713648974895, 0.13387969136238098, -0.06228030472993851, 0.061319634318351746, -0.04669877514243126, -0.010900309309363365, 0.030224531888961792, -0.17514458298683167], [-0.023336609825491905, 0.07904167473316193, -0.030359122902154922, -0.10050415247678757, 0.04960634186863899, -0.07429591566324234, -0.016614651307463646, 0.06888005882501602, 0.0005702683702111244, 0.06364291906356812], [0.12259707599878311, 0.11174141615629196, 0.008187484927475452, -0.04223344847559929, 0.03428008034825325, 0.05747582018375397, -0.09739401936531067, -0.05364907160401344, 0.08384411782026291, -0.11104931682348251], [0.1453656256198883, 0.2013339102268219, -0.03421933203935623, -0.10137145966291428, -0.013707890175282955, -0.13479314744472504, 0.11335033178329468, 0.03371378034353256, -0.0496884323656559, 0.15683695673942566], [-0.06568962335586548, 0.1857987493276596, -0.037091292440891266, -0.01494866143912077, 0.18277890980243683, 0.029437202960252762, 0.08033905178308487, 0.03848472982645035, -0.08030818402767181, -0.08226639032363892], [-0.051119763404130936, 0.04265779256820679, 0.12086910754442215, 0.16672198474407196, -0.02775408700108528, 0.05260975658893585, -0.10145647078752518, -0.006818685680627823, -0.021012568846344948, -0.1470363438129425], [0.10272824019193649, -0.06459725648164749, 0.020929347723722458, 0.0731576457619667, -0.017800642177462578, 0.006344179157167673, -0.0772276371717453, 0.03827232867479324, 0.019019411876797676, -0.13163913786411285], [-0.11939632147550583, 0.027568573132157326, -0.08731815963983536, 0.031565312296152115, -0.019016068428754807, 0.10164213925600052, 0.039664048701524734, -0.004761106334626675, -0.1836116909980774, 0.13104447722434998], [0.12317250669002533, 0.09876541793346405, -0.1019769236445427, -0.17165611684322357, -0.07124308496713638, -0.17112448811531067, 0.08237137645483017, 0.029050104320049286, -0.08289681375026703, -0.0016271633794531226]], [[-0.07223343104124069, 0.03193974867463112, -0.06118132546544075, 0.01989879459142685, 0.026456432417035103, -0.03407199680805206, 0.019264670088887215, -0.05515771359205246, -0.03574037551879883, -0.22744235396385193], [-0.156425341963768, -0.09207998216152191, 0.064395472407341, 0.02589046210050583, -0.002134348265826702, 0.13353322446346283, -0.07414663583040237, -0.047582078725099564, 0.04876697063446045, -0.126046821475029], [0.0742703452706337, 0.14530448615550995, 0.05193846672773361, -0.06561096012592316, 0.0449800007045269, -0.11989734321832657, 0.06808482855558395, 0.12655013799667358, -0.06845678389072418, 0.1805294156074524], [0.061686351895332336, 0.1002051830291748, 0.10309352725744247, -0.028026891872286797, 0.0721367597579956, -0.0017469946760684252, -0.013488694094121456, 0.012452414259314537, 0.08697550743818283, -0.037366535514593124], [0.06910806149244308, 0.18107609450817108, -0.01758406311273575, -0.1456284523010254, 0.043881937861442566, -0.09968866407871246, -0.009557732380926609, 0.006657849065959454, -0.11115565150976181, 0.15111640095710754], [0.018301058560609818, 0.17928272485733032, 0.09600705653429031, 0.006071506999433041, 0.08075781911611557, -0.09214360266923904, 0.03935098275542259, 0.07939445972442627, 0.0940219834446907, -0.0639512911438942], [-0.1774938553571701, -0.11314719170331955, 0.057210538536310196, 0.15367825329303741, 0.020144594833254814, 0.14605876803398132, -0.02552053891122341, 0.017073217779397964, -0.023072052747011185, -0.11614889651536942], [0.0965413972735405, -0.13462556898593903, 0.034204836934804916, -0.03631693497300148, 0.0023518861271440983, -0.07915931195020676, -0.10265382379293442, -0.10652763396501541, -0.00019012001575902104, -0.0951547622680664], [-0.04098331183195114, -0.06793903559446335, -0.0583663135766983, -0.02346074767410755, 0.014321343973279, -0.0016985947731882334, -0.014591071754693985, 0.1184479370713234, -0.20247288048267365, 0.09887884557247162], [0.18861530721187592, 0.13450627028942108, 0.03483866900205612, -0.21550233662128448, -0.05253151059150696, -0.13184639811515808, 0.12892641127109528, 0.030882906168699265, 0.007412176113575697, -0.08329933136701584]], [[0.0037030684761703014, -0.08180274814367294, -0.09939710795879364, 0.0010890321573242545, 0.030691200867295265, -0.12256243824958801, -0.01014323253184557, -0.058587390929460526, 0.04721124470233917, -0.22990906238555908], [-0.12651705741882324, -0.1022246852517128, 0.022471453994512558, 0.08322339504957199, 0.03551708906888962, 0.19015444815158844, 0.005807983689010143, 0.022521184757351875, -0.0042736344039440155, -0.11110757291316986], [-0.023997390642762184, 0.1684432476758957, -0.004533533472567797, -0.09661826491355896, 0.0946112796664238, -0.060073256492614746, 0.04107668623328209, -0.028617629781365395, -0.09934166818857193, 0.1886930614709854], [-0.13932326436042786, -0.06266671419143677, 0.10923800617456436, 0.08219002932310104, 0.05696677044034004, 0.15101002156734467, 0.0425172857940197, 0.024157915264368057, 0.04691364988684654, 0.028560858219861984], [0.04794047027826309, 0.21659453213214874, 0.028799794614315033, -0.06325468420982361, -0.007672237232327461, -0.08874072134494781, 0.03709627687931061, 0.0795833095908165, -0.007756695616990328, 0.03436260297894478], [0.08970912545919418, 0.08681599050760269, 0.004978793207556009, -0.05387554690241814, 0.21057194471359253, -0.09458599239587784, 0.06161334365606308, 0.13186649978160858, -0.017938081175088882, -0.00026931404136121273], [-0.19446924328804016, -0.09525684267282486, 0.06230440363287926, 0.079683817923069, -0.023032795637845993, 0.229560986161232, 0.0017530217301100492, -0.006252297665923834, -0.1142818033695221, -0.08503841608762741], [0.10364627838134766, 0.010790138505399227, 0.06216675788164139, 0.11053938418626785, -0.01286238431930542, -0.1225709393620491, -0.06317425519227982, -0.09816128015518188, 0.03808723762631416, -0.04890405386686325], [-0.006727264728397131, -0.0157442819327116, -0.20805996656417847, -0.11910466104745865, -0.022901801392436028, 0.1335880607366562, 0.02965458296239376, -0.0020880894735455513, -0.2188383936882019, 0.11541638523340225], [0.21363113820552826, 0.02524675987660885, 0.017448050901293755, -0.25480926036834717, 0.10506513714790344, -0.074058398604393, 0.04660014063119888, -0.07641474902629852, 0.00038988672895357013, -0.13052935898303986]], [[0.06236647069454193, -0.015057853423058987, -0.10329505801200867, 0.09031753987073898, 0.005852523725479841, -0.10061553120613098, 0.1082095131278038, -0.10782802850008011, 0.0030916044488549232, -0.18353016674518585], [-0.20152050256729126, -0.07115461677312851, 0.054843731224536896, 0.11501219123601913, -0.0019443491473793983, 0.2016046792268753, 0.1106318011879921, -0.04777831956744194, -0.03458089008927345, 0.061132580041885376], [0.06990011781454086, 0.1877182126045227, 0.04305388778448105, -0.060119204223155975, 0.003363196272403002, -0.09054457396268845, 0.06603038311004639, 0.08587370812892914, -0.12493050843477249, 0.0014402808155864477], [-0.08286374807357788, 0.05778226628899574, 0.09328371286392212, 0.09942447394132614, 0.007472008466720581, 0.19400176405906677, -0.08751630783081055, 0.049037203192710876, -0.023367641493678093, -0.052079327404499054], [0.018661336973309517, 0.1939239203929901, -0.005543794948607683, -0.1554737091064453, 0.0792054608464241, -0.10872595757246017, -0.03489908576011658, 0.029798835515975952, -0.0779026672244072, -0.008643889799714088], [-0.022051822394132614, 0.06102632358670235, -0.0314975306391716, -0.013452274724841118, 0.12471029907464981, -0.0049349842593073845, 0.035754576325416565, 0.0758209303021431, 0.06941018998622894, -0.13369914889335632], [-0.21182473003864288, -0.07292626798152924, 0.013818000443279743, 0.1165137067437172, -0.006503766868263483, 0.14908911287784576, -0.05617323890328407, -0.017101900652050972, -0.06674475222826004, -0.029515936970710754], [0.07314059138298035, 0.0009131680708378553, 0.09149948507547379, 0.11759092658758163, 0.08591732382774353, -0.14415349066257477, -0.00671636126935482, -0.07244227826595306, 0.13682284951210022, -0.0177420973777771], [-0.005933085456490517, -0.07499583810567856, -0.13259045779705048, -0.02912052534520626, -0.11709307134151459, 0.1164226084947586, 0.08831549435853958, 0.12745793163776398, -0.06259895116090775, 0.14587710797786713], [0.13352233171463013, 0.12665611505508423, 0.04507571458816528, -0.1465158462524414, 0.06357629597187042, -0.13944004476070404, -0.029763763770461082, -0.042557477951049805, 0.09037245064973831, -0.1430933177471161]]], [[[-0.20869633555412292, -0.06510523706674576, -0.009329231455922127, -0.05911078304052353, 0.011291798204183578, -0.1819869875907898, 0.013372677378356457, -0.026893265545368195, -0.16903823614120483, -0.0006048880168236792], [-0.05284638702869415, 0.14545974135398865, 0.18472155928611755, 0.07057006657123566, 0.026102421805262566, 0.16155877709388733, -0.03890428692102432, -0.05581529811024666, 0.07737772166728973, 0.026794245466589928], [0.20845749974250793, 0.1193089485168457, 0.06955364346504211, 0.03601963073015213, -0.011881163343787193, 0.11484111100435257, 0.13435740768909454, 0.05932709947228432, 0.07343588024377823, -0.09935194998979568], [0.08607398718595505, 0.11192592978477478, 0.10204543173313141, 0.18420624732971191, 0.07782167196273804, -0.037346359342336655, 0.011025641113519669, -0.06252652406692505, 0.08374936133623123, 0.1529330611228943], [0.2225084900856018, 0.07152622193098068, 0.10950158536434174, 0.13961781561374664, 0.10939814150333405, 0.15141484141349792, -0.01399390958249569, -0.015291848219931126, -0.033916305750608444, -0.08483439683914185], [-0.037290867418050766, 0.19441571831703186, 0.034585852175951004, 0.13386863470077515, -0.009257657453417778, -0.06834239512681961, 0.035402752459049225, 0.027464933693408966, -0.09141892939805984, 0.09704693406820297], [-0.039189666509628296, 0.07305054366588593, 0.10989440232515335, 0.07149554789066315, 0.007378558162599802, 0.12144909054040909, -0.12289568781852722, -0.13132008910179138, 0.06324782967567444, 0.05220594257116318], [0.004772847052663565, -0.005059707444161177, 0.025566253811120987, 0.044365283101797104, 0.027029043063521385, -0.033524129539728165, -0.025061914697289467, 0.023547083139419556, -0.15186113119125366, -0.06374691426753998], [-0.017982792109251022, -0.050996508449316025, -0.004955563694238663, -0.15795670449733734, -0.04993229731917381, 0.01748053729534149, 0.040422458201646805, 0.041988007724285126, 0.06973247230052948, -0.0009307535947300494], [0.11550945043563843, 0.04301440343260765, -0.005411949474364519, 0.06550365686416626, -0.013711076229810715, -0.03778737038373947, 0.1030462384223938, 0.07717010378837585, -0.07344157993793488, -0.0447622574865818]], [[-0.07384616881608963, -0.03845677897334099, 0.011186933144927025, 0.025498338043689728, 0.020070595666766167, -0.17280013859272003, 0.042617034167051315, 0.04492707923054695, -0.2131900191307068, 0.028793511912226677], [-0.1027757003903389, 0.11247197538614273, 0.1892791986465454, 0.06111062690615654, 0.08324407041072845, 0.08535544574260712, -0.046191781759262085, -0.04552629590034485, -0.006431299727410078, 0.0327489972114563], [0.07327444851398468, 0.13653430342674255, 0.100737065076828, 0.05173761397600174, 0.0011537056416273117, -0.02688302844762802, 0.009458695538341999, 0.01900012046098709, 0.0691969245672226, -0.10949315875768661], [0.08408675342798233, 0.07168706506490707, 0.0567992739379406, 0.04094767943024635, 0.04038862884044647, 0.08139082789421082, 0.02385157346725464, -0.05803147330880165, 0.08835423737764359, 0.11669952422380447], [0.16682907938957214, 0.17132699489593506, 0.13015560805797577, -0.015067431144416332, 0.056754790246486664, 0.09888675063848495, 0.012982571497559547, 0.0408458411693573, 0.035718392580747604, -0.06653005629777908], [-0.0049957032315433025, 0.050915829837322235, 0.039358317852020264, 0.0475606769323349, 0.08397860080003738, 0.019433384761214256, 0.09156230092048645, -0.01450747437775135, -0.012322429567575455, 0.13094882667064667], [-0.08523862808942795, 0.0713750422000885, 0.0718575119972229, 0.0952049270272255, 0.04728104919195175, 0.08434787392616272, -0.05882203206419945, -0.05405369773507118, 0.1251695454120636, -0.01944907382130623], [0.03144955635070801, -0.07094071060419083, -0.0042152865789830685, 0.11217943578958511, 0.007497215177863836, 0.03404703736305237, 0.016886787489056587, -0.07144145667552948, -0.10489198565483093, 0.011066100560128689], [-0.14226627349853516, -0.03936313837766647, 0.026716075837612152, -0.17696328461170197, -0.02447918802499771, 0.13728861510753632, -0.008080048486590385, 0.15393270552158356, -0.014495816081762314, 0.03909587860107422], [0.03266516700387001, -0.03599796071648598, 0.05483623966574669, 0.028508424758911133, 0.10982674360275269, -0.045646101236343384, 0.12849050760269165, 0.09149639308452606, -0.09148669242858887, -0.03971355780959129]], [[-0.13492734730243683, 0.04389658942818642, -0.07562538981437683, 0.12929658591747284, -0.0214617270976305, -0.045538123697042465, -0.03712173178792, 0.026833193376660347, -0.12686899304389954, 0.031072644516825676], [0.007512405049055815, 0.01957094669342041, 0.09953763335943222, 0.06544184684753418, 0.032189466059207916, 0.1027962788939476, -0.07563716918230057, 0.014412403106689453, 0.130152627825737, -0.052871592342853546], [0.10126566886901855, 0.07470224052667618, -0.029546499252319336, -0.024549497291445732, -0.014478771947324276, 0.0006836769171059132, 0.017519015818834305, 0.16200003027915955, 0.06183460354804993, 0.06931707262992859], [0.08037111908197403, 0.015445883385837078, -0.0014245087513700128, 0.0774524062871933, -0.01829463616013527, 0.12799614667892456, 0.0015477094566449523, -0.017447898164391518, 0.11282595247030258, 0.03943216800689697], [0.024469604715704918, 0.1470731645822525, 0.04758295789361, -0.028992367908358574, 0.0972277969121933, -0.03802870959043503, 0.13136261701583862, 0.10374321788549423, 0.04164469614624977, 0.030584968626499176], [-0.023452583700418472, 0.1857505440711975, -0.059392377734184265, 0.09876612573862076, 0.04967717453837395, 0.09093545377254486, 0.04391846805810928, -0.025032268837094307, -0.04343462362885475, -0.006545691750943661], [0.012620770372450352, 0.06546735763549805, 0.16444402933120728, 0.012240907177329063, -0.023447126150131226, 0.2148485779762268, -0.11594532430171967, 0.038727231323719025, 0.08599754422903061, -0.011456719599664211], [0.052556995302438736, -0.09420987963676453, 0.061251770704984665, -0.017029374837875366, -0.0010219454998150468, 0.13023751974105835, -0.04028073698282242, -0.02025182917714119, -0.033972032368183136, 0.06046254560351372], [-0.12823374569416046, -0.04091464728116989, -0.08543022722005844, -0.06716987490653992, -0.08595199137926102, 0.0631873682141304, -0.03843814507126808, 0.12585417926311493, -0.047625716775655746, 0.040309131145477295], [-0.01962827891111374, 0.07799380272626877, -0.04729428142309189, -0.03973327949643135, 0.10581705719232559, -0.06069405749440193, 0.010709071531891823, 6.488532380899414e-05, -0.11187642067670822, 0.008035968989133835]], [[-0.017316337674856186, 0.08736071735620499, -0.12223698943853378, 0.0521567240357399, -0.01682613044977188, 0.12224770337343216, -0.10094960033893585, -0.04640756547451019, -0.19039073586463928, -0.07274037599563599], [-0.13462355732917786, -0.014102309942245483, 0.09083640575408936, -0.0007560715894214809, -0.08782535791397095, 0.15884897112846375, -0.06740725785493851, 0.031756047159433365, 0.05504075065255165, -0.05180014297366142], [0.09803199768066406, 0.06273538619279861, -0.040871694684028625, -0.04794413223862648, 0.12045853585004807, 0.010276633314788342, 0.06498008221387863, 0.1284341812133789, 0.02766801416873932, 0.10443581640720367], [0.03979944810271263, 0.08421682566404343, 0.02645331434905529, 0.07224855571985245, 0.004569214303046465, 0.11006509512662888, -0.006907631177455187, -0.04984951764345169, 0.06326714158058167, -0.07504160702228546], [0.025217687711119652, 0.11093994230031967, 0.038241006433963776, 0.02603291906416416, 0.03329811990261078, 0.02601783722639084, 0.0990871787071228, -0.0261984970420599, 0.06593106687068939, 0.07267706096172333], [-0.1040635034441948, 0.1849633902311325, 0.08345811069011688, 0.0028088074177503586, 0.08559531718492508, 0.11264805495738983, -0.04932176321744919, 0.07917470484972, -0.01565280184149742, 0.05462469533085823], [-0.13056133687496185, -0.06108679622411728, 0.0648241639137268, 0.061572957783937454, -0.024243013933300972, 0.12236185371875763, -0.18115371465682983, 0.07378920912742615, 0.0474434457719326, -0.07670170813798904], [0.06541357934474945, -0.023169133812189102, -0.02572578378021717, 0.06753392517566681, 0.10631949454545975, 0.08130833506584167, -0.10749056935310364, -0.05788811668753624, 0.0013455860316753387, -0.02537234127521515], [-0.15058988332748413, -0.14292903244495392, 0.021440312266349792, -0.06374575942754745, -0.13511712849140167, 0.035264499485492706, 0.030803117901086807, 0.1571119874715805, -0.058921124786138535, 0.04178237169981003], [0.051851123571395874, 0.1115577444434166, -0.00039016312803141773, -0.002947309287264943, 0.11628870666027069, -0.06206267699599266, 0.0854770690202713, 0.011264592409133911, -0.017938464879989624, -0.12509094178676605]], [[0.046181995421648026, -0.031447168439626694, -0.002558864885941148, 0.12289953231811523, 0.08591464161872864, 0.20427371561527252, 0.026411956176161766, -0.014889465644955635, -0.15943963825702667, -0.11813180148601532], [-0.1830369085073471, -0.10111407190561295, 0.04971933737397194, 0.1440696269273758, -0.09468919783830643, 0.040982186794281006, -0.07803415507078171, -0.008817664347589016, 0.026569293811917305, 0.014240509830415249], [0.08756296336650848, 0.09160587936639786, -0.032262567430734634, -0.045631952583789825, 0.05665550008416176, -0.09952565282583237, -0.009749018587172031, 0.12799440324306488, 0.07855130732059479, 0.04854573309421539], [-0.07857663184404373, -0.015977153554558754, 0.04376591742038727, 0.10613764822483063, -0.04754078760743141, 0.264242559671402, -0.044972386211156845, 0.07903429120779037, 0.007312481291592121, -0.09826990962028503], [0.05904641002416611, 0.11113215237855911, -0.06851815432310104, -0.007471635937690735, 0.07449471205472946, 0.08071152865886688, 0.12287851423025131, 0.06477482616901398, 0.07362714409828186, 0.04916340485215187], [-0.06124090030789375, 0.17530293762683868, -0.007031296845525503, -0.043273165822029114, 0.1260780692100525, 0.32133230566978455, -0.03546920791268349, 0.08690261840820312, 0.019800633192062378, 0.05539781227707863], [-0.20896579325199127, -0.013423134572803974, -0.035066526383161545, 0.12553410232067108, -0.039463918656110764, 0.13527745008468628, -0.14103400707244873, 0.08952789753675461, -0.08658845722675323, 0.03849539905786514], [0.01680750772356987, 0.018613144755363464, 0.07108873128890991, 0.021745070815086365, 0.05581687390804291, 0.10247951000928879, -0.055668506771326065, -0.013498077169060707, 0.12315143644809723, 0.018816053867340088], [0.006369256880134344, 0.00941981840878725, -0.09991849958896637, -0.017051205039024353, -0.07261643558740616, -0.07105915248394012, 0.05592024698853493, 0.09170371294021606, -0.11147961765527725, 0.07220768183469772], [-0.028242336586117744, 0.02157563716173172, 0.026327628642320633, -0.1009608805179596, 0.07280290871858597, -0.06721130013465881, 0.14256343245506287, -0.04518003389239311, 0.004876381251960993, -0.08999621868133545]], [[0.07518670707941055, -0.09566546976566315, -0.0632416233420372, 0.12913459539413452, -0.017809800803661346, 0.15409255027770996, 0.11045680940151215, -0.014883066527545452, -0.042060308158397675, -0.024143092334270477], [-0.08986040204763412, -0.09923455864191055, -0.0029034779872745275, 0.11287187784910202, -0.09442297369241714, 0.07925709336996078, 0.004534647800028324, 0.025903545320034027, 0.005833829287439585, -0.01727449893951416], [-0.009113144129514694, 0.16803891956806183, 0.02979043498635292, -0.04649735987186432, 0.004276355728507042, -0.12406042963266373, 0.06746809184551239, 0.05787203088402748, -0.023043883964419365, 0.06422796100378036], [-0.17864423990249634, -0.01951655000448227, 0.07218495011329651, 0.08763177692890167, -0.06425435096025467, 0.1567305028438568, -0.07255876064300537, 0.035237301141023636, -0.007937496528029442, 0.008030751720070839], [0.010986309498548508, 0.028425125405192375, -0.017614006996154785, 0.003560320008546114, 0.12607944011688232, 0.06018587201833725, 0.040704257786273956, -0.055459439754486084, 0.10247087478637695, -0.07481463253498077], [0.0625578835606575, 0.021393440663814545, 0.0030760294757783413, -0.03558177128434181, 0.15985339879989624, 0.3976863920688629, 0.10368016362190247, 0.02377401664853096, -0.018391573801636696, -0.026814311742782593], [-0.22271005809307098, -0.1415800005197525, 0.06297790259122849, 0.14282141625881195, -0.025405919179320335, 0.15043145418167114, -0.04281867295503616, 0.15133409202098846, -0.04496774077415466, 0.018297545611858368], [0.12088384479284286, 0.016319209709763527, 0.054982177913188934, 0.09068957716226578, -0.006645701825618744, 0.028897009789943695, -0.013093921355903149, -0.016814397647976875, 0.18239164352416992, 0.0010271313367411494], [-0.028999028727412224, -0.10431714355945587, -0.1822075992822647, 0.030575338751077652, -0.039719823747873306, 0.07182049006223679, 0.07485155016183853, 0.033384695649147034, -0.09434529393911362, 0.17642179131507874], [0.09058422595262527, 0.09200072288513184, -0.0812327191233635, -0.02965039387345314, 0.13359610736370087, 0.007039125543087721, 0.2037002593278885, 0.022434746846556664, 0.06146162748336792, -0.027674317359924316]], [[0.12070174515247345, -0.19819141924381256, -0.1332981139421463, 0.0540948212146759, -0.16310471296310425, 0.14448288083076477, 0.018050657585263252, -0.06754102557897568, -0.08879958093166351, -0.03450677916407585], [-0.16905666887760162, -0.1078583151102066, -0.07500288635492325, 0.19357390701770782, -0.1378382295370102, 0.038649920374155045, -0.04852676019072533, 0.061368659138679504, -0.005978526547551155, 0.04181865230202675], [0.01004055980592966, 0.1318717896938324, -0.07917866855859756, -0.002105514984577894, 0.15731306374073029, -0.11456958204507828, -0.009466422721743584, -0.03524398431181908, -0.07923124730587006, -0.10455729812383652], [-0.08376915007829666, -0.018778519704937935, -0.011770189739763737, 0.13108059763908386, -0.14567556977272034, 0.11798299849033356, -0.12474603205919266, 0.06138325855135918, 0.04532299563288689, 0.018512889742851257], [-0.03690511733293533, 0.06545005738735199, -0.01356610655784607, -0.10222410410642624, 0.01525738462805748, 0.02260381355881691, 0.04911234229803085, 0.059293340891599655, -0.06509305536746979, -0.09691087156534195], [-0.049845464527606964, -0.05397023260593414, -0.0044593834318220615, 0.12001413851976395, 0.05338523909449577, 0.36921313405036926, -0.006212790962308645, 0.05847980082035065, -0.04270840063691139, 0.010012905113399029], [-0.20633402466773987, -0.03947407007217407, -0.07700932770967484, 0.18836547434329987, -0.06082513555884361, 0.16248540580272675, -0.08207239210605621, 0.06002426892518997, -0.10730145871639252, 0.17347554862499237], [0.05647240951657295, -0.03968418762087822, 0.0106576569378376, 0.07212261855602264, 0.04080108180642128, 0.011465205810964108, 0.02146870829164982, -0.07531271129846573, 0.10621636360883713, -0.041913196444511414], [-0.07478287070989609, 0.056806664913892746, -0.18141725659370422, 0.0347222238779068, -0.08373410254716873, 0.041540902107954025, 0.1259402334690094, 0.1406790018081665, -0.05867256969213486, 0.18893657624721527], [0.12398837506771088, 0.01081791426986456, -0.08541169762611389, -0.20651330053806305, 0.04723615199327469, 0.07564857602119446, 0.15130303800106049, -0.10180753469467163, 0.014309201389551163, -0.01801314949989319]]], [[[-0.22297672927379608, -0.07314064353704453, -0.02644299529492855, -0.01475662924349308, -0.038171328604221344, -0.08454091846942902, -0.08979165554046631, -0.0552341565489769, -0.04285373166203499, -0.008288966491818428], [-0.11717389523983002, 0.11530426889657974, 0.08068299293518066, 0.10060254484415054, -0.03389745205640793, 0.012386622838675976, -0.09283044934272766, 0.007595194038003683, -0.018907422199845314, 0.0704524964094162], [0.1091117262840271, 0.04885478690266609, 0.1818617731332779, 0.14839112758636475, 0.004757211543619633, 0.019561151042580605, 0.04752952232956886, -0.01630260795354843, 0.031373318284749985, -0.1045491099357605], [0.09473453462123871, 0.09550946950912476, 0.06321846693754196, 0.10685107111930847, -0.08166871964931488, -0.008448169566690922, 0.004675933159887791, -0.0672454684972763, 0.11726174503564835, 0.020125823095440865], [0.19262263178825378, 0.15843401849269867, 0.12638764083385468, 0.04436175897717476, 0.13354021310806274, 0.0752735510468483, -0.015262356959283352, -0.0631532371044159, 0.013686243444681168, 0.041094306856393814], [-0.053956761956214905, 0.03306064009666443, 0.05477001145482063, 0.019512291997671127, -0.014728514477610588, -0.0389903299510479, -0.007271599490195513, -0.025614779442548752, 0.017166655510663986, 0.13810542225837708], [-0.10190021991729736, 0.027974385768175125, -0.010752459056675434, 0.09129665791988373, -0.013110963627696037, 0.17906014621257782, -0.0033547463826835155, -0.07384093105792999, 0.08377332240343094, 0.08729936182498932], [0.08675912022590637, -0.11193686723709106, 0.05845703184604645, -0.011355380527675152, -0.07307709008455276, 0.010265760123729706, -0.07627178728580475, -0.012420034036040306, -0.1612926423549652, -0.09593124687671661], [-0.06450457870960236, -0.045658089220523834, 0.024458179250359535, -0.18351969122886658, -0.11083096265792847, -0.003957556560635567, -0.14832720160484314, 0.04761093482375145, -0.054681189358234406, 0.010106973350048065], [0.11330203711986542, 0.016493532806634903, -0.007827438414096832, 0.030309684574604034, 0.021883536130189896, 0.10840393602848053, -0.017009031027555466, 0.0525648407638073, -0.0007622545817866921, -0.1095675677061081]], [[-0.021369146183133125, -0.013544420711696148, 0.04179667308926582, -0.06833929568529129, -0.004933931864798069, -0.06703785061836243, -0.12192805111408234, -0.09923180937767029, -0.092069111764431, 0.11387534439563751], [-0.08144135028123856, 0.02359529584646225, 0.07924400269985199, -0.007840970531105995, -0.06584511697292328, 0.13068976998329163, -0.08362643420696259, 0.03833118826150894, 0.0317058339715004, 0.13254541158676147], [0.12413641065359116, 0.17377616465091705, 0.03307143226265907, 0.08466032147407532, 0.1259845793247223, 0.03850749135017395, 0.035247553139925, 0.08543034642934799, 0.0072638653218746185, -0.0359637476503849], [-0.020886577665805817, -0.008019662462174892, -0.07866338640451431, 0.08226363360881805, -0.09375343471765518, 0.11453437060117722, -0.03795494884252548, -0.020602326840162277, 0.05072565749287605, 0.04443657770752907], [0.1564205139875412, 0.10448066145181656, 0.06516475975513458, 0.0774536058306694, 0.13586942851543427, 0.1245613545179367, -0.017833905294537544, 0.07164402306079865, 0.027035251259803772, -0.10148926079273224], [-0.12549903988838196, 0.1126171350479126, 0.01257743127644062, 0.09251726418733597, 0.10025516897439957, 0.034460220485925674, 0.04502173513174057, 0.01137752179056406, 0.053384773433208466, 0.13844148814678192], [-0.06201322376728058, 0.11749488860368729, 0.11987139284610748, 0.03596232086420059, -0.11427506059408188, 0.2258257269859314, -0.013546827249228954, 0.007974457927048206, -0.02078779600560665, 0.09222493320703506], [-0.04226960986852646, -0.03504088148474693, 0.01139737293124199, -0.024640342220664024, 0.039557844400405884, -0.02627355232834816, -0.0437530018389225, -0.01587485708296299, -0.027046972885727882, 0.07272860407829285], [-0.07341937720775604, -0.07350141555070877, -0.01624567061662674, -0.19600261747837067, -0.050307273864746094, 0.04669802263379097, -0.135827898979187, 0.029568081721663475, 0.02443324774503708, 0.00614037225022912], [0.11102326959371567, 0.12459275126457214, -0.016455480828881264, -0.030219553038477898, -0.0002672529953997582, 0.07739480584859848, 0.09877636283636093, 0.13721758127212524, -0.0276535302400589, -0.023214111104607582]], [[0.016133170574903488, -0.02249455638229847, -0.07407211512327194, 0.11437444388866425, -0.006894421298056841, -0.00012366409646347165, -0.0003158091858495027, -0.011456320993602276, -0.09787356108427048, 0.05272701382637024], [0.0050941575318574905, -0.024972258135676384, 0.021764256060123444, 0.0501406230032444, -0.14439921081066132, 0.22237145900726318, -0.11157935112714767, -0.027058495208621025, -0.012801333330571651, -0.022494230419397354], [0.09828273952007294, 0.1760546714067459, 0.09062864631414413, 0.08226306736469269, 0.052311718463897705, 0.14676855504512787, -0.0028265221044421196, 0.00946030393242836, 0.03727218881249428, 0.05614030361175537], [-0.0015351843321695924, -0.0869431272149086, -0.006754065863788128, 0.022693872451782227, -0.11774303019046783, -0.03899351879954338, -0.07434864342212677, 0.026138033717870712, 0.12701421976089478, -0.018895398825407028], [0.06428974866867065, 0.029641510918736458, -0.01956203207373619, 0.05589258298277855, 0.0012525490019470453, 0.04724819213151932, 0.04482175037264824, 0.060397956520318985, -0.022954152897000313, -0.025875702500343323], [-0.01722264289855957, 0.09411302208900452, -0.1297193318605423, -0.07785367220640182, 0.14333641529083252, 0.02245919592678547, -0.03846292570233345, -0.09903469681739807, -0.06241416186094284, 0.14371870458126068], [-0.10876185446977615, 0.023237045854330063, 0.07874255627393723, 0.030414007604122162, -0.14303617179393768, 0.11361899971961975, -0.01807066984474659, -0.04727403074502945, 0.009809049777686596, -0.020961033180356026], [0.07498131692409515, 0.013419687747955322, 0.030233753845095634, 0.021524567157030106, 0.06444985419511795, -0.056506942957639694, 0.006394407711923122, -0.061825428158044815, -0.046455107629299164, -0.010435270145535469], [-0.058427583426237106, -0.13079434633255005, 0.025237327441573143, -0.05558370053768158, -0.08862283825874329, 0.1341845691204071, -0.002715459791943431, 0.033914800733327866, -0.06868355721235275, -0.0785495713353157], [-0.07715822011232376, 0.026705699041485786, 0.045424092561006546, 0.028502101078629494, 0.09192632138729095, 0.07059679180383682, 0.03267758712172508, 0.06940262764692307, 0.05228618159890175, -0.08772283792495728]], [[-0.0654703751206398, -0.11648789793252945, -0.05469398945569992, -0.0029254723340272903, 0.0727233961224556, 0.1982545703649521, -0.09626244753599167, -0.07872094959020615, -0.05980101227760315, -0.00656617758795619], [-0.018436366692185402, -0.003519657999277115, 0.11870738863945007, 0.08312637358903885, -0.1337745487689972, 0.09805500507354736, -0.10297121852636337, 0.07777537405490875, -0.03915121778845787, -0.052191782742738724], [-0.021068168804049492, 0.20039775967597961, 0.029991837218403816, -0.02564467117190361, -0.01699957251548767, 0.07431219518184662, 0.0013165047857910395, 0.029639367014169693, 0.15733066201210022, 0.08775811642408371], [-0.10885784775018692, -0.0235883891582489, 0.025605618953704834, -0.026695797219872475, -0.03228851407766342, -0.050140708684921265, -0.04209810495376587, -0.052825264632701874, 0.09156151115894318, -0.10622198134660721], [-0.019163377583026886, 0.06166951358318329, 0.014662615954875946, 0.01263367384672165, 0.09772608429193497, 0.09037908166646957, 0.04908183217048645, 0.08978494256734848, 0.022039899602532387, 0.022059135138988495], [-0.11453204602003098, 0.05216865986585617, -0.00882810354232788, -0.07645497471094131, 0.03200715780258179, 0.18328705430030823, -0.04037397354841232, 0.03861038386821747, 0.058424726128578186, -0.035119593143463135], [-0.07554995268583298, 0.009411551058292389, 0.1002732515335083, 0.11165320873260498, -0.04915717616677284, 0.14069566130638123, -0.1160191223025322, -0.03427152708172798, -0.007321617100387812, -0.0469021312892437], [0.0764366164803505, -0.03513383865356445, 0.029748231172561646, 0.030741482973098755, -0.018408145755529404, 0.08465438336133957, 0.010672001168131828, -0.04642881080508232, 0.0016023843782022595, -0.028145458549261093], [-0.016886597499251366, -0.0733518898487091, 0.057878654450178146, 0.06942115724086761, -2.5462097255513072e-05, -0.031039999797940254, 0.05164114758372307, 0.08117587864398956, -0.13197745382785797, -0.04364170879125595], [-0.011512493714690208, 0.09756095707416534, -0.11895836889743805, 0.021638475358486176, 0.01296255923807621, 0.02214575558900833, 0.11082913726568222, 0.004013687837868929, 0.028099171817302704, -0.02924036979675293]], [[-0.08247687667608261, -0.06344383955001831, -0.06468973308801651, 0.03282811492681503, -0.126695916056633, 0.25624880194664, -0.0338270477950573, -0.04815629497170448, -0.13572761416435242, 0.07138565182685852], [-0.05630984529852867, -0.006221085786819458, 0.06900579482316971, 0.03506765887141228, -0.07793445140123367, 0.15890997648239136, -0.155152827501297, 0.08085715770721436, 0.06005260720849037, 0.06410413980484009], [-0.08599662035703659, 0.14903120696544647, 0.085923932492733, 0.0952182412147522, 0.1278214454650879, 0.04300644248723984, 0.08386383950710297, 0.0638623759150505, 0.050245609134435654, 0.06569132953882217], [-0.00751078687608242, -0.02812715619802475, 0.04880138859152794, -0.030345963314175606, -0.11875749379396439, 6.0651349485851824e-05, -0.035942018032073975, -0.05645390599966049, 0.04492831975221634, 0.004013879224658012], [0.015210309065878391, 0.0077299559488892555, 0.06805992126464844, -0.047143712639808655, 0.0904281958937645, 0.08891351521015167, 0.1293693333864212, 0.049361299723386765, 0.15887659788131714, -0.07323969155550003], [-0.07672286778688431, -0.03573083132505417, -0.02989298850297928, -0.09702301770448685, -0.028614195063710213, 0.2478133738040924, -0.0011610203655436635, 0.05415784940123558, 0.0158594511449337, 0.0038854805752635], [-0.04244707152247429, 0.053109556436538696, 0.06355009973049164, 0.0855502113699913, -0.07493144273757935, 0.10862838476896286, -0.1652902066707611, 0.10774815827608109, -0.039386093616485596, 0.08135754615068436], [0.08037931472063065, -0.08168376237154007, 0.006675360724329948, -0.02822303958237171, 0.05419221892952919, 0.06850077211856842, -0.09945245832204819, -0.040830567479133606, 0.14247828722000122, 0.016512595117092133], [-0.01660826802253723, -0.092899389564991, -0.07521113753318787, -0.012520860880613327, -0.10573073476552963, -0.17356570065021515, 0.025158485397696495, 0.09706787765026093, -0.0565931536257267, -0.0265614353120327], [0.017259549349546432, 0.04076876863837242, 0.010607760399580002, -0.0279807448387146, -0.004182660486549139, 0.06335718929767609, 0.1397247612476349, 0.10999046266078949, 0.05772121250629425, -0.09757085889577866]], [[-0.021821491420269012, -0.1318383365869522, -0.03604058176279068, -0.009908157400786877, -0.13109995424747467, 0.25718700885772705, 0.080581434071064, 0.02282743714749813, -0.17002299427986145, 0.08793561160564423], [-0.05064186081290245, 0.05203164741396904, 0.08169502764940262, 0.07982075214385986, -0.08289993554353714, 0.06903079152107239, -0.13270077109336853, 0.028296157717704773, 0.042661603540182114, 0.05234033986926079], [-0.13927920162677765, 0.06574540585279465, 0.0410488024353981, -0.03773903474211693, 0.14555475115776062, 0.0265895277261734, 0.16797368228435516, 0.11053531616926193, 0.054447729140520096, -0.15682196617126465], [-0.09156671911478043, 0.0893639624118805, 0.040759485214948654, 0.027508368715643883, -0.1364104300737381, -0.03152909502387047, -0.05580354481935501, -0.016019340604543686, -0.026937216520309448, 0.04402994364500046], [0.029719483107328415, 0.04532765969634056, -0.05030282586812973, -0.015178182162344456, 0.06383543461561203, 0.05644725263118744, 0.17368653416633606, 0.04663367196917534, 0.042250584810972214, -0.09429490566253662], [-0.06854197382926941, -0.031041152775287628, -0.018071088939905167, -0.09905251860618591, -0.09101664274930954, 0.2769501805305481, 0.07531435042619705, 0.03481222316622734, 0.04132813215255737, -0.0071113454177975655], [-0.172551229596138, -0.0451367162168026, -0.03209972009062767, 0.1558324247598648, 0.03671232610940933, -0.01605590619146824, -0.07003964483737946, 0.017467116937041283, -0.02280646190047264, 0.02498212642967701], [0.0738106295466423, -0.0631759762763977, 0.0454166904091835, -0.013134327717125416, 0.003480101702734828, -0.028389714658260345, -0.0335141159594059, -0.03451712429523468, 0.19314803183078766, -0.06654825061559677], [-0.07546547055244446, -0.02637786976993084, -0.16213977336883545, 0.01712137833237648, 0.021989071741700172, -0.11851809918880463, 0.013299725018441677, 0.11316591501235962, -0.13971222937107086, 0.015686895698308945], [0.050005339086055756, 0.02183998003602028, -0.001153465360403061, -0.08764036744832993, -0.02185855619609356, 0.1305290162563324, 0.2231779247522354, 0.02188408374786377, 0.011190843768417835, -0.0442417711019516]], [[0.06984255462884903, -0.0823093056678772, -0.06236080080270767, 0.057561829686164856, -0.11560138314962387, 0.1719403713941574, 0.08009131997823715, 0.07020726799964905, -0.06338737905025482, 0.0385824479162693], [-0.14386315643787384, 0.07992115616798401, -0.09340209513902664, 0.1825977861881256, 0.037006255239248276, -0.014184052124619484, -0.11123940348625183, 0.14166277647018433, -0.004538172390311956, 0.16948597133159637], [-0.10029485821723938, 0.09915097802877426, -0.01738918013870716, -0.05015123635530472, 0.07791437953710556, 0.020030852407217026, 0.13798145949840546, -0.008115913718938828, 0.00988470483571291, -0.11815392971038818], [-0.055589281022548676, 0.052002254873514175, -0.02431538701057434, -0.012483113445341587, -0.10772597789764404, -0.151177778840065, -0.11089234799146652, 0.022266382351517677, -0.009533815085887909, 0.061631910502910614], [0.017865197733044624, 0.10676516592502594, 0.003742747474461794, -0.012557045556604862, 0.10190898925065994, 0.049314532428979874, 0.10815858095884323, 0.017030082643032074, 0.04738057777285576, -0.12029320746660233], [-0.08879093825817108, 0.010701370425522327, -0.047785039991140366, -0.028374234214425087, -0.15993641316890717, 0.23600445687770844, 0.10646720975637436, 0.09404968470335007, -0.06987759470939636, -0.07267048954963684], [-0.18374013900756836, -0.028515011072158813, 0.009023688733577728, 0.18542759120464325, 0.005727001465857029, -0.04507773369550705, -0.08389361202716827, 0.09807910770177841, -0.033928077667951584, 0.1898893415927887], [-0.011179600842297077, -0.061767883598804474, 0.11211451143026352, -0.001352173276245594, 0.05192270502448082, 0.015696529299020767, -0.010762515477836132, 0.014817777089774609, 0.10332569479942322, -0.10382119566202164], [0.07552774250507355, 0.13080617785453796, -0.1909390389919281, -0.1061328575015068, 0.10007867962121964, 0.026127878576517105, 0.1058943048119545, 0.04756423085927963, -0.13694122433662415, 0.19905675947666168], [0.019696468487381935, 0.06459473073482513, -0.016391558572649956, -0.07762625068426132, -0.0015561884501948953, 0.07098405808210373, 0.10733184963464737, 0.05878987908363342, -0.05107223987579346, -0.0909561887383461]]], [[[-0.1940193474292755, -0.15092545747756958, -0.03114321455359459, -0.028068609535694122, 0.02283957041800022, 0.016602592542767525, -0.06412726640701294, -0.07607584446668625, -0.029595257714390755, 0.08654457330703735], [-0.05223236232995987, 0.01829616352915764, 0.08455110341310501, -0.033302973955869675, -0.04948555678129196, -0.015538908541202545, -0.012642079032957554, 0.08977525681257248, 0.042562827467918396, 0.09788364171981812], [0.11016547679901123, 0.1499921977519989, 0.007950683124363422, 0.09154023230075836, 0.05648333579301834, -0.03759709745645523, -0.0350659117102623, 0.004226987715810537, -0.06771674007177353, 0.0365123450756073], [0.09683331102132797, -0.044053446501493454, 0.02169819362461567, 0.013913797214627266, -0.13803084194660187, 0.034572046250104904, 0.050603196024894714, -0.072520911693573, -0.0023089952301234007, -0.029133932664990425], [0.03605690971016884, 0.06796631962060928, 0.15045523643493652, 0.1547727882862091, -0.00815278198570013, 0.07117819786071777, -0.06317024677991867, -0.0723738893866539, 0.07612498849630356, 0.0009733214974403381], [-0.12553979456424713, -0.01980549842119217, 0.007352045737206936, -0.04509613290429115, 0.036880455911159515, -0.07808693498373032, -0.01457616500556469, 0.08192994445562363, 0.06321114301681519, 0.05927414447069168], [-0.10298383235931396, 0.022372402250766754, 0.025251872837543488, 0.031953707337379456, -0.0014876587083563209, -0.05049670487642288, -0.06517326831817627, -0.01531692873686552, 0.07072839885950089, -0.020650461316108704], [0.0035438579507172108, -0.0735432505607605, -0.10614045709371567, 0.0684685930609703, -0.08789011836051941, -0.1232382282614708, 0.05300712585449219, -0.04419044032692909, -0.11091180145740509, -0.15077003836631775], [0.07584817707538605, 0.03694628179073334, 0.08947489410638809, -0.12075065076351166, -0.12074979394674301, 0.06073068827390671, -0.06800476461648941, 0.010020064190030098, 0.005824300926178694, -0.13260643184185028], [0.07078603655099869, 0.10936795175075531, 0.06608794629573822, 0.08561360836029053, -0.04564209282398224, 0.12775933742523193, -0.16809622943401337, 0.0033653746359050274, 0.11990986764431, 0.017916744574904442]], [[-0.05109120532870293, -0.17322321236133575, 0.06375378370285034, -0.05400841310620308, -0.08300363272428513, -0.05329537391662598, -0.13020092248916626, -0.07234499603509903, -0.059618718922138214, 0.08676997572183609], [-0.02817143313586712, 0.0623374842107296, 0.15155291557312012, 0.049744848161935806, -0.005424029193818569, 0.004181027412414551, -0.10068213194608688, -0.03742954134941101, 0.06663106381893158, 0.09168705344200134], [0.11328130960464478, 0.22117416560649872, 0.03742341324687004, 0.11278192698955536, 0.02533349208533764, 0.004095993470400572, 0.014351875521242619, -0.020236073061823845, 0.01993764191865921, 0.07758452743291855], [-0.04537404701113701, -0.016648273915052414, -0.0635775476694107, -0.08346118777990341, -0.15782085061073303, -0.08054661005735397, -0.04805327579379082, 0.03089418075978756, 0.037854138761758804, 0.018178394064307213], [0.004222596995532513, 0.08992384374141693, 0.04971574991941452, 0.09846976399421692, 0.007201530039310455, 0.04144548624753952, -0.06151919066905975, 0.09730612486600876, -0.04280880466103554, 0.015013816766440868], [-0.09502443671226501, -0.03263310715556145, -0.0032951240427792072, 0.05134212598204613, 0.09084807336330414, -0.07039329409599304, -0.05433490127325058, -0.0038779296446591616, 0.049519721418619156, 0.10991925746202469], [-0.06191152334213257, -0.01609618589282036, 0.06309627741575241, 0.04507368057966232, -0.046006590127944946, 0.03282703086733818, -0.10818168520927429, -0.0519457571208477, -0.025380317121744156, -0.07964445650577545], [0.05152689665555954, -0.07695095241069794, 0.003882457735016942, -0.019894933328032494, 0.06820642948150635, -0.1289943903684616, 0.06553462147712708, -0.019004464149475098, -0.0827740877866745, -0.024358002468943596], [-0.014778203330934048, -0.029953408986330032, 0.09278669953346252, -0.15038621425628662, 0.040847402065992355, 0.015272826887667179, -0.05288633704185486, -0.013546670787036419, -0.09457208961248398, -0.09879492223262787], [-0.02946040965616703, 0.11713774502277374, 0.04784611985087395, 0.0005287195090204477, -0.0391545407474041, 0.16721926629543304, 0.05082942172884941, -0.01326753944158554, 0.024292051792144775, 0.0076403627172112465]], [[-0.004579043015837669, -0.0876447781920433, -0.019684718921780586, 0.031374741345644, -0.06239006295800209, -0.0753123089671135, -0.09088587760925293, -0.08903391659259796, -0.06370000541210175, 0.03749041259288788], [-0.07087431848049164, 0.058889131993055344, 0.03523033484816551, -0.04777056723833084, -0.019052131101489067, -0.047635577619075775, -0.03125942498445511, -0.0707254558801651, -0.10407102853059769, 0.026896212249994278], [-0.002692777430638671, 0.0648176446557045, 0.0726114809513092, -0.05716670677065849, 0.005266567226499319, 0.07726337015628815, -0.041363418102264404, 0.048709627240896225, 0.07949882745742798, 0.04940393194556236], [-0.06610293686389923, -0.07446394860744476, -0.0321829617023468, 0.0028738074470311403, -0.02214357815682888, -0.1077786535024643, 0.024969208985567093, -0.03761522099375725, 0.010084152221679688, -0.04984801262617111], [0.04381683096289635, 0.03789520636200905, -0.015437522903084755, 0.10142547637224197, 0.09870901703834534, -0.003628161968663335, 0.08313460648059845, 0.10080037266016006, 0.04846465215086937, -0.0862690806388855], [-0.059065304696559906, -0.04588282108306885, -0.19346576929092407, -0.07471860200166702, -0.12836052477359772, -0.21069781482219696, 0.004736617673188448, -0.025581249967217445, 0.007894872687757015, 0.03714371845126152], [-0.09613736718893051, -0.05404675379395485, 0.17218540608882904, -0.0016020935727283359, 0.002713713562116027, 0.013461547903716564, -0.059592608362436295, 0.020217664539813995, -0.12457410991191864, 0.059546347707509995], [0.017044300213456154, -0.0006709486478939652, -0.0457209050655365, -0.027702229097485542, -0.07113099843263626, -0.16168245673179626, -0.05700432509183884, -0.10618345439434052, -0.08387520164251328, 0.04160095751285553], [0.025929663330316544, -0.026274725794792175, -0.023260630667209625, -0.061659980565309525, 0.05668990686535835, -0.006084021646529436, -0.08623354136943817, 0.05426117032766342, -0.1314188688993454, -0.17973804473876953], [-0.06114361435174942, 0.053381554782390594, -0.05631210654973984, 0.010663200169801712, 0.02522016130387783, -0.029171789065003395, -0.0036249824333935976, 0.06854679435491562, -0.07641676813364029, 0.0033534776885062456]], [[0.007868458516895771, -0.11511441320180893, -0.09365417808294296, 0.0755709707736969, -0.0584540069103241, 0.004622211679816246, -0.10173451900482178, -0.04193434864282608, -0.17075985670089722, 0.013293019495904446], [-0.07328629493713379, -0.027202777564525604, 0.06393343210220337, -0.04892928525805473, -0.034056372940540314, 0.004810731392353773, -0.002757529029622674, -0.06908366829156876, -0.059147074818611145, -0.014778174459934235], [2.3238157154992223e-05, 0.05792226642370224, 0.10018221288919449, -0.06379958242177963, -0.012172962538897991, 0.13848713040351868, -0.04758146032691002, 0.09206002205610275, 0.09222949296236038, -0.10415147989988327], [-0.04631128907203674, -0.08904170244932175, 0.028062064200639725, -0.0632166638970375, -0.05410043150186539, -0.07515790313482285, -0.05630597472190857, -0.008388574235141277, -0.01120928954333067, -0.1078498363494873], [-0.07834209501743317, 0.050711482763290405, -0.0006857882253825665, 0.06964197009801865, 0.05894290283322334, -0.07518091797828674, 0.006345732137560844, 0.13326552510261536, 0.12305355072021484, -0.01313443761318922], [-0.15755680203437805, -0.07448945939540863, -0.10881715267896652, 0.025527341291308403, -0.13265778124332428, -0.10458283871412277, -0.013990121893584728, 0.07398339360952377, 0.015054302290081978, 0.008335195481777191], [-0.10271384567022324, 0.07947997003793716, 0.038740769028663635, 0.08556453883647919, -0.06812534481287003, 0.04124456271529198, -0.030066557228565216, -0.09209709614515305, -0.11917269229888916, 0.14317180216312408], [0.04696018621325493, -0.04772918298840523, 0.058021627366542816, -0.04619862511754036, 0.001112551661208272, -0.082647405564785, -0.08932816982269287, 0.00021945242770016193, 0.04958265274763107, -0.1168379858136177], [0.0776485726237297, -0.09782672673463821, 0.0652671530842781, 0.10611648857593536, 0.03609909862279892, 0.006420385558158159, 0.08155068755149841, 0.08979737758636475, -0.12329626083374023, -0.07123421132564545], [-0.06615512073040009, -0.03192713111639023, 0.03386468440294266, 0.012381038628518581, -0.07769128680229187, 0.05163547769188881, 0.11010704934597015, 0.10670691728591919, 0.0236028041690588, 0.04499699920415878]], [[-0.0352180115878582, -0.14262491464614868, -0.08631162345409393, -0.06042013317346573, -0.1779176890850067, 0.02483244054019451, -0.010234344750642776, -0.14806613326072693, -0.04290229082107544, 0.09023884683847427], [0.0004875761514995247, 0.038662880659103394, 0.08458026498556137, -0.04220955818891525, -0.020837007090449333, 0.041390664875507355, -0.14355765283107758, -0.09611672908067703, 0.01183699257671833, 0.12605905532836914], [-0.06815548241138458, -0.0018177996389567852, 0.18580207228660583, 0.0349506139755249, 0.04140027239918709, 0.0937812551856041, 0.08935175836086273, 0.14748503267765045, 0.03037865087389946, -0.03362660855054855], [-0.025566451251506805, 0.06710919737815857, -0.03366986662149429, 0.07465866953134537, -0.043368373066186905, -0.24826283752918243, -0.09288910776376724, -0.08479002118110657, 0.05878295376896858, -0.06865145266056061], [-0.010913511738181114, 0.0731392428278923, 0.04186658933758736, -0.036633241921663284, -0.10880749672651291, 0.016152987256646156, -0.005502816289663315, 0.20642103254795074, 0.08704616874456406, 0.03522936627268791], [-0.15739263594150543, -0.08470510691404343, 0.03373187407851219, -0.08116145431995392, -0.18436722457408905, -0.07155149430036545, -0.03293745964765549, 0.11335694044828415, -0.09242419898509979, -0.05607951059937477], [-0.11758054047822952, 0.08485688269138336, -0.0031633672770112753, -0.00016564155521336943, 0.07518120110034943, -0.023615097627043724, -0.04703487455844879, 0.021311337128281593, -0.13813377916812897, 0.13845787942409515], [0.13329699635505676, -0.012101465836167336, 0.047273188829422, -0.10036548227071762, 0.04933127015829086, -0.09730485081672668, -0.041995760053396225, -0.07300658524036407, 0.05594766139984131, -0.15223073959350586], [-0.0316459983587265, 0.046663377434015274, -0.105806365609169, 0.04413260519504547, 0.04047723859548569, 0.0017680173041298985, 0.05126078799366951, 0.14459457993507385, -0.13018281757831573, 0.11706263571977615], [-0.054984256625175476, 0.025402450934052467, -0.07853751629590988, -0.006562169641256332, -0.06484387814998627, 0.013735485263168812, 0.10147113353013992, 0.018909068778157234, -0.03478257358074188, -0.05084964632987976]], [[-0.008024945855140686, -0.05283629894256592, 0.02211800590157509, -0.05867479369044304, -0.15224452316761017, -0.08669508993625641, 0.013730262406170368, -0.1354079395532608, -0.1847934126853943, 0.14415833353996277], [0.018329549580812454, -0.014324837364256382, 0.09696516394615173, -0.049926117062568665, 0.1075681671500206, -0.034855157136917114, -0.11766444146633148, -0.08363291621208191, -0.09042377769947052, 0.12781699001789093], [-0.13982699811458588, 0.04125788062810898, 0.010168993845582008, 0.05906091630458832, 0.047628253698349, 0.03662661835551262, 0.08422958850860596, 0.14507637917995453, 0.05908217281103134, -0.08744797110557556], [-0.07902247458696365, 0.08722837269306183, 0.04914681240916252, -0.03734732046723366, -0.05103345215320587, -0.23156456649303436, -0.05648602172732353, -0.036618366837501526, -0.018820669502019882, -0.07165826857089996], [-0.16085167229175568, 0.0904402956366539, 0.09240276366472244, 0.03372156620025635, -0.04732341691851616, -0.09077519923448563, 0.04555363208055496, 0.16877830028533936, 0.0223953016102314, -0.070252425968647], [-0.0016060456400737166, -0.0666872188448906, -0.022866280749440193, -0.12410684674978256, -0.11708050966262817, 0.021412070840597153, 0.11215680092573166, 0.10102108120918274, -0.03828006237745285, -0.06166766956448555], [-0.026538101956248283, 0.017033115029335022, 0.054247863590717316, 0.07476374506950378, 0.06272442638874054, -0.0342838279902935, -0.2101198136806488, -0.09161453694105148, -0.07915929704904556, 0.09889011085033417], [0.06983632594347, -0.011500122025609016, 0.1114642322063446, -0.06037095561623573, 0.027238260954618454, -0.018534468486905098, -0.04500880837440491, 0.017128512263298035, 0.034073714166879654, -0.058254413306713104], [0.025048092007637024, 0.07152145355939865, -0.18925277888774872, -0.06834819912910461, -0.0066455635242164135, -0.0985078513622284, -0.02061358653008938, 0.04739760980010033, -0.14786672592163086, 0.16860029101371765], [-0.07029539346694946, -0.017252886667847633, -0.01190821174532175, -0.04514472559094429, -0.10882086306810379, 0.08981888741254807, 0.05640009790658951, 0.0806126818060875, -0.05291492119431496, -0.012311392463743687]], [[-0.027480076998472214, 0.04860372841358185, -0.07583353668451309, 0.012857167050242424, -0.1744496375322342, -0.09103445708751678, 0.0948968455195427, 0.028693241998553276, -0.07944057881832123, 0.14927901327610016], [0.0011666216887533665, 0.075505830347538, -0.07965535670518875, -0.034554384648799896, 0.023112650960683823, 0.02090911939740181, -0.1946287304162979, -0.0981464684009552, 0.00452361349016428, 0.054557833820581436], [-0.13164933025836945, -0.051760997623205185, 0.04884614795446396, 0.101639024913311, 0.059925977140665054, 0.005449877120554447, 0.10968837141990662, 0.14939847588539124, 0.025333691388368607, -0.09601607918739319], [0.053215302526950836, 0.061928678303956985, 0.04068607836961746, 0.031050121411681175, 0.062379688024520874, -0.15021629631519318, -0.23149526119232178, -0.014294539578258991, -0.09286489337682724, 0.03652814403176308], [-0.06844279915094376, 0.11165528744459152, 0.046010054647922516, 0.07497784495353699, -0.10601074248552322, 0.000522682792507112, 0.041511695832014084, 0.09995187073945999, -0.08157756924629211, -0.09972347319126129], [0.037425536662340164, -0.00671703414991498, 0.06307069212198257, -0.07015985250473022, -0.09688424319028854, 0.047496311366558075, 0.07945013791322708, 0.12652528285980225, -0.11728489398956299, -0.04216396063566208], [-0.11675098538398743, 0.045959003269672394, -0.05316675826907158, 0.05766395851969719, 0.18552498519420624, -0.04432282596826553, -0.05873183533549309, 0.05718020349740982, 0.01960158720612526, 0.11638683080673218], [0.08691870421171188, 0.005034205503761768, 0.1099814847111702, 0.02438880316913128, -0.020494520664215088, -0.15371966361999512, -0.0712122693657875, 0.036703791469335556, 0.11039357632398605, -0.08207438141107559], [-0.06558232009410858, 0.0177646204829216, -0.18850772082805634, -0.04071185365319252, 0.08086489886045456, -0.007029695436358452, 0.06350414454936981, 0.011346515268087387, -0.06803322583436966, 0.07758992910385132], [-0.003953900188207626, -0.03486785665154457, 0.010481673292815685, -0.024982895702123642, -0.10375779867172241, 0.036461926996707916, 0.10766749829053879, 0.138427272439003, -0.033783115446567535, 0.03277325630187988]]], [[[-0.02501574717462063, -0.07201097160577774, -0.031084910035133362, -0.08458112180233002, 0.013353993184864521, -0.041290391236543655, -0.03294314071536064, 0.08270830661058426, -0.010011718608438969, -0.004324790555983782], [-0.10316887497901917, -0.015315459109842777, 0.12109798938035965, 0.003916717134416103, 0.03136381506919861, -0.12623576819896698, 0.023465629667043686, 0.09773129224777222, 0.09003816545009613, -0.018968135118484497], [0.13533809781074524, 0.17446386814117432, 0.020457934588193893, 0.08849471807479858, -0.01115454826503992, 0.0030540560837835073, 0.0205034501850605, -0.037905894219875336, -0.007742597255855799, 0.10306102782487869], [-0.06275579333305359, 0.08515413105487823, -0.06149711459875107, 0.10817232728004456, -0.04829375818371773, 0.02632994018495083, 0.020446090027689934, 0.012117437086999416, 0.07446643710136414, 0.12118837982416153], [0.04545682668685913, 0.1087266206741333, -0.014895499683916569, 0.06576990336179733, 0.09193971008062363, -0.030823202803730965, -0.05818862468004227, -0.07165336608886719, 0.010981027968227863, 0.09398074448108673], [-0.07386916875839233, 0.07917869091033936, 0.026422834023833275, 0.04639239236712456, -0.03961743041872978, 0.031183680519461632, -0.07187499105930328, 0.09877301007509232, 0.11996985226869583, 0.002336536068469286], [-0.015785986557602882, 0.019959401339292526, 0.0923076719045639, -0.029338443651795387, 0.059968966990709305, -0.1316630244255066, 0.08142348378896713, 0.10953328758478165, 0.09435030072927475, 0.0024328874424099922], [0.05705452337861061, -0.08723699301481247, -0.08696586638689041, 0.005049168597906828, -0.05473377928137779, 0.07969864457845688, 0.05021384358406067, 0.03026135079562664, -0.013224970549345016, -0.14742672443389893], [-0.011625385843217373, -0.05776960775256157, -0.03457193449139595, -0.02575395442545414, 0.027761321514844894, 0.04519888013601303, 0.08557379245758057, -0.0587284192442894, -0.10678614675998688, -0.1011783704161644], [0.030596742406487465, 0.017434820532798767, 0.05361802875995636, 0.007210272364318371, -0.059405241161584854, 0.05342864245176315, -0.17672118544578552, -0.09573382139205933, -0.05159073695540428, 0.035206981003284454]], [[0.03775573894381523, -0.1623656004667282, 0.012177197262644768, -0.005972768180072308, -0.11664806306362152, -0.05373165383934975, -0.04085332155227661, -0.007647329475730658, -0.08817744255065918, 0.031063778325915337], [-0.031345926225185394, -0.01727154292166233, 0.06591654568910599, 0.024701440706849098, 0.07234762609004974, -0.15485575795173645, -0.03072591871023178, 0.014095612801611423, -0.04257120564579964, -0.03349132090806961], [0.13162346184253693, 0.16546498239040375, 0.038105253130197525, -0.0089563662186265, -0.024866411462426186, 0.0538259819149971, -0.009991488419473171, -0.05130613222718239, 0.10797672718763351, 0.037527259439229965], [-0.04497911408543587, -0.02706903964281082, -0.0008749671978875995, -0.08249964565038681, -0.0139982420951128, -0.03918827697634697, 0.03495360165834427, -0.04363919422030449, 0.019138135015964508, 0.05498955398797989], [0.03141474723815918, 0.010042729787528515, -0.07252033054828644, 0.015976205468177795, 0.05919574573636055, 0.006381849758327007, -0.05739893764257431, 0.07201369106769562, 0.05403224378824234, 0.12342209368944168], [0.05498221516609192, -0.06242256611585617, 0.00014984406880103052, 0.048160433769226074, -0.08338803797960281, -0.025400761514902115, -0.04882936179637909, 0.0859035775065422, 0.017622878775000572, 0.10832422226667404], [-0.07222715765237808, -0.07450377941131592, 0.12582646310329437, 0.025826524943113327, 0.031419575214385986, -0.04857780411839485, -0.06998346745967865, 0.030647046864032745, -0.05850674584507942, -0.13345320522785187], [0.08398886770009995, -0.02598499320447445, -0.025314936414361, 0.05564853176474571, -0.09317884594202042, 0.01790362223982811, 0.09354208409786224, 0.03359494358301163, -0.09888914227485657, -0.011848497204482555], [0.046631600707769394, -0.10686356574296951, 0.09107501059770584, -0.039124149829149246, 0.0369676910340786, 0.0727725476026535, 0.0492485910654068, -0.09039878845214844, -0.08266231417655945, -0.13199995458126068], [-0.07278837263584137, 0.07622312009334564, 0.02604607306420803, 0.026056742295622826, -0.1274537742137909, 0.11901894211769104, -0.1703326553106308, -0.06441478431224823, -0.06499742716550827, -0.07703205198049545]], [[-0.07718044519424438, -0.19539330899715424, -0.07924724370241165, -0.024188732728362083, -0.1457172930240631, -0.1820271611213684, -0.054537806659936905, -0.007864875718951225, -0.10210088640451431, -0.08688881993293762], [-0.10028231143951416, -0.08235321193933487, 0.06374406069517136, -0.007211635820567608, 0.06972700357437134, -0.18207818269729614, 0.0418408066034317, 0.06427061557769775, -0.03275332972407341, 0.009746093302965164], [0.011963176541030407, 0.10766806453466415, -0.0080498605966568, -0.014254729263484478, 0.029176661744713783, 0.02057255245745182, -0.06235799193382263, 0.05544745549559593, 0.16441963613033295, 0.009035604074597359], [-0.10456740856170654, 0.02369684912264347, 0.07275804132223129, -0.08216194063425064, -0.006215505767613649, -0.13260550796985626, -0.008124963380396366, 0.044123075902462006, 0.05348911136388779, 0.04333913326263428], [0.017537295818328857, 0.04355093836784363, -0.1169905811548233, 0.07129676640033722, -0.06341023743152618, 0.08685214817523956, 0.05110879987478256, -0.022402340546250343, 0.08152861893177032, 0.00935906358063221], [0.014988687820732594, -0.08722231537103653, -0.09092257916927338, 0.015354801900684834, -0.16579222679138184, -0.2538911998271942, 0.013690697029232979, -0.05624367669224739, -0.06301047652959824, -0.0007289331406354904], [-0.002623392501845956, 0.08118773996829987, 0.1507021188735962, 0.0071623423136770725, 0.11050846427679062, -0.032870713621377945, -0.0332394503057003, -0.06275972723960876, -0.1490778923034668, -0.03198004886507988], [0.13875864446163177, 0.03581978753209114, 0.013844359666109085, -0.05472462624311447, -0.04979751631617546, -0.13395826518535614, 0.0876464992761612, 0.03993161395192146, -0.046558037400245667, -0.017805779352784157], [0.006173043977469206, 0.0070653194561600685, 0.03150855377316475, 0.10957453399896622, 0.1204366460442543, 0.022305075079202652, -0.07867663353681564, 0.04475754126906395, -0.07157143205404282, -0.12693637609481812], [-0.08444104343652725, 0.03092423640191555, -0.02217748761177063, 0.03199594095349312, -0.14241184294223785, 0.07847867161035538, -0.11385814100503922, -0.017643636092543602, -0.06503564119338989, 0.08769431710243225]], [[-0.03183610737323761, -0.06858200579881668, -0.15162162482738495, 0.0016922540962696075, -0.09379628300666809, -0.17979004979133606, -0.08271460980176926, -0.007392869796603918, -0.10469883680343628, 0.07843078672885895], [0.02128324657678604, -0.056284260004758835, 0.04125900939106941, -0.0811474397778511, 0.007127484306693077, -0.08892872184515, -0.04599609598517418, -0.026469001546502113, -0.028850575909018517, 0.055475249886512756], [-0.025296391919255257, 0.09493662416934967, 0.08373621106147766, -0.0636780709028244, -0.08385202288627625, 0.07666103541851044, 0.0013886556262150407, 0.14971524477005005, 0.11635550856590271, -0.019333047792315483], [0.02609187923371792, 0.04288578778505325, 0.03922230005264282, 0.04912738502025604, -0.07466413080692291, -0.02966367080807686, -0.010461719706654549, 0.07568630576133728, 0.08217122405767441, -0.01673753373324871], [-0.0417153537273407, 0.0306097362190485, -0.07140807062387466, 0.013742972165346146, -0.08541285991668701, 0.07221498340368271, -0.020491214469075203, 0.13506640493869781, 0.0024186456575989723, 0.03176520764827728], [-0.16252657771110535, 0.00934264250099659, -0.05873608961701393, -0.06327403336763382, -0.12381491810083389, -0.22926899790763855, -0.0209224671125412, 0.0047263335436582565, -0.11343904584646225, -0.07267241179943085], [-0.06766200065612793, -0.0166845191270113, 0.08322292566299438, -0.02319307066500187, 0.037300046533346176, -0.16287213563919067, -0.024987738579511642, -0.099557064473629, -0.00024483923334628344, 0.032303065061569214], [0.1440717577934265, 0.05263321474194527, -0.020858880132436752, -0.08387606590986252, -0.07457175850868225, -0.1401733160018921, 0.05449960008263588, 0.008133548311889172, 0.007987525314092636, 0.0004164339043200016], [0.1739809364080429, 0.033948369324207306, -0.030702032148838043, 0.11330730468034744, 0.06632127612829208, 0.11459119617938995, -0.06498865783214569, 0.0632798820734024, -0.08056686073541641, -0.009304876439273357], [-0.013935440219938755, 0.025017060339450836, -0.15717892348766327, 0.06714186072349548, -0.19516339898109436, -0.025439666584134102, 0.014898832887411118, -0.015210920944809914, -0.09241888672113419, 0.09213140606880188]], [[0.023896625265479088, -0.040532346814870834, -0.12781956791877747, 0.008336084894835949, -0.07595326751470566, -0.2578655481338501, 0.022025221958756447, -0.03582312539219856, -0.14400695264339447, 0.07269714027643204], [-0.05230540782213211, 0.05636140704154968, -0.03100065141916275, -0.09015819430351257, 0.15503916144371033, -0.03409276530146599, -0.161495640873909, 0.009389560669660568, 0.02914506010711193, 0.01654426008462906], [-0.026655830442905426, 0.09173838794231415, 0.09193331748247147, 0.09853359311819077, -0.13283765316009521, 0.12383466213941574, 0.07802530378103256, 0.1335776299238205, 0.04447376728057861, -0.07544625550508499], [-0.05703802406787872, -0.017165055498480797, -0.018491046503186226, 0.0020144206937402487, 0.10715542733669281, -0.011632912792265415, -0.064729243516922, -0.06372252106666565, 0.035054370760917664, -0.10455683618783951], [-0.18569475412368774, 0.12423460930585861, 0.025170791894197464, -0.06728844344615936, -0.043176259845495224, 0.01299834344536066, -0.012191276997327805, 0.13378916680812836, 0.04642459750175476, -0.04217900335788727], [-0.0625561848282814, -0.06322348862886429, 0.10170147567987442, -0.08365797996520996, -0.10122568160295486, -0.12198273837566376, -0.06222916021943092, 0.02845476008951664, -0.12923988699913025, -0.0008126456523314118], [-0.008963380940258503, -0.02112160064280033, -0.016605142503976822, -0.0105043426156044, 0.14782126247882843, -0.048942141234874725, -0.15471047163009644, -0.13035592436790466, -0.0910729244351387, -0.006094001233577728], [0.06187679246068001, -0.047684989869594574, 0.044642698019742966, -0.009861854836344719, -0.11242977529764175, -0.09598131477832794, -0.05769215151667595, -0.0591302290558815, 0.09751191735267639, -0.17541316151618958], [0.044786881655454636, 0.048776399344205856, -0.09855610132217407, 0.06677039712667465, 0.11022882163524628, 0.11689168214797974, -0.03368143364787102, 0.13142123818397522, -0.05224333703517914, 0.08544094860553741], [-0.11436636000871658, 0.01304399874061346, 0.010406509973108768, 0.06849624216556549, -0.16106443107128143, 0.0990152657032013, -0.0003977164451498538, 0.05282006040215492, -0.10368749499320984, 0.1422080397605896]], [[-0.006214354187250137, 0.0031023218762129545, 0.006902884691953659, -0.08651482313871384, -0.0718105286359787, -0.18721674382686615, 0.0698857232928276, -0.021979574114084244, -0.09226931631565094, 0.14701403677463531], [0.006099323742091656, 0.007642458193004131, -0.002709316788241267, -0.09493107348680496, 0.07643532007932663, -0.07900718599557877, -0.05454111471772194, -0.03265979513525963, -0.0462048277258873, 0.003834817325696349], [-0.14833679795265198, 0.10657167434692383, 0.0634404867887497, 0.0699998140335083, -0.04586406424641609, 0.010455256327986717, -0.048478491604328156, 0.072294220328331, 0.01673782803118229, -0.19255036115646362], [0.055576141923666, -0.0035671235527843237, 0.0019220903050154448, 0.0691097229719162, -0.013741943053901196, -0.08980587124824524, -0.1460312157869339, -0.04811763018369675, -0.025514788925647736, -0.10759209096431732], [-0.14947669208049774, -0.0011664684861898422, 0.025722865015268326, 0.07821466773748398, -0.13915425539016724, 0.09773644059896469, -0.007661821320652962, 0.14115722477436066, -0.1089240312576294, -0.10065528750419617], [-0.05228967219591141, -0.010505057871341705, 0.046041809022426605, -0.0849735289812088, -0.06525450944900513, -0.14334452152252197, 0.07011888921260834, -0.018960105255246162, -0.1240803524851799, -0.07937507331371307], [-0.053731221705675125, 0.1057550460100174, -0.11300578713417053, 0.010989765636622906, 0.10298774391412735, -0.051699597388505936, -0.1137905865907669, -0.020934976637363434, 0.01291966624557972, 0.07337972521781921], [0.039159178733825684, 0.010293166153132915, 0.15141767263412476, 0.007048607338219881, 0.0011990328785032034, -0.04218212887644768, -0.05246589705348015, -0.02667168527841568, 0.11650525778532028, -0.12516508996486664], [0.11113552004098892, 0.12844911217689514, -0.17955991625785828, 0.03607115149497986, 0.031015852466225624, 0.09641522169113159, 0.002308475086465478, 0.08982539921998978, 0.04945151507854462, 0.20311273634433746], [-0.13395582139492035, 0.09875614196062088, -0.022959936410188675, 0.05149686709046364, -0.22951440513134003, 0.05705471709370613, 0.12330497056245804, 0.117786705493927, -0.12732626497745514, -0.0012894358951598406]], [[0.02366223745048046, 0.08371670544147491, -0.054659560322761536, -0.03559314087033272, -0.09169057011604309, -0.039080724120140076, 0.06865381449460983, -0.0879226103425026, -0.08098108321428299, 0.013884695246815681], [-0.031010258942842484, -0.0020390290301293135, -0.0016404808266088367, -0.06983783096075058, 0.09774766862392426, 0.08399802446365356, -0.049785077571868896, -0.0627245157957077, -0.005886652506887913, 0.020694835111498833], [-0.22625043988227844, 0.018107227981090546, 0.03525780141353607, 0.08289948105812073, -0.06646445393562317, 0.07875125110149384, -0.04077625274658203, 0.12402424961328506, -0.07377083599567413, -0.011022335849702358], [-0.004594172351062298, -0.09189219027757645, 0.017541609704494476, 0.03389250114560127, 0.09796285629272461, -0.013003152795135975, -0.11765733361244202, -0.03718012571334839, -0.037346113473176956, -0.006107731256633997], [-0.14328567683696747, 0.10540438443422318, 0.004803359974175692, -0.023398319259285927, -0.17111614346504211, 0.002627965062856674, 0.0015434999950230122, 0.12745550274848938, -0.09261197596788406, -0.10939200222492218], [-0.03437523543834686, 0.06039222329854965, -0.05433078110218048, -0.06779682636260986, -0.08341022580862045, -0.07254205644130707, -0.03195993974804878, 0.09910883754491806, -0.07487673312425613, 0.06962645053863525], [-0.02999444492161274, 0.07047604769468307, 0.04960748180747032, -0.02892332524061203, 0.21860788762569427, -0.0062765260227024555, -0.0750928521156311, -0.08545032143592834, 0.09482450038194656, 0.019736411049962044], [0.06755610555410385, 0.046329062432050705, 0.051297832280397415, -0.04064841940999031, -0.039745088666677475, -0.10447569936513901, -0.10281863063573837, -0.018746845424175262, 0.015753448009490967, -0.02647964283823967], [0.027416853234171867, 0.12438064813613892, -0.09881649911403656, -0.0235458854585886, 0.12501342594623566, -0.0011816134210675955, 0.09226097911596298, 0.07319416105747223, 0.052443843334913254, 0.11199404299259186], [-0.1387394666671753, 0.013978151604533195, 0.046854645013809204, 0.03479880467057228, -0.17180649936199188, -0.034524835646152496, 0.14303995668888092, 0.11974761635065079, -0.058455392718315125, -0.027342937886714935]]], [[[-0.005259024444967508, -0.06676944345235825, 0.10399620980024338, -0.05568353086709976, -0.06924998760223389, -0.033939559012651443, -0.03530506044626236, 0.06740391254425049, -0.07181631028652191, -0.14147132635116577], [-0.047981951385736465, -0.12918981909751892, 0.11469104886054993, -0.10282990336418152, 0.08739813417196274, -0.10454891622066498, 0.03957655653357506, 0.20062841475009918, 0.02588207833468914, 0.01359536126255989], [0.08465497940778732, 0.17062313854694366, -0.09291969239711761, 0.07305401563644409, 0.060941677540540695, 0.05663936957716942, -0.06942075490951538, -0.09391283243894577, 0.07708048075437546, 0.10547596216201782], [-0.0827353447675705, 0.0652720183134079, 0.06759922951459885, 0.08641207218170166, 0.09881342947483063, -0.10595954209566116, 0.040702126920223236, 0.1350163221359253, 0.07742628455162048, 0.05184061825275421], [0.05371540039777756, 0.09787289798259735, -0.12318337708711624, 0.14085590839385986, -0.025737978518009186, 0.020638667047023773, 0.036075811833143234, -0.012225068174302578, 0.03279503807425499, 0.12322253733873367], [0.014724800363183022, 0.0659879520535469, -0.008244441822171211, -0.023804305121302605, 0.010845154523849487, 0.13743792474269867, -0.032729994505643845, 0.12261893600225449, 0.12220565974712372, 0.004978202749043703], [-0.05749645084142685, -0.08275819569826126, 0.09470142424106598, 0.03628471493721008, 0.18599864840507507, -0.09178436547517776, 0.13080601394176483, 0.14854395389556885, 0.030804352834820747, -0.07054268568754196], [-0.01653595268726349, 0.011799766682088375, -0.10676306486129761, 0.015020333230495453, -0.019333910197019577, 0.1247890517115593, -0.06040974333882332, -0.12889835238456726, -0.029993360862135887, -0.043614570051431656], [-0.0786275565624237, -0.06737226247787476, -0.04050140082836151, -0.04667595028877258, -0.0037745540030300617, -0.04503467306494713, 0.005561389960348606, -0.02979833073914051, -0.08774164319038391, -0.004054027609527111], [-0.025238143280148506, -0.10851573944091797, -0.00930946134030819, 0.09151523560285568, -0.13730892539024353, -0.010399656370282173, -0.10032301396131516, -0.1823633462190628, -0.11412951350212097, -0.1002717912197113]], [[-0.02918163128197193, -0.11794494837522507, 0.03184797614812851, -0.061548151075839996, -0.1182263121008873, -0.002739289542660117, -0.011001808568835258, 0.047253601253032684, -0.14015662670135498, -0.13062825798988342], [-0.024340281262993813, -0.009412399493157864, 0.038470309227705, 0.05788232013583183, 0.08381828665733337, -0.041565701365470886, -0.016002308577299118, 0.1571589708328247, 0.029764877632260323, 0.04266355559229851], [-0.03901108354330063, 0.12563201785087585, -0.08012105524539948, 0.08388131111860275, -0.07144609093666077, 0.12993982434272766, -0.0345236174762249, -0.03878217563033104, 0.12919969856739044, 0.1365552842617035], [-0.012572300620377064, 0.09238677471876144, 0.11128411442041397, 0.05803820118308067, -0.026722151786088943, -0.08994659036397934, 0.07998773455619812, 0.027515357360243797, 0.042757559567689896, 0.08052487671375275], [-0.01043696328997612, 0.02489028498530388, -0.04614273086190224, 0.04689808562397957, -0.019331762567162514, 0.015013382770121098, -0.054943837225437164, -0.13661183416843414, 0.11985708773136139, 0.019614139571785927], [-0.009194817394018173, -0.005229457281529903, -0.06816217303276062, 0.104166679084301, -0.051089342683553696, 0.03573189303278923, 0.0263324286788702, -0.04082987457513809, -0.05382334813475609, -0.014095237478613853], [-0.09164078533649445, -0.07471220195293427, 0.13843189179897308, 0.06003770977258682, 0.0703291967511177, -0.1632477194070816, 0.03753560036420822, 0.0882529690861702, 0.0809083878993988, -0.009903233498334885], [0.1037338450551033, 0.043138910084962845, -0.020441144704818726, 0.08618946373462677, -0.03862769156694412, 0.06214393302798271, 0.05937834456562996, -0.13660390675067902, 0.07564692944288254, 0.045353375375270844], [0.03703135624527931, -0.0678146556019783, 0.028433389961719513, 0.08277416974306107, 0.06266085803508759, -0.009365861304104328, -0.024249520152807236, -0.0309646837413311, -0.09092109650373459, -0.0883621796965599], [-0.07048366963863373, 0.0017653302056714892, -0.00878006499260664, 0.05092419683933258, -0.030995147302746773, -0.015359953045845032, -0.08602884411811829, -0.044395335018634796, -0.01887785643339157, -0.08738450706005096]], [[0.07166266441345215, -0.10741258412599564, -0.09349919855594635, -0.04056037962436676, -0.011582039296627045, -0.05849120020866394, 0.024074656888842583, -0.04109247401356697, -0.1185794398188591, -0.08841967582702637], [-0.08075829595327377, -0.1050163134932518, -0.0780375525355339, 0.011092189699411392, 0.05794602259993553, -0.09789033234119415, -0.006237623281776905, 0.049136847257614136, 0.05592834949493408, 0.09684355556964874], [-0.008524151518940926, -0.016122477129101753, -0.022496266290545464, 0.01309816725552082, -0.041964996606111526, -0.015366812236607075, 0.03181375935673714, -0.058701030910015106, 0.08175497502088547, 0.07545153796672821], [-0.0919497013092041, 0.06108619645237923, 0.07009253650903702, -0.09163904935121536, 0.05548745393753052, 0.06941770017147064, 0.08079563826322556, 0.011058419942855835, 0.07450654357671738, 0.12062151730060577], [-0.05090330168604851, 0.06156082823872566, -0.14456439018249512, 0.07238060981035233, -0.09093266725540161, 0.05209389328956604, -0.06268925219774246, -0.02972167544066906, 0.05324149131774902, 0.05955484136939049], [-0.07840118557214737, -0.06931809335947037, -0.13901112973690033, -0.053881265223026276, 0.007265241350978613, -0.024007245898246765, 0.007342924829572439, 0.00830790214240551, 0.038686640560626984, -0.04498427361249924], [0.040083855390548706, -0.02904393896460533, 0.007105603814125061, 0.05910515785217285, 0.138748899102211, -0.06876683235168457, 0.08608225733041763, 0.08409249782562256, 0.012666336260735989, 0.00305666821077466], [0.003047664649784565, 0.04853123053908348, -0.016830723732709885, 0.056817296892404556, -0.07671575993299484, -0.05150185525417328, 0.09457996487617493, -0.01688310131430626, 0.03661271557211876, -0.04299188777804375], [0.02397146075963974, 0.033172912895679474, -0.07613813877105713, 0.030651113018393517, 0.06289872527122498, 0.07019665837287903, -0.004084089770913124, 0.03401346877217293, -0.06601247936487198, -0.0639810636639595], [-0.05180170014500618, 0.018179308623075485, -0.07906640321016312, 0.09446346014738083, -0.08096211403608322, -0.07245228439569473, -0.1029142215847969, -0.16685521602630615, -0.030667176470160484, 0.042118098586797714]], [[0.05200928822159767, -0.07000770419836044, -0.11487563699483871, 0.027641775086522102, 0.04913915693759918, -0.174939826130867, 0.040196023881435394, -0.005795253906399012, -0.13020923733711243, -0.037064917385578156], [0.006419641897082329, -0.0870136246085167, -0.051363393664360046, -0.02036852017045021, 0.11104212701320648, -0.0010123058455064893, 0.010440874844789505, 0.06879232078790665, -0.0018450538627803326, -0.01026418711990118], [-0.022290900349617004, -0.010473058559000492, 0.13999643921852112, 0.005313606467097998, -0.11802014708518982, 0.0398101769387722, -0.07978597283363342, -0.07296709716320038, 0.0671437531709671, -0.14052900671958923], [-0.10308138281106949, 0.0046778651885688305, 0.05048762261867523, -0.0868811383843422, -0.027112314477562904, 0.11708462983369827, -0.02729473076760769, 0.024004390463232994, 0.005451749078929424, 0.046588994562625885], [0.0006634434685111046, 0.12157707661390305, 0.0023788423277437687, -0.016386693343520164, -0.1301601678133011, -0.012655893340706825, 0.009736325591802597, -0.12038694322109222, 0.11784576624631882, 0.06865797936916351], [-0.10031944513320923, -0.018823787569999695, -0.04351744055747986, 0.08812148869037628, 0.07017814368009567, -0.09612306207418442, 0.07441575080156326, -0.02423040010035038, -0.10366801917552948, -0.019830884411931038], [0.030575033277273178, -0.013332118280231953, 0.011973331682384014, 0.07441500574350357, 0.08627013862133026, -0.01940852403640747, -0.046013232320547104, -0.01680351048707962, -0.0411127544939518, 0.12447042763233185], [0.07454047352075577, 0.03443493694067001, -0.0409197099506855, 0.12267301231622696, -0.010308567434549332, 0.059019021689891815, 0.0208881888538599, -0.06361383944749832, -0.01768466643989086, -0.11433495581150055], [0.06199728697538376, 0.14860288798809052, -0.10315661877393723, 0.0704064816236496, 0.07323402911424637, 0.12992031872272491, -0.08852382004261017, 0.009073788300156593, -0.06362442672252655, 0.11016488820314407], [-0.11205963790416718, 0.002973695285618305, -0.044085703790187836, 0.007343268021941185, -0.07542181760072708, 0.007797275669872761, -0.08637726306915283, -0.0915609747171402, -0.1133323535323143, 0.010644094087183475]], [[0.032158013433218, 0.00978101510554552, 0.0250527486205101, 0.04419220983982086, 0.035431236028671265, -0.13611114025115967, 0.06539585441350937, -0.12680655717849731, -0.0763864815235138, 0.09693760424852371], [0.004319792613387108, -0.06326687335968018, 0.07886632531881332, -0.08355391025543213, 0.09742095321416855, 0.016322258859872818, -0.11863704025745392, -0.028885159641504288, -0.03627997264266014, 0.013942064717411995], [-0.14746014773845673, 0.07450953125953674, 0.10950995236635208, -0.017689449712634087, -0.11153702437877655, 0.0035972408950328827, -0.02619907446205616, 0.019320694729685783, -0.07472256571054459, -0.12655238807201385], [-0.024900345131754875, -0.10344795137643814, 0.1167016252875328, -0.027207903563976288, 0.09069155156612396, 0.07452341169118881, -0.0143508305773139, -0.12236636132001877, 0.051890745759010315, -0.1514829844236374], [-0.16125385463237762, 0.057883284986019135, 0.18048427999019623, 0.11715147644281387, 0.0008513713837601244, 0.07895755767822266, -0.003642580471932888, -0.07681102305650711, 0.05761440470814705, -0.015967167913913727], [-0.035853080451488495, -0.06558215618133545, 0.06565911322832108, -0.0053985086269676685, 0.06095028296113014, -0.09064517915248871, 0.0637049749493599, -0.003911812324076891, -0.07004585862159729, 0.044024623930454254], [0.03414395824074745, 0.04586004838347435, -0.02706344611942768, -0.09559699147939682, 0.058550845831632614, -0.05330844968557358, -0.05043827369809151, 0.05780370905995369, 0.08400677889585495, 0.11963649094104767], [0.005613764747977257, -0.06098976358771324, 0.030778132379055023, 0.04030335322022438, 0.032916344702243805, -0.04181261733174324, 0.10202890634536743, -0.04350152611732483, -0.028062690049409866, -0.17145301401615143], [0.10003991425037384, 0.021196864545345306, -0.14390769600868225, 0.043847694993019104, -0.022152306511998177, 0.2282080501317978, -0.10036879777908325, 0.021779099479317665, 0.009663228876888752, 0.06278197467327118], [-0.07753930985927582, 0.020299619063735008, -0.07498890906572342, -0.04190295189619064, -0.1826128214597702, 0.0038360257167369127, 0.011113961227238178, 0.02617681957781315, -0.11611957103013992, 0.05346955731511116]], [[0.023054122924804688, -0.03077288530766964, -0.060685597360134125, -0.00262878043577075, -0.01206781156361103, -0.1157497838139534, -0.002818918088451028, -0.07852871716022491, -0.014656252227723598, 0.12014937400817871], [0.06367096304893494, -0.012986550107598305, -0.04258178919553757, -0.03088938631117344, 0.16455595195293427, 0.09462229907512665, -0.13969987630844116, -0.04319657012820244, 0.061610594391822815, -0.07928880304098129], [-0.18437406420707703, 0.04789929836988449, -0.013530540280044079, 0.12592557072639465, -0.06988778710365295, 0.12380961328744888, -0.12312445789575577, 0.04265619441866875, -0.0899752527475357, -0.012467261403799057], [-0.0631781592965126, -0.016083121299743652, 0.04537050426006317, 0.05096367746591568, 0.05016036331653595, 0.11858866363763809, -0.04241659864783287, -0.06549645215272903, 0.01575727015733719, -0.000716740672942251], [-0.07752195745706558, 0.0727449283003807, 0.03659183531999588, -0.016200963407754898, -0.05323270335793495, -0.008906661532819271, -0.09077341109514236, -0.06640319526195526, -0.05358225107192993, -0.0385916605591774], [0.008324644528329372, -0.029812488704919815, 0.04791402816772461, 