{"conv_1_1": {"kernel": [[[[-0.6457224488258362, 0.15087923407554626, 0.027476245537400246, 0.11087533086538315, 0.14626739919185638, -0.18079449236392975, 0.12167394906282425, 0.10122235119342804, -0.19491136074066162, 0.2874900698661804]], [[-0.1799086183309555, 0.23809871077537537, 0.22247068583965302, 0.2592572271823883, 0.20584022998809814, -0.5253743529319763, 0.13307568430900574, 0.0624508336186409, -0.07068131119012833, 0.38167616724967957]], [[0.15345993638038635, -0.19561739265918732, -0.003777910955250263, 0.21577973663806915, 0.09774549305438995, -0.037787873297929764, 0.3030789792537689, 0.19002178311347961, -0.025070002302527428, 0.45845380425453186]], [[0.42798611521720886, -0.30312398076057434, -0.11759736388921738, 0.1773080676794052, -0.22774770855903625, 0.23228521645069122, 0.28196099400520325, 0.16937682032585144, 0.1277160346508026, 0.30645179748535156]], [[0.07780571281909943, -0.04645932465791702, -0.06073285639286041, 0.3634995222091675, -0.45568379759788513, 0.2562260031700134, 0.2852245271205902, 0.11465615034103394, 0.20767420530319214, 0.08515580743551254]]], [[[-0.6982909440994263, -0.18962068855762482, 0.08719723671674728, 0.22958171367645264, 0.10925031453371048, -0.5903539061546326, 0.046495337039232254, 0.023368652909994125, -0.024241549894213676, 0.04882443696260452]], [[-0.24199609458446503, 0.037522148340940475, 0.22183290123939514, 0.3439668118953705, 0.12989342212677002, -0.16223810613155365, -0.14637909829616547, 0.24111180007457733, 0.10182547569274902, 0.19573001563549042]], [[0.19766882061958313, -0.1346530318260193, 0.08844073861837387, 0.4573119580745697, 0.19815364480018616, 0.2533053159713745, 0.10934390127658844, 0.08502552658319473, 0.27146875858306885, 0.24194206297397614]], [[0.4470967650413513, 0.008336629718542099, -0.05576084181666374, 0.43643349409103394, 0.13404369354248047, 0.16339662671089172, 0.1832689344882965, -0.007352995220571756, 0.1973867118358612, 0.18095116317272186]], [[0.13739871978759766, 0.06694593280553818, -0.2333168387413025, 0.2869621813297272, 0.017871452495455742, 0.10245373845100403, 0.1192699745297432, -0.06355807185173035, -0.1335592120885849, 0.20263606309890747]]], [[[-0.6209192276000977, -0.11706150323152542, 0.013590553775429726, 0.2243935912847519, -0.06327726691961288, -0.2857044041156769, -0.025195902213454247, 0.11894919723272324, 0.22126591205596924, -0.4243902862071991]], [[-0.4307219684123993, -0.06958911567926407, 0.22034649550914764, 0.22894084453582764, 0.10059378296136856, 0.22085259854793549, -0.3589836657047272, 0.2728441655635834, 0.23922862112522125, -0.17150868475437164]], [[0.4189452826976776, 0.08689409494400024, 0.013376914896070957, 0.24271740019321442, 0.1224307268857956, 0.2803248465061188, -0.20415668189525604, 0.17746113240718842, 0.06423778831958771, 0.042439721524715424]], [[0.4017244279384613, 0.005112651735544205, -0.1094948798418045, 0.3380221128463745, 0.25948861241340637, 0.11107911914587021, 0.2286377251148224, -0.08738277852535248, -0.02092706598341465, 0.24705752730369568]], [[0.059309154748916626, 0.2619278132915497, -0.2772292494773865, 0.2395336776971817, 0.02504974789917469, 0.15089958906173706, 0.19731971621513367, -0.07147252559661865, -0.12801605463027954, 0.14694948494434357]]], [[[-0.7260648608207703, -0.14397485554218292, 0.11315801739692688, -0.6745282411575317, 0.07823550701141357, 0.09108802676200867, 0.051379479467868805, 0.3059375584125519, 0.1816716492176056, -0.4459177255630493]], [[-0.269554078578949, 0.11515714973211288, 0.1409631222486496, -0.4478624761104584, -0.08418900519609451, 0.3180498778820038, -0.2840212881565094, 0.16805094480514526, 0.1864871084690094, -0.4267894923686981]], [[0.3281916677951813, 0.20663270354270935, 0.22242790460586548, -0.40273430943489075, -0.11011189967393875, 0.08325561881065369, -0.30220910906791687, -0.027595343068242073, 0.013186458498239517, -0.18940478563308716]], [[0.44616150856018066, 0.20310163497924805, 0.13949386775493622, -0.4455389678478241, -0.020960142835974693, 0.046113621443510056, 0.026373276486992836, -0.07344214618206024, 0.02140948735177517, 0.19548694789409637]], [[0.03977956250309944, 0.17041797935962677, -0.13220466673374176, -0.03964829072356224, 0.11336022615432739, -0.035890039056539536, 0.15951144695281982, -0.2507264316082001, -0.2890757620334625, 0.3643948435783386]]], [[[-0.666805624961853, 0.06289611756801605, -0.0047295913100242615, -0.7424157857894897, 0.16062071919441223, 0.29359638690948486, -0.18461723625659943, 0.07294857501983643, 0.0431598462164402, -0.18895676732063293]], [[-0.3090524971485138, 0.12716040015220642, 0.03299790620803833, -0.7153560519218445, 0.11556221544742584, -0.0018801618134602904, -0.24835819005966187, -0.18562927842140198, -0.15041281282901764, -0.20097467303276062]], [[0.025595081970095634, 0.09822779893875122, 0.1846769005060196, -0.7013354301452637, 0.21083487570285797, 0.0963730663061142, -0.19428403675556183, -0.23133447766304016, -0.2430500090122223, -0.2787294387817383]], [[0.35395103693008423, -0.10290638357400894, -0.03217301517724991, -0.650589644908905, 0.021111778914928436, 0.0344848595559597, -0.26887810230255127, -0.4494941830635071, -0.16964906454086304, 0.15265034139156342]], [[0.07263019680976868, -0.13005325198173523, -0.06921093165874481, -0.48967525362968445, 0.1677841693162918, -0.0255122147500515, -0.24329547584056854, -0.4162070155143738, -0.24126964807510376, 0.29337403178215027]]]], "bias": [0.07598964124917984, -0.024556219577789307, -0.07071151584386826, 0.08380448818206787, -0.11629685014486313, -0.08168195188045502, 0.1132628470659256, -0.010974633507430553, -0.02834543026983738, -0.12105599790811539], "kernel_shape": [5, 5, 1, 10], "bias_shape": [10]}, "dense_1": {"kernel": [[-0.08522430062294006, 0.08099795132875443, -0.03153697028756142, 0.06916298717260361, -0.05184222012758255, 0.1341848522424698, 0.08536013960838318, 0.01282543409615755, -0.07545444369316101, 0.056869782507419586], [-0.13382281363010406, 0.08819153904914856, -0.14350149035453796, 0.16633552312850952, -0.09405305981636047, -0.06642356514930725, 0.07297448813915253, -0.08221421390771866, -0.15460547804832458, 0.016438309103250504], [-0.0667676031589508, -0.006565358489751816, -0.05114935338497162, 0.007790437899529934, 0.0019594791810959578, -0.01624690741300583, 0.0005223116022534668, 0.012042644433677197, -0.011118097230792046, 0.07136404514312744], [0.011075840331614017, 0.005158410407602787, 0.10884514451026917, 0.04323135316371918, -0.11226426064968109, 0.10032450407743454, -0.038456711918115616, 0.09914664179086685, -0.19417765736579895, -0.02408766932785511], [-0.17515186965465546, 0.12249117344617844, -0.1775708794593811, 0.10935048758983612, -0.014109368436038494, -0.12169953435659409, 0.04194767400622368, 0.0064888703636825085, -0.10923394560813904, -0.07665228098630905], [-0.034837380051612854, 0.07080468535423279, -0.09995716065168381, 0.05335346981883049, -0.03818977251648903, -0.0432109571993351, -0.025508303195238113, -0.03881354257464409, -0.04741746932268143, -0.008297584019601345], [-0.09638093411922455, 0.06587808579206467, 0.03678957000374794, 0.0016986242262646556, -0.13455089926719666, 0.17076930403709412, 0.05514104291796684, 0.05961775407195091, -0.1962803155183792, -0.01989266462624073], [0.019719181582331657, 0.0403020866215229, 0.027713116258382797, -0.021962223574519157, -0.06570683419704437, 0.034497544169425964, -0.028499556705355644, 0.06659580767154694, -0.06841681897640228, -0.0055498965084552765], [0.002443566918373108, 0.061790429055690765, -0.08952454477548599, -0.0014463658444583416, -0.01723605953156948, 0.10925690084695816, 0.010278112255036831, 0.015207397751510143, -0.1171397790312767, 0.010144349187612534], [-0.15809813141822815, 0.17705821990966797, -0.10698520392179489, 0.11227839440107346, 0.04080842435359955, -0.16675439476966858, 0.02422979101538658, -0.016729703173041344, -0.25322428345680237, -0.09094886481761932], [-0.10454405844211578, 0.15989281237125397, -0.04994818940758705, -0.005267851520329714, -0.06350407749414444, 0.07413912564516068, 0.13170304894447327, 0.09970031678676605, -0.17539365589618683, 0.030473215505480766], [-0.15968574583530426, 0.1028006449341774, -0.007731183897703886, 0.1519964635372162, -0.08552724123001099, -0.0747017040848732, 0.07719787955284119, -0.16160576045513153, -0.1393493115901947, -0.068386971950531], [-0.14540575444698334, 0.05010034888982773, -0.06454358249902725, 0.14414919912815094, -0.05930783972144127, -0.13932713866233826, 0.10774664580821991, -0.09944901615381241, -0.12427464872598648, 0.04137317091226578], [-0.07270679622888565, -0.020913593471050262, 0.06368369609117508, 0.032760318368673325, -0.16491776704788208, 0.03808598965406418, 0.016230719164013863, 0.033464863896369934, -0.18140548467636108, 0.04138704761862755], [-0.07875892519950867, 0.06987296044826508, -0.10727795213460922, 0.08042717725038528, -0.05844365432858467, -0.09553050994873047, 0.10668566823005676, 0.028201164677739143, -0.014375780709087849, -0.1393154114484787], [-0.03615143522620201, 0.01022853422909975, -0.01913219504058361, 0.039265163242816925, -0.04919387400150299, -0.049413055181503296, 0.024198409169912338, 0.015467296354472637, -0.1027732864022255, -0.17086397111415863], [-0.1005670577287674, 0.07219386845827103, 0.03496568277478218, -0.08042491972446442, -0.1368211805820465, 0.10209360718727112, 0.004894598387181759, 0.040496826171875, -0.09361787140369415, -0.02723769098520279], [-0.06473813205957413, 0.0025995115283876657, -0.023179916664958, -0.052642807364463806, -0.11587922275066376, 0.09385748207569122, -0.05465449020266533, 0.06738123297691345, -0.17539267241954803, 0.01155623234808445], [-0.014303361065685749, 0.06202934682369232, -0.0007253079675137997, 0.08139528334140778, -0.09203232079744339, -0.06537682563066483, 0.048960816115140915, -0.018535681068897247, -0.06275442987680435, 0.010461585596203804], [-0.004042952787131071, 0.014951296150684357, -0.11882036924362183, 0.04633290320634842, -0.014234734699130058, -0.05655154213309288, 0.10748648643493652, -0.061621978878974915, 0.010085821151733398, -0.16635848581790924], [-0.09147166460752487, 0.09996449947357178, -0.07046367973089218, -0.08421475440263748, -0.0618400014936924, 0.03015746921300888, 0.09243126958608627, -0.032308902591466904, -0.11714260280132294, 0.0548594631254673], [-0.057633087038993835, -0.007607600186020136, -0.009345855563879013, -0.007320765871554613, -0.07768117636442184, -0.07091832906007767, 0.1238691583275795, -0.20802316069602966, -0.00017116914386861026, -0.27616050839424133], [-0.10824377089738846, 0.13664811849594116, -0.038811493664979935, 0.026166655123233795, -0.06630761921405792, -0.09575017541646957, 0.06965188682079315, -0.06466051191091537, -0.07507304847240448, -0.1840430051088333], [0.054245900362730026, -0.07839594781398773, 0.2451009601354599, 0.03646763041615486, -0.1754124015569687, 0.03462422266602516, -0.004141904413700104, -0.0011275999713689089, -0.1863979548215866, 0.006569322198629379], [-0.003999653272330761, 0.0961301177740097, -0.11522305011749268, 0.08243264257907867, -0.01625945046544075, -0.10613597929477692, 0.11405014991760254, 0.04360462352633476, 0.0043418509885668755, -0.13488918542861938], [-0.02031690627336502, 0.053673435002565384, 0.030379077419638634, 0.0785910114645958, -0.033745426684617996, -0.040622908622026443, 0.07706675678491592, -0.07116549462080002, 0.00488565769046545, -0.0923786535859108], [-0.030041538178920746, 0.01722966693341732, 0.09451205283403397, -0.05251453071832657, -0.19872978329658508, 0.0835537537932396, -0.021100567653775215, 0.07184620946645737, -0.1733950823545456, -0.06232792139053345], [-0.06122644990682602, 0.030530281364917755, 0.04523875564336777, -0.06786885857582092, -0.12868793308734894, 0.11854489147663116, 0.060220833867788315, 0.01664912700653076, -0.09375103563070297, 0.045823998749256134], [-0.03716874122619629, 0.028468217700719833, -0.0853881761431694, 0.04572479799389839, -0.05869751423597336, -0.10905197262763977, 0.16807614266872406, -0.09773685038089752, -0.054800573736429214, -0.0265573188662529], [-0.02171959914267063, -0.054184600710868835, 0.008085984736680984, -0.07047652453184128, -0.11517031490802765, -0.07414383441209793, 0.08646076172590256, -0.17072615027427673, 0.05814268812537193, -0.052407972514629364], [0.02675873599946499, 0.048347387462854385, -0.06837853789329529, -0.05371726304292679, -0.14144866168498993, 0.039121225476264954, 0.15262620151042938, 0.005970628932118416, -0.06454525887966156, -0.03512325882911682], [0.04592447355389595, 0.01132013089954853, 0.0524456612765789, -0.024016082286834717, -0.23417198657989502, -0.09993095695972443, 0.09406552463769913, -0.2274220734834671, 0.031132981181144714, -0.18218691647052765], [0.02366906777024269, 0.03763667494058609, 0.010334962047636509, 0.05538824573159218, -0.1430855244398117, -0.025917021557688713, 0.14523383975028992, -0.22473716735839844, 0.07098021358251572, -0.27701056003570557], [-0.035499848425388336, -0.09262065589427948, 0.2123614251613617, 0.06795486062765121, -0.1634380966424942, -0.02428527921438217, -0.04499637335538864, -0.027221878990530968, -0.22192803025245667, -0.0002251307014375925], [-0.08737577497959137, -0.07830294221639633, 0.01405408326536417, -0.04862486943602562, -0.11805091053247452, -0.015267849899828434, 0.1383880227804184, -0.07820641249418259, -0.00976898055523634, 0.07752412557601929], [-0.03226137161254883, -0.04623985290527344, 0.025344371795654297, -0.015360255725681782, -0.05500334873795509, -0.03701113164424896, -0.015309300273656845, -0.03156653419137001, 0.026411013677716255, -0.04200386628508568], [-0.09213010966777802, -0.023691443726420403, 0.1024395003914833, 0.07648738473653793, -0.11144363135099411, 0.050555966794490814, -0.03677019104361534, -0.035185351967811584, -0.18266430497169495, -0.005360432434827089], [-0.1086844652891159, -0.027289995923638344, 0.06433940678834915, -0.056167930364608765, -0.18566244840621948, 0.08457755297422409, 0.14513590931892395, -0.07122432440519333, -0.05129719525575638, 0.042660441249608994], [-0.05441409721970558, 0.004101546946913004, 0.07967798411846161, -0.004973371978849173, -0.12049900740385056, -0.06590425968170166, 0.16235554218292236, -0.20115654170513153, -0.046488143503665924, -0.17585143446922302], [-0.016980309039354324, 0.0782678872346878, 0.052476879209280014, 0.0017321882769465446, -0.15471288561820984, -0.010201242752373219, 0.11187661439180374, -0.23384663462638855, -0.012582044117152691, 0.12227541953325272], [-0.10089819878339767, 0.1542939692735672, -0.054508596658706665, 0.026116613298654556, -0.09442214667797089, -0.01663624495267868, 0.10590183734893799, -0.035291288048028946, -0.13658259809017181, 0.05262095853686333], [-0.055766571313142776, -0.0742122009396553, -0.04940212517976761, 0.026380855590105057, -0.2562588155269623, 0.057877425104379654, 0.11101501435041428, -0.19798313081264496, 0.07750414311885834, -0.050064705312252045], [0.020849406719207764, 0.015572809614241123, 0.0009028956992551684, -0.015951823443174362, -0.18655909597873688, -0.0231980849057436, 0.1146128922700882, -0.24112676084041595, 0.01524406485259533, 0.007788403891026974], [0.02883003279566765, -0.06575362384319305, 0.27781760692596436, 0.15196987986564636, -0.26361003518104553, -0.09236329793930054, -0.08857367932796478, 0.016687799245119095, -0.21910758316516876, -0.022227834910154343], [-0.022713320329785347, -0.031174257397651672, 0.07386727631092072, -0.05616786703467369, -0.11857273429632187, -0.032661136239767075, 0.030150534585118294, -0.08017822355031967, -0.004331338219344616, 0.1827307939529419], [-0.05436042696237564, -0.04079951345920563, -0.027094034478068352, -0.047841764986515045, -0.128745436668396, 0.01013904344290495, -0.004720150027424097, -0.08558184653520584, 0.1119818240404129, 0.0021878539118915796], [-0.011631566099822521, 0.02247522585093975, 0.1263979971408844, 0.1252208799123764, -0.1323554515838623, -0.017102116718888283, 0.055723171681165695, 0.019652793183922768, -0.13985611498355865, -0.11077418923377991], [-0.06864334642887115, -0.026269443333148956, -0.012992163188755512, -0.008420555852353573, -0.2552902400493622, 0.004196327179670334, 0.18006283044815063, -0.0764521136879921, -0.032802827656269073, -0.03344671428203583], [-0.06621706485748291, -0.04376837983727455, 0.07173844426870346, -0.04033110663294792, -0.314238578081131, -0.1114388257265091, 0.1378966122865677, -0.3740530014038086, 0.02748735621571541, -0.27288690209388733], [-0.03494507446885109, 0.10939446091651917, -0.01471899263560772, -0.004864932969212532, -0.021091468632221222, -0.08130397647619247, 0.07904838025569916, -0.10605766624212265, -0.020115824416279793, 0.0008910790202207863], [-0.07871636748313904, 0.25021323561668396, -0.01968180015683174, -0.03986877575516701, 0.026587488129734993, -0.012461590580642223, 0.07412634044885635, -0.049005184322595596, -0.07112985849380493, -0.1380065232515335], [-0.02071964554488659, 0.04989370331168175, -0.055674824863672256, 0.01195000670850277, -0.14218245446681976, 0.005430228542536497, -0.0014590593054890633, -0.17245972156524658, 0.01057612057775259, -0.023162461817264557], [-0.06741116940975189, 0.02053179033100605, -0.04644046351313591, 0.027432618662714958, -0.1269547939300537, -0.0566973015666008, 0.02477269247174263, -0.170571967959404, 0.008117434568703175, -0.05008936673402786], [-0.022448373958468437, -0.15528246760368347, 0.27260786294937134, 0.1593925505876541, -0.3025055229663849, -0.11159686744213104, -0.07204198092222214, -0.01137938816100359, -0.1902848184108734, -0.07250057905912399], [0.01580348052084446, 0.030414706096053123, -0.05620519816875458, -0.0074052051641047, -0.18009404838085175, -0.045568156987428665, -0.011225334368646145, -0.07479062676429749, 0.012102003209292889, 0.07751348614692688], [-0.018304064869880676, 0.07433202117681503, 0.05248275399208069, -0.00814396608620882, -0.08443106710910797, -0.02938978746533394, 0.027039911597967148, -0.10556431114673615, 0.005451176315546036, 0.03172402083873749], [0.0318264476954937, -0.005929755046963692, 0.07333578914403915, 0.051796235144138336, -0.2632220387458801, -0.04571136459708214, 0.059701334685087204, -0.05779319629073143, -0.1943233609199524, -0.07909388095140457], [-0.057662736624479294, 0.057918861508369446, 0.06412716954946518, 0.017495131120085716, -0.3025723695755005, 0.024792376905679703, 0.22123263776302338, -0.05116550624370575, -0.1573740541934967, -0.09217207878828049], [-0.17073071002960205, 0.04398416355252266, 0.0679004117846489, 0.006143735721707344, -0.3275136649608612, -0.06437679380178452, 0.10096465796232224, -0.34639036655426025, -0.030138317495584488, -0.2627728283405304], [-0.036851510405540466, 0.16238123178482056, 0.020048391073942184, 0.0047454386949539185, 0.06429693102836609, -0.12580090761184692, 0.10104013234376907, -0.13054822385311127, -0.05133034288883209, -0.31430545449256897], [-0.027462659403681755, 0.17287509143352509, -0.11691872775554657, 0.05953742936253548, 0.09742344170808792, 0.018725670874118805, 0.07159879803657532, -0.06960917264223099, -0.08394818007946014, -0.30480027198791504], [-0.051834654062986374, 0.10165861248970032, -0.030792422592639923, 0.013597887940704823, -0.005709827411919832, -0.022518668323755264, 0.0343000702559948, -0.15491469204425812, 0.036174025386571884, -0.13113829493522644], [-0.034181248396635056, 0.03698912262916565, -0.03707084059715271, -0.03721144050359726, -0.052339572459459305, -0.04648588225245476, 0.06972254067659378, -0.07054395973682404, 0.05202237889170647, -0.15859684348106384], [0.09330098330974579, -0.1300172209739685, 0.35267436504364014, -0.019007451832294464, -0.4496394097805023, -0.03501211851835251, 0.037258945405483246, -0.010603641159832478, -0.29312288761138916, -0.09301014244556427], [0.04166416823863983, 0.056443002074956894, -0.010121478699147701, -0.04465362802147865, -0.09579312801361084, 0.03860361501574516, 0.07825684547424316, 0.023685188964009285, 0.04416016489267349, -0.05932851508259773], [0.01920555904507637, 0.049228545278310776, 0.03882446140050888, 0.029191378504037857, -0.026233697310090065, -0.03757889196276665, -0.02690260298550129, -0.09327305853366852, 0.0616576187312603, -0.08545506745576859], [0.07226254045963287, -0.04582992196083069, 0.15182852745056152, 0.0064062015153467655, -0.19021104276180267, 0.08900129795074463, 0.12946836650371552, 0.002995008835569024, -0.17207928001880646, -0.10566212981939316], [-0.07928118109703064, 0.08067232370376587, -0.007889548316597939, 0.022427476942539215, -0.1443253457546234, -0.023539729416370392, 0.15893979370594025, -0.09498750418424606, -0.1564934253692627, -0.07318422943353653], [-0.162826806306839, 0.10462122410535812, 0.039788611233234406, -0.014886465854942799, -0.189644455909729, -0.05738775432109833, 0.19467104971408844, -0.2792458236217499, 0.028057187795639038, -0.30515584349632263], [0.004959748592227697, 0.06524106115102768, 0.002706238767132163, -0.011592172086238861, -0.01305110938847065, -0.1060258001089096, 0.17963068187236786, -0.0858318880200386, 0.04975678771734238, -0.3268691897392273], [-0.0135579789057374, 0.03244658187031746, -0.003134609665721655, -0.09445377439260483, 0.05493540316820145, -0.024652821943163872, 0.15650451183319092, -0.13393135368824005, -0.03192029148340225, -0.23809872567653656], [-0.11638469994068146, -0.0009253654861822724, -0.0029122154228389263, -0.044316381216049194, -0.08323612809181213, 0.13420364260673523, 0.11496934294700623, -0.053193774074316025, 0.035031773149967194, -0.14317665994167328], [-0.09674222022294998, -0.009486286900937557, 0.07840980589389801, 0.0009416837128810585, -0.07272521406412125, 0.10139099508523941, 0.044654738157987595, -0.08188033849000931, 0.032794009894132614, -0.17460504174232483], [0.036021556705236435, -0.048074644058942795, 0.01233811117708683, 0.07765544950962067, -0.2239900529384613, -0.007061503361910582, 0.17384374141693115, -0.03967439383268356, -0.23272192478179932, -0.12531286478042603], [0.008286012336611748, 0.07557445764541626, 0.04911109060049057, 0.009956477209925652, -0.07713177055120468, 0.034540701657533646, 0.04821769520640373, -0.05612357705831528, 0.045319538563489914, -0.08999289572238922], [-0.012971763499081135, 0.011446449905633926, 0.009734957478940487, 0.0805850401520729, -0.06476105004549026, 0.09015657752752304, 0.07447628676891327, -0.07695075869560242, 0.10821633785963058, -0.04201851412653923], [0.0340539924800396, 0.09663929790258408, -0.008233372122049332, -0.0018311887979507446, -0.0979641005396843, 0.0035985757131129503, 0.10567492991685867, 0.033229198306798935, -0.15594644844532013, -0.0630623996257782], [-0.15716834366321564, 0.04112502187490463, -0.15245585143566132, -0.1006603017449379, -0.14839257299900055, 0.10949438810348511, 0.10723268240690231, -0.10817664861679077, -0.05610785260796547, -0.19679047167301178], [-0.18797504901885986, -0.05870702117681503, 0.009969127364456654, 0.015786774456501007, -0.14855557680130005, 0.07736367732286453, 0.11809514462947845, -0.2596006691455841, 0.04355757310986519, -0.20138093829154968], [0.10864225029945374, 0.09270014613866806, -0.037478040903806686, -0.19750788807868958, -0.032529428601264954, -0.04558374360203743, 0.10365913808345795, -0.2887922525405884, 0.04066877439618111, -0.2561285197734833], [-0.0473482683300972, 0.12507784366607666, -0.2968849539756775, -0.20220674574375153, 0.010856992565095425, 0.0038088783621788025, 0.21522489190101624, -0.04741358011960983, -0.016799112781882286, -0.10228405892848969], [-0.06592825055122375, -0.04696318134665489, -0.10353227704763412, 0.03104599565267563, 0.016167961061000824, -0.03095264360308647, 0.06446421146392822, -0.1436200886964798, -0.06441915035247803, -0.1612403839826584], [-0.11751782894134521, -0.0720747858285904, 0.018339315429329872, 0.050325050950050354, -0.07258528470993042, 0.09677501767873764, 0.1120552197098732, -0.1629519909620285, -0.0681924968957901, -0.06971442699432373], [0.0567685030400753, 0.0651349425315857, 0.0021058651618659496, -0.1624210625886917, -0.19710689783096313, 0.0037931816186755896, 0.10509476810693741, -0.05395805463194847, -0.2193835824728012, -0.0555952712893486], [-0.011136844754219055, -0.06409880518913269, 0.010227925144135952, 0.1078840047121048, 0.016095144674181938, 0.07078898698091507, 0.07020523399114609, -0.10692289471626282, 0.04617978632450104, -0.04962492734193802], [0.01867954432964325, -0.034175775945186615, 0.0073575349524617195, 0.08236507326364517, -0.022041868418455124, 0.02662578970193863, 0.15047939121723175, -0.03918783366680145, 0.08439726382493973, -0.1570950597524643], [-0.07609467953443527, 0.11093083024024963, -0.0949992686510086, -0.13393087685108185, -0.06289719045162201, 0.0663851872086525, 0.19468535482883453, 0.01647298038005829, -0.25758081674575806, -0.10961423069238663], [-0.16328555345535278, 0.020497089251875877, -0.12011644244194031, -0.04126696288585663, -0.07368316501379013, 0.16666480898857117, 0.04952496290206909, -0.12221167236566544, -0.04493580758571625, -0.07381701469421387], [-0.21246138215065002, -0.06288759410381317, -0.058446723967790604, -0.049555860459804535, -0.16137835383415222, 0.09079179912805557, 0.10768479108810425, -0.1736752986907959, 0.05679388344287872, -0.12470383197069168], [-0.04502802714705467, 0.10374605655670166, -0.2523093521595001, -0.2831151485443115, 0.09123893082141876, -0.07733987271785736, 0.17800374329090118, -0.1428614854812622, -0.009147360920906067, -0.16293062269687653], [-0.08970586210489273, 0.0686061680316925, -0.1161428764462471, -0.1777431219816208, 0.03739927336573601, 0.038696546107530594, 0.0022718377877026796, 0.006652124226093292, -0.08177369087934494, -0.06792815029621124], [-0.09083588421344757, 0.011983108706772327, -0.021545737981796265, -0.07883928716182709, 0.012827274389564991, -0.027262575924396515, 0.16092632710933685, -0.25750842690467834, 0.01172675471752882, -0.16555948555469513], [-0.08002786338329315, -0.053328000009059906, -0.014103912748396397, -0.016559405252337456, -0.01977967470884323, 0.0025256637018173933, 0.09979283809661865, -0.13733309507369995, -0.08668645471334457, -0.1394713968038559], [-0.055276308208703995, 0.014931718818843365, -0.07193014025688171, -0.11976318061351776, -0.09559357166290283, 0.14808252453804016, 0.09709882736206055, 0.01975046843290329, -0.1601330041885376, -0.04333767294883728], [-0.01454873662441969, 0.003284961450845003, -0.022903230041265488, -0.0005379989743232727, -0.10264725238084793, -0.04472285881638527, 0.03964776545763016, -0.15292368829250336, 0.03256891295313835, -0.021931538358330727], [-0.058694031089544296, -0.04750039055943489, -0.030114393681287766, -0.015993060544133186, -0.028431348502635956, -0.01902463473379612, 0.11642637848854065, -0.1188960075378418, -0.025418458506464958, -0.13102781772613525], [-0.047194428741931915, 0.05375300347805023, -0.03704347833991051, -0.09862738102674484, -0.10656856745481491, 0.209030881524086, 0.1508191078901291, 0.029095517471432686, -0.11607637256383896, 0.022829199209809303], [-0.1422293782234192, 0.010565998032689095, -0.13077954947948456, -0.02218674309551716, -0.08802966773509979, 0.19457848370075226, 0.12138072401285172, -0.08117102831602097, -0.14020702242851257, -0.010255071334540844], [-0.1558181345462799, -0.1083187609910965, -0.20362208783626556, -0.04327335208654404, -0.16242104768753052, 0.09289507567882538, 0.13821928203105927, -0.15020230412483215, 0.004304671660065651, -0.08158425241708755], [-0.01913716271519661, 0.1381102055311203, -0.2190052717924118, -0.16884498298168182, 0.09301811456680298, 0.009883719496428967, 0.1600511372089386, -0.0958922877907753, -0.03725215420126915, -0.21205860376358032], [-0.06990717351436615, 0.10497249662876129, 0.044018689543008804, -0.09912962466478348, -0.017046324908733368, 0.07141401618719101, -0.05646400898694992, 0.07664420455694199, -0.10774125903844833, 0.05851185694336891], [-0.10132709890604019, 0.00702857319265604, -0.010325421579182148, -0.027168160304427147, 0.09153708070516586, 0.006377733778208494, 0.03525135666131973, -0.23754599690437317, -0.0592547208070755, -0.19293057918548584], [-0.06135940179228783, 0.018922679126262665, 0.014192384667694569, -0.05562589690089226, 0.01695609651505947, -0.021894600242376328, 0.07432813197374344, -0.10721455514431, -0.028957413509488106, -0.12505224347114563], [-0.03471677750349045, 0.029133036732673645, -0.08091378957033157, -0.1672968715429306, -0.20621341466903687, 0.1417655497789383, 0.20870795845985413, -0.06964028626680374, -0.2531953454017639, 0.023066718131303787], [-0.004403357394039631, 0.015984229743480682, 0.11760327965021133, -0.012319563888013363, -0.005846008658409119, -0.032648857682943344, 0.0748552531003952, -0.1799151450395584, 0.06761687994003296, -0.08446437120437622], [0.03794615715742111, -0.028192495927214622, 0.06115417182445526, -0.05723506957292557, 0.05086854100227356, -0.08064814656972885, 0.1387043446302414, -0.2607124447822571, 0.018474914133548737, -0.12881775200366974], [-0.12306290864944458, 0.016845662146806717, -0.022498348727822304, -0.09596235305070877, -0.11780467629432678, 0.11832010000944138, 0.13057196140289307, 0.023204656317830086, -0.14582125842571259, -0.04337869584560394], [-0.12567032873630524, 0.03679007664322853, -0.049190979450941086, -0.03295363485813141, -0.005507299210876226, 0.13133504986763, 0.07177991420030594, -0.0015141937183216214, -0.028164204210042953, -0.08030059933662415], [-0.11008970439434052, -0.15308324992656708, -0.09912186861038208, 0.003990908153355122, -0.022771285846829414, 0.030019473284482956, 0.13325518369674683, -0.04829179868102074, -0.0709347054362297, -0.19749663770198822], [-0.16915500164031982, -0.06929640471935272, -0.003901951014995575, -0.08219072967767715, 0.11779943108558655, 0.043778833001852036, 0.05313730984926224, -0.12034977972507477, 0.06405521929264069, -0.15177315473556519], [-0.052261702716350555, 0.0164348054677248, 0.09659205377101898, -0.04653382673859596, -0.12437380850315094, 0.03434149920940399, -0.11280961334705353, -0.020400164648890495, -0.14498479664325714, 0.02380073443055153], [-0.11122564226388931, 0.021064920350909233, -0.0019191642059013247, 0.023360392078757286, 0.09364239871501923, 0.05364895984530449, 0.06968245655298233, -0.2995101809501648, -0.03492164984345436, -0.27640500664711], [-0.15506289899349213, -0.035490766167640686, -0.06890682131052017, -0.07393104583024979, 0.14362871646881104, 0.015517295338213444, 0.1333332657814026, -0.10345160961151123, -0.0759507417678833, -0.2016327828168869], [-0.11598755419254303, -0.017709001898765564, -0.05871392786502838, -0.05107809975743294, -0.09015023708343506, 0.13327455520629883, 0.034632135182619095, 0.06672123074531555, -0.15110504627227783, 0.012412022799253464], [-0.009217551909387112, 0.04161617159843445, 0.07108611613512039, -0.04436282068490982, 0.0251038558781147, -0.009534245356917381, 0.0663343295454979, -0.2143949568271637, -0.15060772001743317, -0.13215364515781403], [0.0023240207228809595, 0.026043834164738655, 0.04234682396054268, 0.05364702269434929, 0.03568388894200325, 0.0630827397108078, 0.07328837364912033, -0.20998524129390717, -0.09037718176841736, -0.2084732949733734], [-0.012974356301128864, 0.014528896659612656, 0.05729164183139801, -0.06706349551677704, -0.07944903522729874, 0.17608261108398438, 0.013552520424127579, 0.03367943316698074, -0.1343696266412735, -0.034890834242105484], [0.022164585068821907, -0.0771719440817833, -0.05731971934437752, -0.057341717183589935, 0.0017213753890246153, 0.09118768572807312, 0.025572754442691803, 0.01189031545072794, -0.16455811262130737, -0.08234168589115143], [-0.039972588419914246, -0.15780116617679596, -0.10068663954734802, -0.092955082654953, 0.024673383682966232, 0.05033108964562416, 0.027522455900907516, -0.030088523402810097, 0.01215056050568819, -0.17542685568332672], [-0.013681727461516857, 0.017569055780768394, -0.011873302049934864, -0.06035803258419037, -0.11233065277338028, -0.018372518941760063, -0.057018619030714035, 0.00346736959181726, 0.10287506133317947, -0.05043485760688782], [-0.12353897839784622, 0.048172734677791595, 0.06758301705121994, 0.052722908556461334, -0.05724914371967316, 0.017283719033002853, 0.11913978308439255, -0.08186550438404083, -0.1840810328722, 0.008171780966222286], [-0.11971842497587204, 0.06185227259993553, -0.08853761851787567, 0.0694342777132988, -0.026370268315076828, -0.048873428255319595, 0.06459400057792664, -0.007901974953711033, -0.16489745676517487, -0.26285070180892944], [-0.11077766120433807, 0.029196789488196373, 0.017973260954022408, 0.12023888528347015, 0.008556457236409187, -0.011814670637249947, -0.03292195498943329, 0.014246662147343159, -0.041866011917591095, -0.0580291748046875], [-0.005517350509762764, 0.08854693174362183, -0.027154920622706413, 0.05664999783039093, -0.16163630783557892, 0.03166554495692253, -0.03916287049651146, 0.03891811519861221, -0.15932999551296234, -0.061160892248153687], [-0.10923214256763458, 0.03442039713263512, -0.04975352808833122, 0.033821798861026764, 0.06436193734407425, 0.023115793243050575, 0.03862948715686798, 0.08958431333303452, -0.08854033052921295, -0.26903876662254333], [-0.06761323660612106, 0.07201109081506729, 0.02350824698805809, 0.08894173800945282, 0.05901403725147247, -0.09914283454418182, 0.07454869896173477, 0.035698894411325455, -0.0531579926609993, -0.12892836332321167], [-0.0026871543377637863, 0.0666486918926239, -0.04615366831421852, 0.042628124356269836, -0.06737855076789856, 0.1409209817647934, -0.03728698566555977, 0.04580890014767647, -0.14561501145362854, -0.009304645471274853], [0.011957110837101936, 0.07939651608467102, 0.05216137319803238, -0.03764667734503746, -0.12110307812690735, 0.06418394297361374, 0.026461759582161903, 0.0428493395447731, -0.16938012838363647, -0.057971831411123276], [-0.013531945645809174, 0.09337512403726578, -0.03367384523153305, 0.1202797070145607, 0.01940494030714035, -0.07538361102342606, -0.03782687336206436, 0.04433073475956917, -0.12885552644729614, 0.007428467273712158], [-0.0393533930182457, 0.09943680465221405, -0.07145777344703674, 0.021994121372699738, 0.12757377326488495, 0.019786350429058075, 0.05471695959568024, -0.01164994016289711, -0.015057479962706566, -0.2617291510105133], [-0.06431017071008682, 0.07450169324874878, -0.17661026120185852, -0.10959330201148987, 0.039704032242298126, 0.15276585519313812, 0.08259592950344086, 0.10068724304437637, -0.09928342700004578, 0.023080414161086082], [-0.0710771307349205, -0.0464499369263649, -0.02455691434442997, 0.024479590356349945, 0.11572747677564621, 0.013909588567912579, -0.00903793890029192, 0.029001304879784584, -0.01865272969007492, -0.18524576723575592], [-0.06802701205015182, 0.15142644941806793, -0.09486330300569534, 0.10264912247657776, 0.0028818806167691946, -0.04288773983716965, 0.013361791148781776, -0.02232644520699978, -0.12118852138519287, -0.30808714032173157], [-0.04459423944354057, -0.005388216581195593, -0.010307309217751026, 0.24420736730098724, -0.1891564577817917, -0.19208168983459473, -0.0679943859577179, 0.08931189030408859, -0.18967662751674652, -0.06381511688232422], [-0.09825243800878525, 0.058157388120889664, -0.013215617276728153, 0.04114701226353645, 0.11868498474359512, -0.07513946294784546, 0.023760873824357986, 0.08238545805215836, -0.02095499075949192, -0.07270994782447815], [0.002528722630813718, 0.0651506707072258, 0.0010939103085547686, 0.049914222210645676, 0.07753721624612808, -0.03731924295425415, 0.001020014868117869, 0.06633689254522324, -0.07031910866498947, -0.12129319459199905], [-0.12238448858261108, 0.026605958119034767, 0.021690119057893753, 0.008628880605101585, -0.0456632524728775, 0.0334932915866375, -0.006534466985613108, 0.04025168716907501, -0.08736910670995712, -0.07193148881196976], [-0.15954165160655975, 0.03804386407136917, -0.01592744141817093, 0.10053296387195587, -0.09172236174345016, -0.0613243542611599, 0.00858043972402811, 0.08418511599302292, -0.1613948941230774, -0.053415823727846146], [-0.09745705127716064, 0.08920612186193466, -0.02620941959321499, 0.13814745843410492, -0.02574184723198414, -0.1668376922607422, 0.045313406735658646, -0.014392380602657795, -0.12881694734096527, -0.12063570320606232], [-0.0005646325880661607, -0.03554995730519295, -0.08856390416622162, -0.08301503211259842, 0.0912880077958107, 0.037281449884176254, 0.10766718536615372, 0.12796269357204437, 0.048643529415130615, -0.08696343749761581], [-0.0333217978477478, 0.00858649704605341, -0.11929536610841751, -0.07055753469467163, 0.006148188840597868, 0.06129232421517372, 0.08722158521413803, 0.1137307658791542, -0.08581908792257309, -0.009791309013962746], [-0.056737903505563736, -0.00037775468081235886, 0.01908782310783863, -0.00546485697850585, 0.0686771348118782, 0.07841607928276062, 0.049773622304201126, 0.004433530382812023, -0.03873247653245926, -0.03334573283791542], [0.011668004095554352, 0.0606161430478096, -0.08382774889469147, 0.016699373722076416, 0.09259596467018127, -0.08610488474369049, 0.04015371575951576, 0.0642382949590683, -0.07369755208492279, -0.0941634476184845], [-0.026504138484597206, -0.07512117177248001, 0.14691296219825745, 0.1980111449956894, -0.16839812695980072, -0.3858663737773895, -0.1479683667421341, 0.08627896010875702, -0.25819137692451477, -0.1563984602689743], [0.009687523357570171, 0.04537852481007576, -0.058506742119789124, 0.057671770453453064, 0.024577060714364052, -0.04118167608976364, 0.02413049153983593, 0.02402513101696968, -0.04179077968001366, 0.009880471043288708], [-0.016807401552796364, 0.009227538481354713, -0.046279143542051315, -0.04160536453127861, -0.03341568633913994, 0.09383072704076767, 0.007428027223795652, 0.030707303434610367, 0.08849276602268219, 0.00655188737437129], [-0.015425204299390316, 0.06729168444871902, 0.034574054181575775, 0.07005716860294342, -0.09160719066858292, -0.0066502513363957405, -0.0028110663406550884, 0.002851880621165037, -0.17144715785980225, -0.1140802800655365], [-0.13898196816444397, 0.007320227101445198, 0.005025808699429035, 0.1567649245262146, -0.11560135334730148, -0.14331477880477905, 0.05937839671969414, -0.01957935467362404, -0.08074421435594559, -0.0642046257853508], [-0.11034508794546127, -0.10921838134527206, 0.02142385020852089, 0.04976441711187363, 0.040712807327508926, -0.08558129519224167, 0.13108423352241516, -0.0956474170088768, 0.05448779836297035, -0.18603190779685974], [-0.10690918564796448, 0.02654815837740898, -0.03875260427594185, 0.01805642805993557, 0.12407057732343674, 0.09639067202806473, 0.07447696477174759, 0.04455830529332161, -0.0016272884095087647, -0.01650150865316391], [-0.08105826377868652, 0.08916130661964417, -0.1038966178894043, -0.04393763840198517, 0.06908281147480011, 0.030475452542304993, 0.14790578186511993, 0.12154147028923035, -0.1361156404018402, -0.13320595026016235], [-0.047494251281023026, -0.035146210342645645, 0.020290443673729897, 0.024490490555763245, -0.02791646681725979, 0.06440535932779312, -0.11327151954174042, -0.06579612195491791, 0.056047290563583374, 0.05948595702648163], [-0.021988071501255035, -0.04371612146496773, -0.09437032788991928, 0.04895161837339401, 0.07113637775182724, -0.03230531886219978, 0.1126982718706131, 0.000975427741650492, 0.020592467859387398, 0.011069651693105698], [-0.18352186679840088, -0.24530023336410522, 0.2548122704029083, 0.3178233802318573, -0.337604820728302, -0.39356499910354614, -0.23595641553401947, 0.030254097655415535, -0.19769985973834991, -0.23047347366809845], [0.0106788519769907, 0.04843970760703087, -0.022106990218162537, -0.009646863676607609, 0.002243408001959324, 0.08602135628461838, 0.049382660537958145, 0.004856131970882416, -0.06226114183664322, -0.021250737830996513], [0.007152152713388205, -0.027652522549033165, 0.02464280277490616, -0.006833916530013084, 0.050956737250089645, 0.10873862355947495, -0.07242428511381149, -0.040982041507959366, -0.01142418198287487, 0.08587737381458282], [-0.07182753086090088, 0.06571541726589203, 0.1545722335577011, 0.2233288586139679, -0.1262018233537674, -0.018035700544714928, -0.027633607387542725, 0.051065828651189804, -0.261656254529953, -0.116294264793396], [-0.19808022677898407, -0.07711086422204971, -0.0034283995628356934, 0.13104842603206635, -0.004325313493609428, -0.07927867770195007, 0.14391085505485535, -0.05847116559743881, 0.04497957602143288, -0.07587862014770508], [-0.09866788983345032, -0.11788199841976166, -0.023009106516838074, 0.00926191359758377, 0.08390118926763535, -0.11098778992891312, 0.027047693729400635, -0.04335639625787735, 0.0820404440164566, -0.08795013278722763], [0.012817450799047947, 0.018943004310131073, 0.02696065790951252, 0.014758850447833538, 0.05038001388311386, 0.007529356516897678, 0.027815712615847588, 0.04617248475551605, -0.0029166825115680695, -0.1369939148426056], [-0.07634454220533371, 0.1965523064136505, -0.07944563776254654, -0.008514880202710629, 0.15963202714920044, 0.0029381164349615574, 0.10310430079698563, 0.18410304188728333, -0.09044448286294937, -0.22489751875400543], [0.03680046647787094, -0.01022491604089737, 0.04882257431745529, 0.04832656309008598, -0.08936893939971924, -0.037330906838178635, -0.03636804595589638, -0.05214022845029831, 0.024532150477170944, 0.07595928758382797], [-0.015765612944960594, -0.05978601798415184, 0.021168766543269157, 0.06937870383262634, 0.007146717049181461, 0.0033984414767473936, 0.010775677859783173, -0.11550375074148178, -0.05747546628117561, -0.01420753076672554], [-0.18909789621829987, -0.2707625925540924, 0.22575286030769348, 0.29359927773475647, -0.30048516392707825, -0.21317529678344727, -0.3284322917461395, 0.008448111824691296, -0.0015369077445939183, -0.18662086129188538], [-0.025120995938777924, -0.10255172848701477, -0.004890086594969034, 0.08499473333358765, -0.04875564947724342, 0.04271573945879936, -0.019155094400048256, 0.019907407462596893, 0.028797196224331856, -0.0027586589567363262], [-0.02326689101755619, -0.049453042447566986, -0.06758955121040344, -0.03183460980653763, -0.08737119287252426, 0.0756664127111435, -0.033779632300138474, -0.03910914808511734, 0.026762213557958603, 0.01848897710442543], [-0.08730116486549377, -0.04000575840473175, 0.13401257991790771, 0.14739124476909637, -0.10532768070697784, -0.046691495925188065, -0.05309298262000084, 0.04103637486696243, -0.11802686005830765, -0.17286896705627441], [-0.1559077799320221, -0.14800556004047394, -0.06939747184515, -0.02586989663541317, -0.00889804121106863, 0.014797304756939411, 0.12656612694263458, -0.10772517323493958, 0.11538787186145782, 0.008480757474899292], [-0.03726419433951378, -0.045607440173625946, -0.05330945551395416, -0.0668303370475769, 0.02773992158472538, 0.05995556712150574, 0.078987717628479, -0.17066052556037903, 0.09999587386846542, 0.006384086329489946], [-0.05456467717885971, 0.06806883960962296, -0.016335634514689445, 0.051096174865961075, 0.06687883287668228, -0.09496468305587769, -0.009533765725791454, 0.015064593404531479, 0.005008790176361799, -0.14778728783130646], [-0.0661512240767479, 0.13264887034893036, -0.10303008556365967, -0.06407741457223892, 0.27933287620544434, -0.07677078992128372, 0.03129466995596886, -0.10625551640987396, -0.0963820368051529, -0.31682679057121277], [0.059772390872240067, 0.05512623488903046, -0.001914051827043295, 0.05790720880031586, -0.006218194495886564, 0.044415805488824844, -0.031037472188472748, -0.024128587916493416, 0.06431395560503006, -0.03214340656995773], [-0.018535450100898743, -0.04908241331577301, -0.048060376197099686, 0.03862952068448067, 0.017527775838971138, 0.034024566411972046, 0.025292441248893738, -0.04792482405900955, -0.012211285531520844, 0.039607007056474686], [-0.22308874130249023, -0.3297598958015442, 0.12530463933944702, 0.30016541481018066, -0.34122776985168457, 0.03517437353730202, -0.2235104888677597, 0.003951241262257099, 0.05833960697054863, -0.07127878814935684], [-0.007812287658452988, -0.05920044705271721, 0.07449718564748764, 0.07696770131587982, -0.06652770936489105, -0.06703455001115799, -0.02620609849691391, -0.05116266384720802, -0.027843954041600227, -0.052268244326114655], [0.06456772238016129, 0.044175345450639725, -0.05209154263138771, 0.006982774008065462, -0.10917080193758011, 0.04527077078819275, -0.024519283324480057, -0.04424876719713211, -0.03792473301291466, 0.0795317068696022], [-0.04434164613485336, -0.10936202853918076, 0.09762103855609894, 0.10499361902475357, -0.012555593624711037, 0.10941577702760696, -0.019497526809573174, -0.039583366364240646, -0.026014667004346848, -0.24937951564788818], [-0.08265316486358643, -0.05442433059215546, -0.06318539381027222, -0.10462526232004166, -0.04990526661276817, 0.04626989737153053, 0.11815325915813446, -0.0850987359881401, 0.060523755848407745, 0.039464641362428665], [0.005318604875355959, 0.03481180965900421, -0.06860359758138657, 0.018382910639047623, 0.05543375387787819, -0.05623462796211243, 0.048453718423843384, -0.10182341933250427, 0.12472423911094666, 0.08326741307973862], [-0.03960041329264641, 0.06556425988674164, 0.06985489279031754, 0.032790470868349075, 0.154532328248024, -0.14129267632961273, 0.03660968691110611, -0.22447121143341064, 0.01257444079965353, -0.08024182170629501], [-0.08378595858812332, 0.13604414463043213, -0.07126276195049286, -0.0625767782330513, 0.35570523142814636, -0.11791771650314331, 0.10947644710540771, -0.2690023183822632, -0.11558036506175995, -0.29859039187431335], [-0.005084670148789883, -0.044174667447805405, -0.004743658471852541, 0.017658108845353127, -0.08311435580253601, 0.019814833998680115, 0.049012381583452225, -0.10039593279361725, 0.03805841505527496, -0.008689035661518574], [-0.03528975695371628, -0.015401032753288746, -0.01955026015639305, 0.043340664356946945, -0.04662850499153137, -0.05720929428935051, -0.012881375849246979, -0.11617660522460938, 0.06437769532203674, 0.028271187096834183], [-0.1101401224732399, -0.2680347263813019, 0.07137995958328247, 0.11634363234043121, -0.44079700112342834, 0.12915928661823273, -0.11397861689329147, -0.04211277514696121, 0.01152091659605503, 0.025879230350255966], [0.03653395548462868, -0.045484595000743866, 0.04070033133029938, 0.01846395805478096, -0.14160102605819702, 0.009131192229688168, -0.011175205931067467, 0.008368445560336113, 0.008783671073615551, 0.06058209761977196], [0.058903466910123825, -0.0011545142624527216, -0.017334772273898125, 0.09504790604114532, -0.10738375782966614, 0.0024608171079307795, 0.03859468549489975, 0.010981053113937378, 0.05044364556670189, 0.013982919044792652], [-0.056580934673547745, -0.11680789291858673, 0.063165582716465, 0.22505269944667816, -0.18744060397148132, 0.13690485060214996, -0.04838273301720619, -0.1685025542974472, -0.17253413796424866, -0.20075836777687073], [-0.09533793479204178, 0.18987949192523956, -0.09330512583255768, -0.04700952023267746, 0.06398532539606094, 0.07979878038167953, 0.09582548588514328, -0.06832604855298996, -0.0405791774392128, -0.030360637232661247], [-0.048985693603754044, 0.01675133779644966, 0.004015312064439058, -0.0655476450920105, 0.014936555176973343, 0.05556638911366463, 0.03221110627055168, -0.13273273408412933, 0.044805753976106644, -0.01743793487548828], [-0.1003357470035553, 0.04512550309300423, 0.05545957013964653, 0.10310405492782593, 0.22028109431266785, -0.12121842056512833, -0.07798796147108078, -0.25003308057785034, 0.08025666326284409, -0.08646423369646072], [0.022394822910428047, 0.1920415610074997, -0.08521988987922668, -0.046541228890419006, 0.38610395789146423, -0.23050905764102936, 0.09790252894163132, -0.154204323887825, -0.049611907452344894, -0.32007893919944763], [-0.046870213001966476, -0.08134665340185165, -0.06310629844665527, -0.006784824188798666, -0.015832148492336273, 0.025683093816041946, -0.02647429145872593, -0.04814007878303528, 0.0848938524723053, -0.007950913161039352], [0.0033408375456929207, 0.015881847590208054, -0.05215498432517052, 0.07785661518573761, -0.08161726593971252, -0.03383807837963104, 0.0266279224306345, -0.010793604888021946, -0.00020210778166074306, -0.020540006458759308], [-0.05496712401509285, -0.3142954409122467, -0.024203432723879814, -0.03670376166701317, -0.32337647676467896, 0.19347044825553894, -0.052636612206697464, -0.10633824020624161, 0.08308959007263184, 0.05690988898277283], [0.021864693611860275, -0.03835064545273781, 0.05088895559310913, 0.11805504560470581, -0.11084357649087906, -0.0018813227070495486, -0.026296837255358696, -0.09140796214342117, -0.0003618483024183661, 0.03935292363166809], [0.02230503410100937, 0.01820574328303337, -0.01811489649116993, -0.022489197552204132, -0.11600140482187271, 0.05508505180478096, -0.030596092343330383, -0.02439942955970764, 0.07953096181154251, 0.0966239720582962], [-0.04478699341416359, 0.030436735600233078, -0.03266514465212822, 0.0026579892728477716, -0.07878809422254562, 0.032976824790239334, 0.07134896516799927, -0.025886105373501778, -0.20107224583625793, -0.19813790917396545], [-0.184509739279747, 0.11913591623306274, -0.025475842878222466, -0.031188424676656723, 0.17436908185482025, 0.0657930076122284, 0.1212908923625946, -0.10889900475740433, 0.060860324651002884, -0.15034636855125427], [-0.037549905478954315, -0.033552274107933044, -0.027601486071944237, -0.06820908933877945, 0.0805562287569046, 0.10928414762020111, 0.08794602006673813, -0.10327127575874329, 0.08683998137712479, -0.07053522765636444], [0.09065095335245132, 0.0783759132027626, 0.030694952234625816, 0.1852884590625763, 0.12913993000984192, -0.10753363370895386, -0.13054399192333221, -0.3011073172092438, 0.05545392259955406, -0.18745413422584534], [-0.05797833949327469, 0.42213383316993713, -0.29135945439338684, -0.15341222286224365, 0.29361844062805176, -0.19655805826187134, 0.031463444232940674, -0.25883615016937256, -0.08228667825460434, -0.30350297689437866], [-0.09376383572816849, -0.008750572800636292, -0.006952033378183842, -0.004288567695766687, 0.08060141652822495, 0.08071408420801163, 0.02996247075498104, -0.09461233019828796, 0.030665410682559013, -0.06998895853757858], [-0.058222923427820206, 0.06466955691576004, 0.05168023332953453, 0.005289018154144287, -0.006626317743211985, 0.0426667295396328, 0.0009334047208540142, -0.036089569330215454, 0.03193351998925209, -0.01438932865858078], [-0.12095005065202713, -0.2441800832748413, -0.09134101867675781, -0.16167235374450684, -0.21736538410186768, 0.22700074315071106, -0.018934790045022964, -0.138017937541008, 0.13236404955387115, 0.062008634209632874], [-0.012045986950397491, 0.01162729598581791, -0.039181068539619446, 0.07014305889606476, -0.11945310980081558, -0.027809876948595047, -0.012516742572188377, 0.030976414680480957, -0.030828282237052917, 0.042754944413900375], [-0.004478639457374811, -0.051815446466207504, -0.024747421965003014, 0.052434079349040985, -0.03268131613731384, 0.058881621807813644, 0.016354968771338463, -0.04570307955145836, 0.044938988983631134, 0.01464554201811552], [-0.12426609545946121, 0.10867029428482056, -0.02960999868810177, -0.008402945473790169, 0.060779206454753876, 0.17912262678146362, 0.08626092225313187, -0.04307526350021362, -0.04749954491853714, -0.13142921030521393], [-0.1708686202764511, -0.03652201592922211, -0.03238100931048393, -0.11410997062921524, 0.0869649201631546, 0.1757475584745407, 0.01786566898226738, -0.03145362064242363, 0.04482339695096016, -0.11318192631006241], [-0.07135570049285889, -0.019788261502981186, -0.04613108932971954, -0.09113508462905884, 0.013071716763079166, 0.12982691824436188, 0.08558569848537445, -0.03361442685127258, 0.11349857598543167, -0.17050209641456604], [0.10681488364934921, 0.11362896859645844, -0.011218412779271603, 0.15059100091457367, 0.07527387887239456, -0.06432607769966125, -0.07909424602985382, -0.2381160408258438, -0.03346600383520126, -0.25225940346717834], [-0.01501657534390688, 0.3070831298828125, -0.14239054918289185, -0.194654181599617, 0.27246055006980896, -0.15133054554462433, -0.14513298869132996, 0.0022144175600260496, -0.08226406574249268, -0.22241930663585663], [-0.053092751652002335, 0.13441284000873566, -0.06937253475189209, -0.03724764660000801, 0.04568365588784218, 0.045679233968257904, 0.12578530609607697, -0.07094735652208328, -0.019446156919002533, -0.04178667068481445], [0.014688470400869846, 0.00887806061655283, -0.0016663168789818883, 0.0547148659825325, -0.032456737011671066, -0.004751513712108135, 0.060069430619478226, -0.0043870192021131516, -0.03597942739725113, 0.030086316168308258], [-0.14253589510917664, -0.2204570174217224, -0.21075128018856049, -0.23275955021381378, -0.01875321939587593, 0.15467263758182526, 0.12437363713979721, -0.13178807497024536, 0.055963218212127686, -0.05689990147948265], [-0.006958054844290018, 0.06386999785900116, 0.02825002931058407, 0.11245391517877579, -0.09100449085235596, -0.08118215948343277, 0.020785579457879066, 0.052136097103357315, -0.01492801308631897, -0.03594978153705597], [-0.03747270628809929, 0.07176544517278671, -0.07931432127952576, -0.045114073902368546, 0.04226028919219971, 0.017392417415976524, 0.014300396665930748, -0.00896808598190546, 0.05664796009659767, 0.03251226246356964], [-0.12840083241462708, 0.07931612432003021, -0.05846820026636124, -0.10189373791217804, 0.13167019188404083, 0.1664203554391861, 0.11415436118841171, -0.0824199989438057, -0.12107586115598679, -0.1531493365764618], [-0.17492398619651794, 0.09026177227497101, -0.06503219902515411, -0.0288657546043396, 0.044217221438884735, 0.1686168909072876, 0.1482485681772232, -0.0866241380572319, -0.038756776601076126, -0.1833118349313736], [-0.04245581850409508, 0.03543553501367569, 0.0023039416410028934, 0.021707097068428993, 0.07359570264816284, 0.11899998784065247, 0.0901319608092308, -0.16947335004806519, 0.028140567243099213, -0.13390378654003143], [0.05790127441287041, 0.07446151971817017, -0.1396920531988144, -0.010378170758485794, 0.1669398695230484, -0.0828976109623909, -0.10174091905355453, 0.029111117124557495, -0.044582776725292206, -0.30160874128341675], [-0.16039086878299713, 0.11669985949993134, -0.05088245868682861, -0.022163720801472664, 0.1956288069486618, -0.019163943827152252, -0.07183126360177994, 0.0525178536772728, -0.18103846907615662, -0.06582272052764893], [-0.030730165541172028, 0.052230000495910645, -0.005651239771395922, -0.07502219080924988, 0.08545618504285812, -0.06695306301116943, 0.005444924812763929, -0.14823834598064423, -0.055012047290802, -0.13289763033390045], [-0.011911945417523384, 0.05243435129523277, -0.0020765240769833326, -0.022824779152870178, -0.020881297066807747, -0.08747649192810059, 0.0972403883934021, -0.1031411737203598, 0.007085030432790518, -0.011008561588823795], [-0.2053428590297699, -0.22940006852149963, -0.24013391137123108, -0.23294304311275482, 0.033933937549591064, 0.22471916675567627, 0.0817217156291008, -0.07812108099460602, -0.04697766527533531, -0.1063157245516777], [-0.07017787545919418, -0.026954563334584236, 0.05884639918804169, 0.012738731689751148, 0.005570952780544758, -0.043016765266656876, -0.021923894062638283, 0.011355513706803322, -0.020074931904673576, -0.036686744540929794], [0.05067313089966774, 0.07055599242448807, -0.03148286044597626, -0.07545408606529236, 0.06453389674425125, 0.0036420398391783237, -0.02879091538488865, -0.05488787591457367, -0.0700339674949646, -0.0212537944316864], [-0.09813318401575089, 0.09011366963386536, -0.08030498027801514, -0.12492187321186066, -0.03380028158426285, 0.21173565089702606, 0.13250520825386047, -0.09769367426633835, -0.09549926221370697, -0.0966709554195404], [-0.10422694683074951, 0.018224915489554405, -0.03537348285317421, -0.00718414643779397, 0.0033503943122923374, 0.04018044471740723, 0.08528302609920502, -0.08478191494941711, -0.04951350763440132, -0.010325654409825802], [-0.031076403334736824, 0.006992475129663944, 0.04184844717383385, -0.04237782210111618, 0.012458154000341892, 0.04974925145506859, 0.09608779847621918, -0.1782652884721756, 0.03114485554397106, -0.08564374595880508], [-0.21399493515491486, -0.2142905294895172, -0.061108820140361786, -0.05914771556854248, 0.25404444336891174, -0.03576629236340523, 0.0438794381916523, -0.07241468876600266, 0.16107456386089325, -0.2982596457004547], [-0.16820286214351654, 0.04689059033989906, 0.11984642595052719, -0.0021767308935523033, -0.049904026091098785, 0.0446610227227211, -0.08544792234897614, 0.023737125098705292, -0.03469117358326912, 0.004991914611309767], [-0.2079417109489441, -0.07834554463624954, -0.19818805158138275, -0.05036914721131325, 0.10777784883975983, 0.11594416201114655, -0.017089921981096268, -0.1449761539697647, -0.0420345664024353, -0.23951956629753113], [-0.00751886609941721, 0.03832210227847099, -0.010080963373184204, -0.0026232637465000153, 0.12924110889434814, -0.05209732428193092, 0.07451212406158447, -0.13432566821575165, -0.029381288215517998, -0.152088463306427], [-0.11529498547315598, -0.1290683001279831, -0.13233542442321777, -0.17633135616779327, 0.06972874701023102, 0.11407072842121124, 0.03381524607539177, -0.09628349542617798, -0.040099676698446274, -0.09699086099863052], [0.09081948548555374, -0.01906464248895645, -0.011493301019072533, -0.006615090183913708, 0.04143207147717476, -0.06862585246562958, 0.012339700944721699, -0.1182050108909607, 0.007425942923873663, -0.02718186005949974], [0.05006875470280647, -0.04707452282309532, -0.06420110166072845, -0.007826808840036392, 0.1336679309606552, 0.0264234971255064, -0.029040852561593056, -0.09494323283433914, -0.049922145903110504, -0.11960139125585556], [-0.079808309674263, -0.012512238696217537, -0.0028094446752220392, -0.07433174550533295, -0.03607603535056114, 0.1397324651479721, 0.010698901489377022, -0.05142436549067497, -0.07860791683197021, -0.06190051883459091], [-0.07974457740783691, 0.07576942443847656, 0.07696475833654404, -0.007981844246387482, 0.015275788493454456, 0.08674593269824982, 0.046173471957445145, -0.10557001084089279, -0.06670228391885757, -0.13894464075565338], [-0.017839159816503525, -0.02764379046857357, -0.022572092711925507, 0.0019623145926743746, 0.09404325485229492, 0.08304744958877563, 0.031424716114997864, -0.3128819763660431, -0.10989612340927124, -0.17044904828071594], [-0.06454286724328995, -0.18142586946487427, -0.10322296619415283, -0.10341232270002365, 0.0048363530077040195, 0.06511073559522629, -0.07791896164417267, -0.05341066047549248, 0.13358555734157562, -0.16890789568424225], [-0.0856848880648613, 0.09277895838022232, 0.028173072263598442, -0.02549896016716957, -0.003294267924502492, 0.0769752711057663, 0.13197191059589386, 0.013231382705271244, -0.12856078147888184, 0.017244692891836166], [-0.019634772092103958, 0.04319783300161362, -0.05222044140100479, 0.006451023742556572, 0.1418808549642563, -0.06261158734560013, 0.06312554329633713, 0.01985904574394226, -0.0030505554750561714, -0.18309007585048676], [-0.07187368720769882, 0.01917348988354206, 4.3082021875306964e-05, 0.0377376563847065, -0.06098365783691406, -0.2102556973695755, -0.06691527366638184, 0.10227401554584503, -0.027057254686951637, -0.12371578067541122], [-0.017730996012687683, 0.11176259815692902, 0.03207048773765564, 0.16820429265499115, -0.074663445353508, -0.06046237051486969, -0.024108877405524254, 0.018641145899891853, -0.163301482796669, -0.12255146354436874], [-0.05997471511363983, 0.04883000999689102, -0.05228232219815254, 0.0008416927885264158, 0.10766973346471786, -0.06976896524429321, -0.0014556831447407603, 0.02285231091082096, -0.03658496215939522, -0.06223135069012642], [-0.05497026443481445, 0.05036883428692818, 0.01722618378698826, -0.027682214975357056, -0.01657090336084366, -0.092856764793396, 0.02299187332391739, 0.0841413140296936, -0.012710227631032467, -0.16890373826026917], [-0.05572883412241936, 0.1222863495349884, -0.030699513852596283, 0.040466465055942535, -0.1027403399348259, 0.07594162970781326, 0.03134170547127724, 0.05136219784617424, -0.20634400844573975, -0.0811627209186554], [-0.08405619859695435, 0.11604718863964081, 0.006196103058755398, 0.06341500580310822, -0.1182202473282814, -0.043060824275016785, -0.050239138305187225, 0.09094647318124771, -0.1324319839477539, -0.0686492770910263], [-0.14084158837795258, 0.15587292611598969, 0.014552787877619267, 0.1738778054714203, -0.023838641121983528, -0.15461455285549164, 0.05973091721534729, -0.05411187559366226, -0.194387748837471, -0.24215492606163025], [-0.06315065175294876, 0.02652950957417488, 0.008433706127107143, -0.03194499388337135, 0.05797984451055527, -0.06501827389001846, 0.016717592254281044, 0.05612744018435478, 0.04959464073181152, -0.08449427783489227], [-0.022826597094535828, 0.07499631494283676, -0.1324542909860611, -0.03346870467066765, 0.08435894548892975, 0.1532680243253708, -0.007207323331385851, -0.01018906943500042, -0.036136701703071594, 0.0059668514877557755], [-0.08811716735363007, -0.09668824821710587, -0.022480664774775505, 0.03489051014184952, 0.07869462668895721, -0.05637706071138382, 0.030499640852212906, 0.1036454439163208, -0.04398322105407715, -0.01830410771071911], [-0.1356266438961029, 0.038332387804985046, -0.042667534202337265, -0.019181473180651665, 0.08694235980510712, -0.07042112201452255, 0.03647471219301224, 0.11396005749702454, 0.027565881609916687, -0.17484384775161743], [-0.08111017942428589, 0.015814369544386864, 0.12069837003946304, 0.18784070014953613, -0.13866406679153442, -0.17002397775650024, -0.1024634838104248, 0.15009371936321259, -0.12620259821414948, -0.3033073842525482], [-0.0415610708296299, 0.024473091587424278, -0.06754127144813538, -0.034693989902734756, 0.0906396359205246, 0.016857393085956573, -0.007807814981788397, 0.14778633415699005, -0.017375562340021133, -0.07142014801502228], [-0.06666050106287003, 0.03514889255166054, 0.013002115301787853, -0.00404596421867609, 0.009571718983352184, 0.0071511343121528625, 0.026168590411543846, 0.07204841822385788, 0.005963541567325592, 0.018527524545788765], [-0.05574136599898338, 0.03834816813468933, -0.06304358690977097, 0.002299221931025386, -0.03067099303007126, 0.048728104680776596, 0.034901395440101624, 0.18291443586349487, -0.07701338082551956, -0.08451586961746216], [-0.14958027005195618, 0.08065902441740036, 0.1056642234325409, 0.14324387907981873, -0.13570217788219452, -0.12188909202814102, 0.0030816395301371813, -0.08255167305469513, -0.15966719388961792, -0.01628420315682888], [-0.03418155759572983, -0.007948911748826504, 0.10730192810297012, 0.03604108840227127, 0.05012521520256996, -0.22396934032440186, -0.0014799135969951749, 0.002720278687775135, 0.0253913514316082, -0.1675245612859726], [-0.08256655931472778, -0.03096001222729683, -0.12062034010887146, -0.03454872593283653, 0.09938625246286392, -0.03593447059392929, 0.002790205180644989, 0.07346596568822861, -0.027811674401164055, -0.11457495391368866], [-0.060131173580884933, 0.01724209450185299, -0.1574067771434784, -0.18366780877113342, 0.0572395995259285, 0.19551613926887512, 0.07849448919296265, 0.008618466556072235, -0.011354614980518818, -0.08594914525747299], [-0.016238676384091377, -0.11273999512195587, -0.07474299520254135, 0.0733276903629303, 0.07624798268079758, 0.04147133231163025, -0.057109471410512924, 0.03997679054737091, 0.0030476234387606382, -0.06313707679510117], [0.022525493055582047, -0.00019399433222133666, -0.11637885868549347, 0.00042768928688019514, 0.03091108798980713, 0.035892438143491745, -0.019223449751734734, 0.1606268584728241, 0.016409222036600113, -0.10344605147838593], [-0.17684078216552734, 0.007909538224339485, 0.10935018211603165, 0.22158080339431763, -0.16862517595291138, -0.23650096356868744, -0.23100028932094574, 0.19893603026866913, -0.09394695609807968, -0.3420584499835968], [-0.04600710794329643, -0.016893140971660614, -0.04336345195770264, 0.06693660467863083, 0.10203991085290909, -0.056171055883169174, -0.07440347969532013, 0.05028878524899483, -0.009600915014743805, -0.060554295778274536], [-0.08285746723413467, -0.034439604729413986, 0.015069431625306606, 0.016038356348872185, 0.04882948473095894, 0.020929018035531044, -0.04327145963907242, -0.0034716457594186068, 0.08296898752450943, -0.009253742173314095], [-0.13221071660518646, 0.07073278725147247, 0.08088484406471252, 0.03659040108323097, 0.049518585205078125, -0.04521752893924713, -0.08227816224098206, 0.20103278756141663, -0.06459305435419083, -0.23989984393119812], [-0.01459941640496254, -0.048838429152965546, 0.11784762889146805, 0.0708889439702034, 0.09434834122657776, -0.07972432672977448, -0.012915072962641716, -0.129196897149086, 0.005332954227924347, -0.012428408488631248], [-0.022379497066140175, -0.11212930828332901, 0.010916974395513535, -0.023813605308532715, 0.14537668228149414, -0.022709054872393608, 0.005792077165096998, -0.04691857099533081, 0.017200857400894165, -0.013958227820694447], [-0.055608898401260376, 0.004186972044408321, -0.0576590858399868, -0.09683046489953995, 0.0714585930109024, 0.12221641093492508, 0.020429477095603943, 0.10331757366657257, -0.019912580028176308, -0.0280959140509367], [0.004604600835591555, -0.007322655990719795, -0.013225280679762363, -0.17534132301807404, 0.20504631102085114, 0.0770694687962532, 0.12967681884765625, -0.023469991981983185, -0.05979878455400467, -0.17685188353061676], [-0.00938873365521431, -0.009713099338114262, 0.06979570537805557, 0.10610456019639969, -0.07000717520713806, 0.05945189669728279, -0.020124703645706177, 0.07069292664527893, -0.029334617778658867, 0.033179085701704025], [0.020854724571108818, -0.007679586764425039, -0.009781635366380215, -0.04739370942115784, 0.09452264755964279, 0.07778219878673553, -0.022505786269903183, 0.08005434274673462, -0.006158034782856703, -0.05725965276360512], [-0.1150847002863884, -0.03894619271159172, 0.1908807009458542, 0.14832913875579834, -0.20618708431720734, -0.2407841831445694, -0.289482057094574, 0.12792415916919708, -0.14307837188243866, -0.20696482062339783], [-0.07597474753856659, 0.017010217532515526, 0.03639224171638489, 0.02198982425034046, 0.012822670862078667, -0.03476080298423767, -0.04517343267798424, 0.07346703857183456, 0.03357965126633644, -0.06431464850902557], [0.007401934824883938, 0.00398043030872941, 0.0481223501265049, -0.05554760992527008, -0.019188035279512405, 0.02924090251326561, -0.016220927238464355, 0.0440351627767086, 0.04823248088359833, 0.0635635033249855], [-0.0406772643327713, -0.04704047366976738, 0.07017038017511368, 0.11680581420660019, 0.1118960902094841, -0.05088791251182556, -0.10902567207813263, 0.3404601514339447, -0.18372459709644318, -0.2241096943616867], [-0.06968498975038528, -0.18107257783412933, 0.07740332931280136, 0.03739026188850403, 0.012329092249274254, -0.030411118641495705, 0.028355620801448822, -0.16822728514671326, -0.004257944878190756, 0.0791635811328888], [-0.028171176090836525, -0.2078976035118103, 0.07323180884122849, 0.01443495787680149, 0.050397831946611404, -0.06986992806196213, -0.0809306800365448, -0.07044201344251633, -0.008691029623150826, 0.059304170310497284], [-0.011404518969357014, 0.05716562643647194, 0.020643172785639763, -0.03823491185903549, 0.15364332497119904, -0.022892722859978676, -0.0572475865483284, 0.09558697789907455, 0.05947570875287056, -0.10550224035978317], [-0.11432346701622009, 0.14518937468528748, -0.03370998427271843, -0.14284490048885345, 0.2666468024253845, 0.043654512614011765, 0.052260685712099075, 0.03363535925745964, 0.01803050935268402, -0.24009110033512115], [0.010929962620139122, -0.07968337833881378, 0.0803273543715477, 0.10298015177249908, -0.07620342820882797, -0.034332405775785446, -0.09947504103183746, -0.04140634089708328, 0.02877541072666645, 0.09779582917690277], [-0.004968470428138971, -0.055257804691791534, -0.034463249146938324, 0.06484311819076538, 0.03602028638124466, 0.06574961543083191, 0.02714667096734047, 0.0656144767999649, 0.02377544529736042, -0.06379277259111404], [-0.24435755610466003, -0.15945838391780853, 0.06920731067657471, 0.16246086359024048, -0.33702367544174194, -0.14781451225280762, -0.22476539015769958, 0.1723513901233673, 0.005276672542095184, 0.054689232259988785], [-0.041430018842220306, 0.00411372072994709, -0.04609888792037964, -0.004080188926309347, -0.018963029608130455, 0.07119835913181305, -0.14859233796596527, 0.012074433267116547, 0.054377105087041855, -0.008880887180566788], [0.0009769059251993895, -0.03464505448937416, 0.02719990350306034, -0.02183324471116066, -0.06402669847011566, -0.022448962554335594, -0.11346109956502914, -0.026003113016486168, -0.016813073307275772, 0.06748774647712708], [-0.11468222737312317, -0.08717196434736252, 0.08927607536315918, 0.07656402885913849, 0.07692292332649231, -0.0014286914374679327, -0.18561676144599915, 0.26137489080429077, -0.024460235610604286, -0.21104487776756287], [-0.0695544183254242, -0.18495739996433258, -0.02143101952970028, 0.015917383134365082, 0.03822558745741844, -0.009916874580085278, -0.011797087267041206, -0.14192001521587372, 0.02535281889140606, 0.09190776199102402], [0.0041811298578977585, -0.1329003870487213, -0.03066278249025345, -0.048946116119623184, 0.06863871216773987, -0.031410250812768936, 0.03133803978562355, -0.020983707159757614, 0.035931672900915146, 0.04362212494015694], [-0.022709541022777557, 0.0517851784825325, 0.04745554178953171, 0.01334081869572401, 0.2055714875459671, -0.05295201390981674, -0.15018345415592194, -0.0156102254986763, 0.0323842316865921, -0.01427897997200489], [-0.08981593698263168, 0.06430424749851227, -0.07035799324512482, -0.13048726320266724, 0.3941987156867981, -0.0059242164716124535, 0.027669791132211685, -0.04576446861028671, -0.119238942861557, -0.3386814594268799], [-0.05285773053765297, -0.12448301166296005, 0.06472744792699814, 0.051442988216876984, -0.07962685078382492, -0.0349799282848835, -0.10857024043798447, -0.10948226600885391, 0.0018889247439801693, 0.16768404841423035], [0.05548926442861557, 0.01741074211895466, 0.05163547396659851, -0.03850001096725464, -0.007391028571873903, -0.0023799214977771044, -0.0725424587726593, -0.013276290148496628, -0.02346086874604225, -0.020968466997146606], [-0.006896362639963627, -0.3389384150505066, 0.028958873823285103, 0.1012016013264656, -0.4617961049079895, 0.008981732651591301, -0.2344188690185547, 0.10793928802013397, 0.0629296600818634, 0.21694183349609375], [0.028712088242173195, -0.08997119963169098, 0.06763138622045517, 0.09826210886240005, -0.019276419654488564, -0.01182212121784687, -0.05935278162360191, -0.028759082779288292, 0.005303672514855862, 0.051320549100637436], [0.024458233267068863, 0.025465982034802437, -0.044234007596969604, -0.030241146683692932, -0.06944204866886139, -0.0690457820892334, -0.0085303271189332, 0.06497468054294586, -0.0423034243285656, 0.11783252656459808], [-0.03958287835121155, -0.12744827568531036, 0.024771742522716522, -0.035054244101047516, -0.09318868070840836, 0.031772688031196594, -0.12552496790885925, 0.051362331956624985, 0.032874695956707, 0.03544628992676735], [0.03618551418185234, -0.10627518594264984, 0.012066335417330265, 0.022250009700655937, 0.034017164260149, 0.09111234545707703, 0.12128111720085144, -0.16171036660671234, 0.0696510598063469, 0.00878950860351324], [-0.004963111598044634, -0.11021766066551208, -0.019497662782669067, -0.026529822498559952, -0.037463169544935226, -0.006544464733451605, -0.03552640229463577, -0.13955700397491455, 0.09062674641609192, 0.06536607444286346], [0.0026679127477109432, -0.018052320927381516, 0.02972545474767685, -0.008866894990205765, 0.09111469984054565, -0.1602313220500946, -0.1648043692111969, -0.11961459368467331, 0.04883811995387077, 0.1515914797782898], [-0.059106986969709396, 0.08709491044282913, 0.0028565614484250546, -0.11223620176315308, 0.48313871026039124, -0.13628338277339935, -0.03781707584857941, -0.2162456065416336, -0.08304424583911896, -0.344343900680542], [0.08004520833492279, -0.025987533852458, 0.009472803212702274, 0.020491933450102806, -0.011920029297471046, -0.02312547154724598, -0.1388152688741684, -0.020142432302236557, 0.04428764060139656, 0.05429694801568985], [0.06766577810049057, -0.020115109160542488, 0.03838949277997017, 0.046663060784339905, 0.00668103015050292, -0.08383215963840485, -0.08118411153554916, -0.028196241706609726, -0.0018979704473167658, 0.05088142305612564], [-0.0666067823767662, -0.3094405233860016, 0.10059543699026108, 0.07014046609401703, -0.5570908188819885, 0.24396778643131256, -0.01385408639907837, 0.11378196626901627, 0.012888054363429546, 0.08561635762453079], [0.05442483723163605, -0.09293269366025925, -0.031444091349840164, 0.032660990953445435, -0.03940412029623985, -0.044920165091753006, -0.03873685374855995, 0.019215019419789314, 0.023058045655488968, 0.08635440468788147], [0.0815228596329689, 0.01890326663851738, -0.046469371765851974, -0.004227756522595882, -0.05159294977784157, 0.004293002653867006, -0.09006030857563019, 0.044648148119449615, -0.0678342804312706, 0.11164695024490356], [0.03343809023499489, -0.1627631038427353, 0.027176396921277046, -0.022086994722485542, -0.09255153685808182, 0.15206904709339142, -0.08790753036737442, 0.024116897955536842, 0.04173281043767929, -0.01845933310687542], [-0.09881404787302017, 0.034526385366916656, -0.06593774259090424, 0.03533805161714554, 0.05306524783372879, -0.014289375394582748, 0.08797483146190643, -0.09772893786430359, 0.001121208188124001, 0.0024570836685597897], [-0.03895467892289162, -0.08494143187999725, 0.03879104554653168, 0.019863463938236237, 0.0052566505037248135, 0.03683127462863922, 0.011602304875850677, -0.03236020356416702, -0.018525639548897743, 0.11799609661102295], [0.04178551584482193, -0.02779308147728443, 0.023275867104530334, 0.06088512763381004, 0.03030792437493801, -0.15634924173355103, -0.21160395443439484, -0.06400620937347412, 0.08749572187662125, 0.06705792248249054], [0.04079999402165413, 0.23942574858665466, 0.015736497938632965, -0.05086636543273926, 0.42221200466156006, -0.3176974952220917, -0.13073918223381042, -0.10837183892726898, -0.20134852826595306, -0.31730470061302185], [0.11157545447349548, -0.07524596154689789, -0.03279067948460579, 0.03081764467060566, -0.0002851353492587805, -0.016295846551656723, -0.09340852499008179, 0.051298025995492935, 0.01850764825940132, 0.0948469266295433], [0.04741229861974716, 0.009076975286006927, 0.01140477042645216, 0.01623687334358692, -0.09369776397943497, -0.10899277031421661, -0.08713805675506592, -0.0682084783911705, 0.013751668855547905, 0.04321957007050514], [-0.05891714245080948, -0.32834556698799133, 0.07473476976156235, -0.056379467248916626, -0.4230145514011383, 0.3410859704017639, 0.03114725649356842, -0.02091158740222454, 0.0005951191997155547, 0.1496281623840332], [0.0646018460392952, -0.00816297810524702, 0.01375946868211031, 0.08210249245166779, -0.09905499219894409, 0.020359735935926437, -0.07714538276195526, 0.05307764187455177, -0.0030390394385904074, 0.07256700843572617], [-0.008910780772566795, 0.010007384233176708, -0.08090680837631226, 0.012165321037173271, -0.06237836927175522, 0.03375821188092232, -0.028613723814487457, 0.10586405545473099, 0.0031967037357389927, 0.08902771025896072], [-0.000506927608512342, -0.20973658561706543, 0.10299956798553467, -0.08851733803749084, -0.1324194222688675, 0.06308355927467346, 0.0004361177561804652, -0.05108107626438141, 0.012653855606913567, -0.04116800054907799], [-0.08660497516393661, 0.0650840699672699, -0.0415409691631794, 0.0050654844380915165, 0.019323423504829407, 0.023542338982224464, 0.09477506577968597, -0.03284096717834473, 0.04539463669061661, -0.07844875752925873], [0.004074134863913059, -0.1521749645471573, -0.028939519077539444, 0.0928051769733429, -0.026081407442688942, 0.0457012802362442, 0.040749818086624146, 0.0014405753463506699, 0.006724256090819836, 0.09981908649206161], [0.09469880163669586, -0.04130321368575096, 0.10442443937063217, 0.03886263817548752, 0.002052709925919771, -0.06207558512687683, -0.14764434099197388, 0.0014184373430907726, 0.03619435057044029, -0.010754546150565147], [-0.06705271452665329, 0.3084926903247833, 0.050251565873622894, 0.06816123425960541, 0.36110416054725647, -0.5098171830177307, -0.15494336187839508, -0.11179989576339722, -0.02826366014778614, -0.2225361168384552], [0.061200596392154694, -0.015617362223565578, -0.0657506063580513, 0.015641191974282265, 0.016796499490737915, 0.026151034981012344, -0.1267900913953781, 0.011935150250792503, 0.016354136168956757, 0.034059613943099976], [0.029628505930304527, -0.0344519205391407, -0.032666657119989395, 0.07366681098937988, 0.01825588010251522, 0.040674448013305664, -0.12142234295606613, 0.04491366073489189, 0.02317386493086815, 0.07092851400375366], [-0.08397222310304642, -0.3464936912059784, -0.024952180683612823, -0.1643064320087433, -0.32456672191619873, 0.2631992995738983, 0.16630849242210388, -0.0780421793460846, -0.011989201419055462, 0.03777601942420006], [0.00543976342305541, -0.0184764564037323, 0.03648940101265907, 0.050375618040561676, -0.038243163377046585, -0.05557055026292801, -0.11126502603292465, 0.007278223522007465, 0.00170302321203053, 0.02156871370971203], [-0.035741791129112244, 0.029989784583449364, -0.17332738637924194, -0.08241920918226242, 0.012857168912887573, 0.016220679506659508, -0.05954325944185257, 0.04398800805211067, -0.004146117717027664, -0.003294453490525484], [-0.06309410184621811, -0.2195502072572708, 0.0021578483283519745, 0.020609788596630096, -0.00693453848361969, 0.09012570977210999, 0.09721342474222183, 0.009473402984440327, 0.016627753153443336, -0.06820641458034515], [-0.09949605166912079, -0.02374260313808918, -0.04186291620135307, 0.003270230023190379, 0.03258731961250305, 0.09208926558494568, 0.008731483481824398, -0.006550122052431107, 0.005430900026112795, -0.1229734942317009], [-0.0014658403815701604, -0.003543595317751169, -0.1397874802350998, -0.00397290987893939, 0.010126346722245216, 0.07775305956602097, -0.02929217368364334, 0.00832461379468441, 0.0008893459453247488, 0.05534544959664345], [0.1071774959564209, -0.2014022171497345, 0.13191573321819305, 0.09189820289611816, 0.04914963245391846, -0.1900186538696289, -0.035940755158662796, -0.06553732603788376, 0.031185420230031013, 0.06494230777025223], [0.03420373424887657, 0.3110007643699646, 0.233975350856781, 0.039975136518478394, 0.3422270119190216, -0.5357978343963623, -0.18244346976280212, 0.025578614324331284, -0.07453886419534683, -0.2746696472167969], [0.007980138063430786, 0.036278560757637024, -0.08508510887622833, 0.026559917256236076, 0.08840326219797134, 0.05201622471213341, -0.06780331581830978, 0.07871291041374207, -0.021559951826930046, -0.02051139995455742], [0.047426242381334305, 0.0767473354935646, -0.07304053753614426, 0.03761311247944832, -0.021180471405386925, -0.08738119900226593, -0.00964497122913599, 0.03210281580686569, 0.07373632490634918, -0.0458187498152256], [-0.034451670944690704, -0.17488624155521393, -0.2245309054851532, -0.2580402195453644, -0.16056810319423676, 0.2573578655719757, 0.08031821250915527, -0.14555387198925018, 0.03266579657793045, 0.038316186517477036], [0.055535465478897095, 0.04249197989702225, -0.0015634652227163315, 0.058864131569862366, 0.017263416200876236, -0.0804859921336174, 0.019621029496192932, -0.03450620919466019, -0.015894046053290367, 0.028530064970254898], [-0.020109057426452637, 0.05466630682349205, -0.16540667414665222, -0.0540030337870121, 0.009783808141946793, 0.11281740665435791, -0.01826610416173935, 0.12245321273803711, -0.02455827407538891, -0.0023276524152606726], [-0.015196235850453377, -0.15198694169521332, 0.03392428532242775, -0.12234456837177277, 0.04418417438864708, 0.01903238706290722, 0.11047503352165222, 0.0445554256439209, 0.0424819253385067, -0.1079096868634224], [-0.11685995757579803, -0.013504096306860447, -0.08196347951889038, 0.004508526064455509, 0.05396213382482529, 0.06697095185518265, 0.012402724474668503, 0.027643045410513878, 0.01198048796504736, -0.09928150475025177], [-0.08517622947692871, 0.053627464920282364, -0.07725439965724945, -0.03492547944188118, 0.011761883273720741, 0.16951997578144073, -0.050213780254125595, 0.08785450458526611, 0.037417855113744736, -0.11547775566577911], [0.14038461446762085, -0.38532307744026184, 0.20824791491031647, 0.06877723336219788, 0.06918435543775558, -0.19247868657112122, -0.035105977207422256, -0.05490761995315552, 0.06810218840837479, 0.033974405378103256], [-0.07858205586671829, 0.08529019355773926, 0.08890841901302338, 0.05255168676376343, 0.2510676681995392, -0.31278327107429504, -0.32023364305496216, 0.061683669686317444, 0.06000072509050369, -0.200663223862648], [-0.07370167225599289, 0.03993423283100128, 0.01392075140029192, -0.06901726871728897, 0.09563452005386353, 0.04519300535321236, -0.05030704662203789, 0.04947446286678314, -0.03312813863158226, -0.12528157234191895], [0.05535980314016342, 0.10665123164653778, -0.01641305722296238, 0.1014353409409523, 0.02418370731174946, -0.060385704040527344, 0.025914644822478294, -0.0017438529757782817, -0.003189396345987916, -0.0043075671419501305], [-0.12463647872209549, -0.09555292874574661, -0.3859497010707855, -0.3148135542869568, 0.056156497448682785, 0.29540735483169556, 0.10548487305641174, -0.1209830492734909, 0.04139825329184532, -0.17665615677833557], [-0.012552463449537754, 0.05124226212501526, -0.025547321885824203, 0.0906268060207367, -0.020989133045077324, -0.11022167652845383, -0.03925810754299164, -0.018027931451797485, 0.05383099988102913, -0.025799019262194633], [-0.035586271435022354, 0.03116028942167759, -0.15858131647109985, -0.15330719947814941, 0.08665434271097183, 0.15828613936901093, -0.013979610055685043, 0.0232870914041996, -0.040867868810892105, -0.09203287959098816], [-0.16826818883419037, -0.09148624539375305, -0.05765062943100929, -0.01770315133035183, 0.0904214158654213, 0.1260358840227127, 0.08538676053285599, -0.027829580008983612, 0.020227573812007904, -0.10383718460798264], [-0.034138936549425125, 0.030500419437885284, -0.01005085650831461, 0.05916989594697952, -0.021420646458864212, -0.05851967632770538, -0.01434687152504921, 0.04834822565317154, -0.01036716066300869, -0.1214851662516594], [-0.03954995796084404, 0.0077934879809618, -0.0685584545135498, -0.04615947604179382, 0.033639226108789444, 0.058756206184625626, -0.036411941051483154, -0.0022502553183585405, -0.0742487981915474, -0.09986469149589539], [0.006213797722011805, -0.273529976606369, -0.06695989519357681, -0.1034463420510292, 0.2426072508096695, 0.00043745653238147497, 0.09920502454042435, -0.09668995440006256, 0.2087155133485794, -0.14065970480442047], [-0.050781697034835815, 0.05784478411078453, 0.06498035788536072, 0.004109642002731562, -0.0019199105445295572, 0.002388100139796734, -0.05706365033984184, 0.004188493825495243, -0.06589008122682571, 0.03756992518901825], [-0.11754393577575684, -0.1382937878370285, -0.21460123360157013, -0.1963447779417038, 0.11872411519289017, 0.16410282254219055, -0.1011253222823143, -0.17282694578170776, 0.04691574349999428, -0.14307671785354614], [0.03809676691889763, -0.01316081266850233, -0.08539199084043503, 0.04345591738820076, 0.04135769233107567, -0.0339946486055851, -0.08272282034158707, -0.09358905255794525, 0.06400924175977707, -0.05992762744426727], [-0.13728894293308258, -0.09986738860607147, -0.17764751613140106, -0.24579426646232605, 0.06891033053398132, 0.1529502272605896, 0.09361543506383896, -0.15316863358020782, -0.13713644444942474, -0.22891567647457123], [0.00892319343984127, 0.00019417623116169125, 0.055026907473802567, 0.013369143940508366, 0.0634356215596199, 0.01603609137237072, 0.016125839203596115, -0.031970348209142685, 0.026179831475019455, -0.08124221116304398], [-0.046007849276065826, -0.08988595753908157, -0.21362994611263275, -0.15028420090675354, 0.0021791858598589897, 0.18499848246574402, -0.1165967732667923, -0.03165435791015625, -0.0179283507168293, -0.10163749754428864], [-0.07601038366556168, 0.05147147178649902, 0.10742106288671494, -0.10140175372362137, -0.021941278129816055, 0.019776476547122, 0.07243365794420242, 0.0269538015127182, -0.11408339440822601, -0.02791708894073963], [-0.05133109167218208, 0.012204696424305439, -0.07828263193368912, -0.017330419272184372, 0.1140284538269043, 0.04295137897133827, -0.01991390995681286, -0.01716390997171402, -0.005042143166065216, -0.08017002791166306], [0.02457185834646225, 0.014223014935851097, -0.043687377125024796, 0.015474948100745678, 0.12775219976902008, -0.04822676256299019, 0.01463918387889862, -0.02303490787744522, -0.04866573214530945, -0.09413009881973267], [-0.13336443901062012, -0.12684570252895355, -0.2923116385936737, -0.2962802052497864, 0.1677895337343216, 0.19844937324523926, 0.06284359097480774, -0.1357007771730423, 0.14675243198871613, -0.37051695585250854], [-0.0654420331120491, 0.08107112348079681, 0.021891871467232704, -0.015781668946146965, -0.05086489021778107, -0.01923823356628418, 0.06848189979791641, -0.02910238690674305, -0.03211240842938423, 0.037584058940410614], [-0.05455508083105087, -0.09332063794136047, 0.03392544761300087, 0.07237781584262848, 0.04601346328854561, -0.03304283320903778, -0.07073230296373367, 0.07263723760843277, -0.015912655740976334, -0.020361782982945442], [0.04758615046739578, -0.07485496997833252, -0.02778451330959797, 0.020082399249076843, -0.08530817925930023, -0.12383848428726196, -0.07851220667362213, 0.13858745992183685, -0.04424789547920227, -0.14879290759563446], [-0.04076297953724861, -0.04627050831913948, 0.08325745165348053, 0.06547301262617111, 0.020585039630532265, -0.0598779022693634, -0.06374271214008331, 0.0876309871673584, -0.03165692090988159, -0.16261781752109528], [-0.12083811312913895, -0.08674697577953339, -0.05065217614173889, 0.05803348124027252, -0.03508535772562027, -0.19550400972366333, -0.13578370213508606, 0.06265369802713394, 0.03638000041246414, -0.15096880495548248], [-0.06607607752084732, -0.0764942616224289, -0.003487533424049616, -0.03538041189312935, -0.01521210465580225, -0.02614707127213478, -0.000830112025141716, 0.06264618039131165, 0.0726018100976944, -0.06422557681798935], [-0.02612742781639099, 0.010622655041515827, 0.050928425043821335, 0.09082800149917603, -0.02437601424753666, 0.03947366029024124, 0.034508951008319855, 0.06778185814619064, -0.09431130439043045, -0.09967999905347824], [-0.05868286266922951, 0.07124773412942886, 0.09180335700511932, 0.08117059618234634, -0.08898954838514328, -0.05090710148215294, -0.11908184736967087, 0.1318763643503189, -0.10960407555103302, -0.133050799369812], [-0.03525148332118988, -0.04313122108578682, 0.06043122336268425, 0.17220020294189453, -0.06749287992715836, -0.1834924817085266, 0.01846102438867092, 0.046101655811071396, -0.1116826981306076, -0.10357508063316345], [-0.0976153314113617, -0.10966264456510544, -0.024940984323620796, -0.06791693717241287, 0.05727206915616989, 0.024646371603012085, -0.028744317591190338, 0.05396316573023796, 0.017217367887496948, 0.04221539944410324], [-0.01287655346095562, 0.08074552565813065, 0.015362206846475601, -0.013253601267933846, -0.015398520976305008, 0.007449050433933735, 0.038265373557806015, -0.04771232232451439, -0.041228536516427994, 0.06964227557182312], [-0.03014945797622204, -0.043795496225357056, -0.0421752892434597, 0.01642913743853569, -0.03879287838935852, -0.09505907446146011, 0.01008586771786213, 0.03680175542831421, 0.0838334709405899, 0.021225640550255775], [-0.10898575931787491, -0.0033408880699425936, 0.049000903964042664, 0.06104302406311035, -0.03543539345264435, -0.06390024721622467, -0.005116398446261883, 0.09024391323328018, -0.03452782705426216, -0.08444328606128693], [-0.11706627905368805, 0.0405912771821022, 0.15144822001457214, 0.08872345834970474, -0.0029955559875816107, -0.16835224628448486, -0.09730575233697891, 0.13430801033973694, -0.037918031215667725, -0.23885831236839294], [-0.07124973833560944, -0.00033556902781128883, -0.07206157594919205, 0.0877009853720665, 0.04504750296473503, -0.08534582704305649, -0.022794706746935844, 0.06717478483915329, 0.02615552768111229, -0.1384599655866623], [-0.0230459813028574, -0.0933331847190857, -0.09792377799749374, -0.02072121948003769, -0.059403855353593826, -0.06729642301797867, -0.04649068042635918, 0.045566339045763016, 0.08671074360609055, 0.05865582823753357], [-0.048745907843112946, 0.044745106250047684, -0.039470262825489044, 0.004106154199689627, -0.06438225507736206, 0.028875458985567093, -0.013188011012971401, 0.12910066545009613, -0.1279885321855545, -0.08600829541683197], [-0.07602749019861221, -0.0061426362954080105, 0.13253238797187805, 0.16199740767478943, -0.028804145753383636, -0.17964774370193481, -0.040551215410232544, -0.0527937188744545, -0.09050280600786209, -0.0012062378227710724], [-0.07995512336492538, -0.0741572231054306, 0.08984195441007614, 0.1289859265089035, -0.009690891951322556, -0.1812419891357422, -0.019948650151491165, -0.07125170528888702, 0.0305594764649868, -0.04027519002556801], [-0.02018732763826847, 0.006805310491472483, -0.14278733730316162, -0.06786400079727173, 0.0013565095141530037, 0.050059862434864044, 0.0704498142004013, 0.035983674228191376, 0.03802458196878433, -0.05270089954137802], [-0.010284870862960815, -0.021329332143068314, -0.16144457459449768, -0.07009024173021317, 0.0661817193031311, 0.08276614546775818, 0.0946115106344223, -0.0787220448255539, -0.010660448111593723, -0.05249829217791557], [0.05774427577853203, -0.047660473734140396, -0.04310392215847969, 0.027485452592372894, 0.004934157710522413, -0.002000301843509078, -0.09501555562019348, -0.03513145446777344, 0.017010830342769623, -0.018887272104620934], [-0.05683543160557747, -0.08765844255685806, -0.036754827946424484, 0.03752097114920616, 0.05888674408197403, 0.0058942013420164585, -0.004269447643309832, -0.008042228408157825, -0.008344066329300404, -0.07534416764974594], [-0.1180272325873375, -0.03974064067006111, 0.08426506817340851, 0.11089752614498138, -0.17897078394889832, -0.24357126653194427, -0.2584801912307739, 0.2231622040271759, -0.0744054988026619, -0.3245411515235901], [0.003872014582157135, 0.011045227758586407, -0.01947510801255703, -0.006422968115657568, 0.04820381477475166, -0.00033296659239567816, -0.10222917795181274, 0.11924666911363602, -0.02865913137793541, -0.15705828368663788], [-0.01472842413932085, -0.06726166605949402, -0.10047129541635513, -0.06469335407018661, -0.027546852827072144, 0.034147899597883224, -0.02538040094077587, -0.05243035778403282, 0.1213635504245758, 0.013420026749372482], [-0.0975167378783226, 0.028516903519630432, -0.03337793052196503, -0.03112572245299816, -0.00711178919300437, -0.007130790501832962, -0.032209042459726334, 0.1373637169599533, -0.04241246357560158, -0.26988235116004944], [-0.11517602205276489, 0.004681240767240524, 0.044558990746736526, 0.13314633071422577, -0.10007908940315247, -0.1714056432247162, -0.025343749672174454, -0.08287191390991211, -0.02473275363445282, 0.09753267467021942], [-0.11887450516223907, -0.13603591918945312, 0.00552586792036891, 0.09280227869749069, -0.040713705122470856, -0.0357254333794117, 0.008674420416355133, -0.0928773507475853, 0.04538096860051155, 0.10159756243228912], [-0.015271434560418129, -0.059773944318294525, -0.09523012489080429, -0.06318707019090652, 0.10002360492944717, 0.1057567447423935, -0.035153184086084366, 0.09768912941217422, 0.13049788773059845, 0.027207575738430023], [-0.03787267580628395, -0.00976252555847168, -0.0448613241314888, -0.14680546522140503, 0.1865759789943695, 0.016388272866606712, 0.04543057456612587, 0.04537956044077873, 0.07406479120254517, -0.13479630649089813], [-0.045997150242328644, -0.06150708347558975, -0.09076813608407974, 0.05712846294045448, 0.01979583501815796, -0.00699425907805562, -0.07290226221084595, 0.038216494023799896, 0.003996177110821009, 0.02770625799894333], [-0.032788652926683426, -0.014799871481955051, -0.03335031867027283, -0.10570234060287476, 0.0447741337120533, 0.013919861055910587, 0.026926031336188316, 0.07892870157957077, 0.06974983215332031, -0.06733466684818268], [-0.14137238264083862, 0.03982722759246826, 0.10818341374397278, 0.19117024540901184, -0.3437168300151825, -0.19374065101146698, -0.2990008294582367, 0.19776350259780884, -0.07105447351932526, -0.13381914794445038], [-0.030273620039224625, -0.07145850360393524, -0.05931136757135391, 0.044582560658454895, 0.03979961574077606, -0.02848268672823906, -0.005611509550362825, 0.18025615811347961, 0.019001105800271034, -0.01830342225730419], [-0.052393555641174316, -0.10502299666404724, -0.07120908796787262, 0.015171880833804607, 0.05247243866324425, -0.06886056065559387, 0.042543526738882065, 0.04699942097067833, -0.013230077922344208, 0.09080418199300766], [-0.09735526144504547, -0.030824817717075348, 0.04685550183057785, -0.013416687026619911, -0.08110720664262772, -0.005974918138235807, -0.20212644338607788, 0.15605898201465607, -0.12681658565998077, -0.14657288789749146], [-0.011151405982673168, -0.1541844606399536, 0.008727147243916988, 0.110724076628685, -0.027699802070856094, 0.022873815149068832, 0.06045083329081535, -0.035569820553064346, -0.10261163115501404, 0.04230448231101036], [-0.08042193949222565, -0.1596183031797409, 0.021596986800432205, 0.012950664386153221, -0.05954907462000847, -0.09481783211231232, 0.03018636628985405, -0.10712586343288422, -0.025798333808779716, 0.07747343182563782], [0.04705062881112099, -0.02086857706308365, -0.04641445353627205, -0.06848227232694626, 0.1371208280324936, -0.001827697386033833, -0.004836937878280878, 0.019465461373329163, 0.014179475605487823, -0.046204328536987305], [-0.07926056534051895, -0.08387652784585953, -0.11260495334863663, -0.3085685968399048, 0.1949671357870102, 0.12931624054908752, -0.01198550220578909, -0.07864616066217422, 0.04001973941922188, -0.09911169111728668], [0.00604123855009675, -0.10019185394048691, -0.04234063997864723, 0.08271502703428268, 0.043839260935783386, -0.11762356013059616, -0.0732489600777626, -0.01208360493183136, -0.019649609923362732, 0.05124466493725777], [-0.04653484374284744, -0.004263349808752537, 0.021171461790800095, -0.06738270074129105, 0.04493908956646919, 0.030656617134809494, -0.03362986817955971, 0.12479608505964279, 0.037025466561317444, 0.03441242501139641], [-0.05445709452033043, -0.09378556907176971, 0.09859573096036911, 0.23012132942676544, -0.4189639985561371, -0.09992318600416183, -0.22794577479362488, 0.14013934135437012, -0.08211451023817062, -0.08219508826732635], [0.056094974279403687, -0.05401291698217392, -0.0028679966926574707, -0.014558264054358006, 0.061800505965948105, 0.027883069589734077, -0.022663796320557594, 0.0906808078289032, 0.07673730701208115, -0.031477056443691254], [0.08298816531896591, -0.08282839506864548, -0.09238438308238983, -0.0043370588682591915, 0.0724867433309555, -0.11200287938117981, 0.05270746350288391, 0.01814156584441662, 0.00474774744361639, 0.03262646496295929], [0.005332178436219692, -0.051639020442962646, 0.05753009393811226, 0.12990447878837585, -0.08039594441652298, -0.020447881892323494, -0.16553212702274323, 0.08392971009016037, -0.009512567892670631, -0.06825439631938934], [0.016067788004875183, -0.1547054797410965, 0.08166516572237015, 0.05065999552607536, 0.03761369362473488, 0.079152911901474, 0.022450055927038193, -0.030045246705412865, -0.0015850779600441456, 0.06633049994707108], [-0.008667989633977413, -0.1286664456129074, -0.03812921792268753, -0.009861399419605732, 0.029720844700932503, 0.01379076112061739, -0.07229366898536682, -0.0010279130656272173, -0.038065105676651, 0.09811640530824661], [-0.020430801436305046, -0.032998453825712204, -0.05465664342045784, -0.028754225000739098, 0.003451686352491379, -0.06015922501683235, -0.0872088298201561, 0.056764062494039536, 0.04288478568196297, 0.06345053762197495], [0.003285621292889118, -0.026028184220194817, -0.04311222583055496, -0.27551931142807007, 0.3689134418964386, 0.12227451801300049, 0.04071440175175667, -0.05645637586712837, 0.03676196187734604, -0.09071847796440125], [0.0010045865783467889, 0.047254323959350586, -0.056664928793907166, 0.07364411652088165, -0.031544528901576996, -0.07706955820322037, -0.12529803812503815, 0.05456110090017319, -0.09394907206296921, 0.04341268911957741], [-0.02425878494977951, -0.0658845603466034, -0.00048747737309895456, -0.07711879163980484, 0.05049103498458862, 0.012197235599160194, -0.04115478694438934, 0.06311588734388351, 0.029330898076295853, 0.016396094113588333], [-0.059730395674705505, -0.15888510644435883, 0.07532161474227905, 0.19791732728481293, -0.3320319652557373, 0.10629663616418839, -0.17382597923278809, 0.0915815457701683, 0.023710260167717934, -0.019090313464403152], [0.010733706876635551, -0.04541410133242607, 0.0032073906622827053, -0.061296720057725906, -0.05828766152262688, 0.05136062204837799, -0.14154835045337677, 0.05696374922990799, 0.03466159105300903, 0.06690646708011627], [-0.006937891710549593, 0.07904211431741714, -0.08017396181821823, 0.10664910078048706, -0.04214581474661827, -0.16269229352474213, 0.0309088584035635, -0.0012667856644839048, -0.07898396998643875, 0.09461969882249832], [-0.07785508781671524, -0.0725371465086937, 0.11796273291110992, 0.01784166879951954, -0.32842910289764404, 0.004963845480233431, -0.15293623507022858, -0.016244662925601006, 0.045171670615673065, 0.02343495562672615], [-0.037000302225351334, -0.06006043404340744, 0.06761327385902405, 0.0005145497852936387, -0.021612832322716713, 0.048823341727256775, -0.002134287264198065, 0.023156315088272095, -0.008196208626031876, 0.026380101218819618], [-0.07377384603023529, -0.1036611944437027, 0.0237889401614666, -0.025736548006534576, -0.045960940420627594, -0.09133224934339523, 0.029024863615632057, -0.07698161900043488, 0.01133211050182581, 0.06652536243200302], [0.016927186399698257, -0.0068229129537940025, -0.03006046637892723, 0.13250309228897095, -0.11263464391231537, -0.1509159505367279, -0.2503657341003418, -0.03803025186061859, 0.024542413651943207, 0.0491257905960083], [0.04310799390077591, 0.06003539264202118, 0.1511109620332718, -0.2520832121372223, 0.29955434799194336, -0.08201292902231216, -0.05643707141280174, 0.045415814965963364, -0.15276651084423065, -0.09674166142940521], [0.04002176970243454, 0.0831218957901001, 0.037888508290052414, 0.05223735049366951, -0.060025397688150406, -0.0937863364815712, -0.12217462062835693, 0.018087826669216156, -0.0341348722577095, 0.08030290901660919], [0.10273104161024094, 0.019671395421028137, -0.016236091032624245, 0.02357056364417076, -0.04848073050379753, -0.06169925630092621, -0.04129379615187645, 0.05896424874663353, -0.07121173292398453, 0.06612364947795868], [-0.027761252596974373, -0.20678865909576416, 0.022102324292063713, 0.09160549193620682, -0.31451544165611267, 0.1839585155248642, -0.048447031527757645, 0.10603858530521393, -0.02626628428697586, 0.07666199654340744], [0.11871235817670822, -0.04632618650794029, -0.041839368641376495, 0.07514944672584534, -0.14743389189243317, -0.03417034447193146, -0.14672863483428955, -0.002235234947875142, 0.017074894160032272, 0.012424426153302193], [0.031105972826480865, 0.01154362503439188, -0.09553955495357513, 0.052074939012527466, 0.03267952427268028, -0.12745316326618195, -0.04206663370132446, 0.005875058006495237, -0.023621244356036186, 0.036636833101511], [-0.03059309534728527, -0.3546290695667267, 0.05305519700050354, 0.02306061051785946, -0.20908580720424652, 0.08693427592515945, -0.06796920299530029, 0.025358889251947403, 0.08984152227640152, 0.0452863872051239], [-0.027932249009609222, 0.03797053545713425, -0.018944188952445984, 0.09966728836297989, -0.05956484377384186, 0.01636796072125435, -0.015205392614006996, 0.020997434854507446, -0.018243487924337387, -0.014610465615987778], [0.04799673706293106, 0.03119485080242157, 0.06069749593734741, 0.04666212946176529, -0.030775416642427444, -0.06169881671667099, 0.002752997912466526, 0.00986777525395155, -0.11138864606618881, 0.11153675615787506], [-0.008257167413830757, -0.060489680618047714, 0.11819580942392349, 0.09910735487937927, 