{"conv_1_1": {"kernel": [[[[0.04347186163067818, -0.031246954575181007, 0.06668385118246078, 0.14508198201656342, 0.28746727108955383, -0.09768635779619217, -0.13120466470718384, -0.21109217405319214, -0.17362594604492188, 0.003041014075279236]], [[-0.05966448411345482, -0.1566346287727356, -0.09302404522895813, 0.17218443751335144, 0.2212229073047638, -0.09190133213996887, -0.09467100352048874, -0.2529720962047577, -0.03080906718969345, -0.1323477029800415]], [[0.042919058352708817, 0.037931956350803375, -0.18955989181995392, -0.020799946039915085, 0.13604290783405304, -0.1240929439663887, -0.034229639917612076, -0.07908354699611664, -0.03333411365747452, 0.21916347742080688]], [[-0.11381271481513977, -0.165768563747406, -0.2342069447040558, 0.0829535499215126, 0.14654599130153656, -0.2791477143764496, -0.2528800368309021, -0.1291370391845703, 0.2544565796852112, 0.1314796507358551]], [[0.18519814312458038, -0.30962640047073364, -0.1997377574443817, 0.16301196813583374, 0.24704903364181519, -0.052501942962408066, -0.15150538086891174, -0.26340770721435547, 0.2300245314836502, 0.3360690772533417]]], [[[0.04297346994280815, -0.16090400516986847, 0.14459258317947388, 0.1660909652709961, 0.2170863151550293, 0.06012175232172012, -0.22935150563716888, -0.25926655530929565, -0.15540152788162231, -0.11879824101924896]], [[0.022297678515315056, -0.07099752873182297, 0.1858110874891281, 0.1673709899187088, 0.04333474487066269, -0.04165571928024292, -0.1536826640367508, -0.07509353756904602, 0.01745656318962574, 0.029111308977007866]], [[-0.03804762288928032, -0.21264156699180603, 0.05209563300013542, -0.009167556650936604, 0.08391264826059341, 0.014647790230810642, -0.19329945743083954, -0.0021462023723870516, 0.062451764941215515, 0.20443835854530334]], [[0.1737055629491806, -0.2353646606206894, -0.10891969501972198, -0.024655206128954887, 0.152185320854187, -0.12208761274814606, -0.29602760076522827, -0.10922174155712128, 0.2695752680301666, 0.28366178274154663]], [[0.19991269707679749, -0.19043958187103271, -0.20973466336727142, 0.10615388303995132, 0.08908694237470627, 0.21253527700901031, -0.07567057013511658, -0.03951795771718025, 0.16953827440738678, 0.24264895915985107]]], [[[0.20734436810016632, 0.010924340225756168, 0.10360785573720932, 0.23491504788398743, -0.1965956836938858, 0.03892403468489647, -0.13012535870075226, -0.050735898315906525, -0.2073994278907776, -0.030705399811267853]], [[-0.031937021762132645, -0.2041485607624054, 0.12470825016498566, 0.17958544194698334, -0.06633336842060089, -0.18802447617053986, 0.023999808356165886, 0.03282131254673004, -0.175186425447464, -0.16748926043510437]], [[0.1348518431186676, -0.017426788806915283, 0.18012233078479767, 0.33467182517051697, -0.1227886974811554, 0.10474709421396255, -0.2614401876926422, 0.08651276677846909, 0.060935258865356445, -0.07283948361873627]], [[0.19828486442565918, -0.2672949731349945, -0.1762801557779312, 0.2934553325176239, -0.1900765746831894, 0.2713417708873749, 0.03589335083961487, -0.008821520954370499, 0.16977620124816895, 0.14864592254161835]], [[0.09214584529399872, -0.17459025979042053, -0.23366470634937286, 0.28486210107803345, -0.1656808853149414, 0.1534840166568756, 0.05473415181040764, 0.22475390136241913, 0.006850187201052904, 0.2312178611755371]]], [[[0.21859848499298096, 0.030665738508105278, 0.05003073811531067, -0.06025506556034088, -0.3162761330604553, -0.22379322350025177, 0.10540064424276352, 0.03838365525007248, 0.07255956530570984, -0.2776143252849579]], [[0.18299219012260437, -0.18242965638637543, 0.09443233907222748, 0.06750360131263733, -0.2185206264257431, -0.14979980885982513, 0.09890365600585938, -0.007841295562684536, 0.004010830074548721, -0.09155574440956116]], [[0.07940265536308289, -0.2729867100715637, 0.21266761422157288, 0.01969750225543976, -0.28222984075546265, -0.017206495627760887, 0.1699034720659256, 0.07286645472049713, 0.2693566381931305, -0.1667514592409134]], [[0.28433021903038025, -0.23363538086414337, -0.07627277821302414, -0.04226994141936302, -0.283942312002182, 0.14287233352661133, -0.017063505947589874, 0.12654362618923187, 0.167729452252388, -0.22681254148483276]], [[0.15616635978221893, -0.1740894466638565, -0.1909877359867096, 0.05023210868239403, -0.05607776716351509, 0.28707191348075867, 0.3133150041103363, 0.1816062182188034, 0.12755222618579865, -0.29452016949653625]]], [[[0.08608780056238174, -0.02571989595890045, 0.1348041146993637, -0.25794291496276855, -0.09711071848869324, -0.11309602856636047, 0.17116793990135193, -0.062145981937646866, 0.019799942150712013, -0.1613832265138626]], [[0.025883769616484642, -0.24291861057281494, 0.18445470929145813, -0.10338154435157776, -0.1796245127916336, -0.0660281628370285, 0.17225316166877747, 0.1855926662683487, 0.2205761969089508, -0.15913280844688416]], [[0.2397611141204834, -0.14864742755889893, -0.07650287449359894, -0.203719362616539, 0.054967351257801056, 0.1741081327199936, 0.13824160397052765, 0.2189614176750183, 0.3296630382537842, -0.11549929529428482]], [[0.037160471081733704, -0.14577513933181763, -0.0877118855714798, -0.06929904222488403, -0.1915234625339508, 0.2706124186515808, 0.03892122581601143, 0.13526339828968048, 0.05866549536585808, -0.19978542625904083]], [[0.1086653470993042, 0.09346116334199905, -0.07790762931108475, -0.22179949283599854, 0.14724606275558472, 0.04811883345246315, 0.1366811841726303, 0.12488015741109848, -0.0056374566629529, -0.15520557761192322]]]], "bias": [0.06167169287800789, 0.017884107306599617, 0.06900828331708908, -0.04461108148097992, -0.056876350194215775, 0.08007977157831192, 0.05495274066925049, 0.10644980520009995, -0.06044144555926323, 0.10664241760969162], "kernel_shape": [5, 5, 1, 10], "bias_shape": [10]}, "conv_1_2": {"kernel": [[[[0.0702417716383934, 0.002131771994754672, 0.04771904647350311, -0.1620451807975769, -0.04756627976894379, 0.08064837753772736, 0.03110610879957676, -0.018106119707226753, 0.01142059825360775, -0.11820004135370255], [0.025277145206928253, 0.1546686887741089, 0.07081690430641174, 0.03654467687010765, -0.18283149600028992, 0.08102212846279144, 0.0322224386036396, 0.09769479185342789, -0.10418226569890976, 0.0929531529545784], [0.18756267428398132, 0.008418438956141472, -0.06582902371883392, -0.19682246446609497, 0.028914283961057663, -0.11486160755157471, 0.04785831272602081, -0.25164809823036194, -0.1417951136827469, -0.0433649942278862], [0.19240351021289825, -0.061090487986803055, -0.07136298716068268, 0.10126372426748276, 0.0350421741604805, -0.08836232125759125, 0.09600435197353363, -0.2129123955965042, 0.20357683300971985, -0.05492966249585152], [-0.10692295432090759, 0.13638193905353546, 0.06302372366189957, 0.12981189787387848, -0.07927451282739639, -0.1315060257911682, -0.10428955405950546, 0.2815712094306946, -0.019859012216329575, 0.1406729519367218], [-0.10485821217298508, 0.06555400788784027, 0.07379675656557083, 0.052470359951257706, -0.04142961651086807, 0.06526239961385727, 0.08346563577651978, 0.19837526977062225, 0.09955310821533203, -0.06445199996232986], [-0.1808277666568756, 0.048642855137586594, 0.021665995940566063, -0.1875373274087906, 0.08717768639326096, 0.0586722157895565, 0.12992055714130402, 0.11584930121898651, 0.05758362635970116, -0.030155466869473457], [-0.001480152946896851, -0.15219837427139282, 0.19530624151229858, -0.1119254007935524, -0.021495288237929344, 0.08153270930051804, 0.18855100870132446, -0.03648017719388008, -0.05319920927286148, -0.06450562179088593], [-0.012095347978174686, 0.014371470548212528, 0.05272778123617172, -0.12040325999259949, 0.14738433063030243, -0.08087823539972305, 0.12216816842556, 0.045519549399614334, 0.038887497037649155, -0.002126071834936738], [-0.0717419981956482, 0.07747124135494232, 0.0033988221548497677, 0.06074154004454613, 0.01156344823539257, 0.0714724138379097, 0.13939134776592255, 0.2226191759109497, 0.00918774213641882, 0.05925452336668968]], [[0.04885384067893028, -0.027515649795532227, -0.15115688741207123, -0.2079036682844162, -0.03705168887972832, -0.019693171605467796, 0.024862105026841164, -0.08546248823404312, 0.13219408690929413, -0.08661758899688721], [0.07172800600528717, -0.04354599118232727, 0.1090853214263916, 0.052743908017873764, -0.11367200314998627, 0.07510307431221008, -0.027681242674589157, 0.01840609684586525, -0.08989646285772324, -0.0953574851155281], [0.1381070464849472, 0.030602144077420235, 0.1583603024482727, -0.02527463063597679, 0.07362610846757889, 0.02499290741980076, -0.15631167590618134, -0.2123064398765564, -0.09657108038663864, 0.030094029381871223], [0.12108397483825684, -0.03619217500090599, -0.0031185788102447987, 0.049042798578739166, 0.06972936540842056, -0.12068597972393036, 0.03370160609483719, -0.13248343765735626, 0.05685324966907501, -0.009471754543483257], [0.0023532016202807426, 0.1915542632341385, 0.02524355798959732, -0.03245043382048607, 0.16406776010990143, -0.09139665961265564, -0.1361299753189087, 0.15024510025978088, -0.12153305113315582, 0.09374871104955673], [-0.00661443779245019, 0.03485406935214996, 0.010869059711694717, -0.01119073387235403, 0.13619065284729004, -0.013039156794548035, 0.07170117646455765, 0.03521229326725006, -0.08436495065689087, 0.0680696964263916], [-0.10802850872278214, -0.06905078142881393, 0.11426562070846558, -0.22652925550937653, -0.06640981137752533, 0.0273729395121336, 0.04630117490887642, -0.004972407594323158, -0.1255423128604889, 0.015576176345348358], [-0.03434595838189125, -0.1093483567237854, 0.1982181966304779, -0.17996853590011597, -0.09623479098081589, -0.10285071283578873, -0.021794015541672707, 0.030955888330936432, 0.08433499932289124, -0.1373138278722763], [0.055731091648340225, -0.18684816360473633, -0.04215887188911438, -0.22815527021884918, 0.20051421225070953, 0.030381694436073303, 0.12010762095451355, 0.1494033932685852, 0.09343953430652618, 0.08266749978065491], [-0.03466230258345604, 0.061963971704244614, -0.1410398781299591, 0.1413283497095108, -5.70406555198133e-05, -0.03681965917348862, 0.15339653193950653, 0.18201205134391785, 0.1316148191690445, 0.06763719767332077]], [[-0.07671505957841873, -0.07810819149017334, -0.1392197459936142, -0.17478327453136444, 0.12515845894813538, -0.059636835008859634, -0.03329005837440491, -0.07121244817972183, -0.09079930186271667, 0.0043214657343924046], [0.029592910781502724, 0.026093367487192154, 0.053671978414058685, 0.10372952371835709, 0.028289368376135826, 0.2283615916967392, 0.022183189168572426, 0.1290201097726822, -0.0833904966711998, 0.07224884629249573], [-0.08385147154331207, -0.053996626287698746, 0.08426786959171295, -0.02651076950132847, -0.07466410845518112, 0.12695373594760895, -0.005347080994397402, -0.1712152361869812, -0.018696052953600883, -0.07645174860954285], [0.11511550098657608, -0.08791705220937729, -0.050299499183893204, 0.20408082008361816, 0.05159458518028259, -0.06434780359268188, 0.08346708863973618, -0.08393323421478271, 0.03660474717617035, 0.1085004135966301], [0.0939984917640686, 0.10762925446033478, -0.05180992931127548, 0.13264618813991547, 0.15120835602283478, 0.08646465837955475, -0.10249502211809158, 0.16346488893032074, -0.011812877841293812, 0.15900027751922607], [0.03924756869673729, 0.053141530603170395, -0.016433600336313248, 0.09627407044172287, 0.010050185956060886, -0.20012730360031128, 0.05137290060520172, 0.020333264023065567, -0.20525048673152924, 0.01198861189186573], [-0.15020045638084412, 0.03558884188532829, 0.03768018260598183, -0.025912759825587273, 0.03380609676241875, 0.08789484947919846, -0.05707826092839241, 0.03326241672039032, -0.2228119671344757, -0.1269519180059433], [-0.0689643919467926, 0.01616564206779003, -0.01806248165667057, -0.11268311738967896, -0.022949447855353355, -0.09936404973268509, 0.031283728778362274, 0.049604106694459915, -0.09356188029050827, -0.1307104229927063], [0.06283015012741089, 0.011659026145935059, -0.06450771540403366, -0.036686938256025314, 0.13743823766708374, 0.0025141313672065735, -0.029928293079137802, 0.025412730872631073, -0.003068304853513837, 0.07133765518665314], [-0.06570582091808319, 0.04445623978972435, -0.1604883223772049, 0.11400160938501358, -0.029227346181869507, -0.07436458021402359, 0.0803411528468132, 0.15846635401248932, 0.08154462277889252, 0.2850353717803955]], [[-0.04371554031968117, -0.13229908049106598, 0.009116604924201965, -0.1940736174583435, 0.057263728231191635, 0.00035154365468770266, -0.03880620375275612, -0.14137765765190125, -0.11448338627815247, 0.013865025714039803], [-0.12437448650598526, 0.11125048249959946, -0.029177507385611534, 0.09535723924636841, -0.0198071151971817, 0.1953974962234497, -0.10865318030118942, 0.009798682294785976, 0.044176239520311356, 0.014655455015599728], [0.09676385670900345, -0.11027397215366364, 0.012212147936224937, -0.0817338228225708, -0.14092877507209778, 0.038426049053668976, -0.09924793988466263, -0.12185057997703552, 0.049670297652482986, -0.06768258661031723], [-0.07306753098964691, -0.06852485239505768, -0.11340231448411942, 0.1604236662387848, 0.036530401557683945, -0.1432250291109085, 0.16866983473300934, -0.17173254489898682, 0.08631429076194763, -0.051649823784828186], [0.048791948705911636, -0.01862277463078499, -0.18261078000068665, 0.10423582047224045, -0.007460794411599636, 0.22949665784835815, 0.057174164801836014, 0.12666724622249603, 0.11329132318496704, 0.026866674423217773], [0.05985051020979881, 0.23499169945716858, 0.0520276315510273, -0.04554826766252518, 0.12113191932439804, -0.13501298427581787, 0.11199182271957397, -0.10093439370393753, -0.2560599744319916, 0.027876919135451317], [-0.10169205069541931, 0.15944769978523254, 0.046834658831357956, -0.24529185891151428, -0.1960187703371048, -0.023433851078152657, -0.03466324135661125, -0.022753097116947174, 0.008101380430161953, -0.03813884034752846], [0.05202918499708176, 0.001673984108492732, 0.010815269313752651, -0.1228870078921318, -0.004661848768591881, -0.1814233511686325, 0.05434746295213699, 0.0056346096098423, -0.1379176825284958, -0.08365707844495773], [0.025698594748973846, -0.12964577972888947, 0.00020776363089680672, -0.08949438482522964, 0.16778436303138733, -0.12415871024131775, 0.13447198271751404, -0.11906225234270096, -0.002413756214082241, 0.12903794646263123], [0.026646288111805916, -0.08037986606359482, 0.05076068639755249, 0.16794660687446594, 0.04464172571897507, -0.026119820773601532, 0.06338639557361603, -0.10925699025392532, -0.03767913952469826, 0.2975924015045166]], [[0.1613127440214157, -0.10198274999856949, -0.06966801732778549, -0.07609409093856812, 0.06291549652814865, 0.021776108071208, -0.0007399413734674454, 0.0326053649187088, -0.11959575861692429, -0.07763471454381943], [0.0030178409069776535, -0.06599685549736023, 0.05526498332619667, -0.019086766988039017, -0.06136726588010788, 0.1660810112953186, -0.06310473382472992, 0.1796182245016098, 0.086284339427948, -0.09416250139474869], [-0.16108793020248413, -0.030467679724097252, 0.05815157666802406, -0.1234864816069603, -0.1552349179983139, -0.24333468079566956, -0.04033010080456734, 0.16900333762168884, 0.18322522938251495, -0.1693340539932251], [0.059427112340927124, 0.002880763728171587, -0.17367640137672424, -0.008622183464467525, 0.09784664213657379, -0.15870602428913116, 0.15209540724754333, -0.2405855357646942, -0.007724854163825512, 0.16595162451267242], [0.04404677450656891, -0.015748297795653343, -0.009921764023602009, 0.18284890055656433, -0.03921782597899437, 0.05658676475286484, -0.08976459503173828, 0.15174877643585205, 0.16718854010105133, 0.04916377738118172], [0.1279720515012741, 0.14893394708633423, -0.022788984701037407, -0.3065674602985382, 0.15945778787136078, -0.007346092723309994, 0.002044621855020523, -0.03780800476670265, -0.23312132060527802, -0.06351091712713242], [0.07965055108070374, 0.05755671113729477, 0.04145141318440437, -0.15675844252109528, -0.08873577415943146, 0.10665839165449142, -0.11695988476276398, 0.0798230767250061, -0.06385799497365952, -0.11117491126060486], [0.10154303163290024, 0.16895195841789246, -0.04070943221449852, -0.3256089389324188, 0.07744943350553513, -0.14046871662139893, 0.0680442750453949, -0.04970686510205269, -0.034580301493406296, -0.16120146214962006], [0.16510267555713654, -0.006214131135493517, -0.09420766681432724, -0.020650027319788933, 0.015552733093500137, -0.07062660157680511, 0.021965645253658295, -0.14541000127792358, -0.24119195342063904, 0.13921856880187988], [-0.1347481906414032, -0.15615177154541016, 0.13576538860797882, 0.06388384103775024, -2.5249988539144397e-05, -0.0727735310792923, -0.06454546749591827, -0.05036686733365059, -0.20155549049377441, 0.09443192183971405]]], [[[-0.13711372017860413, -0.015486862510442734, -0.08572456985712051, -0.021627256646752357, 0.04595806822180748, 0.05576570704579353, 0.11417695134878159, -0.08020608872175217, -0.0981845036149025, -0.015598616562783718], [0.014153970405459404, 0.12677240371704102, 0.028912395238876343, 0.023288017138838768, -0.042847588658332825, 0.0037775132805109024, -0.08674528449773788, -0.03627876937389374, 0.023738650605082512, -0.014501245692372322], [0.054486945271492004, -0.06126042827963829, 0.10971000790596008, -0.20887407660484314, 0.0483396090567112, -0.1229359582066536, 0.007570606656372547, -0.18470340967178345, -0.05742821469902992, 0.02863689512014389], [0.18998469412326813, -0.1751333475112915, -0.05985512211918831, -0.224090576171875, 0.10985682904720306, 0.04338662698864937, -0.07259580492973328, -0.12783770263195038, 0.12117098271846771, -0.05990196764469147], [0.13721902668476105, 0.20529577136039734, -0.06527812033891678, 0.32086992263793945, 0.13787774741649628, -0.12312248349189758, -0.16920046508312225, -0.1095023900270462, 0.10518576204776764, -0.10070247948169708], [-0.00019650178728625178, 0.008854033425450325, 0.13871899247169495, -0.04445125535130501, 0.022557027637958527, -0.10866139829158783, 0.033958498388528824, 0.16599984467029572, -0.05381972715258598, -0.001450774958357215], [-0.3219166100025177, 0.14762306213378906, 0.08498653769493103, -0.06821977347135544, 0.046721357852220535, -0.00932196993380785, 0.016937213018536568, 0.28949612379074097, -0.09934621304273605, 0.09535994380712509], [-0.07568462193012238, 0.10991647839546204, 0.17077364027500153, -0.11559407413005829, -0.10603747516870499, 0.03804495930671692, 0.15284954011440277, 0.18462492525577545, 0.03193631023168564, -0.0996081605553627], [-0.16120029985904694, -0.01437541376799345, 0.1642048954963684, 0.034093379974365234, 0.02689511515200138, 0.03374665975570679, 0.048246171325445175, 0.13658787310123444, -0.012546447105705738, 0.202270969748497], [0.08131399005651474, -0.07509303838014603, -0.10502514243125916, 0.11292822659015656, -0.08624444156885147, 0.07289049029350281, 0.08474221080541611, 0.0011762495851144195, -0.01489283423870802, 0.011436538770794868]], [[0.015098829753696918, 0.036812085658311844, -0.03725374490022659, -0.11237690597772598, 0.019663186743855476, -0.006951750256121159, 0.022532638162374496, -0.06735983490943909, -0.03704002872109413, 0.05555439367890358], [0.01023559644818306, -0.0015649679116904736, 0.0939985141158104, 0.08528358489274979, -0.07537911087274551, 0.024096161127090454, 0.023243948817253113, 0.16776560246944427, -0.10417744517326355, 0.006044021341949701], [-0.0837697684764862, -0.036361660808324814, -0.002427908359095454, -0.17436650395393372, -0.13979023694992065, 0.17647011578083038, -0.13667476177215576, -0.03147967532277107, -0.15919837355613708, -0.059495959430933], [0.00619654543697834, -0.20854441821575165, -0.08773790299892426, -0.13902829587459564, 0.05068841576576233, -0.07192189991474152, -0.06749824434518814, -0.25685185194015503, 0.08877259492874146, -0.035047098994255066], [0.05439343675971031, 0.14488907158374786, -0.16725072264671326, 0.309598833322525, -0.030137963593006134, -0.11244598031044006, -0.10262656211853027, -0.031201954931020737, -0.1336369663476944, -0.028538882732391357], [-0.04188600182533264, -0.01045126561075449, -0.0013977302005514503, -0.09528855979442596, 0.008337466046214104, -0.07236871123313904, 0.027009833604097366, 0.12560567259788513, 0.059660155326128006, -0.15310144424438477], [-0.10695895552635193, 0.11396975815296173, 0.1672823578119278, -0.053240031003952026, 0.017559517174959183, -0.13761121034622192, -0.15981806814670563, 0.1502831131219864, -0.03007487952709198, 0.12236350774765015], [-0.1877772957086563, -0.01764366775751114, 0.03344113007187843, -0.28387871384620667, -0.005979317706078291, -0.02805507369339466, 0.013445321470499039, 0.03300483897328377, -0.0946761816740036, -0.12955601513385773], [-0.06786379963159561, 0.07149387151002884, 0.141087144613266, -0.0038746146019548178, -0.06442026793956757, 0.09218277037143707, 0.14472442865371704, 0.03562863916158676, -0.10178522020578384, 0.1114254966378212], [0.03088340535759926, -0.07251282036304474, -0.09369107335805893, 0.1050465852022171, 0.13889536261558533, -0.1242767944931984, -0.001573439221829176, 0.15227103233337402, -0.05363062024116516, 0.1245776042342186]], [[0.04154513031244278, -0.028869448229670525, 0.0444008894264698, -0.08500387519598007, 0.04650351405143738, -0.038515355437994, -0.049929823726415634, -0.08212922513484955, 0.03898193687200546, 0.07599031925201416], [-0.04409157857298851, 0.07795379310846329, 0.02837427146732807, 0.006969586946070194, -0.0069597032852470875, 0.2441534698009491, -0.07942961156368256, 0.09406525641679764, 0.11987334489822388, -0.021927975118160248], [-0.020409107208251953, -0.01585848443210125, 0.058932892978191376, -0.07387719303369522, -0.1775401532649994, 0.10507092624902725, -0.1615830659866333, -0.21686246991157532, -0.04694288969039917, -0.0830257311463356], [0.03411716967821121, -0.09132350236177444, 0.004936296958476305, -0.0819540023803711, -0.02183123119175434, -0.17395977675914764, 0.02679750695824623, -0.046894051134586334, 0.07507280260324478, -0.18811564147472382], [0.17529596388339996, 0.03030041791498661, -0.10519290715456009, 0.25412577390670776, -0.0012260747607797384, 0.12787380814552307, -0.12920290231704712, -0.07848412543535233, -0.09166991710662842, 0.24212127923965454], [0.04891357943415642, 0.0073860944248735905, 0.0430852510035038, -0.015095777809619904, -0.11917047947645187, -0.22227506339550018, 0.011367060244083405, -0.06815784424543381, -0.09020429104566574, -0.1569749265909195], [-0.03979381546378136, 0.06242638826370239, 0.008278902620077133, -0.062457095831632614, -0.0614604689180851, 0.03343850374221802, -0.04695789888501167, 0.1435600221157074, -0.08689981698989868, -0.010772636160254478], [-0.10608618706464767, 0.14859531819820404, 0.16103237867355347, -0.27059221267700195, -0.11980312317609787, -0.13109590113162994, 0.004451906308531761, -0.01621154509484768, 0.010680478066205978, -0.22604210674762726], [0.017451530322432518, -0.06818737089633942, 0.07028496265411377, 0.00695998826995492, 0.10693536698818207, -0.209087535738945, -0.04367782175540924, -0.05654424428939819, 0.016369696706533432, 0.12333035469055176], [-0.013887100853025913, -0.12732523679733276, -0.11950604617595673, 0.04643811658024788, 0.04948410019278526, -0.10140514373779297, -0.030224427580833435, 0.10757391899824142, -0.14723679423332214, 0.17046202719211578]], [[0.05195477977395058, 0.007627997547388077, 0.05669015273451805, -0.08648920059204102, 0.11641538143157959, -0.08960087597370148, 0.0002268793759867549, -0.03301335126161575, -0.1383124440908432, -0.08443187922239304], [-0.10077428817749023, -0.03511485084891319, -0.022413721308112144, 0.03441281244158745, -0.12238886952400208, 0.09325765073299408, -0.20392170548439026, -0.050488732755184174, 0.05993373319506645, 0.0084364740177989], [-0.17175965011119843, 0.006278905551880598, 0.11408523470163345, -0.07939407229423523, -0.014965314418077469, -0.04544415697455406, 0.0039128451608121395, -0.06269682943820953, 0.19010992348194122, -0.061139967292547226], [0.14103543758392334, 0.026961449533700943, -0.11001811921596527, -0.2401386946439743, 0.06797349452972412, -0.061646707355976105, 0.1723480224609375, -0.10066451877355576, -0.11279171705245972, 0.05216119810938835], [0.04311300069093704, -0.013336807489395142, 0.027938805520534515, 0.20506639778614044, 0.12716004252433777, 0.18297024071216583, -0.014860826544463634, 0.034122128039598465, -0.07769627124071121, 0.18194572627544403], [0.12977638840675354, 0.18658149242401123, -0.004492258653044701, -0.0873410701751709, 0.04950396716594696, -0.005867733154445887, -0.060629937797784805, 0.08515400439500809, -0.1699068695306778, -0.17327481508255005], [0.00834075827151537, 0.10021138191223145, 0.10170455276966095, -0.053905632346868515, -0.1318236142396927, 0.03842151537537575, -0.18443791568279266, 0.10282935202121735, -0.057114362716674805, -0.07774382829666138], [-0.05634811148047447, 0.04314844310283661, -0.05026747286319733, -0.11174134165048599, -0.10411901772022247, 0.0072983549907803535, -0.09341313689947128, 0.08817140012979507, -0.1271083652973175, -0.07515623420476913], [0.026840485632419586, 0.10943727940320969, 0.02122924104332924, 0.026218514889478683, 0.014622045680880547, -0.21220366656780243, 0.131079763174057, 0.028482556343078613, -0.05245320871472359, 0.014262093231081963], [0.1561741828918457, -0.14516504108905792, -0.15167707204818726, 0.03955324366688728, 0.0356852263212204, -0.2831733822822571, -0.04307904094457626, -0.20428873598575592, -0.19555936753749847, 0.28192806243896484]], [[0.08723695576190948, 0.09844110161066055, 0.019928986206650734, -0.1548011153936386, -0.0043377988040447235, 0.00536519568413496, 0.07083947211503983, -0.023635266348719597, -0.029282759875059128, -0.14626845717430115], [-0.03690056502819061, 0.048674747347831726, 0.05726331099867821, 0.1252775490283966, -0.15333130955696106, 0.1270853579044342, -0.19075490534305573, 0.12835535407066345, 0.1972063034772873, -0.10273411870002747], [-0.2081626057624817, -0.17509104311466217, 0.13957259058952332, 0.04817834496498108, -0.24314406514167786, -0.2923228442668915, 0.09920118004083633, 0.018116604536771774, 0.19334661960601807, -0.11933674663305283], [0.17669473588466644, -0.1384665071964264, -0.19850799441337585, -0.13808420300483704, 0.11181461811065674, -0.10480751842260361, 0.14890459179878235, -0.027258960530161858, 0.06297693401575089, 0.043279796838760376], [-0.017440391704440117, -0.12725189328193665, -0.13751976191997528, 0.3278827965259552, 0.04981350153684616, 0.1564982831478119, 0.139469712972641, 0.0394042506814003, 0.029380381107330322, 0.22374162077903748], [-0.01690027117729187, 0.13855046033859253, -0.13265971839427948, -0.07742515206336975, 0.15130949020385742, 0.3187805414199829, -0.14896555244922638, 0.1139477789402008, -0.18109740316867828, -0.019141780212521553], [-0.10791869461536407, 0.08947063237428665, -0.05292944610118866, 0.021677928045392036, -0.16183172166347504, 0.1805226057767868, -0.09889788925647736, 0.29280874133110046, 0.13055449724197388, -0.058817364275455475], [0.03894903510808945, 0.012278919108211994, -0.05353888124227524, -0.15310971438884735, 0.04271697252988815, -0.06535378098487854, -0.19215919077396393, 0.10175003111362457, -0.13478918373584747, -0.16097983717918396], [0.0860605388879776, 0.10339343547821045, 0.017540207132697105, 0.0394497811794281, -0.01783664897084236, -0.048723939806222916, 0.036677297204732895, -0.13434261083602905, -0.17746135592460632, 0.046423740684986115], [0.15601208806037903, -0.08518612384796143, -0.07022175192832947, -0.09864513576030731, 0.1748233139514923, -0.19493195414543152, 0.07912597060203552, -0.2065511792898178, -0.29304224252700806, 0.33550944924354553]]], [[[-0.22642631828784943, -0.002759548369795084, 0.026353133842349052, 0.00574450334534049, 0.0030027725733816624, 0.019640447571873665, 0.16781841218471527, -0.10505135357379913, 0.1080867126584053, -0.06617605686187744], [0.08599372208118439, 0.04169059544801712, -0.0988532081246376, 0.02730247750878334, 0.08446087688207626, 0.10282294452190399, -0.04308366775512695, 0.02971029095351696, 0.02860151045024395, 0.08853349834680557], [-0.12150254845619202, 0.01921379752457142, 0.05276646837592125, -0.1982680857181549, -0.030566934496164322, 0.055898070335388184, -0.12061330676078796, -0.08359485119581223, -0.16187863051891327, 0.03710037097334862], [-0.05358660966157913, -0.17951692640781403, -0.03180868551135063, -0.2273491472005844, 0.02101226896047592, 0.02209347113966942, -0.0007794569246470928, -0.11072289198637009, 0.022390097379684448, 0.028194202110171318], [0.1983540654182434, 0.049274325370788574, -0.0978802815079689, 0.12070418149232864, 0.16725347936153412, -0.08944196999073029, -0.08896635472774506, -0.06352795660495758, 0.05466347560286522, -0.04633046314120293], [0.06837396323680878, 0.17710167169570923, -0.06475213170051575, -0.2215389460325241, -0.06992841511964798, -0.1583699882030487, 0.052442796528339386, 0.04063759371638298, -0.030072353780269623, 0.02486923709511757], [-0.2401968389749527, 0.12890559434890747, 0.0864453837275505, 0.10777033865451813, -0.2074480950832367, -0.14073050022125244, -0.13398893177509308, 0.05068003758788109, -0.058770015835762024, 0.03567267581820488], [-0.1113286167383194, 0.02149205654859543, 0.17298440635204315, -0.13344866037368774, -0.19914297759532928, -0.065578892827034, -0.0946262925863266, 0.16489125788211823, 0.07705318182706833, 0.1294175088405609], [-0.08184893429279327, 0.030040571466088295, 0.041441768407821655, 0.14948710799217224, 0.011243941262364388, 0.04434094950556755, -0.0622180812060833, -0.026750797405838966, -0.11088629812002182, 0.15867532789707184], [0.12077716737985611, -0.1874525547027588, -0.09069354087114334, -0.04929880425333977, 0.2060127705335617, 0.00680732075124979, 0.06359321624040604, -0.04425670579075813, 0.14941240847110748, -0.2334856390953064]], [[-0.055389780551195145, -0.04020347446203232, 0.06944692879915237, -0.14649155735969543, 0.03789632022380829, -0.18093933165073395, 0.04088893532752991, -0.14385099709033966, -0.04569152742624283, 0.018420612439513206], [0.09323662519454956, -0.07215775549411774, -0.08484187722206116, 0.03505643829703331, -0.013897472061216831, 0.2228560745716095, -0.05940154567360878, 0.09238921105861664, -0.06932660192251205, -0.11151470988988876], [0.006476483307778835, -0.14951065182685852, -0.0360555425286293, -0.12580367922782898, 0.005081822630017996, 0.09370052814483643, -0.10818612575531006, -0.1265922486782074, -0.06683234870433807, -0.010355611331760883], [-0.042967360466718674, -0.1032160073518753, 0.0316658690571785, -0.28929802775382996, 0.16214951872825623, 0.049144987016916275, -0.022574735805392265, -0.039353147149086, 0.03790292516350746, -0.20724530518054962], [0.21862463653087616, -0.10073105990886688, -0.08689941465854645, 0.2023382931947708, 0.20529326796531677, -0.02847493812441826, -0.09304354339838028, -0.13312186300754547, -0.05503615364432335, -0.0856417790055275], [-0.06600409746170044, 0.028046678751707077, 0.04071943834424019, -0.08489593118429184, 0.05979497358202934, -0.3387795388698578, 0.11027860641479492, -7.715558604104444e-05, 0.013863653875887394, -0.16705046594142914], [-0.11148478835821152, 0.15163445472717285, 0.09395421296358109, 0.006285310257226229, -0.096527099609375, -0.056931618601083755, -0.0901820957660675, 0.24863670766353607, -0.18083131313323975, 0.10346373170614243], [-0.22036123275756836, 0.1906076967716217, 0.07604214549064636, -0.17990335822105408, -0.13575927913188934, -0.20433729887008667, 0.037396643310785294, 0.17919699847698212, -0.07915786653757095, 0.019118070602416992], [-0.009412259794771671, -0.00025700166588649154, -0.026331603527069092, 0.08289362490177155, -0.07708729058504105, -0.05215949937701225, 0.097431980073452, -0.10626477748155594, 0.09679888933897018, 0.022602738812565804], [0.21620236337184906, -0.2303798496723175, -0.11485083401203156, -0.04253596439957619, 0.07817766815423965, -0.12867213785648346, 0.03740853816270828, 0.02935398928821087, 0.16408462822437286, -0.038539137691259384]], [[-0.0590725876390934, 0.051602259278297424, 0.005152067169547081, -0.17600634694099426, -0.06716948002576828, -0.19813324511051178, 0.03223203495144844, -0.0768839418888092, 0.04577502980828285, -0.049056828022003174], [-0.026682740077376366, 0.08962400257587433, 0.024126995354890823, 0.11957911401987076, -0.08953186869621277, 0.2632429599761963, 0.026554815471172333, 0.15002554655075073, 0.024380257353186607, 0.0639519914984703], [-0.1357441246509552, -0.10159601271152496, 0.0907868966460228, -0.2641991674900055, 0.00017990643391385674, 0.13435016572475433, -0.003560139797627926, -0.17610183358192444, -0.02896052971482277, 0.06421805173158646], [0.10665836930274963, 0.034319061785936356, 0.006567114964127541, -0.2422633022069931, 0.0822649896144867, -0.04041901230812073, 0.04194461181759834, -0.12029227614402771, 0.04651745781302452, -0.04707721620798111], [0.1843617558479309, -0.12465149909257889, -0.1640283614397049, 0.2123282253742218, 0.14881205558776855, 0.2073954939842224, 0.004610175266861916, 0.03452426195144653, 0.04925546050071716, 0.09398255497217178], [-0.031337298452854156, 0.16558720171451569, 0.02483956329524517, -0.07894539833068848, -0.03035951592028141, -0.2654949724674225, -0.003750395029783249, 0.0353580117225647, -0.029491091147065163, -0.07311150431632996], [-0.17793653905391693, 0.0710558220744133, -0.04101170226931572, 0.11579685658216476, -0.12265577167272568, 0.09887347370386124, -0.1296621561050415, 0.18727613985538483, -0.1007101982831955, 0.05222047492861748], [-0.04200908914208412, 0.2360907942056656, 0.02854379452764988, -0.004056215286254883, -0.10899027436971664, -0.12734489142894745, 0.009973246604204178, 0.06811316311359406, -0.059267543256282806, 0.006554075051099062], [-0.04921877756714821, 0.135414719581604, 0.08375877887010574, 0.0647701844573021, -0.09660615772008896, -0.3019740581512451, 0.08610469102859497, 0.046533361077308655, -0.08624549210071564, 0.12528730928897858], [0.015652358531951904, -0.01659998670220375, -0.23722240328788757, -0.21087555587291718, 0.1500142216682434, -0.2943899929523468, -0.0434739924967289, -0.0590091347694397, 0.047045595943927765, -0.029652854427695274]], [[-0.1353330910205841, -0.0753389298915863, 0.08336828649044037, -0.1292439103126526, -0.09998652338981628, -0.13517610728740692, -0.06517796218395233, 0.006857042666524649, -0.11593355238437653, 0.05901024863123894], [0.10070211440324783, -0.09577788412570953, 0.05243563652038574, 0.021160252392292023, -0.03878173977136612, -0.008510841988027096, -0.11291342973709106, 0.06509454548358917, 0.1322520673274994, -0.10404771566390991], [0.028209928423166275, -0.09601852297782898, 0.1127493679523468, -0.13652901351451874, -0.17594069242477417, -0.020568430423736572, 0.09251484274864197, -0.10018551349639893, 0.2847555875778198, -0.15740710496902466], [-0.05278228968381882, -0.12061113864183426, 0.009570254944264889, -0.1982489675283432, -0.015076090581715107, 0.055640656501054764, 0.03829643130302429, -0.043539803475141525, -0.09339489042758942, -0.005491120740771294], [0.0712835043668747, -0.07983314245939255, -0.09019246697425842, 0.22491437196731567, 0.22419479489326477, 0.061122994869947433, 0.15511327981948853, -0.039772484451532364, -0.07328341156244278, 0.07121561467647552], [-0.02388915605843067, 0.1804286241531372, 0.03513798862695694, -0.00244206003844738, 0.11749951541423798, 0.09069117903709412, -0.19529695808887482, 0.007363317999988794, -0.22303062677383423, -0.011397217400372028], [-0.16533394157886505, 0.09137202799320221, -0.03049970418214798, 0.026563236489892006, -0.017520183697342873, 0.15266141295433044, -0.20689080655574799, 0.15724505484104156, 0.11221307516098022, 0.08976732939481735], [-0.21843701601028442, 0.029764866456389427, -0.04692451283335686, 0.07138142734766006, -0.019216977059841156, -0.07039223611354828, -0.12625685334205627, 0.15420407056808472, -0.03570295870304108, -0.20391736924648285], [-0.11188038438558578, -0.02529519610106945, 0.11416136473417282, 0.13989996910095215, 0.09996313601732254, -0.2523758113384247, 0.11080273985862732, 0.08376526087522507, -0.12492254376411438, 0.13172635436058044], [0.22840537130832672, -0.06047407165169716, -0.27804580330848694, -0.27491244673728943, 0.1428529918193817, -0.1865360140800476, 0.0046586766839027405, -0.07681728899478912, -0.26181328296661377, -0.008675986900925636]], [[-0.1237243190407753, -0.003388257697224617, -0.1384618729352951, -0.14998017251491547, 0.11301638931035995, 0.010343067348003387, -0.025246961042284966, -0.041829194873571396, -0.11223584413528442, -0.08300156891345978], [-0.0181470587849617, 0.012391953729093075, 0.017191264778375626, -0.002766941674053669, -0.12682770192623138, -0.010087991133332253, -0.11639229953289032, 0.08746898174285889, 0.11246052384376526, 0.09909649193286896], [-0.2097802609205246, -0.003660696791484952, 0.25529006123542786, -0.039442095905542374, -0.16587546467781067, -0.3611506521701813, 0.056810539215803146, 0.07140152156352997, 0.16102051734924316, -0.05690741166472435], [0.09182233363389969, 0.014246203005313873, -0.15077945590019226, -0.1430686116218567, -0.02972615510225296, 0.0694068968296051, 0.0744239017367363, 0.0587393194437027, -0.024862060323357582, -0.1577066034078598], [0.18468265235424042, -0.13891154527664185, -0.08281676471233368, -0.012197820469737053, 0.18670716881752014, 0.05834722891449928, 0.11393047124147415, -0.1606384962797165, -0.06745821982622147, 0.22429488599300385], [-0.07355858385562897, 0.03535972908139229, -0.17694246768951416, 0.028413698077201843, 0.14418810606002808, 0.31205371022224426, -0.264941543340683, 0.044747333973646164, -0.10532407462596893, -0.17143921554088593], [-0.17175297439098358, 0.1619737148284912, 0.17736482620239258, 0.22433941066265106, -0.07920292019844055, 0.0576297827064991, -0.19032076001167297, 0.1990201324224472, 0.17460879683494568, -0.11864398419857025], [-0.18227288126945496, 0.028158733621239662, 0.10062777251005173, -0.09122130274772644, 0.040579602122306824, 0.09062433987855911, -0.09037911146879196, 0.06232653558254242, -0.16028106212615967, -0.15662018954753876], [-0.057271528989076614, 0.05131006985902786, -0.087459035217762, -0.02993876300752163, 0.014328104443848133, -0.06316597014665604, 0.0037011131644248962, 0.0025955657474696636, -0.12066706269979477, 0.0063872141763567924], [0.2621065378189087, 0.05868929252028465, -0.11949177831411362, -0.24383804202079773, 0.13618126511573792, 0.04675779119133949, 0.053890034556388855, -0.026151876896619797, -0.21534226834774017, 0.11725711077451706]]], [[[-0.07818242907524109, -0.09398467093706131, 0.10880812257528305, -0.040706560015678406, -0.15975475311279297, -0.1573069989681244, 0.11256848275661469, 0.02913467027246952, 0.0006294157356023788, 0.09660187363624573], [0.11304789036512375, 0.05339357629418373, -0.0052401223219931126, 0.008821890689432621, 0.13159668445587158, 0.012599422596395016, 0.008341928012669086, 0.10304149985313416, -0.06270906329154968, 0.044814515858888626], [-0.204054594039917, 0.06895076483488083, -0.045181646943092346, 0.10806263238191605, -0.0738353431224823, 0.03773730993270874, -0.002741107251495123, -0.003428530180826783, -0.15464180707931519, 0.08757583796977997], [-0.10704319924116135, -0.11671339720487595, -0.06435304135084152, -0.04855784401297569, 0.031350575387477875, -0.013669082894921303, 0.14817996323108673, 0.012105210684239864, -0.02635912597179413, 0.13352781534194946], [0.13968878984451294, -0.12958259880542755, -0.08269477635622025, -0.2226642221212387, 0.253433495759964, -0.04653577134013176, 0.04687174782156944, 0.045723773539066315, -0.09846378117799759, -0.006487726699560881], [-0.08130090683698654, 0.12043489515781403, -0.08598832786083221, -0.06830694526433945, -0.006233503110706806, -0.34410837292671204, -0.1814304143190384, -0.038698893040418625, 0.08174193650484085, 0.054689932614564896], [0.08303865790367126, 0.12361594289541245, -0.08180694282054901, 0.311117947101593, -0.03156200423836708, -0.16027572751045227, -0.11419902741909027, 0.019702168181538582, -0.10460098087787628, -0.04912267625331879], [-0.07107032090425491, 0.15437772870063782, 0.005519021302461624, 0.08041422069072723, -0.053479742258787155, -0.23844142258167267, -0.16866590082645416, 0.12986306846141815, -0.021795952692627907, 0.034477442502975464], [0.07645860314369202, -0.012394098564982414, 0.14754259586334229, 0.12015221267938614, -0.10469131171703339, -0.17207472026348114, -0.0024152714759111404, -0.14034894108772278, 0.06251908093690872, -0.062207967042922974], [-0.03985033184289932, -0.25489571690559387, -0.19160085916519165, -0.21044375002384186, 0.1958884596824646, -0.0322609581053257, 0.09125742316246033, -0.15147870779037476, 0.11182165890932083, -0.283172607421875]], [[-0.04927389696240425, 0.0677829384803772, -0.04007502645254135, -0.062287330627441406, -0.17272718250751495, -0.12084206193685532, 0.09573154151439667, -0.059321995824575424, 0.044563885778188705, 0.13009409606456757], [0.037246037274599075, -0.10289964079856873, -0.026723628863692284, -0.0012332756305113435, -0.017774755135178566, 0.2626590132713318, 0.037721000611782074, 0.10126661509275436, 0.046628549695014954, 0.06888086348772049], [-0.13639764487743378, -0.04664146155118942, -0.09321112185716629, -0.04505829140543938, -0.1171429231762886, 0.11766345798969269, 0.007504355628043413, 0.09348151832818985, -0.04347999766469002, 0.19826257228851318], [-0.08088303357362747, 0.009151768870651722, 0.12774547934532166, -0.1582411676645279, -0.05275995284318924, -0.10698500275611877, 0.1391775757074356, -0.0008255341672338545, 0.04970798268914223, -0.0379071943461895], [0.11845248937606812, -0.1963261067867279, -0.051210131496191025, 0.01241065002977848, 0.14796657860279083, 0.15514136850833893, -0.042327411472797394, -0.15583713352680206, 0.061353642493486404, -0.14211109280586243], [-0.08072761446237564, 0.030227523297071457, 0.07337073981761932, -0.1589580476284027, 0.0500456877052784, -0.36970120668411255, -0.07017382979393005, 0.12838241457939148, 0.11958551406860352, -0.0020971447229385376], [-0.044018276035785675, 0.12146000564098358, 0.07662483304738998, 0.12677262723445892, -0.05352233722805977, -0.10457411408424377, 0.02450774982571602, -0.015755891799926758, -0.056517649441957474, 0.10866232216358185], [0.00930907391011715, 0.2499295175075531, 0.10749484598636627, -0.028255155310034752, -0.15249575674533844, -0.1482211798429489, -0.2226647585630417, 0.15168432891368866, 0.05924171954393387, 0.11563088744878769], [0.013908367604017258, 0.02541038766503334, 0.08197368681430817, 0.06856004893779755, -0.09285999089479446, -0.16071553528308868, -0.051279157400131226, 0.0492306649684906, 0.027814259752631187, -0.057287778705358505], [0.1260937750339508, -0.028610292822122574, -0.13230517506599426, -0.196260005235672, 0.22887147963047028, -0.05762165039777756, 0.11929308623075485, 0.011406145058572292, 0.05569452792406082, -0.32078731060028076]], [[-0.04417267441749573, 0.09864075481891632, -0.01262645237147808, 0.006896744482219219, -0.11086275428533554, -0.14353930950164795, 0.003940878435969353, 0.009163089096546173, -0.06885910779237747, -0.005455223377794027], [0.10368432849645615, -0.08561769872903824, -0.05794786289334297, 0.08070240914821625, -0.04040155187249184, 0.08548866212368011, 0.04831806942820549, 0.15787562727928162, -0.01574128493666649, -0.04214189946651459], [0.022929904982447624, 0.033151544630527496, 0.04112916439771652, -0.21636131405830383, 0.009182862937450409, 0.020277217030525208, -0.1432843655347824, -0.04469175636768341, 0.10693425685167313, 0.212357297539711], [-0.04319361224770546, -0.0772312805056572, -0.04939952492713928, -0.0022271976340562105, -0.011589517816901207, -0.056921616196632385, 0.10302412509918213, -0.05737171322107315, -0.0034850980155169964, -0.11841009557247162], [0.12604400515556335, -0.22298163175582886, -0.10987040400505066, -0.1402525156736374, 0.1459808200597763, 0.028687281534075737, 0.13386376202106476, 0.025860534980893135, -0.04532228782773018, 0.017240796238183975], [-0.15288075804710388, -0.021400613710284233, 0.1399005502462387, -0.07934409379959106, 0.013197989203035831, -0.13596436381340027, -0.08466405421495438, 0.13542184233665466, -0.06354036182165146, -0.03442605584859848], [-0.0923454612493515, 0.10737515985965729, -0.02390012890100479, 0.22637896239757538, -0.060759060084819794, 0.14711497724056244, -0.18112491071224213, 0.07320418953895569, -0.0957062616944313, 0.19184301793575287], [-0.10016564279794693, 0.14532583951950073, 0.026898955926299095, 0.052564892917871475, -0.07672195136547089, -0.08652293682098389, -0.03251760080456734, 0.12938639521598816, -0.05504342541098595, -0.0782109797000885], [-0.0047676293179392815, 0.017416615039110184, 0.16004619002342224, 0.09306386858224869, 0.07572285830974579, -0.36206740140914917, -0.02183867245912552, -0.01198089774698019, -0.035800568759441376, 0.07454223185777664], [0.13624268770217896, -0.03603825345635414, -0.03753801807761192, -0.12312739342451096, 0.006697480101138353, -0.14481452107429504, 0.09127970039844513, -0.11979404836893082, -0.09260454773902893, -0.2618347406387329]], [[-0.03326799347996712, 0.09468994289636612, 0.07910715788602829, 0.04256436973810196, -0.11934025585651398, 0.050291892141103745, -0.017637858167290688, -0.07532675564289093, -0.17191708087921143, -0.10515248030424118], [-0.0028920313343405724, -0.0754871815443039, -0.1157006099820137, 0.15613742172718048, 0.010521943680942059, -0.0018448760965839028, -0.1289842128753662, 0.10811276733875275, 0.027859413996338844, 0.07450037449598312], [-0.06450126320123672, -0.04482785239815712, 0.015770016238093376, -0.15423575043678284, -0.18778479099273682, -0.14661268889904022, 0.12815004587173462, -0.14724451303482056, 0.16382639110088348, 0.14444753527641296], [-0.1403009593486786, -0.09860744327306747, -0.05454154685139656, 0.08140765875577927, -0.011425039730966091, 0.014542721211910248, 0.01053108274936676, -0.11707905679941177, -0.001055966131389141, -0.15424558520317078], [0.046630632132291794, -0.13245955109596252, -0.18956509232521057, -0.12523271143436432, 0.10337445139884949, -0.01620892621576786, 0.13190822303295135, -0.06323493272066116, -0.12663602828979492, -0.035831935703754425], [-0.08604405075311661, -0.00259000388905406, -0.055169034749269485, 0.06634368002414703, -0.07492312788963318, 0.20581567287445068, -0.2532999813556671, 0.13921470940113068, -0.32191166281700134, -0.11987437307834625], [-0.07014492899179459, -0.03672521188855171, 0.05707116052508354, 0.23647667467594147, -0.004115229472517967, -0.010135370306670666, -0.101316437125206, 0.038703806698322296, -0.05213329195976257, 0.0946367010474205], [-0.0710625946521759, 0.094865582883358, -0.0014687541406601667, 0.1524229347705841, -0.06324014067649841, -0.02352781593799591, -0.11774763464927673, 0.15836362540721893, -0.011807077564299107, -0.0937289297580719], [-0.07614213228225708, 0.0716460645198822, 0.11048521101474762, -0.02629408985376358, 0.10543865710496902, -0.13740316033363342, -0.07872744649648666, -0.08751474320888519, -0.012403948232531548, 0.15430304408073425], [0.22595418989658356, -0.07893916964530945, -0.19157230854034424, -0.2581039071083069, 0.10470118373632431, -0.07023879140615463, -0.02672887034714222, 0.05984856188297272, -0.0767325758934021, -0.010086458176374435]], [[-0.017692923545837402, -0.0012442541774362326, 0.04776468873023987, 0.013320935890078545, -0.017650794237852097, 0.07193495333194733, 0.00310141546651721, 0.07943988591432571, -0.036016371101140976, -0.07171372324228287], [0.09865514934062958, -0.02640034817159176, 0.11561119556427002, 0.09954676777124405, 0.00501930620521307, -0.13612912595272064, 0.08491329103708267, -0.036583345383405685, 0.11365928500890732, 0.0025011287070810795], [-0.08621562272310257, -0.018757527694106102, 0.1623765379190445, -0.03664939105510712, -0.18862055242061615, -0.322284996509552, 0.02104226127266884, 0.03432125970721245, 0.17272250354290009, 0.04252580553293228], [0.038624104112386703, -0.02684509940445423, -0.17248722910881042, 0.04692351073026657, -0.04138341173529625, 0.1335381120443344, -0.05347117409110069, 0.00012297151261009276, 0.056681569665670395, -0.09749367833137512], [0.19858838617801666, 0.0046106865629553795, -0.07479388266801834, -0.16436898708343506, 0.026387477293610573, 0.0501004196703434, 0.17531180381774902, 0.02185385674238205, 0.007880447432398796, -0.06339509040117264], [-0.22537292540073395, -0.044057611376047134, -0.10567423701286316, 0.035374559462070465, 0.02181965671479702, 0.21264109015464783, -0.20691949129104614, 0.050408001989126205, -0.15085318684577942, -0.16430148482322693], [-0.14795981347560883, -0.09876024723052979, -0.011309897527098656, 0.2302076816558838, -0.03498613461852074, -0.018385719507932663, -0.13882575929164886, -0.13220395147800446, 0.12649749219417572, 0.0003478249127510935], [-0.2658233940601349, 0.04417642951011658, -0.0374198853969574, 0.16075141727924347, -0.07914020866155624, 0.20433509349822998, -0.19355477392673492, 0.030539872124791145, -0.1919981986284256, 0.047582875937223434], [-0.03314602002501488, 0.1471552550792694, 0.030926013365387917, -0.07263373583555222, -0.029563818126916885, 0.1767164021730423, 0.010261679999530315, 0.08349156379699707, -0.09487856179475784, -0.09042230248451233], [0.14258886873722076, -0.007511699106544256, -0.20374695956707, -0.1615641713142395, 0.19910742342472076, 0.1187647134065628, -0.08161183446645737, -0.08839033544063568, -0.12567457556724548, 0.08070509135723114]]], [[[0.02488606423139572, -0.025648238137364388, 0.02493511140346527, -0.01977454498410225, -0.20135901868343353, -0.18207864463329315, 0.033894311636686325, -0.02378201112151146, -0.027657093480229378, -0.04427922144532204], [0.1338808536529541, 0.02900196984410286, -0.17869876325130463, 0.013492361642420292, 0.024360131472349167, 0.1741517186164856, -0.07073823362588882, 0.05884859710931778, 0.04966965317726135, -0.09881759434938431], [-0.06878065317869186, 0.08020003139972687, -0.11313215643167496, 0.10701455175876617, 0.008287973701953888, 0.10258312523365021, -0.098488450050354, -0.09638358652591705, -0.21940846741199493, -0.10235507041215897], [-0.21013270318508148, 0.06786790490150452, 0.09814830124378204, 0.11018039286136627, -0.16267678141593933, 0.08200643956661224, 0.18526548147201538, -0.12211151421070099, -0.04956965520977974, 0.10326804220676422], [0.03351094573736191, -0.14902164041996002, -0.18919163942337036, -0.15597006678581238, 0.17434380948543549, 0.1358877271413803, 0.025172153487801552, -0.10335348546504974, -0.1288222223520279, 0.02024596929550171], [-0.09717221558094025, 0.02131417766213417, 0.1321718990802765, 0.11654059588909149, -0.025540653616189957, -0.3589758276939392, -0.23759134113788605, 0.18136733770370483, 0.07963335514068604, -0.05968867987394333], [0.20284494757652283, 0.014912113547325134, -0.02754807099699974, 0.034637294709682465, 0.16209334135055542, -0.22023484110832214, -0.21157829463481903, -0.006015370599925518, 0.14444027841091156, -0.18741261959075928], [0.061216626316308975, 0.16749677062034607, 0.17471078038215637, 0.15465644001960754, -0.054842934012413025, -0.21438322961330414, -0.13063892722129822, 0.01433772686868906, 0.007240907289087772, -0.07937802374362946], [0.09566693753004074, 0.17618757486343384, 0.028585951775312424, -0.06745879352092743, 0.1492646485567093, -0.15455125272274017, -0.09335552901029587, -0.07045087963342667, 0.05749620869755745, 0.060738857835531235], [0.029759472236037254, 0.03336666151881218, -0.032489240169525146, -0.16554991900920868, 0.03606036305427551, -0.07556606084108353, 0.1283409595489502, -0.17270323634147644, 0.0771564170718193, -0.1810230165719986]], [[-0.09419551491737366, 0.04328656196594238, 0.12502078711986542, -0.09206883609294891, -0.078879214823246, -0.24790622293949127, 0.008071613498032093, -0.0029531733598560095, -0.0742003321647644, -0.08172408491373062], [0.1365393102169037, -0.08395013958215714, -0.16482621431350708, 0.023931965231895447, -0.000419329124270007, 0.0788840502500534, -0.00021130418463144451, 0.05875029414892197, 0.00321010360494256, -0.08476132154464722], [-0.06745395064353943, 0.07265622913837433, -0.05934222787618637, 0.05175238847732544, -0.03701918199658394, 0.09806665033102036, -0.09527397900819778, -0.06086399406194687, -0.10387768596410751, 0.021755952388048172], [-0.15942664444446564, 0.06318704038858414, 0.16590389609336853, 0.08784621208906174, -0.03752155974507332, -0.08670707046985626, 0.16641700267791748, -0.18721413612365723, 0.025777995586395264, 0.15868902206420898], [0.002726385137066245, -0.008123607374727726, -0.03913332521915436, -0.18939228355884552, 0.175069198012352, 0.07183293998241425, 0.19341066479682922, -0.11388815939426422, -0.028140217065811157, -0.0669524222612381], [-0.13163907825946808, 0.09296568483114243, 0.0651932805776596, 0.055902257561683655, 0.024205375462770462, -0.2490927278995514, -0.05307716503739357, 0.15866665542125702, 0.0446336455643177, -0.019782163202762604], [0.2145787626504898, -0.003480467014014721, -0.02225825935602188, 0.16734251379966736, 0.039577923715114594, 0.11913903057575226, -0.22370418906211853, 0.044897474348545074, -0.13428165018558502, -0.12464620172977448], [-0.10017435997724533, 0.16608485579490662, 0.08722847700119019, -0.022577153518795967, -0.1478346735239029, -0.08122747391462326, -0.28686803579330444, 0.14306166768074036, 0.11283833533525467, 0.0009944463381543756], [-0.013878044672310352, -0.0064150686375796795, 0.15920323133468628, -0.07462942600250244, 0.0689786896109581, -0.2109985500574112, -0.14126282930374146, 0.10716816782951355, -0.024142205715179443, -0.05390956252813339], [-0.09654553234577179, 0.024861592799425125, -0.16257227957248688, -0.1371624618768692, 0.02376566268503666, -0.11712121218442917, 0.1025799810886383, -0.06301482021808624, -0.04175672307610512, -0.2077912539243698]], [[-0.11490131914615631, 0.07136094570159912, 0.16042572259902954, 0.037843190133571625, -0.1820691078901291, -0.1776343733072281, -0.12802329659461975, 0.01718422956764698, -0.00999901257455349, 0.042114801704883575], [0.1543399542570114, -0.11914544552564621, -0.18847225606441498, 0.05455237999558449, 0.03618684411048889, 0.04831942543387413, -0.002964481944218278, -0.09610187262296677, 0.05262995511293411, -0.10177914798259735], [-0.15050700306892395, 0.06521601229906082, 0.10318676382303238, 0.11687452346086502, 0.08643946796655655, 0.032576244324445724, -0.02370675466954708, 0.01834135502576828, 0.020969446748495102, 0.20360517501831055], [-0.06235823407769203, 0.008141680620610714, 0.09505525231361389, -0.008072594180703163, -0.0493268258869648, -0.09044456481933594, 0.13006630539894104, -0.0852048322558403, 0.07174442708492279, 0.10913344472646713], [0.13368286192417145, -0.09089197218418121, -0.00889636017382145, -0.04268048331141472, 0.15518495440483093, 0.09875601530075073, 0.1862090528011322, -0.1685107946395874, -0.09453089535236359, -0.09893660992383957], [-0.20085370540618896, -0.14411233365535736, 0.1717548966407776, 0.0979490652680397, -0.011740162968635559, 0.15514294803142548, -0.1630268394947052, 0.13483795523643494, -0.22257225215435028, 0.00855754129588604], [0.005208664108067751, 0.05389970913529396, 0.0007732584490440786, -0.014357432723045349, 0.05981534346938133, 0.18987058103084564, -0.16590748727321625, 0.12770794332027435, -0.1314406543970108, -0.014591249637305737], [-0.034266069531440735, 0.034491006284952164, 0.08465556055307388, -0.01448847260326147, -0.20691591501235962, -0.0671824961900711, -0.11300694942474365, 0.1816534399986267, 0.00373603287152946, -0.0020805043168365955], [0.024313446134328842, 0.12588997185230255, 0.021842405200004578, 0.01495291106402874, -0.013589347712695599, -0.20100948214530945, -0.100506991147995, 0.058438725769519806, -0.13811717927455902, -0.042442429810762405], [-0.08888310939073563, 0.12705065310001373, -0.21832658350467682, -0.17442306876182556, -0.03817762807011604, -0.13899557292461395, 0.24796399474143982, -0.007429775781929493, 0.024318773299455643, -0.1682480126619339]], [[-0.17031803727149963, 0.04605841264128685, 0.08942603319883347, -0.09929551184177399, 0.013360216282308102, 0.05040963739156723, -0.0281006321310997, -0.025858046486973763, -0.005169899668544531, 0.016088858246803284], [0.15520499646663666, -0.08187991380691528, -0.028458410874009132, -0.014761436730623245, 0.0166854877024889, -0.014465328305959702, 0.0961415022611618, 0.01074345875531435, 0.1464609056711197, -0.09915082156658173], [-0.1030498519539833, -0.04295572265982628, 0.05796701833605766, -0.07562663406133652, -0.04090423882007599, -0.2618708610534668, -0.0733831375837326, 0.08305995911359787, 0.24363845586776733, 0.20463161170482635], [-0.25913769006729126, 0.06743410229682922, 0.0010518551571294665, 0.056659504771232605, -0.13661816716194153, 0.1418297290802002, 0.04150289297103882, -0.010255010798573494, -0.020611291751265526, 0.07013015449047089], [0.15040144324302673, 0.018046578392386436, -0.15831498801708221, -0.15975457429885864, 0.16301313042640686, 0.1557866930961609, 0.11577347666025162, 0.04358237236738205, -0.0029276281129568815, -0.14502663910388947], [-0.23247601091861725, -0.08617181330919266, -0.057776737958192825, 0.09154488891363144, -0.1474481225013733, 0.28621479868888855, -0.17170891165733337, 0.0045747170224785805, -0.2561211585998535, -0.10628405213356018], [0.12726673483848572, -0.06933925300836563, -0.08943153917789459, -0.011408040300011635, 0.015812799334526062, 0.0410468727350235, -0.15969593822956085, -0.06580346822738647, 0.04985101893544197, 0.058590687811374664], [-0.039542652666568756, 0.08461248129606247, 0.004684290383011103, -0.0003562908968888223, -0.19415992498397827, 0.03747923672199249, -0.11417234688997269, 0.07976366579532623, -0.14299948513507843, 0.04916970431804657], [-0.12523101270198822, 0.06309185177087784, 0.044162239879369736, 0.10209836065769196, -0.010739488527178764, 0.056452635675668716, -0.0006979460013099015, 0.04722832888364792, -0.11537943035364151, 0.09049675613641739], [-0.010082433931529522, -0.028497859835624695, -0.22093412280082703, 0.12737298011779785, -0.027011912316083908, 0.09104389697313309, 0.04306771978735924, -0.007339609786868095, -0.180495023727417, -0.2014394849538803]], [[-0.10653069615364075, 0.04569040983915329, -0.0018782877596095204, -0.10937748104333878, -0.005086792632937431, -0.017389953136444092, -0.020986784249544144, -0.024857845157384872, -0.04873799905180931, -0.0513271763920784], [0.15512484312057495, -0.018513040617108345, 0.04847218841314316, 0.0699821338057518, -0.00928388349711895, 0.0023983994033187628, 0.018534507602453232, 0.01313900388777256, 0.11870019882917404, 0.145878404378891], [-0.1384395807981491, -0.035558588802814484, 0.17231154441833496, -0.10144777595996857, -0.2310803085565567, -0.3017268776893616, -0.08090963214635849, 0.026723617687821388, 0.09980752319097519, 0.18371565639972687], [-0.1062435656785965, 0.09780161082744598, -0.08504265546798706, 0.09250234067440033, 0.07676201313734055, 0.024535732343792915, -0.08904020488262177, -0.04387357458472252, 0.07406134158372879, -0.15972749888896942], [0.14866456389427185, -0.0018290601437911391, -0.1490623503923416, -0.0006066393689252436, 0.18863418698310852, -0.11410857737064362, 0.15648490190505981, -0.13414765894412994, 0.1786111444234848, -0.16239742934703827], [-0.17199191451072693, 0.011400834657251835, -0.09019174426794052, -0.033553335815668106, -0.03921004757285118, 0.2013605684041977, -0.0935317724943161, -0.19056987762451172, -0.03023223578929901, -0.10098526626825333], [0.02280312217772007, -0.08701162785291672, 0.06776515394449234, -0.2038191705942154, -0.04546194151043892, -0.12728555500507355, 0.13020896911621094, 0.011162267997860909, -0.043908458203077316, 0.05468735471367836], [-0.10705972462892532, 0.08977191150188446, -0.08837005496025085, -0.14252939820289612, -0.10762348026037216, 0.01081591472029686, 0.026681464165449142, 0.08385214954614639, -0.18811719119548798, -0.0966639295220375], [-0.14073443412780762, 0.09343135356903076, -0.09779839217662811, 0.039160631597042084, -0.005148861091583967, 0.06699982285499573, -0.145872563123703, 0.1523866057395935, -0.24069853127002716, 0.02353823184967041], [0.030085410922765732, 0.0889221578836441, -0.162788987159729, 0.0293514933437109, 0.23804113268852234, 0.17253369092941284, -0.23658713698387146, 0.07640107721090317, 0.0065850731916725636, -0.2082909643650055]]]], "bias": [-0.030732067301869392, -0.042759474366903305, -0.10131815820932388, -0.14388106763362885, -0.04147423803806305, -0.014193148352205753, -0.06992258131504059, 0.036218952387571335, -0.08073798567056656, -0.10008682310581207], "kernel_shape": [5, 5, 10, 10], "bias_shape": [10]}, "dense_1": {"kernel": [[0.02812393382191658, 0.011958816088736057, 0.07184925675392151, 0.04700988531112671, -0.10230422765016556, 0.004224580712616444, -0.04784590005874634, -0.1241767555475235, 0.0644121989607811, 0.15487943589687347], [-0.06157569959759712, 0.052816908806562424, 0.01606941968202591, 0.054749757051467896, 0.05220627039670944, -0.052482590079307556, -0.06435322761535645, 0.16416658461093903, -0.05002213642001152, -0.04064014181494713], [0.0330037996172905, 0.08887717127799988, -0.08335477858781815, 0.032792117446660995, -0.009240814484655857, -0.0653335452079773, -0.10212648659944534, 0.15385191142559052, -0.05963724106550217, -0.1510273516178131], [0.029256852343678474, -0.08645100146532059, -0.053149182349443436, -0.04227874428033829, -0.012250353582203388, -0.005043327808380127, -0.07374406605958939, 0.057283155620098114, -0.003939235582947731, -0.010719208046793938], [0.04987712576985359, -0.02573927864432335, 0.06141594797372818, -0.012904440984129906, -0.021184740588068962, -0.14281952381134033, 0.04821719229221344, -0.045076847076416016, 0.035718243569135666, 0.03723787143826485], [0.03099803999066353, -0.10360066592693329, 0.05113282427191734, -0.14512483775615692, 0.005350354127585888, 0.08121102303266525, -0.03386060148477554, -0.043551184237003326, 0.08964773267507553, 0.07506531476974487], [-0.003335898043587804, -0.07523388415575027, -0.0663716122508049, -0.011712931096553802, -0.03688791021704674, -0.19316312670707703, -0.021906480193138123, 0.01058833859860897, 0.03224419429898262, 0.03964846581220627], [-0.15142911672592163, -0.07406821846961975, 0.0881236270070076, 0.05363217368721962, -0.05061661824584007, -0.05311072990298271, -0.08759423345327377, 0.07048128545284271, -0.05394794046878815, -0.11676216870546341], [-0.007537212688475847, 0.026644112542271614, -0.028464414179325104, 0.0009896868141368032, 0.05372221767902374, -0.038286153227090836, 0.05796745419502258, -0.10738924890756607, 0.039646897464990616, 0.11717800796031952], [0.04474148154258728, 0.06621139496564865, -0.07316605746746063, -0.049303434789180756, 0.09489650279283524, -0.08757483959197998, 0.004168863873928785, 0.07584751397371292, -0.013257059268653393, 0.031427111476659775], [0.10407301038503647, 0.0059900893829762936, 0.08291900902986526, -0.0593222938477993, -0.028913015499711037, -0.13980552554130554, -0.07495693862438202, -0.12266913801431656, 0.0067870160564780235, 0.08328051120042801], [-0.13896115124225616, 0.026924017816781998, 0.042031656950712204, 0.0989699736237526, 0.06817298382520676, 0.0006651011644862592, 0.027891285717487335, 0.08160682022571564, -0.12350733578205109, -0.03956799581646919], [-0.03723190352320671, 0.016732145100831985, -0.06233973428606987, -0.04007764905691147, 0.003169100033119321, 0.02784568816423416, -0.015847349539399147, 0.13940495252609253, -0.021918512880802155, -0.1175818145275116], [0.08536872267723083, -0.11307170242071152, 0.03638945147395134, 0.044806674122810364, -0.015604136511683464, -0.0169089175760746, -0.13742873072624207, 0.11128851026296616, 0.07322992384433746, -0.027129875496029854], [-0.08477000147104263, -0.05715016648173332, 0.08159851282835007, 0.09369407594203949, -0.042691852897405624, -0.1196812242269516, 0.1364290565252304, -0.05400678142905235, -0.03342583775520325, -0.027987929061055183], [-0.05711998790502548, -0.014558395370841026, -0.04945632442831993, -0.060902826488018036, 0.02754560485482216, 0.09837779402732849, -0.015110190957784653, -0.09636972099542618, 0.1067860871553421, 0.011791840195655823], [-0.053699295967817307, -0.10586277395486832, 0.06374693661928177, 0.054210931062698364, -0.04598970711231232, -0.15606831014156342, 0.02767452783882618, -0.02388397417962551, 0.07995641976594925, 0.00721800746396184], [-0.07916799187660217, -0.02990870177745819, 0.017256135120987892, -0.03505563363432884, -0.020522693172097206, 0.06309840828180313, -0.07860904932022095, 0.14009599387645721, -0.01702793873846531, 0.007820362225174904], [0.02897718735039234, 0.010834956541657448, -0.07719236612319946, 0.030202127993106842, 0.11043690145015717, -0.1170237734913826, 0.025012953206896782, -0.11204678565263748, 0.00710892491042614, 0.11138767004013062], [0.04651777073740959, 0.10898254066705704, -0.11802038550376892, 0.08280183374881744, 0.14579449594020844, -0.018013445660471916, -0.042289141565561295, 0.0771280974149704, 0.02165110409259796, -0.11139718443155289], [0.04252958297729492, -0.12699323892593384, 0.06944075226783752, -0.0368492566049099, 0.01149154081940651, -0.1055656373500824, -0.03567056357860565, -0.03751791641116142, 0.0031190363224595785, 0.02712864615023136], [-0.06868348270654678, 0.04303918406367302, 0.05993491783738136, -0.02356642298400402, 0.11374247074127197, 0.05305324122309685, -0.11052826046943665, 0.1060115396976471, -0.07035593688488007, -0.07569094002246857], [-0.08165870606899261, -0.05909796431660652, -0.010425105690956116, 0.0524807833135128, -0.008210450410842896, -0.021400798112154007, 0.06800170987844467, 0.06523019820451736, 0.026605552062392235, -0.04478629678487778], [-0.026172375306487083, -0.11201897263526917, -0.019640078768134117, 0.03195039555430412, 0.04864225909113884, -0.050127677619457245, -0.09243548661470413, 0.11719556152820587, 0.08267899602651596, 0.0004395800642669201], [-0.051809947937726974, -0.013612313196063042, 0.039373911917209625, 0.08660754561424255, -0.05383654311299324, -0.05235495790839195, -0.0641113743185997, -0.115810327231884, -0.010713037103414536, -0.09681979566812515], [-0.10606871545314789, -0.0648990273475647, -0.15544216334819794, -0.02802889049053192, 0.07552552223205566, -0.09115616232156754, 0.13097381591796875, 0.0902571976184845, 0.07211190462112427, -0.07615340501070023], [-0.0490105003118515, -0.028314469382166862, -0.021474407985806465, -0.02511044591665268, 0.006183289457112551, -0.021499792113900185, 0.07553848624229431, -0.09739145636558533, 0.01667860895395279, 0.05391621217131615], [-0.09883289784193039, -0.006622214335948229, -0.018269002437591553, -0.07218585163354874, 0.023100802674889565, 0.11921317130327225, -0.08146686851978302, 0.09932692348957062, 0.03336741775274277, -0.07616400718688965], [-0.0010159655939787626, 0.1062394306063652, -0.1398889720439911, -0.10417643189430237, 0.15521764755249023, -0.05229685828089714, 0.2502017617225647, -0.06630342453718185, 0.013370255939662457, -0.05632350593805313], [-0.07813145220279694, 0.01933559775352478, -0.12002807855606079, -0.007698113564401865, 0.24764735996723175, -0.0506165586411953, -0.040444668382406235, 0.1129726991057396, 0.012889739125967026, -0.1702224463224411], [0.0045807454735040665, -0.11842302978038788, 0.06032934784889221, -0.017259865999221802, -0.07638338953256607, -0.06242801621556282, 0.030916232615709305, -0.07378392666578293, 0.031933095306158066, -0.01800299622118473], [-0.06098959222435951, -0.04259002208709717, 0.06579270213842392, -0.023680493235588074, -0.01926502026617527, -0.047654081135988235, 2.4965276679722592e-05, -0.020730407908558846, -0.024278253316879272, -0.09531433135271072], [-0.13107098639011383, -0.0674470067024231, -0.014763427898287773, 0.07506721466779709, 0.023801418021321297, 0.06909778714179993, -0.0029029683209955692, 0.13055725395679474, -0.008617592044174671, -0.10058294236660004], [0.030183855444192886, -0.008264183066785336, 0.059179097414016724, -0.03655562177300453, -0.03514399752020836, -0.04188283905386925, -0.08801630139350891, 0.02337915636599064, -0.0031778840348124504, 0.08334581553936005], [-0.05819030851125717, -0.008662606589496136, 0.0528329461812973, 0.10016916692256927, 0.06354216486215591, -0.12263597548007965, -0.11616110056638718, -0.13401435315608978, -0.02596239186823368, -0.13348689675331116], [-0.05204807594418526, 0.015211319550871849, -0.11668874323368073, -0.08459272980690002, 0.138675257563591, -0.049229420721530914, 0.22491984069347382, -0.020296337082982063, 0.04778825864195824, -0.021054981276392937], [-0.10107097029685974, -0.12532779574394226, 0.07675813138484955, -0.009558795019984245, -0.10303359478712082, -0.024833500385284424, 0.0696236863732338, -0.042689044028520584, 0.07486753165721893, 0.09594111889600754], [-0.043176982551813126, -0.020301148295402527, -0.024514002725481987, -0.06094326823949814, -0.009615014307200909, -0.011363555677235126, -0.05335484817624092, 0.1686885803937912, -0.07444185018539429, 0.05979097634553909], [0.056127771735191345, 0.06983810663223267, -0.04289086163043976, -0.09426247328519821, 0.250678688287735, -0.037492286413908005, 0.17193733155727386, -0.01552064809948206, 0.0499880351126194, -0.053777486085891724], [-0.038607895374298096, -0.08344420045614243, -0.0771036446094513, 0.048911526799201965, 0.13763658702373505, -0.06374218314886093, 0.009824954904615879, 0.10123620182275772, -0.0654284730553627, -0.15306356549263], [-0.022804148495197296, -0.08807506412267685, 0.09520566463470459, 0.09466839581727982, -0.0016226033912971616, -0.03397545590996742, -0.02365521341562271, -0.041776061058044434, 0.020982423797249794, -0.01658707857131958], [-0.006953871343284845, -0.027974039316177368, 0.04608329012989998, 0.0993644967675209, -0.0026038005016744137, -0.07624149322509766, -0.14969098567962646, -0.06391652673482895, 0.02988443151116371, -0.005867382511496544], [-0.07189798355102539, 0.04797462373971939, 0.05803849920630455, -0.006268835160881281, -0.018707314506173134, 0.0625317394733429, 0.018357478082180023, 0.04096850007772446, -0.045329246670007706, 0.1056819036602974], [0.026522723957896233, -0.08804798126220703, 0.002140812575817108, 0.055636849254369736, -0.10874509811401367, -0.05145009607076645, -0.014178730547428131, -0.06045795604586601, 0.04239655286073685, 0.12844572961330414], [0.06405195593833923, -0.14015257358551025, 0.08929816633462906, 0.08525204658508301, -0.07114138454198837, -0.08190096169710159, -0.11008990556001663, 0.017239999026060104, -0.033901315182447433, -0.06304363906383514], [-0.019510826095938683, 0.12077000737190247, -0.01987326145172119, -0.0787544697523117, 0.23410329222679138, -0.07810327410697937, 0.16351480782032013, -0.13532288372516632, 0.04684431850910187, -0.04382644593715668], [-0.1072300374507904, -0.16244584321975708, -0.04943999648094177, -0.06328460574150085, -0.06513787060976028, -0.1190982386469841, -0.026044297963380814, -0.06875985860824585, 0.13431872427463531, 0.11148181557655334], [-0.03740683197975159, 0.09162472188472748, -0.04752296954393387, -0.09104295074939728, -0.0039308215491473675, 0.037565868347883224, -0.08886243402957916, 0.07512697577476501, -0.02667922154068947, 0.0553261861205101], [0.038241468369960785, 0.07908943295478821, -0.007776291109621525, 0.02688244916498661, 0.18707460165023804, -0.10078714042901993, 0.09848049283027649, -0.0281753558665514, 0.012845641002058983, -0.09267441928386688], [-0.07298282533884048, 0.0014110858319327235, 0.07232063263654709, 0.09030937403440475, 0.049024686217308044, 0.0628843829035759, -0.0914871096611023, -0.010105556808412075, 0.02662392519414425, 0.0558515340089798], [-0.0009602197096683085, -0.06744156777858734, 0.0029831298161298037, -0.041294001042842865, -0.06857318431138992, -0.03789665177464485, 0.003670245409011841, -0.042242102324962616, -0.05062299966812134, -0.06694839894771576], [0.059752948582172394, -0.027214093133807182, 0.015039730817079544, -0.03154610097408295, 0.00971363577991724, 0.06119512394070625, -0.06995163857936859, -0.05809564143419266, -0.04661836102604866, -0.052836205810308456], [-0.024427294731140137, -0.06142818555235863, 0.10217435657978058, 0.045025646686553955, 0.04903922602534294, 0.01811620406806469, 0.04958488047122955, 0.008910746313631535, 0.022568562999367714, 0.016369979828596115], [-0.047220196574926376, -0.08570887893438339, 0.027947084978222847, 0.06300793588161469, -0.040248654782772064, 0.018958013504743576, -0.09761796146631241, 0.017547566443681717, -0.04769442602992058, 0.11867386102676392], [0.019124405458569527, -0.017525389790534973, 0.10717698931694031, 0.08610928058624268, 0.020108258351683617, 0.012811086140573025, -0.04957691207528114, -0.06006965413689613, -0.01899050921201706, -0.024966537952423096], [0.043941304087638855, 0.20764872431755066, -0.13170939683914185, -0.1520307958126068, 0.27942603826522827, -0.0938345268368721, 0.1190636083483696, -0.11203891038894653, 0.0017545897280797362, -0.08198593556880951], [-0.14242269098758698, -0.11933666467666626, -0.011166674084961414, 0.05198267474770546, -0.06096748635172844, -0.09594230353832245, 0.029666712507605553, -0.11992231011390686, 0.02220824733376503, 0.059233613312244415], [0.06036524474620819, 0.012921447865664959, -0.02438686601817608, -0.07323567569255829, 0.06863371282815933, -0.013078468851745129, -0.08110307157039642, 0.010633327066898346, -0.13348615169525146, -0.02630382962524891], [-0.01154120173305273, 0.12324323505163193, -0.10045730322599411, 0.05246270075440407, 0.28158262372016907, 0.008795404806733131, 0.05932750180363655, 0.0144087765365839, 0.013750909827649593, -0.2196941077709198], [-0.11039216816425323, 0.014281782321631908, 0.017697995528578758, 0.052686870098114014, -0.07547707855701447, 0.07405233383178711, 0.014674329198896885, -0.04949130117893219, -0.06543384492397308, 0.06301736831665039], [0.04496700316667557, -0.08702672272920609, -0.07744941115379333, 0.007147114258259535, -0.016790689900517464, 0.0804399624466896, 0.0623885877430439, -0.029112493619322777, -0.033453281968832016, -0.06429209560155869], [0.052679967135190964, 0.012915887869894505, 0.06114790961146355, 0.0820007175207138, 0.11473394185304642, -0.02814517356455326, -0.0537373423576355, -0.037714313715696335, -0.012380513362586498, -0.002860498381778598], [-0.08383029699325562, -0.08444980531930923, 0.05895262211561203, 0.09114888310432434, -0.041912589222192764, -0.0004778588190674782, -0.03721820190548897, -0.0334862656891346, 0.03617404028773308, 0.038108568638563156], [-0.012424048036336899, -0.07416187971830368, -0.10172765702009201, 0.04210304468870163, -0.07056804746389389, 0.04658021405339241, -0.1094106137752533, 0.003947620280086994, 0.01910610869526863, 0.1042463406920433], [0.051791682839393616, 0.09335878491401672, -0.023691430687904358, -0.024284830316901207, 0.03319771960377693, -0.02191408909857273, 0.04640205577015877, -0.0845835879445076, 0.008134081959724426, -0.026199234649538994], [-0.13406489789485931, 0.27591216564178467, -0.1650540828704834, 0.01043141819536686, 0.2581073045730591, 0.02667590230703354, 0.16430892050266266, -0.12436171621084213, -0.06823473423719406, -0.16081202030181885], [-0.02720949612557888, -0.10782887786626816, -0.044735319912433624, 0.09617514908313751, -0.09481716901063919, 0.01875276118516922, 0.09914898872375488, -0.08117539435625076, 0.08911996334791183, 0.011538679711520672], [0.04553194344043732, -0.06678640097379684, 0.023274537175893784, -0.06070202961564064, 0.06867283582687378, -0.04310543090105057, -0.06487564742565155, 0.13827170431613922, 0.011488557793200016, -0.06521593034267426], [-0.06503836810588837, 0.18592815101146698, -0.033657558262348175, -0.03804469853639603, 0.299511581659317, -0.023298734799027443, 0.012007146142423153, -0.0051071979105472565, -0.04367297515273094, -0.19287709891796112], [-0.07040581852197647, -0.0740300863981247, -0.053254786878824234, 0.006450301967561245, 0.022337187081575394, 0.0017866195412352681, -0.017997145652770996, 0.0404730886220932, -0.02971525676548481, 0.0145498001947999], [0.0014374189777299762, -0.05688668042421341, 0.013207289390265942, -0.039172034710645676, -0.09370223432779312, 0.02131495624780655, 0.11066267639398575, 0.031571730971336365, -0.046474888920784, 0.03311484679579735], [0.006597819272428751, -0.05776986479759216, 0.08531757444143295, -0.0539027564227581, 0.15416260063648224, -0.04630041494965553, -0.10896338522434235, -0.031729307025671005, -0.04407571628689766, 0.007944198325276375], [-0.030727962031960487, -0.020700832828879356, -0.02877454273402691, -0.04611256346106529, 0.08895809948444366, -0.03019784949719906, -0.10517336428165436, -0.05439876392483711, 0.01830998994410038, -0.023255379870533943], [0.05798153206706047, -0.03703821077942848, -0.055673643946647644, -0.0016275213565677404, 0.033536795526742935, 0.07187213748693466, 0.02599366195499897, 0.05635832995176315, 0.11842478066682816, 0.17339207231998444], [-0.005235570017248392, -0.03442481905221939, -0.04116553068161011, -0.0527297742664814, 0.010168050415813923, 0.0495532862842083, -0.04075155407190323, -0.08625360578298569, 0.04362789914011955, -0.057696741074323654], [-0.12127893418073654, 0.09789303690195084, -0.11198465526103973, -0.053040362894535065, 0.26575732231140137, 0.051200948655605316, 0.09415502101182938, 0.014427355490624905, 0.0067876409739255905, -0.16458660364151], [0.027266202494502068, 0.021195586770772934, -0.14052066206932068, 0.08892466127872467, -0.01702617108821869, -0.008131560869514942, -0.0031844498589634895, -0.07095823436975479, 0.0030062824953347445, -0.06432051956653595], [0.07906801253557205, 0.027737190946936607, -0.022446537390351295, 0.053093891590833664, 0.04118053987622261, -0.08011753112077713, 0.03565229848027229, 0.013212916441261768, 0.060174763202667236, -0.042233094573020935], [-0.12534044682979584, 0.051293522119522095, -0.09783407300710678, 0.016569606959819794, 0.16985024511814117, -0.05167245864868164, -0.010974006727337837, 0.0008191184606403112, 0.029390327632427216, -0.045194752514362335], [0.06395688652992249, -0.03180742263793945, -0.0016225529834628105, 0.06811368465423584, -0.09529787302017212, -0.055761609226465225, -0.0599033497273922, -0.007431464735418558, 0.0001734105753712356, 0.12457682937383652], [-0.011273767799139023, -0.05187154561281204, -0.10627654194831848, -0.10280643403530121, -0.13166241347789764, 0.014163023792207241, 0.1355152726173401, -0.0589134581387043, 0.05069972947239876, 0.1336805820465088], [0.04825161397457123, -0.06288792192935944, -0.04777972400188446, -0.06995926797389984, 0.08158140629529953, -0.028365349397063255, -0.0717366486787796, 0.01337794866412878, -0.05282169580459595, -0.03640899062156677], [-0.09599848836660385, -0.012693111784756184, -0.0819515734910965, -0.02956506796181202, 0.12469685077667236, 0.030830932781100273, -0.10975348204374313, 0.03593742847442627, 0.026678884401917458, -0.12430175393819809], [0.03386514261364937, 0.03661361336708069, -0.14549744129180908, -0.07957272976636887, -0.030068932101130486, 0.1616034358739853, -0.05582170933485031, 0.05914750695228577, -0.014937189407646656, 0.07383343577384949], [-0.08553215861320496, -0.061060648411512375, -0.009532978758215904, -0.02328416146337986, -0.06181957572698593, 0.09880539029836655, 0.08070540428161621, -0.08590295910835266, 0.01286829449236393, -0.03045540675520897], [-0.08435100317001343, 0.08828867226839066, -0.08965689688920975, -0.011761815287172794, 0.16897353529930115, 0.1522798240184784, 0.08245788514614105, -0.03327326104044914, 0.12675738334655762, -0.22329701483249664], [0.021089443936944008, 0.01698455773293972, -0.15216438472270966, -0.0012777054216712713, 0.11047494411468506, -0.04388710856437683, -0.03756684809923172, -0.14413249492645264, 0.017105285078287125, -0.08600951731204987], [-0.003182670334354043, -0.02308468520641327, 0.11012397706508636, -0.0703522264957428, 0.06248399242758751, -0.04504825547337532, 0.03439851477742195, 0.008309251628816128, 0.025480909273028374, 0.03481852263212204], [-0.0533149428665638, 0.07737410813570023, 0.016416070982813835, -0.002140868455171585, 0.042233631014823914, -0.014456943608820438, 0.038867685943841934, -0.06714391708374023, 0.048888906836509705, -0.032884277403354645], [0.08459465205669403, 0.08686520159244537, 0.022937627509236336, -0.0041994936764240265, 0.031727589666843414, 0.008288100361824036, 0.05820609629154205, 0.047749049961566925, -0.006030285730957985, 0.06744806468486786], [-0.07858002930879593, -0.011342864483594894, -0.01809200644493103, 0.003356377361342311, -0.016182877123355865, 0.043618109077215195, 0.20004285871982574, -0.07497750967741013, -0.004166024271398783, 0.04140010476112366], [-0.04690207540988922, 0.0748014897108078, 0.06019778177142143, -0.041452109813690186, 0.08878596127033234, -7.835790165700018e-05, -0.11914472281932831, 0.02598697505891323, -0.0774778351187706, -0.0710231363773346], [-0.13582493364810944, 0.07455232739448547, -0.04324284940958023, -0.06919931620359421, 0.13780368864536285, 0.06727753579616547, -0.02824564464390278, -0.07139236479997635, 0.08435170352458954, -0.1757095456123352], [-0.043105706572532654, -0.02770109288394451, -0.11510013043880463, -0.08690265566110611, -0.012089935131371021, 0.11072123050689697, 0.021218344569206238, 0.04366634786128998, 0.11859822273254395, 0.07416722923517227], [0.021288560703396797, -0.007567671127617359, -0.11803597956895828, -0.13823577761650085, -0.058751847594976425, 0.00650515453889966, 0.16613687574863434, 0.02137807011604309, 0.09268784523010254, 0.1463019698858261], [-0.1389840543270111, 0.030789174139499664, -0.05639352649450302, 0.06418190151453018, 0.0819338858127594, -0.040955573320388794, 0.006297741550952196, -0.08897921442985535, -0.034251995384693146, -0.11341378837823868], [-0.024329571053385735, -0.03400815278291702, -0.10919088125228882, 0.043153420090675354, 0.17920342087745667, 0.05434315651655197, 0.04383480176329613, -0.07645806670188904, 0.07996811717748642, -0.09535591304302216], [-0.0114838732406497, 0.02972392737865448, 0.13440319895744324, 0.01587681472301483, -0.00043712210026569664, 0.13165602087974548, -0.07457757741212845, 0.08374181389808655, 0.002374387579038739, -0.14230945706367493], [0.1040615513920784, -0.04503708705306053, -0.04398546367883682, -0.006328190676867962, 0.15849268436431885, -0.08669929206371307, 0.06442160904407501, -0.11177842319011688, 0.03336821869015694, 0.013898339122533798], [0.003169076517224312, 0.03475918248295784, -0.052186135202646255, 0.04679357632994652, 0.028017861768603325, -0.06760300695896149, -0.11260703951120377, -0.08241712301969528, -0.003939423244446516, -0.050922054797410965], [-0.023000620305538177, -0.028261324390769005, -0.029571251943707466, 0.04349692538380623, 0.01350797712802887, -0.09831643849611282, -0.07185854017734528, -0.015558185987174511, 0.11457043141126633, 0.06190177798271179], [-0.050573334097862244, -0.0737396851181984, -0.0073778992518782616, 0.07324323058128357, -0.017360368743538857, -0.056966133415699005, 0.011715056374669075, 0.10802870988845825, -0.04356043040752411, -0.10490795224905014], [-0.037200234830379486, 0.10753591358661652, 0.03091726452112198, 0.1297023594379425, 0.04427318274974823, -0.10579750686883926, -0.026632849127054214, -0.012214155867695808, -0.05297680199146271, 0.0579744391143322], [-0.01889636553823948, -0.1063108891248703, 0.02520653046667576, 0.19551482796669006, -0.11933465301990509, -0.2003449946641922, -0.0806228294968605, -0.01982208900153637, 0.09883268177509308, 0.16293403506278992], [-0.03945469856262207, -0.08522756397724152, -0.054837606847286224, -0.10557249933481216, 0.07318507134914398, 0.04103924334049225, 0.08028136938810349, 0.04684973880648613, -0.004049641080200672, -0.049952514469623566], [0.0798729658126831, 0.019541725516319275, 0.005509678740054369, -0.14505717158317566, -0.007770913653075695, 0.023253455758094788, 0.018569769337773323, -0.19233016669750214, 0.04979107156395912, 0.10224513709545135], [-0.061278387904167175, -0.09152282774448395, -0.0659438893198967, 0.05593094229698181, -0.03265034034848213, -0.04231730476021767, -0.0017768586985766888, -0.057579491287469864, 0.07488062977790833, -0.06395384669303894], [-0.0402953214943409, -0.05196382850408554, -0.0008673280826769769, -0.010349957272410393, 0.05153442546725273, 0.048824064433574677, -0.016398154199123383, 0.029677797108888626, -0.013734805397689342, 0.019812582060694695], [-0.034450724720954895, -0.021422721445560455, -0.10570511966943741, -0.09955348074436188, 0.06406792253255844, 0.019399236887693405, 0.14382237195968628, -0.04638224095106125, 0.08690494298934937, 0.0818445235490799], [0.04075174778699875, 0.041819918900728226, -0.009708365425467491, 0.07646653056144714, 0.0071763088926672935, -0.1686049997806549, 0.06438804417848587, 0.09182316809892654, 0.07145462930202484, -0.06140902265906334], [-0.03922773152589798, 0.10100838541984558, 0.0729178786277771, 0.11476268619298935, 0.041802965104579926, -0.045402660965919495, -0.08728345483541489, -0.021158304065465927, -0.04337666556239128, 0.05226482078433037], [0.04488740488886833, -0.023854129016399384, -0.04207924008369446, 0.041030313819646835, 0.02075321599841118, -0.014887349680066109, 0.06639581173658371, 0.0036630546674132347, -0.008349837735295296, -0.009962757118046284], [0.0349607989192009, -0.08239682018756866, 0.007736392319202423, 0.03404268994927406, -0.013562348671257496, -0.08497874438762665, 0.018205687403678894, -0.027938665822148323, 0.0133680934086442, -0.05357660353183746], [0.02021644078195095, -0.04330441728234291, 0.024561142548918724, 0.04448555037379265, -0.2116561383008957, -0.21371187269687653, -0.03694376349449158, -0.019481372088193893, -0.017275875434279442, 0.10184185206890106], [-0.05644349008798599, 0.013187266886234283, -0.014165506698191166, 0.08441896736621857, 0.0778902918100357, 0.1595163196325302, -0.06989609450101852, -0.035073421895504, -0.09589561820030212, -0.06535417586565018], [-0.014327752403914928, -0.0278873723000288, -0.013512714765965939, -0.09272736310958862, 0.03576061129570007, -0.04259362816810608, 0.1297065019607544, -0.07125066220760345, -0.042212288826704025, 0.05337749049067497], [-0.09114503860473633, 0.0012954854173585773, -0.021880390122532845, 0.063557468354702, -0.051931481808423996, -0.019536256790161133, 0.06488087028265, -0.09108303487300873, 0.07596173137426376, 0.12430472671985626], [-0.08179760724306107, -0.04408321529626846, 0.0407087504863739, -0.03523583710193634, 0.11884059011936188, 0.0215157438069582, -0.05191479250788689, -0.005653601139783859, -0.04429403692483902, -0.001643964322283864], [0.05319616571068764, -0.03298386186361313, -0.06632742285728455, -0.002711500274017453, 0.225666344165802, 0.04845666140317917, 0.03443744406104088, -0.05655825510621071, 0.021380053833127022, 0.03651782497763634], [0.03164612129330635, 0.11732599884271622, 0.05122002214193344, -0.015582050196826458, 0.11193899065256119, -0.12517625093460083, 0.004970800597220659, 0.23863112926483154, -0.0650240108370781, -0.18880507349967957], [-0.03972106799483299, -0.07080711424350739, 0.03597544506192207, 0.19297774136066437, -0.018431855365633965, -0.12208002060651779, -0.10970649868249893, 0.06344245374202728, -0.055988848209381104, -0.011432964354753494], [0.011488275602459908, 0.0011526943417266011, -0.025465838611125946, -0.031002717092633247, -0.01392962783575058, 0.0634891465306282, 0.03229899704456329, 0.02609548158943653, -0.048826634883880615, 0.04174842685461044], [-0.028143132105469704, 0.012589194811880589, 0.005178513936698437, -0.06383296847343445, 0.027616417035460472, -0.002337587531656027, 0.09651891887187958, -0.03753088787198067, 0.02511044777929783, 0.049169331789016724], [-0.0412684790790081, -0.15873311460018158, -0.002325992099940777, 0.09719236195087433, -0.09723405539989471, -0.14499525725841522, -0.11214852333068848, 0.054901279509067535, 0.10896407067775726, 0.1512926071882248], [0.008676585741341114, -0.012306712567806244, -0.024370092898607254, 0.05018474534153938, -0.009104836732149124, 0.056068383157253265, -0.15628911554813385, -0.026746338233351707, -0.07434194535017014, -0.15777279436588287], [-0.04910501092672348, 0.03233703225851059, 0.07115650177001953, -0.13120119273662567, 0.20664703845977783, 0.04535897076129913, 0.05896369740366936, -0.0982477068901062, 0.021696439012885094, 0.09674948453903198], [-0.03307319059967995, -0.13987213373184204, -0.07282337546348572, 0.1752360761165619, -0.09975208342075348, -0.13547161221504211, -0.027866492047905922, -0.1364932656288147, 0.042747918516397476, 0.07212510704994202], [0.046775903552770615, 0.02002568356692791, 0.034331511706113815, -0.06157071888446808, 0.0032295482233166695, -0.0007827620138414204, -0.06723498553037643, -0.046648625284433365, -0.038066454231739044, -0.037770699709653854], [0.07999705523252487, 0.022506704553961754, -0.13055236637592316, -0.10312220454216003, 0.24424917995929718, 0.04577827453613281, 0.1260213851928711, -0.12617254257202148, 0.055987805128097534, -0.10592618584632874], [0.02433585375547409, -0.036334071308374405, -0.025660643354058266, -0.038242146372795105, 0.11173369735479355, 0.03265451267361641, -0.02866109274327755, 0.18961527943611145, 0.0424477681517601, -0.12704423069953918], [0.048936523497104645, -0.05699275806546211, 0.10339543968439102, 0.1625392884016037, -0.06108378246426582, -0.007559987250715494, -0.02586769126355648, 0.0853864997625351, -0.08942409604787827, 0.027537928894162178], [-0.007007678970694542, 0.04150375723838806, -0.04856177419424057, 0.008664757013320923, 0.05102186277508736, 0.03308691829442978, -0.09438392519950867, -0.035942770540714264, -0.016076523810625076, -0.017690984532237053], [7.91806960478425e-05, -0.1326504349708557, -0.047277726233005524, -0.08697906136512756, -0.013267296366393566, -0.0068079144693911076, -0.01423463225364685, 0.0803578794002533, 0.1010558009147644, 0.0684993639588356], [0.0007739675347693264, -0.19035805761814117, 0.07540187239646912, 0.07436766475439072, -0.2317965030670166, -0.13719269633293152, -0.1516554206609726, 0.04311613366007805, 0.07413437962532043, 0.23390939831733704], [-0.03075612150132656, 0.020703261718153954, 0.048497021198272705, 0.10641933977603912, -0.04606841877102852, -0.05098540335893631, -0.1899779736995697, 0.011033297516405582, 0.01971307210624218, 0.003782715881243348], [0.017292505130171776, 0.01123403012752533, -0.05761531740427017, -0.06627050787210464, 0.23183037340641022, 0.07925277203321457, 0.217959463596344, -0.0902455672621727, -0.012854152359068394, 0.047528136521577835], [-0.034666914492845535, -0.07507411390542984, -0.0013086549006402493, 0.01545831561088562, -0.10368265211582184, -0.02701469510793686, -0.027393678203225136, -0.0002615596167743206, 0.03320783004164696, 0.1108628660440445], [0.06982578337192535, 0.05709409341216087, 0.008587132208049297, -0.024017909541726112, 0.051142528653144836, -0.03907359391450882, 0.030509892851114273, 0.1269111931324005, -0.02840309590101242, -0.08361770957708359], [-0.013341493904590607, 0.05840040370821953, 0.002354890340939164, -0.08730725198984146, 0.22660785913467407, 0.05986706167459488, 0.19350288808345795, -0.04465925320982933, -0.05833159387111664, -0.1505998820066452], [-0.10576454550027847, -0.16301463544368744, 0.021743401885032654, -0.04919901117682457, 0.1542453020811081, -0.033499717712402344, -0.022113578394055367, 0.05625446140766144, -0.021578075364232063, -0.07270829379558563], [0.006370278540998697, -0.12660185992717743, 0.07822132855653763, -0.005046624690294266, -0.14592276513576508, 0.05595313385128975, -0.11740021407604218, 0.05947959050536156, -0.06819501519203186, -0.023203421384096146], [0.04074450582265854, -0.021172529086470604, 0.044019315391778946, 0.0718468651175499, -0.034391824156045914, -0.03626261651515961, -0.06856056302785873, -0.052034687250852585, -0.039803702384233475, -0.008163333870470524], [-0.03168567642569542, -0.03633590042591095, -0.030794158577919006, -0.08728426694869995, -0.10397160053253174, -0.02808995358645916, -0.01685124635696411, 0.011924964375793934, 0.006760198622941971, 0.02923528105020523], [-0.06667579710483551, -0.13112911581993103, 0.03311813250184059, -0.031511835753917694, -0.14370258152484894, -0.07184968888759613, -0.045239925384521484, 0.09641066193580627, 0.07928916066884995, 0.22643832862377167], [0.06590133905410767, -0.1746123880147934, 0.02699960768222809, 0.060410529375076294, -0.14644767343997955, -0.1496589034795761, -0.08408286422491074, -0.028640100732445717, 0.03934672102332115, 0.05239460989832878], [0.051575031131505966, 0.08543072640895844, 0.0016560615040361881, -0.16497822105884552, 0.29249972105026245, -0.011045596562325954, 0.2012246549129486, -0.05891037359833717, -0.06274069845676422, -0.17661795020103455], [-0.017736069858074188, -0.12777599692344666, -0.018399495631456375, 0.07938109338283539, -0.023253779858350754, -0.1098981648683548, -0.030169758945703506, -0.08434416353702545, 0.018348393961787224, 0.0218946672976017], [0.02749621868133545, 0.20063063502311707, -0.01116056740283966, -0.01696833036839962, 0.05203629285097122, 0.14498020708560944, 0.01968085765838623, 0.0503273569047451, -0.17099756002426147, -0.16303277015686035], [-0.07167842239141464, 0.23065410554409027, -0.04732394963502884, -0.07061126828193665, 0.3631427586078644, -0.03810103237628937, 0.027175379917025566, -0.021757371723651886, -0.07546982914209366, -0.16461680829524994], [-0.08175379037857056, -0.08640434592962265, -0.031023453921079636, 0.06679904460906982, 0.10311847180128098, -0.002970422152429819, -0.16296344995498657, 0.11980827152729034, 0.05113458260893822, -0.17382100224494934], [0.028820712119340897, -0.008676980622112751, -0.005290761590003967, -0.09120745956897736, -0.16684657335281372, 0.15032638609409332, -0.031178763136267662, 0.052464809268713, -0.1348438262939453, 0.08482761681079865], [-0.048162151128053665, -0.02296246774494648, 0.0034691733308136463, 0.16102513670921326, 0.10466983914375305, 0.01921340636909008, 0.03620510548353195, -0.030552765354514122, -0.0259996484965086, -0.098444364964962], [-0.11021479219198227, -0.027796363458037376, 0.05008591711521149, -0.03867216780781746, -0.10918216407299042, 0.007575938478112221, 0.0872589498758316, 0.036670982837677, -0.0026255317497998476, -0.03602973371744156], [0.06130628287792206, -0.05567416548728943, -0.04329109936952591, 0.00907361600548029, -0.16104939579963684, 0.12596556544303894, 0.00335693359375, 0.06305491179227829, 0.024914316833019257, -0.005880965851247311], [-0.008630581200122833, -0.11374988406896591, -0.024827830493450165, 0.04736064374446869, -0.09876450896263123, 0.025433599948883057, -0.12242084741592407, -0.06007056310772896, 0.12575092911720276, 0.03679694980382919], [-0.07485587894916534, 0.2332085371017456, -0.10242307186126709, 0.020590590313076973, 0.342524915933609, 0.0300368070602417, 0.225862517952919, -0.025417510420084, 0.0019267303869128227, -0.14816351234912872], [-0.07972121238708496, -0.045020051300525665, 0.08513369411230087, 0.042495567351579666, 0.03135225549340248, 0.01790480501949787, 0.04793037474155426, -0.011018969118595123, 0.11910577863454819, 0.06592129170894623], [-0.007964493706822395, 0.09925773739814758, -0.11771334707736969, -0.020519912242889404, 0.06482473015785217, 0.05195349454879761, 0.007106384728103876, 0.047190338373184204, -0.1245599016547203, -0.06159085035324097], [-0.12235008180141449, 0.11187374591827393, -0.06733928620815277, -0.043527230620384216, 0.25600993633270264, -0.10398673266172409, 0.05593352019786835, -0.005651537794619799, -0.03701477870345116, -0.06876098364591599], [-0.02656998112797737, -0.005122573114931583, 0.037370242178440094, 0.06514043360948563, -0.02620706520974636, 0.009692792780697346, 0.005632959306240082, 0.11170317232608795, 0.10549338907003403, -0.0873909443616867], [0.04416681081056595, -0.09676485508680344, -0.0895492359995842, -0.030145151540637016, -0.13197581470012665, 0.17996999621391296, 0.06016566604375839, -0.06551504135131836, -0.009333743713796139, 0.030535932630300522], [-0.06772016733884811, -0.043014898896217346, 0.06562307476997375, 0.013819807209074497, 0.07535956799983978, 0.01001870259642601, -0.04573808237910271, 0.03519810363650322, 0.0560842864215374, -0.1073685884475708], [-0.10323765128850937, -0.0239764004945755, 0.060598790645599365, -0.013165567070245743, -0.014825762249529362, -0.0966118648648262, -0.020835358649492264, 0.08908948302268982, -0.06913694739341736, 0.04167278856039047], [0.03866950795054436, -0.09110409021377563, -0.14927469193935394, -0.040274690836668015, -0.14246585965156555, 0.18914064764976501, 0.03095102310180664, 0.0830579623579979, -0.06155804544687271, 0.10122338682413101], [0.08316025137901306, -0.1290559470653534, 0.0753864049911499, -0.08022268861532211, -0.09213559329509735, 0.06260135769844055, 0.035898756235837936, -0.027827724814414978, 0.044190529733896255, 0.04025648906826973], [-0.1266394406557083, 0.2833247780799866, -0.14004060626029968, 0.02015511877834797, 0.3832765519618988, -0.09298038482666016, 0.15510344505310059, -0.004856795072555542, -0.01412846427410841, -0.08951818943023682], [-0.04049001634120941, -0.016886988654732704, -0.050593532621860504, 0.018290311098098755, -0.013066518120467663, 0.0677478238940239, -0.08707881718873978, 0.012502052821218967, -0.008031346835196018, -0.001720141968689859], [-0.09943857789039612, 0.0757131353020668, -0.02237745374441147, -0.043911490589380264, 0.031114641577005386, 0.08874442428350449, -0.03222675994038582, 0.1306723803281784, -0.135985866189003, -0.059533167630434036], [-0.13813495635986328, 0.02446184866130352, -0.06512736529111862, -0.0422406941652298, 0.18818159401416779, -0.0871860682964325, 0.03005507029592991, -0.08000784367322922, 0.00473620742559433, -0.11801833659410477], [-0.009326179511845112, -0.030431309714913368, 0.04134227707982063, 0.0018107144860550761, 0.011090511456131935, 0.0050668115727603436, -0.09930185228586197, 0.07314076274633408, -0.019132183864712715, -0.005816083867102861], [0.0017578302649781108, 0.006476588547229767, -0.09126560389995575, -0.03971423953771591, -0.06845127791166306, 0.10249140113592148, 0.17474763095378876, -0.03253692016005516, -0.07493535429239273, 0.08582688868045807], [0.037179045379161835, -0.12099058926105499, 0.02856801263988018, -0.04382599517703056, 0.014791637659072876, -0.0509788915514946, -0.09731760621070862, 0.07854817807674408, -0.021950725466012955, 0.014799138531088829], [-0.10076674818992615, -0.12611094117164612, 0.0009013007511384785, 0.07679983228445053, 0.04408181086182594, 0.0050364104099571705, 0.07008450478315353, 0.10611028224229813, 0.03127467259764671, -0.015287850983440876], [0.0018317962531000376, -0.09720228612422943, -0.03834746405482292, -0.09914160519838333, -0.10717058926820755, 0.2149478942155838, 0.05872608348727226, -0.002163218567147851, 0.0457904152572155, -0.009208088740706444], [-0.07830534130334854, -0.08745031803846359, 0.06585752218961716, -0.017683306708931923, -0.00846079457551241, 0.2135618031024933, 0.09600887447595596, -0.0754270851612091, -0.03751447796821594, -0.03434981778264046], [-0.07794252038002014, 0.10123217105865479, -0.1274222880601883, 0.01608896814286709, 0.33604973554611206, -0.022297805175185204, 0.1190519854426384, 0.09463835507631302, -0.07546328008174896, -0.11093199998140335], [-0.04824366047978401, 0.04484668746590614, -0.08270303159952164, 0.020332789048552513, -0.005429868586361408, 0.0601300410926342, -0.07368162274360657, 0.10168662667274475, 0.03454845771193504, -0.05255831778049469], [-0.061276838183403015, 0.017575407400727272, -0.06930200755596161, -0.0833386704325676, 0.03591085597872734, 0.04118148609995842, -0.07003457099199295, 0.08762998133897781, 0.010637786239385605, 0.01908695511519909], [-0.05464904382824898, 0.03463492542505264, -0.15128564834594727, 0.004460299387574196, 0.08853581547737122, -0.005176045466214418, -0.00875052809715271, -0.027100272476673126, 0.09039679169654846, 