{"conv_1_1": {"kernel": [[[[0.02221205085515976, -0.26340383291244507, 0.23973748087882996, 0.15415138006210327, 0.009574231691658497, -0.13483691215515137, 0.281900554895401, -0.0860125720500946, -0.5132043957710266, -0.19602906703948975]], [[0.13378463685512543, -0.27463051676750183, -0.009456878527998924, 0.13865864276885986, -0.023479154333472252, 0.07991048693656921, 0.2510013282299042, -0.10675068944692612, -0.4626424312591553, -0.20524519681930542]], [[0.10055987536907196, -0.17719890177249908, -0.1123613491654396, -0.07383888214826584, 0.09420456737279892, -0.027134452015161514, 0.09203743189573288, 0.09132879972457886, -0.4390679895877838, -0.18934151530265808]], [[0.10471726208925247, -0.2226860672235489, -0.3573766350746155, -0.04772293567657471, 0.1314588040113449, 0.03381747379899025, 0.035449519753456116, 0.10486853122711182, -0.1892070770263672, -0.08277331292629242]], [[0.18966661393642426, -0.22346456348896027, -0.4589889645576477, 0.1310344785451889, 0.18374958634376526, -0.08520539849996567, -0.22888948023319244, 0.07288168370723724, -0.19864478707313538, 0.13224653899669647]], [[0.13772323727607727, -0.23558716475963593, -0.10802183300256729, 0.1546485722064972, 0.2615111470222473, -0.005320833530277014, -0.1462898552417755, 0.11147841066122055, -0.10891351103782654, 0.1361032873392105]], [[0.11464232206344604, -0.33315062522888184, 0.11737627536058426, 0.0002931386115960777, -0.03195580467581749, 0.004648198373615742, -0.11215031892061234, 0.1663578450679779, -0.04975251108407974, 0.2046550214290619]]], [[[0.1132885217666626, -0.12084256857633591, 0.23254717886447906, 0.18007458746433258, 0.15186549723148346, -0.020799551159143448, 0.16142046451568604, 0.20799382030963898, -0.36320793628692627, -0.29973718523979187]], [[0.19469135999679565, -0.17613112926483154, 0.12790261209011078, 0.07725406438112259, 0.24862466752529144, 0.11122442781925201, 0.00745497876778245, 0.2369496375322342, -0.5081539154052734, -0.16052329540252686]], [[0.2267092913389206, -0.3411458134651184, -0.18591469526290894, -0.03994933143258095, 0.28051823377609253, 0.088414765894413, -0.10521148145198822, 0.2007739245891571, -0.6271919012069702, 0.12896496057510376]], [[0.19883567094802856, -0.31994926929473877, -0.5364276170730591, -0.0760003998875618, 0.27689895033836365, 0.052070990204811096, -0.26194894313812256, 0.20882241427898407, -0.6001818776130676, 0.09063255786895752]], [[0.07770548015832901, -0.22552324831485748, -0.3418373763561249, 0.04450898990035057, 0.24882201850414276, 0.09521184116601944, -0.18167531490325928, 0.18693234026432037, -0.40475839376449585, 0.22093947231769562]], [[0.181214839220047, -0.24428893625736237, -0.04216286167502403, 0.13341520726680756, 0.10253553092479706, -0.11336980015039444, -0.07774100452661514, 0.14175176620483398, -0.3049635589122772, 0.20579823851585388]], [[0.16261090338230133, -0.08894874155521393, 0.19564029574394226, 0.06095340475440025, 0.0751819908618927, 0.049838196486234665, -0.038287099450826645, 0.1226431205868721, -0.38619464635849, 0.18674419820308685]]], [[[-0.21379651129245758, 0.05001210421323776, 0.3541071116924286, 0.20340478420257568, -0.11766757071018219, 0.041440561413764954, -0.010393891483545303, 0.22323496639728546, -0.031591929495334625, 0.1320217400789261]], [[-0.10340088605880737, -0.16122807562351227, 0.01851576380431652, 0.11498299986124039, 0.06549815088510513, 0.17880450189113617, -0.22763767838478088, 0.3086617588996887, -0.11977434903383255, 0.15003637969493866]], [[0.0824807658791542, -0.2675488293170929, -0.4664314091205597, -0.06763748824596405, 0.16095933318138123, 0.17123398184776306, -0.3315980136394501, 0.1508522927761078, -0.14767257869243622, 0.30396029353141785]], [[0.1433456689119339, -0.1951591521501541, -0.49732449650764465, 0.015544303692877293, 0.16070039570331573, 0.06333030760288239, -0.31217506527900696, 0.21231231093406677, -0.33721408247947693, 0.2371201068162918]], [[0.3248056173324585, -0.10246169567108154, -0.3500434160232544, 0.1600203663110733, 0.033386360853910446, -0.0656374841928482, -0.0786844864487648, 0.07881346344947815, -0.3275698721408844, 0.24794937670230865]], [[0.26255571842193604, -0.09528932720422745, 0.17170673608779907, 0.09583169221878052, 0.10701592266559601, 0.034792203456163406, 0.014805692248046398, 0.09776419401168823, -0.3246978521347046, 0.1290781944990158]], [[0.2914784550666809, 0.05634792521595955, 0.2287505865097046, 0.18268513679504395, 0.21083225309848785, 0.19851939380168915, -0.0019881511107087135, -0.04753032326698303, -0.40626096725463867, 0.13823182880878448]]], [[[-0.28772249817848206, 0.21885910630226135, 0.30125001072883606, 0.05667845904827118, -0.31631386280059814, 0.13016445934772491, -0.099119171500206, -0.02406863309442997, 0.2562311589717865, 0.24922680854797363]], [[-0.12449411302804947, 0.10519574582576752, -0.21245074272155762, 0.06014908477663994, 0.04257267713546753, 0.246521458029747, -0.22963902354240417, 0.06807870417833328, 0.0730142816901207, 0.26966097950935364]], [[-0.1227976530790329, 0.013973909430205822, -0.5767654776573181, 0.042212147265672684, 0.1653134822845459, 0.198179230093956, -0.2531209886074066, -0.10456764698028564, 0.1307055950164795, 0.2707705795764923]], [[-0.0592811293900013, 0.11459531635046005, -0.5539903044700623, -0.0011801772052422166, 0.13031497597694397, -0.026187727227807045, -0.038410887122154236, -0.23090329766273499, -0.002911798655986786, 0.27617374062538147]], [[-0.04333128407597542, 0.07056985050439835, -0.16040295362472534, 0.07063557207584381, 0.20402216911315918, 0.05218522623181343, 0.08285646885633469, -0.21215544641017914, -0.11500697582960129, 0.1403612643480301]], [[0.10053221136331558, 0.038595497608184814, 0.18155622482299805, 0.1654355525970459, 0.26575592160224915, 0.1549789160490036, -0.00541532039642334, -0.18593721091747284, -0.08917000889778137, 0.05387522652745247]], [[0.23707278072834015, 0.21326415240764618, 0.25096333026885986, 0.2506884038448334, 0.3043387830257416, 0.2900029420852661, 0.0630209743976593, -0.3071676790714264, -0.1551860272884369, 0.18741624057292938]]], [[[-0.35253673791885376, 0.08261005580425262, 0.11038599908351898, 0.006694818381220102, -0.19351182878017426, 0.21098743379116058, -0.1891850084066391, -0.2365444004535675, 0.23179949820041656, 0.04978570714592934]], [[-0.29433533549308777, 0.19471140205860138, -0.35542070865631104, -0.056880973279476166, -0.07898300886154175, 0.2449553906917572, -0.2889392673969269, -0.5178297758102417, 0.15228880941867828, 0.06832050532102585]], [[-0.35019612312316895, 0.09841536730527878, -0.6055155396461487, -0.11709669977426529, 0.20901595056056976, 0.14769627153873444, -0.12488868087530136, -0.506252110004425, 0.20873607695102692, 0.026626983657479286]], [[-0.2903064787387848, 0.13172611594200134, -0.333334743976593, 0.04399879276752472, 0.21021579205989838, 0.1190008670091629, 0.02639240026473999, -0.5464628338813782, 0.20641550421714783, -0.07288059592247009]], [[-0.2571873664855957, 0.13198810815811157, -0.01045204233378172, -0.03147481381893158, 0.19914914667606354, 0.19184629619121552, 0.124611034989357, -0.5569913387298584, 0.1830388456583023, -0.10046648234128952]], [[-0.15596702694892883, 0.2696812152862549, 0.20681582391262054, 0.05549238249659538, 0.1692299246788025, 0.043429452925920486, -0.016757536679506302, -0.44444289803504944, 0.08989247679710388, 0.025803305208683014]], [[-0.09935801476240158, 0.24123956263065338, 0.1856917440891266, 0.0404256135225296, 0.3028706908226013, 0.14139597117900848, -0.07327574491500854, -0.38872674107551575, 0.058235134929418564, -0.06563950330018997]]], [[[-0.23860716819763184, 0.18852666020393372, 0.07131754606962204, -0.19979001581668854, 0.06748785823583603, 0.021159127354621887, -0.0911995992064476, -0.4074980318546295, 0.1773686707019806, -0.07464922964572906]], [[-0.3428959548473358, 0.27219870686531067, -0.44104912877082825, -0.2694334387779236, 0.19136635959148407, 0.11523732542991638, -0.17960411310195923, -0.48466238379478455, 0.04468689486384392, -0.1575210690498352]], [[-0.27432507276535034, 0.32020843029022217, -0.3683757185935974, -0.2654678523540497, 0.2663535475730896, 0.0639050081372261, -0.03822211176156998, -0.4364777207374573, 0.030311064794659615, -0.3582182824611664]], [[-0.41953739523887634, 0.26694974303245544, -0.2811621427536011, -0.1835046410560608, 0.2838970422744751, 0.02690432406961918, 0.1665153205394745, -0.3388589024543762, 0.15828944742679596, -0.3616596460342407]], [[-0.434216171503067, 0.13606202602386475, 0.08907444775104523, -0.152931347489357, 0.22089669108390808, 0.03853096440434456, -0.020375793799757957, -0.18526498973369598, 0.06750540435314178, -0.4107764959335327]], [[-0.3888823390007019, 0.0824582576751709, 0.2231554090976715, -0.21823565661907196, 0.1435735821723938, -0.28860723972320557, -0.07559581845998764, -0.20336522161960602, 0.13291123509407043, -0.23560106754302979]], [[-0.20758016407489777, 0.1557898074388504, 0.05225368216633797, -0.048172999173402786, 0.05363719165325165, -0.398743212223053, 0.02310391515493393, -0.04317402094602585, 0.19587776064872742, -0.10531435161828995]]], [[[0.057385072112083435, 0.06660884618759155, -0.2336452603340149, -0.21647295355796814, 0.2653975188732147, 0.1284227967262268, -0.20997625589370728, -0.2143675982952118, -0.10648410022258759, -0.3769509494304657]], [[-0.06878110766410828, 0.11393348127603531, -0.38086044788360596, -0.19872695207595825, 0.3987833261489868, 0.20055460929870605, -0.20840898156166077, -0.101350799202919, 0.019977198913693428, -0.24433906376361847]], [[-0.17058473825454712, 0.162813201546669, -0.3610997200012207, -0.1369379460811615, 0.3594554364681244, 0.10397395491600037, 0.1635470688343048, 0.010311390273272991, 0.03744813799858093, -0.2975461781024933]], [[-0.19986091554164886, 0.22913481295108795, -0.07167788594961166, -0.25695592164993286, 0.20329123735427856, -0.23778660595417023, 0.05800986289978027, 0.017207112163305283, 0.008446409367024899, -0.3047703504562378]], [[-0.06880068778991699, 0.14420825242996216, 0.1136290654540062, -0.12035294622182846, 0.24082452058792114, -0.297919899225235, -0.03176761046051979, 0.0688507929444313, 0.001004959223791957, -0.13664111495018005]], [[-0.09820327907800674, 0.08503644913434982, 0.18838924169540405, -0.01627291925251484, 0.018129004165530205, -0.3730620741844177, 0.05155136436223984, 0.2012203186750412, 0.11990337073802948, -0.23016710579395294]], [[-0.16171608865261078, 0.012404457665979862, 0.0942230150103569, 0.028250539675354958, -0.005353531334549189, -0.1678287237882614, -0.07694850862026215, 0.22637800872325897, -0.056862711906433105, -0.08463890105485916]]]], "bias": [-0.2088032364845276, -0.09802086651325226, -0.19695717096328735, -0.09951633214950562, -0.09497001022100449, -0.08262002468109131, 0.14875242114067078, -0.20273518562316895, 0.0008581243455410004, -0.1838923543691635], "kernel_shape": [7, 7, 1, 10], "bias_shape": [10]}, "dense_1": {"kernel": [[-0.006821348797529936, -0.10462506860494614, -0.08571626991033554, 0.008320027962327003, 0.04075280576944351, -0.16237406432628632, 0.05838466435670853, 0.003735819598659873, 0.16502702236175537, -0.00301064713858068], [-0.06880862265825272, -0.08334276080131531, 0.006278631277382374, 0.06312388926744461, 0.02346166968345642, -0.10369879007339478, 0.10832883417606354, 0.020445194095373154, -0.021617092192173004, -0.07808170467615128], [-0.061796464025974274, -0.11887069046497345, -0.0006274842889979482, 0.02846277877688408, 0.1034751608967781, -0.04655373468995094, 0.03797515854239464, -0.010638517327606678, 0.03405655920505524, -0.04913472756743431], [-0.0788956880569458, -0.05068402737379074, -0.10877567529678345, 0.012845145538449287, 0.030292967334389687, -0.20397278666496277, 0.03477931022644043, -0.021254999563097954, 0.15201330184936523, -0.025979304686188698], [-0.015839705243706703, -0.0810178816318512, -0.028747420758008957, 0.07984527945518494, 0.03195207938551903, -0.19265316426753998, 0.13285355269908905, -0.03252791240811348, 0.05216014385223389, -0.08810493350028992], [-0.07682203501462936, -0.004493517801165581, 0.08047172427177429, 0.11016029864549637, 0.038215700536966324, -0.1290508359670639, 0.026979025453329086, -0.03780757263302803, 0.03480776026844978, 0.12218625098466873], [0.019136568531394005, 0.06172334402799606, 0.13605208694934845, -0.025685762986540794, -0.03478105366230011, 0.19639626145362854, -0.04238376021385193, 0.0912037119269371, -0.17017337679862976, 0.025892609730362892], [-0.0034667321015149355, -0.03488726168870926, -0.04318062961101532, 0.021536270156502724, -0.010702074505388737, -0.11581140011548996, 0.039212025701999664, -0.0646214634180069, 0.1872345358133316, 0.09135762602090836], [-0.0065356893464922905, 0.04127074033021927, -0.026350941509008408, 0.10252033174037933, 0.015321523882448673, -0.022567588835954666, -0.01186094805598259, 0.08870694786310196, -0.04648791253566742, -0.1693819910287857], [0.06141434237360954, -0.006984033156186342, -0.0838252529501915, -0.07913828641176224, 0.04976411536335945, -0.20973330736160278, 0.09373777359724045, -0.05364978313446045, 0.11986476927995682, 0.10003776848316193], [-0.0484815314412117, -0.02282680943608284, 0.09560340642929077, 0.02748483046889305, -0.04545612633228302, -0.15973173081874847, -0.045884907245635986, -0.07631958276033401, 0.13960860669612885, 0.04445476084947586], [-0.09068639576435089, -0.052272915840148926, -0.0003999730106443167, 0.0034129892010241747, 0.10545486956834793, -0.04228011518716812, -0.017406871542334557, 0.07679899781942368, -0.0006234042230062187, 0.0111909881234169], [0.007585867308080196, -0.10612841695547104, 0.011886718682944775, -0.052515659481287, 0.013010958209633827, 0.09272226691246033, -0.036971721798181534, -0.018664667382836342, -0.0019665248692035675, -0.03364550322294235], [-0.05487918108701706, -0.0879729613661766, 0.048785753548145294, -0.02180813066661358, -0.07340732961893082, -0.11425580084323883, 0.038205891847610474, -0.13016767799854279, 0.11680834740400314, 0.104244664311409], [-0.05313464626669884, -0.07799825072288513, 0.012852692045271397, 0.024326272308826447, 0.029488105326890945, -0.0543263703584671, 0.01288208831101656, 0.08103792369365692, -0.009918184019625187, 0.009563891217112541], [-0.08527866750955582, -0.04088524356484413, 0.08146698772907257, 0.26098692417144775, -0.05666138604283333, -0.3004036247730255, -0.009549139998853207, -0.06939306855201721, 0.017063641920685768, -0.09032651782035828], [-0.013875666074454784, 0.012753344140946865, 0.011912007816135883, 0.012464778497815132, 0.017777662724256516, 0.1567937582731247, -0.024292929098010063, 0.07087289541959763, -0.02249954827129841, -0.07524917274713516], [0.043593745678663254, -0.12688490748405457, -0.03631557151675224, 0.048329003155231476, 0.07331819087266922, -0.06538356840610504, -0.05488654598593712, -0.09191395342350006, 0.2156069278717041, 0.09166906774044037], [-0.01682024635374546, -0.11136604845523834, 0.049077361822128296, 0.05636357516050339, 0.16912361979484558, -0.0057236370630562305, -0.03264368325471878, -0.056687865406274796, 0.005706494674086571, 0.01690119318664074], [0.024323666468262672, -0.09409550577402115, 0.06218377500772476, -0.028770823031663895, -0.014677848666906357, -0.16639266908168793, -0.01866108924150467, -0.029149116948246956, 0.1374894678592682, 0.13704584538936615], [-0.021203748881816864, -0.06227017194032669, 0.06229141354560852, 0.008501795120537281, -0.029402555897831917, -0.11017262935638428, -0.0006811603088863194, -0.019012387841939926, 0.04205535724759102, 0.09059187769889832], [-0.08898703753948212, -0.05828193947672844, -0.006568112876266241, -0.024704230949282646, 0.056389518082141876, -0.0015444698510691524, 0.008569088764488697, 0.055027853697538376, -0.07199916988611221, 0.014722911641001701], [-0.07738037407398224, -0.07122786343097687, -0.0315786637365818, 0.04726821929216385, 0.024950122460722923, 0.026872238144278526, 0.08433661609888077, -0.08533135056495667, 0.007868223823606968, -0.06427830457687378], [-0.0645819827914238, -0.14379513263702393, 0.06540929526090622, 0.13639847934246063, -0.04777504503726959, -0.17467904090881348, 0.061526112258434296, -0.08757342398166656, 0.02892743982374668, 0.006566473748534918], [-0.14563894271850586, -0.05661393329501152, -0.03708147630095482, 0.07149087637662888, 0.07972392439842224, 0.01380231138318777, 0.08573508262634277, 0.03555435687303543, 0.03894449397921562, 0.07225773483514786], [-0.06547626107931137, -0.008929993025958538, 0.002408182481303811, 0.13666944205760956, 0.05087406188249588, -0.12921267747879028, 0.04615141078829765, 0.06383350491523743, 0.07140765339136124, -0.17959967255592346], [0.029514016583561897, 0.08472302556037903, -0.0550907664000988, -0.028167003765702248, 0.0873943418264389, 0.0522005632519722, -0.03685717284679413, -0.0011317641474306583, -0.06483480334281921, -0.06335282325744629], [0.06537614017724991, -0.047972314059734344, -0.029084008187055588, 0.054731205105781555, -0.006230735685676336, -0.17364507913589478, -0.1302497833967209, -0.12851884961128235, 0.0946471095085144, 0.08993981778621674], [-0.0063393558375537395, -0.048400841653347015, 0.0185759998857975, 0.06370683759450912, 0.07618539035320282, -0.041159044951200485, -0.11960814893245697, 0.06485216319561005, 0.0026654801331460476, 0.03759520873427391], [0.008170319721102715, 0.0016061795176938176, 0.07239091396331787, 0.11122184246778488, -0.05000372976064682, -0.12145420163869858, 0.0263027586042881, -0.07954395562410355, 0.03242836520075798, 0.09242642670869827], [0.05943804606795311, -0.046345826238393784, 0.06612689048051834, 0.09911570698022842, -0.03081286884844303, -0.1258191019296646, -0.028002379462122917, 0.007971656508743763, 0.045724667608737946, -0.03631287068128586], [0.019342154264450073, -0.07765325158834457, -0.0055771442130208015, 0.041251566261053085, -0.013823368586599827, -0.004916276782751083, -0.04057903215289116, -0.027133360505104065, -0.049064863473176956, -0.06638763844966888], [-0.08295390754938126, -0.02731596678495407, -0.07488853484392166, 0.009871392510831356, 0.0844561979174614, 0.006935062352567911, -0.0345967635512352, -0.09707004576921463, -0.02084708958864212, -0.10304448753595352], [-0.07230130583047867, 0.020040346309542656, 0.0661473199725151, 0.16975438594818115, -0.019506167620420456, -0.18245267868041992, -0.04268383979797363, -0.08685244619846344, 0.02033788524568081, -0.09471163153648376], [-0.019815785810351372, -0.06545421481132507, -0.023127786815166473, 0.09497565031051636, 0.06365178525447845, 0.003816401120275259, 0.005826686043292284, -0.0111626498401165, -0.01538047008216381, -0.038966305553913116], [-0.16122321784496307, -0.20273637771606445, -0.08576954156160355, -0.013369346968829632, 0.0479225218296051, -0.05927067995071411, 0.006903600413352251, -0.045480020344257355, 0.23364591598510742, -0.059698738157749176], [-0.05915827304124832, 0.04714411869645119, -0.07956209778785706, -0.06305883824825287, 0.14428256452083588, 0.041606903076171875, -0.070310577750206, 0.042052675038576126, -0.04618421941995621, -0.05894780904054642], [0.10067301243543625, -0.040694911032915115, -0.025854011997580528, 0.06617818027734756, -0.05068662390112877, -0.05381844937801361, -0.012726138345897198, -0.05707129091024399, 0.1349366009235382, 0.14648079872131348], [-0.008990236558020115, -0.04641077667474747, -0.020284179598093033, 0.055596813559532166, 0.08493974804878235, 0.03895732760429382, -0.1983034759759903, -0.023231668397784233, -0.017322832718491554, 0.020518798381090164], [-0.11811370402574539, -0.14945033192634583, 0.04754994064569473, 0.03585329279303551, -0.09653471410274506, -0.11774476617574692, -0.040387459099292755, -0.00887264497578144, -0.031812045723199844, 0.013590035028755665], [-0.03592018038034439, -0.08646781742572784, 0.02695794589817524, 0.04518517479300499, -0.06555140018463135, -0.11459653079509735, -0.05435099080204964, -0.10907226800918579, 0.04838863015174866, 0.024048788473010063], [-0.07227536290884018, 0.020964525640010834, 0.05628499388694763, 0.13032767176628113, -0.011184471659362316, -0.02829672396183014, -0.013172131963074207, -0.02054256945848465, -0.03330520540475845, -0.07986657321453094], [-0.016767270863056183, 0.16662190854549408, -0.11224792897701263, 0.030615931376814842, 0.10501324385404587, -0.11446727067232132, 0.040441010147333145, -0.16182316839694977, -0.04812034219503403, -0.0194304920732975], [-0.07215071469545364, 0.017912819981575012, 0.06204844266176224, 0.14104412496089935, -0.004146411083638668, -0.14480377733707428, -0.08783646672964096, -0.12419769912958145, 0.08014804124832153, -0.04135369509458542], [-0.10255508124828339, -0.04576152190566063, 0.002134753158316016, 0.0995287299156189, 0.09352794289588928, 0.026033766567707062, 0.045620888471603394, -0.04021422192454338, -0.07138261198997498, -0.1607021540403366], [-0.059918362647295, -0.237391397356987, 0.013866747729480267, -0.062895268201828, 0.02667207457125187, -0.0894629955291748, -0.03259136527776718, -0.1877107173204422, 0.310528427362442, 0.2141740769147873], [0.0007662412826903164, 0.03716961294412613, -0.013451287522912025, 0.018187355250120163, 0.14044882357120514, -0.06718332320451736, 0.05874556675553322, 0.09737524390220642, -0.07367196679115295, -0.19812121987342834], [-0.008380105718970299, -0.144575297832489, -0.06761820614337921, 0.008204963989555836, -0.0468105785548687, -0.03531159460544586, -0.004993268754333258, 0.030169881880283356, -0.01157221570611, 0.1311027556657791], [0.04837051033973694, -0.05006670579314232, 0.0808233916759491, -0.011806773021817207, 0.05848798528313637, -0.03258024528622627, -0.163567453622818, -0.04108644649386406, 0.016664763912558556, 0.0871715173125267], [-0.042481523007154465, -0.18038350343704224, 0.13333311676979065, 0.10099505633115768, -0.045381754636764526, -0.07783288508653641, -0.05226045474410057, 0.062254734337329865, 0.0009401159477420151, -0.02141837403178215], [-0.00973573885858059, -0.09934316575527191, 0.056971073150634766, 0.07875411212444305, -0.08436878770589828, -0.029341772198677063, 0.07256162911653519, 0.0287293940782547, -0.03358188644051552, 0.16036738455295563], [-0.02376491203904152, -0.0047889892011880875, -0.025037547573447227, 0.02647971175611019, 0.032608818262815475, 0.026698803529143333, -0.06056436523795128, -0.09416590631008148, 0.06613260507583618, 0.08691012859344482], [0.01630249060690403, 0.18296049535274506, -0.1369292140007019, 0.004544164519757032, 0.2020384520292282, -0.11459756642580032, 0.19025610387325287, -0.22427307069301605, 0.012981295585632324, -0.08584684878587723], [-0.09031885117292404, -0.0884261429309845, 0.034561239182949066, 0.11107189953327179, -0.04735416918992996, -0.04749435558915138, 0.03817008435726166, -0.1331433355808258, 0.04891650751233101, 0.029645094648003578], [-0.07041549682617188, -0.04841240867972374, -0.025662371888756752, 0.08431217074394226, -0.032666146755218506, -0.05415572226047516, 0.018412213772535324, -0.028114261105656624, 0.051649060100317, -0.019282326102256775], [0.07078580558300018, -0.07221689820289612, 0.014830194413661957, -0.0067871673963963985, -0.0013241926208138466, -0.19677835702896118, 0.0002419603697489947, -0.2843363881111145, 0.11294849961996078, 0.1030159592628479], [-0.06356421113014221, -0.005343066994100809, 0.008457163348793983, -0.03588102012872696, 0.15022186934947968, 0.0837402269244194, 0.08351562917232513, 0.06697258353233337, -0.09012294560670853, -0.08946824818849564], [-0.08816877752542496, -0.04385291412472725, -0.06597916781902313, 0.0014757763128727674, -0.022679027169942856, 0.08552301675081253, 0.029094871133565903, 0.055133718997240067, 0.06192231550812721, 0.10789598524570465], [0.044240377843379974, -0.024424709379673004, 0.06363753229379654, 0.08150474727153778, 0.13130362331867218, -0.05151592567563057, -0.050750281661748886, -0.02584751322865486, 0.02106928639113903, -0.02105780877172947], [-0.035151157528162, -0.09074574708938599, 0.045973535627126694, 0.09085666388273239, -0.15906426310539246, -0.0018288743449375033, 0.05982113257050514, 0.03614770993590355, 0.06217270344495773, 0.07953658699989319], [0.022950412705540657, 0.025122789666056633, -0.03068784810602665, 0.04754215106368065, 0.03310060501098633, 0.0017344823572784662, 0.0119441794231534, 0.054367873817682266, -0.04635389894247055, 0.07655496150255203], [-0.07906219363212585, -0.06703514605760574, -0.011778685264289379, 0.09255348145961761, 0.05100901797413826, -0.07103923708200455, -0.1298927515745163, -0.06277649849653244, 0.017302783206105232, 0.03446989879012108], [0.055790241807699203, 0.06792469322681427, -0.06403359770774841, -0.12844295799732208, 0.2632291316986084, -0.16842472553253174, 0.12326157838106155, -0.11619902402162552, 0.12825681269168854, -0.11967561393976212], [0.0421907976269722, -0.11711836606264114, 0.024991216138005257, -0.018660882487893105, -0.03667176514863968, -0.001775557640939951, -0.007172266952693462, -0.015060908161103725, 0.028452960774302483, 0.056187696754932404], [-0.08215761929750443, -0.05395273491740227, -0.04212860018014908, 0.005721591413021088, -0.000563178036827594, -0.0640159621834755, -0.11204954981803894, -0.09619719535112381, 0.017622293904423714, 0.11916960030794144], [0.02262652851641178, 0.018209464848041534, -0.018887709826231003, -0.012053580954670906, 0.11961368471384048, -0.11257679760456085, -0.03724347800016403, -0.17503702640533447, 0.028006643056869507, -0.1679757535457611], [-0.05757324770092964, 0.05786436051130295, 0.006817768327891827, -0.13237111270427704, 0.17133310437202454, 0.029376035556197166, 0.05747522413730621, -0.006059051491320133, 0.002675227588042617, -0.12678591907024384], [-0.00376641983166337, 0.046218253672122955, -0.014684032648801804, -0.11325599998235703, -0.04726177453994751, -0.0051506743766367435, 0.10043846815824509, -0.01956332102417946, -0.037442900240421295, 0.19077762961387634], [0.03411298245191574, 0.03228634595870972, 0.08534026890993118, -0.00014547182945534587, 0.18595580756664276, -0.12526236474514008, -0.05245885252952576, -0.05623579025268555, 0.09894516319036484, -0.06506800651550293], [-0.047937218099832535, -0.05957557260990143, -0.05659906193614006, 0.04142407327890396, -0.179921954870224, 0.0448543056845665, -0.03699083253741264, -0.0067358473315835, 0.032737672328948975, 0.059165727347135544], [0.011286505497992039, -0.02605915255844593, -0.024476543068885803, -0.10066027194261551, -0.04656296595931053, -0.025966696441173553, 0.033895060420036316, 0.08581803739070892, -0.04364781454205513, 0.06213990971446037], [-0.061093319207429886, 0.064117930829525, -0.07780849933624268, 0.037303704768419266, 0.05558585003018379, -0.021723708137869835, -0.04929022118449211, 0.059280794113874435, 0.09068791568279266, 0.06770263612270355], [-0.0479462593793869, 0.1649022102355957, -0.1951892226934433, -0.12484795600175858, 0.20622627437114716, -0.04630480334162712, 0.1872473955154419, -0.17525571584701538, 0.1211647316813469, -0.14219674468040466], [-0.029242459684610367, 0.04386063665151596, -0.11634328216314316, -0.061627089977264404, -0.02739754132926464, -0.013697882182896137, -0.008299531415104866, -0.06637942790985107, -0.015146198682487011, 0.03673257678747177], [0.011674291454255581, 0.02552485279738903, 0.005806173663586378, 0.045003440231084824, -0.006798249669373035, 0.05022367462515831, -0.08674237132072449, -0.07017460465431213, -0.01518363319337368, 0.15795855224132538], [0.030599400401115417, 0.10387669503688812, 0.04677455872297287, 0.05348771810531616, 0.20759879052639008, -0.07259233295917511, 0.08627450466156006, -0.08601109683513641, -0.01926918514072895, -0.18270106613636017], [-0.0344083346426487, -0.029041212052106857, 0.03198130056262016, -0.21309757232666016, 0.256296306848526, 0.08930845558643341, 0.013904904015362263, 0.008999490179121494, 0.07614050060510635, -0.09396255016326904], [-0.06785830110311508, -0.004529579542577267, -0.08976121246814728, -0.09586019068956375, 0.046229809522628784, 0.06069305166602135, 0.09028381109237671, 0.012648779898881912, 0.039358340203762054, 0.1414397656917572], [0.015291553921997547, 0.10814517736434937, 0.07030249387025833, 0.023327495902776718, 0.11328509449958801, 0.029055623337626457, -0.08940499275922775, -0.14474380016326904, 0.019920317456126213, -0.058040715754032135], [0.0012577342567965388, -0.05886891856789589, -0.0917147547006607, 0.013377457857131958, -0.03942916914820671, 0.13651981949806213, 0.007436616346240044, -0.040378548204898834, 0.06836821138858795, -0.10204384475946426], [0.05594469979405403, -0.05758971348404884, -0.023094624280929565, -0.14687170088291168, 0.05170738697052002, 0.07451364398002625, 0.13701501488685608, 0.009725884534418583, -0.06814935803413391, -0.011055820621550083], [-0.012922321446239948, -0.03334880992770195, -0.06439212709665298, 0.025717630982398987, -0.011217168532311916, 0.013963749632239342, -0.17057619988918304, 0.02601071447134018, 0.04822243005037308, -0.00263759633526206], [0.01158993225544691, 0.17834632098674774, -0.15520469844341278, -0.21693286299705505, 0.2921450436115265, 0.04103546962141991, 0.05171472579240799, -0.18839572370052338, 0.1254810392856598, -0.17397600412368774], [0.0069340905174613, 0.07117959856987, -0.13695798814296722, -0.08011636883020401, 0.12873198091983795, 0.05244937539100647, 0.038595058023929596, -0.026346050202846527, -0.06504102051258087, -0.09904006868600845], [-0.11231660097837448, -0.03850415721535683, -0.11514142155647278, -0.06717146933078766, 0.03684115782380104, 0.018223688006401062, -0.12402129173278809, -0.007212373893707991, -0.018544841557741165, 0.1306469440460205], [-0.048691920936107635, 0.034905094653367996, -0.018728623166680336, 0.0878644809126854, 0.1678653061389923, 0.035125985741615295, 0.010362944565713406, 0.004481128882616758, -0.04526730254292488, -0.14810769259929657], [0.011614974588155746, 0.06117578223347664, -0.033247582614421844, -0.21354559063911438, 0.21184901893138885, 0.08184541761875153, 0.008663986809551716, 0.041714608669281006, 0.061510808765888214, -0.23425225913524628], [-0.03609301149845123, -0.011244146153330803, -0.05479193106293678, -0.150851771235466, 0.09485390782356262, 0.09585121273994446, 0.11277221143245697, 0.04118456318974495, -0.08682427555322647, -0.013361874967813492], [-0.027663154527544975, 0.026807188987731934, 0.00292366836220026, 0.04867197200655937, 0.09349780529737473, 0.031024720519781113, 0.001075266394764185, -0.08961252123117447, 0.008936849422752857, -0.08440455794334412], [-0.06514762341976166, -0.019002608954906464, -0.12786166369915009, -0.12321380525827408, -0.026194024831056595, 0.13750594854354858, 0.11640018969774246, -0.03427533060312271, 0.0622432678937912, -0.026509461924433708], [-0.06860032677650452, 0.03680116683244705, -0.07432001829147339, -0.04151177778840065, 0.04666190221905708, 0.009120424278080463, 0.06007818132638931, 0.05378120765089989, 0.06375673413276672, 0.07540838420391083], [-0.004960871767252684, 0.03100184164941311, -0.12199034541845322, 0.006591141223907471, 0.024824878200888634, 0.09716484695672989, -0.009557784534990788, 0.005455192178487778, 0.05806904286146164, -0.02840757556259632], [-0.11609312891960144, 0.012197067029774189, -0.21238116919994354, -0.1985410898923874, 0.3036853075027466, 0.21370874345302582, 0.07111603021621704, -0.09731249511241913, 0.035188861191272736, -0.15048068761825562], [-0.05753901228308678, 0.017893094569444656, -0.09932827949523926, -0.05065343901515007, 0.0465458482503891, 0.06008901819586754, 0.1356908231973648, 0.040632933378219604, 0.0016027877572923899, 0.030711498111486435], [-0.1374528855085373, 0.03827501833438873, -0.11518791317939758, -0.047596510499715805, 0.0546514168381691, 0.01522853970527649, 0.013467802666127682, 0.06212157756090164, 0.06418106704950333, -0.03245250880718231], [-0.03353883698582649, 0.038486313074827194, -0.015360232442617416, 0.0495280995965004, 0.07002691924571991, -0.026020118966698647, -0.049786463379859924, 0.06687433272600174, 0.02061665616929531, -0.021707266569137573], [-0.011207411997020245, 0.04588498920202255, 0.07495711743831635, -0.13184253871440887, 0.08109898865222931, 0.16386055946350098, -0.022859085351228714, 0.14529933035373688, 0.045953504741191864, -0.1233811005949974], [0.022234296426177025, -0.054292287677526474, -0.053756970912218094, -0.04045875370502472, 0.0786752700805664, 0.020072033628821373, 0.06080081686377525, 0.014945005998015404, 0.002547492040321231, 0.07705323398113251], [0.02893962152302265, -0.0052216025069355965, 0.07554730772972107, 0.04099389538168907, 0.04037018120288849, -0.03444580361247063, 0.03451808914542198, -0.17570000886917114, 0.038049884140491486, -0.12310122698545456], [-0.05318145081400871, -0.12850339710712433, -0.20082570612430573, -0.15986283123493195, 0.06695568561553955, 0.09871318191289902, 0.16727948188781738, -0.07265224307775497, 0.11290198564529419, -0.010855994187295437], [0.013120020739734173, 0.060726869851350784, -0.053225696086883545, 0.06663300842046738, -0.0639578327536583, -0.12399209290742874, 0.02825828455388546, 0.0031411678064614534, 0.07354976236820221, 0.1769246757030487], [0.0012819168623536825, 0.027245936915278435, -0.07095668464899063, -0.016305813565850258, 0.17067702114582062, -0.01585584320127964, -0.06328897178173065, -0.04508455842733383, 0.08265521377325058, -0.00638978835195303], [-0.21733184158802032, 0.06203209236264229, -0.14468668401241302, -0.06113112345337868, 0.15136294066905975, 0.1138869971036911, 0.08620119839906693, -0.10866008698940277, 0.1258247345685959, -0.02347411774098873], [-0.08553539216518402, -0.029136013239622116, -0.12577000260353088, -0.02258906327188015, -0.025828666985034943, 0.05119028314948082, 0.0328366681933403, -0.05379318818449974, 0.012659618631005287, 0.03835238516330719], [-0.08987065404653549, -0.09910672903060913, -0.10757055878639221, -0.08389083296060562, 0.03685608133673668, 0.11134609580039978, -0.0825582966208458, -0.02027769386768341, -0.0039023803547024727, 0.006464559119194746], [-0.03846297785639763, 0.04867946356534958, -0.011992335319519043, -0.052504509687423706, 0.04423980787396431, -0.048839371651411057, -0.061251845210790634, -0.05960847809910774, 0.041574303060770035, -0.021083427593111992], [-0.14143547415733337, 0.06210456043481827, 0.09116517752408981, -0.07101690024137497, -0.039438482373952866, 0.1466018706560135, -0.07714888453483582, 0.158573716878891, -0.07005733996629715, -0.025387821719050407], [0.016163554042577744, -0.01946616731584072, -0.1710365265607834, 0.013745625503361225, -0.005113841965794563, 0.04440554603934288, 0.09162978827953339, -0.06432121992111206, 0.06897062063217163, 0.16605828702449799], [-0.15236525237560272, -0.021392464637756348, -0.053611285984516144, -0.03596191853284836, 0.08201519399881363, 0.04293959587812424, -0.007691533304750919, -0.22532717883586884, 0.015356377698481083, -0.1679726243019104], [-0.16941975057125092, -0.16898289322853088, -0.17525923252105713, -0.13704699277877808, 0.04283173754811287, 0.07111704349517822, 0.1207863837480545, -0.11298119276762009, 0.0758165568113327, 0.14554841816425323], [-0.10096641629934311, 0.026987943798303604, -0.133004829287529, 0.05205530300736427, 0.04288182407617569, -0.19454416632652283, -0.008207056671380997, 0.0803016647696495, 0.16820760071277618, 0.01222078688442707], [-0.05509587377309799, -0.052413810044527054, 0.021725956350564957, -1.1919342796318233e-05, 0.015374444425106049, -0.08694851398468018, -0.03642671927809715, 0.04484313726425171, 0.018745433539152145, -0.021996349096298218], [0.04121558368206024, -0.019844677299261093, 0.03622232750058174, -0.04687554016709328, -0.009019345045089722, -0.05988248065114021, 0.02176499553024769, 0.06728744506835938, 0.06734941154718399, 0.05210844427347183], [-0.0697045847773552, 0.028046563267707825, -0.09042225033044815, 0.015591716393828392, 0.0750214010477066, -0.09089355915784836, 0.07054068148136139, 0.09908825904130936, 0.06855908781290054, 0.04828890040516853], [-0.011699389666318893, 0.0002706102095544338, 0.005279107950627804, 0.0692874938249588, 0.025712450966238976, -0.17516380548477173, -0.031111232936382294, 0.04529426619410515, -0.03064257837831974, -0.10778217762708664], [-0.08249974250793457, 0.04924672469496727, 0.03294935077428818, 0.0439642071723938, -0.05799950286746025, -0.04724830016493797, 0.008790339343249798, -0.07482588291168213, -0.020900897681713104, 0.03282231092453003], [0.03208994120359421, 0.04447891190648079, 0.10857884585857391, -0.11032987385988235, 0.0005432037287391722, 0.10836732387542725, -0.07549147307872772, 0.000662804173771292, -0.10790235549211502, 0.011970669031143188], [0.043635085225105286, -0.03869333118200302, -0.09430854767560959, 0.007682631257921457, -0.0015379359247162938, -0.1721925288438797, -0.04920542240142822, -0.0695720836520195, 0.178010955452919, 0.10703205317258835], [0.024024056270718575, -0.1474178284406662, 0.10082501173019409, 0.08530563116073608, -0.011678170412778854, -0.12298928201198578, -0.19545428454875946, 0.10401515662670135, 0.02570313960313797, -0.0014119972474873066], [0.031893618404865265, -0.04219254106283188, -0.057044368237257004, 0.12737075984477997, -0.05410870909690857, -0.1939576417207718, 0.04501207917928696, -0.05897580087184906, 0.08994618058204651, 0.1454581916332245], [-0.0807771384716034, 0.006309198215603828, -0.026024600490927696, 0.08724765479564667, -0.040965449064970016, -0.1357799470424652, -0.06944014132022858, -0.026181161403656006, 0.08772881329059601, -0.02659156732261181], [-0.04302525147795677, -0.0769781619310379, 0.02036738023161888, 0.08191452920436859, 0.03774102404713631, 0.001483533764258027, -0.05836798995733261, 0.11275432258844376, 0.04605022817850113, -0.09633594006299973], [-0.03857232630252838, -0.14495964348316193, 0.055485162883996964, -0.05703256279230118, 0.02482416480779648, -0.016830546781420708, 0.04176843911409378, -0.08395557850599289, 0.044588785618543625, 0.028709253296256065], [-0.045881807804107666, -0.05438747629523277, -0.07997368276119232, 0.08351364731788635, -0.00984263326972723, 0.10718001425266266, 0.014466313645243645, 0.044273607432842255, 0.06685484945774078, -0.012867439538240433], [-0.03835147246718407, -0.04274021461606026, -0.040133874863386154, -0.005487437359988689, 0.09605840593576431, -0.06398077309131622, -0.06286098062992096, 0.037070855498313904, 0.05102838948369026, -0.06491169333457947], [-0.14406876266002655, -0.07931073755025864, 0.11068825423717499, 0.05828109383583069, 0.09477319568395615, -0.2243514060974121, 0.08954475075006485, -0.05791335552930832, 0.021000098437070847, -0.03827273100614548], [0.055734340101480484, 0.13206161558628082, 0.08081390708684921, 0.029107030481100082, 0.007807551417499781, 0.026869768276810646, -0.0861441045999527, 0.01233625877648592, 0.018247680738568306, 0.02260439842939377], [-0.06427419930696487, -0.034587450325489044, 0.03268173336982727, 0.06831075251102448, -0.11776790767908096, -0.19886937737464905, 0.0014020773814991117, -0.0579194501042366, 0.060184843838214874, 0.13364985585212708], [0.040187250822782516, -0.13284926116466522, 0.026611151173710823, -0.03532680496573448, 0.06592098623514175, -0.023169005289673805, -0.08026234060525894, 0.060366321355104446, -0.04568622633814812, -0.011573909781873226], [-0.025736670941114426, -0.03793688490986824, -0.0017864351393654943, 0.1789221614599228, -0.09018600732088089, -0.21820729970932007, 0.009762220084667206, -0.023995721712708473, 0.026990653946995735, 0.032625697553157806], [-0.0362510047852993, -0.03393052890896797, 0.11980224400758743, 0.1011863574385643, -0.10568883270025253, -0.18926993012428284, -0.089968241751194, 0.00478701526299119, -0.014878432266414165, -0.0676385760307312], [-0.03642846643924713, -0.09753400087356567, -0.06842988729476929, 0.03298835828900337, 0.07349225133657455, -0.06339821219444275, 0.004310383927077055, 0.13492240011692047, 0.0029257400892674923, -0.03218626603484154], [-0.0076536256819963455, -0.09151576459407806, 0.03506801649928093, -0.05683653801679611, -0.006329531781375408, 0.07940492779016495, 0.09019733220338821, -0.037022653967142105, 0.021778305992484093, 0.01883898861706257], [-0.04832454025745392, 0.056924253702163696, 0.08880405128002167, 0.11211279779672623, 0.02948703244328499, 0.04492249712347984, -0.016132710501551628, 0.08341016620397568, -0.033723533153533936, -0.08902550488710403], [-0.006086326669901609, -0.004241619259119034, -0.03816170617938042, 0.023451266810297966, 0.04041315242648125, -0.04626806452870369, -0.05659735947847366, 0.1453416347503662, 0.010263284668326378, -0.06602510064840317], [-0.18178942799568176, -0.08010053634643555, -0.009326394647359848, 0.10479719936847687, -0.09212237596511841, -0.2242431640625, 0.019981319084763527, -0.11692798882722855, 0.061730142682790756, 0.1311262845993042], [-0.01651054620742798, 0.06517915427684784, -0.0033097551204264164, -0.06750030815601349, 0.07019449025392532, -0.004619576036930084, 0.007854103110730648, -0.06610029190778732, -0.06994863599538803, -0.02891172654926777], [0.01162791159003973, -0.1746954321861267, 0.1162666454911232, 0.11850228905677795, -0.08282017707824707, -0.23603317141532898, -0.004216913599520922, -0.0662967637181282, 0.06445415318012238, 0.09655529260635376], [0.014105432666838169, -0.10744296759366989, 0.027509741485118866, 0.07857891917228699, 0.07824315130710602, -0.011220901273190975, -0.13325528800487518, 0.17453618347644806, 0.0033327818382531404, -0.021811671555042267], [-0.07707121968269348, -0.03346627578139305, 0.022752830758690834, 0.0823407918214798, -0.05214378610253334, -0.1304517537355423, -0.008362440392374992, 0.03195218741893768, -0.029194345697760582, -0.05683812499046326], [-0.0972268357872963, -0.06847871094942093, 0.12312283366918564, 0.19389738142490387, -0.15855979919433594, -0.09418536722660065, -0.12881331145763397, -0.015204834751784801, -0.029543083161115646, 0.07289192825555801], [-0.0037818525452166796, -0.06412211060523987, -0.0389302596449852, -0.028741590678691864, 0.05957924574613571, -0.039108406752347946, -0.0022374014370143414, 0.09463378041982651, 0.08621664345264435, -0.032982587814331055], [-0.11756584048271179, -0.03481406345963478, -0.02033686637878418, 0.011295159347355366, 0.051586251705884933, 0.09276249259710312, -0.003884224919602275, 0.022541897371411324, 0.11998002976179123, -0.0033610882237553596], [-0.11847209185361862, 0.0007878802134655416, 0.04645240306854248, 0.06399814784526825, 0.01463385671377182, -0.12421220541000366, -0.09018270671367645, 0.07689695805311203, -0.018680067732930183, -0.1292615532875061], [-0.056489188224077225, -0.10408585518598557, -0.02999006398022175, 0.06692884862422943, 0.029299182817339897, 0.0004734369576908648, -0.08948445320129395, 0.12650839984416962, -0.045499227941036224, -0.09530970454216003], [0.028787896037101746, -0.08846535533666611, -0.029975228011608124, 0.06956902891397476, -0.032805271446704865, -0.19040900468826294, -0.09145846217870712, -0.10356736183166504, 0.09036633372306824, 0.2727772295475006], [-0.011822199448943138, 0.046292100101709366, 0.040924735367298126, -0.025119412690401077, 0.1457560509443283, -0.12812723219394684, 0.02220260165631771, -0.05120290815830231, -0.06907787173986435, -0.035979170352220535], [-0.060824815183877945, -0.14880682528018951, 0.21711212396621704, 0.0734080821275711, -0.1704334020614624, -0.11590056866407394, -0.0031534419395029545, -0.10180024057626724, -0.0667526051402092, 0.17599967122077942], [0.008204532787203789, -0.0880647674202919, -0.01325158029794693, 0.023890595883131027, 0.11548803001642227, 0.039256297051906586, -0.11195725202560425, 0.13556015491485596, -0.07322527468204498, -0.005776737350970507], [-0.11269790679216385, -0.14975351095199585, 0.07836779952049255, 0.04830167815089226, -0.14280667901039124, -0.08893943578004837, -0.061119768768548965, -0.023075556382536888, 0.06253383308649063, 0.09624439477920532], [0.017749976366758347, -0.10877726227045059, 0.08638510853052139, 0.14836318790912628, -0.11331186443567276, -0.1786414533853531, -0.08422935754060745, 0.06327586621046066, -0.02716490812599659, -0.09032491594552994], [0.03275709226727486, -0.062102146446704865, 0.004352068528532982, -0.07799877971410751, -0.0404430627822876, -0.02628643997013569, -0.08348182588815689, -0.02092379704117775, 0.027321375906467438, 0.08921497315168381], [-0.057551972568035126, 0.09044716507196426, -0.10470440983772278, -0.11975973099470139, 0.09475436061620712, -0.004647408612072468, 0.18655695021152496, -0.10210050642490387, 0.04382467642426491, -0.05217435583472252], [-0.09449256956577301, 0.009022627957165241, -0.0047122579999268055, 0.04006846621632576, -0.02310463972389698, -0.07687676697969437, -0.020169202238321304, 0.07251033931970596, 0.01871431991457939, -0.02091599442064762], [-0.03515978530049324, -0.1401997208595276, 0.016889525577425957, 0.049546487629413605, -0.03855209797620773, 0.06071428209543228, -0.10008849203586578, 0.043530240654945374, 0.09192956238985062, 0.06873434036970139], [-0.03566443547606468, -0.2755688428878784, 0.057702094316482544, 0.0608140230178833, -0.06335514783859253, -0.13817839324474335, 0.040315259248018265, -0.20490795373916626, 0.01815609820187092, 0.0645623579621315], [0.016219351440668106, -0.07616394758224487, -0.05719878152012825, -0.08641832321882248, 0.14670057594776154, 0.03894856944680214, 0.08758397400379181, 0.0038610082119703293, -0.002810792066156864, -0.1641540676355362], [-0.014996744692325592, -0.12391502410173416, 0.07743193954229355, 0.17240214347839355, -0.221871018409729, -0.09042324125766754, 0.021041925996541977, -0.050014350563287735, -0.021009357646107674, 0.08545219153165817], [0.004413245245814323, -0.1926691085100174, -0.05721080303192139, -0.008588321506977081, -0.03868132829666138, 0.020824292674660683, -0.20103339850902557, 0.04706211015582085, -0.10944440960884094, 0.14329586923122406], [-0.09539452195167542, -0.26209402084350586, 0.033709973096847534, 0.08566354215145111, -0.20533086359500885, -0.04062480106949806, -0.10845821350812912, -0.04962342232465744, 0.06700734794139862, 0.09399789571762085], [0.04122032970190048, 0.029655201360583305, 0.07143507152795792, 0.055016275495290756, -0.09567902982234955, 0.00824686884880066, -0.09450061619281769, 0.0304502472281456, -0.07815910130739212, -0.060055483132600784], [0.0292283333837986, 0.03872046619653702, 0.052263643592596054, 0.02608412876725197, -0.010813556611537933, -0.005473099648952484, -0.027133658528327942, 0.010298705659806728, 0.028900133445858955, 0.1293281465768814], [0.0417931005358696, 0.08729048073291779, -0.18091750144958496, -0.08030126988887787, 0.22179575264453888, -0.0777776911854744, 0.1892101913690567, -0.15618149936199188, -0.049421727657318115, -0.10194294154644012], [0.019118474796414375, -0.06994534283876419, -0.004778427071869373, 0.051297880709171295, 0.04667888954281807, -0.08692008256912231, -0.047751281410455704, 0.019724182784557343, 0.02251582220196724, -0.028059253469109535], [0.03333859145641327, -0.038121458142995834, 0.0912461131811142, 0.09573186188936234, -0.06985209137201309, -0.019645286723971367, -0.13392584025859833, 0.024358509108424187, -0.006530356127768755, 0.024935688823461533], [-0.1334661990404129, -0.10875510424375534, 0.012603256851434708, 0.06138971075415611, 0.016266442835330963, -0.010201719589531422, -0.024515371769666672, -0.1187923327088356, 0.08744130283594131, 0.02281615510582924], [-0.01047165784984827, 0.026187293231487274, -0.047982197254896164, -0.03400525078177452, 0.21048542857170105, -0.03826906904578209, 0.01948949694633484, -0.11008867621421814, 0.08525910973548889, -0.08185307681560516], [-0.02939818985760212, -0.0347251258790493, 0.019299298524856567, 0.11274105310440063, -0.17550626397132874, 0.10990343242883682, -0.04023817181587219, -0.09571070969104767, 0.03271530568599701, 0.016301563009619713], [0.07198504358530045, -0.14930632710456848, -0.00533979432657361, 0.04956347495317459, -0.08028364181518555, -0.03838001564145088, -0.08750438690185547, -0.0122069101780653, -0.060002926737070084, 0.16816888749599457], [0.05115289241075516, -0.26538142561912537, 0.05454481020569801, -0.060494452714920044, -0.22980542480945587, 0.03100311942398548, 0.027081651613116264, 0.07363705337047577, 0.16025562584400177, 0.12490912526845932], [0.05445149913430214, 0.00012562182382680476, 0.09080303460359573, 0.047057535499334335, 0.021008938550949097, 0.019559605047106743, -0.13569603860378265, -0.05681318789720535, 0.02886512130498886, -0.03626912459731102], [-0.040800776332616806, -0.0019079718040302396, 0.07221975922584534, 0.1052660346031189, 0.011246497742831707, -0.004909881856292486, -0.08247897773981094, 0.018638206645846367, 0.019656218588352203, 0.12246648222208023], [-0.05066145583987236, 0.1775147169828415, -0.24262212216854095, -0.12199430912733078, 0.3487245738506317, -0.06884371489286423, 0.154051274061203, -0.02693817764520645, -0.03594681993126869, -0.13164715468883514], [0.02311587519943714, 0.001878910232335329, 0.08815648406744003, 0.0042350743897259235, -0.03195584565401077, -0.02473769709467888, 0.11258035898208618, -0.07385203242301941, 0.005265566986054182, 0.011552281677722931], [0.05639060214161873, 0.013987461104989052, 0.0638914629817009, 0.09213955700397491, -0.06277783960103989, -0.0538119301199913, -0.15184450149536133, -0.01177140325307846, 0.034335654228925705, 0.05694113299250603], [-0.0939825251698494, -0.06998614966869354, 0.039496053010225296, 0.07374177128076553, -0.06497485190629959, -0.01918935775756836, -0.049039024859666824, -0.02742788940668106, 0.03383474424481392, 0.1214452013373375], [0.023554475978016853, -0.04572155326604843, 0.024241479113698006, -0.16228777170181274, 0.16851909458637238, 0.0964207798242569, 0.16920295357704163, -0.1187133938074112, 0.11437942087650299, -0.09307104349136353], [0.01233278401196003, 0.00817321427166462, 0.0308791883289814, -0.07075931876897812, -0.09524400532245636, 0.10178231447935104, -0.014765661209821701, -0.08274783194065094, 0.030081095173954964, 0.025699490681290627], [-0.018545007333159447, -0.1435648500919342, 0.0816592201590538, -0.05484618619084358, 0.006795975845307112, 0.0753980278968811, -0.03532632812857628, 0.042605526745319366, 0.011376510374248028, 0.17834143340587616], [-0.004551347345113754, -0.25416868925094604, -0.002959435572847724, 0.033078357577323914, -0.3073972463607788, 0.11710681766271591, 0.09789782017469406, 0.020432844758033752, 0.1168394461274147, 0.009743495844304562], [0.016863271594047546, 0.035027697682380676, 0.07231362164020538, -0.04212288185954094, -0.026697291061282158, 0.11227674782276154, 0.00308866030536592, -0.1514514684677124, -0.02274027094244957, -0.038508761674165726], [0.05639248341321945, 0.03525567054748535, -0.03637726977467537, 0.004272797144949436, -0.0007492186850868165, 0.03686828166246414, -0.07072976231575012, 0.0045501175336539745, -0.007835372351109982, 0.09191448986530304], [-0.1022510975599289, 0.3060222268104553, -0.19190707802772522, -0.02835405059158802, 0.43903714418411255, -0.11302654445171356, 0.16810525953769684, 0.015947304666042328, -0.09464897215366364, -0.14289158582687378], [-0.05448341369628906, 0.02164050005376339, 0.0547519251704216, 0.03519589453935623, 0.08967620879411697, 0.0007714268285781145, 0.11638779193162918, -0.05039443075656891, 0.011558245867490768, -0.03652438148856163], [-0.04763052985072136, -0.050323981791734695, 0.035239603370428085, 0.04855670779943466, 0.02842392586171627, -0.002786399330943823, -0.13776437938213348, -0.03704371303319931, -0.038966502994298935, 0.003183735767379403], [0.032433703541755676, 0.03871454298496246, 0.06469722837209702, 0.08344541490077972, 0.04576202109456062, -0.031107226386666298, -0.0500180758535862, -0.03310343623161316, -0.04180985689163208, 0.0052169933915138245], [0.00985265988856554, -0.01182251051068306, -0.08066900819540024, -0.07828643918037415, 0.28228408098220825, 0.052697084844112396, 0.14062251150608063, -0.09816145151853561, 0.0004256253596395254, -0.10729184001684189], [-0.10788877308368683, 0.017108790576457977, 0.05763841047883034, -0.14965404570102692, 0.0007795247947797179, 0.2556319236755371, 0.1124952957034111, -0.02673034928739071, -0.041433196514844894, -0.005832707043737173], [0.06292882561683655, -0.09973135590553284, 0.035166166722774506, -0.018928540870547295, -0.0076653785072267056, 0.08263339847326279, -0.1359986960887909, 0.005683408584445715, -0.010488007217645645, 0.1435287743806839], [-0.08308446407318115, -0.17799609899520874, -0.04556531459093094, -0.0759797915816307, -0.17846347391605377, 0.16140761971473694, 0.1568710058927536, 0.01612173207104206, 0.002115380484610796, -0.0051496741361916065], [-0.00039250392001122236, -0.05065600946545601, -0.015034000389277935, -0.08566925674676895, -0.061473265290260315, 0.08960830420255661, 0.057740360498428345, -0.049217935651540756, -0.013307642191648483, -0.009461572393774986], [0.05733375623822212, -0.08953531831502914, -0.013978597708046436, 0.00812511332333088, 0.02310866303741932, 0.10340730845928192, -0.029606584459543228, -0.01730501465499401, -0.03136579319834709, 0.0747060626745224], [-0.10630138218402863, 0.11613831669092178, -0.08102785795927048, 0.02952812798321247, 0.299195259809494, 0.03627341240644455, 0.04782729595899582, -0.03670191392302513, -0.0706767588853836, -0.11394966393709183], [-0.06455149501562119, -0.14147484302520752, -0.027371423318982124, -0.06330437958240509, 0.07785526663064957, 0.13729117810726166, 0.12499493360519409, -0.16379794478416443, 0.03789617866277695, -0.04665328189730644], [-0.03436662256717682, -0.09719368070363998, -0.09300879389047623, -0.042929507791996, 0.1019756868481636, 0.1133216917514801, -0.013911121524870396, -0.026909925043582916, -0.0035824994556605816, -0.11202942579984665], [0.012651016935706139, 0.022603657096624374, 0.022385625168681145, -0.021106857806444168, 0.019423585385084152, 0.029118746519088745, -0.15100835263729095, 0.0002288346877321601, 0.03455548360943794, 0.054603446274995804], [-0.03695722296833992, -0.0005111164646223187, -0.08611994981765747, -0.03954225406050682, 0.25469499826431274, 0.061205752193927765, 0.06019389629364014, -0.14483369886875153, 0.038118451833724976, -0.08478265255689621], [-0.1655956208705902, -0.07248442620038986, -0.09824582189321518, -0.12811601161956787, 0.03721107915043831, 0.2657800614833832, 0.07812923192977905, -0.08246579021215439, 0.0029048779979348183, -0.07575849443674088], [-0.015462953597307205, -0.10645124316215515, -0.021661346778273582, -0.05233220383524895, -0.0749875009059906, 0.033235229551792145, -0.04327807575464249, 0.03605153039097786, -0.01836419105529785, 0.06094326451420784], [-0.022597817704081535, -0.05770624801516533, -0.051927559077739716, -0.1190154030919075, -0.08427388966083527, 0.12919794023036957, 0.18283219635486603, -0.1505860835313797, -0.009464179165661335, -0.01634170301258564], [0.009412291459739208, 0.021018074825406075, -0.11396519094705582, -0.15152420103549957, -0.0037277131341397762, 0.13909299671649933, 0.1051938608288765, -0.08527562022209167, 0.01883336715400219, 0.007700040936470032], [-0.07238908857107162, -0.036631159484386444, -0.012635331600904465, -0.09546305984258652, 0.016160864382982254, 0.08980369567871094, -0.027737248688936234, -0.013106366619467735, 0.09730980545282364, -0.06484939903020859], [-0.15508756041526794, 0.04080507159233093, -0.18599699437618256, -0.03152934089303017, 0.20046374201774597, 0.14706937968730927, -0.06438843905925751, -0.06709498912096024, 0.08562647551298141, -0.19261370599269867], [-0.07511737942695618, -0.065174899995327, -0.04643889516592026, -0.11332059651613235, 0.13355445861816406, 0.12057936936616898, 0.11924014985561371, -0.1548217386007309, 0.029126325622200966, -0.11364250630140305], [-0.04455665126442909, -0.07080087065696716, -0.17389142513275146, -0.15460553765296936, 0.03566471114754677, 0.14000973105430603, -0.05664677545428276, 0.009216676466166973, 0.07181546092033386, -0.09983288496732712], [-0.03418060019612312, 0.05026806890964508, -0.04038595035672188, -0.056997839361429214, 0.05973360314965248, 0.01893600821495056, -0.05652320012450218, 8.627348870504647e-05, 0.018128540366888046, -0.054232239723205566], [-0.06023338437080383, 0.0820411741733551, -0.053065236657857895, -0.031140170991420746, 0.024295398965477943, 0.0055134352296590805, 0.09512302279472351, 0.04171989485621452, 0.04785594716668129, -0.0621146485209465], [-0.1451987624168396, -0.059619832783937454, -0.052054841071367264, -0.07258807122707367, 0.016511378809809685, 0.2873374819755554, 0.11023259162902832, -0.09375543892383575, 0.022052444517612457, -0.11179368942975998], [0.02113749273121357, 0.04652564227581024, -0.01798836514353752, -0.06224694475531578, -0.020754529163241386, 0.11917924880981445, -0.17422771453857422, 0.08333151042461395, 0.0345894955098629, -0.0031220291275531054], [-0.10139332711696625, -0.08740367740392685, -0.11216523498296738, -0.17255926132202148, 0.07375816255807877, 0.25615403056144714, 0.1851869523525238, -0.033314868807792664, 0.04402081295847893, -0.10393867641687393], [-0.05438658222556114, 0.061274535953998566, -0.11038339138031006, -0.06048312038183212, 0.06043625250458717, -0.03179243952035904, 0.14510667324066162, -0.0902329757809639, -0.0056757437996566296, 0.03498389944434166], [-0.06412730365991592, -0.01157383807003498, -0.11414177715778351, -0.10789190232753754, 0.006970056798309088, 0.047924503684043884, -0.05989902466535568, -0.055252257734537125, 0.01916651241481304, -0.004501280840486288], [-0.1612999439239502, -0.006353115197271109, -0.1364726722240448, 0.06547513604164124, 0.13229110836982727, 0.07375981658697128, -0.08533851057291031, -0.11609145998954773, 0.040089111775159836, -0.0059742918238043785], [-0.0570572204887867, 0.03139195591211319, -0.14366000890731812, -0.13908237218856812, 0.0506482869386673, 0.18738621473312378, 0.1868223398923874, -0.11925122141838074, 0.0791739672422409, -0.06986094266176224], [0.035955268889665604, -0.15033963322639465, -0.09333287179470062, -0.1743146926164627, 0.05935642495751381, 0.0966186597943306, 0.029794488102197647, -0.05043422803282738, 0.09029193222522736, -0.09353595227003098], [-0.021182972937822342, -0.03308863192796707, -0.019886774942278862, -0.06858614087104797, 0.0946817472577095, -0.05290975794196129, -0.02809039317071438, 0.08068832755088806, -0.029654746875166893, -0.03527701273560524], [-0.04613199457526207, -0.022940194234251976, 0.035176780074834824, -0.06309051811695099, -0.04495644196867943, 0.026296645402908325, 0.07210670411586761, 0.11290688812732697, 0.052520669996738434, -0.05556338652968407], [-0.08780086040496826, -0.034091103821992874, -0.08791644871234894, -0.02392537146806717, 0.10254322737455368, 0.09613679349422455, 0.15326285362243652, -0.002635047072544694, 0.013768334873020649, 0.03259658440947533], [0.0005830209702253342, 0.016051990911364555, 0.012837890535593033, -0.10353804379701614, -0.027719995006918907, 0.03797018527984619, -0.03340894356369972, -0.005895758513361216, 0.012997474521398544, 0.01704639382660389], [-0.12198125571012497, -0.06587282568216324, -0.1471344232559204, -0.15378612279891968, 0.15241234004497528, 0.15734754502773285, 0.15015767514705658, -0.12288524955511093, 0.06465937942266464, -0.08884087949991226], [-0.030634429305791855, 0.02169063128530979, -0.03277735412120819, 0.03306889161467552, 0.10663328319787979, -0.08237206935882568, 0.06359332799911499, 0.06235543638467789, 0.08896614611148834, -0.008126270957291126], [-0.01977168768644333, -0.13290347158908844, 0.023418555036187172, 0.05780504271388054, -0.050614241510629654, -0.17064917087554932, -0.06339669227600098, 0.0027698492631316185, 0.057147108018398285, 0.0007810769020579755], [0.0625104010105133, -0.05696072429418564, 0.05971817672252655, -0.05659930780529976, -0.007047851569950581, 0.04015333577990532, 0.004866601899266243, -0.08507143706083298, -0.048775285482406616, 0.06311815232038498], [-0.0360528826713562, -0.06645138561725616, -0.029925283044576645, 0.056945472955703735, 0.09621808677911758, -0.05142349749803543, 0.08865134418010712, -0.012234490364789963, 0.08712586760520935, -0.08201980590820312], [-0.060842446982860565, -0.007369536906480789, 0.0368652418255806, 0.08172450214624405, -0.05339536443352699, -0.1721840649843216, 0.016842424869537354, 0.06862082332372665, 0.012343588285148144, 0.01997046358883381], [0.020028965547680855, 0.022453537210822105, 0.07993974536657333, 0.11226225644350052, 0.08369185030460358, -0.10425937175750732, -0.0631767064332962, 0.09899082034826279, -0.009205278940498829, -0.06659892946481705], [0.007150881923735142, 0.08992252498865128, 0.14187310636043549, 0.0005993179511278868, -0.04359627142548561, 0.24298420548439026, 0.026126112788915634, -0.07102778553962708, -0.10903844237327576, 0.0033472098875790834], [-0.015454979613423347, 0.008198004215955734, 0.018618831411004066, 0.13608303666114807, 0.044255852699279785, -0.20586097240447998, -0.08622244745492935, -0.12090025842189789, 0.10668345540761948, 0.024595534428954124], [-0.0001797709846869111, -0.09844353049993515, 0.10135219991207123, 0.09991003572940826, -0.09516292065382004, -0.2255527675151825, -0.16209504008293152, 0.09170902520418167, -0.029216770082712173, 0.07078776508569717], [-0.003604147583246231, 0.01659492962062359, 0.01743866316974163, 0.03979549556970596, 0.01471931766718626, -0.18953201174736023, -0.05307431519031525, -0.08198048174381256, -0.007984164170920849, -0.07278706878423691], [-0.06262749433517456, 0.0005655800923705101, 0.027998708188533783, 0.033597346395254135, -0.029357170686125755, -0.028165817260742188, -0.10802522301673889, 0.031972289085388184, -0.0308989267796278, -0.15259967744350433], [-0.003015808528289199, -0.15011638402938843, 0.09446538239717484, 0.08513964712619781, 0.03883926570415497, -0.0065099443309009075, -0.014219406060874462, 0.09069711714982986, 0.0661291554570198, 0.0256049744784832], [0.05086088553071022, -0.09069793671369553, -0.08723291754722595, -0.03729184716939926, -0.01222563348710537, 0.10288451611995697, 0.06813738495111465, -0.02129889838397503, 0.013756699860095978, 0.06988006830215454], [-0.037583429366350174, 0.002007364993914962, 0.025741178542375565, -0.04051973298192024, 0.15051785111427307, 0.053393397480249405, 0.02188277244567871, 0.015183551236987114, 0.025757020339369774, -0.061544500291347504], [-0.10309728980064392, -0.03841332346200943, 0.03475484251976013, 0.08363007754087448, 0.05700065195560455, -0.01723707839846611, 0.0537530742585659, 0.0545259527862072, -0.008906054310500622, -0.08953223377466202], [-0.19262570142745972, -0.00903529953211546, -0.030527764931321144, 0.14955385029315948, -0.11544440686702728, -0.19459044933319092, -0.01409244630485773, 0.02643895521759987, 0.03752085566520691, 0.023477274924516678], [0.016620399430394173, 0.054744768887758255, 0.060318391770124435, 0.041134875267744064, -0.03632769361138344, 0.03839096426963806, -0.008918406441807747, -0.06768431514501572, 0.0169856958091259, -0.07130584120750427], [-0.0797882154583931, 0.004245776683092117, 0.16624493896961212, 0.10148077458143234, -0.08001022785902023, -0.21087317168712616, -0.08003662526607513, 0.003959036432206631, -0.02035307139158249, -0.04877452179789543], [-0.05119137465953827, 0.07111441344022751, 0.05077440291643143, 0.08588690310716629, -0.033577729016542435, -0.12055125087499619, -0.160732701420784, 0.061957597732543945, -0.026533331722021103, -0.008867040276527405], [-0.012464535422623158, -0.004229036625474691, 0.002305397531017661, 0.08133803308010101, -0.0407821387052536, -0.07991651445627213, -0.1081874817609787, -0.005621200427412987, -0.04336937889456749, -0.06716635823249817], [-0.045260850340127945, 0.05762751027941704, 0.1361033171415329, 0.12534581124782562, -0.026920080184936523, -0.13269853591918945, -0.210253044962883, 0.22028528153896332, -0.08776387572288513, -0.16263793408870697], [-0.01911136880517006, -0.09753715991973877, -0.03205464780330658, -0.018751874566078186, 0.08885089308023453, 0.028297293931245804, -0.01379765011370182, -0.03034844622015953, -0.020342601463198662, -0.001603813492693007], [-0.04722539708018303, -0.014042533002793789, 0.017504069954156876, -0.05133158713579178, 0.07779466360807419, -0.00655087735503912, -0.009278848767280579, -0.06515061855316162, -0.001462955609895289, 0.07601507008075714], [0.026345698162913322, -0.08675499260425568, 0.07867740094661713, 0.08137078583240509, -0.00861999299377203, -0.01912636309862137, 0.037123117595911026, 0.11116521060466766, -0.04402725026011467, -0.16701024770736694], [-0.010640699416399002, -0.04394844174385071, 0.00873427651822567, 0.0034335090313106775, 0.07338371872901917, -0.04279564693570137, 0.03529863432049751, 0.09787557274103165, 0.06542214006185532, -0.06586042791604996], [-0.08771244436502457, -0.08386390656232834, 0.03335261717438698, 0.1257767379283905, -0.07503669708967209, -0.08989836275577545, -0.041936736553907394, 0.0031884494237601757, 0.0892602875828743, 0.10390603542327881], [0.024234283715486526, 0.06479505449533463, 0.03852182626724243, 0.08109313249588013, -0.07921889424324036, -0.08884314447641373, 0.013375393114984035, -0.08048080652952194, -0.0480041578412056, 0.0029213670641183853], [-0.06921069324016571, -0.11663801968097687, 0.15347164869308472, 0.16076381504535675, -0.029687093570828438, -0.26052770018577576, -0.15436796844005585, -0.06244008615612984, -0.13190819323062897, 0.012959122657775879], [0.021604252979159355, -0.007770020980387926, 0.043339867144823074, 0.16516971588134766, 0.006947471294552088, -0.15044333040714264, -0.2331896424293518, 0.11067076027393341, -0.12108524888753891, 0.03892657160758972], [0.013163584284484386, -0.034593354910612106, -0.031414296478033066, 0.0821915864944458, -0.10943257808685303, -0.06418422609567642, -0.13696300983428955, 0.06684724241495132, 0.029739879071712494, -0.0019740883726626635], [0.010948306880891323, 0.0022310575004667044, 0.15729442238807678, 0.20353546738624573, -0.11753658205270767, -0.06386488676071167, -0.13877207040786743, 0.1310737580060959, -0.09348230063915253, -0.03496309742331505], [-0.03812257945537567, -0.11391249299049377, -0.003412366146221757, -0.01433513779193163, 0.027154359966516495, 0.051623232662677765, 0.02714182436466217, -0.031072702258825302, 0.10351306945085526, 0.09112254530191422], [0.010712322778999805, -0.061755258589982986, -0.06391289085149765, -0.1581706702709198, 0.14878398180007935, 0.06973795592784882, 0.11452831327915192, -0.09516310691833496, 0.010427520610392094, 0.13796043395996094], [-0.036129746586084366, 0.017802683636546135, 0.025636915117502213, -0.013077616691589355, -0.04823819547891617, 0.029963603243231773, -0.05265342816710472, 0.0008576007094234228, 0.08580014109611511, -0.06678403168916702], [-0.06128474324941635, -0.15948188304901123, -0.0412583090364933, -0.028083737939596176, 0.0791814923286438, -0.010680868290364742, -0.04053200036287308, 0.09174004942178726, 0.03640075773000717, 0.013951570726931095], [-0.03581557795405388, -0.12068210542201996, -0.0011468204902485013, 0.1593281626701355, 0.01781325228512287, -0.07747195661067963, -0.06791156530380249, 0.06807982921600342, 0.089264877140522, 0.011534499935805798], [0.07344456762075424, 0.026389561593532562, -0.004964448977261782, 0.0130098145455122, -0.01582081988453865, -0.03319636359810829, -0.007344599347561598, 0.007799783255904913, 0.0664740651845932, -0.024714307859539986], [-0.035723213106393814, -0.1292322278022766, 0.06221213936805725, 0.26274117827415466, -0.2545996904373169, -0.1508747786283493, -0.09952741116285324, -0.019240928813815117, -0.061676956713199615, 0.05129332095384598], [0.04500227048993111, -0.1080055832862854, 0.048875123262405396, 0.12709972262382507, 0.07045575231313705, -0.11023806035518646, -0.10295555740594864, 0.09036292135715485, -0.05158283933997154, -0.08907728642225266], [0.03696032240986824, -0.002358128549531102, 0.003535078838467598, 0.04603176936507225, -0.2598576843738556, -0.06622884422540665, -0.14850947260856628, -0.013787208124995232, 0.09838582575321198, 0.10203181952238083], [0.03622978925704956, -0.04557092487812042, 0.10614276677370071, 0.16517700254917145, -0.17442741990089417, -0.1400013118982315, -0.27367883920669556, 0.13171380758285522, -0.07208473235368729, -0.03306674584746361], [0.0625922754406929, -0.036625102162361145, -0.010607410222291946, 0.05782066658139229, -0.06734657287597656, 0.04601019248366356, -0.05225434526801109, -0.06979602575302124, -0.011739393696188927, -0.02362440712749958], [-0.07777763158082962, 0.07219141721725464, -0.06194787845015526, -0.157899871468544, 0.20111805200576782, 0.12343728542327881, 0.13729551434516907, -0.16955813765525818, -0.020933810621500015, -0.08935131877660751], [-0.044394806027412415, 0.09766872227191925, 0.042743418365716934, 0.13148769736289978, -0.08055686205625534, -0.05863150209188461, -0.08449848741292953, 0.04933216795325279, -0.05635664612054825, -0.02396913431584835], [-0.004901840351521969, -0.19128775596618652, -0.05452821031212807, 0.021471314132213593, -0.02745288610458374, 0.07653745263814926, -0.06154464930295944, 0.039609819650650024, 0.04471500962972641, 0.016693422570824623], [0.03557323291897774, -0.1883453130722046, 0.004746359307318926, 0.0549548864364624, 0.06227334216237068, -0.07509619742631912, 0.05319192633032799, 0.019179154187440872, 0.06759072840213776, 0.08036758750677109], [0.0289577916264534, -0.021767359226942062, 0.003935879096388817, -0.073357954621315, 0.06264347583055496, -0.022147873416543007, 0.09956327825784683, -0.009639592841267586, 0.05744597688317299, 0.06849303841590881], [-0.08260883390903473, -0.12146309018135071, 0.04066668823361397, 0.14000336825847626, -0.21343928575515747, -0.07705634832382202, -0.17701837420463562, 0.008408025838434696, 0.004850765690207481, 0.07222181558609009], [-0.0448092445731163, -0.14670374989509583, 0.08148247748613358, 0.15328679978847504, 0.016470786184072495, 0.036185409873723984, -0.045416053384542465, 0.14281782507896423, -0.18082906305789948, -0.226327046751976], [-0.05943335220217705, -0.07135274261236191, 0.022858910262584686, 0.08479788899421692, -0.24168778955936432, -0.11422140151262283, -0.16465312242507935, -0.00013922533253207803, 0.06565331667661667, 0.07379385083913803], [0.0879337340593338, -0.12632466852664948, 0.16956263780593872, 0.03188295662403107, -0.2796593904495239, 0.036492884159088135, -0.11916464567184448, 0.08660154044628143, 0.035359714180231094, 0.03415317088365555], [-0.004797072149813175, 0.10955881327390671, -0.025319186970591545, 0.06180042028427124, 0.007364555262029171, 0.07610506564378738, 0.01788482815027237, 0.009237395599484444, -0.07275809347629547, -0.05615944042801857], [0.06603462994098663, 0.15127453207969666, -0.013100367970764637, -0.08714105188846588, 0.46089473366737366, -0.1091495081782341, 0.18460313975811005, 0.04690561816096306, -0.15795333683490753, -0.23475274443626404], [-0.05281679704785347, 0.012416311539709568, 0.0315825529396534, 0.045028023421764374, 0.0004649086622521281, -0.004213795997202396, -0.09367545694112778, 0.07675402611494064, -0.07193370163440704, -0.08452598005533218], [0.00935344211757183, 0.03291494399309158, -0.05349354445934296, 0.01325113233178854, -0.13240139186382294, 0.01868387497961521, -0.08016470074653625, 0.04395681247115135, -0.10454513877630234, 0.08569947630167007], [0.047347765415906906, -0.06939197331666946, 0.03983844816684723, -0.027714602649211884, -0.05888507887721062, 0.09672585129737854, -0.002192149870097637, -0.03557693958282471, 0.07201937586069107, 0.028699299320578575], [-0.019870949909090996, -0.12484110891819, -0.038570500910282135, -0.17155033349990845, 0.1556171476840973, -0.035946935415267944, 0.14778991043567657, -0.0372653529047966, 0.04287470132112503, 0.0016873371787369251], [-0.03914765268564224, -0.10796736180782318, 0.0072792451828718185, 0.024841515347361565, -0.26643598079681396, 0.11740540713071823, -0.011514930054545403, 0.022652700543403625, 0.07930085062980652, 0.09702818095684052], [-0.021268416196107864, -0.07878092676401138, -0.0010816886788234115, 0.07284480333328247, -0.09511905908584595, 0.11924224346876144, -0.1828995794057846, 0.22409936785697937, -0.10796170681715012, -0.1405855268239975], [-0.09162398427724838, -0.14847318828105927, 0.05008750781416893, -0.025952288880944252, -0.13354074954986572, 0.03556802496314049, -0.03568587079644203, -0.10415521264076233, 0.16889624297618866, 0.20050151646137238], [0.038697220385074615, -0.18268081545829773, 0.004271304700523615, -0.11832933872938156, -0.18469490110874176, 0.14526763558387756, -0.016819579526782036, 0.03945573419332504, 0.026684479787945747, 0.09988769888877869], [-0.059394653886556625, 0.12528572976589203, -0.07024049758911133, 0.0337149016559124, -0.04210629686713219, -0.072650246322155, -0.058477312326431274, 0.11592353135347366, -0.07465289533138275, -0.04038156569004059], [-0.08212562650442123, 0.1926012486219406, -0.05421597138047218, -0.020151128992438316, 0.42352738976478577, -0.21499337255954742, 0.11937805265188217, 0.046338144689798355, -0.20597778260707855, -0.33019357919692993], [-0.12014215439558029, -0.15768572688102722, 0.029400182887911797, 0.030021866783499718, 0.12346617132425308, -0.05540365353226662, -0.05873989313840866, -0.07092516869306564, 0.09626678377389908, -0.039145465940237045], [-0.007112930063158274, 0.010865053161978722, 0.09731951355934143, 0.012999963015317917, -0.07773464918136597, 0.0944942757487297, -0.10477873682975769, 0.036642465740442276, -0.030858585610985756, -0.01007981225848198], [0.0339776985347271, 0.020216207951307297, -0.0562906414270401, 0.035664986819028854, -0.10689036548137665, 0.07161702960729599, -0.055312443524599075, 0.11484877020120621, -0.10037200897932053, 0.08638302981853485], [0.012546653859317303, -0.11177287995815277, 0.0237093735486269, -0.12547338008880615, 0.02590985782444477, 0.03146550804376602, 0.053273268043994904, -0.1412418633699417, 0.03884587436914444, 0.07046236842870712], [0.011108129285275936, -0.11261111497879028, 0.05066835507750511, 0.004987605847418308, -0.2573040723800659, 0.22842934727668762, 0.151779904961586, 0.06914263963699341, -0.06310708820819855, 0.10339917987585068], [0.03628632053732872, -0.08519944548606873, 0.09497147053480148, 0.11134922504425049, -0.05839107558131218, 0.15320107340812683, -0.09813563525676727, 0.04416364058852196, -0.05914560332894325, 0.05811033397912979], [-0.035315919667482376, -0.28607606887817383, -0.08911160379648209, -0.0029721218161284924, -0.15198928117752075, 0.2016378939151764, 0.06420903652906418, -0.03170133754611015, 0.19623570144176483, 0.10194191336631775], [0.11505617946386337, -0.09705717861652374, 0.053512249141931534, -0.09754221141338348, -0.17804275453090668, 0.2607612907886505, 0.1970870941877365, -0.07391098886728287, -0.041645970195531845, 0.10123403370380402], [-0.10681234300136566, -0.049002692103385925, -0.019521160051226616, 0.03421992436051369, 0.03593440353870392, -0.09000539779663086, -0.014483344741165638, 0.09521524608135223, -0.06617147475481033, -0.015805497765541077], [-0.09229349344968796, 0.2603776454925537, -0.14495545625686646, 0.06638168543577194, 0.37263163924217224, -0.23924340307712555, 0.012646487914025784, 0.07194647192955017, -0.08288232237100601, -0.27683934569358826], [-0.00557783292606473, -0.06659728288650513, 0.07425069063901901, -0.028962209820747375, -0.019179359078407288, 0.08887225389480591, 0.11898314207792282, -0.07048860937356949, 0.14283761382102966, -0.027164731174707413], [-0.022066598758101463, -0.09559376537799835, -0.05355219542980194, -0.05452965572476387, -0.04221899062395096, 0.04339982196688652, -0.04890914261341095, 0.027673037722706795, 0.06495342403650284, -0.003583682933822274], [-0.06817629188299179, 0.07270780205726624, 0.05783016234636307, 0.031823474913835526, -0.1424432098865509, -0.06145169213414192, -0.0607742965221405, 0.016661835834383965, 0.015278422273695469, 0.08674614876508713], [-0.03530485928058624, 0.12537433207035065, -0.09451001137495041, -0.08243042975664139, 0.17436225712299347, 0.02138998918235302, 0.12335292249917984, -0.047292400151491165, -0.05487389862537384, -0.09420929104089737], [-0.0034191322047263384, -0.23794279992580414, -0.046205632388591766, 0.0013431457336992025, -0.20432798564434052, 0.15655532479286194, 0.19699399173259735, 0.021609803661704063, -0.004793474450707436, 0.08790433406829834], [0.04062088578939438, -0.21016623079776764, 0.023935552686452866, -0.04830547794699669, -0.19132865965366364, 0.1359400451183319, -0.03382694721221924, 0.11822491139173508, -0.07207628339529037, 0.044755589216947556], [-0.1025199443101883, -0.13597501814365387, -0.09996534138917923, 0.006039013154804707, -0.20764416456222534, 0.15045884251594543, 0.09031262993812561, 0.09937281161546707, 0.03246096149086952, 0.09066060185432434], [0.0027779173105955124, -0.0803547129034996, -0.045832253992557526, -0.12198974937200546, -0.08355630189180374, 0.20223857462406158, 0.18608838319778442, -0.058908410370349884, -0.11603422462940216, 0.018132993951439857], [0.08942145854234695, -0.049809057265520096, -0.03442718833684921, -0.030739158391952515, 0.04546698182821274, 0.07841120660305023, -0.14410023391246796, 0.11572153866291046, 0.005410292651504278, -0.023339873179793358], [-0.05665866285562515, 0.16275274753570557, -0.004569555167108774, 0.058698590844869614, 0.3673025667667389, -0.08084715157747269, -0.015887761488556862, 0.09425771236419678, 0.0168099757283926, -0.32138538360595703], [-0.034708838909864426, -0.09336864948272705, -0.03170796483755112, -0.03858822211623192, -0.07187578827142715, 0.10817728191614151, 0.07538588345050812, -0.04267965257167816, 0.11482220143079758, 0.03131358325481415], [-0.06409115344285965, -0.12364242225885391, -0.0902571901679039, -0.0594220794737339, 0.07554440945386887, 0.15852372348308563, 0.028097329661250114, 0.06791788339614868, 0.11998189240694046, -0.026969436556100845], [-0.041383206844329834, -0.13493712246418, 0.009538994170725346, -0.04481325298547745, 0.04283379018306732, 0.050124380737543106, -0.06097102910280228, 0.09372247755527496, -0.010935106314718723, 0.015155641362071037], [-0.10519319027662277, 0.050077322870492935, 0.009257100522518158, -0.04311748966574669, 0.0829121544957161, -0.0003670880978461355, 0.07355982065200806, 0.04112778604030609, -0.04434714466333389, -0.18840603530406952], [-0.13500644266605377, -0.11383331567049026, -0.12916825711727142, -0.1177128329873085, -0.19889359176158905, 0.18877248466014862, 0.20204941928386688, 0.011148540303111076, -0.009321062825620174, -0.11623792350292206], [-0.003587354440242052, -0.17724387347698212, -0.08119417726993561, -0.0182202085852623, -0.1778925061225891, 0.20469090342521667, -0.03137538954615593, 0.13680046796798706, 0.017270341515541077, 0.0013702429132536054], [-0.09856417030096054, 0.07180822640657425, -0.20843423902988434, -0.07615986466407776, -0.10352443158626556, 0.19874300062656403, 0.00025170683511532843, 0.0439569428563118, 0.04319014400243759, -0.04338522255420685], [0.019853806123137474, -0.07435403019189835, -0.1513178050518036, -0.12295745313167572, 0.016930660232901573, 0.12293209135532379, 0.11115655303001404, -0.08421692252159119, -0.011987780220806599, 0.0422527976334095], [0.04769827425479889, -0.019921166822314262, -0.05503212288022041, -0.15023086965084076, 0.01049851719290018, 0.052042361348867416, -0.0048009841702878475, 0.04661949723958969, 0.06505212932825089, 0.0006210799911059439], [-0.14466527104377747, 0.04184325784444809, -0.016090894117951393, 0.1210217997431755, 0.18180859088897705, 0.1539650708436966, -0.08482097089290619, 0.06756148487329483, -0.017413072288036346, -0.2038564234972], [-0.047628261148929596, 0.033478233963251114, -0.1997462958097458, -0.03346630930900574, 0.027323348447680473, 0.12494324147701263, 0.12917040288448334, -0.07629865407943726, 0.05230284109711647, -0.07725679129362106], [0.0030011110939085484, -0.14357826113700867, -0.09005606919527054, -0.1557936668395996, -0.00724737299606204, 0.21590714156627655, 0.0294223390519619, -0.08640976250171661, 0.08741649985313416, -0.00329976505599916], [-0.05328722670674324, -0.0639251321554184, -0.09003692865371704, -0.0332728773355484, 0.06474698334932327, 0.03260127454996109, 0.013178083114326, -0.013846811838448048, 0.05217759311199188, 0.051840681582689285], [-0.058775003999471664, 0.07706323266029358, -0.009674488566815853, 0.023034466430544853, 0.042528823018074036, 0.015589750371873379, -0.007616366259753704, -0.0007139494991861284, 0.020981773734092712, -0.17492812871932983], [-0.06198147311806679, 0.02613689936697483, -0.15263019502162933, -0.19755427539348602, 0.0236467607319355, 0.2583561837673187, 0.12769262492656708, -0.028459222987294197, -0.03094256855547428, -0.04194490611553192], [-0.04882226139307022, -0.09815315157175064, -0.05040765553712845, -0.09638059884309769, -0.203904390335083, 0.20593345165252686, 0.04701806604862213, 0.049415722489356995, 0.05631976202130318, 0.03161119669675827], [-0.08743536472320557, -0.012236311100423336, -0.2245473712682724, -0.16105976700782776, 0.058341339230537415, 0.3066612482070923, 0.10887673497200012, -0.08229480683803558, 0.10394192487001419, -0.056960321962833405], [-0.05828274413943291, -0.14291803538799286, -0.029671331867575645, -0.008690591901540756, 0.1454886794090271, 0.11828871071338654, 0.15054191648960114, -0.08328917622566223, -0.001503612264059484, -0.009932738728821278], [0.0503104068338871, 0.03516304865479469, -0.15133136510849, -0.055676572024822235, -0.07877364009618759, 0.04565448686480522, 0.03658958896994591, -0.031713757663965225, 0.02909732237458229, -0.043347470462322235], [-0.16491013765335083, 0.060996606945991516, 0.011801832355558872, 0.056693196296691895, -0.00743844686076045, -0.028214428573846817, 0.019215749576687813, 0.0734855905175209, 0.09514454752206802, 0.02741052955389023], [-0.04727577418088913, 0.018009822815656662, -0.09335825592279434, -0.07746869325637817, 0.013791519217193127, 0.05692465603351593, 0.17252761125564575, -0.02972075715661049, -0.02438640221953392, -0.06603772193193436], [0.012785715982317924, -0.1106724664568901, -0.154899001121521, -0.11461853235960007, 0.01958177238702774, 0.2295406311750412, -0.04143545404076576, -0.10740141570568085, 0.01678238995373249, -0.07877575606107712], [-0.009767536073923111, -0.09464309364557266, -0.11561456322669983, -0.09432996809482574, 0.007320532575249672, 0.05288001522421837, 0.03948957845568657, -0.010434644296765327, 0.0013408164959400892, -0.02370268478989601], [-0.05302545800805092, 0.09961818903684616, 0.0394444614648819, -0.09019127488136292, -0.0030873515643179417, 0.12418942898511887, -0.05357060581445694, -0.005650675855576992, -0.02237354777753353, -0.061907071620225906], [-0.1730705052614212, 0.015929166227579117, -0.17083962261676788, -0.17868585884571075, 0.060577958822250366, 0.1977689117193222, 0.23402255773544312, -0.05177519470453262, -0.08134733885526657, -0.06349663436412811], [-0.10660666972398758, -0.10472133755683899, -0.01616583578288555, -0.07655633985996246, -0.13657031953334808, 0.22582709789276123, -0.03139376640319824, 0.06537606567144394, 0.0147290900349617, 0.04183020442724228], [-0.09855838865041733, -0.13481567800045013, -0.2697911262512207, -0.25583040714263916, 0.19381183385849, 0.212337926030159, 0.15096642076969147, -0.007107098586857319, -0.012932178564369678, -0.10283546894788742], [0.031177066266536713, 0.04044279828667641, -0.03752210736274719, 0.14984175562858582, 0.05233629047870636, -0.17425256967544556, -0.054045096039772034, -0.01576102338731289, 0.01684294082224369, -0.03572267293930054], [-0.05320611968636513, -0.018877672031521797, -0.04308231174945831, 0.0020931961480528116, 0.022057926282286644, -0.10765928775072098, -0.06531902402639389, 0.11134198307991028, -0.0022883983328938484, 0.05981479212641716], [0.014931976795196533, 0.01700717583298683, -0.09592078626155853, -0.08073219656944275, 0.0278074461966753, -0.06525295227766037, 0.080679751932621, -0.10234712809324265, -0.03712441772222519, 0.09176041930913925], [-0.0064001064747571945, -0.05984468758106232, -0.08478686213493347, 0.05486680567264557, 0.025332963094115257, 0.014679860323667526, -0.02819017693400383, 0.041970402002334595, -0.053767357021570206, -0.03819575905799866], [0.028124669566750526, -0.03959004208445549, 0.0197452325373888, 0.14852556586265564, -0.06733139604330063, -0.1390465945005417, 0.02527308464050293, 0.03994247689843178, 0.019768180325627327, -0.05165434256196022], [-0.0804862529039383, 0.0533120222389698, 0.12114188820123672, 0.12719368934631348, -0.14951710402965546, -0.10710757225751877, -0.05719447880983353, 0.06532411277294159, -0.08277653157711029, -0.07855968922376633], [0.022820964455604553, 0.0700889378786087, 0.10777127742767334, 0.01465306431055069, -0.05254960432648659, 0.09687178581953049, 0.01543356478214264, -0.034286197274923325, -0.03903000056743622, -0.10632353276014328], [0.02649419754743576, -0.08056210726499557, 0.05449951812624931, 0.18994547426700592, 0.14627021551132202, -0.23928293585777283, -0.05156957358121872, -0.020312651991844177, -0.09660127758979797, -0.13988609611988068], [0.04756569862365723, -0.005304285325109959, 0.055915139615535736, 0.04200436547398567, -0.04588238522410393, -0.06714150309562683, 0.0019018171587958932, 0.007126159034669399, 0.0397786907851696, -0.037499599158763885], [-0.016209516674280167, -0.04874983802437782, 0.1533496379852295, 0.0508456714451313, -0.05062771216034889, -0.2503212094306946, -0.08370786905288696, 0.030980726704001427, -0.11821583658456802, -0.1434006243944168], [-0.056867025792598724, -0.01589513011276722, 0.0251544788479805, 0.13678012788295746, -0.01081789843738079, -0.11701533198356628, -0.10081934183835983, 0.1414194256067276, -0.04769308120012283, -0.16471892595291138], [-0.07171761244535446, -0.08306542038917542, 0.11136094480752945, 0.04775864630937576, -0.00042620141175575554, -0.07126224786043167, 0.036535486578941345, 0.05533673241734505, 0.004979107528924942, -0.017985031008720398], [0.09364639222621918, -0.13540299236774445, 0.04079551622271538, -0.07978372275829315, 0.054606206715106964, 0.10201418399810791, 0.00233922409825027, -0.12397872656583786, -0.018925251439213753, 0.023185038939118385], [-0.014436371624469757, -0.12551738321781158, 0.03564687445759773, 0.05744004622101784, 0.016927335411310196, -0.02598598040640354, -0.04975621774792671, 0.01919732242822647, 0.0030027003958821297, 0.015568369068205357], [-0.03469681367278099, -0.019815096631646156, 0.08079826086759567, 0.022120408713817596, 0.0036785060074180365, -0.08091043680906296, -0.04657039791345596, -0.03380925580859184, 0.04187813773751259, 0.0026699420996010303], [0.032496631145477295, -0.010250362567603588, 0.12398838996887207, 0.126299187541008, 0.03982509672641754, -0.18939465284347534, -0.10749485343694687, -0.014429903589189053, -0.07231060415506363, -0.008555945008993149], [-0.07271819561719894, 0.15791265666484833, 0.1705859750509262, 0.05209242179989815, -0.04368821531534195, 0.05017535015940666, 0.006579011678695679, -0.08405409008264542, 0.017857952043414116, -0.04612348973751068], [-0.09486038237810135, -0.03045262023806572, 0.2221914529800415, 0.25999629497528076, -0.026827046647667885, -0.24406304955482483, -0.13793732225894928, 0.0992862805724144, -0.1393190622329712, -0.1372314691543579], [-0.012884825468063354, 0.016702376306056976, 0.1983104944229126, 0.07987046241760254, -0.0009711715392768383, -0.25951260328292847, -0.16030195355415344, 0.1497197449207306, -0.025067904964089394, -0.03332085534930229], [-0.05122007057070732, -0.13037489354610443, 0.021112453192472458, 0.14490307867527008, -0.12602873146533966, -0.03388437628746033, -0.15097089111804962, -0.011381736025214195, 0.02984282188117504, 0.028353925794363022], [0.009090781211853027, -0.005714033730328083, 0.11416062712669373, 0.1961767077445984, -0.026915008202195168, 0.00913086999207735, -0.10503359884023666, 0.14148955047130585, -0.05088908597826958, -0.08937647193670273], [-0.032987065613269806, -0.10337767750024796, 0.026010531932115555, 0.09153974801301956, 0.0012574857100844383, -0.01778382621705532, 0.05240529403090477, -0.04268619045615196, -0.13078518211841583, 0.0368686206638813], [0.011977636255323887, -0.00463978573679924, -0.026193657889962196, -0.016912071034312248, 0.00015378555690404028, -0.06779879331588745, 0.06370074301958084, -0.16482536494731903, -0.03179991617798805, 0.16793617606163025], [-0.03313222527503967, -0.027296070009469986, 0.10561658442020416, 0.05993331968784332, -0.06767208129167557, 0.011361850425601006, 0.006501528900116682, 0.0675446093082428, 0.037627700716257095, -0.07403703778982162], [-0.0031863823533058167, -0.08382170647382736, -0.04127621650695801, -0.0652913823723793, 0.04300517961382866, -0.0982244610786438, -0.009308841079473495, -0.06932458281517029, -0.016657082363963127, 0.03813048452138901], [-0.024599896743893623, -0.022827796638011932, -0.003901089308783412, 0.05620760843157768, -0.10131921619176865, 0.016574732959270477, -0.10267335176467896, -0.08491676300764084, 0.12152256071567535, -0.009265601634979248], [0.025861669331789017, 0.027186546474695206, 0.0674944669008255, -0.006696749944239855, -0.08310810476541519, -0.06773247569799423, 0.03249867632985115, -0.10050766915082932, -0.04370172321796417, -0.0022294993977993727], [-0.07850177586078644, 0.02777143009006977, 0.09276118129491806, 0.30148056149482727, -0.19390007853507996, -0.15614593029022217, -0.14841869473457336, 0.1784408539533615, -0.1550319790840149, -0.16122032701969147], [0.027976641431450844, 0.039184678345918655, 0.135760098695755, 0.15704761445522308, -0.025278480723500252, -0.2410324364900589, -0.11181334406137466, 0.12318453937768936, -0.12278074771165848, -0.1890769600868225], [0.013409117236733437, 0.02187972515821457, 0.06775490194559097, 0.06017013266682625, -0.22341296076774597, -0.00024637789465487003, -0.1729850322008133, -0.02765526995062828, 0.012911121360957623, 0.02869683876633644], [-0.052262578159570694, 0.014080172404646873, 0.1214178279042244, 0.07222157716751099, -0.2718246281147003, 0.020321331918239594, -0.23311778903007507, 0.14068497717380524, 0.11214806139469147, -0.11320238560438156], [-0.031880803406238556, -0.09728370606899261, 0.009220017120242119, 0.06561721861362457, 0.13930964469909668, 0.07256531715393066, 0.017649205401539803, -0.09762412309646606, 0.015066572465002537, -0.04888773337006569], [0.07264786958694458, -0.16640442609786987, -0.060598231852054596, -0.041916374117136, 0.1219254657626152, 0.12114235758781433, 0.13812537491321564, -0.17131778597831726, 0.028282232582569122, 0.043406929820775986], [-0.022298363968729973, -0.004881022963672876, 0.09005911648273468, 0.024703385308384895, -0.14692626893520355, 0.07901065796613693, -0.13471922278404236, -0.02814306877553463, 0.03972264751791954, 0.011016696691513062], [0.0945957750082016, -0.09168283641338348, -0.06288500875234604, -0.09886913746595383, 0.040239185094833374, 0.03505652770400047, -0.004201503004878759, 0.0035170777700841427, 0.02944587916135788, 0.10097653418779373], [-0.12962588667869568, -0.004129642620682716, -0.12372592091560364, -0.051783155649900436, -0.03270820155739784, -0.0005583929014392197, -0.08250664919614792, 0.06255187839269638, 0.12561964988708496, 0.03235197067260742], [-0.04460459202528, -0.016510721296072006, 0.10633275657892227, 0.033037781715393066, -0.12498950958251953, -0.12328234314918518, 0.034395501017570496, -0.14539875090122223, -0.03855140879750252, 0.06652669608592987], [0.012558997608721256, 0.0065429904498159885, 0.1127404198050499, 0.25958311557769775, -0.2123602330684662, -0.20908759534358978, -0.05167577043175697, 0.1900980919599533, -0.18489903211593628, -0.060025084763765335], [0.02647770568728447, -0.04898666590452194, 0.11070791631937027, 0.20784872770309448, -0.006547553464770317, -0.07127831131219864, -0.09944727271795273, 0.20311208069324493, -0.14538605511188507, -0.1588248759508133], [-0.026506662368774414, -0.07090440392494202, 0.03180552273988724, 0.017806027084589005, -0.22191578149795532, -0.07848996669054031, -0.17033784091472626, 0.07584239542484283, 0.09159917384386063, 0.13408362865447998], [-0.10943498462438583, 0.05615794658660889, 0.12555091083049774, 0.09127164632081985, -0.2731286287307739, -0.008052327670156956, -0.20363140106201172, 0.15110036730766296, -0.020887622609734535, 0.04421799257397652], [-0.18693098425865173, 0.054054975509643555, 0.04217873886227608, 0.00250419182702899, 0.04674241691827774, 0.05488485097885132, -0.05728170648217201, 0.03129536658525467, -0.0013628066517412663, -0.05750955641269684], [-0.017821824178099632, 0.017242999747395515, -0.08724958449602127, -0.022533096373081207, 0.08531185984611511, -0.010759650729596615, 0.2267783135175705, -0.16298221051692963, -0.14130263030529022, -0.06414073705673218], [0.0077721853740513325, 0.09287197142839432, 0.12796205282211304, 0.02834162674844265, -0.08280661702156067, 0.03601273521780968, -0.17596697807312012, 0.012726987712085247, -0.004839103203266859, -0.040466293692588806], [-0.08515074104070663, -0.03928270563483238, -0.0027323313988745213, 0.05796173959970474, -0.013323618099093437, 0.08474620431661606, -0.08112321048974991, 0.055745434015989304, -0.03875075653195381, -0.06513960659503937], [0.11397862434387207, -0.09732292592525482, -0.033124420791864395, -0.015207496471703053, 0.06132376939058304, -0.018305107951164246, 0.0033730757422745228, -0.021908851340413094, -0.03591866046190262, 0.10406159609556198], [0.08940411359071732, 0.0016986357513815165, 0.09091143310070038, -0.11065144836902618, 0.024171503260731697, -0.029181551188230515, 0.018267523497343063, -0.0933133065700531, -0.0506121963262558, 0.12721161544322968], [-0.13252921402454376, -0.02095477096736431, 0.10221828520298004, 0.3210090398788452, -0.19936925172805786, -0.07514967769384384, -0.030799292027950287, 0.14287224411964417, -0.05159797891974449, -0.025041237473487854], [-0.0618639811873436, 0.06754520535469055, 0.031019939109683037, 0.06691011041402817, -0.0831175297498703, 0.028019430115818977, -0.15161025524139404, 0.23524080216884613, -0.017173433676362038, -0.1419999897480011], [-0.05269072204828262, -0.057281963527202606, 0.010427173227071762, -0.006229311227798462, -0.30021828413009644, 0.03692251443862915, -0.18440411984920502, 0.09606388211250305, 0.06952440738677979, 0.14516207575798035], [0.029150521382689476, -0.06160112842917442, 0.13591386377811432, -0.12284700572490692, -0.15800684690475464, -0.016162198036909103, -0.13829921185970306, 0.2405964434146881, -0.07664592564105988, -0.05933075398206711], [-0.13956481218338013, 0.06515096127986908, -0.03681738302111626, 0.09844214469194412, 0.0117996446788311, 0.055972617119550705, -0.06512180715799332, -0.0769653394818306, 0.006030964199453592, -0.06428666412830353], [-0.007804516702890396, 0.18569731712341309, -0.11716316640377045, -0.030330689623951912, 0.30693405866622925, -0.06841205060482025, 0.059198468923568726, 0.23333360254764557, -0.21520762145519257, -0.1608397215604782], [-0.1241302490234375, 0.01377330906689167, 0.08296789228916168, -0.06127667427062988, -0.11203925311565399, -0.018650829792022705, -0.17534513771533966, 0.11891686916351318, 0.013106731697916985, 0.026126952841877937], [-0.08914283663034439, -0.007056567817926407, 0.07397062331438065, 0.07836440950632095, -0.11816798895597458, 0.09750906378030777, -0.11580969393253326, 0.09382729977369308, -0.049857717007398605, -0.03283949941396713], [-0.05359045788645744, 0.002681698650121689, -0.07741904258728027, 0.12948520481586456, -0.016766944900155067, 0.07292434573173523, -0.030667589977383614, 0.04963788390159607, -0.06359797716140747, -0.03436995670199394], [0.07350198179483414, -0.12675465643405914, -0.024074865505099297, -0.02176082134246826, 0.008182627148926258, 0.05209597945213318, 0.1683192104101181, -0.08661999553442001, -0.06314920634031296, 0.0984695553779602], [-0.09186825901269913, -0.12735450267791748, 0.12381596118211746, 0.12613527476787567, -0.29193738102912903, 0.05986224114894867, -0.008247080259025097, 0.17102693021297455, -0.04377296194434166, 0.0314958430826664], [0.00354268797673285, 0.007297959178686142, 0.01494654081761837, -0.051599424332380295, -0.2239333540201187, 0.15873144567012787, -0.00822304654866457, 0.158334881067276, -0.05597719922661781, -0.14486409723758698], [0.04185858368873596, -0.186099112033844, -0.0016838841838762164, 0.05029167979955673, -0.1867852509021759, 0.08601652085781097, -0.14643996953964233, 0.12865638732910156, -0.10299176722764969, 0.05575096607208252], [0.10311388224363327, -0.13523761928081512, 0.010117361322045326, -0.09329701960086823, -0.1465500444173813, 0.15064504742622375, -0.012259983457624912, 0.1499662697315216, 0.03543616831302643, -0.0989014208316803], [-0.17136958241462708, -0.05498763918876648, -0.040952134877443314, 0.020248694345355034, -0.00024875756935216486, 0.005842192098498344, 0.004863977897912264, -0.0032941040117293596, 0.04718422517180443, 0.10569602996110916], [-0.00521310418844223, 0.14728185534477234, 0.015052796341478825, -0.15780115127563477, 0.27843013405799866, -0.2166014462709427, 0.018715547397732735, 0.12161711603403091, -0.22284117341041565, -0.14922331273555756], [0.1371997892856598, -0.06899749487638474, 0.10497250407934189, -0.08070536702871323, 0.0918598473072052, 0.08717327564954758, -0.024845417588949203, 0.12700147926807404, -0.15782806277275085, 0.0064492360688745975], [-0.09097854048013687, 0.06433908641338348, 0.008103450760245323, 0.0278425682336092, -0.09864700585603714, -0.012101919390261173, 0.010723244398832321, 0.021219614893198013, -0.09554384648799896, 0.02077023684978485], [-0.11560112982988358, 0.09366980940103531, -0.08651027828454971, 0.05975726991891861, -0.14895102381706238, 0.029193716123700142, -0.11090531200170517, 0.06390812247991562, 0.0007571842288598418, -0.07504162937402725], [0.14059758186340332, -0.0921545922756195, -0.034969884902238846, -0.07126394659280777, -0.021491587162017822, -0.03410220891237259, 0.1996217519044876, -0.1262977570295334, -0.07376542687416077, -0.0614372193813324], [0.06731772422790527, -0.19366727769374847, -0.015539860352873802, 0.11357288062572479, -0.13850535452365875, 0.15952247381210327, 0.08510084450244904, 0.07057130336761475, -0.08925075083971024, 0.045607879757881165], [-0.013596486300230026, 0.03748553246259689, 0.03921261429786682, -0.12141838669776917, -0.24427706003189087, 0.18131111562252045, 0.0887923538684845, 0.15508800745010376, 0.004419179633259773, -0.15637974441051483], [0.02573634870350361, -0.053131137043237686, -0.06558815389871597, 0.1408378928899765, -0.11292702704668045, 0.09911087155342102, -0.09046343713998795, 0.10058262199163437, -0.04664042964577675, -0.02417907305061817], [0.030593661591410637, -0.1516825556755066, 0.06323819607496262, -0.12890742719173431, -0.25624826550483704, 0.2802031636238098, 0.12973111867904663, -0.00839261431246996, 0.052685339003801346, 0.019524605944752693], [-0.1423841118812561, 0.07537408173084259, -0.07276586443185806, 0.030130945146083832, 0.05223526060581207, -0.06515774875879288, 0.03284776955842972, 0.06641342490911484, -0.05573345720767975, 0.1084447056055069], [-0.004659625235944986, 0.1648273915052414, 0.0032296034041792154, -0.0008302130736410618, 0.3640832304954529, -0.26409000158309937, 0.0811145082116127, -0.0056149279698729515, -0.10124059021472931, -0.14566034078598022], [0.05223444849252701, -0.2711445391178131, -0.012923408299684525, 0.0003473745018709451, -0.0827152356505394, 0.0964728519320488, 0.09500934183597565, -0.008861740119755268, -0.038966044783592224, 0.033014215528964996], [-0.07887836545705795, -0.0753105953335762, 0.06717174500226974, -0.038823433220386505, 0.06291037052869797, -0.03435357287526131, -0.06591223925352097, 0.028938984498381615, -0.01257599052041769, 0.0035235085524618626], [-0.033751167356967926, -0.01322067528963089, -0.005361504852771759, 0.10620781034231186, -0.11372566968202591, -0.12105996906757355, -0.028778675943613052, 0.1575254648923874, -0.05053211748600006, 