{"conv_1_1": {"kernel": [[[[-0.3365020751953125, 0.15162956714630127, 0.22220544517040253, -0.1893339604139328, 0.12821152806282043, 0.143980473279953, -0.03863413631916046, 0.1281871348619461, -0.013233305886387825, -0.04964247718453407]], [[-0.4040948152542114, 0.10656141489744186, 0.22668512165546417, -0.20678003132343292, -0.08043008297681808, 0.21544964611530304, 0.013752947561442852, 0.09320927411317825, 0.07718410342931747, -0.11030760407447815]], [[-0.5066930055618286, -0.13912083208560944, 0.16169622540473938, -0.4718485176563263, -0.2379121482372284, 0.19419804215431213, 0.10866110026836395, 0.30728384852409363, 0.15924960374832153, 0.019779950380325317]], [[-0.30693119764328003, -0.1341104656457901, 0.22496281564235687, -0.2539854049682617, -0.12719310820102692, 0.16814598441123962, 0.11055593937635422, 0.2447485774755478, 0.10570228844881058, 0.059948891401290894]], [[-0.3944942057132721, -0.16722102463245392, 0.07535557448863983, 0.0686674490571022, -0.05804522708058357, 0.210275337100029, -0.056823380291461945, -0.021210672333836555, 0.11270816624164581, 0.13956737518310547]], [[-0.2695051431655884, -0.13578933477401733, 0.0574641190469265, 0.17608435451984406, 0.08462601900100708, 0.05919788405299187, -0.10149670392274857, -0.09042824804782867, 0.18574072420597076, 0.1776428520679474]], [[-0.33955997228622437, -0.07758622616529465, 0.09729662537574768, 0.2614958584308624, 0.18406301736831665, 0.20190683007240295, -0.010145502164959908, -0.13147422671318054, 0.014889098703861237, 0.012125687673687935]]], [[[-0.18596144020557404, -0.0853830948472023, 0.14340409636497498, -0.31804129481315613, -0.11282800883054733, 0.053456973284482956, -0.09256758540868759, 0.09363465756177902, 0.20867928862571716, 0.05249563604593277]], [[-0.47938254475593567, 0.03960577771067619, 0.30389413237571716, -0.36155417561531067, -0.17193366587162018, 0.19112497568130493, 0.02118992619216442, 0.21789148449897766, 0.13106125593185425, 0.057708125561475754]], [[-0.404703825712204, -0.10359586030244827, 0.23222260177135468, -0.40035247802734375, -0.319205641746521, 0.21388408541679382, 0.06736394762992859, 0.2446240931749344, 0.06539998948574066, 0.08567630499601364]], [[-0.5171335339546204, -0.06070767715573311, 0.3247356414794922, -0.11315808445215225, -0.1524440497159958, 0.17423202097415924, -0.01908797211945057, 0.0768548920750618, 0.07430936396121979, 0.00797435361891985]], [[-0.44270336627960205, 0.1100597158074379, 0.3228718936443329, 0.09207015484571457, 0.13940905034542084, 0.08247732371091843, -0.06342269480228424, -0.1128057911992073, 0.16807889938354492, 0.1689443737268448]], [[-0.35712772607803345, 0.06475087255239487, 0.3025382459163666, 0.20992450416088104, 0.21209728717803955, 0.13920776546001434, -0.022426141425967216, -0.32551732659339905, 0.25702032446861267, 0.01791027933359146]], [[-0.24582506716251373, -0.03286845609545708, 0.23637205362319946, 0.17252707481384277, 0.2024879902601242, -0.02729048579931259, 0.021565144881606102, 0.0018010222120210528, 0.02594883181154728, 0.11886047571897507]]], [[[0.21631915867328644, -0.13341361284255981, 0.0338469035923481, -0.19976498186588287, -0.29884085059165955, 0.1839807629585266, -0.04470669850707054, 0.1514693796634674, -0.04241910204291344, -0.017079602926969528]], [[0.04887004569172859, 0.08682694286108017, 0.07006869465112686, -0.3532423675060272, -0.23242680728435516, 0.27013057470321655, 0.09055954217910767, 0.2504456341266632, 0.008770130574703217, 0.1353396326303482]], [[-0.07756410539150238, 0.15615276992321014, 0.1323530077934265, -0.35934779047966003, -0.0781494528055191, 0.2357499897480011, -0.10608834028244019, 0.23948559165000916, 0.020344501361250877, 0.10049957782030106]], [[-0.11548750102519989, 0.228462353348732, 0.320975661277771, 0.10615574568510056, 0.2117784172296524, 0.17690743505954742, 0.10578674077987671, -0.08643125742673874, 0.10102181136608124, 0.0269783828407526]], [[-0.02499307133257389, 0.11107620596885681, 0.2787765860557556, 0.3140631914138794, 0.21221905946731567, 0.024143705144524574, 0.08736801147460938, -0.4204106330871582, 0.2761847972869873, -0.03608788177371025]], [[-0.06417853385210037, -0.053403567522764206, 0.20195791125297546, 0.3000314235687256, 0.16904973983764648, 0.045074474066495895, 0.1254899501800537, -0.36826685070991516, 0.20879797637462616, -0.106051966547966]], [[-0.10604139417409897, -0.2953685224056244, 0.30061009526252747, 0.07265104353427887, 0.015877626836299896, -0.1463707685470581, 0.114345982670784, 0.0176542978733778, 0.21788769960403442, -0.11323623359203339]]], [[[0.32210326194763184, 0.08235328644514084, -0.30956190824508667, -0.20280583202838898, -0.20884892344474792, 0.152128666639328, 0.002436039736494422, 0.2322663515806198, -0.05430601164698601, 0.15115317702293396]], [[0.2537803053855896, 0.11208495497703552, -0.22350741922855377, -0.33644041419029236, 0.07771115750074387, 0.15671861171722412, -0.016729215160012245, 0.26990699768066406, -0.1683090627193451, -0.03221312537789345]], [[0.24370628595352173, 0.0040091825649142265, -0.10912111401557922, -0.17273925244808197, 0.09480880945920944, -0.03205994516611099, -0.12283996492624283, 0.12787725031375885, -0.035543810576200485, -0.023362362757325172]], [[0.3096044957637787, 0.1162770465016365, -0.22056731581687927, 0.2365790605545044, 0.21648763120174408, -0.1036810576915741, 0.06588786840438843, -0.023654555901885033, -0.10254277288913727, -0.27817782759666443]], [[0.21162502467632294, 0.002231348305940628, -0.048289038240909576, 0.22986121475696564, 0.04254234954714775, -0.18893927335739136, 0.10286033153533936, -0.4891883432865143, 0.1287114918231964, -0.29931727051734924]], [[0.24423930048942566, 0.0839090570807457, -0.18568414449691772, 0.177163228392601, 0.027295129373669624, -0.20778591930866241, -0.1062469333410263, -0.33199864625930786, 0.3518950343132019, -0.20157670974731445]], [[0.11499004811048508, -0.1459045261144638, -0.0887005403637886, 0.08378925919532776, -0.07783574610948563, -0.21968165040016174, 0.06681574136018753, -0.06955855339765549, 0.3271735906600952, -0.18611454963684082]]], [[[0.2369481325149536, 0.02398308739066124, -0.3741638660430908, -0.293750524520874, 0.10908538848161697, -0.011068527586758137, 0.03163361921906471, 0.10009387880563736, -0.29140639305114746, -0.0007177051156759262]], [[0.23644988238811493, 0.09662400186061859, -0.19080524146556854, -0.29427093267440796, 0.15707415342330933, -0.012235681526362896, 0.06758259981870651, 0.28089645504951477, -0.27745598554611206, -0.04430566355586052]], [[0.20734639465808868, -0.09750276058912277, -0.2582608163356781, -0.014996319077908993, 0.16072611510753632, -0.24333186447620392, 0.03890581429004669, 0.16807085275650024, -0.3283110558986664, -0.18650975823402405]], [[0.20044788718223572, 0.010267190635204315, -0.2957853674888611, 0.27168336510658264, 0.14373739063739777, -0.2827393710613251, 0.07905324548482895, -0.23578926920890808, -0.19647911190986633, -0.21953146159648895]], [[0.3342173099517822, 0.13252177834510803, -0.37036576867103577, 0.15071971714496613, -0.0064962864853441715, -0.28311076760292053, -0.06824146211147308, -0.49627596139907837, 0.00882002804428339, -0.12681981921195984]], [[0.1761636883020401, 0.144460991024971, -0.20812034606933594, 0.09808219969272614, -0.10090343654155731, -0.3611770570278168, -0.14668910205364227, -0.3898877203464508, 0.21487514674663544, -0.12597541511058807]], [[0.22002418339252472, 0.13004973530769348, -0.19774536788463593, 0.13216763734817505, 0.033138737082481384, -0.3638242781162262, -0.16386981308460236, 0.09666174650192261, 0.3590891659259796, 0.016223963350057602]]], [[[0.13332851231098175, 0.044307537376880646, -0.22847631573677063, -0.281942218542099, 0.214136004447937, -0.14330773055553436, 0.0708208680152893, 0.23284094035625458, -0.2721411883831024, -0.18456099927425385]], [[0.23270244896411896, -0.090306855738163, -0.24857197701931, -0.11737877130508423, 0.17512769997119904, -0.16088268160820007, 0.006398297380656004, 0.332215815782547, -0.24100738763809204, 0.030886335298419]], [[0.15307272970676422, -0.06366541981697083, -0.21922118961811066, 0.12244781851768494, 0.010097148828208447, -0.3767666518688202, -0.05563320592045784, 0.23494206368923187, -0.3399391770362854, 0.06371678411960602]], [[0.24254432320594788, -0.08785229921340942, -0.2968033254146576, 0.16669805347919464, 0.038948263972997665, -0.2085607945919037, 0.09856408089399338, -0.056214477866888046, -0.3541405498981476, 0.19098339974880219]], [[0.08930115401744843, 0.10865408182144165, -0.201405867934227, 0.22033080458641052, -0.13951054215431213, -0.31990674138069153, -0.09177803993225098, -0.41548123955726624, -0.37931081652641296, 0.17737801373004913]], [[0.12342534959316254, 0.264773964881897, -0.08516056090593338, 0.11472255736589432, -0.1229809895157814, -0.13341741263866425, 0.04949009045958519, -0.23527584969997406, -0.02832137607038021, 0.16559086740016937]], [[0.13510818779468536, 0.14861862361431122, -0.14573074877262115, 0.12738527357578278, -0.016626767814159393, 0.0013544177636504173, 0.10801587253808975, -0.03454497456550598, 0.2594388425350189, 0.006870966404676437]]], [[[0.00937161035835743, -0.12752999365329742, 0.11959688365459442, -0.031073803082108498, -0.0038842440117150545, -0.019722506403923035, -0.1473420411348343, 0.11132705211639404, -0.06770742684602737, -0.0581902340054512]], [[0.16988562047481537, -0.06862346082925797, -0.059743430465459824, 0.09532495588064194, -0.003653779625892639, -0.1303146481513977, -0.0488625168800354, 0.2867230176925659, -0.0816052034497261, -0.0035773594863712788]], [[0.09905526041984558, -0.02485291287302971, -0.08153176307678223, 0.2142813801765442, -0.03363988921046257, -0.2566568851470947, 0.025389868766069412, 0.13595271110534668, -0.1623201221227646, 0.1880478411912918]], [[0.07080324739217758, -0.12548093497753143, 0.02847885526716709, 0.24112765491008759, -0.15980057418346405, -0.2870047986507416, 0.07991067320108414, 0.05240214243531227, -0.29423779249191284, 0.16721153259277344]], [[0.07614809274673462, -0.27726688981056213, 0.030359188094735146, 0.23927390575408936, -0.11157107353210449, -0.25127050280570984, 0.1767667979001999, -0.14537091553211212, -0.35632240772247314, 0.12229402363300323]], [[-0.024493159726262093, -0.1160300225019455, -0.006215427070856094, 0.05368955060839653, -0.14286741614341736, -0.10487934947013855, 0.05172748118638992, -0.17560169100761414, -0.24858596920967102, 0.17377260327339172]], [[0.027191348373889923, 0.03022487461566925, 0.020498674362897873, -0.019652891904115677, 0.054816532880067825, 0.18873804807662964, 0.17073965072631836, -0.02427034080028534, 0.018012039363384247, 0.07335144281387329]]]], "bias": [0.07363011687994003, -0.016373785212635994, 0.05481072515249252, 0.00012320280075073242, -0.03443321958184242, 0.008960584178566933, -0.008108984678983688, 0.02112414874136448, -0.0011142120929434896, -0.0011118269758298993], "kernel_shape": [7, 7, 1, 10], "bias_shape": [10]}, "dense_1": {"kernel": [[-0.018225165084004402, 0.050900764763355255, 0.003616022877395153, -0.056190457195043564, -0.06577211618423462, 0.054600540548563004, 0.04508037865161896, -0.010122205130755901, -0.06668786704540253, -0.06580255180597305], [-0.034072574228048325, 0.12125721573829651, -0.061642859131097794, 0.05788447707891464, -0.07532396912574768, -0.07889129966497421, -0.038348663598299026, 0.15409034490585327, -0.0327877514064312, -0.18258480727672577], [0.030004335567355156, -0.0017698388546705246, -0.020690713077783585, 0.012495107017457485, -0.03907320648431778, -0.003958627115935087, 0.04560687020421028, 0.031679559499025345, -0.00028467390802688897, 0.07188168913125992], [0.05603223666548729, 0.04800081253051758, 0.015912653878331184, 0.0681195855140686, -0.08285626024007797, -0.02225048840045929, 0.15265893936157227, -0.030761606991291046, -0.021087994799017906, -0.14977572858333588], [-0.08210892975330353, 0.04757372662425041, 0.027707066386938095, 0.003991961944848299, -0.11937741190195084, -0.02279317006468773, 0.032801106572151184, 0.01753222942352295, -0.044120803475379944, -0.06682250648736954], [-0.11621329933404922, -0.06774511933326721, 0.0687728226184845, 0.06363034248352051, -0.08595582842826843, 0.046083614230155945, -0.022325901314616203, -0.009892841801047325, -0.10606300830841064, -0.05698169767856598], [-0.07973042130470276, 0.030998462811112404, -0.022668028250336647, -0.006774171721190214, 0.030101783573627472, -0.0591060146689415, 0.02201976254582405, -0.021056152880191803, 0.013104940764605999, 0.012548316270112991], [-0.051702309399843216, 0.028470056131482124, 0.037962350994348526, -0.10070900619029999, -0.06641415506601334, 0.05471770465373993, -0.07086527347564697, -0.021931132301688194, -0.002243916504085064, 0.02692887932062149], [-0.09127495437860489, 0.056153714656829834, -0.07311408221721649, -0.056834444403648376, -0.06293506175279617, -0.030406752601265907, 0.05512547120451927, 0.03507888689637184, -0.022206777706742287, -0.07432898133993149], [0.003231924492865801, -0.029480015859007835, 0.018924102187156677, 0.05180038511753082, 0.07549013197422028, -0.1157270222902298, -0.126321479678154, 0.060834791511297226, -0.01280970312654972, -0.05399010330438614], [0.06478330492973328, 0.03212316706776619, 0.017084220424294472, -0.0362374447286129, -0.04146721959114075, -0.04697838053107262, 0.07399249076843262, -0.031134042888879776, -0.006312349811196327, 0.056236885488033295], [-0.05848447233438492, 0.06993754208087921, -0.12324243038892746, 0.009113026782870293, -0.09458522498607635, -0.052369024604558945, 0.09055165946483612, 0.10825905203819275, -0.004750930704176426, -0.15044322609901428], [0.07041050493717194, 0.01065062265843153, 0.12147358804941177, 0.014976405538618565, -0.07226742058992386, -0.044699955731630325, 0.032731518149375916, 0.037656210362911224, -0.0527334101498127, -0.018830478191375732], [-0.0765143483877182, -0.03539741784334183, -0.005694987252354622, -0.006753798108547926, -0.10033822804689407, -0.00284086586907506, 0.12166095525026321, -0.04478025063872337, 0.05311758816242218, 0.07519230991601944], [-0.03498193994164467, 0.007561368402093649, -0.027841901406645775, 0.07275683432817459, 0.013089844025671482, -0.02582368440926075, 0.14602085947990417, 0.05090760067105293, 0.042749449610710144, -0.09767564386129379], [-0.01282033883035183, -0.0975138396024704, -0.04118793085217476, 0.06751400232315063, 0.06638864427804947, -0.12582871317863464, -0.03876950219273567, 0.03587266802787781, 0.060999851673841476, 0.0006530197570100427], [-0.09654921293258667, -0.054207250475883484, -0.01883215643465519, 0.025929097086191177, -0.037256013602018356, 0.025720378383994102, 0.08669058978557587, -0.006133792456239462, -0.05982298403978348, 0.01589415967464447], [-0.09359448403120041, -0.02058139070868492, -0.05786040797829628, -0.08835973590612411, 0.028232431039214134, 0.07222283631563187, 0.10940924286842346, 0.08347393572330475, -0.14443477988243103, -0.11340542137622833], [-0.0527559258043766, 0.019018888473510742, 0.056474752724170685, -0.04628754034638405, -0.06403910368680954, 0.013590879738330841, 0.10022067278623581, -0.025940081104636192, -0.0693608969449997, -0.1220168024301529], [-0.024718357250094414, 0.02771451696753502, -0.06812684237957001, 0.0725201815366745, 0.03226972743868828, -0.031637076288461685, -0.03583056852221489, 0.060019686818122864, 0.008271372877061367, 0.08063852787017822], [-0.006538694724440575, 0.04747980087995529, 0.047515321522951126, -0.00228142854757607, -0.11973745375871658, 0.032558441162109375, 0.030766278505325317, 0.02136957459151745, 0.048036400228738785, 0.06445614993572235], [-0.013870025053620338, -0.05649493262171745, -0.028305625542998314, 0.06481920927762985, -0.11810705810785294, -0.023819703608751297, 0.030215000733733177, 0.05037911981344223, -0.03625055029988289, -0.10413099080324173], [0.011831601150333881, -0.016041450202465057, 0.19167231023311615, -0.04524998366832733, -0.0021826387383043766, -0.009933440014719963, -0.09899288415908813, 0.015985066071152687, -0.0033695525489747524, -0.04373804107308388], [-0.03849064186215401, -0.06014753505587578, -0.005115096922963858, 0.01567978598177433, -0.12017505615949631, -0.03411339595913887, 0.013025552034378052, -0.07284922897815704, 0.05422092601656914, 0.04388144239783287], [-0.0192756075412035, -0.004035825375467539, 0.06508588045835495, 0.06965789198875427, -0.02318481169641018, -0.05341842770576477, 0.12396036833524704, 0.03334556519985199, 0.068262979388237, -0.07518448680639267], [-0.012479420751333237, -0.09066818654537201, 0.15481902658939362, -0.050605643540620804, 0.1339360922574997, -0.004366174805909395, -0.04212880879640579, 0.06044697016477585, 0.05862363427877426, -0.16040174663066864], [-0.014558077789843082, -0.10762429237365723, 0.05572515353560448, -0.00468420097604394, -0.050055697560310364, 0.024971649050712585, 0.05855097621679306, 0.04847770184278488, 0.0202628243714571, -0.02069067396223545], [-0.17467434704303741, 0.2217378318309784, -0.17163006961345673, -0.013347996398806572, 0.08892487734556198, -0.10382618010044098, 0.17995727062225342, 0.14529211819171906, -0.03457139432430267, -0.3485328257083893], [-0.0069940462708473206, 0.13261255621910095, 0.021793948486447334, 0.03030632622539997, -0.09792198985815048, -4.3210377043578774e-05, 0.052675966173410416, 0.06844904273748398, -0.20439967513084412, -0.21741408109664917], [0.007355747744441032, -0.024630915373563766, 0.03263009712100029, 0.10158108174800873, 0.008723507635295391, -0.08011829853057861, -0.0981648862361908, -0.0036603689659386873, -0.08192874491214752, -0.0459732748568058], [0.0437469556927681, -0.0547579862177372, 0.010393720120191574, 0.03351917490363121, -0.052378635853528976, -0.036302316933870316, -0.04791642725467682, -0.10465293377637863, 0.06171824038028717, 0.09476185590028763], [-0.1012340858578682, -0.006539293564856052, -0.049832623451948166, -0.026623550802469254, -0.005484377034008503, -0.0713294968008995, -0.07032547146081924, 0.09080751985311508, 0.023963753134012222, -0.07095573842525482], [0.078108049929142, -0.03617991879582405, 0.3040141761302948, -0.08852794021368027, -0.07357300817966461, -0.033880677074193954, -0.1554262638092041, 0.0026106643490493298, -0.08136380463838577, -0.008397349156439304], [0.007457266561686993, -0.0245079156011343, -0.009568524546921253, 0.046699825674295425, -0.13441868126392365, 0.017742309719324112, -0.006084710359573364, 0.013455708511173725, 0.09916870296001434, 0.08997461199760437], [0.03467117249965668, 0.04927581548690796, 0.07674706727266312, -0.00907661858946085, 0.03619762882590294, -0.061669785529375076, -0.04566264897584915, -0.004051126539707184, 0.015968210995197296, -0.05094475671648979], [-0.010976608842611313, -0.011095572263002396, -0.01723043993115425, -0.05512174218893051, 0.05609830468893051, -0.0043820044957101345, 0.18507102131843567, -0.07160824537277222, 0.006402468308806419, -0.029327942058444023], [0.005602569319307804, -0.07659163326025009, -0.02591480314731598, 0.12143073230981827, -0.07811440527439117, 0.0031431163661181927, -0.015564875677227974, 0.08596943318843842, 0.0774463638663292, -0.04064330831170082], [-0.2403610199689865, 0.13773185014724731, -0.07236902415752411, -0.17751829326152802, 0.12757395207881927, -0.1318231076002121, 0.18901121616363525, 0.0013252386124804616, -0.04751313105225563, -0.31830334663391113], [-0.05245859548449516, 0.10531026124954224, 0.05065951496362686, 0.06613051146268845, 0.10446759313344955, 0.04087405279278755, -0.12433909624814987, 0.012291083112359047, -0.09593513607978821, -0.32815873622894287], [-0.08490796387195587, -0.09645289927721024, -0.06512797623872757, 0.056388698518276215, 0.028964143246412277, 0.0083246361464262, -0.018495025113224983, 0.07863261550664902, 0.043426137417554855, -0.04696880280971527], [-0.03941114991903305, -0.04522350803017616, -0.039309851825237274, -0.033380910754203796, 0.010771462693810463, -0.0709250345826149, -0.07119216024875641, -0.10160111635923386, -0.0062767923809587955, 0.08141730725765228], [-0.008159785531461239, 0.03597607836127281, 0.03671934828162193, -0.019213499501347542, -0.01065205130726099, -0.06046585738658905, 0.010099194012582302, 0.024517469108104706, 0.06265044957399368, -0.10716741532087326], [0.0882345661520958, -0.12419744580984116, 0.26476386189460754, -0.12140017747879028, -0.15866851806640625, -0.045959167182445526, -0.10005065053701401, -0.06220344454050064, -0.09434288740158081, -0.03605588153004646], [-0.08352422714233398, 0.045110300183296204, -0.060331571847200394, 0.05896405503153801, -0.06812083721160889, -0.054463084787130356, 0.0124625563621521, -0.06381065398454666, 0.06431251019239426, 0.028026584535837173], [-0.027976928278803825, 0.06666683405637741, -0.0019442073535174131, -0.025884103029966354, -0.036757975816726685, -0.030336124822497368, 0.02573573961853981, -0.1231485903263092, 0.004495817702263594, 0.056942250579595566], [-0.052765872329473495, 0.007752903271466494, 0.027011429890990257, -0.16037972271442413, 0.04385698586702347, -0.0002560990978963673, 0.20374542474746704, -0.047699034214019775, 0.07050663977861404, -0.026197437196969986], [-0.023675866425037384, -0.11084811389446259, -0.04062355309724808, -0.005514862481504679, -0.16924422979354858, -0.024980686604976654, 0.0764269158244133, 0.01002446934580803, 0.07972749322652817, 0.08234170824289322], [-0.07193546742200851, 0.12542478740215302, -0.020423367619514465, -0.06417270749807358, 0.04235922545194626, -0.1775895208120346, 0.23899982869625092, -0.20252341032028198, -0.1919606477022171, -0.22199647128582], [-0.03378851339221001, -0.029254315420985222, 0.01797313243150711, 0.1555093377828598, 0.2373238503932953, -0.08115836977958679, -0.04748144745826721, -0.07078184187412262, -0.0710960254073143, -0.4521749019622803], [-0.06555891782045364, -0.13391536474227905, -0.07304917275905609, 0.04134681448340416, -0.12048068642616272, 0.0012170863337814808, -0.13451188802719116, 0.06239251419901848, -0.02686813287436962, 0.0641188994050026], [-0.0518420934677124, -0.002912508323788643, 0.06301601231098175, -0.029629331082105637, -0.0753350704908371, -0.018744636327028275, 0.0010185942519456148, -0.0050062090158462524, 0.026147477328777313, -0.018830478191375732], [-0.058702051639556885, -0.04548601433634758, -0.022891227155923843, 0.006794922053813934, -0.11655665934085846, -0.0067425984889268875, -0.031172586604952812, -0.06967200338840485, 0.07374334335327148, 0.022933276370167732], [0.07194837927818298, -0.07382261008024216, 0.30818164348602295, -0.03783085569739342, -0.20270489156246185, 0.06528978794813156, -0.004223491996526718, -0.06132562831044197, -0.2921715974807739, -0.002038489328697324], [-0.08817999809980392, 0.032506395131349564, -0.014836176298558712, 0.040467239916324615, -0.10781805962324142, 0.011338561773300171, -0.009432944469153881, -0.060186076909303665, 0.06970422714948654, -0.0073425960727036], [-0.039413876831531525, -0.02565855346620083, -0.05179127678275108, -0.03293086588382721, 0.03200305625796318, -0.06980668753385544, -0.05219491943717003, -0.05363067612051964, 0.08365485072135925, -0.02064025029540062], [-0.1332976073026657, 0.02621200680732727, 0.022331982851028442, -0.08823559433221817, -0.00968752522021532, -0.0036597144789993763, 0.20038661360740662, -0.11113055050373077, -0.09630181640386581, -0.15705883502960205], [-0.07395372539758682, -0.0023468956351280212, 0.06062476336956024, 0.037327636033296585, -0.04869711026549339, 0.04322483018040657, -0.022043099626898766, -0.07669089734554291, 0.06797206401824951, 0.09023894369602203], [-0.03527829423546791, 0.04480605572462082, 0.03349480405449867, -0.02251950278878212, 0.011847427114844322, -0.32926052808761597, 0.1750423163175583, -0.23190677165985107, 0.06669293344020844, -0.01644975319504738], [0.027337748557329178, -0.07298330217599869, 0.1710454225540161, 0.23664221167564392, -0.0012259299401193857, -0.22623436152935028, -0.11090867221355438, -0.1835666298866272, -0.09645172208547592, -0.460960328578949], [-0.017386095598340034, -0.07877162843942642, -0.015032756142318249, 0.0816001370549202, -0.1502618044614792, -0.0837588906288147, -0.07967207580804825, 0.0023651961237192154, 0.08759328722953796, 0.09669981896877289], [-0.011518634855747223, -0.005355358589440584, 0.010045664384961128, 0.010660098865628242, -0.03510815277695656, -0.05390431731939316, -0.03258225694298744, -0.015782823786139488, 0.08695469051599503, 0.08365874737501144], [0.02002042718231678, -0.018810506910085678, 0.06073753908276558, 0.025926563888788223, -0.06785035133361816, -0.014001722447574139, 0.014992952346801758, -0.14067722856998444, 0.12429091334342957, -0.05003362149000168], [0.06616098433732986, 0.05683811381459236, 0.11432834714651108, 0.03612620010972023, -0.20460796356201172, 0.06900014728307724, 0.05094795301556587, -0.07596872746944427, -0.22497372329235077, -0.005366852506995201], [-0.03712523356080055, 0.06532441824674606, -0.07784811407327652, 0.008373720571398735, -0.001084078918211162, -0.001021169824525714, 0.06293559819459915, 0.005364350974559784, 0.05590827018022537, 0.008162406273186207], [-0.0322810634970665, -0.024684861302375793, -0.10154513269662857, 0.06592787802219391, 0.10614735633134842, 0.00014163667219690979, -0.006299260538071394, -0.0895126610994339, 0.02455710992217064, 5.497401434695348e-05], [-0.046618614345788956, 0.163559228181839, -0.14423500001430511, -0.08815781027078629, 0.03583931177854538, -0.09308486431837082, 0.25722143054008484, -0.1283857822418213, -0.11534833163022995, -0.13117529451847076], [-0.025500690564513206, -0.06944425404071808, -0.044380269944667816, -0.015099254436790943, -0.08889168500900269, -0.01702192611992359, 0.019045647233724594, -0.008661244995892048, 0.11245850473642349, 0.0760546624660492], [0.008372011594474316, 0.1008695587515831, -0.05199113488197327, -0.07650277763605118, 0.05801104009151459, -0.14514462649822235, 0.15534953773021698, -0.12949879467487335, 0.009489894844591618, 0.027025487273931503], [0.0316103994846344, 0.03995441645383835, 0.029442789033055305, 0.24126921594142914, 0.031838368624448776, -0.2857837975025177, -0.15960413217544556, -0.20949959754943848, 0.019917860627174377, -0.29027286171913147], [-0.062163542956113815, -0.13577473163604736, -0.011319439858198166, 0.013919077813625336, -0.12901431322097778, 0.0017605680041015148, -0.010945788584649563, 0.0672299936413765, 0.01757199876010418, 0.17521612346172333], [0.07519077509641647, -0.021041302010416985, -0.0013725935714319348, 0.040316011756658554, -0.03264812007546425, -0.09975836426019669, -0.04350876063108444, -0.11950045824050903, -0.0045106299221515656, -0.052295684814453125], [-0.08695139735937119, -0.05460326373577118, 0.027593091130256653, -0.022230597212910652, -0.03545506298542023, -0.07800380140542984, 0.00723667535930872, -0.06894996762275696, 0.05117900297045708, -0.013423754833638668], [0.07429256290197372, -0.027321306988596916, 0.15565672516822815, -0.012693816795945168, -0.10411769151687622, 0.0032373506110161543, 0.11011148989200592, 0.02679726667702198, -0.2039433866739273, -0.016565727069973946], [-0.05227993056178093, 0.028753304854035378, -0.10161139070987701, 0.0016589845763519406, 0.03174498304724693, 0.09017860889434814, 0.019592951983213425, -0.09713463485240936, 0.044996779412031174, 0.08745074272155762], [-0.027985500171780586, 0.03378801792860031, -0.023626618087291718, -0.049450140446424484, 0.11434444785118103, -0.06471674889326096, 0.017627587541937828, -0.08549472689628601, 0.010026791132986546, -0.11786981672048569], [0.007946471683681011, 0.08675570040941238, -0.24131089448928833, -0.1128392368555069, 0.04335450381040573, 0.056422196328639984, 0.18336373567581177, -0.09736643731594086, -0.04260385408997536, 0.07508935779333115], [0.051962465047836304, 0.018550850450992584, -0.05824883282184601, 0.015332963317632675, -0.09040655195713043, 0.014497997239232063, -0.08041654527187347, -0.05007054656744003, 0.10146433115005493, -0.056337520480155945], [-0.021899206563830376, 0.04095891863107681, -0.06398070603609085, 0.004271822050213814, 0.09232386201620102, -0.10811788588762283, -0.01190281379967928, -0.08911048620939255, 0.03407590836286545, 0.03676605224609375], [-0.013608725741505623, 0.08033452928066254, -0.18360364437103271, 0.09520766139030457, -0.08331499993801117, -0.14126724004745483, -0.030222417786717415, 0.008636079728603363, -0.02595495618879795, -0.21620462834835052], [-0.0386202447116375, -0.10252486914396286, -0.004623116925358772, 0.0012859842972829938, -0.03887544199824333, 0.027181975543498993, -0.06443445384502411, -0.049725718796253204, 0.11395790427923203, 0.06511342525482178], [0.003489311318844557, 0.021442562341690063, 0.09482509642839432, 0.025668682530522346, -0.0016144493129104376, -0.05358300730586052, 0.030843758955597878, -0.10120707005262375, 0.07055439800024033, -0.021364549174904823], [0.02250944823026657, -0.018676817417144775, 0.04375898092985153, 0.009099955670535564, -0.03653322532773018, -0.06286027282476425, 0.08392080664634705, -0.06309173256158829, 0.004022643901407719, -0.07216595858335495], [0.07776760309934616, 0.10940201580524445, -0.006500191055238247, -0.10905149579048157, -0.09694092720746994, 0.003866265993565321, 0.21630537509918213, 0.01606231927871704, -0.09095030277967453, 0.077238529920578], [-0.08626562356948853, -0.029240457341074944, -0.15843869745731354, -0.055394578725099564, 0.13033948838710785, 0.053690265864133835, 0.012770810164511204, -0.06716679036617279, -0.023622781038284302, 0.0018649474950507283], [-0.08270107954740524, -0.02943509817123413, -0.0023261012975126505, 0.02012377418577671, 0.13810303807258606, 0.05568860471248627, 0.07452215254306793, -0.06746906787157059, 0.1054365262389183, -0.08593853563070297], [-0.10344362258911133, -0.006384102161973715, -0.1142105758190155, -0.17064794898033142, 0.06968867778778076, 0.02690994180738926, 0.13066141307353973, 0.04166582599282265, -0.023066207766532898, 0.10879457741975784], [0.057003479450941086, -0.07240764051675797, 0.031169239431619644, -0.010283183306455612, 0.0008697875891812146, -0.045213475823402405, -0.037407390773296356, -0.09299947321414948, 0.10282019525766373, 0.04797913879156113], [-0.0970655009150505, 0.009069002233445644, 0.00981543306261301, -0.04005678743124008, 0.045664336532354355, 0.02302457019686699, 0.03517301753163338, -0.042971063405275345, -0.024590006098151207, 0.015200848691165447], [0.05337807163596153, 0.14447642862796783, -0.11199581623077393, -0.09774661064147949, 0.02865585684776306, 0.08282655477523804, 0.005858081392943859, 0.014681161381304264, -0.05086411535739899, -0.16467583179473877], [0.04143625870347023, 0.011079635471105576, -0.018699435517191887, -0.0752723440527916, -0.06046741083264351, -0.04620867595076561, -0.0024463669396936893, 0.04152334854006767, 0.12289374321699142, -0.0250618364661932], [0.024039624258875847, -0.0923611968755722, -0.003772539785131812, 0.02940753847360611, 0.0554405152797699, -0.0856705754995346, 0.048283230513334274, -0.0606527253985405, 0.05845370143651962, 0.028262101113796234], [-0.04551500082015991, -0.06526993215084076, -0.029955655336380005, 0.056798990815877914, 0.08541383594274521, -0.04262698069214821, 0.09183039516210556, -0.06618332862854004, 0.0715230330824852, -0.1824778914451599], [0.04767778888344765, -0.011177088133990765, -0.022003212943673134, -0.08828237652778625, -0.08494819700717926, -0.031002776697278023, 0.1349261850118637, -0.021452974528074265, -0.002337000099942088, 0.07042225450277328], [0.00881941057741642, -0.01853119768202305, -0.04881436750292778, -0.16987256705760956, 0.0331445150077343, 0.051535774022340775, 0.026695260778069496, -0.06130312383174896, -0.04748352989554405, -0.07456114888191223], [0.021447505801916122, -0.002032264368608594, 0.011046810075640678, -0.00428881635889411, 0.0429038405418396, 0.027315478771924973, 0.007467129733413458, -0.15502363443374634, 0.03769847750663757, -0.00964378286153078], [0.02143566869199276, -0.07907213270664215, -0.13469696044921875, -0.13437029719352722, 0.00365669303573668, 0.11075889319181442, 0.10224330425262451, -0.043738238513469696, 0.04032451659440994, 0.035265352576971054], [-0.02104002609848976, -0.07552126049995422, 0.09121108055114746, -0.0261324904859066, 0.09707233309745789, -0.0734935775399208, 0.03257117047905922, -0.10649148374795914, 0.057074300944805145, -0.02785104140639305], [-0.036107830703258514, -0.0180073119699955, 0.007059881463646889, 0.09438326209783554, -0.07799652218818665, -0.053313326090574265, 0.06289581954479218, -0.10141941159963608, -0.008958375081419945, 0.05732507258653641], [-0.08163277059793472, 0.06097961217164993, -0.19407597184181213, -0.0829429104924202, -0.16005155444145203, 0.08504162728786469, 0.08291641622781754, 0.05751720070838928, 0.012382345274090767, -0.0070482660084962845], [-0.0014107320457696915, -0.04912400618195534, -0.055890899151563644, 0.042158033698797226, 0.06598719209432602, -0.038519471883773804, -0.06158678978681564, -0.0944308266043663, -0.02136971615254879, -0.07710212469100952], [0.07890788465738297, -0.03185650706291199, 0.07413525134325027, 0.00485681788995862, 0.12700478732585907, 0.007327423896640539, 0.10769493132829666, -0.17001737654209137, -0.0317738801240921, 0.039917659014463425], [-0.11021413654088974, -0.0009429857018403709, -0.08859513700008392, -0.04062286391854286, 0.1241282969713211, 0.014357862994074821, 0.11621751636266708, -0.10237845033407211, -0.04794154316186905, -0.09867222607135773], [0.02812255546450615, 0.03607672080397606, -0.037565141916275024, -0.13795334100723267, -0.0381367988884449, -0.004850429482758045, 0.07744167000055313, 0.04330260679125786, -0.07213352620601654, 0.10025341063737869], [-0.08361411094665527, 0.014659799635410309, -0.22152681648731232, -0.16317719221115112, 0.1985754519701004, 0.2024664282798767, 0.013514935970306396, -0.10210726410150528, -0.08311542123556137, -0.048866674304008484], [-0.027107637375593185, -0.06372330337762833, -0.003962418530136347, 0.006993348244577646, 0.05638511851429939, -0.03474085405468941, -0.036509305238723755, -0.13360778987407684, -0.007104186806827784, -0.03721880540251732], [-0.06668341904878616, 0.039019130170345306, -0.05588886886835098, -0.08662019670009613, -0.023529963567852974, 0.050113383680582047, -0.0002626771165523678, 0.04641217738389969, -0.017470605671405792, 0.01619875058531761], [0.05275376886129379, 0.06561867147684097, 0.026644477620720863, -0.07209781557321548, 0.05882791057229042, -0.04860120639204979, 0.07435721158981323, -0.08980011194944382, 0.020628411322832108, -0.14016392827033997], [-0.002538572996854782, -0.033008281141519547, -0.05150579288601875, 0.05339294672012329, 0.0601193793118, -0.1651403158903122, 0.0585920512676239, -0.002833537757396698, 0.04683889448642731, 0.09503169357776642], [-0.0008776311296969652, 0.006610317621380091, -0.08924023807048798, -0.004454249050468206, -0.054014526307582855, -0.002968262881040573, 0.11435938626527786, 0.018725428730249405, -0.030566617846488953, 0.036897923797369], [-0.016362857073545456, 0.05415719747543335, -0.04094972461462021, -0.06760404258966446, 0.09686771035194397, -0.020015046000480652, 0.06660030037164688, -0.13611182570457458, 0.05794505402445793, -0.0861404687166214], [0.058052703738212585, 0.018136566504836082, 0.0028966336976736784, -0.0012893857201561332, -0.0413413941860199, -0.0015391515335068107, -0.05174323543906212, 0.11744438856840134, -0.013318452052772045, 0.0031007223296910524], [0.04904336854815483, 0.0453166663646698, 0.0012271050363779068, -0.02396632358431816, -0.04778893291950226, 0.04693826287984848, -0.11414605379104614, 0.014456464909017086, -0.08375396579504013, -0.10787171125411987], [-0.07757586985826492, 0.06364548206329346, 0.0764101892709732, 0.08284709602594376, -0.092117540538311, -0.11454915255308151, -0.04243162274360657, 0.06896312534809113, -0.07284078001976013, -0.03572721779346466], [-0.062302831560373306, 0.06866014003753662, -0.012846863828599453, 0.03829651325941086, 0.00751224672421813, -0.0787777379155159, -0.003545785089954734, 0.06029099225997925, -0.009180105291306973, 0.02629631757736206], [-0.0009039136348292232, 0.05431366339325905, -0.05155475437641144, 0.11309954524040222, 0.015658484771847725, 0.011456978507339954, 0.09402913600206375, 0.043395258486270905, -0.059729818254709244, -0.03662159666419029], [0.02603214420378208, 0.07088124752044678, -0.018761619925498962, 0.06401330232620239, -0.09454013407230377, -0.11920111626386642, -0.005139105021953583, 0.004022926092147827, -0.0291916374117136, 0.0069046104326844215], [0.011822007596492767, 0.003926962148398161, 0.01801557093858719, 0.10802026838064194, -0.05256980285048485, -0.09276183694601059, 0.04426458850502968, 0.026322590187191963, -0.08528375625610352, -0.007635958027094603], [0.05338636785745621, 0.03774131461977959, 0.015184682793915272, -0.054618220776319504, -0.04914721101522446, 0.009437991306185722, -0.033643703907728195, 0.11317196488380432, -0.059156544506549835, -0.06036820262670517], [0.02992500737309456, 0.07946789264678955, -0.096439428627491, -0.02095125801861286, -0.07676343619823456, 0.004014526028186083, 0.11153257638216019, 0.07629246264696121, -0.07709262520074844, -0.12734776735305786], [-0.09221287816762924, 0.008865511044859886, -0.06332936882972717, 0.12337563186883926, -0.059239573776721954, -0.1903131753206253, -0.06373277306556702, 0.08206649869680405, 0.03216240555047989, -0.093372642993927], [0.039302412420511246, -0.0660749301314354, -0.09729037433862686, -0.055877044796943665, 0.012311620637774467, -0.009393766522407532, -0.020992984995245934, 0.026467571035027504, -0.0431576669216156, -0.028784500434994698], [0.002008700044825673, -0.0659528374671936, -0.04762578755617142, 0.015485717914998531, 0.07657752931118011, -0.08141135424375534, -0.06679477542638779, 0.07079019397497177, -0.09684472531080246, -0.09962905943393707], [-0.15169687569141388, 0.06468241661787033, 0.16072174906730652, 0.12445635348558426, -0.18909749388694763, -0.21936804056167603, -0.04155181720852852, -0.013726185075938702, -0.08723688870668411, -0.0747646912932396], [0.03247012943029404, -0.09775106608867645, -0.03816753998398781, -0.0064717442728579044, -0.034234773367643356, -0.03960392251610756, 0.025510819628834724, 0.023217031732201576, 0.05504404753446579, 0.043186936527490616], [-0.01251136977225542, -0.006164717022329569, 0.05211327224969864, -0.014033769257366657, -0.07470988482236862, -0.011302958242595196, 0.01812715269625187, -0.07878337800502777, 0.04788331314921379, -0.07646316289901733], [-0.10909070819616318, -0.08181200921535492, 0.013970592990517616, 0.03310149908065796, -0.050886232405900955, -0.10179335623979568, 0.04208735004067421, 0.03318139538168907, 0.09105028957128525, 0.017222924157977104], [0.03587385267019272, 0.024413442239165306, -0.10990835726261139, 0.0947713553905487, -0.005572877358645201, -0.11128915846347809, -0.011056111194193363, 0.07608787715435028, -0.04666591063141823, -0.050424352288246155], [-0.13072049617767334, 0.07798450440168381, 0.08150076121091843, -0.07348556816577911, 0.09256228059530258, -0.0070849573239684105, 0.14725741744041443, 0.06884035468101501, -0.12173596769571304, -0.256178081035614], [-0.11388793587684631, 0.028601279482245445, -0.11185987293720245, 0.03554368391633034, 0.06275708973407745, 0.10818877816200256, 0.09816012531518936, 0.2264898419380188, 0.027859067544341087, -0.14003565907478333], [-0.11101049184799194, 0.009486015886068344, 0.030533643439412117, 0.10433448851108551, -0.10299649089574814, -0.12211340665817261, 0.006888370495289564, 0.04470182955265045, -0.0260036438703537, -0.04452948272228241], [0.015406912192702293, -0.015843428671360016, -0.09140817075967789, -0.014294078573584557, 0.03462682664394379, -0.03129297122359276, -0.11270318180322647, -0.0244788508862257, 0.036835167557001114, 0.03461644798517227], [0.013360206969082355, 0.0388779453933239, 0.05410068854689598, 0.04578717425465584, 0.0028402351308614016, -0.07736475020647049, -0.10038508474826813, 0.043222006410360336, -0.03719749674201012, -0.13253045082092285], [-0.11632614582777023, -0.1288609355688095, 0.17969606816768646, 0.2734408974647522, -0.13533712923526764, -0.2692798376083374, -0.20217476785182953, 0.05648603290319443, -0.16525323688983917, -0.054042525589466095], [0.01947811432182789, -0.03305860608816147, -0.05660958215594292, -0.008346326649188995, -0.06653562933206558, 0.07651349902153015, 0.05547664314508438, -0.0808042585849762, 0.04405083879828453, 0.03622317686676979], [0.000289514719042927, -0.08685179799795151, 0.0012844291049987078, 0.05910751596093178, -0.02207813411951065, 0.07771290838718414, 0.05291598290205002, -0.006848481949418783, 0.017899056896567345, 0.02440812811255455], [-0.07819508761167526, -0.18826305866241455, 0.08247873932123184, 0.10568786412477493, 0.03291311115026474, -0.24724888801574707, -0.04801966995000839, -0.0982135608792305, 0.05870687589049339, 0.06493006646633148], [-0.01137757208198309, -0.0338110625743866, 0.050231534987688065, 0.08094634115695953, -0.07727738469839096, -0.041808199137449265, 0.006075927056372166, 0.07552531361579895, 0.0404990017414093, 0.016117623075842857], [-0.13746288418769836, 0.04916777461767197, -0.11644420027732849, -0.20715287327766418, 0.17057372629642487, 0.05660035461187363, 0.056827206164598465, 0.22438032925128937, -0.008399596437811852, -0.5949057936668396], [-0.08978366106748581, 0.03106866590678692, -0.03498047590255737, -0.005176678765565157, 0.06339306384325027, 0.017111461609601974, -0.07151220738887787, 0.2828095853328705, -0.09994776546955109, -0.32564547657966614], [-0.008271741680800915, 0.0011021181708201766, 0.020682180300354958, 0.17506326735019684, -0.057809051126241684, -0.19060496985912323, -0.027096105739474297, 0.011912601999938488, -0.000585771631449461, -0.05630726367235184], [-0.012651173397898674, -0.05472085252404213, 0.037346355617046356, 0.03233402967453003, 0.01804708130657673, -0.04435335099697113, -0.1386546641588211, 0.07043169438838959, -0.07452894002199173, -0.007406144868582487], [0.03476806730031967, -0.0707896277308464, -0.0158678125590086, 0.019721051678061485, -0.1107892096042633, 0.019361618906259537, -0.1296766847372055, 0.05920426547527313, -0.03823748230934143, -0.11775510758161545], [-0.18040312826633453, -0.17328079044818878, 0.21714192628860474, 0.26523852348327637, -0.2491849660873413, -0.178639754652977, -0.25142309069633484, 0.11597327142953873, -0.09643964469432831, -0.16823513805866241], [-0.061721548438072205, -0.1385308802127838, -0.012317263521254063, -0.03825020790100098, -0.0745251402258873, 0.016122419387102127, 0.03855615481734276, 0.0016487663378939033, -0.0021393662318587303, 0.007735941093415022], [-0.07943807542324066, -0.1011514738202095, 0.01393536850810051, 0.08789701759815216, -0.03808290883898735, -0.04605211690068245, -0.019679652526974678, -0.1202397495508194, 0.03879161924123764, 0.06461936235427856], [-0.11080475151538849, -0.14780287444591522, 0.12271173298358917, -0.03529738634824753, -0.10065897554159164, -0.004855344537645578, 0.08610399067401886, -0.13946563005447388, 0.0951995775103569, 0.02471109852194786], [0.046830303966999054, -0.006838308181613684, -0.03562081605195999, 0.08411847800016403, -0.001378407352603972, -0.06282375007867813, -0.07892591506242752, -0.03222041204571724, -0.014147993177175522, 0.03809991106390953], [-0.1029801294207573, 0.06883444637060165, -0.17437706887722015, -0.2776709198951721, 0.27064049243927, -0.04187554493546486, 0.24845178425312042, 0.1876911222934723, 0.06380122900009155, -0.5680136680603027], [-0.1762692928314209, 0.04050711914896965, -0.05172586068511009, 0.02690199203789234, 0.2729266881942749, 0.07149495929479599, -0.1462429016828537, 0.23087278008460999, -0.05546248331665993, -0.5433841347694397], [-0.11808819323778152, -0.11998270452022552, -0.01730109564960003, 0.1547473520040512, -0.1307709664106369, -0.12590253353118896, -0.019654223695397377, 0.10419150441884995, 0.01049878727644682, 0.019035199657082558], [-0.06093579903244972, -0.058534663170576096, -0.007689077407121658, 0.05907785892486572, 0.0625595971941948, 0.016236798837780952, -0.18801844120025635, 0.058499351143836975, -0.015116588212549686, 0.04972381144762039], [-0.062291279435157776, -0.14405222237110138, 0.08759678155183792, -0.021717382594943047, -0.0969286784529686, -0.054097648710012436, -0.08158000558614731, 0.03621862083673477, 0.01994217373430729, 0.07004610449075699], [-0.17256654798984528, -0.22469504177570343, 0.11170534044504166, 0.2022838145494461, -0.1698307991027832, -0.07878797501325607, -0.22303369641304016, 0.14013759791851044, 0.057263731956481934, -0.047840263694524765], [-0.003095485270023346, 0.054771460592746735, -0.045401934534311295, -0.04819043353199959, 0.035031165927648544, 0.008073617704212666, 0.060394637286663055, 0.06419532001018524, 0.017616966739296913, 0.0394848957657814], [0.06595633924007416, -0.018459433689713478, -0.058137185871601105, -0.002075321041047573, -0.11509948968887329, -0.07575937360525131, -0.04348254203796387, -0.10535784065723419, 0.08166182041168213, 0.16044990718364716], [-0.13715241849422455, -0.02923189289867878, -0.02676544338464737, -0.013810688629746437, -0.09853320568799973, 0.05802330747246742, 0.07235031574964523, -0.020038744434714317, 0.063202865421772, -0.023958053439855576], [-0.016710441559553146, 0.004792074207216501, 0.004115954972803593, 0.006036924663931131, -0.07774899899959564, 0.065598264336586, -0.0059636435471475124, -0.04981526359915733, -0.009659268893301487, 0.08072905242443085], [-0.10922084748744965, 0.10448902100324631, -0.028933104127645493, -0.2824885845184326, 0.3234981298446655, 0.11928673833608627, 0.27162688970565796, -0.12805142998695374, -0.0011997660622000694, -0.4961852729320526], [-0.11117398738861084, 0.01455678977072239, 0.08466687053442001, 0.14543356001377106, 0.24621890485286713, -0.19582174718379974, -0.27623727917671204, 0.24082154035568237, -0.04384573921561241, -0.5156604647636414], [-0.01722293719649315, -0.14258693158626556, 0.014186144806444645, 0.10672727972269058, -0.2258710265159607, -0.03763733059167862, -0.07633133232593536, 0.09513388574123383, 0.027438011020421982, 0.09133625030517578], [0.003912488464266062, 0.0010673016076907516, -0.04488658159971237, 0.047678444534540176, -0.03807443007826805, 0.02586822211742401, -0.14792072772979736, 0.059113360941410065, -0.016235023736953735, 0.02074449323117733], [0.05058082193136215, -0.18438400328159332, 0.010631192475557327, 0.06946377456188202, -0.064249187707901, -0.006825134623795748, -0.018880443647503853, 0.02390318363904953, 0.10604961961507797, -0.014074268750846386], [-0.11547781527042389, -0.21105818450450897, 0.05607592687010765, 0.22605426609516144, -0.40136945247650146, 0.037514686584472656, -0.215399369597435, 0.08908840268850327, 0.010505136102437973, -0.08334005624055862], [-0.046575505286455154, 0.1005171611905098, -0.1049429178237915, -0.10431545227766037, 0.0179365836083889, 0.04351832717657089, 0.07398591190576553, -0.01093100756406784, -0.055022697895765305, -0.025786813348531723], [9.951744868885726e-05, -0.0326886922121048, 0.04097110033035278, 0.043496981263160706, -0.08091883361339569, -0.06680700182914734, 0.015428101643919945, -0.03852187842130661, 0.11687685549259186, 0.01774314045906067], [-0.043573398143053055, 0.007203437387943268, -0.09476736932992935, -0.12466344237327576, -0.05698814615607262, 0.13834179937839508, 0.056640464812517166, -0.08714757114648819, -0.0695090964436531, 0.02233603224158287], [-0.03527628630399704, -0.0008702304912731051, 0.024979282170534134, -0.04607042297720909, -0.0927756056189537, -0.03020067699253559, -0.0017534235958009958, -0.00515371048822999, -0.007252778857946396, -0.03247149661183357], [0.026020927354693413, 0.16786865890026093, -0.04599124565720558, -0.15849144756793976, 0.2654446065425873, -0.1823347806930542, 0.14118793606758118, -0.2457316368818283, -0.11756333708763123, -0.2802083194255829], [-0.04800311475992203, -0.05891166627407074, 0.20467481017112732, 0.10785187035799026, 0.10173344612121582, -0.21155253052711487, -0.3082069456577301, 0.0990041121840477, -0.09018974751234055, -0.3125910758972168], [-0.11513007432222366, -0.09855616092681885, -0.02216893620789051, 0.009064571000635624, -0.12927557528018951, 0.035887859761714935, -0.03080594539642334, -0.06744058430194855, 0.05953109636902809, 0.10851152241230011], [-0.02074620872735977, -0.08462242037057877, 0.040387462824583054, -0.005090375896543264, -0.03872597590088844, 0.012950791977345943, -0.11682052910327911, 0.037752680480480194, 0.008306930772960186, 0.011145581491291523], [0.0035764516796916723, -0.09341743588447571, -0.04933694377541542, 0.04538389667868614, -0.03733017295598984, -0.03158445656299591, -0.06601572036743164, -0.01906690187752247, 0.01762319914996624, 0.02390380948781967], [-0.04103746637701988, -0.08200566470623016, 0.05223606526851654, 0.11962669342756271, -0.3691263198852539, 0.15286123752593994, -0.08179938048124313, 0.022468818351626396, -0.010025729425251484, -0.00370135810226202], [0.0417819581925869, 0.08459381014108658, -0.09407732635736465, -0.047914862632751465, 0.11095134168863297, -0.03916902467608452, 0.05403362959623337, 0.039319731295108795, -0.028365908190608025, 0.006920353975147009], [-0.019208019599318504, -0.03913739696145058, 0.05075528472661972, -0.03663148358464241, -0.03175491839647293, -0.027559036388993263, -0.01929638162255287, -0.06346005201339722, 0.015971919521689415, 0.0872226282954216], [-0.09288875013589859, 0.15698178112506866, -0.20610319077968597, -0.19395111501216888, 0.01774604804813862, 0.20159615576267242, 0.05588820204138756, -0.09941092133522034, -0.05231080949306488, -0.12371307611465454], [0.08583927154541016, 0.03559845685958862, 0.0007954118773341179, -0.021965906023979187, -0.07084667682647705, -0.01058135461062193, -0.10316847264766693, -0.05211997404694557, 0.01831965707242489, -0.008727592416107655], [-0.03731200098991394, 0.16519929468631744, -0.0801284983754158, 0.04354109987616539, 0.20727358758449554, -0.23918098211288452, 0.030294710770249367, -0.21414928138256073, -0.10348853468894958, -0.12485204637050629], [0.027696628123521805, -0.03464086353778839, 0.08012224733829498, 0.04117206856608391, -0.03438074141740799, -0.0989842563867569, -0.3267105221748352, 0.02228996530175209, -0.055747851729393005, -0.006696933880448341], [0.02613103576004505, -0.09262970834970474, -0.029477201402187347, -0.04499281942844391, -0.10615488886833191, -0.04392321780323982, -0.03844494745135307, -0.04273452237248421, 0.039046164602041245, 0.057988230139017105], [0.007123174611479044, 0.04461880028247833, -0.03132057562470436, 0.08690463751554489, -0.11755212396383286, -0.0674000009894371, -0.15419848263263702, -0.034806136041879654, 0.0713893324136734, 0.07552853226661682], [-0.04419291391968727, -0.0016747619956731796, 0.0032422286458313465, 0.07698138058185577, -0.06399965286254883, 0.05791773647069931, 0.0002454157220199704, -0.03459383174777031, 0.0876038521528244, 0.01499253511428833], [-0.07327307760715485, -0.07693801820278168, -0.018212996423244476, -0.05566342547535896, -0.21577511727809906, 0.13220804929733276, -0.12184105813503265, -0.08269467204809189, 0.11857745051383972, -0.023159435018897057], [-0.013512118719518185, 0.11470367759466171, -0.2319493144750595, -0.15163788199424744, 0.11400508880615234, 0.11010841280221939, 0.06094866618514061, 0.0443536713719368, -0.023921355605125427, -0.09749460965394974], [-0.0058539207093417645, -0.057178568094968796, -0.01281747967004776, -0.07750178128480911, 0.04615754634141922, 0.08224590122699738, 0.03470848873257637, -0.015946058556437492, -0.0273958258330822, 0.07038511335849762], [-0.1986609697341919, 0.13934768736362457, -0.2730633020401001, -0.09249362349510193, 0.08601849526166916, 0.19494889676570892, 0.15269066393375397, -0.11667515337467194, -0.06317435950040817, -0.11528314650058746], [0.08204720169305801, 0.020528681576251984, 0.036850009113550186, 0.011576834134757519, -0.03661966696381569, -0.052925955504179, 0.011384697631001472, -0.03309694677591324, 0.08035039156675339, 0.037461474537849426], [0.044865284115076065, 0.11502444744110107, -0.04788864776492119, -0.018663009628653526, 0.15978606045246124, -0.1683596670627594, -0.02198895253241062, -0.07770761102437973, -0.06785702705383301, -0.0943162590265274], [0.05700863152742386, -0.0579683743417263, 0.11286256462335587, -0.009479398839175701, 0.0017477452056482434, -0.09873081743717194, -0.06888152658939362, -0.06782720237970352, -0.03306759148836136, 0.011704729869961739], [0.0028169495053589344, -0.07530135661363602, 0.014827129431068897, -0.024507703259587288, -0.025023866444826126, 0.1474745124578476, -0.0500517375767231, 0.0032660826109349728, 0.024947749450802803, 0.0926453247666359], [0.07254505157470703, -0.04194006696343422, -0.030810145661234856, 0.02005738765001297, 0.04193836823105812, 0.026903405785560608, -0.1509658247232437, 0.011843894608318806, 0.06521142274141312, -0.01162494532763958], [-0.02400553785264492, 0.0030465549789369106, 0.0072323898784816265, 0.009565816260874271, 0.057232990860939026, 0.026655444875359535, 0.026813631877303123, -0.07523107528686523, 0.07869944721460342, 0.029058106243610382], [-0.14151804149150848, -0.14044395089149475, -0.056867532432079315, -0.17417281866073608, -0.19211432337760925, 0.18621480464935303, 0.060145504772663116, -0.0209026038646698, 0.03227116912603378, 0.028338434174656868], [-0.14190435409545898, 0.10266551375389099, -0.15245407819747925, -0.18642260134220123, 0.2532182037830353, 0.16538551449775696, -0.05430681258440018, -0.049119845032691956, 0.031233636662364006, -0.09708675742149353], [0.007437088526785374, 0.03000032901763916, -0.04906527325510979, -0.07945523411035538, -0.0034163810778409243, 0.17017611861228943, 0.025198614224791527, 0.02832914888858795, 0.037552397698163986, -0.013223448768258095], [-0.2051803469657898, 0.055243562906980515, -0.2888902723789215, -0.14253856241703033, 0.16428525745868683, 0.20676535367965698, 0.04792550951242447, 0.003982661757618189, 0.01485997810959816, -0.13535071909427643], [0.10158012807369232, -0.06269285827875137, 0.018406042829155922, 0.005604348611086607, -0.02434038743376732, -0.02888801135122776, 0.012345370836555958, -0.03499868884682655, 0.05233954265713692, -0.001299595576710999], [-0.03817395493388176, -0.012413655407726765, -0.09393478184938431, 0.017752433195710182, 0.0638270229101181, -0.028084663674235344, -0.052451085299253464, -0.039997976273298264, 0.017329737544059753, -0.1183968186378479], [0.05847051367163658, -0.1658840775489807, -0.0736883357167244, -0.05263404920697212, -0.13398271799087524, 0.014313985593616962, 0.02298351749777794, 0.009734065271914005, 0.10569968074560165, -0.09753040969371796], [-0.06070989370346069, -0.14735639095306396, -0.05752753093838692, -0.015549993142485619, -0.06417263299226761, 0.09538143873214722, 0.02418765239417553, -0.020729146897792816, 0.023332813754677773, -0.045410510152578354], [0.10706533491611481, 0.043665170669555664, -0.05222715809941292, -0.05051851272583008, -0.040800534188747406, 0.0348699688911438, -0.058345481753349304, -0.0034166905097663403, 0.08731716126203537, 0.09674518555402756], [0.04956527054309845, -0.010526848956942558, -0.05432983115315437, -0.07998866587877274, 0.049569182097911835, 0.10004931688308716, -0.09178434312343597, -0.07081335783004761, 0.047073401510715485, 0.003589870408177376], [-0.11557917296886444, -0.2343628853559494, -0.1870836764574051, -0.2371782511472702, -0.0862266942858696, 0.1000770628452301, 0.14461487531661987, 0.020221592858433723, -0.014793169684708118, 0.01641998067498207], [-0.07500801235437393, 0.12839750945568085, -0.15449056029319763, -0.1737464964389801, 0.16852134466171265, 0.2534731328487396, -0.004400985315442085, -0.0535610057413578, 0.03320661559700966, -0.20273831486701965], [0.0624455027282238, -0.050102680921554565, -0.07200818508863449, -0.14323651790618896, 0.024279369041323662, 0.1327282041311264, -0.06792604923248291, 0.043790508061647415, 0.1004461944103241, -0.028918227180838585], [-0.1381751447916031, -0.013633200898766518, -0.1739591360092163, -0.06338074803352356, 0.11892753094434738, 0.10823427885770798, 0.0903981551527977, -0.02088133990764618, 0.1090470477938652, -0.1431364119052887], [0.008729270659387112, 0.021601015701889992, 0.013823096640408039, 0.023216482251882553, 0.021278779953718185, 0.052542492747306824, -0.007036286406219006, -0.014368975535035133, 0.002819702262058854, 0.07379303127527237], [0.05513374134898186, 0.06591757386922836, -0.04954276978969574, 0.025270091369748116, 0.0197104774415493, -0.15260034799575806, -0.03907835856080055, -0.004735039547085762, -0.01027909480035305, -0.05714614689350128], [-0.11937612295150757, -0.11571039259433746, -0.20734108984470367, -0.24306006729602814, -0.027790309861302376, 0.11361923813819885, 0.15107695758342743, -0.06222781538963318, 0.03402106463909149, -0.18534338474273682], [0.07635107636451721, 0.00015742520918138325, -0.056278474628925323, -0.027645424008369446, -0.0427025631070137, 0.10859327763319016, -0.035566527396440506, 0.012613541446626186, 0.09143878519535065, 0.01944676972925663], [0.07791866362094879, 0.06875714659690857, 0.021192139014601707, 0.009437641128897667, 0.006347763817757368, -0.02324703335762024, -0.009704720228910446, -0.08084224909543991, -0.030658911913633347, -0.04413639381527901], [-0.00036092731170356274, -0.015780286863446236, -0.03338724002242088, 0.03534892201423645, 0.044310882687568665, 0.07424294948577881, 0.0078088971786201, -0.07493340969085693, 0.04974495619535446, -0.10679066181182861], [-0.06218142434954643, -0.09766453504562378, -0.23479804396629333, -0.2010808289051056, 0.015452878549695015, 0.03373532369732857, 0.1082245334982872, 0.03119714744389057, -0.04134164750576019, -0.02279478684067726], [-0.09095252305269241, -0.08751135319471359, -0.18122601509094238, -0.22054962813854218, 0.21561293303966522, 0.29389458894729614, -0.09931156784296036, -0.10760369151830673, 0.062212202697992325, -0.16576287150382996], [0.011365270242094994, 0.04414049908518791, -0.06407489627599716, -0.061306241899728775, 0.024459192529320717, 0.10907775163650513, 0.06867709755897522, -0.0029742419719696045, 0.05435836687684059, 0.019717171788215637], [-0.12405339628458023, -0.1364736557006836, -0.0658460184931755, -0.07632111757993698, 0.0828733965754509, 0.07696785777807236, -0.032712455838918686, -0.10600581765174866, 0.09961230307817459, 0.016126668080687523], [-0.03883704915642738, 0.0017703404882922769, -0.0458238422870636, 0.02903587371110916, 0.0028060043696314096, 0.09343090653419495, -0.10980439931154251, -0.045841071754693985, 0.10363609343767166, -0.039370615035295486], [0.03907443583011627, 0.027210339903831482, 0.05606892332434654, 0.024728836491703987, 0.004138372838497162, -0.09515302628278732, 0.027769258245825768, -0.03624013438820839, 0.02518424391746521, 0.05637401342391968], [-0.23183906078338623, -0.0955110415816307, -0.2100340873003006, -0.2140684425830841, -0.012718772515654564, 0.1982101947069168, 0.0902976393699646, 0.005294164177030325, -0.08226661384105682, -0.14440621435642242], [0.07224533706903458, -0.020410994067788124, -0.009523089043796062, -0.024583932012319565, 0.09010240435600281, 0.061528291553258896, -0.017263229936361313, -0.11879738420248032, 0.10624979436397552, 0.0034350205678492785], [0.047566358000040054, 0.020068056881427765, 0.017714519053697586, -0.04428636655211449, -0.048410121351480484, -0.01353659201413393, -0.07096439599990845, 0.04500066488981247, 0.06252459436655045, -0.00895066000521183], [-0.04229363799095154, 0.05304940789937973, 0.03205915540456772, 0.06172855198383331, 0.02920045703649521, -0.033285994082689285, -0.10219675302505493, 0.11791561543941498, 0.04508589580655098, -0.07879031449556351], [0.01016551535576582, 0.07109266519546509, 0.08821439743041992, 0.12859800457954407, -0.03540419787168503, -0.14752046763896942, -0.08887384086847305, 0.06097874417901039, -0.04690413177013397, -0.10472573339939117], [-0.07198668271303177, 0.009799337945878506, -0.05483384057879448, -0.026600558310747147, -0.032032549381256104, -0.1066746860742569, -0.017184583470225334, 0.08156871050596237, 0.02067352831363678, -0.011059043928980827], [0.08922392874956131, -0.0527748204767704, -0.0027363456320017576, -0.03602440282702446, 0.016168996691703796, 0.001720084110274911, 0.0873313844203949, -0.03308051824569702, 0.05074863135814667, -0.05938761308789253], [-0.02791944146156311, -0.041849348694086075, -0.003642498515546322, 0.17030858993530273, 0.0015130330575630069, -0.14437684416770935, -0.004756859969347715, -0.001906145946122706, -0.0055597503669559956, -0.016109606251120567], [-0.013826784677803516, -0.0769127905368805, -0.02542731538414955, -0.0007719169370830059, 0.03739852085709572, -0.013099079951643944, -0.021571476012468338, 0.05678591504693031, 0.0016151054296642542, -0.045315422117710114], [-0.06709340959787369, 0.040589869022369385, 0.13151100277900696, 0.00860543828457594, -0.07153311371803284, -0.01091243326663971, -0.02846579998731613, 0.09083294123411179, -0.08916759490966797, -0.11479760706424713], [-0.01264420710504055, -0.025512518361210823, -0.09819309413433075, 0.021915681660175323, 0.020603103563189507, -0.03535805642604828, -0.03448943793773651, 0.025502894073724747, -0.008134467527270317, -0.043703824281692505], [-0.07048428803682327, -0.0046061621978878975, 0.073430135846138, 0.17835457623004913, -0.015612773597240448, -0.2621341645717621, -0.12533921003341675, 0.04043584689497948, -0.030217688530683517, -0.051390692591667175], [0.02038211189210415, 0.01641155779361725, 0.05318363383412361, -0.06385273486375809, 0.010479165241122246, -0.05685789883136749, -0.04206319898366928, -0.025599654763936996, 0.06903206557035446, 0.02549116127192974], [-0.06664527207612991, -0.018466057255864143, -0.008316189981997013, 0.06282852590084076, -0.09359493851661682, -0.0012306609423831105, -0.05804731696844101, 0.13160420954227448, 0.02178758569061756, -0.13008950650691986], [-0.10549680888652802, 0.0707445815205574, 0.10669903457164764, 0.14745071530342102, -0.18937981128692627, -0.09693384915590286, -0.16973115503787994, 0.15238149464130402, -0.14622052013874054, -0.14719641208648682], [0.08509855717420578, -0.10720811039209366, -0.054775435477495193, -0.05558186024427414, -0.0523451529443264, 0.08829978108406067, 0.054610952734947205, 0.046768344938755035, 0.0001256326650036499, 0.13754171133041382], [-0.040861546993255615, -0.009280789643526077, -0.016507325693964958, 0.042551442980766296, -0.0802680104970932, 0.08777754008769989, 0.04228299483656883, -0.004930812865495682, 0.02611011080443859, 0.09470909833908081], [-0.14630062878131866, -0.06847210228443146, 0.04309362545609474, 0.14034606516361237, -0.11170157790184021, -0.2769026756286621, -0.07895083725452423, 0.05457817763090134, -0.07212851941585541, 0.017430763691663742], [-0.013577114790678024, -0.04831952229142189, -0.06132348254323006, 0.0656728744506836, 0.024806255474686623, 0.03540444001555443, -0.013246173039078712, 0.030284525826573372, 0.031207559630274773, 0.04226696863770485], [-0.06918935477733612, 0.0872936099767685, 0.04578995332121849, 0.03628694266080856, 0.04951276257634163, 0.0805894136428833, 0.08263363689184189, -0.05642031505703926, -0.11534818261861801, -0.2133227288722992], [0.005858020856976509, -0.05640479177236557, -0.0991143137216568, -0.011152365244925022, 0.02638843283057213, 0.005097893066704273, 0.034050192683935165, 0.20293234288692474, 0.006717734970152378, -0.14745475351810455], [0.00972608383744955, -0.03969273716211319, -0.02690250799059868, 0.09207190573215485, -0.04102668911218643, -0.1998760849237442, 0.0499156154692173, 0.0019459197064861655, 0.00017194359679706395, -0.03744096681475639], [-0.026068903505802155, -0.06338891386985779, 0.06960049271583557, 0.039557382464408875, 0.013668190687894821, -0.05478985980153084, -0.13729463517665863, -0.031089268624782562, 0.05388997122645378, 0.05627027899026871], [0.020949561148881912, -0.03448077291250229, 0.08195403218269348, 0.08718723058700562, -0.0857812687754631, -0.031320519745349884, -0.15562698245048523, 0.12361366301774979, 0.0656125620007515, -0.05942228436470032], [-0.08654720336198807, 0.02954198606312275, 0.10601799935102463, 0.18158689141273499, -0.23583003878593445, -0.17245998978614807, -0.24650827050209045, 0.10133416950702667, -0.06960218399763107, -0.24543343484401703], [-0.027915053069591522, -0.07355475425720215, -0.06088021770119667, -0.10543321073055267, 0.017950866371393204, -0.022808073088526726, 0.04042473062872887, -0.028578629717230797, 0.06784288585186005, 0.039590682834386826], [-0.06462453305721283, -0.017587503418326378, 0.05293409526348114, -0.03452833369374275, -0.09971801936626434, -0.04622446745634079, -0.02591465599834919, -0.019005106762051582, 0.01915191486477852, 0.02042028121650219], [-0.030578365549445152, -0.19346192479133606, 0.16362278163433075, 0.0647163987159729, -0.07954622805118561, -0.17969156801700592, 0.03822455555200577, 0.023056630045175552, -0.04892551153898239, 0.10321968793869019], [-0.051104191690683365, -0.015840962529182434, 0.010568162426352501, 0.02381550520658493, -0.06969986110925674, 0.07923435419797897, 0.03834434226155281, 0.0608692467212677, 0.07544726133346558, 0.007180606480687857], [-0.0763610303401947, -0.01688242517411709, -0.11181682348251343, -0.1808176338672638, 0.26175931096076965, 0.14213857054710388, 0.071621835231781, 0.06838499754667282, 0.10601753741502762, -0.20989865064620972], [-0.0813622996211052, -0.04024820774793625, 0.05922075733542442, -0.036208901554346085, 0.016093328595161438, -0.05581999942660332, -0.0884648934006691, 0.11242755502462387, -0.01129218004643917, -0.16465908288955688], [0.03718123957514763, 0.015678297728300095, -0.021067505702376366, 0.05792961269617081, 0.019196195527911186, -0.060346923768520355, -0.0800645500421524, -0.012520997785031796, 0.01881903037428856, 0.007626380305737257], [-0.026326991617679596, -0.06259525567293167, 0.038438018411397934, 0.02859121561050415, 0.007982258684933186, -0.046169258654117584, -0.1583169400691986, 0.1007709726691246, -0.03051334246993065, 0.014423642307519913], [0.019117571413517, -0.12042345851659775, -0.005597810260951519, 0.013016262091696262, -0.04727216809988022, -0.014206422492861748, -0.16143746674060822, -0.020145351067185402, 0.0939730554819107, -0.061199359595775604], [-0.0696142390370369, -0.11384570598602295, 0.1365533322095871, 0.18092317879199982, -0.26564154028892517, -0.13845473527908325, -0.21883772313594818, 0.20825015008449554, -0.17451885342597961, -0.08415336906909943], [0.04213259369134903, -0.062128156423568726, -0.009635213762521744, -0.051076844334602356, 0.02759174257516861, 0.0730404183268547, 0.08403143286705017, 0.03029927983880043, 0.021278968080878258, 0.0967678502202034], [-0.048280131071805954, -0.03979458287358284, -0.02787165157496929, 0.09711404889822006, -0.08361641317605972, 8.80533189047128e-05, -0.05966361612081528, -0.0035840573254972696, 0.09282580763101578, 0.0863371267914772], [-0.14322103559970856, -0.09674650430679321, 0.13837185502052307, 0.023459965363144875, -0.10259115695953369, -0.13847027719020844, 0.04049493372440338, -0.02643243409693241, -0.025130609050393105, 0.19702060520648956], [0.05455446243286133, -0.050214607268571854, -0.029864750802516937, 0.06791524589061737, 0.0029572166968137026, 0.07059943675994873, -0.031526584178209305, 0.05460546910762787, 0.04481698200106621, 0.03982263803482056], [0.008596831001341343, -0.07687932252883911, -0.15743063390254974, -0.37456515431404114, 0.34391868114471436, 0.11347512155771255, 0.16125907003879547, -0.09665333479642868, 0.07825157046318054, -0.08678939938545227], [-0.05981883779168129, -0.025334762409329414, 0.07935779541730881, 0.06254979223012924, 0.1549873948097229, 0.010049290023744106, -0.2831411063671112, 0.1641775220632553, 0.04446497559547424, -0.2430344820022583], [-0.07968536764383316, -0.08124066144227982, -0.07469382137060165, 0.06332617253065109, -0.06608063727617264, -0.004714964423328638, -0.011210999451577663, 0.04117802157998085, 0.04687732830643654, 0.09346632659435272], [0.04456957429647446, -0.02000720053911209, 0.049910131841897964, 0.02727089822292328, -0.12243466824293137, 0.03812110796570778, -0.08034124225378036, 0.04432876408100128, -0.059882521629333496, -0.02739506959915161], [-0.009904247708618641, -0.053730085492134094, 0.00846581906080246, 0.0022204373963177204, -0.08593619614839554, -0.0667874738574028, -0.16490058600902557, -0.017697693780064583, -0.0038838956970721483, 0.11503623425960541], [-0.08382049947977066, -0.28495341539382935, 0.02035994455218315, 0.06275755167007446, -0.448782742023468, 0.014887137338519096, -0.22839848697185516, 0.19161729514598846, 0.04388809576630592, 0.13691042363643646], [0.08374720066785812, -0.05302571505308151, -0.0759933590888977, -0.08948393911123276, 0.045908715575933456, 0.11404889076948166, 0.11514656990766525, 0.012998336926102638, -0.02595329098403454, 0.023885054513812065], [-0.07294753193855286, 0.034492067992687225, -0.0799998864531517, -0.025981545448303223, -0.0554504320025444, -0.14503690600395203, -0.11320406198501587, -0.03995616361498833, 0.016208713874220848, 0.01693449541926384], [0.035075847059488297, -0.12648071348667145, 0.04038095846772194, -0.029935605823993683, -0.2343052625656128, 0.04782513529062271, 0.011703814379870892, -0.0344136580824852, -0.09317338466644287, 0.1686781793832779], [0.03927820920944214, -0.13185907900333405, -0.06141776219010353, -0.055077992379665375, -0.11885634064674377, 0.0538984090089798, -0.03629133105278015, -0.0454837903380394, -0.011773855425417423, 0.07420138269662857], [0.011794541031122208, -0.038581185042858124, -0.08062645047903061, -0.41461804509162903, 0.33901673555374146, 0.1491045504808426, 0.1107320636510849, -0.011679761111736298, 0.0013443160569295287, -0.14163720607757568], [-0.1109379380941391, 0.0807470828294754, 0.10046245157718658, -0.021367253735661507, -0.12160048633813858, -0.12800075113773346, -0.27831822633743286, 0.07175610959529877, 0.05980861186981201, -0.13485746085643768], [-0.034159839153289795, -0.06856629252433777, -0.04444954916834831, 0.04853688180446625, -0.055766407400369644, -0.07732439786195755, -0.07663082331418991, -0.09431389719247818, 0.11928603798151016, 0.10216240584850311], [0.031388115137815475, -0.055292535573244095, 0.07292543351650238, 0.08862968534231186, -0.0558951310813427, -0.01776825450360775, -0.2237754911184311, 0.049135494977235794, -0.08219483494758606, 0.04643912985920906], [0.07437670975923538, -0.04891609027981758, -5.970154597889632e-05, 0.007436530664563179, -0.0483781136572361, -0.025757232680916786, -0.043417371809482574, 0.06677501648664474, 0.016269968822598457, 0.10422130674123764], [0.02918442152440548, -0.17022870481014252, -0.01529761217534542, 0.05369630455970764, -0.4078975021839142, 0.12845265865325928, -0.17482078075408936, 0.08525571972131729, -0.002171402331441641, 0.014369466342031956], [0.04603270813822746, 0.1133950874209404, -0.152821347117424, -0.07511749118566513, 0.12073135375976562, 0.10543478280305862, 0.11403340846300125, -0.049533016979694366, -0.024554284289479256, -0.10942160338163376], [-0.06465891003608704, -0.12184838950634003, 0.031972553580999374, -0.018495062366127968, -0.03354877606034279, -0.07967397570610046, -0.06299874186515808, -0.047940030694007874, 0.12575866281986237, 0.08836487680673599], [0.13196702301502228, -0.0637243241071701, 0.05398809537291527, -0.12605780363082886, -0.10145637392997742, 0.10485570877790451, 0.10932199656963348, 0.0032665454782545567, -0.10590943694114685, 0.11505550891160965], [-0.008869387209415436, -0.07022785395383835, -0.06171088293194771, 0.023441534489393234, -0.038614850491285324, -0.029598550871014595, -0.012617806904017925, 0.00703460955992341, 0.09965603798627853, 0.034543897956609726], [0.0985715314745903, 0.21273447573184967, 0.0228265393525362, -0.1673952341079712, 0.2741082012653351, 0.13001450896263123, 0.065852589905262, -0.14117521047592163, -0.038140323013067245, -0.20550398528575897], [0.13042974472045898, -0.050213634967803955, 0.1797349750995636, 0.020665543153882027, -0.11351190507411957, -0.10622386634349823, -0.2828538715839386, 0.14237183332443237, -0.018132219091057777, -0.04972471296787262], [0.021144339814782143, 0.004635324701666832, -0.005560247227549553, 0.015499736182391644, -0.1520213931798935, -0.046483367681503296, -0.10357756167650223, -0.002741245785728097, 0.12532936036586761, 0.020272500813007355], [0.062183260917663574, 0.040314581245183945, -0.05364776775240898, -0.027575120329856873, -0.13616733253002167, 0.038710739463567734, -0.18363447487354279, 0.003849149914458394, 0.00045742979273200035, 0.13888685405254364], [0.0327126681804657, -0.14200033247470856, -0.06671497225761414, 0.026217125356197357, -0.038806457072496414, 0.009175111539661884, -0.1296667456626892, 0.045663949102163315, 0.09725461155176163, 0.15839463472366333], [0.042378753423690796, -0.21618713438510895, 0.0390637144446373, 0.028907492756843567, -0.4082089364528656, 0.1562298983335495, -0.04183585196733475, 0.1517946571111679, -0.023768290877342224, 0.11787746101617813], [0.06996563076972961, 0.19513757526874542, -0.12138557434082031, -0.06713592261075974, 0.22623558342456818, -0.011871950700879097, -0.0278683640062809, 0.012697692029178143, -0.18765003979206085, -0.11237574368715286], [0.07771260291337967, -0.09329525381326675, -0.0004364156920928508, 0.004638435319066048, -0.0355793759226799, -0.04525579884648323, 0.0167421605437994, 0.03450655937194824, 0.08361288905143738, 0.03139603137969971], [0.09194214642047882, 0.006275160703808069, 0.026010913774371147, -0.09369019418954849, -0.10874955356121063, 0.16519825160503387, 0.1721256673336029, -0.002690619556233287, -0.04957890138030052, -0.06721790879964828], [0.06462378799915314, 0.03587646782398224, -0.08871205151081085, 0.024086754769086838, -0.025144381448626518, 0.001902236370369792, -0.02951318956911564, 0.04782438278198242, -0.042014818638563156, 0.04846811294555664], [-0.039346735924482346, 0.17468108236789703, -0.058958638459444046, -0.09000729024410248, 0.14969538152217865, -0.08708186447620392, 0.0018500004662200809, -0.08520656824111938, -0.06769311428070068, -0.10938859730958939], [0.13597489893436432, -0.16915495693683624, 0.13129965960979462, 0.01040701288729906, -0.14494605362415314, 0.03134744614362717, -0.20154300332069397, 0.11813191324472427, 0.06367746740579605, -0.021283091977238655], [-0.006390377413481474, 0.018773311749100685, -0.034941546618938446, 0.030416339635849, -0.09945812821388245, 0.07323306798934937, 0.01509758923202753, -0.10506994277238846, -0.0009955819696187973, 0.08499672263860703], [0.07960454374551773, -0.04548200964927673, -0.008625181391835213, -0.048856496810913086, -0.18674419820308685, 0.09043651819229126, -0.0920628160238266, 0.05641109496355057, -0.01156956609338522, 0.05751054361462593], [0.03829921409487724, 0.0028147660195827484, -0.0553567074239254, -0.037886638194322586, -0.1204070895910263, 0.07669015973806381, 0.010571816004812717, 0.035246074199676514, -0.007626367267221212, 0.09288633614778519], [0.08858188986778259, -0.3550635576248169, -0.004198046866804361, 0.009145690128207207, -0.42576804757118225, 0.1837959587574005, 0.041257113218307495, -0.0026359024923294783, -0.08673616498708725, 0.12979884445667267], [-0.05845058709383011, 0.2787221074104309, -0.24797068536281586, 0.03307054191827774, 0.29138267040252686, -0.09319327026605606, 0.04428620636463165, 0.033527690917253494, -0.11622519046068192, -0.16610552370548248], [0.03554834797978401, 0.015821000561118126, -0.10391145944595337, -0.020786670967936516, 0.06186675280332565, 0.02713262289762497, 0.009946733713150024, -0.04013260453939438, 0.03758833184838295, 0.05719799920916557], [-0.012505821883678436, -0.00812309980392456, -0.1508227437734604, -0.015739066526293755, 0.04216876998543739, 0.15741482377052307, 0.12555480003356934, -0.022726448252797127, -0.03356712684035301, -0.17522552609443665], [-0.04285193979740143, 0.04567757621407509, -0.0944681242108345, 0.004196023102849722, -0.07028621435165405, 0.014838741160929203, -0.028289010748267174, 0.013937394134700298, -0.06529460847377777, 0.008406599052250385], [-0.00803648866713047, 0.12713535130023956, 0.028741970658302307, 0.03150938078761101, 0.22426560521125793, -0.09838159382343292, -0.10319527983665466, -0.03916686028242111, -1.6378064174205065e-05, -0.04271465167403221], [0.046485062688589096, -0.36577531695365906, 0.13340115547180176, -0.1022840216755867, -0.11353342980146408, 0.0013675142545253038, 0.07132846117019653, 0.021618934348225594, -0.08149584382772446, 0.10183792561292648], [0.05291697755455971, -0.10050845891237259, -0.0019847217481583357, 0.02799217589199543, -0.021440815180540085, 0.0803639143705368, -0.04189401492476463, -0.061493996530771255, 0.04207771271467209, 0.12842686474323273], [-0.0012590497499331832, -0.15750016272068024, -0.042227309197187424, -0.07818082720041275, -0.014935276471078396, 0.05208801105618477, -0.04475844278931618, 0.015841223299503326, -0.021572500467300415, 0.16254626214504242], [-0.051708925515413284, 0.018614886328577995, -0.06866142153739929, -0.07273916155099869, 0.022487802430987358, -0.02048618532717228, -0.16310732066631317, 0.03230341151356697, 0.007363696116954088, -0.0169374980032444], [-0.07537524402141571, -0.2889493405818939, 0.010296993888914585, -0.12372370809316635, -0.4031880795955658, 0.2059190720319748, 0.09863030910491943, -0.07878661155700684, -0.0017631391528993845, 0.1285383105278015], [-0.11966860294342041, 0.10471756011247635, -0.11081229150295258, 0.007305687293410301, 0.18026705086231232, 0.004796401131898165, -0.0024636967573314905, 0.14743323624134064, -0.08888234198093414, -0.21239160001277924], [-0.07714706659317017, 0.050558555871248245, -0.16176965832710266, -0.04579146206378937, 0.12609799206256866, 0.19514814019203186, -0.051391687244176865, -0.0039102258160710335, 0.028576523065567017, -0.03177614137530327], [-0.1434660106897354, -0.035836879163980484, -0.13166065514087677, -0.11602532863616943, 0.1796645224094391, 0.158071830868721, 0.10903108865022659, 0.15488985180854797, 0.03666986525058746, -0.27906927466392517], [0.04572206735610962, -0.09488680958747864, -0.014199700206518173, 0.028069760650396347, 0.0132150799036026, -0.02510131523013115, -0.04688996821641922, 0.03746293857693672, 0.08862113207578659, -0.006551987957209349], [0.004952259827405214, 0.03907301276922226, -0.0015871875220909715, 0.00067651376593858, 0.1605420857667923, -0.01891796663403511, -0.14073419570922852, 0.010565298609435558, -0.030015967786312103, -0.06514045596122742], [0.13853773474693298, -0.3170507550239563, 0.08440601080656052, -0.16560809314250946, -0.2872215509414673, 0.01231468841433525, 0.15284624695777893, -0.1803373545408249, 0.06638897955417633, 0.10345935076475143], [-0.022315943613648415, -0.022576531395316124, -0.05545580014586449, -0.04513729736208916, -0.02883625216782093, -0.019361084327101707, -0.002826492767781019, -0.029156044125556946, 0.043238356709480286, 0.028329579159617424], [0.01021355390548706, -0.01784522645175457, -0.1202687993645668, -0.052215736359357834, -0.05997312441468239, 0.09491826593875885, -0.04075006768107414, 0.08963713049888611, 0.11146102100610733, 0.06373235583305359], [-0.006174724083393812, -0.10075048357248306, 0.016326919198036194, 0.04272527992725372, -0.04131820425391197, 0.07400234043598175, -0.11613651365041733, -0.06081154942512512, 0.010390945710241795, -0.03076281026005745], [-0.05860859900712967, -0.15322493016719818, -0.11900477111339569, -0.22092312574386597, -0.1166115254163742, 0.20367267727851868, 0.10604172199964523, -0.15604592859745026, -0.003715930273756385, -0.11022285372018814], [-0.036411918699741364, 0.07273650169372559, -0.17652732133865356, -0.10227184742689133, 0.18799187242984772, 0.15620678663253784, -0.02600640058517456, 0.1248927041888237, -0.04492156580090523, -0.335300475358963], [-0.019618581980466843, 0.02414751425385475, -0.2463199943304062, -0.2277076095342636, 0.17125040292739868, 0.2742770314216614, -0.03420284017920494, 0.03035408817231655, 0.07474583387374878, -0.10341252386569977], [-0.2097662091255188, 0.033633772283792496, -0.07536829262971878, -0.02228187955915928, 0.01618610881268978, 0.10904114693403244, 0.10912946611642838, -0.0025462298654019833, -0.10348322242498398, -0.1395094394683838], [0.059618305414915085, -0.09889782965183258, -0.08124581724405289, -0.057090628892183304, 0.03211183100938797, 0.026034146547317505, -0.11552295088768005, -0.060560859739780426, 0.03615335002541542, -0.025810273364186287], [-0.043474894016981125, 0.05384908244013786, -0.01447217259556055, 0.08761834353208542, 0.043117452412843704, -0.060803383588790894, 0.004761300981044769, -0.06506812572479248, 0.004441361874341965, -0.028004156425595284], [0.005897891707718372, -0.05826020613312721, -0.34128862619400024, -0.2894887626171112, -0.029626939445734024, 0.163127139210701, 0.18374665081501007, -0.18772286176681519, 0.06486865878105164, -0.11252649128437042], [0.03969423100352287, -0.08828891813755035, -0.07897244393825531, -0.06123793125152588, -0.04351739212870598, 0.03353891894221306, -0.030381616204977036, -0.0062636700458824635, 0.04921344295144081, -0.06865347921848297], [-0.02328355424106121, -0.12821394205093384, -0.10138165205717087, -0.04652804508805275, -0.1619330793619156, 0.07451152056455612, -0.13437849283218384, -0.04671338200569153, 0.01099353563040495, 0.0669764056801796], [0.0327119305729866, -0.08812125772237778, 0.026328662410378456, 0.056141771376132965, 0.05945587158203125, 0.07860781252384186, -0.10434050858020782, 0.016426948830485344, 0.0866306871175766, -0.006775362882763147], [-0.0888194739818573, 0.0007225150475278497, -0.16974391043186188, -0.18981947004795074, 0.06920363008975983, 0.07805763930082321, 0.13005425035953522, -0.16557201743125916, -0.023872308433055878, -0.08863688260316849], [-0.1768682897090912, 0.018545007333159447, -0.10076334327459335, -0.25399428606033325, 0.12711191177368164, 0.24533940851688385, -0.06468870490789413, 0.030019322410225868, -0.04899274930357933, -0.27725034952163696], [-0.09879962354898453, -0.019813397899270058, -0.18211178481578827, -0.13871341943740845, 0.04509337618947029, 0.19426268339157104, -0.0435003936290741, 0.01047239825129509, 0.014108143746852875, -0.09731807559728622], [-0.08970406651496887, 0.01550297625362873, -0.004725747741758823, -0.040091902017593384, 0.018216600641608238, 0.048762671649456024, 0.07521167397499084, 0.016297347843647003, -0.04803185164928436, -0.0765112116932869], [0.010763311758637428, 0.017858995124697685, -0.07658830285072327, -0.0021628967951983213, 0.007385648787021637, 0.08407936245203018, -0.029709186404943466, -0.0167219340801239, 0.07479070872068405, -0.07133234292268753], [0.01658707670867443, 0.04355304315686226, 0.06484024971723557, 0.06069694831967354, 0.04187827557325363, -0.16207662224769592, -0.002216547727584839, 0.04647026211023331, -0.024616651237010956, -0.03620555251836777], [-0.24447309970855713, -0.08005993068218231, -0.2841740548610687, -0.1734701246023178, 0.17992636561393738, 0.11181710660457611, 0.0979067012667656, -0.0009192012366838753, -0.1282770186662674, -0.17753316462039948], [0.03634096682071686, -0.0704987570643425, -0.08314041793346405, -0.02166343852877617, 0.016171975061297417, 0.16256898641586304, 0.0015638923505321145, -0.07593308389186859, -0.018245218321681023, -0.016838036477565765], [0.017651021480560303, -0.02913796342909336, -0.025519490242004395, -0.006372302304953337, -0.06293880939483643, -0.13626468181610107, 0.030123313888907433, 0.0055646696127951145, 0.08926168084144592, -0.032775431871414185], [-0.056701865047216415, -0.08183977752923965, 0.065323606133461, -0.011079168878495693, -0.09422186017036438, -0.09318924695253372, 0.0303008072078228, -0.04177733510732651, -0.011754842475056648, -0.06478383392095566], [-0.15578801929950714, 0.05222289264202118, 0.06399990618228912, 0.0376315712928772, -0.04362238943576813, -0.1887957900762558, -0.03313661739230156, 0.032460443675518036, -0.028534993529319763, -0.08324688673019409], [0.006058910861611366, -0.015349840745329857, -0.0969957709312439, -0.06711609661579132, 0.020518561825156212, -0.059724148362874985, 0.0154120409861207, 0.03738603740930557, 0.018379108980298042, 0.1394660919904709], [0.01476706936955452, -0.0960153266787529, -0.0024061643052846193, -0.02177870273590088, 0.026480980217456818, -0.003969551995396614, 0.029107684269547462, -0.02270246483385563, 0.1066226214170456, 0.09532369673252106], [0.03272518515586853, 0.033784180879592896, 0.005467910319566727, 0.07552247494459152, -0.07416413724422455, -0.17547303438186646, 0.03659224510192871, 0.04421600326895714, -0.008530360646545887, -0.13118021190166473], [-0.037648919969797134, 0.05009203404188156, 0.024375639855861664, -0.04780726134777069, 0.008219251409173012, -0.03152192756533623, -0.03762660548090935, 0.06809316575527191, 0.020616205409169197, 0.034126654267311096], [0.004251294769346714, -0.010303487069904804, 0.09556140750646591, 0.10452165454626083, -0.03509179502725601, 0.06925088167190552, -0.061170924454927444, 0.04411499947309494, 0.04654670134186745, -0.03072870336472988], [0.02857447974383831, 0.01785951294004917, -0.01485294010490179, 0.02280876785516739, -0.03540762513875961, 0.0718102753162384, 0.06386748701334, -0.017111146822571754, 0.0974242240190506, 0.062274206429719925], [-0.022274581715464592, -0.05659514293074608, 0.10908140987157822, 0.11504040658473969, 0.04203082621097565, -0.2611672878265381, -0.039108358323574066, 0.0020793795119971037, -0.025178024545311928, -0.16841134428977966], [0.008428754284977913, 0.04805012792348862, 0.05886880308389664, 0.09175647795200348, 0.030383264645934105, -0.16982223093509674, 0.004743231926113367, 0.03687450662255287, 0.010565760545432568, 0.03847417235374451], [-0.06220576539635658, 0.014373942278325558, -0.0687907412648201, -0.028448214754462242, -0.014807550236582756, 0.023621179163455963, -0.09540888667106628, 0.08255321532487869, 0.11621908843517303, -0.07842636853456497], [-0.09134870022535324, 0.026783589273691177, 0.07042475044727325, 0.11678316444158554, -0.1353030949831009, -0.15046700835227966, -0.1249128058552742, 0.15908806025981903, -0.19780074059963226, -0.20794712007045746], [0.08649961650371552, -0.09400340169668198, -0.08155953884124756, -0.08273401856422424, 0.047644030302762985, 0.030386384576559067, 0.05081884562969208, -0.0543934628367424, 0.01434818934649229, 0.12397456169128418], [0.06932703405618668, -0.08590101450681686, -0.04566270858049393, -0.025426853448152542, 0.031086353585124016, 0.021179676055908203, 0.08151436597108841, -0.012472325935959816, 0.025084495544433594, 0.14195823669433594], [-0.07832461595535278, 0.05178981274366379, 0.06114776432514191, 0.1723191887140274, -0.05323176831007004, -0.19559499621391296, -0.09551791101694107, 0.0698782205581665, -0.06681175529956818, -0.0604129433631897], [0.011205926537513733, -0.06612753868103027, -0.09688534587621689, -0.05174513906240463, 0.025167427957057953, -0.06974345445632935, -0.015404894016683102, 0.05123714730143547, 0.04166219010949135, 0.04967966675758362], [-0.06606753170490265, -0.04831336811184883, 0.06527546793222427, -0.04110799357295036, 0.011905662715435028, 0.005400773137807846, 0.11023733764886856, -0.15124280750751495, 0.05497470125555992, 0.07479260116815567], [-0.0031897847075015306, -0.08444233983755112, -0.08004946261644363, 0.025646328926086426, 0.032338015735149384, 0.024708088487386703, -0.10143041610717773, 0.04398121312260628, 0.10702206939458847, -0.09701289236545563], [0.028316006064414978, -0.0007687972974963486, 0.08428667485713959, 0.08948775380849838, -0.07204936444759369, -0.16295477747917175, -0.053135089576244354, -0.00636583985760808, 0.011571773327887058, -0.0006962089100852609], [-0.06764907389879227, -0.0055254921317100525, 0.07102324068546295, 0.08163776993751526, -0.025908518582582474, -0.17272457480430603, 0.018986325711011887, 0.12794220447540283, -0.04422328248620033, -0.010853691957890987], [-0.009207464754581451, 0.01039326936006546, 0.023619946092367172, -0.07314174622297287, -0.08695710450410843, -0.04846736043691635, -0.05755190923810005, 0.04696689918637276, 0.07594163715839386, -0.006593690253794193], [-0.08492828160524368, 0.006522752810269594, 0.03691548854112625, 0.15152452886104584, -0.24453841149806976, -0.18068617582321167, -0.33662092685699463, 0.16149425506591797, -0.14209000766277313, -0.185543954372406], [-0.01564892567694187, -0.030718620866537094, -0.0019007388036698103, -0.08539536595344543, -0.015847906470298767, 0.0045439256355166435, 0.008316068910062313, -0.12054005265235901, -0.042323529720306396, 0.015523477457463741], [-0.04559238627552986, 0.019755462184548378, -0.012338072061538696, -0.03866558521986008, -0.05007290840148926, -0.08934115618467331, -0.013899650424718857, -0.08466998487710953, 0.06513495743274689, 0.05272644758224487], [-0.04138205945491791, -0.07656678557395935, 0.02226448245346546, 0.08297133445739746, -0.17011918127536774, -0.16086582839488983, 0.06758658587932587, 0.016993146389722824, -0.08740481734275818, -0.06945908069610596], [0.06882573664188385, -0.046401672065258026, -0.06208617985248566, -0.010938565246760845, 0.020739590749144554, 0.0383748896420002, -0.0122800562530756, 0.017131539061665535, 0.01288340799510479, 0.10093925893306732], [-0.10477610677480698, -0.16271772980690002, 0.0056429095566272736, -0.2314874678850174, 0.17824959754943848, -0.010904313065111637, 0.13505975902080536, -0.08596814423799515, 0.11029812693595886, 0.1588992178440094], [-0.08511107414960861, 0.01622011512517929, -0.024256642907857895, 0.0035487159620970488, -0.011158348061144352, 0.004863478243350983, -0.14386418461799622, 0.11429283022880554, 0.030610738322138786, -0.028897186741232872], [-0.03269819915294647, -0.06642944365739822, -0.017651723697781563, 0.014013129286468029, -0.03327466547489166, -0.047690797597169876, -0.10090817511081696, 0.03356730565428734, -0.029869794845581055, 0.03646104037761688], [-0.03972586616873741, -0.011976665817201138, 0.1411847174167633, 0.1815950572490692, -0.007742574438452721, -0.13978628814220428, -0.12335693836212158, 0.06567572057247162, -0.022726355120539665, 0.014838339760899544], [-0.01248406246304512, -0.13900837302207947, -0.01300530880689621, -0.1231648251414299, -0.06463567912578583, -0.009114906191825867, -0.06265747547149658, -0.024268779903650284, 0.15185128152370453, 0.11541419476270676], [0.0008957134559750557, 0.02173784375190735, 0.08583684265613556, 0.14960889518260956, -0.3536539375782013, -0.07304909825325012, -0.31253960728645325, 0.14031964540481567, -0.10390444844961166, -0.2115645706653595], [0.05305077135562897, -0.11360868811607361, -0.08434391766786575, -0.11913842707872391, 0.022211309522390366, 0.002415964612737298, 0.03762214258313179, -0.10234852880239487, 0.019361454993486404, 0.051574863493442535], [-0.04937116429209709, 0.02049335464835167, 0.005163133144378662, -0.007503051310777664, -0.00964613351970911, -0.15712717175483704, 0.03293149918317795, -0.07962577790021896, 0.09695547074079514, 0.018534956499934196], [-0.03250614181160927, -0.020362069830298424, 0.08554263412952423, 0.11260581761598587, -0.19847016036510468, -0.09388011693954468, 0.025741400197148323, 0.0993717685341835, -0.11187389492988586, 0.015028734691441059], [0.059486594051122665, -0.07144023478031158, -0.09426156431436539, -0.09139939397573471, -0.05901459604501724, -0.007760587148368359, -0.0026244311593472958, -0.021937809884548187, 0.016246676445007324, 0.012643354013562202], [0.07150597870349884, -0.25727301836013794, -0.17946405708789825, -0.34475842118263245, 0.17197507619857788, 0.1853226274251938, 0.11737403273582458, -0.1642628163099289, 0.03730437159538269, 0.07292566448450089], [-0.02344520203769207, -0.05094291642308235, -0.011183837428689003, 0.033632975071668625, -0.032504476606845856, 0.04505504295229912, -0.18790747225284576, 0.035682354122400284, 0.1413288712501526, 0.011577675119042397], [-0.031801190227270126, -0.07777898758649826, 0.0002555401879362762, 0.09176691621541977, 0.033493608236312866, -0.0438210628926754, 0.023149332031607628, -0.01173457782715559, -0.0037431265227496624, 0.0565083771944046], [-0.0006933144759386778, -0.06063312292098999, -0.00234272051602602, 0.01822008192539215, -0.08482255041599274, -0.029405204579234123, -0.14230071008205414, 0.08723330497741699, -0.005714542232453823, -0.021808382123708725], [-0.011017438024282455, -0.12305564433336258, -0.08151252567768097, -0.08640357851982117, -0.03491273522377014, -0.014303439296782017, -0.07117734104394913, -0.01580098830163479, 0.1599751114845276, 0.023036280646920204], [-0.07729136943817139, -0.11553723365068436, 0.04023664817214012, 0.15562203526496887, -0.2780201733112335, 0.009864429011940956, -0.18209676444530487, 0.1161516010761261, -0.09932786226272583, -0.10433099418878555], [0.06325005739927292, -0.043361734598875046, -0.11467377841472626, -0.013371096923947334, 0.06790710985660553, 0.012262677773833275, 0.13956470787525177, -0.10520997643470764, -0.0995684266090393, 0.06801710277795792], [-0.043019019067287445, 0.05696336552500725, -0.01161014474928379, 0.07889731228351593, 0.04371647164225578, -0.1270485818386078, 0.02602391503751278, -0.011234940961003304, -0.043008606880903244, 0.11784449219703674], [0.029611114412546158, 0.07207253575325012, -0.04369611293077469, 0.0642121210694313, -0.20616498589515686, 0.09426601231098175, 0.05163262411952019, 0.13098366558551788, -0.1794896125793457, -0.021981053054332733], [0.07282639294862747, -0.11265523731708527, -0.02416924573481083, 0.02269570529460907, -0.034737564623355865, 0.022903956472873688, -0.015964671969413757, 0.019549842923879623, 0.07054435461759567, 0.041320186108350754], [0.034137215465307236, -0.0763375535607338, -0.06606347858905792, -0.36141693592071533, 0.1724412739276886, 0.09936278313398361, 0.13024534285068512, 0.043369125574827194, 0.09572871029376984, 0.008339795283973217], [-0.11567625403404236, 0.0520283468067646, 0.06458351016044617, -0.05284493789076805, -0.2785244584083557, -0.06203644722700119, -0.2921768128871918, 0.13134624063968658, 0.08644631505012512, 0.021691227331757545], [0.0023101407568901777, -0.08609198778867722, -0.08731488138437271, 0.0975177064538002, 0.011092228814959526, 0.012482901103794575, 0.014870104379951954, -0.05259798839688301, 0.09036633372306824, 0.08244769275188446], [-0.01789529249072075, -0.13488225638866425, 0.014066335745155811, 0.002264819573611021, -0.18703314661979675, -0.009756935760378838, -0.03017573431134224, 0.19669733941555023, 0.0544915609061718, -0.043258897960186005], [-0.010489234700798988, -0.1278693825006485, -0.10792818665504456, -0.035499051213264465, -0.05771859735250473, -0.06987883150577545, -0.14996793866157532, -0.01986285112798214, 0.02042119763791561, 0.01451817061752081], [0.02958039566874504, -0.1512080579996109, 0.054561931639909744, 0.16678565740585327, -0.29169872403144836, 0.12680862843990326, -0.0479726642370224, 0.18217509984970093, 0.0826471671462059, 0.010580107569694519], [-0.04330045357346535, 0.10452518612146378, -0.05254117771983147, 0.011408652178943157, 0.03926927223801613, -0.08909816294908524, 0.10026536136865616, -0.1192576214671135, -0.16327263414859772, 0.02133951149880886], [-0.06179649010300636, -0.04213356971740723, -0.04812280088663101, 0.07666823267936707, 0.09926607459783554, -0.14898189902305603, 0.03840179741382599, 0.02358097769320011, -0.06253515928983688, 0.12034595012664795], [-0.03105180151760578, 0.03765641897916794, 0.04257351905107498, 0.004238267429172993, -0.06298131495714188, 0.13668005168437958, 0.09663288295269012, 0.14729805290699005, -0.05189257860183716, -0.06173325330018997], [-0.0703340396285057, -0.02393171936273575, -0.08264143019914627, -0.03562647104263306, -0.0753735825419426, -0.03291543573141098, -0.04868632182478905, 0.054845135658979416, 0.018955348059535027, 0.07634733617305756], [-0.009704808704555035, 0.08760504424571991, -0.022167010232806206, -0.23886996507644653, 0.1554516702890396, 0.12704089283943176, 0.08277883380651474, 0.017162160947918892, -0.02612662874162197, -0.11266803741455078], [0.08641614764928818, -0.08749173581600189, 0.08916495740413666, -0.04499400407075882, -0.0427556112408638, -0.030929792672395706, -0.2934695780277252, 0.17476938664913177, -0.006876348052173853, 0.03953394666314125], [-0.09238073229789734, -0.10971195995807648, -0.12615405023097992, 0.0915214940905571, -0.11481714993715286, 0.051170140504837036, -0.06658782064914703, -0.05265778675675392, 0.11883435398340225, 0.1533357948064804], [0.04904841631650925, 0.029236406087875366, -0.11104103177785873, -0.062180399894714355, -0.33760541677474976, 0.05947760120034218, 0.0577077642083168, 0.031956374645233154, 0.03891286253929138, -0.030300984159111977], [0.0956398993730545, -0.03297979757189751, -0.08583822101354599, 0.021808678284287453, -0.04974474757909775, 0.03548026829957962, -0.022712387144565582, 0.03144447132945061, -0.023708531633019447, 0.017758747562766075], [-0.05453174561262131, -0.17548881471157074, 0.01977468654513359, 0.04195255786180496, -0.2592041790485382, 0.15942247211933136, -0.06741244345903397, 0.13789351284503937, 0.0747755616903305, 0.031478021293878555], [-0.043194547295570374, 0.21514774858951569, -0.10799805074930191, -0.031363580375909805, 0.15221434831619263, -0.2054700255393982, 0.030593417584896088, -0.0181858092546463, -0.21241354942321777, -0.012478414922952652], [0.030680721625685692, -0.028486065566539764, -0.0021719562355428934, 0.08926461637020111, 0.04548804834485054, -0.1494438499212265, -0.05425672233104706, -0.0048102461732923985, 0.051376402378082275, 0.07355283200740814], [-0.06676185876131058, -0.027889730408787727, -0.04733777418732643, 0.05730961263179779, -0.11745522916316986, 0.07020433992147446, 0.0755137950181961, 0.030344372615218163, -0.04746638238430023, -0.008949242532253265], [0.002073177369311452, 0.10061457008123398, -0.13226640224456787, 0.044397346675395966, -0.062420155853033066, 0.0005901696858927608, -0.05915134772658348, 0.034676626324653625, 0.03511587902903557, -0.012915974482893944], [-0.023528002202510834, 0.1775001734495163, -0.0870969146490097, -0.09884718060493469, 0.10127314180135727, -0.07181339710950851, 0.003970362711697817, -0.016722997650504112, -0.04527521878480911, -0.09082137793302536], [0.14834176003932953, -0.03180285915732384, 0.13051728904247284, -0.034847766160964966, -0.10241363197565079, -0.06125028431415558, -0.11091459542512894, 0.09698313474655151, -0.0861811488866806, 0.007034893147647381], [-0.012521598488092422, -0.020406097173690796, -0.039411138743162155, 0.09858040511608124, -0.12381426990032196, 0.02628088742494583, -0.06032922491431236, 0.004672515206038952, 0.08960015326738358, 0.1395602822303772], [0.009195569902658463, -0.06071081385016441, -0.048242561519145966, -0.07247314602136612, -0.1437772810459137, 0.12336568534374237, 0.046619169414043427, 0.018223974853754044, -0.12234088033437729, 0.026734521612524986], [0.07933156937360764, -0.012970679439604282, -0.018395941704511642, 0.0834149494767189, -0.04398825764656067, 0.03903966397047043, -0.08481656014919281, 0.01890784315764904, -0.050072554498910904, 0.011605769395828247], [0.001583898440003395, -0.29028213024139404, 0.011025894433259964, -0.03091326914727688, -0.2770961821079254, 0.2214394211769104, 0.1868743896484375, 0.045742347836494446, 0.11263370513916016, 0.011942481622099876], [-0.15488219261169434, 0.1493121087551117, -0.06670493632555008, -0.008337022736668587, 0.16473524272441864, -0.3176468014717102, -0.058192167431116104, 0.0502077117562294, -0.19084946811199188, -0.05508933216333389], [-0.004675951786339283, 0.024852177128195763, -0.07465710490942001, 0.023205380886793137, 0.1410122662782669, -0.14452111721038818, -0.04030628129839897, -0.07684163749217987, -0.029275787994265556, -0.06549142301082611], 