{"conv_1_1": {"kernel": [[[[0.2994663417339325, -0.8767992854118347, -0.8170804977416992, -0.5233414173126221, -0.3169058859348297, 0.49237439036369324, -0.5361891984939575, 0.6634711027145386, 0.5499269962310791, 0.49798616766929626]], [[0.7248032093048096, -0.6933855414390564, -0.5330826640129089, -0.3727623224258423, -0.7787111401557922, 0.6011043787002563, -0.7709853053092957, 0.4149923026561737, 0.5574603080749512, 0.8351053595542908]], [[0.7215760350227356, -0.6274216175079346, -0.49197664856910706, -0.8438698053359985, -0.628466784954071, 0.8422578573226929, -0.8742722868919373, 0.6318482160568237, 0.45225152373313904, 0.847875714302063]]], [[[0.7606261968612671, -0.44370976090431213, -0.5739390254020691, -0.8291034698486328, -0.8335475921630859, 0.5616559982299805, -0.4455364942550659, 0.5654194355010986, 0.4978751540184021, 0.8498539924621582]], [[0.7303621172904968, -0.6197988390922546, -0.7641372084617615, -0.7234609723091125, -0.8030978441238403, 0.8145503997802734, -0.7727042436599731, 0.902070939540863, 0.9141913056373596, 0.5409374237060547]], [[0.7475731372833252, -0.9147143959999084, -0.6982128024101257, -0.8674370050430298, -0.8481239676475525, 0.7668315172195435, -0.8569895625114441, 0.8123061656951904, 0.7444760203361511, 0.6838049292564392]]], [[[0.801871120929718, -0.2521081268787384, -0.655807375907898, -0.8018651604652405, -0.28081074357032776, 0.7769485116004944, -0.5758296251296997, 0.6672444343566895, 0.4632262587547302, 0.3965374231338501]], [[0.6438080668449402, -0.28863629698753357, -0.5081003308296204, -0.6295938491821289, -0.6592149138450623, 0.3740174472332001, -0.4439103603363037, 0.7703156471252441, 0.8375041484832764, 0.77086341381073]], [[0.49285173416137695, -0.7957173585891724, -0.7758078575134277, -0.31103354692459106, -0.47658655047416687, 0.7249026894569397, -0.3674958050251007, 0.37035295367240906, 0.7157194018363953, 0.39232537150382996]]]], "bias": [-0.6873403191566467, 0.32304972410202026, 0.4852325916290283, 0.5609466433525085, 0.48168107867240906, -0.7422038912773132, 0.3794303238391876, -0.85999596118927, -0.8479311466217041, -0.8216079473495483], "kernel_shape": [3, 3, 1, 10], "bias_shape": [10]}, "dense_1": {"kernel": [[0.023985737934708595, -0.018610451370477676, 0.015491579659283161, -0.02410813793540001, 0.004500207025557756, -0.0508684441447258, -0.0036662714555859566, 0.0385056734085083, -0.01682223193347454, -0.011784094385802746], [0.03317753225564957, 0.03713390603661537, -0.0533793568611145, -0.026177208870649338, 0.034876227378845215, -0.0428001806139946, -0.006801091134548187, -0.02591014839708805, 0.011252686381340027, 0.03136756643652916], [-0.01991916447877884, 0.04639561474323273, 0.011312011629343033, 0.010066181421279907, 0.011335243470966816, 0.0002688376698642969, -0.03881657496094704, 0.027300860732793808, 0.007583965547382832, 0.045061562210321426], [0.05349770560860634, 0.014175684191286564, -0.045045431703329086, 0.026785587891936302, -0.050722114741802216, 0.03209462761878967, -0.032321881502866745, -0.011629799380898476, -0.029856938868761063, -0.003338926238939166], [-0.01221454981714487, 0.027359578758478165, 0.04725600779056549, -0.015375788323581219, 0.017631111666560173, 0.0016360809095203876, -0.04728290066123009, -0.03123805858194828, 0.025150002911686897, 0.007796779274940491], [0.0331728495657444, 0.05374811589717865, -0.046317875385284424, 0.029265746474266052, 0.03924684599041939, 0.007833121344447136, -0.002295425394549966, -0.03659238666296005, -0.026387671008706093, -0.029865698888897896], [0.0404573418200016, 0.04665961489081383, 0.007323798257857561, -0.03165414556860924, 0.016896577551960945, -0.008264197036623955, -0.0439738966524601, 0.05966809019446373, 0.02182558923959732, 0.008478784933686256], [0.008711605332791805, 0.012372910045087337, -0.022309022024273872, -0.015221002511680126, 0.05483074113726616, 0.005635819863528013, 0.057434238493442535, -0.015840258449316025, 0.040117427706718445, 0.05463767051696777], [-0.012392782606184483, -0.018942365422844887, -0.010258308611810207, -0.06025850400328636, -0.01842436008155346, -0.0047600362449884415, 0.028318723663687706, 0.05878876894712448, 0.03289361298084259, 0.015366680920124054], [-0.01036587543785572, -0.014892143197357655, 0.05832509696483612, -0.02554607205092907, 0.02406478486955166, 0.0478285551071167, 0.0056501575745642185, 0.05361029878258705, -0.06555000692605972, -0.05847778916358948], [0.0009853326482698321, 0.0481196865439415, 0.013064421713352203, -0.02024875581264496, -0.03393954783678055, 0.03351942077279091, 0.02496124431490898, 0.0137240681797266, 0.023121658712625504, -0.010268918238580227], [-0.04825935512781143, 0.017875168472528458, -0.028611283749341965, -0.03733927756547928, -0.027769366279244423, 0.01169336773455143, 0.050859883427619934, -0.007232677191495895, 0.011841957457363605, 0.03480767086148262], [-0.012451772578060627, 0.045898620039224625, -0.03102458268404007, -0.05990803241729736, -0.016786344349384308, -0.02559516578912735, 0.010376070626080036, -0.022628411650657654, 0.029097579419612885, 0.017966264858841896], [0.028667880222201347, -0.028888510540127754, 0.00577936228364706, -0.05209687724709511, 0.05115706846117973, 0.032257113605737686, 0.04455516114830971, -0.017640696838498116, 0.008952771313488483, 0.007170313503593206], [0.028975900262594223, 0.03011731617152691, 0.019169846549630165, -0.00300297187641263, -0.059171661734580994, -0.04298355430364609, -0.03265514597296715, 0.04045110195875168, 0.0010606786236166954, 0.010653911158442497], [0.0064831385388970375, -0.011807684786617756, 0.042137857526540756, 0.004070411901921034, -0.03967969864606857, -0.028791610151529312, -0.001442461390979588, 0.01448108535259962, -0.037282831966876984, 0.024700144305825233], [0.026344982907176018, 0.0170120932161808, -0.05475635826587677, 0.01898924447596073, 0.046629201620817184, 0.023066474124789238, 0.023729870095849037, -0.00018277022172696888, -0.01135434303432703, 0.058137308806180954], [-0.03259337320923805, 0.00997666921466589, -0.009180521592497826, -0.02120925672352314, -0.013221790082752705, -0.005505791399627924, -0.03349188715219498, -0.0009870583890005946, -0.06321996450424194, -0.023652253672480583], [0.05206053704023361, -0.022452279925346375, -0.055771201848983765, -0.013585781678557396, 0.03721741586923599, -0.04045619070529938, -0.04548760503530502, 0.048608679324388504, 0.011362055316567421, 0.006257084663957357], [-0.05714193731546402, 0.04454191401600838, -0.05759541317820549, 0.05304483696818352, -0.024228915572166443, -0.016003290191292763, 0.018180951476097107, -0.013869683258235455, 0.00961102731525898, -0.03342721611261368], [0.04709175229072571, 0.03187290206551552, -0.01960926316678524, -0.012934254482388496, -0.032791875302791595, -0.037974629551172256, -0.028486603870987892, -0.012861455790698528, 0.04238046705722809, 0.03784932196140289], [-0.049113549292087555, 0.03745650872588158, -0.016445033252239227, -0.06121902912855148, 0.036564551293849945, 0.04075630381703377, -0.055317223072052, 0.027055665850639343, 0.042392048984766006, 0.019959593191742897], [-0.024385228753089905, 0.013817847706377506, 0.04813256114721298, 0.015593040734529495, 0.04372700676321983, -0.04332703351974487, 0.015386032871901989, -0.029927806928753853, 0.037358902394771576, 0.04516368731856346], [0.05167319253087044, -0.0070188152603805065, 0.031180009245872498, 0.05485178157687187, -0.03087918646633625, -0.0030037753749638796, 0.00392013369128108, 0.01335417851805687, -0.05424552410840988, -0.053027644753456116], [0.04081185534596443, 0.018282124772667885, 0.023549167439341545, 0.008295723237097263, -0.05402696877717972, 0.017915550619363785, -0.0052023837342858315, 0.04469510540366173, -0.006353572476655245, 0.04040062054991722], [-0.06221552938222885, -0.044950976967811584, -0.05508280172944069, 0.026058774441480637, -0.04222901910543442, 0.012138145975768566, -0.016002634540200233, -0.02055768109858036, -0.038623590022325516, -0.02143367938697338], [-0.024771379306912422, 0.014007467776536942, 0.004444461781531572, 0.05479365214705467, -0.008376714773476124, 0.06127548590302467, -0.013849367387592793, -0.007570408750325441, -0.04439270496368408, -0.031223172321915627], [0.02431221306324005, 0.030650688335299492, 0.008641607128083706, -0.04320243373513222, -0.010569372214376926, 0.0513150654733181, -0.011005226522684097, -0.021413300186395645, 0.035812344402074814, -0.02353009209036827], [0.0006839808775112033, 0.06914865970611572, 0.023822370916604996, -0.0191302839666605, 0.00594757916405797, 0.018853183835744858, -0.03236991539597511, 0.01340775191783905, -0.06610450148582458, -0.008491097018122673], [-0.00414738105610013, 0.055137064307928085, -0.05922572314739227, -0.0031840798910707235, -0.0013998018112033606, -0.030287612229585648, -0.04056602716445923, 0.027898455038666725, 0.014486963860690594, 0.027522915974259377], [0.0015283150132745504, 0.05041588842868805, -0.0379495732486248, -0.01592228002846241, 0.011544321663677692, -0.019301459193229675, -0.020709877833724022, -0.014832505024969578, 0.04327136278152466, 0.03673529252409935], [-0.019425753504037857, -0.0034063158091157675, 0.019426463171839714, 0.02024798095226288, -0.011815679259598255, 0.04284505546092987, -0.03679817542433739, 0.0160625372081995, -0.017246834933757782, -0.019064391031861305], [-0.04012570157647133, 0.0470338873565197, -0.020567215979099274, -0.041917312890291214, 0.035940129309892654, 0.04232501611113548, -0.033397477120161057, -0.02890106849372387, 0.028445662930607796, -0.02400573343038559], [0.03582526743412018, -0.04197302088141441, -0.04359816014766693, -0.04800673574209213, 0.0028031792026013136, 0.02963792160153389, -0.004606860224157572, 0.04146493226289749, -0.0334247462451458, -0.015260705724358559], [0.05888944864273071, 0.026998577639460564, -0.05527983978390694, -0.0026278048753738403, -0.040907517075538635, -0.01314504723995924, 0.04004202038049698, -0.024089783430099487, 0.006818470079451799, -0.013450464233756065], [0.030228618532419205, 0.024867719039320946, -0.04037410765886307, 0.053252167999744415, -0.04491278529167175, 0.04528160020709038, 0.043630097061395645, 0.003366852877661586, 0.008998991921544075, -0.03667697310447693], [-0.03406697139143944, 0.009719066321849823, 0.03141704201698303, -0.016602667048573494, 0.05855368822813034, 0.03235571086406708, -0.020467204973101616, -0.015681708231568336, -0.03595634549856186, 0.02289220504462719], [-0.04555065557360649, -0.04552322253584862, 0.004749946296215057, -0.038625411689281464, -0.06399540603160858, -0.007570494897663593, 0.01784900389611721, -0.05248136818408966, -0.008146654814481735, -0.03384410962462425], [0.01992994174361229, 0.036145877093076706, -0.039902444928884506, 0.021039577201008797, -0.01596881076693535, -0.0014311702689155936, -0.005375601816922426, 0.0195467472076416, 0.023427383974194527, -0.04296085983514786], [0.04838217422366142, -0.023239072412252426, -0.0240916907787323, 0.03099866956472397, 0.017643677070736885, 0.01233614794909954, 0.052518706768751144, 0.0031029365491122007, -0.0712914764881134, 0.03582751005887985], [-0.001680760644376278, 0.05497071519494057, -0.011117161251604557, -0.010704485699534416, -0.04780445620417595, -0.03723585233092308, 0.09651730209589005, 0.020791882649064064, -0.05152043700218201, 0.03729761764407158], [0.020577795803546906, 0.029229162260890007, 0.05749721825122833, 0.021072231233119965, 0.03522767499089241, -0.016368720680475235, -0.003925296477973461, -0.04209158942103386, -0.022025642916560173, 0.009465855546295643], [-0.006443701684474945, -0.023856494575738907, -0.009761442430317402, -0.015685727819800377, 0.027363311499357224, -0.005554774310439825, 0.012724537402391434, 0.008537400513887405, 0.01229383796453476, -0.0006594964070245624], [0.005188081879168749, -0.002658607205376029, -0.04858081415295601, 0.046810027211904526, -0.036729469895362854, 0.045060984790325165, 0.03788650780916214, 0.02770894579589367, 0.042529307305812836, 0.005103692412376404], [-0.023683330044150352, -0.009876391850411892, -0.010942828841507435, -0.05286873131990433, -0.017236290499567986, 0.017252890393137932, 0.00698134396225214, -0.02323700487613678, -0.02224658615887165, 0.05433013290166855], [0.03674144670367241, 0.025250405073165894, 0.018335871398448944, -0.03848986327648163, -0.08035225421190262, -0.06040174886584282, 0.0677148625254631, -0.041614796966314316, 0.026792336255311966, 0.02503463439643383], [-0.0385298989713192, 0.061596594750881195, 0.020082727074623108, -0.04390834644436836, -0.036905597895383835, -0.03907375410199165, -0.04448726773262024, -0.026616552844643593, 0.021812578663229942, 0.010981799103319645], [-0.0188722126185894, 0.04163262993097305, 0.041095130145549774, -0.029482310637831688, 0.01759917661547661, 0.03392329066991806, 0.0666101798415184, -0.059410832822322845, -0.037129275500774384, 0.014936964027583599], [-0.02722235955297947, 0.05133054032921791, -0.028856618329882622, 0.025928780436515808, -0.04271573945879936, -0.015025119297206402, 0.10552065074443817, 0.002286504255607724, 0.02890140563249588, -0.059753529727458954], [-0.03448905795812607, 0.02733650803565979, 0.035563934594392776, 0.030797509476542473, -0.04031949117779732, 0.013291946612298489, 0.09591465443372726, 0.050659723579883575, 0.009565744549036026, 0.013303777202963829], [-0.0017959747929126024, -0.050133105367422104, 0.02881159633398056, -0.00719163753092289, -0.044777993112802505, 0.020806383341550827, 0.10607472062110901, 0.033364102244377136, -0.028338445350527763, 0.04624886438250542], [-0.055529993027448654, 0.06471466273069382, 0.035598739981651306, -0.018466219305992126, 0.04381108283996582, -0.015470652841031551, -0.0733083188533783, -0.04130840674042702, -0.03840631991624832, -0.031051382422447205], [0.04738655686378479, -0.007894056849181652, -0.059989653527736664, -0.015036772936582565, 0.016555648297071457, 0.03330171853303909, 0.012301631271839142, -0.009621593169867992, 0.004410801455378532, -0.04282572492957115], [-0.04139893874526024, 0.006139356177300215, -0.010013092309236526, 0.031246470287442207, -0.021291853860020638, 0.017044685781002045, -0.025665465742349625, -0.006876732222735882, -0.04833909496665001, 0.03970330208539963], [-0.0007811265531927347, 0.06402669101953506, 0.0402836836874485, 0.008323997259140015, -0.014012455008924007, -0.053844768553972244, 0.0016897738678380847, 0.01669822633266449, 0.001237400691024959, -0.003124537877738476], [0.024333229288458824, 0.0071115633472800255, 0.05878429859876633, -0.009014441631734371, -0.06802182644605637, -0.025244474411010742, 0.12609106302261353, 0.0030278675258159637, -0.06714660674333572, 0.046021539717912674], [-0.0025177961215376854, 0.021329326555132866, -0.04991240054368973, 0.05132380872964859, 0.04965509846806526, 0.05850577726960182, 0.02736845426261425, 0.036750614643096924, 0.022415004670619965, -0.05090099945664406], [-0.05357121676206589, 0.05615045875310898, -0.007365881931036711, 0.05197509750723839, -0.02955935150384903, 0.014689103700220585, 0.06804249435663223, -0.05592327192425728, -0.021632393822073936, -0.04143266752362251], [0.023354921489953995, -0.007575381547212601, -0.00886343140155077, 0.06611926108598709, -0.07424402981996536, -0.05103665962815285, 0.12043578177690506, 0.030469389632344246, 0.030940178781747818, -0.021091392263770103], [-0.07075749337673187, 0.02042284421622753, 0.019667688757181168, 0.009586541913449764, -0.11593323945999146, 0.022409753873944283, 0.040292393416166306, 0.041029322892427444, -0.02141639031469822, 0.032292645424604416], [-0.06812464445829391, -0.041577961295843124, 0.08781854808330536, 0.045330677181482315, -0.07420650869607925, -0.04531566798686981, 0.09018286317586899, -0.03558865189552307, -0.07155389338731766, 0.036889150738716125], [-0.04023869335651398, -0.03993406519293785, -0.0006100236205384135, 0.03744586184620857, 0.04124202951788902, -0.008535010740160942, -0.02852891944348812, 0.04615984112024307, 0.015477887354791164, 0.05751127377152443], [-0.006005985662341118, -0.0154085299000144, -0.041059136390686035, 0.048297446221113205, -0.001654741819947958, -0.04151558503508568, 0.025084637105464935, 0.027292616665363312, -0.0460529662668705, 0.009259284473955631], [0.06159760802984238, -0.045391201972961426, -0.010646621696650982, -0.04452915117144585, -0.023208707571029663, -0.02382548898458481, -0.04505719989538193, -0.02391674369573593, -0.04813966155052185, 0.045451074838638306], [0.054162729531526566, 0.04031797870993614, -0.05276697874069214, -0.04054637625813484, 0.024829773232340813, -0.0384981594979763, -0.058767858892679214, -0.04231848195195198, 0.01131052989512682, 0.03203897923231125], [0.036759041249752045, 0.04395609349012375, -0.03659506514668465, 0.016688911244273186, -0.039922501891851425, -0.0646635964512825, 0.12002161890268326, -0.04610811918973923, -0.08369916677474976, 0.04127651825547218], [0.04912697523832321, 0.04767398536205292, -0.026049701496958733, 0.036142636090517044, -0.015500569716095924, 0.04533671960234642, -0.032661471515893936, 0.004854327999055386, 0.04215150699019432, 0.0017568941693753004], [-0.05351140350103378, 0.06824953109025955, -0.031029896810650826, 0.011960391886532307, -0.10939490050077438, -0.019730310887098312, 0.08053614944219589, 0.04014342650771141, -0.05604894459247589, 0.008898157626390457], [-0.08175121247768402, -0.026515401899814606, 0.001503223436884582, 0.07901089638471603, -0.023931147530674934, -0.05227595940232277, 0.06511463224887848, -0.0467812605202198, 0.016220761463046074, -0.040979478508234024], [-0.021060355007648468, -0.009873393923044205, 0.03951862454414368, 0.010265396907925606, -0.032451845705509186, -0.025843946263194084, 0.09121143817901611, -0.05934041738510132, -0.02087854966521263, 0.03374810144305229], [-0.05223910138010979, -0.03249597176909447, 0.041242748498916626, 0.06053966283798218, 0.003238244913518429, 0.0006763016572222114, 0.132962167263031, -0.01857180893421173, -0.07557465136051178, -0.004983489867299795], [0.0027098488062620163, 0.030013782903552055, -0.029385466128587723, -0.04761091619729996, -0.0087886368855834, -0.033747412264347076, 0.0058060297742486, 0.015321899205446243, -0.01757333241403103, 0.021058347076177597], [-0.026494458317756653, -0.04800296947360039, -0.04650731012225151, 0.04448457807302475, -0.0472770594060421, 0.058222461491823196, -0.08177889883518219, 0.0013739373534917831, -0.057539332658052444, 0.03914419561624527], [0.05814310908317566, -0.04136579483747482, -0.05490504577755928, 0.01296971645206213, 0.02202465943992138, 0.057755421847105026, 0.002889196155592799, 0.04147791489958763, 0.04828065633773804, -0.05088386312127113], [0.03932148963212967, 0.03417275846004486, 0.023043274879455566, 0.016102004796266556, 0.0038141077384352684, -0.02794639952480793, 0.04391046613454819, -0.005312976893037558, -0.02122272178530693, -0.04605594649910927], [-0.03708368167281151, 0.058195844292640686, 0.028722945600748062, 0.07863055169582367, -0.011272040195763111, -0.028427287936210632, 0.05577021464705467, -0.034020498394966125, -0.03429165109992027, -0.03454545885324478], [-0.03739006817340851, -0.04924646019935608, 0.015200753696262836, -0.05898037180304527, -0.005623958073556423, 0.0036490941420197487, -0.005692918784916401, -0.01759622059762478, -0.013862034305930138, 0.041155070066452026], [0.006798549089580774, -0.003337062895298004, 0.022335395216941833, 0.06750965863466263, -0.0876321792602539, 0.0447840690612793, 0.07798385620117188, -0.0393422394990921, -0.03285302221775055, -0.05421483516693115], [-0.09533844888210297, -0.02151874266564846, 0.04439983144402504, 0.011386836878955364, -0.05374113842844963, -0.023252198472619057, 0.15668858587741852, -0.013051912188529968, -0.019185107201337814, -0.010312391445040703], [-0.026599859818816185, 0.015652239322662354, -0.03177577629685402, 0.060947924852371216, -0.026396937668323517, 0.02260788157582283, 0.09484419226646423, 0.03536320850253105, -0.0176146999001503, -0.005664135329425335], [-0.004387235268950462, -0.05378410220146179, -0.000830211618449539, 0.007602394558489323, -0.0630795806646347, -0.01931082084774971, 0.09047642350196838, -0.025698455050587654, 0.014148477464914322, 0.02964458428323269], [0.011384333483874798, -0.04669757932424545, 0.05915771424770355, 0.05260437726974487, 0.055961187928915024, -0.02555016055703163, -0.04742347449064255, -0.022390762344002724, 0.03347278758883476, 0.028619492426514626], [0.03525327891111374, -0.04017234593629837, 0.018449299037456512, 0.047199368476867676, -0.043550360947847366, -0.05388037487864494, -0.04731352627277374, 0.05977153405547142, -0.0665091946721077, -0.05405734106898308], [0.026469625532627106, 0.07137112319469452, -0.0028631584718823433, -0.0624215342104435, -0.04964171350002289, 0.030399248003959656, 0.028929589316248894, -0.00022865997743792832, 0.03066585771739483, -0.00799044594168663], [0.05678672343492508, -0.014293600805103779, 0.02463580295443535, -0.003028379287570715, -0.03139970079064369, 0.024052973836660385, -0.06382104009389877, -0.00707709975540638, 0.013146358542144299, 0.05221308767795563], [-0.011445713229477406, 0.013028549961745739, 0.042765796184539795, 0.036653343588113785, -0.002953683491796255, 0.040267642587423325, 0.10196854919195175, -0.053735777735710144, -0.0021495262626558542, 0.019313262775540352], [0.0075650932267308235, 0.0008214098052121699, -0.0550520122051239, 0.05222434923052788, 0.026383347809314728, -0.05066639930009842, 0.04805717617273331, -0.023692511022090912, -0.0025212587788701057, -0.05010996758937836], [0.017813995480537415, -0.06468729674816132, -0.009819173254072666, -0.015008141286671162, 0.004073013085871935, 0.05443413183093071, 0.07304012775421143, 0.022372806444764137, -0.08128555119037628, -0.0459405817091465], [-0.018922997638583183, -0.01543025579303503, -0.024183325469493866, -0.02401718683540821, 0.005288475193083286, -0.03312387689948082, 0.09867928922176361, -0.013494784943759441, 0.016752373427152634, 0.018319375813007355], [-0.09175902605056763, -0.0486195906996727, 0.006821978371590376, 0.020855063572525978, -0.030616074800491333, -0.0016580078518018126, 0.029157672077417374, 0.008417838253080845, -0.0477745421230793, 0.0028244652785360813], [-0.07157206535339355, -0.046024590730667114, -0.03417468070983887, 0.044208116829395294, -0.015550107695162296, -0.01592290587723255, 0.09585262089967728, 0.009537838399410248, 0.014113951474428177, -0.06978554278612137], [0.054916005581617355, 0.06327037513256073, -0.010258163325488567, -0.05792888253927231, 0.012222333811223507, -0.04957541450858116, -0.05411292240023613, -0.0010700887069106102, 0.030039042234420776, 0.00682307593524456], [0.026893751695752144, -0.035468991845846176, -0.04937663674354553, -0.04703859984874725, 0.03752525895833969, 0.007914239540696144, -0.003503375221043825, -0.04634159430861473, 0.010702412575483322, -0.016204142943024635], [0.024489575996994972, -0.014696860685944557, -0.030544303357601166, -0.020723562687635422, 0.005099369212985039, 0.00019362788589205593, 0.016643820330500603, -0.0030534998513758183, -0.057316266000270844, -0.0039643519558012486], [-0.003292738925665617, 0.031128058210015297, 0.03626004979014397, -0.007662840653210878, 0.02507992461323738, 0.011621225625276566, 0.04167327657341957, 0.04427511617541313, 0.015934115275740623, 0.03806508705019951], [0.008495939895510674, -0.056388672441244125, -0.010622560046613216, 0.035969529300928116, -0.061598751693964005, 0.04396476224064827, 0.12472457438707352, 0.046584825962781906, 0.026830002665519714, 0.0011503511341288686], [-0.04470622539520264, -0.009305881336331367, 0.0334470272064209, -0.024015121161937714, 0.006388796493411064, -4.420118420966901e-05, -0.025381045415997505, 0.03813415393233299, 0.03701818734407425, -0.05556698516011238], [-0.07109802216291428, 0.02275252342224121, -0.028545454144477844, -0.007472028955817223, -0.06856489181518555, 0.021488308906555176, 0.08932962268590927, -0.0004531804006546736, -0.04355647414922714, 0.03384576737880707], [-0.0698077455163002, -0.020529936999082565, -0.012263689190149307, 0.010887195356190205, -0.02300960198044777, 0.041899316012859344, 0.139566570520401, -0.01970779150724411, -0.061185628175735474, -0.05443298816680908], [-0.08639641851186752, -0.07291626185178757, -0.023765072226524353, 0.05266476050019264, -0.020584598183631897, 0.01570829004049301, 0.09983626008033752, 0.01781063713133335, -0.07271207869052887, 0.03971024602651596], [-0.06089502200484276, 0.015075218863785267, 0.0019424812635406852, -0.012688178569078445, 0.022346459329128265, 0.029177118092775345, 0.07067833840847015, -0.00021456049580592662, -0.04132547602057457, 0.015922851860523224], [-0.03852460905909538, 0.025033792480826378, -0.05292129144072533, 0.008530470542609692, -0.02985268644988537, -0.034887734800577164, -0.013031583279371262, 0.050342075526714325, -0.014393038116395473, -0.020539434626698494], [-0.014449432492256165, -0.015054171904921532, -0.040886517614126205, -0.01740388385951519, -0.009581977501511574, 0.058502551168203354, -0.04972328618168831, -0.04017921909689903, 0.01990259811282158, 0.04139113053679466], [-0.056261420249938965, -0.029462924227118492, -0.029812892898917198, -0.02270173653960228, 0.03130080923438072, -0.02637716382741928, 0.0014487559674307704, 0.02942068502306938, 0.017385391518473625, -0.02784079685807228], [0.009890230372548103, 0.05234219506382942, 9.565454092808068e-05, 0.028229158371686935, 0.04320903494954109, 0.014981238171458244, 0.003739147912710905, -0.005606704857200384, -0.03134797513484955, -0.018262749537825584], [0.01789480447769165, -0.05328722298145294, 0.044044129550457, -0.023665159940719604, -0.0343741737306118, 0.032531317323446274, 0.04576587304472923, 0.03980120271444321, -0.04048285260796547, -0.0038031695876270533], [-0.009675887413322926, 0.007940425537526608, -0.0026277475990355015, 0.05121706426143646, 0.05319802463054657, 0.06285399198532104, -0.02785424515604973, -0.010462651960551739, -0.014785487204790115, -0.05774062126874924], [0.018212106078863144, -0.04456103593111038, -0.035625942051410675, -0.05814877897500992, 0.0251305028796196, 0.04049642011523247, 0.027936387807130814, 0.05054474249482155, -0.06389149278402328, 0.04596864432096481], [-0.07637033611536026, 0.03172046318650246, 0.013274199329316616, 0.048028744757175446, 0.04697275906801224, 0.0035994837526232004, 0.03282079100608826, 0.008318938314914703, 0.018333831802010536, 0.03406288102269173], [-0.055434975773096085, 0.0038223406299948692, -0.04350467026233673, -0.02733028307557106, -0.03716592863202095, -0.00029871048172935843, 0.07168524712324142, 0.037763845175504684, -0.01712370291352272, -0.005447440315037966], [0.03384414315223694, -0.023485854268074036, 0.02161460742354393, -0.021562911570072174, 0.0377112440764904, 0.0005485076690092683, 0.07159695029258728, -0.04359279200434685, -0.017750263214111328, -0.027760664001107216], [0.0386599637567997, -0.021627821028232574, 0.0487583726644516, 0.05552345886826515, -0.0005785523680970073, 0.03167777135968208, -0.03319083899259567, -0.04967412352561951, -0.06220685690641403, 0.04337998852133751], [0.014620731584727764, 0.00913951825350523, 0.046891484409570694, 0.015612159855663776, -0.04258381947875023, -0.050673723220825195, 0.0520329512655735, -0.04407385736703873, -0.04277324676513672, -0.027649912983179092], [-0.02541481703519821, 0.020089054480195045, -0.03813527151942253, -0.010176457464694977, 0.017370210960507393, -0.053219132125377655, -0.013328435830771923, 0.065013587474823, 0.02075776271522045, -0.0012015689862892032], [-0.01473440695554018, 0.048148635774850845, -0.05100852996110916, 0.05219052731990814, -0.010406672954559326, 0.04937031492590904, 0.04553615301847458, 0.019581196829676628, -0.05399564653635025, 0.02682771347463131], [0.017453404143452644, 0.02448166534304619, 0.0074737826362252235, -0.00357661210000515, 0.050564855337142944, 0.004832894541323185, -0.03162108734250069, -0.039168741554021835, -0.03001176007091999, 0.02039782516658306], [-0.04053214564919472, 0.04892852529883385, -0.011788974516093731, -0.045175593346357346, -0.009489837102591991, 0.052665967494249344, 0.00975771527737379, 0.044429708272218704, 0.044163089245557785, 0.05222094804048538], [0.0399811714887619, 0.06484115123748779, 0.05057821050286293, 0.0008452615002170205, 0.0321938581764698, 0.045171674340963364, 0.06011645495891571, -0.052196938544511795, -0.06497235596179962, -0.02658594772219658], [-0.06554179638624191, -0.03140535578131676, 0.015009528957307339, 0.03217392414808273, 0.034509968012571335, 0.007304835133254528, 0.07079161703586578, 0.0200310368090868, 0.01550107542425394, 0.04962432384490967], [0.013430064544081688, -0.030503079295158386, -0.032400522381067276, 0.04455757141113281, -0.011547737754881382, -0.031940046697854996, 0.025195159018039703, -0.029211649671196938, -0.02215513400733471, -0.05359011888504028], [-0.03768598288297653, -0.0026855336036533117, 0.01528869103640318, -8.779455674812198e-05, -0.008703671395778656, -0.030868476256728172, 0.042401544749736786, -0.04338736832141876, -0.0017080554971471429, 0.05663248896598816], [-0.035809941589832306, 0.05282530561089516, -0.05377640575170517, -0.02594912424683571, -0.02962888777256012, 0.024411506950855255, 0.0038065239787101746, -0.030653363093733788, 0.045413706451654434, -0.032731156796216965], [0.05294092744588852, 0.015766995027661324, -0.021740533411502838, -0.0346764475107193, -0.004790489561855793, -0.03877453878521919, 0.014917584136128426, 0.030018657445907593, -0.03376831114292145, -0.032461486756801605], [-0.026525422930717468, 0.048421770334243774, -0.00925411656498909, 0.03963301330804825, 0.030164949595928192, -0.03263498470187187, -0.014754165895283222, 0.0485558919608593, 0.01617441698908806, 0.047639038413763046], [0.03033682331442833, 0.041373249143362045, -0.040262963622808456, 0.03992725908756256, -0.0603979155421257, 0.049987103790044785, -0.03429162874817848, -0.0019248537719249725, -0.014102283865213394, 0.03453274816274643], [0.004564610775560141, -0.04020906984806061, 0.03463422879576683, 0.0519586056470871, -0.01967277005314827, -0.0068539516068995, 0.000217197259189561, 0.03514208272099495, -0.054433099925518036, 0.04978354647755623], [0.02442566119134426, -0.022890930995345116, 0.0022134026512503624, -0.053073447197675705, 0.01007616613060236, 0.00584423029795289, 0.013647940009832382, -0.03953489661216736, -0.05709555372595787, 0.044178105890750885], [0.04228803887963295, 0.020008843392133713, -0.0019155620830133557, -0.056714754551649094, -0.03729582205414772, 0.024261828511953354, 0.016773665323853493, -0.04564850777387619, -0.05208279564976692, 0.049392927438020706], [-0.05145394057035446, -0.014955922029912472, 0.004392305854707956, -0.047724634408950806, 0.05680317059159279, 0.047075673937797546, -0.05080919340252876, 0.028692195191979408, 0.03478021174669266, -0.015071453526616096], [0.047425560653209686, -0.022253835573792458, 0.00488262390717864, -0.046954184770584106, -0.04746950417757034, -0.02868700586259365, -0.023131253197789192, -0.01892527937889099, -0.06148429214954376, -0.018453845754265785], [0.006894852500408888, 0.06674939393997192, -0.029039043933153152, 0.0072016362100839615, 0.014944585040211678, -0.015947476029396057, -0.04267154633998871, -0.007421040441840887, 0.01746424101293087, -0.05551711469888687], [0.027853088453412056, 0.027773357927799225, 0.016756417229771614, -0.003849836066365242, 0.03357798606157303, 0.053002435714006424, -0.032298795878887177, -0.013823315501213074, 0.00012194423470646143, -0.019477220252156258], [0.015763862058520317, -0.02900458499789238, 0.04240291938185692, 0.021937856450676918, -0.05248395353555679, 0.017919417470693588, 0.0015273273456841707, -0.0013526869006454945, 0.02214137092232704, 0.0036728675477206707], [0.013315278105437756, -0.004607993643730879, -0.019381234422326088, -0.03839674964547157, -0.05653706192970276, 0.033436454832553864, 0.009531096555292606, 0.035817358642816544, -0.05509231239557266, 0.04921504482626915], [0.019553301855921745, 0.008686871267855167, -0.027728643268346786, -0.045671381056308746, -0.02214019000530243, 0.015889007598161697, -0.022223198786377907, 0.027036048471927643, -0.03183138370513916, -0.029225347563624382], [0.042728401720523834, 0.01114833727478981, -0.037156280130147934, -0.04264739155769348, 0.013100333511829376, 0.030935989692807198, -0.012360544875264168, 0.05202321708202362, 0.021885639056563377, -0.029680630192160606], [0.031526610255241394, -0.006415180396288633, -0.05633118376135826, 0.03342907503247261, -0.021846136078238487, 0.04892723634839058, 0.030229665338993073, -0.02221374772489071, 0.009234503842890263, 0.03721074387431145], [-0.03494798764586449, 0.04119186848402023, 0.003730938769876957, 0.004126169253140688, 0.0022643296979367733, 0.0295990202575922, -0.004844349808990955, -0.014842694625258446, -0.05872669070959091, -0.02742239646613598], [0.036579594016075134, 0.05949015915393829, 0.054939255118370056, -0.005752521101385355, 0.03456000238656998, -0.050734225660562515, -0.009515284560620785, 0.02660638839006424, 0.03374307230114937, -0.04839704558253288], [-0.04987526312470436, 0.04492489621043205, -0.03757347911596298, 0.05170750245451927, -0.01464853622019291, 0.04275956377387047, -0.044572874903678894, -0.02329951710999012, 0.0019008028320968151, 0.044340357184410095], [0.02990271896123886, -0.0383746400475502, 0.0029699858278036118, -0.0018625110387802124, 0.05348632484674454, -0.002667136723175645, 0.03654836118221283, 0.02799607813358307, 0.03332563862204552, 0.04130154848098755], [-0.038581181317567825, 0.06826706230640411, -0.0032866348046809435, -0.012474343180656433, 0.042395565658807755, 0.050186365842819214, -0.0373518280684948, -0.00548400217667222, 0.008903281763195992, 0.027580179274082184], [-0.027969444170594215, 0.01600855588912964, -0.000255823164479807, 0.031622275710105896, -0.018645986914634705, -0.05425649508833885, 0.02421049401164055, 0.0408853217959404, 0.019745774567127228, 0.05212688073515892], [-0.0021265032701194286, 0.05271580070257187, -0.02700241282582283, -0.0064590186811983585, 0.004959725774824619, 0.017386816442012787, -0.02930212765932083, 0.058834508061409, -0.039228033274412155, 0.03816886618733406], [-0.02903890050947666, -0.036218609660863876, 0.04119013994932175, -0.058075498789548874, 0.008530662395060062, -0.0365871787071228, 0.022068137302994728, 0.025469735264778137, -0.006467792205512524, 0.012791716493666172], [-0.0010341608431190252, 0.021936723962426186, -0.05532510206103325, 0.026581067591905594, -0.01589125767350197, -0.002059056656435132, -0.03451073169708252, -0.03062000498175621, -0.012758791446685791, -0.018157601356506348], [-0.028528910130262375, -0.045895807445049286, -0.04260217025876045, 0.014586546458303928, -0.01286361739039421, -0.023359576240181923, -0.008410055190324783, 0.060776807367801666, 0.0453270860016346, 0.0368451364338398], [-0.052228376269340515, 0.028105147182941437, 0.025795811787247658, 0.04408087581396103, 0.04009244963526726, 0.04446776583790779, 0.009919945150613785, -0.01532623078674078, 0.017102118581533432, 0.01089925691485405], [0.0260416679084301, -0.015746617689728737, 0.017491063103079796, -0.01865502819418907, -0.005314785521477461, 0.03317932039499283, -0.022096846252679825, -0.005496013909578323, -0.05021742731332779, -0.0014853860484436154], [0.026387255638837814, 0.018668578937649727, -0.010976066812872887, 0.0549580454826355, 0.022483736276626587, 0.0201224684715271, -0.049470461905002594, 0.046084120869636536, -0.03910929709672928, 0.022785615175962448], [-0.02765010856091976, 0.006045789923518896, -0.03352264314889908, 0.027839433401823044, -0.014083917252719402, 0.0061262487433850765, 0.025311194360256195, -0.022382143884897232, 0.026764672249555588, -0.02875560149550438], [0.04845096543431282, 0.017049401998519897, 0.0008911517215892673, -0.046184346079826355, 0.030181434005498886, -0.004072233568876982, 0.017876124009490013, 0.01964808627963066, 0.027122540399432182, -0.054054245352745056], [0.009804990142583847, -0.04017629474401474, 0.004870156291872263, -0.003102604765444994, 0.022932302206754684, -0.043670251965522766, -0.040767982602119446, -0.035144414752721786, -0.060308877378702164, -0.011866291053593159], [-0.003382080001756549, 0.025724077597260475, -0.03366909548640251, -0.05371297523379326, 0.02296302653849125, 0.05613669008016586, -0.007291079498827457, -0.03270512819290161, -0.0209147147834301, -0.05596224218606949], [-0.03939333185553551, 0.022273831069469452, 0.03223775327205658, -0.04855336993932724, 0.012546508572995663, 0.007251772563904524, -0.019916879013180733, 0.06462044268846512, 0.0006077497964724898, 0.01410547737032175], [-0.05285640060901642, 0.012345709837973118, 0.03040221706032753, 0.03517736867070198, 0.05549127608537674, 0.018063882365822792, -0.044140588492155075, 0.0173952579498291, -0.01468692347407341, 0.017017466947436333], [0.0071933516301214695, -0.004820972215384245, -0.0282564926892519, -0.060675524175167084, 0.021000536158680916, 0.04654144495725632, -0.04194391518831253, 0.02386641316115856, 0.026228973641991615, 0.02958565764129162], [-0.006441071629524231, 0.00482564140111208, 0.05956518277525902, 0.04542975872755051, -0.013892033137381077, 0.01092294231057167, 0.04696710407733917, 0.01655871421098709, -0.07745282351970673, 0.029304709285497665], [-0.07511571794748306, 0.025837965309619904, 0.06343498826026917, 0.017877783626317978, -0.029131392017006874, 0.012615198269486427, 0.031144961714744568, -7.926621765363961e-05, -0.034978870302438736, 0.007105418946594], [0.014769753441214561, 0.017425760626792908, 0.014843534678220749, 0.06455519050359726, 0.0027366895228624344, -0.058111704885959625, 0.03299643471837044, 0.026128847151994705, -0.02961505763232708, 0.016580652445554733], [0.03223353996872902, 0.04300834611058235, 0.015491576865315437, 0.06654094904661179, 0.0024644164368510246, -0.05971395596861839, -0.023623837158083916, -0.05779130756855011, -0.08258213102817535, -0.040451113134622574], [-0.024788040667772293, -0.019912168383598328, -0.06959065794944763, 0.01569858007133007, -0.024426857009530067, -0.018376333639025688, 0.0009756075451150537, 0.015424392186105251, 0.030094053596258163, -0.006128109525889158], [0.008150828070938587, 0.014243940822780132, 0.03725119307637215, 0.005583332851529121, -0.037323467433452606, -0.04008134454488754, -0.07038040459156036, 0.013932467438280582, -0.012572716921567917, 0.02834259159862995], [-0.05268890783190727, 0.06953004747629166, -0.05969719588756561, -0.010031037963926792, -0.01014840230345726, 0.034024689346551895, -0.04014531522989273, -0.030380943790078163, -0.040227990597486496, -0.00737668015062809], [-0.0446217842400074, 0.004884201567620039, -0.0512804239988327, 0.004084114916622639, -0.031115729361772537, -0.03388163447380066, -0.016972394660115242, 0.023869123309850693, 0.04892094060778618, 0.019170694053173065], [-0.001018027774989605, -0.019269442185759544, 0.035902492702007294, 0.09166541695594788, -0.043672963976860046, -0.07692000269889832, 0.0679868832230568, 0.004285399802029133, -0.025757214054465294, 0.012354239821434021], [0.007046752609312534, 0.05501711741089821, -0.008777476847171783, 0.014514051377773285, 0.028255490586161613, -0.02795504592359066, 0.005397496744990349, 0.030599704012274742, 0.010356719605624676, 0.04302837327122688], [0.028375448659062386, -0.02567778341472149, 0.07429492473602295, -0.005476310849189758, -0.022651631385087967, -0.0763823390007019, 0.04357730969786644, -0.055268336087465286, -0.056997593492269516, 0.0016040701884776354], [-0.030504271388053894, -0.04287288337945938, 0.08057744801044464, 0.012405721470713615, 0.005342547781765461, -0.015395445749163628, 0.03714238852262497, 0.028354385867714882, -0.07396020740270615, -0.05629359185695648], [0.026628410443663597, -0.027040228247642517, 0.04479503259062767, 0.047332003712654114, 0.004532785154879093, -0.013944050297141075, -0.033001139760017395, -0.062434714287519455, -0.0654456689953804, 0.006533937528729439], [-0.0830330103635788, 0.0027867367025464773, 0.11124957352876663, 0.10588031262159348, -0.04364145174622536, 0.003182869404554367, -0.0038850412238389254, -0.01706543006002903, -0.03283754736185074, 0.012005322612822056], [0.06418772041797638, 0.03713992238044739, -0.023090561851859093, -0.0823843851685524, 0.02799338474869728, 0.046308405697345734, -0.011743342503905296, 0.061691246926784515, -0.02170904539525509, 0.02825986221432686], [0.021062273532152176, 0.06002535670995712, -0.10783765465021133, -0.0600593201816082, -0.009384410455822945, 0.06659810990095139, 0.0025065133813768625, 0.021970557048916817, 0.005802266299724579, 0.013009660877287388], [0.0033393208868801594, 0.042198169976472855, -0.08015330135822296, -0.048191752284765244, -0.020274033769965172, 0.08241823315620422, -0.010264284908771515, -0.007918033748865128, 0.006614976562559605, 0.06372733414173126], [0.0228706244379282, 0.06288927048444748, -0.02939741313457489, -0.08812342584133148, 0.07367488741874695, 0.06792696565389633, 0.011918598785996437, 0.022131383419036865, 0.03276487812399864, -0.013020575977861881], [0.016264354810118675, -0.04889281094074249, 0.020483456552028656, 0.052650127559900284, -0.059665367007255554, -0.07561268657445908, 0.017955001443624496, -0.027840709313750267, -0.03498049080371857, 0.019536886364221573], [-0.04740811139345169, 0.0066405897960066795, -0.029304124414920807, -0.016285715624690056, 0.05642154440283775, 0.02527933195233345, 0.00956204254180193, -0.006426677573472261, -0.04458005726337433, -0.03089364990592003], [0.01538868062198162, 0.04726002365350723, 0.11360133439302444, -0.0007894284790381789, -0.03685535490512848, -0.06271100044250488, 0.05550171062350273, 0.008150031790137291, 0.0349661149084568, -0.0471980944275856], [-0.07188986986875534, 0.023093637079000473, 0.07867655158042908, 0.0337003618478775, -0.08061408251523972, -0.033859409391880035, 0.01614494062960148, -0.0926395058631897, 0.0063636270351707935, 0.002791734179481864], [-0.05136456340551376, 0.03975768759846687, 0.028763575479388237, 0.005517287645488977, -0.08350776880979538, -0.024597175419330597, 0.0026829626876860857, -0.08609838038682938, 0.02017032541334629, -0.06995225697755814], [-0.029465513303875923, 0.030073778703808784, 0.14112775027751923, 0.022286025807261467, -0.05782950296998024, -0.009836430661380291, 0.014073546975851059, -0.10187148302793503, 0.0040228478610515594, -0.023414161056280136], [-0.046258628368377686, 0.024182971566915512, -0.1092078685760498, -0.07207871228456497, 0.05846792832016945, 0.05392395332455635, -0.059695761650800705, 0.008096631616353989, -0.020984848961234093, -0.03367633372545242], [-0.04194875806570053, -0.015972809866070747, -0.10132597386837006, -0.037700410932302475, 0.10237304121255875, 0.06317783147096634, 0.009582839906215668, 0.026003021746873856, -0.013475713320076466, 0.05365043878555298], [0.03311925381422043, 0.016112763434648514, -0.1168176457285881, -0.11709459871053696, 0.0453718863427639, 0.08512448519468307, -0.045141831040382385, 0.07081520557403564, -0.056091953068971634, -0.023104039952158928], [0.0334772951900959, -0.02749130129814148, -0.0198040883988142, -0.06370331346988678, 0.03768580034375191, 0.06089378148317337, 0.0059391106478869915, -0.016572892665863037, 0.006001809611916542, 0.011524142697453499], [0.02304508164525032, 0.049615856260061264, 0.09145014733076096, 0.0385994017124176, -0.0867292508482933, -0.01712866686284542, 0.03627773001790047, -0.09645771235227585, 0.04387432709336281, -0.08214011788368225], [-0.009393759071826935, -0.034809280186891556, 0.001616640598513186, -0.07418660074472427, -0.002014530124142766, -0.012779599986970425, -0.016301698982715607, 0.05512667074799538, -0.033691514283418655, -0.03977906331419945], [0.056518908590078354, 0.02701037935912609, 0.05996124818921089, 0.09984635561704636, -0.10133406519889832, -0.04714778810739517, 0.03205794841051102, -0.05656591057777405, 0.04585367813706398, -0.0722324401140213], [0.034659940749406815, 0.0683012530207634, 0.07312178611755371, 0.09698133915662766, -0.014106327667832375, -0.10367802530527115, 0.0009732452454045415, -0.05585811659693718, 0.08875218778848648, -0.014463760890066624], [-0.044590212404727936, -0.009938554838299751, 0.13312888145446777, -0.00565276900306344, -0.04569905623793602, -0.06183146312832832, 0.05761104077100754, -0.06168603152036667, -0.024862365797162056, -0.05464937537908554], [0.06868060678243637, 0.0808507651090622, 0.08759414404630661, 0.06259284913539886, -0.07226420938968658, -0.040862780064344406, 0.003226041328161955, -0.11366840451955795, 0.08556652814149857, -0.15801329910755157], [0.045877449214458466, -0.01439487375319004, -0.025449341163039207, -0.09805713593959808, 0.08996769785881042, -0.025056878104805946, -0.024064287543296814, 0.024550000205636024, 0.020420042797923088, 0.016993042081594467], [0.03339286148548126, -0.010298972018063068, -0.03880615532398224, -0.042922068387269974, 0.011839015409350395, 0.08524733036756516, -0.00823808554559946, 0.04152882471680641, -0.006444266531616449, 0.08015621453523636], [0.02481842041015625, -0.008811494335532188, -0.1280391812324524, -0.1399099975824356, 0.03523796424269676, 0.08273283392190933, -0.036706212908029556, -0.005658525973558426, -0.02914690598845482, 0.08704665303230286], [0.05954154208302498, 0.04538509622216225, -0.0031484905630350113, -0.03777678310871124, 0.05827774479985237, 0.050279777497053146, -0.018062854185700417, 0.0205534677952528, -0.030532028526067734, 0.005770860239863396], [0.024271853268146515, 0.038835663348436356, 0.06282316893339157, -0.004669881891459227, -0.018744904547929764, -0.09701035916805267, -0.013103670440614223, -0.11132529377937317, 0.08993025869131088, -0.06285639852285385], [-0.014567224308848381, 0.0174422487616539, -0.09168456494808197, -0.0033928051125258207, 0.043444253504276276, -0.02818332426249981, -0.029622282832860947, 0.0031968322582542896, 0.03490786254405975, 0.04248596355319023], [0.08707134425640106, 0.07823393493890762, 0.1317741870880127, 0.021498849615454674, 0.009638958610594273, -0.07808205485343933, 0.013383838348090649, -0.08195318281650543, -0.007422406692057848, -0.12682056427001953], [0.029902370646595955, 0.13064967095851898, 0.15813666582107544, 0.038610514253377914, 0.00322638638317585, -0.09743592143058777, 0.035425059497356415, -0.19091039896011353, 0.03853321820497513, -0.0929565504193306], [-0.01667965203523636, 0.12908446788787842, 0.09037220478057861, 0.03497490659356117, -0.08952060341835022, -0.040940601378679276, 0.03940361738204956, -0.13216453790664673, -0.023975880816578865, -0.13577520847320557], [0.07804465293884277, 0.07576553523540497, 0.10408129543066025, -0.03122198022902012, 0.013802014291286469, -0.07370494306087494, 0.09017931669950485, -0.14080862700939178, 0.006339890416711569, -0.2334783524274826], [-0.02150137908756733, -0.044400978833436966, 0.024360209703445435, -0.02936425432562828, 0.005205100402235985, 0.026810619980096817, 0.005319787189364433, 0.0730845034122467, 0.05367255583405495, 0.03186134994029999], [-0.008666502311825752, 0.03177562728524208, -0.10059403628110886, -0.05193423479795456, -0.01641560159623623, -0.0330803319811821, -0.06929764151573181, 0.033879876136779785, -0.018045049160718918, 0.08832649141550064], [0.08217886090278625, 0.05260750651359558, -0.09519201517105103, -0.06811901926994324, 0.10052340477705002, 0.016869481652975082, -0.05367413908243179, 0.08747456222772598, 0.026894427835941315, 0.06367941945791245], [0.07236441969871521, -0.041276950389146805, -0.05079318955540657, -0.10266034305095673, -0.01979864202439785, -0.00703018344938755, -0.03582213819026947, 0.07690846920013428, -0.00454982602968812, 0.054713211953639984], [0.0678095668554306, 0.05911941081285477, 0.10603930801153183, -0.003233392955735326, 0.031153542920947075, -0.026459425687789917, 0.018741872161626816, -0.15508806705474854, 0.06118959188461304, -0.09533806145191193], [0.0041411686688661575, 0.004394269082695246, -0.08954598009586334, -0.08379510045051575, 0.011537997052073479, -0.014689977280795574, 0.0058910842053592205, 0.06523845344781876, 0.008941818960011005, 0.08006799966096878], [0.015685109421610832, 0.09229050576686859, 0.03496639057993889, 0.024142343550920486, -0.04015154391527176, -0.03389237821102142, 0.08722619712352753, -0.15490315854549408, 0.039444342255592346, -0.22461985051631927], [0.03566259890794754, 0.0654207170009613, 0.04231620207428932, -0.03005274012684822, -0.038328319787979126, -0.04284634441137314, 0.027294456958770752, -0.1574527770280838, 0.10935312509536743, -0.20668400824069977], [0.039662670344114304, 0.06261575222015381, 0.0646759644150734, 0.0701698362827301, -0.02686297334730625, -0.0040030875243246555, 0.06089203059673309, -0.07100070267915726, 0.053412098437547684, -0.11324907094240189], [0.009540881961584091, 0.08622471988201141, 0.07794726639986038, -0.05194979906082153, 0.03178409859538078, -0.0531858466565609, 0.11463627219200134, -0.14445950090885162, 0.06757894158363342, -0.24985527992248535], [0.03230304270982742, 0.07172629237174988, -0.008276121690869331, -0.02953728474676609, -0.028812507167458534, -0.05577898025512695, -0.11309266090393066, -0.006448102183640003, 0.027199001982808113, -0.0076862662099301815], [0.05761802941560745, 0.01346015464514494, -0.0010147907305508852, -0.0602463036775589, 0.050601501017808914, -0.04126371815800667, -0.12153457850217819, 0.0032021005172282457, -0.016187796369194984, -0.007217824459075928], [0.027504917234182358, 0.09730757027864456, -0.05343329533934593, -0.03907625004649162, 0.07815390080213547, -0.06595482677221298, -0.06294092535972595, 0.03857507184147835, 0.04178750887513161, 0.05894818902015686], [0.09840195626020432, 0.08543436974287033, -0.01722009852528572, 0.02116168662905693, -0.027082251384854317, -0.04114837944507599, -0.13687561452388763, -0.010742651298642159, -0.02301700972020626, -0.019485939294099808], [0.056487735360860825, 0.08711505681276321, 0.009217404760420322, 0.01972646266222, 0.04488079622387886, -0.04937245696783066, 0.1451353132724762, -0.12007487565279007, -0.05773084610700607, -0.09937499463558197], [-0.017766563221812248, -0.008166207931935787, -0.03820246085524559, -0.0707131177186966, -0.028457097709178925, 0.025955908000469208, -0.06590302288532257, -0.03538575395941734, 0.024356987327337265, -0.002480311319231987], [-0.04527563601732254, -0.02132113091647625, -0.01878570206463337, 0.027400750666856766, 0.09179767221212387, 0.007370374631136656, 0.18691091239452362, -0.077910415828228, 0.014781053178012371, -0.1507936418056488], [0.05227111652493477, 0.043786466121673584, 0.08987513929605484, -0.0072059836238622665, -0.010135254822671413, 0.00896504893898964, 0.121223084628582, -0.07001480460166931, 0.05532710626721382, -0.16742563247680664], [0.024913309141993523, 0.020712662488222122, 0.03603953495621681, -0.03710435703396797, -0.0008206443744711578, 0.03499573469161987, 0.11899597942829132, -0.05832197144627571, -0.010289877653121948, -0.1692625731229782], [-0.019511573016643524, 0.012220111675560474, -0.011227414943277836, -0.07664500176906586, 0.07670954614877701, 0.02779482677578926, 0.11096633225679398, -0.1164071187376976, -0.013347085565328598, -0.16693700850009918], [-0.024984559044241905, 0.040903013199567795, 0.04890897125005722, 0.011385311372578144, 0.04538761079311371, 0.03455616906285286, -0.026587164029479027, -0.013462780974805355, 0.0269986093044281, 0.04195529595017433], [-0.010106978937983513, 0.04989905655384064, -0.028938164934515953, 0.03931669890880585, 0.06445851176977158, -0.05332282558083534, -0.10653534531593323, 0.0728655606508255, 0.02740960195660591, 0.06928114593029022], [0.052927110344171524, 0.008681826293468475, 0.03484347462654114, 0.02225629799067974, 0.010409673675894737, 0.041655998677015305, -0.15701954066753387, -0.03572751581668854, -0.003359750611707568, -0.028974533081054688], [0.009952358901500702, -0.030165627598762512, -0.022345300763845444, 0.020579421892762184, -0.03986770659685135, 0.008105932734906673, -0.12449697405099869, -0.01461982261389494, 0.043569691479206085, -0.016034696251153946], [-0.054851897060871124, 0.09206119179725647, 0.028743242844939232, -0.028122544288635254, -0.004900739062577486, -0.03280685096979141, 0.0782378688454628, -0.1151934340596199, -0.040560316294431686, -0.1279943287372589], [0.05285367742180824, 0.034776102751493454, 0.05684693902730942, -0.014430689625442028, 0.0007612837362103164, -0.04557628929615021, -0.04940154775977135, 0.02399490587413311, -0.037381015717983246, 0.057574562728405], [-0.05383513867855072, 0.010956589132547379, -0.05899548530578613, -0.05022207647562027, -0.008302716538310051, -0.0466889925301075, 0.14531506597995758, -0.1332331895828247, -0.023011526092886925, -0.14837995171546936], [-0.049430105835199356, 0.09964226186275482, 0.007371416315436363, -0.015548978000879288, -0.006279707886278629, -0.038802750408649445, 0.13922953605651855, -0.0863930955529213, 0.033351656049489975, -0.15766002237796783], [-0.014091338030993938, 0.07554098218679428, -0.009397391229867935, -0.0708232894539833, -0.03666644170880318, -0.02983720973134041, 0.22235074639320374, -0.026628786697983742, -0.009801320731639862, -0.10745326429605484], [-0.010819630697369576, 0.02617405541241169, -0.09278646856546402, -0.05287208780646324, 0.02213405631482601, 0.06696146726608276, 0.083490751683712, 0.004556669387966394, -0.04863886907696724, -0.10861025005578995], [0.0027419256512075663, 0.04791488125920296, 0.05597653239965439, -0.011850692331790924, -0.01347415242344141, -0.03927132487297058, -0.07815093547105789, 0.022916875779628754, 0.00419929763302207, 0.02118159830570221], [-0.007002060301601887, 0.031024467200040817, 0.030241280794143677, -0.02149933949112892, 0.024948498234152794, -0.014608249068260193, -0.12569187581539154, 0.037353355437517166, -0.03265012800693512, -0.02134985290467739], [-0.02387327514588833, -0.03754019737243652, -0.01601238176226616, 0.0034687442239373922, 0.005673273932188749, 0.039020273834466934, -0.024472922086715698, -0.014804690144956112, -0.0191227737814188, 0.06329673528671265], [0.07259584963321686, -0.03608119115233421, 0.06534348428249359, 0.04125986620783806, 0.037371084094047546, 0.0064160386100411415, -0.11223582923412323, -0.013339805416762829, -0.05282903462648392, -0.023963365703821182], [-0.011778389103710651, 0.09781799465417862, -0.03851296752691269, -0.08154735714197159, 0.0017658780561760068, -0.02180214785039425, 0.10933558642864227, -0.08874376863241196, 0.006226816214621067, -0.010572911240160465], [0.05393083766102791, 0.04691494256258011, -0.004573526792228222, -0.02478182502090931, 0.021871283650398254, -0.01033049263060093, -0.016974303871393204, 0.03911178186535835, 0.04160163551568985, -0.011563819833099842], [0.022192051634192467, 0.07197774201631546, 0.01308821327984333, -0.0985545888543129, 0.06471145153045654, -0.005564753897488117, 0.09512001276016235, 0.0015958554577082396, -0.04252225533127785, 0.009528189897537231], [-0.03606277331709862, 0.04273500666022301, -0.09798114746809006, -0.007679937873035669, 0.10032952576875687, 0.03936620429158211, 0.15903766453266144, -0.06333301216363907, 0.006095923017710447, -0.05591082200407982], [-0.07533687353134155, 0.051796264946460724, -0.03461967036128044, -0.09283137321472168, 0.012454133480787277, 0.0018897004192695022, 0.08227583020925522, -0.059219181537628174, -0.01232899259775877, -0.08267740905284882], [-0.08049563318490982, -0.0073307533748447895, -0.060234759002923965, -0.013138447888195515, 0.07942216098308563, -0.013688812032341957, 0.07920294255018234, 0.02955413982272148, -0.0020043952390551567, -0.07627683877944946], [-0.031400974839925766, 0.034142907708883286, 0.020647509023547173, 0.0481623075902462, 0.00727875204756856, -0.029875515028834343, -0.05447882413864136, 0.03869076818227768, -0.024399442598223686, 0.03037370555102825], [-0.05044896528124809, -0.019375912845134735, 0.02791650779545307, -0.045484740287065506, 0.034048013389110565, 0.011833548545837402, -0.03162672370672226, 0.005550875328481197, 0.004381904378533363, -0.04247656464576721], [0.05627211928367615, -0.007744935806840658, 0.02238544635474682, 0.013579142279922962, -0.030312998220324516, -0.0567016527056694, -0.03429253771901131, 0.01030451525002718, 0.022188860923051834, 0.054651737213134766], [0.017588043585419655, -1.4368779375217855e-05, 0.05041498318314552, -0.05737115070223808, 0.05323665589094162, 0.055796101689338684, -0.06251809746026993, -0.0329655259847641, 0.04383525997400284, 0.03473268076777458], [-0.03864157199859619, -0.0018962729955092072, 0.017084691673517227, 0.010387048125267029, 0.004334244877099991, 0.04753513261675835, 0.04700241610407829, -0.04245918244123459, -0.004266753792762756, -0.009078525006771088], [-0.006822476163506508, 0.006561914458870888, -0.0011280188336968422, -0.026247765868902206, 0.03328775241971016, 0.031430017203092575, -0.0048744832165539265, 0.01832360029220581, -0.02802301198244095, -0.024019913747906685], [-0.07181470841169357, 0.011152618564665318, -0.026937730610370636, -0.1056981235742569, 0.05142397806048393, 0.07550688832998276, 0.07332050800323486, 0.030346548184752464, 0.017702296376228333, -0.07873841375112534], [0.03320513665676117, 0.05120061710476875, -0.0184449702501297, -0.04035782068967819, 0.007961682975292206, 0.0662587434053421, 0.11400672048330307, -0.021528445184230804, 0.03210565075278282, -0.0417749360203743], [0.010162264108657837, 0.03769494220614433, -0.07828063517808914, -0.0915183275938034, 0.01957835629582405, 0.048152390867471695, 0.016834430396556854, 0.03855784609913826, 0.008423658087849617, -0.03768465295433998], [-0.0034344233572483063, 0.004302940797060728, -0.04801376909017563, 0.021670367568731308, -0.03244168311357498, 0.0494849868118763, -0.03570995852351189, -0.0120437853038311, 0.04568161442875862, 0.03436455875635147], [0.04247063770890236, -0.029447464272379875, -0.01753251440823078, -0.029396919533610344, -0.011911120265722275, -0.034971363842487335, 0.011489386670291424, 0.04218015819787979, 0.045544423162937164, -0.04239051043987274], [-0.025530939921736717, 0.017545701935887337, 0.016194980591535568, 0.05579463765025139, 0.021085526794195175, -0.013212711550295353, -0.018977709114551544, 0.014902208000421524, -0.004975528921931982, -0.02951221726834774], [-0.04015238210558891, 0.04415949806571007, -0.035624243319034576, 0.012722604908049107, -0.0437435507774353, 0.0031249062158167362, -0.042530473321676254, 0.04405435919761658, 0.006856903899461031, 0.04712365195155144], [-0.05277777463197708, 0.009220956824719906, 0.006847075652331114, 0.002525526098906994, -0.018251776695251465, 0.00931951031088829, -0.019582822918891907, 0.026876112446188927, -0.06443265825510025, 0.02667502872645855], [0.01015574298799038, -0.0327913723886013, -0.05197807401418686, -0.020524967461824417, -0.023453718051314354, 0.06385331600904465, 0.05192921310663223, 0.03790205717086792, 0.024913493543863297, 0.0254318006336689], [-0.0255265049636364, 0.031507376581430435, 0.05128341168165207, 0.007232663221657276, 0.036246366798877716, -0.0013483292423188686, 0.027778008952736855, -0.050505101680755615, -0.03148126229643822, 0.044018086045980453], [0.00398547388613224, -0.01642158254981041, -0.058866310864686966, -0.06849365681409836, 0.026747949421405792, -0.03185665234923363, 0.07139339298009872, 0.029082532972097397, -0.007029671221971512, 0.014585766941308975], [-0.02169436402618885, -0.012668020091950893, 0.011599154211580753, 0.0280296728014946, 0.0065746488980948925, -0.04163963347673416, 0.024679092690348625, 0.026113875210285187, 0.013880341313779354, -0.0384347066283226], [0.04461309313774109, 0.05300617218017578, 0.040293678641319275, 0.04863198474049568, -0.051603518426418304, -0.009416722692549229, 0.029911072924733162, -0.026550179347395897, 0.014072862453758717, 0.03458971902728081], [-0.04156448319554329, 0.0306492131203413, 0.01315472275018692, -0.008475488051772118, -0.042757753282785416, 0.014241347089409828, 0.029547687619924545, 0.04027174413204193, -0.07034502178430557, 0.02818063646554947], [-0.02467656135559082, 0.07050363719463348, -0.042544130235910416, -0.036076370626688004, 0.02950756624341011, -0.015214218758046627, 0.010985294356942177, -0.04558825120329857, -0.021381882950663567, 0.05702100321650505], [-0.03907766938209534, -0.005678938701748848, 0.025195986032485962, 0.04162890091538429, -0.03549730032682419, -0.0346655547618866, 0.01401450578123331, 0.0423603355884552, -0.019329609349370003, -0.030736785382032394], [0.0015259955544024706, 0.0006034656544215977, 0.03790179640054703, 0.043767958879470825, 0.01889890246093273, 0.054674841463565826, -0.02657349593937397, -0.03965175896883011, -0.01835796795785427, 0.000725199468433857], [0.05703448876738548, 0.024084080010652542, -0.002811743877828121, 0.008467989973723888, -0.046593084931373596, -0.010056388564407825, -0.050721392035484314, 0.010997282341122627, 0.01680409163236618, 0.055011358112096786], [-0.01180005818605423, -0.021415188908576965, -0.03055853582918644, -0.00396147882565856, -0.010854649357497692, -0.0347316637635231, -0.0072934855706989765, -0.02250038832426071, 0.038673609495162964, 0.027755817398428917], [0.05013764277100563, 0.06295930594205856, -0.034499119967222214, -0.0323021374642849, 0.04086926206946373, 0.02486720122396946, 0.009399998001754284, 0.011170594953000546, -0.0576246976852417, 0.05061163380742073], [0.053354132920503616, 0.06837723404169083, 0.025400446727871895, 0.04389053210616112, -0.005992395803332329, 0.044803280383348465, 0.00846496969461441, 0.051340747624635696, 0.03288726136088371, 0.04024462774395943], [-0.03491411358118057, -0.03528920188546181, -0.004913633689284325, 0.059292495250701904, 0.041503407061100006, 0.009852496907114983, -0.018741978332400322, 0.05238640680909157, 0.043957047164440155, 0.006934318225830793], [0.05526158586144447, 0.015094874426722527, 0.02233392745256424, -0.030522460117936134, 0.012924548238515854, -0.004947557579725981, 0.040311310440301895, 0.013718169182538986, -0.03939371556043625, 0.007748383563011885], [0.017032505944371223, -0.018140289932489395, 0.04009220004081726, 0.05671491101384163, -0.0032661529257893562, 0.0011521069100126624, -0.07258924096822739, 0.02869451232254505, -0.014615814201533794, -0.07262160629034042], [-0.029560511931777, -0.015203898772597313, 0.006950903683900833, -0.029825791716575623, 0.022459203377366066, -0.013200310990214348, -0.03150477632880211, -0.047481369227170944, -0.048358507454395294, -0.009392610751092434], [-0.00811036303639412, 0.021534912288188934, 0.024551788344979286, -0.062175728380680084, -0.055969495326280594, -0.018975909799337387, 0.024568282067775726, 0.053173042833805084, 0.026313213631510735, -0.04793209955096245], [0.012090935371816158, -0.004937191493809223, 0.024462444707751274, 0.024142149835824966, -0.019034380093216896, -0.027958311140537262, 0.016263756901025772, 0.014582850970327854, -0.041194815188646317, 0.0008285954827442765], [-0.05776679888367653, 0.005898759700357914, 0.041935890913009644, -0.05083107948303223, -0.061767034232616425, 0.05320795625448227, -0.03457169607281685, -0.03582817688584328, -0.0005252838018350303, -0.026936274021863937], [-0.028373543173074722, 0.05250871181488037, -0.011837276630103588, 0.0694710835814476, -0.04177726060152054, -0.042050525546073914, 0.022955089807510376, 0.017153967171907425, 0.025660231709480286, -0.02199946716427803], [0.05737170949578285, -0.00609698798507452, 0.0009233099408447742, 0.03269409388303757, -0.014281664043664932, 0.06713400036096573, 0.03348248824477196, 0.05227316543459892, -0.015585106797516346, -0.012888788245618343], [-0.041866082698106766, 0.0024759690277278423, 0.001338679576292634, 0.012920156121253967, 0.07103769481182098, -0.06429960578680038, 0.00817800872027874, 0.06040588766336441, 0.01863040216267109, 0.029986029490828514], [-0.027661915868520737, 0.03140747547149658, 0.028667887672781944, 0.07370509207248688, -0.034765638411045074, -0.08011078089475632, -0.03652418404817581, 0.03290596604347229, 0.0178261436522007, 0.012042071670293808], [-0.04030413180589676, 0.060503892600536346, -0.0008281014743261039, 0.012197636067867279, 0.04615439102053642, 0.0064035579562187195, -0.03884872794151306, 0.0420832522213459, -0.051232561469078064, 0.017038043588399887], [-0.02028326503932476, -0.05530975013971329, 0.015132812783122063, 0.058059774339199066, 0.04381516948342323, -0.041195839643478394, -0.07764682918787003, 0.03855067864060402, 0.009106123819947243, -0.027527661994099617], [0.0007628660532645881, 0.059322673827409744, -0.03279346227645874, -0.02173103205859661, 0.007128497585654259, 0.05607239529490471, 0.02833934873342514, 0.020876672118902206, -0.01125037670135498, 0.057675957679748535], [-0.034443747252225876, -0.012578986585140228, -0.03769932687282562, -0.09400530904531479, 0.016476906836032867, 0.0007006761734373868, -0.0038094015326350927, 0.0195943433791399, -0.05635139346122742, 0.02650422416627407], [-0.024782104417681694, 0.054351434111595154, -0.012262924574315548, -0.11030112951993942, 0.03377333655953407, 0.0599602647125721, 0.05343569070100784, -0.04535889998078346, 0.01132295187562704, -0.003093016566708684], [0.06702400743961334, 0.052714768797159195, 0.01983802765607834, -0.03590662404894829, -0.05207314342260361, -0.0049202959053218365, 0.055322013795375824, -0.00024815573124215007, 0.026299482211470604, 0.03785153850913048], [0.0063361311331391335, 0.030619198456406593, 0.09366992861032486, 0.08649852871894836, 0.0639692097902298, 0.006961515173316002, -0.07057222723960876, 0.00904111284762621, -0.03747807443141937, -0.07915709167718887], [-0.017818165943026543, 0.03071189671754837, -0.0008410538430325687, -0.09057028591632843, 0.021426957100629807, 0.01665131375193596, -0.00903322920203209, -0.03382612764835358, -0.03596675768494606, -0.006612730212509632], [-0.036010053008794785, 0.041889775544404984, 0.07461169362068176, 0.11517418175935745, -0.0014968925388529897, -0.011846593581140041, 0.027562838047742844, 0.07781530916690826, -0.005066382698714733, -0.042382415384054184], [-0.0054612173698842525, -0.06238130107522011, 0.07603278011083603, 0.08943722397089005, 0.07246919721364975, -0.05521347001194954, 0.0004716753901448101, 0.06398362666368484, 0.005442820023745298, -0.12187465280294418], [0.005505362059921026, -0.06299766898155212, 0.03605265915393829, 0.08321267366409302, 0.041355062276124954, -0.09425675123929977, -0.08161428570747375, 0.01394046749919653, -0.009193755686283112, -0.0551607571542263], [-0.06980958580970764, -0.09677277505397797, 0.13223250210285187, 0.07089979201555252, -0.023249445483088493, 0.02563277631998062, 0.011441092938184738, 0.05826225131750107, -0.09416095912456512, -0.14797161519527435], [-0.01986110955476761, 0.05188354477286339, -0.043290216475725174, -0.009824903681874275, -0.05481277033686638, 0.027058644220232964, -0.014455362223088741, 0.05977485701441765, 0.05815989524126053, 0.03341836482286453], [-0.03196149691939354, 0.04322332516312599, -0.04105045273900032, -0.0032586148008704185, -0.02672470174729824, 0.009752263315021992, 0.025107821449637413, 0.060921620577573776, 0.004704600665718317, 0.0042896512895822525], [-0.011981278657913208, 0.008960350416600704, -0.08938667923212051, -0.09516846388578415, 0.020838821306824684, 0.0591748021543026, 0.033271029591560364, -0.006253200117498636, 0.043643753975629807, 0.018586277961730957], [0.030037274584174156, 0.04813500493764877, 0.007442102767527103, -0.09709002822637558, 0.04206321761012077, 0.04742016643285751, -0.005992818158119917, 0.009630439803004265, -0.01963094063103199, 0.04148333892226219], [-0.07503529638051987, -0.10034119337797165, 0.017183592543005943, 0.026558909565210342, 0.035432055592536926, -0.06996828317642212, -0.06358397006988525, 0.09552155435085297, -0.03128674998879433, -0.08117589354515076], [-0.029903855174779892, 0.0695250928401947, -0.005368595477193594, -0.03426084667444229, 0.002715223701670766, 0.07558426260948181, 0.007726183161139488, 0.034830786287784576, -0.015155334025621414, 0.06348194926977158], [-0.09485524892807007, -0.017879102379083633, 0.0569637194275856, 0.14951147139072418, 0.08703214675188065, -0.07253236323595047, -0.005747050978243351, 0.07642436772584915, -0.0011815031757578254, -0.09336289763450623], [-0.1136149987578392, -0.06581835448741913, 0.07078975439071655, 0.13666273653507233, -0.0010251719504594803, 0.01889653131365776, -0.07167932391166687, 0.003828038927167654, -0.0075301676988601685, -0.054128214716911316], [-0.09562262892723083, -0.0589233823120594, 0.0575086809694767, 0.09178413450717926, -0.015427310019731522, 0.0052841161377727985, -0.004914599470794201, 0.0945541113615036, -0.004799790680408478, -0.08684444427490234], [-0.07227295637130737, -0.13898538053035736, 0.13564831018447876, 0.19244395196437836, 0.01304463017731905, 0.041690386831760406, -0.10329141467809677, 0.04226861149072647, -0.055177636444568634, -0.03774202615022659], [-0.028635432943701744, 0.06035691499710083, -0.06202251836657524, -0.018503814935684204, -0.020129326730966568, -0.06265193969011307, -0.022229231894016266, 0.048501040786504745, -0.005853337701410055, -0.011514084413647652], [0.022367948666214943, 0.05017601326107979, -0.06579918414354324, -0.09444009512662888, 0.06909225881099701, 0.012727295979857445, 0.04829183965921402, -0.040850140154361725, 0.0019809880759567022, 0.011370868422091007], [-0.028609370812773705, 0.09586380422115326, -0.08627071976661682, -0.0644916445016861, 0.06736688315868378, -0.004183534067124128, 0.026748400181531906, -0.0107888737693429, 0.03511400893330574, 0.06970416009426117], [0.07095863670110703, -0.008209189400076866, -0.03791317716240883, -0.06307598948478699, 0.008254259824752808, 0.0056509291753172874, -0.03646380081772804, 0.009193363599479198, 0.016129715368151665, -0.012642022222280502], [0.009997248649597168, -0.027947956696152687, 0.025186745449900627, 0.06461293995380402, -0.004493765998631716, -0.015957564115524292, -0.06130657345056534, 0.007188519462943077, -0.0040357341058552265, -0.06977047771215439], [0.06639986485242844, 0.033229321241378784, -0.11459848284721375, -0.012642411515116692, 0.01660783402621746, -0.010055446065962315, -0.012568709440529346, 0.055269040167331696, 0.024402907118201256, 0.0503200888633728], [0.022367799654603004, -0.060986459255218506, 0.05030123144388199, 0.08505641669034958, -0.057567521929740906, 0.005906959064304829, -0.07438528537750244, 0.04790783300995827, -0.014061644673347473, -0.12696081399917603], [0.0029777688905596733, -0.07418492436408997, 0.09220992028713226, 0.12416966259479523, -0.007911445572972298, -0.0379522331058979, -0.10516079515218735, -0.01036183163523674, -0.026448307558894157, -0.12170952558517456], [-0.05304858833551407, -0.03992366045713425, 0.1178939938545227, 0.15226353704929352, 0.040101222693920135, 0.020588969811797142, -0.053527992218732834, 0.051486093550920486, -0.030792690813541412, -0.03434151038527489], [0.02181299962103367, -0.10437261313199997, 0.12548403441905975, 0.11446864157915115, -0.016546789556741714, -0.05153151601552963, -0.05516365170478821, -0.0353890024125576, 0.03637028485536575, -0.02724434994161129], [0.03329618647694588, 0.045991893857717514, -0.012612804770469666, -0.03173211216926575, 0.02252195216715336, 0.017251040786504745, 0.033231377601623535, 0.0008890039753168821, -0.0843501016497612, -0.05044176056981087], [-0.046928249299526215, 0.05607832968235016, -0.06779612600803375, 0.023128831759095192, 0.1237902119755745, -0.07051053643226624, 0.08342654258012772, 0.008211210370063782, -0.01702933758497238, 0.04766915366053581], [-0.0672226995229721, -0.027541428804397583, -0.07438157498836517, -0.052677661180496216, 0.11997301131486893, -0.019875040277838707, 0.06626208126544952, 0.08865636587142944, 0.00306875491514802, 0.08395252376794815], [5.024159327149391e-05, 0.006765211001038551, -0.08440350741147995, -0.06758109480142593, 0.0206468403339386, 0.01010391116142273, 0.001954729901626706, 0.05323057994246483, -0.037292271852493286, 0.0192821454256773], [-0.049123045057058334, -0.03130891174077988, 0.06080260127782822, 0.05880756303668022, 0.023427888751029968, 0.017789198085665703, -0.08592795580625534, 0.00031965161906555295, 0.012542803771793842, -0.007728688884526491], [-0.07323134690523148, -0.045898716896772385, -0.08522084355354309, 0.026515820994973183, 0.07512132078409195, -0.037318479269742966, 0.06889569759368896, -0.011141521856188774, -0.05851097032427788, 0.04928668588399887], [0.03784022480249405, 0.0015703568933531642, 0.06755509227514267, 0.12824147939682007, 0.03644769266247749, -0.07681523263454437, -0.12510861456394196, 0.011299083940684795, 0.007008026819676161, -0.07251475751399994], [0.02693629264831543, -0.05527656152844429, 0.08938612788915634, 0.06365331262350082, -0.01049095205962658, -0.006951574236154556, -0.1215594932436943, 0.011908010579645634, 0.015560509636998177, 0.050210777670145035], [0.00425880029797554, 0.004849349148571491, 0.0585654117166996, 0.14732980728149414, -0.014103955589234829, 0.017956525087356567, -0.056490350514650345, -0.04427805915474892, 0.07628986239433289, -0.05382238328456879], [0.03345930948853493, -0.011348145082592964, 0.11761876940727234, 0.06546919792890549, -0.09416317194700241, -0.09476029872894287, -0.019745413213968277, -0.1661112755537033, 0.10194841772317886, 0.017640531063079834], [-0.09658616781234741, 0.01278027892112732, -0.05328221619129181, -0.016309592872858047, 0.019430141896009445, -0.10695450752973557, 0.061503078788518906, 0.02579815872013569, -0.10654289275407791, 0.022631578147411346], [-0.05781744793057442, -0.002358911791816354, -0.015561023727059364, -0.03845144063234329, 0.04593591019511223, -0.07608185708522797, 0.06977467238903046, 0.15847305953502655, -0.14622381329536438, -0.05890990421175957], [-0.13168899714946747, -0.06143440306186676, -0.13112632930278778, -0.1048390194773674, 0.07649029791355133, -0.08936093002557755, 0.15264470875263214, 0.14855755865573883, -0.05713542923331261, -0.013693833723664284], [-0.02851410023868084, -0.007683784235268831, -0.09343703836202621, -0.008154163137078285, 0.07430410385131836, -0.05475698411464691, 0.10485765337944031, 0.07939205318689346, -0.08049294352531433, 0.004173769615590572], [-0.026720916852355003, -0.06425494700670242, 0.005308505613356829, 0.10623727738857269, -0.06130441278219223, -0.12558558583259583, -0.05154469236731529, -0.10434568673372269, 0.10880393534898758, 0.015455419197678566], [-0.05453260615468025, -0.06117880344390869, -0.0625273808836937, 0.04602676257491112, 0.0703558549284935, -0.022876756265759468, 0.0946400910615921, 0.12421154230833054, -0.12081306427717209, 0.03395459055900574], [-0.0033409874886274338, -0.018887551501393318, 0.04324076324701309, 0.10834191739559174, -0.08207706362009048, -0.075209841132164, -0.09940988570451736, -0.14715351164340973, 0.1260054111480713, 0.045778900384902954], [0.03383787348866463, -0.014429221861064434, 0.07735197991132736, 0.06666884571313858, -0.140350341796875, -0.03729182109236717, -0.03867116570472717, -0.1565895974636078, 0.05295674502849579, 0.15055270493030548], [0.06670304387807846, -0.0720929428935051, 0.030630281195044518, 0.04475494846701622, -0.049347762018442154, -0.09891396015882492, -0.0026297757867723703, -0.1287536919116974, 0.1297273188829422, 0.06803259998559952], [0.09108560532331467, -0.014254271052777767, 0.07165704667568207, 0.05152437835931778, -0.116250179708004, -0.062484994530677795, -0.039772987365722656, -0.11034952849149704, 0.1438254565000534, 0.1567431092262268], [-0.004589340649545193, 0.00948315393179655, -0.07850616425275803, 0.00035291112726554275, 0.01582481525838375, -0.052011098712682724, 0.0267504770308733, 0.11719632893800735, -0.033960018306970596, 0.0352633073925972], [-0.10360725224018097, 0.10759148001670837, -0.10851886868476868, -0.07239794731140137, 0.09910617768764496, -0.03495268151164055, 0.13509929180145264, 0.14084938168525696, -0.13563744723796844, -0.06956879794597626], [-0.11292833089828491, 0.054825711995363235, -0.16008281707763672, -0.11661047488451004, 0.11367038637399673, -0.08652207255363464, 0.10040570050477982, 0.12672407925128937, -0.20376704633235931, 0.014417869970202446], [-0.0638999193906784, 0.004307751543819904, -0.07068154960870743, 0.007683564908802509, 0.034124087542295456, -0.06450461596250534, 0.03361188992857933, 0.06887378543615341, -0.15329276025295258, 0.053898196667432785], [0.0866970345377922, -0.009452387690544128, 0.048416826874017715, 0.06300891190767288, -0.0031823397148400545, -0.06396208703517914, -0.04045083746314049, -0.06328492611646652, 0.07938040047883987, 0.0194851066917181], [-0.012041301466524601, 0.026546617969870567, -0.08155157417058945, -0.05173782631754875, 0.006963917054235935, -0.005910989362746477, 0.06165368854999542, 0.032999586313962936, -0.059100743383169174, 0.010677125304937363], [0.07949129492044449, -0.08225657045841217, -0.017146378755569458, -0.003005805192515254, -0.07302816212177277, -0.036888815462589264, -0.054665639996528625, -0.1269354224205017, 0.10751843452453613, 0.14907248318195343], [0.057171884924173355, -0.09566552191972733, 0.03663738816976547, 0.005637540016323328, -0.03522016853094101, -0.022870222106575966, -0.07860783487558365, -0.08213590085506439, 0.12589621543884277, 0.09941039234399796], [0.061882134526968, -0.031522151082754135, 0.03934788331389427, 0.034343063831329346, 0.009053419344127178, -0.01684814877808094, -0.05090208724141121, -0.10939054936170578, 0.07313404232263565, 0.09246349334716797], [0.06763816624879837, -0.06980295479297638, 0.04363439977169037, -0.041209664195775986, 0.02097509801387787, 0.026371631771326065, -0.05210045352578163, -0.09201614558696747, 0.07657508552074432, 0.058049313724040985], [0.041387416422367096, -0.019371788948774338, -0.04764204099774361, -0.009272229857742786, 0.057091616094112396, 0.0030454378575086594, -0.04176140949130058, 0.024060029536485672, -0.031584206968545914, 0.01371794007718563], [-0.024692663922905922, 0.10264378786087036, -0.045231372117996216, 0.025917282328009605, 0.10237841308116913, -0.057614099234342575, -0.027217190712690353, 0.14867755770683289, -0.12188322842121124, 0.042058829218149185], [-0.08190223574638367, 0.05225032567977905, -0.08573461323976517, -0.06384070962667465, 0.05425948277115822, -0.07987654209136963, -0.0074930088594555855, 0.15637484192848206, -0.10026852041482925, 0.06926631927490234], [-0.00256066070869565, 0.06790792942047119, -0.07469502091407776, -0.01694934070110321, 0.046921372413635254, -0.0967593789100647, -0.03977249935269356, 0.04665624722838402, -0.06751113384962082, 0.007025925442576408], [0.07676278799772263, -0.017840133979916573, 0.014524209313094616, -0.03133389353752136, 0.06866349279880524, 0.01220800168812275, -0.06220218911767006, -0.05365103483200073, 0.06848778575658798, -0.04169706627726555], [-0.053767766803503036, 0.07139711827039719, -0.06397392600774765, -0.058139368891716, 0.040705885738134384, -0.028886845335364342, 0.03686962276697159, 0.11416720598936081, 0.003536151722073555, 0.023413434624671936], [0.07099942862987518, 0.02150830812752247, -0.049227096140384674, -0.031224770471453667, -0.048554543405771255, -0.004961691796779633, -0.0333574153482914, -0.1066400483250618, 0.06650128215551376, -0.003760717110708356], [0.08387969434261322, -0.019619295373558998, 0.031070569530129433, -0.08998414129018784, -0.03568146005272865, 0.003513616742566228, -0.08787594735622406, -0.09511774033308029, 0.03762345761060715, 0.06635212153196335], [0.026025565341114998, -0.04841611161828041, 0.017842160537838936, 0.002171606756746769, -0.013902002945542336, -0.00969570130109787, 0.0006577492458745837, -0.09827450662851334, 0.017447546124458313, 0.019520007073879242], [0.0636536031961441, 0.02968604490160942, 0.01291692815721035, -0.003575935959815979, 0.09523825347423553, 0.10944656282663345, -0.02147759683430195, -0.07212352752685547, -0.014811570756137371, -0.08190174400806427], [-0.03343338519334793, -0.053029924631118774, 0.04437196999788284, 0.047915853559970856, -0.03544117882847786, -0.02271103858947754, -0.11225749552249908, 0.08631817996501923, -0.05688266456127167, 0.05123250186443329], [-0.02008068934082985, -0.06236926466226578, 0.018129313364624977, 0.012319608591496944, 0.01940399594604969, -0.026958042755723, -0.062280118465423584, 0.07497057318687439, -0.036893412470817566, 0.04988763853907585], [-0.0702725499868393, -0.09166580438613892, -0.010103166103363037, -0.0445520281791687, -0.01914438046514988, -0.005156567320227623, -0.026363901793956757, 0.14844001829624176, -0.0280761681497097, 0.03243266046047211], [0.006610032636672258, -0.02336607500910759, -0.05629485100507736, -0.016304627060890198, -0.026008514687418938, 0.0217494685202837, -0.035878222435712814, 0.022324148565530777, -0.043417517095804214, 0.02666056901216507], [0.043459199368953705, -0.012823441997170448, -0.0902552679181099, -0.0008132404182106256, 0.0010202153353020549, 0.02555532194674015, -0.001037210808135569, -0.002634519711136818, -0.007006913889199495, 0.013689903542399406], [0.029428239911794662, 0.005573751404881477, 0.023620547726750374, 0.014418389648199081, 0.0805346742272377, 0.0069841546937823296, -0.05552633851766586, 0.10518981516361237, 0.04861621558666229, -0.016883332282304764], [-0.02922922931611538, 0.005417617503553629, -0.08036327362060547, -0.041821811348199844, -0.021567923948168755, 0.027924759313464165, -0.017878102138638496, -0.019712943583726883, 0.02140212245285511, -0.08870404213666916], [-0.01112180482596159, -0.016596652567386627, -0.08984482288360596, -0.07461849600076675, 0.050536688417196274, 0.0642528310418129, -0.04006297141313553, -0.06604401767253876, 0.08526256680488586, -0.09515140950679779], [0.0016007955418899655, 0.05667494982481003, 0.01971462182700634, -0.019025404006242752, 0.050392329692840576, 0.07623432576656342, 0.019531967118382454, -0.09774396568536758, -0.02567926049232483, -0.07087571918964386], [0.023968180641531944, 0.02093527652323246, -0.07502548396587372, -0.03472595661878586, 0.13681285083293915, 0.1509082317352295, 0.012627598829567432, 0.017185626551508904, -0.025211209431290627, -0.0971999317407608], [0.003182751592248678, -0.0651698112487793, 0.016302308067679405, 0.06443610787391663, -0.03015771135687828, -0.02614145167171955, -0.037123069167137146, 0.017342718318104744, -0.00647863419726491, 0.0639033392071724], [-0.040093302726745605, -0.05942503362894058, 0.06970836222171783, 0.06999040395021439, 0.00597915006801486, -0.044366929680109024, -0.035296883434057236, 0.060877587646245956, 0.015666846185922623, 0.032875265926122665], [0.017139939591288567, -0.07993990182876587, 0.009592365473508835, -0.005437594372779131, -0.07250729203224182, -0.01604231260716915, -0.048388153314590454, 0.01869061402976513, -0.04914708808064461, 0.011823531240224838], [0.0409562923014164, -0.03612649813294411, -0.016344869509339333, 0.03652503713965416, 0.014528810046613216, 0.031462911516427994, 0.02336622029542923, 0.0923476368188858, 0.027486106380820274, 0.08469010144472122], [-0.004742192104458809, 0.06282692402601242, -0.0631578117609024, -0.03252603858709335, 0.12877929210662842, 0.017779767513275146, -0.05215819180011749, -0.047478944063186646, -0.057063061743974686, -0.03193184360861778], [0.049916546791791916, 0.02124680206179619, 0.051189523190259933, -0.013308159075677395, -0.03196137771010399, -0.010986357927322388, -0.07030155509710312, 0.025988446548581123, -0.05053550377488136, -0.013163255527615547], [0.04118960723280907, 0.01795431785285473, -0.03832060471177101, 0.004947228357195854, 0.13358919322490692, 0.0948440209031105, 0.008769966661930084, -0.07648171484470367, -0.04452745243906975, -0.12545982003211975], [-0.01667606830596924, 0.003986103925853968, -0.03846007212996483, -0.11355860531330109, 0.0948157086968422, 0.03353803604841232, 0.03796451538801193, 0.023877618834376335, 0.05338262766599655, -0.13642054796218872], [-0.01428884919732809, 0.08195788413286209, -0.03203213959932327, -0.09832780063152313, 0.13114044070243835, 0.1242402121424675, -0.03064500354230404, -0.07666955143213272, 0.05132826790213585, -0.09771713614463806], [-0.01586182415485382, 0.0018103389302268624, -0.0323370024561882, -0.06993312388658524, 0.134287491440773, 0.1584753543138504, 0.031896576285362244, -0.0709405466914177, -0.01949148438870907, -0.11733748018741608], [0.030515944585204124, 0.03995592147111893, 0.00021839881082996726, -0.022068066522479057, 0.0006057837163098156, -0.0567169226706028, -0.05023428052663803, 0.03885996714234352, -0.020160527899861336, 0.05523596704006195], [-0.025025291368365288, 0.042931679636240005, -0.02570362575352192, 0.04780763387680054, 0.006222770549356937, -0.06423293054103851, 0.026648489758372307, 0.055074743926525116, 0.010671049356460571, 0.0365731343626976], [-0.004569150507450104, -0.04317278042435646, 0.013643843121826649, -0.026929359883069992, -0.01889762282371521, -0.07803426682949066, -0.05649363622069359, 0.07389321178197861, 0.03741747513413429, 0.07340136170387268], [0.054109737277030945, -0.022989341989159584, 0.06418224424123764, -0.021595239639282227, -0.008393208496272564, -0.0663347914814949, -0.06165201961994171, 0.02994278073310852, 0.011569051072001457, -0.030064450576901436], [0.00040611348231323063, 0.03231962397694588, -0.04868205636739731, -0.09792576730251312, 0.14665904641151428, 0.07236894220113754, -0.01926317811012268, -0.06090768054127693, 0.0058891321532428265, -0.08129802346229553], [-0.028878936544060707, 0.0412466935813427, 0.029786398634314537, 0.032520096749067307, 0.012432578019797802, 0.012410370633006096, -0.037836186587810516, 0.052088554948568344, 0.014284607954323292, -0.027267972007393837], [-0.004960810299962759, 0.029792651534080505, -0.02216440439224243, -0.14355799555778503, 0.13360264897346497, 0.07119576632976532, -0.030227165669202805, -0.06313247233629227, 0.028007198125123978, -0.06785868108272552], [0.018842386081814766, 0.012809243984520435, -0.030066415667533875, -0.13694889843463898, 0.09909630566835403, 0.08721621334552765, -0.004145620856434107, 0.004088478162884712, -0.02516261488199234, -0.06329541653394699], [-0.032463833689689636, -0.024030478671193123, -0.07941198348999023, -0.09068088978528976, 0.08014264702796936, 0.056846484541893005, 0.054745566099882126, -0.023565946146845818, -0.007560155354440212, -0.11400062590837479], [-0.06268344819545746, -0.0468946136534214, -0.06838355213403702, -0.07597161829471588, 0.090161994099617, 0.061677053570747375, -0.0003448790230322629, 0.031139284372329712, 0.058092109858989716, -0.03695966303348541], [-0.00790471863001585, -0.03410430625081062, 0.0253131166100502, -0.03287703916430473, 0.008245077915489674, -0.0180677343159914, -0.018810074776411057, 0.048166047781705856, 0.03955681622028351, 0.03613947704434395], [-0.04479476436972618, -0.022684643045067787, -0.0353873185813427, 0.04203695431351662, 0.043157584965229034, 0.027781371027231216, 0.04402998089790344, 0.028419943526387215, -0.042107969522476196, -0.013463851064443588], [0.024930879473686218, -0.015827564522624016, -0.009185248054564, -0.02377326786518097, 0.021785972639918327, -0.04562697187066078, -0.00822565145790577, -0.03156866878271103, -0.006333827972412109, -0.008972501382231712], [0.04314187914133072, 0.02859605848789215, -0.0399831086397171, -0.047123443335294724, 0.0002454987552482635, 0.0625806599855423, -0.06113271042704582, 0.03207763656973839, -0.04603338614106178, -0.03808528557419777], [-0.015353480353951454, 0.03169076144695282, 0.016962438821792603, -0.03372441232204437, 0.05156900733709335, 0.0020205273758620024, 0.03409244120121002, -0.06495597213506699, 0.04394149407744408, -0.01273776963353157], [-0.00824486929923296, -0.040771160274744034, 0.027772923931479454, -0.060674164444208145, 0.038259357213974, 0.05095473676919937, -0.059093035757541656, 0.04105834290385246, 0.03448435291647911, -0.03714379668235779], [-0.04841984808444977, 0.012193415313959122, -0.05803665518760681, -0.03512601926922798, 0.06735990941524506, 0.09389015287160873, -0.016567029058933258, 0.02233629673719406, -0.006657223217189312, -0.0880032405257225], [0.0018210876733064651, -0.06011170893907547, 0.026045773178339005, -0.010221453383564949, 0.02060927078127861, 0.11617498099803925, -0.029230842366814613, 0.006209943909198046, 0.046782590448856354, -0.04488030821084976], [-0.07850345969200134, 0.02799217589199543, 0.021311046555638313, -0.025509346276521683, 0.01721273921430111, 0.07935252785682678, -0.039609916508197784, 0.0040538860484957695, 0.040279682725667953, -0.015803568065166473], [0.003475403180345893, 0.0682847648859024, 0.025200797244906425, 0.05909231677651405, 0.0168608445674181, -0.05198129639029503, 0.0170192439109087, -0.023418830707669258, -0.04057064652442932, -0.05848665535449982], [0.0024568773806095123, 0.03168743476271629, 0.04329890385270119, -0.021084405481815338, 0.00689699174836278, -0.01367922406643629, 0.02434181235730648, -0.04626307263970375, -0.06593185663223267, -0.004938552156090736], [-0.05858911946415901, -0.01573706604540348, 0.01697084866464138, -0.02908143773674965, -0.037513695657253265, -0.04723409190773964, 0.04334651306271553, 0.043845608830451965, 0.013687307015061378, 0.013213379308581352], [0.0028938695322722197, -0.03861264884471893, 0.040741030126810074, -0.021983051672577858, 0.03667495399713516, 0.01859874092042446, -0.022986868396401405, 0.019448718056082726, -0.06016445904970169, 0.008209597319364548], [-0.0135011225938797, 0.002662908285856247, -0.03057776391506195, 0.0524846613407135, 0.02322922646999359, 0.02497725561261177, 0.044015344232320786, 0.05760916322469711, 0.0023432967718690634, -0.01967657171189785], [0.0025810205843299627, 0.006655508186668158, -0.046408165246248245, 0.06380601227283478, -0.05857174098491669, -0.01342395506799221, -0.04840967431664467, 0.057342637330293655, 0.02443290501832962, -0.003053719410672784], [0.028612639755010605, 0.04113126918673515, -0.01792910508811474, 0.024370046332478523, -0.0374346598982811, -0.010753273032605648, -0.05245498567819595, -0.023602904751896858, -0.06903786957263947, -0.00933760404586792], [0.04971875250339508, -0.04978532716631889, 0.05180618166923523, 0.03227384015917778, 0.0270878616720438, 0.045689892023801804, -0.009056257084012032, -0.014040565118193626, -0.02213013730943203, 0.041640862822532654], [-0.00846486072987318, 0.031234601512551308, 0.014233946800231934, 0.07520253211259842, 0.014469425193965435, -0.030711263418197632, -0.0159662663936615, 0.027442567050457, -0.02345242165029049, -0.0020333505235612392], [-0.06018461659550667, -0.03323281556367874, -0.049368903040885925, -0.023475583642721176, -0.02840946801006794, 0.03551721200346947, -0.006910945288836956, 0.06876713782548904, -0.013012010604143143, 0.001999742118641734], [-0.07118640840053558, -0.0465099960565567, 0.023458149284124374, 0.08778370916843414, 0.031880881637334824, -0.10516867786645889, 0.016117751598358154, 0.07613947987556458, 0.017347730696201324, -0.09729659557342529], [0.059005312621593475, -0.027031969279050827, -0.009548945352435112, -0.022887976840138435, -0.04492183402180672, 0.010969480499625206, 0.04826324060559273, 0.016688428819179535, -0.04183655604720116, 0.030293229967355728], [0.0022939725313335657, 0.018237732350826263, -0.004202473908662796, -0.034592196345329285, -0.01423601433634758, -0.02883980982005596, -0.019146928563714027, -0.03780243918299675, -0.06683043390512466, 0.005774784833192825], [-0.05208185315132141, -0.024848615750670433, -0.009144117124378681, 0.013366218656301498, 0.05014786124229431, -0.007367418147623539, 0.058197733014822006, -0.021153664216399193, 0.04801180213689804, 0.03364177048206329], [0.04177228361368179, -0.004748551174998283, -0.008271600119769573, 0.004867157898843288, -0.021721383556723595, -0.01061700377613306, 0.02350495010614395, 0.02816295064985752, -0.03146624565124512, -0.03373488038778305], [-0.0040229992009699345, -0.039431750774383545, 0.06764371693134308, 0.1200728490948677, -0.04289022833108902, -0.05532475933432579, 0.014625495299696922, 0.05003632977604866, -0.005875130649656057, -0.053026698529720306], [0.052209459245204926, -0.04054887965321541, 0.009067241102457047, -0.04811466857790947, 0.013097751885652542, 0.05207570269703865, -0.040171075612306595, -0.04924315586686134, -0.007408238481730223, -0.009380153380334377], [0.013523843139410019, 0.045759957283735275, 0.01472616195678711, 0.11797448247671127, 0.05819384381175041, -0.04464973881840706, -0.07728809863328934, 0.02725057676434517, -0.0749209001660347, -0.10765933245420456], [0.00990742165595293, 0.01088008377701044, 0.07163532823324203, 0.13444247841835022, -0.05044255405664444, -0.0882953405380249, -0.06134443357586861, 0.0941612645983696, -0.013800178654491901, 0.0022609704174101353], [0.008166496641933918, 0.04494578018784523, 0.07712844759225845, 0.12436265498399734, -0.04900182783603668, -0.04146929457783699, -0.061099447309970856, 0.015646444633603096, -0.06926290690898895, -0.08572942018508911], [-0.007950210012495518, -0.0884164348244667, 0.039037074893713, 0.16266854107379913, -0.004748027306050062, -0.01030041929334402, -0.00977409165352583, 0.12357325106859207, -7.03324330970645e-05, -0.10548242181539536], [-0.021347500383853912, 0.0768255889415741, 0.002963040489703417, -0.06596396118402481, -0.01870971918106079, 0.025165950879454613, 0.00916379690170288, 0.026824867352843285, -0.06385770440101624, 0.07247989624738693], [0.057258158922195435, -0.012749552726745605, -0.00943931844085455, -0.07828328758478165, -0.04143676161766052, 0.03706057742238045, 0.012040004134178162, -0.02137625962495804, 0.001669666962698102, 0.05494803562760353], [0.04497193545103073, -0.0072673531249165535, 0.015133903361856937, -0.051443055272102356, -0.0332583449780941, 0.028339870274066925, -0.03541247546672821, -0.0735059604048729, 0.012829652056097984, 0.020753707736730576], [0.03610018640756607, 0.051283739507198334, -0.030108878389000893, -0.09332442283630371, 0.03649383410811424, 0.07115691900253296, 0.02704000473022461, 0.02274405024945736, 0.03388727083802223, 0.05236168950796127], [-0.0891830250620842, -0.0017863523680716753, 0.07520151138305664, 0.09742859750986099, -0.029122117906808853, -0.07035939395427704, -0.10084434598684311, 0.020177047699689865, 0.02315548248589039, -0.025032339617609978], [0.06404110044240952, -0.003069736761972308, 0.031331662088632584, -0.0983349084854126, -0.05566072091460228, 0.053216226398944855, 0.047927238047122955, -0.026023028418421745, 0.006692230701446533, 0.06421729922294617], [-0.08895151317119598, -0.017439648509025574, 0.10129877924919128, 0.1365063339471817, -0.05828523263335228, -0.0781422033905983, -0.10703103989362717, 0.12703454494476318, -0.04563542827963829, -0.1290251761674881], [-0.06703056395053864, -0.039964113384485245, 0.04022093117237091, 0.05343972519040108, -0.03293714299798012, -0.05959407612681389, -0.023836681619286537, 0.07918704301118851, -0.049950048327445984, -0.031492073088884354], [-0.04209231585264206, -0.035095781087875366, 0.06463334709405899, 0.11243526637554169, 0.00034778384724631906, -0.0770619660615921, -0.041823625564575195, 0.034406714141368866, 0.029689645394682884, -0.05796774849295616], [-0.0042284769006073475, -0.04815306141972542, 0.08581824600696564, 0.11643163859844208, 0.03004475124180317, -0.0395878329873085, -0.10063869506120682, 0.0918540433049202, 0.058996401727199554, -0.1057848259806633], [0.06041010469198227, 0.04657522588968277, 0.02019549161195755, 0.008483638055622578, 0.009951767511665821, -0.042193688452243805, -0.03396586328744888, 0.016362057998776436, -0.038118209689855576, 0.08413773030042648], [0.07022658735513687, 0.05040793493390083, 0.015008995309472084, 0.018906880170106888, -0.020304076373577118, -0.07387936860322952, 0.020849911496043205, -0.05081246420741081, -0.01916145719587803, 0.06065555661916733], [0.06917515397071838, 0.08841846138238907, -0.020128145813941956, -0.03132622316479683, -0.018737668171525, -0.08403253555297852, 0.03301222622394562, -0.11423488706350327, -0.026296095922589302, 0.11680792272090912], [0.053773436695337296, -0.0050823683850467205, -0.03721887245774269, -0.021183665841817856, -0.011585243046283722, -0.01283958088606596, -0.0005048714810982347, -0.10439141094684601, -0.06679347157478333, 0.10208891332149506], [-0.08382290601730347, -0.07725286483764648, 0.10193989425897598, 0.07652006298303604, -0.025183742865920067, -0.013519241474568844, -0.0029338698368519545, 0.06488551199436188, 0.02549678273499012, -0.0643564835190773], [0.026691418141126633, 0.003488671500235796, -0.07317332923412323, -0.07772239297628403, -0.005135418847203255, -0.012186205014586449, -0.02911042794585228, -0.04656224697828293, -0.056878913193941116, 0.05152883380651474], [-0.01998196355998516, -0.08309134840965271, 0.05882532522082329, 0.14092674851417542, 0.019023830071091652, 0.03065456822514534, 0.0032015391625463963, 0.06258281320333481, 0.005021624267101288, -0.04920777305960655], [0.007489202544093132, -0.06850234419107437, 0.08372778445482254, 0.09857850521802902, 0.03956269100308418, 0.020561009645462036, -0.02098139002919197, 0.1586398035287857, 0.057214219123125076, -0.03801697865128517], [0.0006474815891124308, -0.06135439872741699, 0.04855960234999657, 0.10845187306404114, -0.045755792409181595, -0.08448892086744308, -0.008533937856554985, 0.10341780632734299, 0.0005771854775957763, -0.08404476940631866], [-0.0743674635887146, -0.19626592099666595, 0.018572364002466202, 0.02381000854074955, -0.07224467396736145, 0.03134246915578842, -0.077346071600914, 0.1411617398262024, 0.10867130011320114, -0.0028651473112404346], [0.02561022900044918, 0.0458611436188221, -0.036268867552280426, -0.058447640389204025, 0.027985872700810432, -0.13048815727233887, 0.007906165905296803, -0.09257322549819946, -0.03736640885472298, -0.0533505342900753], [0.019969025626778603, 0.08420407027006149, 0.04904939606785774, -0.05695865675806999, 0.06768597662448883, -0.13879556953907013, 0.06890511512756348, -0.13076648116111755, -0.06926535069942474, -0.022884996607899666], [-0.0007753995596431196, 0.10379203408956528, -0.0037072550039738417, 0.019377660006284714, 0.07225009799003601, -0.08830840140581131, 0.10253281891345978, -0.09054014086723328, 0.02868662402033806, 0.022270288318395615], [0.041907697916030884, 0.03907086327672005, -0.0382070317864418, -0.06688021868467331, 0.08048848062753677, -0.10380513966083527, 0.048490650951862335, -0.08966530114412308, -0.018596189096570015, -0.009514656849205494], [-0.044653963297605515, -0.1426534801721573, 0.04771778732538223, 0.0517534576356411, 0.001685436232946813, -0.02500499039888382, -0.06295067071914673, 0.0903148353099823, 0.020178785547614098, -0.03543696179986], [0.035337310284376144, 0.12083059549331665, -0.008689993992447853, -0.013195241801440716, 0.06779639422893524, -0.1568133383989334, 0.08408041298389435, -0.029489945620298386, -0.024594826623797417, 0.029055146500468254], [-0.07953259348869324, -0.10588429868221283, 0.020048532634973526, 0.02717094123363495, -0.05477752536535263, 0.03953773155808449, -0.06366458535194397, 0.04872481897473335, 0.033341795206069946, -0.029314693063497543], [-0.09595435112714767, -0.1838861107826233, 0.05540641397237778, -0.017670152708888054, -0.05413110926747322, -0.0216692965477705, -0.09439343214035034, 0.06515378504991531, 0.057335324585437775, 0.017468048259615898], [-0.05478890240192413, -0.06922030448913574, 0.015968795865774155, 0.07708005607128143, 0.013123780488967896, -0.04210362210869789, -0.10581289231777191, 0.10602744668722153, 0.0783546045422554, -0.08198027312755585], [-0.009460282512009144, -0.20882543921470642, 0.04660407826304436, -0.008658798411488533, -0.037071213126182556, -0.017590569332242012, -0.12853263318538666, 0.028746657073497772, 0.09834141284227371, 0.18484392762184143], [0.010067751631140709, -0.035341762006282806, -0.003295101225376129, 0.014918670058250427, 0.127602219581604, -0.03578449785709381, 0.11335406452417374, -0.07257360965013504,