{"conv_1_1": {"kernel": [[[[-0.06578180938959122, -0.40988531708717346, -0.44710734486579895, -0.42372792959213257, 0.10207366943359375, 0.5763611197471619, -0.06872733682394028, -0.6071835160255432, -0.21827347576618195, -0.6955338716506958]], [[0.033853527158498764, -0.2690385580062866, -0.4020290970802307, -0.34484463930130005, 0.35313957929611206, 0.5760488510131836, -0.09805832803249359, -0.6290253400802612, -0.1403636634349823, -0.19509680569171906]], [[0.1182590201497078, 0.014160393737256527, -0.001331536564975977, -0.20001977682113647, 0.6314753293991089, 0.2671689987182617, -0.10894216597080231, -0.35481762886047363, -0.2062416523694992, -0.21199169754981995]], [[0.11444690823554993, -0.03035440854728222, 0.4273988604545593, -0.13919709622859955, 0.6834842562675476, 0.09183528274297714, 0.09426097571849823, -0.24182692170143127, -0.015259776264429092, -0.07339157164096832]], [[0.3128284215927124, 0.08206024020910263, 0.5370915532112122, -0.1552577018737793, 0.5410545468330383, 0.2934790253639221, 0.34812188148498535, 0.010265922173857689, -0.08869099617004395, -0.08030987530946732]]], [[[-0.4988366663455963, 0.04264024645090103, -0.1834600567817688, -0.06530597805976868, 0.363223135471344, 0.26709723472595215, -0.3484090566635132, -0.28820717334747314, -0.590453028678894, 0.09123075008392334]], [[-0.41665416955947876, 0.20441041886806488, 0.2963605225086212, 0.27430984377861023, 0.5981533527374268, 0.19139379262924194, -0.5865660905838013, -0.16613885760307312, -0.560407817363739, 0.258537620306015]], [[-0.351522296667099, 0.32490500807762146, 0.501941978931427, 0.15552116930484772, 0.8820182085037231, -0.21110591292381287, -0.33721673488616943, 0.40421557426452637, -0.49211421608924866, 0.2268519401550293]], [[-0.3662051558494568, 0.3342534303665161, 0.8450019359588623, 0.4196583926677704, 0.7653485536575317, -0.35870125889778137, -0.3075461983680725, 0.5297550559043884, -0.560316264629364, 0.32730624079704285]], [[-0.14715225994586945, 0.42202261090278625, 0.938542366027832, 0.3035317659378052, 0.47598597407341003, -0.2844700217247009, 0.13963772356510162, 0.7640852332115173, -0.398337721824646, 0.29861414432525635]]], [[[-0.44691747426986694, 0.3227244019508362, -0.5474216341972351, 0.4152470529079437, 0.11759036034345627, 0.1354043185710907, -0.40112990140914917, -0.11782462894916534, -0.3762718737125397, 0.3251177966594696]], [[-0.6728195548057556, 0.5251242518424988, 0.10542774200439453, 0.3773730397224426, 0.4446040689945221, -0.3509393632411957, -0.5374067425727844, 0.35303962230682373, -0.47619694471359253, 0.3613230586051941]], [[-0.6713249683380127, 0.6129941940307617, 0.6520140171051025, 0.5578994154930115, 0.5356165766716003, -0.4509052336215973, -0.5484223365783691, 0.540277361869812, -0.53175288438797, 0.5526126623153687]], [[-0.45934349298477173, 0.45568186044692993, 0.7877046465873718, 0.6359087824821472, 0.17084941267967224, -0.6574181318283081, -0.25540024042129517, 0.7460028529167175, -0.26927024126052856, 0.6382244229316711]], [[-0.33997535705566406, 0.26150065660476685, 0.47277864813804626, 0.32124969363212585, -0.0886891707777977, -0.5798220634460449, 0.0031006622593849897, 0.7295212149620056, -0.09104537218809128, 0.5776441693305969]]], [[[-0.3505208492279053, 0.3202241361141205, -0.6946378350257874, 0.3655952513217926, -0.22471675276756287, 0.10280795395374298, -0.18285682797431946, -0.6104425191879272, -0.031342800706624985, 0.12137307226657867]], [[-0.366624116897583, 0.5274891257286072, -0.19440172612667084, 0.381825715303421, -0.1455560177564621, -0.2036806344985962, -0.4861098527908325, 0.048844750970602036, -0.36831599473953247, 0.33406519889831543]], [[-0.2796095907688141, 0.4145728349685669, 0.2321217805147171, 0.4001794159412384, -0.07525945454835892, -0.33196812868118286, -0.2840464115142822, 0.43089666962623596, -0.3054603338241577, 0.5367660522460938]], [[-0.09690320491790771, 0.19037680327892303, 0.2753375172615051, 0.25771385431289673, -0.4106248915195465, -0.5920851230621338, -0.04824511706829071, 0.5512226223945618, 0.013831348158419132, 0.18749892711639404]], [[0.11313766986131668, -0.0701027661561966, 0.04046938195824623, 0.1148875504732132, -0.72152179479599, -0.21773160994052887, 0.19253045320510864, 0.33666396141052246, 0.38239508867263794, 0.2668546140193939]]], [[[0.030378935858607292, 0.20133373141288757, -0.6376974582672119, 0.14987410604953766, -0.6230767369270325, 0.3002316355705261, -0.11607445031404495, -0.6655850410461426, 0.14469997584819794, -0.05052785947918892]], [[-0.05266038328409195, 0.19877976179122925, -0.4966396391391754, 0.2624518573284149, -0.4452977776527405, -0.12349246442317963, -0.22162042558193207, -0.28355899453163147, 0.17951631546020508, 0.0430527962744236]], [[0.18448659777641296, -0.08786068111658096, -0.21246935427188873, 0.1884257048368454, -0.7040135264396667, -0.45967355370521545, -0.04011841118335724, 0.016177048906683922, 0.24494124948978424, -0.05131751671433449]], [[0.2364148050546646, -0.20152166485786438, -0.38032281398773193, -0.07978827506303787, -0.8542147278785706, -0.3168658912181854, 0.21651199460029602, -0.08658449351787567, 0.5148357152938843, 0.045951809734106064]], [[0.4637068510055542, -0.4053018391132355, -0.7801356911659241, -0.4357967972755432, -0.7647402882575989, -0.20467016100883484, 0.3665640652179718, -0.296221524477005, 0.6238479614257812, -0.15017294883728027]]]], "bias": [0.2712320387363434, -0.2870675325393677, -0.2884732484817505, -0.30063241720199585, -0.3406566381454468, 0.19139878451824188, 0.190562441945076, -0.30261656641960144, 0.27510660886764526, -0.3287053406238556], "kernel_shape": [5, 5, 1, 10], "bias_shape": [10]}, "conv_1_2": {"kernel": [[[[-0.1836705058813095, 0.16659274697303772, -0.003852422581985593, 0.09980539232492447, -0.26287782192230225, -0.13088129460811615, -0.055043645203113556, -0.27989545464515686, -0.1950092315673828, -0.19547973573207855], [0.016421141102910042, -0.1005597934126854, -0.005522670689970255, -0.12376923859119415, 0.18184876441955566, 0.04773040860891342, 0.12991362810134888, 0.08510955423116684, 0.05434058606624603, 0.14561758935451508], [0.11703263223171234, -0.07676181942224503, -0.17920950055122375, -0.238514706492424, 0.3462664484977722, -0.0553647018969059, 0.11487198621034622, 0.020158547908067703, 0.14498476684093475, -0.07175087183713913], [-0.061538439244031906, 0.044044915586709976, 0.05782824009656906, -0.04090472683310509, 0.26092761754989624, -0.10353073477745056, 0.014268828555941582, 0.15238027274608612, 0.07100477814674377, 0.1596815437078476], [0.3144966959953308, 0.13931626081466675, 0.00033638757304288447, 0.024414805695414543, 0.10885927826166153, -0.15498480200767517, 0.29938194155693054, -0.08254100382328033, 0.03207438439130783, 0.2213912308216095], [0.08989161252975464, 0.16973090171813965, 0.12093782424926758, 0.12526461482048035, -0.2736378312110901, -0.027374807745218277, -0.02967141754925251, -0.21857357025146484, -0.08081777393817902, -0.11158403754234314], [-0.15640832483768463, 0.19865262508392334, 0.1105261743068695, 0.07952266931533813, -0.07985879480838776, 0.0547875314950943, -0.10113722831010818, -0.07882273197174072, -0.2251775562763214, -0.3580358326435089], [0.10678328573703766, -0.055608540773391724, -0.171095609664917, -0.1744183599948883, 0.12146826088428497, -0.0785619467496872, -0.011320923455059528, 0.10689393430948257, 0.08585376292467117, -0.005364871118217707], [-0.20512673258781433, 0.1026933342218399, -0.024468669667840004, 0.20409972965717316, -0.14089985191822052, -0.0673438310623169, -0.043222296983003616, -0.15048587322235107, -0.2246256172657013, -0.18863601982593536], [0.10527189075946808, -0.008786032907664776, -0.06025557592511177, -0.24481800198554993, 0.136818066239357, 0.009695257991552353, 0.1088312640786171, 0.041894882917404175, 0.0528133362531662, 0.16512587666511536]], [[-0.010091681033372879, 0.22159232199192047, 0.003337679896503687, 0.29799050092697144, -0.35035431385040283, -0.11670717597007751, -0.08269760012626648, -0.12773022055625916, -0.2264791876077652, -0.08525753021240234], [0.08883009105920792, -0.12858140468597412, 0.044484447687864304, -0.08459258079528809, 0.24510596692562103, -0.048725828528404236, 0.10818580538034439, -0.026416784152388573, 0.20409747958183289, 0.10913070291280746], [0.08127643167972565, -0.15708209574222565, -0.2671607732772827, -0.10469038784503937, 0.07668285071849823, 0.09346386790275574, 0.28871187567710876, -0.14333733916282654, 0.2848193645477295, -0.34622398018836975], [0.08174261450767517, -0.1312638372182846, -0.04196752607822418, -0.21514543890953064, 0.19838151335716248, -0.021673470735549927, 0.035897210240364075, -0.04410292208194733, 0.16630220413208008, 0.05665327608585358], [0.3446319103240967, 0.1026088297367096, -0.010892662219703197, -0.15073361992835999, 0.31886205077171326, -0.2561188042163849, 0.37765032052993774, -0.1065625548362732, 0.25343045592308044, 0.21126247942447662], [0.14847484230995178, 0.14507408440113068, 0.25315308570861816, 0.21789143979549408, -0.09173434972763062, -0.09421588480472565, -0.04485940933227539, -0.1671917736530304, -0.1826658546924591, 0.21701976656913757], [-0.1365133821964264, 0.20576193928718567, 0.07320240139961243, -0.03568439930677414, -0.18330053985118866, -0.13845087587833405, -0.07988890260457993, -0.17742466926574707, -0.2022394835948944, -0.24367111921310425], [0.09657781571149826, -0.15071862936019897, -0.17205709218978882, -0.1693255603313446, 0.11474340409040451, 0.09302341192960739, 0.15645858645439148, -0.021353235468268394, 0.13797886669635773, -0.4270385801792145], [-0.29281386733055115, 0.1527673900127411, 0.14005465805530548, 0.18383128941059113, -0.2983882427215576, 0.004548299591988325, -0.09497424960136414, -0.04805654659867287, -0.20428822934627533, -0.08948559314012527], [-0.07300073653459549, -0.0247377660125494, -0.05495370179414749, -0.16204576194286346, 0.09041224420070648, -0.06424427032470703, -0.0023405286483466625, 0.05603810027241707, 0.1656625121831894, 0.02620500884950161]], [[-0.14256906509399414, 0.04505140706896782, 0.15711915493011475, 0.24627719819545746, -0.2223624438047409, -0.14735661447048187, -0.21947257220745087, -0.15101324021816254, -0.4025408923625946, 0.10248968005180359], [-0.029292119666934013, -0.05171000584959984, -0.15642593801021576, -0.1769571304321289, 0.018929893150925636, 0.020230848342180252, 0.04197169840335846, -0.14395254850387573, 0.2528321146965027, -0.05006907507777214], [0.13677962124347687, -0.04580521583557129, -0.2256588339805603, -0.26360663771629333, -0.06625401228666306, 0.05156674236059189, 0.2482430785894394, -0.2677590250968933, 0.20300789177417755, -0.3780621588230133], [-0.005980537738651037, 0.0018262907397001982, -0.1957339346408844, -0.3364959955215454, 0.03460650518536568, 0.15088964998722076, 0.09711845964193344, 0.04569811373949051, 0.1026114970445633, -0.21292683482170105], [0.33383476734161377, 0.15480175614356995, -0.02973366715013981, -0.10060132294893265, 0.3318372368812561, -0.24083982408046722, 0.2814134955406189, -0.18163630366325378, 0.13258497416973114, -0.005115612875670195], [0.11849499493837357, 0.26011717319488525, 0.26928168535232544, 0.28789785504341125, 0.11307059973478317, -0.11770080775022507, 0.11543527990579605, -0.027896881103515625, -0.3197281062602997, 0.3188530206680298], [-0.10347990691661835, 0.13190113008022308, 0.014562099240720272, -0.01582021452486515, -0.10302723944187164, 0.031602296978235245, -0.16851291060447693, -0.12212388217449188, -0.28124359250068665, 0.0761721208691597], [-0.1263575255870819, -0.15784814953804016, -0.14514891803264618, -0.2003699392080307, -0.16153883934020996, 0.03588411957025528, 0.1279544234275818, -0.2615721523761749, 0.30523136258125305, -0.21551522612571716], [-0.3066636025905609, 0.15402621030807495, 0.1922939270734787, 0.20533308386802673, -0.3119302988052368, -0.027770517393946648, -0.27510786056518555, -0.12037522345781326, -0.2849303185939789, 0.13494528830051422], [-0.05980747565627098, -0.058250270783901215, -0.25685301423072815, -0.2633386552333832, 0.10883910953998566, 0.1080867350101471, 0.004041175823658705, 0.01394791342318058, 0.12253165245056152, -0.10563886165618896]], [[-0.14625567197799683, 0.042293135076761246, 0.2301122397184372, 0.38064199686050415, -0.2030538022518158, -0.08120933175086975, -0.16852311789989471, 0.05179586634039879, -0.35562804341316223, 0.22038105130195618], [-0.01985601894557476, -0.13845767080783844, -0.13711170852184296, -0.1102142482995987, -0.04665733501315117, 0.027122315019369125, 0.1143406331539154, -0.02523384429514408, 0.19654065370559692, -0.1733400821685791], [0.021050522103905678, 0.08960255980491638, -0.3421632945537567, -0.15049394965171814, -0.14790621399879456, -0.10952922701835632, 0.1452713906764984, -0.3140401244163513, 0.18968921899795532, -0.18891890347003937], [-0.12144406884908676, -0.08324119448661804, -0.1813214123249054, -0.30213332176208496, -0.05931709334254265, 0.10151096433401108, 0.006157761439681053, -0.13865704834461212, 0.25071394443511963, -0.09979619830846786], [0.17124809324741364, 0.10706460475921631, -0.19794520735740662, -0.1482490450143814, 0.31872501969337463, -0.13240399956703186, 0.3809923827648163, -0.33527952432632446, 0.23129341006278992, -0.30556920170783997], [0.10313808917999268, 0.13621743023395538, 0.2438243180513382, 0.1601751446723938, 0.24410687386989594, -0.1132771447300911, -0.03152238577604294, 0.10481560230255127, -0.22838102281093597, 0.004137747921049595], [-0.03076469711959362, 0.21367405354976654, 0.16477076709270477, 0.009979250840842724, -0.08783572167158127, -0.033704835921525955, -0.1272066980600357, -0.05955635756254196, -0.369395911693573, 0.12553949654102325], [-0.2065453827381134, -0.11197388917207718, -0.27971380949020386, -0.23089517652988434, -0.2895854115486145, 0.05353117361664772, -0.010339610278606415, -0.23761773109436035, 0.17445150017738342, -0.13410420715808868], [-0.21386267244815826, 0.10318740457296371, 0.10410133004188538, 0.3102238178253174, -0.26451826095581055, 0.1101173609495163, -0.22778844833374023, -0.010236724279820919, -0.4843090772628784, 0.1890425682067871], [-0.14595994353294373, -0.031030189245939255, -0.1128222718834877, -0.2717077434062958, 0.05275880917906761, 0.13827112317085266, 0.00036552600795403123, -0.08741636574268341, 0.09978127479553223, -0.09730451554059982]], [[0.014216095209121704, 0.09217792749404907, 0.27403387427330017, 0.29732057452201843, 0.025843854993581772, 0.007478840183466673, -0.13086193799972534, 0.177520290017128, -0.4768044352531433, 0.07325565069913864], [-0.05178241804242134, 0.011392803862690926, -0.17713108658790588, -0.22619476914405823, -0.20601028203964233, 0.09009990096092224, 0.1947898119688034, -0.15630127489566803, 0.18776074051856995, -0.10404618084430695], [0.08485686779022217, 0.0561225600540638, -0.11699239164590836, -0.2000584602355957, -0.1950279176235199, -0.14524951577186584, 0.263933926820755, -0.3341869115829468, 0.35198068618774414, 0.0836666002869606], [-0.08146589994430542, -0.10675279051065445, -0.1191323846578598, -0.25749388337135315, -0.21265539526939392, -0.05685338005423546, 0.08713553845882416, -0.057489726692438126, 0.29264771938323975, 0.05962105467915535], [0.28212809562683105, 0.04168706387281418, -0.23102396726608276, -0.23561881482601166, 0.06085864454507828, -0.12581674754619598, 0.4495021104812622, -0.3774062991142273, 0.42603904008865356, -0.4786628782749176], [0.2246556431055069, 0.042641229927539825, 0.10756134241819382, 0.09046292304992676, 0.30104583501815796, 0.0506066270172596, 0.039965659379959106, 0.2608303725719452, -0.2517922818660736, -0.1408936083316803], [-0.11459016054868698, 0.0132058784365654, 0.10006390511989594, 0.1810576468706131, 0.028341911733150482, -0.09999661892652512, -0.19838304817676544, 0.169403076171875, -0.3722912073135376, 0.19318756461143494], [-0.2995569407939911, 0.13674061000347137, -0.04039805382490158, -0.13226939737796783, -0.2544558346271515, -0.016467269510030746, 0.20538030564785004, -0.36551767587661743, 0.36242443323135376, 0.284229040145874], [-0.01990278623998165, -0.02248634584248066, 0.33504220843315125, 0.37298595905303955, -0.12095034867525101, 0.09514565765857697, -0.3190784156322479, 0.19326229393482208, -0.4733089506626129, 0.31748053431510925], [-0.05071251839399338, -0.05130251869559288, -0.10221953690052032, -0.30096200108528137, -0.07925862818956375, 0.05880368873476982, 0.1444644331932068, -0.19664862751960754, 0.26161623001098633, 0.018862931057810783]]], [[[0.09831278026103973, 0.1336173713207245, -0.09460984915494919, 0.06367596238851547, -0.25356805324554443, -0.05375289171934128, 0.1838315725326538, -0.28353986144065857, -0.022340601310133934, -0.2930683493614197], [-0.10922706872224808, -0.052519459277391434, 0.014808185398578644, -0.0047609684988856316, 0.23514074087142944, 0.057722169905900955, -0.1198839321732521, -0.02448149584233761, 0.06361693888902664, 0.15634669363498688], [0.08517883718013763, -0.09357044845819473, -0.10210230946540833, -0.1746520698070526, 0.10764428973197937, -0.03493903949856758, 0.01766442507505417, 0.07991740107536316, 0.25626447796821594, -0.06340175867080688], [-0.26954689621925354, 0.0043581705540418625, -0.017123529687523842, -0.005918558221310377, 0.21804490685462952, -0.026981070637702942, -0.1030375212430954, 0.056782204657793045, -0.04645133763551712, 0.0302572138607502], [0.25540614128112793, 0.0680844709277153, -0.009493468329310417, -0.25981661677360535, 0.17354370653629303, -0.11259786784648895, 0.15728850662708282, 0.12439914792776108, 0.24806447327136993, 0.3173074424266815], [0.0959283635020256, 0.040865760296583176, 0.13923445343971252, 0.028565993532538414, -0.08861642330884933, -0.10862531512975693, 0.09194081276655197, -0.20069371163845062, 0.08775151520967484, 0.12680694460868835], [0.016736451536417007, 0.05744678154587746, 0.017358900979161263, 0.0557081438601017, -0.2731282413005829, 0.04947046935558319, 0.025819748640060425, -0.10696236789226532, -0.07531023025512695, -0.3187078535556793], [-0.14966215193271637, 0.0016353343380615115, 0.02893160656094551, -0.023642947897315025, 0.21241392195224762, 0.05605585128068924, -0.07083620131015778, 0.03206540271639824, 0.15940509736537933, -0.22196471691131592], [-0.0638277530670166, 0.27083495259284973, 0.025581825524568558, 0.22461378574371338, -0.2547709345817566, -0.0336766317486763, 0.09955663233995438, -0.23463204503059387, -0.2225559800863266, -0.30735906958580017], [-0.0599827878177166, -0.09734693914651871, -0.1065814420580864, -0.08313991129398346, 0.1678040474653244, 0.03766736015677452, -0.15977434813976288, 0.15630009770393372, -0.11372300982475281, 0.19906815886497498]], [[0.10782597213983536, 0.1586061269044876, -0.06440640985965729, 0.037121549248695374, -0.29237282276153564, -0.08006758242845535, 0.09300146996974945, -0.06698094308376312, -0.17185159027576447, -0.12077867984771729], [-0.2729356586933136, 0.06376171112060547, -0.09459956735372543, -0.08568105846643448, 0.10487727075815201, 0.004713323898613453, -0.0097236018627882, 0.1120857447385788, -0.10298140347003937, -0.0028401699382811785], [0.1350754052400589, -0.03916709125041962, -0.08560662716627121, -0.310488224029541, -0.05800161510705948, 0.032612770795822144, -0.0018742606043815613, -0.05908888950943947, 0.3241918087005615, -0.43840911984443665], [-0.14574024081230164, -0.07148703187704086, -0.026067376136779785, -0.1337183713912964, 0.19091594219207764, 0.05538163334131241, -0.1198539212346077, 0.02919081784784794, -0.09487003087997437, -0.1558186411857605], [0.13525621592998505, -0.05352677032351494, -0.06213103607296944, -0.4678255617618561, 0.2476494461297989, -0.1001071184873581, 0.14784401655197144, -0.03979922831058502, 0.3952118158340454, 0.23404622077941895], [0.0628894791007042, 0.24553655087947845, 0.07999172806739807, 0.05560782179236412, -0.0024482368025928736, -0.26529353857040405, 0.09451296925544739, -0.3010392189025879, -0.025103913620114326, 0.3869762718677521], [0.05621185153722763, 0.1290968805551529, -0.09316656738519669, -0.08923736214637756, -0.30331161618232727, -0.027484001591801643, 0.09951746463775635, -0.18530519306659698, -0.12342503666877747, -0.21409033238887787], [-0.13886140286922455, -0.16190065443515778, -0.04560502991080284, -0.10669675469398499, -0.11243749409914017, 0.133691668510437, -0.01258664671331644, 0.022176632657647133, 0.15637271106243134, -0.3962508738040924], [0.09494276344776154, 0.046245474368333817, 0.12126537412405014, 0.11365711688995361, -0.23988692462444305, -0.08902672678232193, -0.12170495092868805, -0.08045101910829544, -0.30222848057746887, -0.15223844349384308], [-0.18576250970363617, -0.14863358438014984, 0.021182101219892502, -0.08089926093816757, 0.12067686766386032, 0.0890541821718216, -0.13311852514743805, -0.03268924728035927, 0.03429163619875908, -0.00017113887588493526]], [[0.2141897976398468, 0.268481969833374, 0.17885063588619232, 0.1247977614402771, -0.27550384402275085, -0.13898280262947083, 0.08999364078044891, -0.07228121906518936, -0.10143591463565826, 0.024867966771125793], [-0.10900392383337021, 0.01195689756423235, 0.02350141480565071, -0.04404105618596077, 0.0658373087644577, 0.09113992750644684, -0.007427981123328209, 0.0831390842795372, 0.041277408599853516, -0.27947279810905457], [-0.06134491786360741, -0.10157431662082672, -0.12676595151424408, -0.1330346018075943, -0.05654039978981018, 0.02221451885998249, 0.026738077402114868, -0.2300279289484024, 0.2816097140312195, -0.3044283092021942], [-0.2637009918689728, -0.15347793698310852, -0.10818145424127579, -0.014311244711279869, 0.004309807904064655, 0.11492183059453964, -0.017659170553088188, 0.012120597995817661, -0.03349984809756279, -0.31926482915878296], [0.15980763733386993, 0.03730282559990883, -0.15132184326648712, -0.42764371633529663, 0.22354958951473236, 0.023496655747294426, 0.2815367877483368, -0.1162111908197403, 0.31617191433906555, -0.2195260226726532], [0.26873043179512024, 0.10077150911092758, 0.23158130049705505, 0.08950133621692657, 0.10888229310512543, -0.2800089120864868, 0.17341120541095734, -0.2459041029214859, -0.0068573434837162495, 0.2529242932796478], [-0.04603143781423569, 0.22437937557697296, 0.07925684005022049, -0.00421269191429019, -0.12483227252960205, -0.026520511135458946, -0.10514037311077118, -0.11364036053419113, -0.22599640488624573, 0.04414953663945198], [-0.14758223295211792, -0.062485113739967346, -0.26614636182785034, 0.0017622062005102634, -0.23849990963935852, 0.14167799055576324, -0.05680098012089729, -0.06580357998609543, 0.18058086931705475, -0.28525328636169434], [0.08928973227739334, 0.2250356376171112, 0.08023717999458313, 0.22021418809890747, -0.21681468188762665, 0.018991602584719658, -0.019361602142453194, -0.07315366715192795, -0.20253849029541016, 0.1694842427968979], [-0.24573969841003418, -0.17020374536514282, -0.03019305132329464, -0.20089593529701233, -0.02953724004328251, 0.05298831686377525, -0.22150146961212158, 0.11927073448896408, 0.08031018078327179, -0.1602199822664261]], [[0.18405045568943024, 0.22257162630558014, 0.2330014705657959, 0.2603755593299866, -0.0033641739282757044, -0.06414654850959778, 0.0930854007601738, -0.14522019028663635, -0.09342705458402634, 0.05285359546542168], [-0.06993822008371353, -0.06968123465776443, -0.2431996911764145, -0.07280083000659943, -0.043828003108501434, 0.09664882719516754, -0.004757307935506105, 0.02423999458551407, -0.0356428287923336, -0.10565922409296036], [-0.21995195746421814, 0.03483439236879349, -0.27875709533691406, -0.12180475890636444, -0.1741742640733719, 0.006579942535609007, 0.13959069550037384, -0.2860700190067291, 0.322530061006546, -0.13379764556884766], [-0.20759086310863495, -0.20888200402259827, -0.15920880436897278, -0.022018074989318848, -0.07530529052019119, 0.08525985479354858, -0.17396806180477142, -0.052431683987379074, -0.053477294743061066, -0.054345421493053436], [0.04386499896645546, -0.12150336802005768, -0.11280746757984161, -0.532544732093811, 0.1676712930202484, -0.07103809714317322, 0.22744274139404297, -0.24834656715393066, 0.4218260943889618, -0.4412698447704315], [0.23953711986541748, 0.2551356256008148, 0.1162426695227623, -0.0007913743611425161, 0.11036200076341629, -0.1970294564962387, 0.07670325040817261, -0.10938230901956558, -0.09591975063085556, -0.0987476110458374], [-0.03434748202562332, 0.20919166505336761, 0.10397554934024811, 0.136328786611557, -0.10166680067777634, -0.1664493978023529, 0.07129674404859543, -0.20020976662635803, -0.16178226470947266, 0.2620045244693756], [-0.23338645696640015, -0.09294822067022324, -0.1823340207338333, -0.18226151168346405, -0.2936176657676697, 0.1928180456161499, 0.01229435857385397, -0.18724338710308075, 0.13365036249160767, -0.010438255034387112], [-0.026488754898309708, 0.0749044343829155, 0.19720327854156494, 0.3649304211139679, 0.01336592435836792, -0.08269628137350082, 0.0029087355360388756, 0.10217994451522827, -0.21307797729969025, 0.1632552444934845], [-0.2355344295501709, -0.09107007831335068, -0.23011229932308197, -0.044480934739112854, -0.16818943619728088, 0.19550594687461853, -0.08697184175252914, -0.00194918317720294, 0.09185214340686798, 0.03728972375392914]], [[0.07386170327663422, 0.23905937373638153, 0.1889544427394867, 0.2857741713523865, 0.12515990436077118, -0.1480228304862976, 0.04695892333984375, 0.14732471108436584, -0.06444349884986877, 0.024953791871666908], [-0.24622386693954468, -0.021397417411208153, -0.16797302663326263, -0.16704638302326202, -0.13520565629005432, 0.16026347875595093, 0.10189180076122284, -0.1455736756324768, 0.034103624522686005, 0.04770730435848236], [-0.13744939863681793, 0.02608204074203968, -0.0776016041636467, -0.224171444773674, -0.22882717847824097, 0.02867717482149601, 0.12069295346736908, -0.44678762555122375, 0.20041705667972565, 0.17521485686302185], [-0.29522505402565, -0.042877934873104095, -0.04309428855776787, -0.022560546174645424, -0.09343317896127701, 0.09718815982341766, -0.10139000415802002, 0.04079447314143181, 0.10640472173690796, -0.008972246199846268], [-0.05145898088812828, 0.07089768350124359, -0.3452490270137787, -0.3479323983192444, 0.08167004585266113, -0.15703414380550385, 0.25514793395996094, -0.43799662590026855, 0.38637301325798035, -0.30724701285362244], [0.2814604938030243, 0.04639200121164322, 0.035880111157894135, 0.04283404350280762, 0.1777103990316391, -0.20539242029190063, 0.03760143369436264, -0.05873894318938255, 0.07017653435468674, -0.3364628851413727], [0.09410843998193741, 0.1325496882200241, 0.19892217218875885, 0.12173044681549072, 0.0020575495436787605, -0.02175653912127018, 0.040330126881599426, 0.06289692968130112, -0.05434202402830124, 0.12369506806135178], [-0.364397257566452, -0.04297453910112381, -0.015958162024617195, -0.1283394992351532, -0.08387617021799088, -0.07692750543355942, 0.014731025323271751, -0.3037392199039459, 0.1564917117357254, 0.2127496898174286], [0.19161969423294067, 0.16768676042556763, 0.31440016627311707, 0.3241334557533264, 0.07713405042886734, -0.06807904690504074, -0.22115857899188995, 0.2506870627403259, -0.3743133246898651, 0.006063876207917929], [-0.2935433089733124, -0.1681155562400818, -0.02048918418586254, -0.09413459151983261, -0.19610640406608582, 0.0839165523648262, -0.04714672267436981, -0.19091425836086273, 0.0910680890083313, 0.11785014718770981]]], [[[0.37187638878822327, 0.021770894527435303, -0.015510841272771358, -0.20485369861125946, -0.4759505093097687, -0.19586490094661713, 0.249576598405838, -0.2660914659500122, 0.055170491337776184, -0.04094544053077698], [-0.33595162630081177, -0.0004910133429802954, -0.006226100958883762, -0.058912161737680435, 0.17394694685935974, 0.1459014117717743, -0.04899074509739876, 0.1669520139694214, -0.17976102232933044, 0.031058385968208313], [-0.08382171392440796, -0.10515990853309631, 0.037596505135297775, -0.18272466957569122, 0.09455215930938721, 0.031957972794771194, -0.16796255111694336, -0.0007268399349413812, -0.06799604743719101, -0.37345537543296814], [-0.33540773391723633, -0.053845345973968506, 0.13708926737308502, 0.15239912271499634, 0.2521551549434662, 0.11818104237318039, -0.11445748805999756, 0.16297392547130585, -0.17862385511398315, -0.11492614448070526], [-0.011921023018658161, -0.05972985178232193, 0.15478095412254333, -0.31206366419792175, 0.2978391647338867, -0.04110885038971901, -0.16898109018802643, 0.08021382987499237, 0.20896095037460327, 0.39761266112327576], [0.260844886302948, 0.1741023063659668, 0.08412443101406097, -0.23878860473632812, -0.1232825517654419, -0.19025009870529175, 0.0033640319015830755, -0.21084760129451752, 0.23219533264636993, 0.459608793258667], [0.3082440197467804, 0.022268392145633698, 0.013147781603038311, -0.19644857943058014, -0.2884995937347412, -0.07813054323196411, 0.07336839288473129, -0.2182542085647583, 0.06510627269744873, -0.14882037043571472], [-0.10219081491231918, -0.12335141748189926, 0.0393933542072773, 0.0967770516872406, 0.09182830154895782, 0.1116529032588005, -0.15676167607307434, 0.15923896431922913, -0.083262600004673, -0.4205282926559448], [0.26628753542900085, 0.18273146450519562, -0.09391292184591293, -0.017719518393278122, -0.27963951230049133, -0.032453540712594986, 0.2583787441253662, -0.14632108807563782, -0.03857088461518288, -0.2676507234573364], [-0.2747747004032135, -0.1405702531337738, 0.07061789929866791, 0.03484875708818436, 0.26808223128318787, 0.15964996814727783, -0.19951686263084412, 0.20522747933864594, -0.16664190590381622, -0.0416543111205101]], [[0.27703869342803955, 0.09872206300497055, 0.08150672167539597, 0.012494534254074097, -0.23861399292945862, -0.23048986494541168, 0.25376594066619873, -0.32171493768692017, 0.11586888134479523, 0.11591504514217377], [-0.23572689294815063, -0.041365835815668106, -0.08513028174638748, 0.06382150948047638, 0.12413906306028366, 0.05708594620227814, -0.17931108176708221, 0.019397718831896782, -0.19587168097496033, -0.32939523458480835], [-0.14273890852928162, -0.09431704878807068, -0.03649177402257919, -0.09444592148065567, -0.07334280759096146, 0.23298484086990356, -0.17321144044399261, 0.011792792938649654, 0.11856164038181305, -0.5269811153411865], [-0.29239621758461, 0.04891711473464966, -0.07641860097646713, 0.14504072070121765, 0.049464087933301926, 0.15935923159122467, -0.1598806232213974, 0.11003948003053665, -0.26439169049263, -0.27154019474983215], [-0.10236862301826477, -0.14684081077575684, 0.02726035751402378, -0.4116581678390503, 0.2660812735557556, 0.06914452463388443, -0.08759545534849167, 0.18968360126018524, 0.14534129202365875, 0.1221596971154213], [0.16728068888187408, 0.19768443703651428, 0.1609986424446106, -0.2755112648010254, 0.05847464129328728, -0.2058834582567215, 0.14390899240970612, -0.22574688494205475, 0.11489435285329819, 0.34237486124038696], [0.11085136979818344, 0.190597802400589, -0.07570696622133255, -0.09133177250623703, -0.2105894833803177, -0.15402723848819733, 0.1706322431564331, -0.2310328334569931, -0.013711492531001568, 0.10598914325237274], [-0.08865716308355331, -0.03986496105790138, -0.11008379608392715, 0.023370083421468735, -0.19300873577594757, 0.15495428442955017, -0.18785160779953003, 0.17880381643772125, -0.04751995950937271, -0.4310973882675171], [0.31727135181427, 0.17006753385066986, 0.026336003094911575, 0.0743318498134613, -0.2124771624803543, -0.046276822686195374, 0.06931110471487045, -0.13195303082466125, 0.134708970785141, 0.033972837030887604], [-0.2312484234571457, -0.07076895982027054, -0.14114215970039368, -0.014103883877396584, 0.11082470417022705, 0.05245138704776764, -0.1363016813993454, 0.17494969069957733, -0.08512472361326218, -0.19471246004104614]], [[0.1801421344280243, 0.15142397582530975, 0.015815582126379013, -0.09514698386192322, -0.16748936474323273, -0.19683974981307983, 0.06820159405469894, -0.23119959235191345, 0.150193452835083, 0.20100827515125275], [-0.28819024562835693, -0.0852835476398468, -0.154992014169693, 0.010965459048748016, -0.12635457515716553, 0.11433715373277664, -0.16243582963943481, 0.02644485794007778, -0.08017333596944809, -0.24569553136825562], [-0.19319574534893036, -0.07773818075656891, -0.20038285851478577, -0.13025282323360443, -0.32562607526779175, 0.039231427013874054, -0.12221275269985199, 0.002477192785590887, 0.05647220090031624, -0.21480056643486023], [-0.20678278803825378, -0.10298008471727371, -0.05071171000599861, -0.020615581423044205, 0.04217167943716049, 0.16269873082637787, -0.2121850699186325, 0.10426215827465057, -0.264815092086792, -0.14824867248535156], [-0.16408678889274597, -0.09612633287906647, -0.015256338752806187, -0.3694932758808136, 0.22017048299312592, 0.06103632599115372, 0.0767015740275383, 0.07109641283750534, 0.09919744729995728, -0.2948831021785736], [0.11696935445070267, 0.1311660259962082, 0.25650227069854736, -0.3844752013683319, 0.13867327570915222, -0.23258621990680695, 0.20705094933509827, -0.23223312199115753, 0.21065343916416168, 0.11446872353553772], [0.085755854845047, 0.11512011289596558, 0.15915311872959137, -0.14177735149860382, -0.02968311682343483, -0.14263536036014557, 0.035171881318092346, -0.10627708584070206, 0.010392170399427414, 0.21170178055763245], [-0.06678903847932816, -0.09619140625, -0.2338607758283615, 0.14048665761947632, -0.30403488874435425, 0.1552073061466217, -0.2240709811449051, 0.1140301451086998, -0.13236933946609497, -0.041181840002536774], [0.09909279644489288, 0.1984316110610962, 0.056224580854177475, 0.14153310656547546, -0.02034386619925499, -0.16512973606586456, 0.007994716055691242, -0.2301935851573944, 0.019401684403419495, 0.16783124208450317], [-0.317283034324646, -0.24782153964042664, -0.21082435548305511, 0.0587141215801239, -0.18316569924354553, 0.21036936342716217, -0.09845788776874542, 0.018409689888358116, -0.20095135271549225, -0.20332485437393188]], [[0.2240903228521347, 0.12314502894878387, 0.04720936715602875, -0.0824817642569542, -0.0036857968661934137, -0.2093387246131897, 0.2351209819316864, -0.3081524968147278, 0.15175098180770874, 0.060770321637392044], [-0.2373320758342743, -0.15176139771938324, -0.20621997117996216, 0.06184742972254753, -0.2649167478084564, 0.008298361673951149, -0.12862621247768402, 0.010065458714962006, -0.1865158975124359, 0.01019354909658432], [-0.3293667733669281, -0.018127623945474625, -0.09941251575946808, -0.09075893461704254, -0.1656712144613266, 0.05426209047436714, 0.04719362407922745, -0.10754284262657166, -0.03410395234823227, 0.22092625498771667], [-0.31290674209594727, -0.16784290969371796, -0.2637860178947449, 0.12337927520275116, -0.11263591051101685, 0.23589669167995453, -0.2802143394947052, 0.029161237180233, -0.11972827464342117, -0.009819571860134602], [-0.27777841687202454, -0.17043831944465637, -0.20198507606983185, -0.224271759390831, -0.07265255600214005, 0.11197555810213089, -0.004716826602816582, -0.21242734789848328, 0.13319994509220123, -0.3753567636013031], [0.21455183625221252, 0.19852468371391296, 0.12941354513168335, -0.20053276419639587, 0.11917353421449661, -0.1433100551366806, 0.04927958548069, -0.31653502583503723, 0.22033913433551788, -0.06294609606266022], [0.04869825392961502, 0.11849122494459152, 0.11789942532777786, -0.02171923592686653, 0.023582177236676216, -0.20281745493412018, 0.09725186973810196, -0.2674061357975006, 0.1278124749660492, 0.050567273050546646], [-0.23961137235164642, -0.13037897646427155, -0.08814126998186111, 0.13733062148094177, -0.17192931473255157, 0.036215584725141525, -0.12179864943027496, 0.1446802169084549, -0.14382867515087128, 0.2841373383998871], [0.22556297481060028, 0.27622878551483154, 0.19427035748958588, 0.15126128494739532, 0.16142408549785614, -0.05378944054245949, 0.00619980413466692, -0.17674848437309265, 0.012491676956415176, 0.23798219859600067], [-0.24602538347244263, -0.10038342326879501, -0.19205284118652344, 0.14913684129714966, -0.206602081656456, 0.06265442818403244, -0.22016166150569916, 0.17293351888656616, -0.11135436594486237, 0.022817913442850113]], [[0.18547411262989044, 0.18287460505962372, 0.08865710347890854, -0.005397810600697994, 0.09553296864032745, -0.2887197732925415, 0.02201513573527336, -0.0637960284948349, 0.06473563611507416, -0.16065189242362976], [-0.14635628461837769, -0.10601304471492767, -0.12936288118362427, 0.06539590656757355, -0.17909260094165802, 0.08955834805965424, -0.021465860307216644, 0.1450631469488144, -0.20774319767951965, 0.05436631664633751], [-0.15022297203540802, -0.07960167527198792, 0.014639103785157204, -0.06526155024766922, -0.08933539688587189, 0.06205865368247032, -0.02739703096449375, -0.12336496263742447, 0.12312711030244827, 0.43289610743522644], [-0.20975705981254578, -0.04226056486368179, -0.213243305683136, 0.09210190922021866, -0.13263089954853058, 0.0845952108502388, -0.07852277904748917, 0.13802634179592133, -0.14944161474704742, 0.1012311652302742], [-0.36641615629196167, -0.20057553052902222, -0.29117444157600403, -0.28510749340057373, -0.24724745750427246, 0.15663683414459229, 0.0900360569357872, -0.4104372560977936, 0.1382199376821518, -0.07625783979892731], [-0.008061818778514862, 0.05179343745112419, -0.05974051356315613, -0.23581980168819427, 0.004228475037962198, -0.19684793055057526, 0.04763372242450714, -0.1327231526374817, 0.16889610886573792, -0.4052022397518158], [-0.0525498203933239, 0.08452574163675308, 0.1531301736831665, -0.05908087641000748, 0.06791198998689651, -0.23286162316799164, -0.001096017542295158, -0.1841563731431961, 0.049948856234550476, -0.015491575002670288], [-0.18846678733825684, -0.06194644793868065, 0.051280222833156586, 0.0345442071557045, -0.08382280170917511, -0.036883436143398285, -0.15282295644283295, 0.04782801494002342, -0.13188712298870087, 0.4192160964012146], [0.12123358249664307, 0.16561444103717804, 0.26504018902778625, 0.07572799175977707, 0.028499282896518707, -0.20755653083324432, 0.05523055046796799, -0.13150131702423096, 0.04173813760280609, -0.19168990850448608], [-0.16069436073303223, -0.1847030073404312, -0.05873498693108559, 0.1348540484905243, -0.05135757103562355, 0.05706460773944855, -0.08860783278942108, 0.10393110662698746, -0.22189989686012268, 0.26157039403915405]]], [[[0.3271872401237488, 0.0837378054857254, -0.08641451597213745, -0.23375704884529114, -0.4875243604183197, -0.036808039993047714, 0.10866384208202362, -0.03895255923271179, 0.37041011452674866, 0.14364391565322876], [-0.3469390571117401, 0.04735253378748894, -0.029385754838585854, 0.10521654039621353, 0.2159663885831833, -0.022796006873250008, -0.02566322311758995, -0.047156620770692825, -0.10554113239049911, -0.3068278431892395], [-0.09029559046030045, -0.07605823129415512, -0.03627118095755577, 0.11131893843412399, 0.05166595056653023, 0.07190107554197311, -0.10607964545488358, 0.12457183003425598, -0.11306793242692947, -0.34919458627700806], [-0.2750948369503021, -0.044643525034189224, -0.005942497402429581, 0.14707428216934204, 0.2644011378288269, 0.1555147022008896, 0.00845915824174881, 0.1167009025812149, -0.22584517300128937, -0.343606173992157], [-0.2595929503440857, 0.03387853130698204, 0.10710130631923676, -0.06973427534103394, 0.3051571846008301, 0.03570984676480293, -0.3387050926685333, 0.24700963497161865, -0.3138575255870819, 0.01634141430258751], [0.13204346597194672, 0.16277305781841278, 0.09619864821434021, -0.2999858260154724, 0.11680750548839569, -0.13882525265216827, -0.08986949175596237, -0.1769649088382721, 0.20254220068454742, 0.28468385338783264], [0.15136714279651642, 0.011973683722317219, -0.08964037895202637, -0.3175164461135864, -0.2796877324581146, -0.057859212160110474, 0.03789377585053444, -0.12055843323469162, 0.23874905705451965, -0.019095098599791527], [-0.03256310895085335, -0.1100146472454071, -0.13866174221038818, 0.11480770260095596, -0.05686836317181587, 0.17944808304309845, -0.09618674218654633, 0.1001453846693039, -0.3128264546394348, -0.3395291268825531], [0.3876018226146698, 0.025118282064795494, -0.1364816576242447, -0.13757002353668213, -0.37070825695991516, -0.11376872658729553, 0.1810579001903534, -0.2780158221721649, 0.19271130859851837, 0.1020042672753334], [-0.2285754233598709, 0.07605032622814178, -0.006667903624475002, 0.16902898252010345, 0.21783213317394257, 0.14140067994594574, -0.07906951755285263, -0.008652925491333008, -0.22557027637958527, -0.3038732409477234]], [[0.3268607556819916, -0.0217868834733963, 0.033581189811229706, -0.34862765669822693, -0.3752094805240631, -0.16162441670894623, 0.20346474647521973, -0.19658240675926208, 0.28308233618736267, 0.14900068938732147], [-0.29090359807014465, -0.016779648140072823, -0.10650811344385147, 0.057384926825761795, 0.07624608278274536, 0.06302376836538315, -0.08595588803291321, 0.08607940375804901, -0.12348392605781555, -0.34938329458236694], [-0.07199754565954208, -0.0373430997133255, -0.12746119499206543, 0.17164075374603271, -0.2586559057235718, 0.24495017528533936, -0.2931632101535797, 0.15799470245838165, -0.16218973696231842, -0.28435084223747253], [-0.1991618275642395, -0.11676380783319473, -0.042183004319667816, 0.1649477481842041, 0.02108129858970642, 0.16313879191875458, -0.06831618398427963, 0.06512672454118729, -0.2982175052165985, -0.12073658406734467], [-0.2964906692504883, -0.07108041644096375, 0.09088008105754852, 0.09861843287944794, 0.11114680022001266, 0.054740533232688904, -0.24093471467494965, 0.24302783608436584, -0.3225850760936737, -0.322394460439682], [-0.03437257185578346, 0.15576261281967163, 0.3735699951648712, -0.24937580525875092, 0.12209532409906387, -0.261231005191803, 0.03919856995344162, -0.10353437811136246, 0.2033635824918747, 0.12324364483356476], [0.28281983733177185, -0.007955529727041721, 0.08511191606521606, -0.20386651158332825, -0.2718178331851959, -0.05867677554488182, 0.003915277309715748, -0.15444189310073853, 0.1400679051876068, 0.1567324697971344], [-0.11113884299993515, -0.10190761834383011, -0.25244247913360596, 0.18930810689926147, -0.336001455783844, 0.22061941027641296, -0.14750710129737854, 0.10842970758676529, -0.24839185178279877, -0.2614744007587433], [0.3594818711280823, 0.07345262169837952, -0.07944460958242416, -0.1297072470188141, -0.3020220100879669, -0.1726585179567337, 0.07786357402801514, -0.28634151816368103, 0.32945501804351807, 0.07246936112642288], [-0.19352734088897705, -0.09273336082696915, -0.2003806084394455, 0.11313001066446304, -0.12580353021621704, 0.1524844765663147, -0.185747891664505, 0.08668676763772964, -0.318570077419281, -0.1119067370891571]], [[0.1364448070526123, 0.10883583128452301, 0.21140551567077637, -0.21254493296146393, 0.06800781935453415, -0.18137149512767792, 0.06071866676211357, -0.2657247483730316, 0.30509495735168457, 0.015665166079998016], [-0.1501600742340088, -0.12012027949094772, -0.167588010430336, 0.08483430743217468, -0.13764958083629608, 0.16820262372493744, -0.22646698355674744, 0.1645948588848114, -0.19559502601623535, -0.012481864541769028], [-0.13243257999420166, -0.2643154263496399, -0.1383107304573059, 0.024259429425001144, -0.2336903065443039, 0.1815066784620285, -0.2871879041194916, 0.04959947615861893, -0.11219242960214615, 0.055321089923381805], [-0.06303704530000687, -0.1818365901708603, -0.14800910651683807, 0.06497368961572647, -0.1663268506526947, 0.11364921182394028, -0.16371841728687286, 0.17335093021392822, -0.20065918564796448, -0.05147924646735191], [-0.3871557414531708, -0.10667800903320312, -0.050962235778570175, 0.07263097167015076, 0.021592607721686363, 0.18964391946792603, -0.16539481282234192, 0.08674949407577515, -0.3527551293373108, -0.46357300877571106], [0.06867212802171707, 0.23254162073135376, 0.17330525815486908, -0.27546337246894836, 0.22307588160037994, -0.27635154128074646, 0.06027480959892273, -0.2551434338092804, 0.14666014909744263, -0.1385345458984375], [0.03816240280866623, 0.11345063149929047, 0.19179418683052063, -0.3287155330181122, -0.06985801458358765, -0.2369168996810913, 0.11532674729824066, -0.17441238462924957, 0.0771278664469719, 0.044391389936208725], [0.052499666810035706, -0.1208207979798317, -0.13255465030670166, 0.23418909311294556, -0.20049278438091278, 0.12966623902320862, -0.22302672266960144, 0.12505587935447693, -0.2826912999153137, 0.11104562878608704], [0.2819162607192993, 0.19625724852085114, 0.0033266181126236916, -0.06237666681408882, -0.005301505792886019, -0.1905032843351364, 0.17851167917251587, -0.24862712621688843, 0.1883920431137085, 0.10446590930223465], [-0.0009426862234249711, -0.16286601126194, -0.18084241449832916, 0.1922464221715927, -0.19629108905792236, 0.2437591552734375, -0.1512463539838791, 0.08340166509151459, -0.19931569695472717, -0.09484562277793884]], [[0.04676465317606926, 0.19006191194057465, 0.14121195673942566, -0.2142825871706009, 0.17498423159122467, -0.22041518986225128, 0.20680521428585052, -0.32675185799598694, 0.2482454478740692, -0.022466443479061127], [-0.0765857920050621, -0.11338034272193909, -0.19277861714363098, 0.12214617431163788, -0.09621226042509079, 0.21607957780361176, -0.1488509476184845, 0.038045283406972885, -0.16379980742931366, 0.09672310203313828], [-0.031176703050732613, -0.22907139360904694, -0.0353543683886528, 0.0765678733587265, -0.05139153078198433, 0.036536797881126404, -0.28002846240997314, 0.11906273663043976, -0.22158950567245483, 0.23952284455299377], [-0.013673285022377968, -0.2389310747385025, -0.23555384576320648, 0.03775450959801674, -0.056204505264759064, 0.2685833275318146, -0.14596706628799438, 0.05151866376399994, -0.18658973276615143, -0.031180039048194885], [-0.38347262144088745, -0.3041934669017792, -0.23089836537837982, 0.006714850664138794, -0.07187235355377197, 0.0913892462849617, -0.22629839181900024, 0.11748972535133362, -0.3194458782672882, -0.13645553588867188], [-0.001295281806960702, 0.1364424228668213, 0.033476099371910095, -0.2135021835565567, 0.2380974441766739, -0.06782098859548569, 0.03992275148630142, -0.3120248019695282, 0.14821001887321472, -0.2391006201505661], [-0.007314639165997505, 0.196463480591774, 0.26946642994880676, -0.22094795107841492, 0.19348552823066711, -0.18973679840564728, 0.14809072017669678, -0.24772115051746368, 0.13468697667121887, 0.043457645922899246], [-0.040259405970573425, -0.01719852164387703, -0.104062020778656, 0.05025061219930649, -0.14364628493785858, 0.07534106075763702, -0.23610514402389526, 0.10700354725122452, -0.2094738483428955, 0.2467585653066635], [0.14847199618816376, 0.2599444091320038, 0.19257153570652008, -0.21163660287857056, 0.0853249579668045, -0.27145007252693176, 0.18768402934074402, -0.3038789927959442, 0.23033908009529114, -0.10345173627138138], [0.02978590875864029, -0.04462723806500435, -0.03727761656045914, 0.06082015484571457, -0.23354950547218323, 0.10100151598453522, -0.1187666580080986, 0.126785546541214, -0.2596490681171417, 0.13820116221904755]], [[0.1005440428853035, 0.19110503792762756, 0.25035977363586426, -0.26380038261413574, 0.04224642366170883, -0.14798246324062347, 0.04591180384159088, -0.37701064348220825, 0.26317456364631653, -0.1889590471982956], [-0.0075853681191802025, -0.056923363357782364, -0.01049658190459013, 0.11495086550712585, -0.1767514944076538, 0.13869446516036987, -0.1981421560049057, 0.0631469339132309, -0.13529880344867706, 0.12826085090637207], [-0.16086086630821228, -0.10236296057701111, 0.15305615961551666, -0.013502453453838825, 0.09927807003259659, -0.029767261818051338, -0.058879606425762177, -0.06752330809831619, -0.2530544102191925, 0.27643081545829773], [0.08651454001665115, -0.20296306908130646, 0.023894397541880608, 0.18262673914432526, -0.19508296251296997, 0.08507536351680756, -0.03160202503204346, 0.1112479493021965, -0.1748177707195282, 0.18783161044120789], [-0.4121525287628174, -0.12312549352645874, -0.20391440391540527, 0.008836140856146812, -0.21263739466667175, 0.17744803428649902, -0.20299914479255676, -0.003147450741380453, -0.2353503406047821, 0.09144112467765808], [-0.1506573110818863, 0.06878159940242767, -0.11386625468730927, -0.3187531530857086, 0.04022667929530144, -0.16502371430397034, -0.020792895928025246, -0.32469576597213745, 0.25677451491355896, -0.21336373686790466], [-0.026084095239639282, 0.12898944318294525, 0.11360082030296326, -0.16712911427021027, 0.032562851905822754, -0.074622742831707, -0.0030310379806905985, -0.4043695032596588, 0.02460477314889431, -0.04199397936463356], [0.13862787187099457, -0.05678859353065491, 0.13809993863105774, 0.23870648443698883, 0.06075400114059448, 0.01206495426595211, -0.03620511293411255, 0.18938490748405457, -0.2703827917575836, 0.16516537964344025], [0.04062453284859657, 0.2735331058502197, 0.11537452042102814, -0.12460686266422272, 0.08032839745283127, -0.24410924315452576, 0.06814395636320114, -0.3134171664714813, 0.12695591151714325, -0.21455036103725433], [0.04437548667192459, -0.03482489660382271, -0.10827583074569702, 0.11932934820652008, -0.08196099102497101, 0.18292084336280823, 0.006553755607455969, 0.12244880199432373, -0.3218631148338318, 0.23937205970287323]]], [[[0.27262943983078003, 0.02415776066482067, 0.04953474923968315, -0.28149962425231934, -0.4239211678504944, -0.08084923028945923, -0.0713580921292305, 0.022276127710938454, 0.25784313678741455, 0.08270879089832306], [-0.06746868789196014, 0.08821632713079453, 0.003461417742073536, 0.060108624398708344, 0.18755634129047394, 0.08502218872308731, 0.08507439494132996, -0.004983598366379738, -0.16010494530200958, -0.27651357650756836], [-0.20254388451576233, -0.07375678420066833, -0.16987846791744232, 0.23699124157428741, -0.1340920478105545, 0.1300123929977417, -0.18734590709209442, -0.003626511199399829, -0.3314381539821625, -0.35477954149246216], [-0.18858122825622559, -0.04925379157066345, -0.019139636307954788, 0.0976121723651886, 0.2053302377462387, -0.031632017344236374, 0.022740870714187622, -0.14214618504047394, -0.07539142668247223, -0.22182072699069977], [-0.45286014676094055, 0.014848263934254646, 0.16048595309257507, 0.19207368791103363, 0.30034685134887695, 0.08703946322202682, -0.40591004490852356, 0.31896835565567017, -0.6039089560508728, -0.18456459045410156], [-0.02381390705704689, 0.10671629011631012, 0.2288295477628708, -0.027216274291276932, 0.23727791011333466, -0.18181036412715912, -0.013999554328620434, 0.15648362040519714, -0.037542346864938736, 0.19933851063251495], [0.1665506362915039, -0.08425918221473694, -0.053713612258434296, -0.18313241004943848, -0.41481319069862366, -0.0037065341603010893, -0.1623786836862564, 0.06649265438318253, 0.18183764815330505, 0.22603297233581543], [-0.04013846442103386, -0.02622475102543831, -0.26131290197372437, 0.07257337868213654, -0.19830049574375153, 0.1709841936826706, 0.030968066304922104, 0.05970457196235657, -0.04363897815346718, -0.13333700597286224], [0.3851800262928009, 0.10155126452445984, -0.1031535193324089, -0.29801759123802185, -0.3898366093635559, -0.17403694987297058, -0.059712003916502, -0.09082802385091782, 0.36920222640037537, 0.17845015227794647], [-0.20895759761333466, 0.032611194998025894, -0.08888817578554153, 0.08438511192798615, -0.05796581879258156, 0.14641772210597992, 0.10966463387012482, -0.04725898802280426, -0.1032104641199112, -0.13946571946144104]], [[0.13343453407287598, 0.1206640750169754, -0.02296479418873787, -0.31309038400650024, -0.29719263315200806, -0.2213725447654724, -0.0466056764125824, -0.01668507792055607, 0.12196643650531769, 0.025793667882680893], [-0.03423621505498886, -0.08472181856632233, -0.002818439621478319, 0.17062942683696747, -0.09635890275239944, 0.17483501136302948, 0.05405270680785179, -0.052118588238954544, -0.15179063379764557, -0.20944911241531372], [0.13086242973804474, -0.030549174174666405, -0.19511327147483826, 0.2672376334667206, -0.3177277147769928, 0.2777867615222931, -0.13008035719394684, 0.11757983267307281, -0.18405184149742126, 0.02866338938474655], [-0.028175704181194305, -0.05573508143424988, -0.09179703891277313, -0.01887882687151432, -0.1510455310344696, 0.041913095861673355, 0.053844891488552094, -0.11989151686429977, -0.1777207851409912, -0.19548006355762482], [-0.3906596302986145, -0.06774236261844635, 0.1353568136692047, 0.2766597270965576, 0.23007123172283173, 0.18922947347164154, -0.3306019604206085, 0.30814260244369507, -0.5896975994110107, -0.4609297513961792], [-0.02664031647145748, 0.04708424210548401, 0.36976853013038635, -0.0031288240570575, 0.3609291613101959, -0.18509644269943237, -0.12843374907970428, -0.10877280682325363, -0.16726604104042053, 0.04440292343497276], [0.1064075455069542, 0.14493799209594727, -0.018781263381242752, -0.31636202335357666, -0.26841628551483154, -0.12305695563554764, -0.020114734768867493, 0.0022119381465017796, -0.003551302943378687, 0.12226368486881256], [0.18351297080516815, -0.04195510596036911, -0.25438401103019714, 0.1357107013463974, -0.36988160014152527, 0.19932520389556885, -0.05141272023320198, 0.04883567616343498, -0.18456999957561493, 0.0704815462231636], [0.29833635687828064, 0.11728469282388687, 0.012420114129781723, -0.4008205533027649, -0.28363263607025146, -0.15125252306461334, 0.1575334519147873, -0.2883320748806, 0.35853976011276245, 0.13621632754802704], [0.016801605001091957, -0.01035545114427805, -0.17665912210941315, 0.029253633692860603, -0.1287468671798706, 0.08813397586345673, -0.06918688863515854, 0.06535018235445023, -0.11768874526023865, -0.06413952261209488]], [[0.06362543255090714, 0.1716071367263794, 0.2789387106895447, -0.32140180468559265, 0.05199330300092697, -0.2221548706293106, 0.12483013421297073, 0.01576499082148075, 0.2112463265657425, 0.028704186901450157], [0.09675891697406769, -0.09171909093856812, -0.17096315324306488, -0.023717913776636124, -0.05997050553560257, 0.1662011593580246, -0.073136106133461, -0.042936164885759354, -0.15916267037391663, -0.046115536242723465], [0.1728324443101883, -0.22524166107177734, -0.25282880663871765, 0.24429333209991455, -0.2747457027435303, 0.10673557966947556, -0.20441697537899017, 0.20485973358154297, -0.2046443074941635, 0.23709547519683838], [0.06234569847583771, -0.1488710641860962, -0.18419261276721954, 0.10755296796560287, -0.08522243052721024, 0.17886513471603394, -0.04844851419329643, -0.033409107476472855, -0.022039450705051422, -0.03192145377397537], [-0.30011266469955444, -0.10180669277906418, -0.11253219097852707, 0.3250068128108978, -0.061936166137456894, 0.08969391882419586, -0.32252657413482666, 0.34726032614707947, -0.5587108731269836, -0.1288214772939682], [-0.21961158514022827, 0.18982183933258057, 0.308872252702713, -0.1335662305355072, 0.244150310754776, -0.15805144608020782, -0.08118933439254761, -0.2205117791891098, -0.16036416590213776, -0.24694253504276276], [0.07443302124738693, -0.008529474958777428, 0.10625650733709335, -0.11725316196680069, -0.05487413704395294, -0.22459396719932556, -0.012813827954232693, 0.06981880962848663, -0.042130984365940094, 0.16832256317138672], [0.25441059470176697, -0.03826877474784851, -0.13331924378871918, 0.024409079924225807, -0.2750692367553711, 0.18168088793754578, -0.10426969081163406, 0.20472921431064606, -0.1197022944688797, 0.2864789366722107], [0.15816237032413483, 0.20775838196277618, 0.11072724312543869, -0.2713875472545624, -0.07626938074827194, -0.11773768812417984, 0.1063472330570221, -0.18506212532520294, 0.3639204502105713, 0.04724910482764244], [0.12820549309253693, -0.15658876299858093, -0.07278846204280853, 0.11899055540561676, -0.2969907820224762, 0.2036699801683426, 0.07471995055675507, 0.11416328698396683, -0.17794384062290192, 0.03737320750951767]], [[0.040763009339571, 0.13630183041095734, 0.11486818641424179, -0.21923570334911346, 0.0362519808113575, -0.3003709316253662, 0.11803681403398514, -0.18951904773712158, 0.04930131509900093, -0.11565504968166351], [-0.00042850899626500905, -0.05631643906235695, -0.059286896139383316, -0.0027680578641593456, -0.241851344704628, 0.19809658825397491, -0.04224283993244171, -0.038198329508304596, -0.18022054433822632, 0.1417381912469864], [0.11024323105812073, -0.13632787764072418, 0.03671359270811081, 0.06451571732759476, 0.04472718387842178, 0.1781539022922516, -0.15280376374721527, 0.14755301177501678, -0.19889135658740997, 0.3472643494606018], [0.13030283153057098, -0.18965348601341248, -0.08032536506652832, -0.055312007665634155, -0.10742589086294174, 0.11405951529741287, 0.006897443905472755, 0.03918503597378731, -0.1705130934715271, 0.1664143055677414], [-0.22324393689632416, -0.2958492934703827, -0.186407670378685, 0.09168671071529388, 0.030978301540017128, 0.2605879306793213, -0.4442814290523529, 0.23699131608009338, -0.4950994849205017, 0.10258392244577408], [-0.25609707832336426, 0.2069060206413269, 0.06997089833021164, -0.1461164951324463, 0.19022256135940552, -0.07739629596471786, -0.1335926651954651, -0.20704980194568634, 0.0817544162273407, -0.2446589320898056], [-0.06334065645933151, 0.21882589161396027, 0.31318122148513794, -0.23901712894439697, 0.16428253054618835, -0.23297151923179626, -0.06830248236656189, -0.2427894026041031, 0.013275818899273872, -0.12463448941707611], [0.2702140510082245, -0.10950994491577148, 0.13577952980995178, 0.05103587359189987, -0.09458950161933899, 0.13020355999469757, 0.07133027911186218, 0.1495160609483719, -0.1998550146818161, 0.1895795613527298], [-0.008673937059938908, 0.1292756199836731, 0.3225666284561157, -0.27752992510795593, 0.13054248690605164, -0.3282337486743927, 0.21413740515708923, -0.18409059941768646, 0.3260478973388672, 0.015416053123772144], [0.11182807385921478, -0.14118582010269165, -0.0790141299366951, 0.12751692533493042, -0.18487948179244995, 0.11393752694129944, 0.062354590743780136, 0.14266841113567352, -0.17079681158065796, 0.18982858955860138]], [[-0.2177368402481079, 0.08677302300930023, 0.1781274825334549, -0.11002608388662338, 0.024992814287543297, -0.14709363877773285, 0.08101286739110947, -0.19843846559524536, 0.12118197232484818, -0.11431711167097092], [0.03038790449500084, -0.02075137011706829, 0.039860799908638, 0.015391041524708271, -0.03227565810084343, 0.16135729849338531, 0.004567828960716724, 0.05756540223956108, -0.0650336891412735, 0.1231967955827713], [0.15564516186714172, 0.03813672810792923, 0.06765598058700562, 0.0756387785077095, 0.1805766224861145, 0.12653270363807678, -0.19401340186595917, 0.22822526097297668, -0.18211767077445984, 0.14337390661239624], [0.09712295234203339, -0.11418376863002777, 0.011835421435534954, 0.11873026937246323, -0.016793053597211838, 0.19118374586105347, 0.043009381741285324, 0.1281818449497223, -0.17057210206985474, 0.11577188223600388], [-0.163217693567276, -0.2732550799846649, -0.24626071751117706, 0.1669529527425766, -0.069002665579319, 0.17480848729610443, -0.37234991788864136, 0.0799696147441864, -0.4223030209541321, 0.18160851299762726], [-0.2288084775209427, -0.011679274961352348, -0.023490674793720245, -0.07225833833217621, 0.05014733970165253, -0.011113558895885944, -0.14130200445652008, -0.16615870594978333, 0.09601549059152603, -0.06235726922750473], [-0.2037581503391266, 0.07002238929271698, 0.20240670442581177, -0.16446079313755035, 0.07330207526683807, -0.14301446080207825, 0.07569652050733566, -0.25157272815704346, -0.04537034034729004, -0.22811493277549744], [0.2205246537923813, 0.12548494338989258, 0.14731667935848236, 0.1704835444688797, -0.05574816092848778, -0.1275971531867981, 0.04023203253746033, 0.10585013777017593, -0.08233720064163208, 0.019527923315763474], [-0.09358949214220047, 0.22759176790714264, 0.19755768775939941, -0.2226463109254837, 0.08063695579767227, -0.2999323904514313, 0.12834180891513824, -0.2517099976539612, 0.2005496323108673, -0.2442290335893631], [0.15969756245613098, -0.11424723267555237, 0.13253265619277954, 0.13995243608951569, -0.07139569520950317, 0.19476087391376495, -0.0008490685140714049, 0.0008448520675301552, -0.07421921193599701, 0.17040756344795227]]]], "bias": [0.010551794432103634, 0.04777819663286209, 0.030368246138095856, -0.026959005743265152, 0.004691207781434059, -0.023635657504200935, -0.005768786650151014, -0.040040988475084305, -0.011936099268496037, 0.007599907461553812], "kernel_shape": [5, 5, 10, 10], "bias_shape": [10]}, "dense_1": {"kernel": [[-0.015086187981069088, 0.021203964948654175, -0.035883579403162, -0.08426804840564728, -0.05215718224644661, 0.05062301456928253, -0.06801383942365646, 0.07839326560497284, -0.03340732678771019, -0.02073313295841217], [-0.022107696160674095, -0.05675878748297691, -0.004075310658663511, -0.09377007931470871, -0.0018193518044427037, -0.042219895869493484, -0.059730514883995056, -0.00024382535775657743, -0.03020455874502659, 0.02257574535906315], [0.028250405564904213, 0.06016676127910614, 0.024052660912275314, -0.020007649436593056, -0.03586617484688759, -0.05335371941328049, 0.015218226239085197, -0.057685770094394684, 0.014752527698874474, 0.025316866114735603], [0.0350298173725605, -0.09024102985858917, -0.03356995806097984, 0.08972329646348953, -0.0055686854757368565, -0.09839127212762833, 0.01341193076223135, 0.05783304199576378, 0.021552760154008865, -0.02024310640990734], [0.08946430683135986, 0.039773937314748764, -0.044270969927310944, -0.09515781700611115, 0.017581861466169357, 0.011718644760549068, -0.014045136980712414, -0.028840063139796257, 0.009312823414802551, -0.0010510566644370556], [-0.03501739352941513, -0.07380735874176025, -0.04141045734286308, 0.09942489862442017, 0.10600277036428452, -0.10255471616983414, 0.019910911098122597, 0.07638661563396454, -0.09845083206892014, -0.03442421182990074], [-0.005858907010406256, -0.06289248913526535, -0.014943333342671394, 0.01691274158656597, -0.002055729040876031, -0.05911477655172348, 0.029398253187537193, -0.07097117602825165, 0.019592419266700745, 0.08564046025276184], [0.0659293606877327, 0.06497947126626968, -0.10164179652929306, 0.08148987591266632, 0.030317697674036026, -0.006516780238598585, -0.052458103746175766, 0.07903740555047989, 0.036338455975055695, -0.05675424635410309], [0.09802774339914322, 0.06706050038337708, 0.041811734437942505, 0.03200262039899826, -0.025858022272586823, 0.07019702345132828, 0.06366033852100372, -0.037034157663583755, -0.0514458492398262, -0.04226211830973625], [0.01507566124200821, 0.06088506802916527, -0.03704401105642319, 0.00659222574904561, -0.013720991089940071, -0.025846337899565697, 0.07950041443109512, 0.028986072167754173, -0.004352398216724396, 0.05090365931391716], [0.06982696801424026, -0.011116648092865944, 0.03373259678483009, 0.02583710290491581, -0.0051034437492489815, 0.048591773957014084, -0.06089109927415848, 0.029355203732848167, 0.10507137328386307, 0.07814686745405197], [0.10134942829608917, 0.07805316895246506, -0.09479860216379166, -0.04896983876824379, 0.03924228250980377, 0.07476571202278137, -0.07913395017385483, -0.06780718266963959, 0.030275633558630943, 0.0710933655500412], [-0.02261282689869404, -0.06574501842260361, 0.002076074481010437, -0.12186437845230103, 0.02868013270199299, 0.06284263730049133, 0.06089075282216072, -0.0008284134091809392, -0.007441672496497631, 0.05112516134977341], [-0.02729322947561741, 0.017239665612578392, 0.05848606675863266, -0.06294871121644974, 0.05662044510245323, -0.047994986176490784, -0.07197212427854538, 0.02096026949584484, 0.013068159110844135, -0.029896201565861702], [0.0019810996018350124, -0.05042022466659546, -0.06374252587556839, -0.05069110170006752, 0.019680073484778404, -0.030913641676306725, 0.0514090396463871, -0.10568652302026749, -0.05225364491343498, 0.03132651373744011], [-0.0985378846526146, -0.1433296501636505, 0.027159396559000015, 0.014772254042327404, 0.039537686854600906, -0.04847685620188713, -0.026069778949022293, 0.017135461792349815, 0.021242385730147362, -0.0356123149394989], [0.09322002530097961, 0.03952842205762863, 0.035842254757881165, -0.011559447273612022, -0.00975856278091669, -0.035276859998703, -0.03548876941204071, -0.01835005357861519, 0.05222560837864876, 0.015561685897409916], [0.027776379138231277, 0.05057094991207123, 0.022940130904316902, 0.10219211876392365, -0.007532340008765459, -0.10470976680517197, -0.023298116400837898, -0.006421763449907303, -0.07226255536079407, -0.02704746648669243], [-0.016630996018648148, -0.03448202461004257, 0.006264654919505119, 0.0057335905730724335, -0.08535100519657135, -0.03967678174376488, 0.014256244525313377, 0.04673539102077484, -0.05261210724711418, 0.02288724109530449], [0.013249081559479237, -0.027749046683311462, -0.09119634330272675, -0.09101980924606323, -0.05165090039372444, -0.030399739742279053, 0.010809417814016342, -0.14011932909488678, -0.00600083265453577, 0.12374326586723328], [0.08281774818897247, 0.04331178218126297, -0.06501752138137817, -0.013847379945218563, 0.0003067026846110821, -0.05400155857205391, -0.11621744185686111, -0.04026180878281593, -0.0012863987358286977, 0.08205155283212662], [-0.007050108630210161, 0.06331676244735718, -0.07278697937726974, -0.02709268033504486, 0.049678999930620193, 0.07411319762468338, 0.01961619406938553, -0.07044970989227295, 0.032869961112737656, 0.033934902399778366], [0.08814983814954758, -0.04280375689268112, -0.08560281246900558, -0.017329908907413483, -0.04207509756088257, 0.059438105672597885, -0.0009144945070147514, 0.0194839034229517, 8.80297739058733e-06, 0.054883405566215515], [-0.007261707913130522, -0.031244594603776932, -0.06837064027786255, -0.0017830488504841924, 0.034328971058130264, 0.004663459490984678, -0.06862103939056396, 0.09244965761899948, -0.026105808094143867, 0.08089893311262131], [0.07271838933229446, 0.08009746670722961, -0.09150531142950058, -0.10882820188999176, 0.04153856635093689, 0.00012149248505011201, 0.014942043460905552, 0.029037395492196083, -0.03954179957509041, -0.05369804427027702], [0.002426999621093273, -0.05123810097575188, 0.08850256353616714, 0.08753246814012527, -0.010217122733592987, -0.08191130310297012, -0.02750181034207344, 0.0937095433473587, 0.025583859533071518, -0.05789143592119217], [0.05728752166032791, 0.08285243809223175, -0.053697239607572556, -0.05223231017589569, 0.030471062287688255, -0.03849854692816734, -0.08297896385192871, -0.015553434379398823, 0.0021232699509710073, 0.01317171286791563], [0.01053743064403534, -0.044115956872701645, 0.12015902251005173, 0.009176789782941341, -0.10556059330701828, -0.05518697202205658, -0.07299234718084335, 0.061222273856401443, 0.07177773863077164, 0.06555908173322678], [0.016750436276197433, 0.0496312715113163, 0.01666322536766529, -0.018472179770469666, -0.08113779872655869, 0.03351989760994911, -0.06381285935640335, 0.03778630122542381, -0.03881189599633217, 0.06853042542934418], [0.05923585593700409, -0.011504675261676311, -0.05684932693839073, -0.015442082658410072, -0.04256045073270798, -0.05445993319153786, -0.005530296824872494, -0.038498494774103165, 0.09220331907272339, 0.13567988574504852], [0.0076871211640536785, -0.05793088302016258, -0.17613160610198975, -0.09286663681268692, -0.04951003938913345, -0.04658391326665878, 0.020713139325380325, 0.0548442080616951, 0.014473279938101768, 0.030714567750692368], [0.05351593717932701, 0.1033945083618164, -0.16677533090114594, -0.11395017802715302, 0.09193814545869827, 0.026481596753001213, 0.02061416767537594, -0.023550258949398994, 0.05559864640235901, 0.04194151982665062], [0.07646405696868896, 0.03184601292014122, -0.100186288356781, -0.1213957890868187, 0.07321812212467194, 0.022231418639421463, 0.08566299080848694, 0.05413369461894035, 0.04314910247921944, 0.05548569932579994], [0.048757344484329224, -0.007445914205163717, -0.01854405365884304, 0.006348698399960995, -0.08233825117349625, -0.04576588422060013, -0.13155023753643036, -0.016488537192344666, 0.054232701659202576, -0.001882396056316793], [-0.03190864622592926, -0.02781163714826107, -0.11802299320697784, -0.04676195606589317, 0.09222499281167984, 0.04276205971837044, 0.2271842360496521, -0.021204188466072083, 0.07101418077945709, 0.018263956531882286], [0.015423206612467766, -0.08342774957418442, 0.04347461089491844, 0.03162804991006851, 0.005713372491300106, -0.06612935662269592, -0.013768606819212437, -0.025871193036437035, 0.07524234056472778, -0.07377172261476517], [-0.0313606895506382, -0.002034599892795086, -0.09407597035169601, -0.061833456158638, 0.10438808053731918, -0.011486605741083622, -0.03784967586398125, 0.0005908278399147093, -0.017443044111132622, 0.0036143006291240454], [-0.030750911682844162, -0.07343131303787231, 0.11329621076583862, -0.013666581362485886, -0.2440866082906723, 0.058628156781196594, -0.11368521302938461, 0.03535083308815956, 0.10711482167243958, 0.24289773404598236], [0.018406014889478683, -0.06316406279802322, 0.04465818032622337, 0.012492690235376358, -0.09171432256698608, -0.05183294042944908, -0.05212773010134697, 0.06083006411790848, 0.006744928192347288, 0.09618761390447617], [-0.07616998255252838, 0.08101868629455566, -0.02951700985431671, -0.010076773352921009, 0.10704220831394196, 0.017831915989518166, 0.08307197690010071, -0.034889280796051025, 0.011540994979441166, 0.10002602636814117], [0.06049741059541702, -0.007270466536283493, -0.15497808158397675, -0.09850431978702545, 0.05747591704130173, 0.012551059015095234, 0.055663686245679855, 0.006988342385739088, -0.024504385888576508, 0.10144219547510147], [0.012419571168720722, 0.07352665811777115, -0.10432000458240509, -0.036456894129514694, 0.14912748336791992, 0.03840197995305061, 0.044434722512960434, 0.062428638339042664, -0.03702549636363983, 0.056926313787698746], [-0.05370153486728668, 0.015840066596865654, -0.15513978898525238, -0.10919850319623947, 0.0342857800424099, 0.051708754152059555, 0.006764569319784641, 0.09854497015476227, -0.0006368507165461779, 0.024684956297278404], [0.005639300215989351, -0.021729839965701103, -0.028577670454978943, 0.02245059423148632, -0.0033566299825906754, 0.05863919109106064, -0.19561998546123505, 0.07513143122196198, 0.07846463471651077, 0.05595116689801216], [-0.13390086591243744, -0.011178574524819851, -0.004416888579726219, -0.14082810282707214, 0.06613913178443909, -0.0386047288775444, 0.28565120697021484, -0.12080039083957672, -0.016866246238350868, -0.18426863849163055], [-0.00517553836107254, 0.005744658410549164, 0.04317983612418175, 0.06800755113363266, -0.054048340767621994, -0.08363334089517593, -0.07659434527158737, -0.10251621901988983, 0.13136105239391327, 0.10482701659202576], [-0.017796318978071213, -0.0209975503385067, -0.0857408195734024, 0.07207712531089783, 0.022979291155934334, 0.034146714955568314, 0.14049960672855377, 0.09591175615787506, 0.0053454432636499405, 0.04919658973813057], [0.0733996108174324, -0.06340507417917252, 0.15231500566005707, 0.046722035855054855, -0.2396908551454544, -0.03321082144975662, -0.2495432049036026, -0.11432642489671707, -0.01956259272992611, 0.159688338637352], [-0.019080324098467827, -0.05221839249134064, 0.017083950340747833, 0.11454857885837555, -0.1088777706027031, 0.03843891993165016, 0.05481020733714104, 0.04585684463381767, 0.015291239134967327, 0.102122001349926], [-0.02029094472527504, 0.11044485121965408, -0.06492400914430618, -0.07463350892066956, 0.12252084910869598, -0.030475474894046783, 0.13809531927108765, -0.14189262688159943, 0.013147806748747826, -0.011762378737330437], [-0.07505722343921661, -0.08120562136173248, -0.2308255285024643, -0.057069920003414154, 0.006479491479694843, 0.06468676030635834, 0.08924293518066406, 0.11270938068628311, 0.030179649591445923, 0.003376513719558716], [0.026835571974515915, -0.025315554812550545, -0.21170848608016968, -0.12928132712841034, 0.03558247163891792, -0.06512276828289032, -0.0027012235950678587, 0.1183851882815361, 0.01524422038346529, 0.009263666346669197], [0.020714107900857925, -0.03919872269034386, -0.2075275480747223, -0.05506032705307007, 0.12331371009349823, 0.02328590303659439, 0.05171041190624237, 0.014880572445690632, 0.020708676427602768, 0.07485362887382507], [0.001797557808458805, -0.08252428472042084, -0.016397953033447266, -0.0397154875099659, 0.0468842089176178, 0.04826560616493225, -0.16979104280471802, 0.0888306200504303, 0.07982663810253143, 0.1490248590707779], [-0.024435240775346756, 0.18299470841884613, -0.09208223968744278, -0.04038507863879204, 0.07311779260635376, -0.07101122289896011, 0.27566805481910706, -0.09456858783960342, 0.04364951699972153, -0.23232415318489075], [0.07736001163721085, 0.014040563255548477, 0.06422795355319977, 0.06229742243885994, 0.0004617351805791259, -0.06518383324146271, 0.01650421880185604, -0.16529473662376404, 0.0905228778719902, 0.023781917989253998], [-0.11657360196113586, -0.058266423642635345, -0.0664704442024231, -0.046623263508081436, 0.08549485355615616, 0.02508869208395481, 0.1391730010509491, 0.11369440704584122, -0.07873072475194931, 0.04782427102327347], [0.053233593702316284, 0.04804951697587967, 0.17780801653862, -0.019849279895424843, -0.19288523495197296, -0.07747048139572144, -0.18511363863945007, -0.06761032342910767, 0.061122238636016846, 0.038162991404533386], [-0.03428288549184799, -0.06297619640827179, 0.05213000252842903, 0.0023043188266456127, -0.14680829644203186, 0.09133477509021759, 0.011915403418242931, 0.013512217439711094, 0.020776066929101944, 0.008050806820392609], [0.014075333252549171, 0.1426505297422409, -0.13441041111946106, -0.1440574824810028, 0.07676947861909866, -0.1137273833155632, 0.1424892097711563, -0.16600118577480316, -0.056317102164030075, 0.008440106175839901], [-0.1185975894331932, -0.06533049792051315, -0.24927441775798798, -0.09111332148313522, 0.0813298225402832, 0.03749961778521538, 0.013271978124976158, 0.18445809185504913, -0.12100614607334137, 0.12841792404651642], [0.0599069781601429, 0.06857845932245255, -0.1931455284357071, -0.08566839247941971, 0.04442973807454109, -0.10289568454027176, -0.09622608870267868, 0.09389802813529968, -0.008054118603467941, 0.09506470710039139], [-0.06491909921169281, 0.0939803421497345, -0.14839640259742737, -0.060373254120349884, -0.012934263795614243, 0.0014843890676274896, -0.027896644547581673, 0.06902986019849777, -0.01986084133386612, -0.011416085064411163], [-0.04772927239537239, 0.012473084032535553, -0.02600903809070587, -0.09525033831596375, -0.008205249905586243, -0.03694703057408333, -0.03855380415916443, 0.03668346256017685, 0.09292667359113693, 0.015921518206596375], [-0.12169382721185684, 0.3505592346191406, -0.1455020010471344, -0.08393757045269012, 0.04913874343037605, -0.029902402311563492, 0.1632646918296814, -0.05067513883113861, -0.039902444928884506, -0.1643275022506714], [0.006129129324108362, 0.0576607882976532, -0.022992882877588272, -0.06830800324678421, -0.009207256138324738, -0.09405694156885147, -0.01155254989862442, -0.07710495591163635, 0.1482343077659607, 0.06163795292377472], [0.045731108635663986, -0.03572770208120346, -0.1156119704246521, -0.033100176602602005, -0.019931219518184662, -0.013287288136780262, -0.06816280633211136, 0.11698499321937561, 0.01342585776001215, 0.014403891749680042], [0.05926757678389549, -0.0035161052364856005, 0.14540916681289673, 0.10833649337291718, -0.20597703754901886, 0.0061255451291799545, -0.0768144354224205, -0.20537936687469482, 0.06956452131271362, 0.041872620582580566], [-0.10060137510299683, -0.10169575363397598, -0.04484289512038231, 0.048335961997509, -0.03967602923512459, 0.10868990421295166, 0.11632271111011505, 0.1260307878255844, -0.11285116523504257, 0.08959884941577911], [0.00443406542763114, 0.15075796842575073, -0.24056029319763184, -0.21521525084972382, 0.1799328774213791, -0.009883284568786621, 0.05913128703832626, -0.05559394508600235, 0.11842957884073257, -0.004130429122596979], [-0.0772557184100151, -0.004977070260792971, -0.14176033437252045, 0.019216597080230713, -0.0505269393324852, 0.130119189620018, -0.02564646303653717, 0.08052948862314224, 0.013226883485913277, 0.09746655076742172], [0.0067330109886825085, -0.03157301992177963, -0.01539516169577837, -0.014816012233495712, 0.08717402815818787, 0.014637559652328491, -0.10605432093143463, 0.07504341751337051, 0.020787153393030167, 0.016431543976068497], [-0.012765424326062202, -0.002997176954522729, 0.008403215557336807, 0.03039182908833027, 0.07126865535974503, -0.009143906645476818, -0.16012270748615265, 0.08770454674959183, 0.01096564345061779, -0.02622651681303978], [-0.030035993084311485, 0.08467840403318405, -0.05982206389307976, -0.02521718479692936, 0.05444538965821266, 0.007568116299808025, -0.1376483142375946, -0.025831561535596848, 0.05665326490998268, -0.0004317414714023471], [-0.06486090272665024, 0.22693094611167908, -0.20092779397964478, -0.029523324221372604, 0.09830305725336075, -0.0008707820088602602, 0.12952275574207306, -0.11151444166898727, -0.040706031024456024, -0.2122543305158615], [0.025757526978850365, -0.03591872751712799, -0.05359860509634018, 0.009930389933288097, 0.13451918959617615, 0.08334564417600632, -0.09610369801521301, -0.05384046956896782, 0.12231075763702393, -0.05034596845507622], [-0.04374005272984505, -0.0005565923056565225, -0.002450658706948161, -0.09966520220041275, -0.04020361602306366, -0.04138968512415886, 6.580895569641143e-05, 0.05079534277319908, 0.015060597099363804, 0.10832040756940842], [0.03795730322599411, -0.026229633018374443, 0.16009120643138885, 0.1005266085267067, -0.1588987559080124, -0.09303077310323715, 0.06518232077360153, -0.14484193921089172, 0.05561331287026405, 0.02920665219426155], [-0.009470553137362003, -0.011474034748971462, -0.07707437872886658, -0.07837042212486267, -0.0774066150188446, 0.12627066671848297, 0.07367745786905289, 0.0014664044138044119, -0.03170883655548096, 0.05613359063863754], [0.018628258258104324, 0.06769820302724838, -0.18756304681301117, -0.17301423847675323, 0.17620395123958588, -0.04707150533795357, 0.07110726833343506, -0.07340452820062637, 0.11000155657529831, -0.0278830137103796], [0.008041586726903915, -0.019323505461215973, -0.1305110603570938, -0.11571258306503296, 0.07616820186376572, 0.109933041036129, -0.02821672521531582, 0.07871590554714203, 0.08343350142240524, 0.026758963242173195], [-0.019153323024511337, -0.01711023971438408, -0.03628670424222946, 0.04402519017457962, -0.04086555168032646, -0.05349380895495415, -0.07500272244215012, -0.0010279896669089794, 0.0002581826411187649, 0.09090402722358704], [-0.02078416384756565, -0.012341092340648174, -0.024233581498265266, 0.05955171585083008, 0.03202296793460846, -0.04291515424847603, -0.009694871492683887, -0.03745468333363533, -0.027288667857646942, -0.06413722038269043], [0.03810637444257736, -0.03171330690383911, -0.02055741846561432, 0.003022710559889674, -0.038498979061841965, 0.09789496660232544, -0.08961585909128189, 0.06014842912554741, 0.004097639583051205, -0.042987480759620667], [-0.07906626909971237, 0.05800209566950798, -0.04631075635552406, 0.011551488190889359, 0.1895396113395691, -0.010325762443244457, 0.1162375956773758, -0.13535891473293304, -0.028904421254992485, -0.24350427091121674], [0.016379686072468758, 0.03657218813896179, -0.10046713799238205, -0.06755109876394272, 0.16850602626800537, 0.1232794001698494, -0.038392502814531326, 0.011150826700031757, 0.08708322793245316, -0.09405029565095901], [0.03904318809509277, -0.04102769494056702, 0.020283186808228493, -0.022306131199002266, -0.0018965800991281867, 0.059243496507406235, -0.09865153580904007, 0.03075816109776497, -0.03845014050602913, -0.0005387740093283355], [0.055811818689107895, 0.030636614188551903, 0.1335737109184265, 0.0019477505702525377, -0.052075400948524475, -0.11962425708770752, 0.16561299562454224, -0.1308482587337494, 0.01571722887456417, -0.1171271950006485], [-0.002482093870639801, -0.10897565633058548, 0.0009199717314913869, 0.016154121607542038, -0.07380874454975128, 0.1080523133277893, 0.02144080214202404, -0.025592133402824402, 0.08689992129802704, 0.03252954035997391], [-0.04062926396727562, 0.07312510907649994, -0.1007082462310791, -0.17020660638809204, 0.19274650514125824, 0.07458136230707169, -0.0255358275026083, 0.05370769277215004, -0.008226847276091576, -0.11000966280698776], [0.08773744106292725, -0.030579064041376114, -0.01669459603726864, 0.03824722766876221, -0.04625117406249046, 0.05006033182144165, -0.0654885321855545, 0.029766840860247612, -0.0066556669771671295, -0.06249239668250084], [0.08487097173929214, -0.007598386611789465, 0.011852914467453957, 0.054907895624637604, 0.022760065272450447, -0.09263201057910919, -0.023267870768904686, 0.0022023122292011976, -0.028042199090123177, 0.09855600446462631], [-0.042528387159109116, 0.059365998953580856, 0.040995195508003235, -0.0040063317865133286, -0.11928554624319077, -0.031687889248132706, -0.010037439875304699, 0.05387291684746742, -0.025913551449775696, 0.0170426182448864], [0.06531370431184769, 0.032618869096040726, -0.0712587907910347, -0.05077916383743286, 0.10434229671955109, 0.11008861660957336, -0.0038505836855620146, -0.07829638570547104, 0.006973747629672289, -0.0740586444735527], [-0.10319261997938156, 0.16524584591388702, -0.05073767155408859, 0.08669030666351318, 0.10670612752437592, -0.04765205457806587, 0.16857117414474487, -0.04621298611164093, 0.03833160549402237, -0.1148267462849617], [-0.07860264927148819, 0.0009236589539796114, -0.16875402629375458, -0.05274059250950813, 0.2078487128019333, 0.0685344859957695, -0.017168691381812096, -0.08244168013334274, 0.07384595274925232, -0.1789238452911377], [0.087975412607193, -0.1062617376446724, 0.06557808816432953, -0.03081868402659893, -0.07154792547225952, -0.055422138422727585, -0.07881464809179306, 0.04484216868877411, 0.10341574996709824, 0.03817346692085266], [0.005628966726362705, 0.12510250508785248, 0.0021866054739803076, -0.018508754670619965, 0.015909355133771896, 0.019674930721521378, 0.1520111858844757, -0.11005199700593948, -0.0775342807173729, -0.17841456830501556], [0.008238140493631363, 0.012766017578542233, 0.0031463922932744026, -0.06044114753603935, -0.12735237181186676, 0.06219792738556862, -0.027431685477495193, 0.021407976746559143, 0.03843502700328827, 0.06188046187162399], [-0.03214097023010254, 0.007956945337355137, -0.061647288501262665, -0.10470181703567505, 0.04887562617659569, 0.11823402345180511, 0.012037736363708973, -0.011847789399325848, 0.07627958059310913, -0.1033077985048294], [-0.032924726605415344, -0.0688084065914154, 0.07191266864538193, 0.01262977346777916, 0.02650463953614235, 0.011664651334285736, 0.06286182999610901, -0.09282887727022171, 0.10872620344161987, 0.029640523716807365], [0.01199155580252409, -0.05547233670949936, -0.0011318675242364407, -0.06429785490036011, 0.05052708834409714, 0.020524699240922928, -0.018922138959169388, -0.07509530335664749, 0.09915938228368759, 0.047784630209207535], [-0.02994377538561821, 0.04654611647129059, -0.02480039931833744, -0.02542840875685215, 0.0295995082706213, 0.024799637496471405, -0.027260757982730865, -0.003850439563393593, 0.04292619973421097, 0.015614700503647327], [-0.053710781037807465, -0.08674763143062592, -0.008112026378512383, 0.07621795684099197, -0.0321616604924202, -0.050433479249477386, -0.05964338034391403, 0.016742026433348656, -0.03364136442542076, -0.02695792354643345], [0.068704754114151, -0.0005946241435594857, -0.08981689810752869, -0.008891628123819828, -0.0011482586851343513, -0.03622440993785858, 0.05809607356786728, -0.07847993820905685, -0.0598178394138813, 0.0184823889285326], [-0.0019189263693988323, -0.09320125728845596, -0.11356553435325623, 0.1526241898536682, 0.04294344782829285, -0.041865233331918716, -0.07538314908742905, 0.08559064567089081, 0.06504622846841812, -0.024647096171975136], [-0.002672686241567135, -0.06851541996002197, 0.02705024741590023, -0.08315268158912659, -0.024176951497793198, -0.06454574316740036, 0.07100941985845566, -0.056045711040496826, -0.03471052646636963, 0.006840699352324009], [-0.08636757731437683, -0.005662344861775637, 0.014614109881222248, 0.10556144267320633, -0.015534081496298313, -0.07134173810482025, -0.08196865022182465, 0.10242829471826553, -0.08875472843647003, -0.07139677554368973], [-0.03574100136756897, -0.013079565949738026, 0.03856236860156059, 0.00987288635224104, -0.02458672784268856, -0.026287393644452095, -0.024814680218696594, -0.03993269428610802, 0.05848424881696701, 0.005356866866350174], [0.017212973907589912, 0.06364734470844269, -0.08205758035182953, -0.11255351454019547, -0.0001626465527806431, 0.10496785491704941, -0.07093945890665054, -0.03709635138511658, 0.04347296431660652, 0.03979402780532837], [0.05806981399655342, -0.05491643399000168, -0.05133720114827156, -0.06963501870632172, 0.006845920812338591, -0.024429872632026672, 0.03649095445871353, -0.008577996864914894, 0.06372879445552826, 0.09168834239244461], [0.10108119249343872, 0.06799530982971191, -0.07461496442556381, -0.0021455525420606136, -0.019202502444386482, -0.030012046918272972, -0.03690297529101372, -0.10452256351709366, -0.046099524945020676, 0.09716253727674484], [0.11341928690671921, -0.04844106361269951, -0.05428450182080269, -0.055856261402368546, -0.06583213061094284, 0.01495039090514183, 0.004472176544368267, -0.018954480066895485, -0.002717087510973215, 0.0899650901556015], [-0.06757935881614685, -0.07578101009130478, -0.046504631638526917, 0.06988394260406494, 0.019358908757567406, -0.001660194480791688, -0.14767545461654663, 0.01227014884352684, 0.07009141147136688, 0.054039355367422104], [-0.022955065593123436, 0.06795205920934677, -0.09073379635810852, 0.030869675800204277, 0.04791885241866112, 0.029996821656823158, -0.01839751936495304, -0.053266361355781555, -0.0728350505232811, 0.020095407962799072], [0.014520241878926754, -0.07379457354545593, 0.06823425740003586, 0.08556076139211655, 0.003191411029547453, -0.050024691969156265, -0.07931280881166458, 0.1118473932147026, 0.07734324038028717, -0.07949179410934448], [0.011558959260582924, 0.05546553060412407, -0.013391440734267235, 0.007271930109709501, -0.10039505362510681, -0.08050182461738586, 0.07870402187108994, -0.13655538856983185, 0.015684019774198532, 0.0003234583418816328], [0.02495230920612812, 0.061890244483947754, -0.03142751753330231, 0.10934962332248688, -0.013521446846425533, -0.015360446646809578, -0.15249329805374146, 0.11252190172672272, -0.09999144077301025, 0.016008814796805382], [-0.046868983656167984, 0.025566736236214638, 0.03645506873726845, 0.07125815749168396, -0.06705490499734879, -0.13143742084503174, -0.02981105074286461, 0.010157645680010319, 0.022621922194957733, 0.10645473748445511], [0.07954740524291992, -0.03714722767472267, 0.005030050408095121, -0.0726218894124031, 0.03059404157102108, 0.007194517645984888, 0.04081065580248833, -0.07171119004487991, -0.009677300229668617, 0.04554654285311699], [0.029519861564040184, -0.11370257288217545, -0.028949588537216187, -0.0072349077090620995, 0.048211097717285156, -0.0757749155163765, -0.01612325757741928, -0.016068998724222183, -0.02780912257730961, 0.050046514719724655], [0.0897846594452858, 0.116560198366642, 0.05776044726371765, -0.04283598065376282, 0.05156960338354111, -0.10595226287841797, -0.0075093531049788, -0.08514874428510666, -0.06789539009332657, -0.07077919691801071], [0.022559823468327522, -0.02978844754397869, -0.06657636910676956, -0.07793829590082169, 0.08745718747377396, -0.01106893178075552, -0.006910835858434439, -0.13218089938163757, 0.0166486743837595, 0.09471992403268814], [-0.04283616319298744, -0.1254858672618866, 0.01011577807366848, 0.02643873542547226, 0.030266765505075455, 0.019863395020365715, -0.12558409571647644, 0.024422237649559975, -0.05460333451628685, 0.08369512110948563], [-0.005716792773455381, 0.06254884600639343, 0.006111885886639357, 0.02164989523589611, 0.135809063911438, -0.04337061569094658, 0.0794222354888916, -0.09734176844358444, 0.04483742266893387, 0.027089707553386688], [-0.037723902612924576, -0.20138515532016754, 0.06528998911380768, 0.007144820876419544, 0.13773606717586517, -0.000977737596258521, -0.012898920103907585, 0.17789989709854126, 0.06312058866024017, -0.003025204408913851], [0.03179813548922539, 0.004493015352636576, 0.08653885871171951, 0.07681000232696533, 0.01614808477461338, -0.11594510823488235, 0.054926272481679916, -0.11371437460184097, -0.003969381097704172, -0.025560175999999046], [0.03428533673286438, -0.04840053617954254, -0.008591758087277412, 0.16935957968235016, -0.12212791293859482, 0.10342242568731308, -0.17268386483192444, 0.13424913585186005, -0.08637914806604385, 0.02235526591539383], [-0.07538153976202011, -0.08567094057798386, 0.1629645973443985, 0.14848347008228302, -0.07579442113637924, -0.18528521060943604, 0.02218894474208355, -0.015500620938837528, -0.06079200282692909, 0.12088528275489807], [0.0688042864203453, 0.003272426314651966, 0.04361957311630249, -0.07116754353046417, 0.004168938845396042, 0.03700055554509163, 0.08046362549066544, -0.12537354230880737, 0.0357266329228878, 0.007394828367978334], [-0.0070823491550982, -0.07507416605949402, 0.05853378400206566, 0.02177341654896736, -0.09396529942750931, 0.03900717571377754, 0.09784849733114243, -0.03632098808884621, 0.009834479540586472, 0.19764812290668488], [-0.0066213179379701614, -0.030737491324543953, 0.07611285150051117, -0.04884029179811478, 0.10899126529693604, -0.0516728051006794, 0.030956769362092018, -0.08616136759519577, -0.08229150623083115, -0.08260078728199005], [0.03779679164290428, 0.003786555491387844, -0.0017023503314703703, -0.2616262435913086, 0.04894580692052841, 0.01599765196442604, 0.16290879249572754, -0.052178528159856796, -0.04147878661751747, -0.011416849680244923], [-0.0005331977154128253, -0.10123583674430847, 0.08169621229171753, -0.021851349622011185, -0.07775978744029999, -0.058669690042734146, -0.0637812539935112, 0.041333653032779694, -0.01830259896814823, 0.15765833854675293], [-0.10043397545814514, -0.04825226962566376, -0.07035193592309952, -0.25902044773101807, 0.2470559924840927, -0.015146257355809212, 0.1367357075214386, -0.2367733120918274, 0.131601944565773, -0.07732222229242325], [0.0348239503800869, -0.15162169933319092, 0.07723292708396912, 0.044007059186697006, -0.023292183876037598, 0.017689500004053116, -0.13858355581760406, 0.044611115008592606, 0.12355408817529678, 0.04182460904121399], [0.02382155880331993, -0.06125430390238762, 0.05397389456629753, -0.00014589197235181928, -0.04493630677461624, -0.04650634899735451, 0.09178885072469711, -0.05163329094648361, 0.07445411384105682, 0.05568990856409073], [0.003957647364586592, -0.031003516167402267, 0.08137039095163345, 0.1846562623977661, -0.19096796214580536, 0.11412417888641357, -0.1590600460767746, 0.18445904552936554, -0.10070066899061203, -0.04168190062046051], [-0.05200205370783806, -0.21495744585990906, 0.19728055596351624, 0.34158092737197876, -0.08910523355007172, -0.12987792491912842, -0.04074554517865181, 0.05217849463224411, 0.04738112911581993, 0.06385500729084015], [-0.0365188829600811, 0.017058856785297394, -0.09259375184774399, -0.1378498077392578, 0.06994738429784775, -0.006874517071992159, 0.12846161425113678, -0.20517247915267944, 0.07311925292015076, 0.1597633808851242], [-0.031925905495882034, -0.08562292903661728, -0.08759582787752151, -0.08488420397043228, -0.1364133507013321, 0.07853337377309799, 0.07204131036996841, -0.008977101184427738, -0.00849863700568676, 0.18987563252449036], [0.02081161178648472, 0.026634471490979195, 0.006932573392987251, -0.1084732934832573, 0.17246846854686737, -0.050856031477451324, 0.1313665807247162, -0.09538968652486801, -0.07103344053030014, -0.2153380662202835], [-0.007575517985969782, 0.11745518445968628, -0.14257508516311646, -0.3336992859840393, 0.07996266335248947, 0.08472097665071487, 0.22356025874614716, -0.0019177772337570786, -0.0337180495262146, -0.08650588989257812], [0.06020922586321831, -0.12503407895565033, 0.07331843674182892, 0.04410286620259285, -0.10087519139051437, 0.07161422818899155, -0.06314443051815033, 0.0020921204704791307, -0.0006503871991299093, 0.17392082512378693], [0.018696507439017296, -0.0007032739813439548, -0.07918492704629898, -0.3383123278617859, 0.29056209325790405, -0.01348691713064909, 0.1187480017542839, -0.3040769100189209, 0.19782741367816925, 0.01757076196372509], [0.015940288081765175, -0.10912153869867325, 0.08538305759429932, -0.01860935613512993, -0.07560612261295319, -0.07866288721561432, -0.10016569495201111, -0.006425295956432819, 0.09419149160385132, 0.11839763075113297], [0.08954696357250214, -0.03532891720533371, 0.004632787778973579, 0.07064835727214813, 0.03670995309948921, -0.0017581485444679856, 0.03736371546983719, -0.07810783386230469, 0.08672986924648285, -0.11209311336278915], [-0.00951866339892149, -0.03007235750555992, 0.03854316845536232, 0.12877805531024933, -0.18010719120502472, 0.019229866564273834, -0.13169391453266144, 0.11113837361335754, -0.10913534462451935, 0.059072595089673996], [-0.04777484014630318, -0.1441746950149536, 0.1408665031194687, 0.1714608073234558, -0.1856897473335266, -0.0441552996635437, -0.0962742418050766, 0.04093262925744057, 0.14885249733924866, 0.05764521285891533], [-0.08917626738548279, 0.09782220423221588, -0.0021782908588647842, -0.16021020710468292, 0.09723304212093353, -0.005217505618929863, 0.18684254586696625, -0.24520255625247955, 0.05952860042452812, 0.08424043655395508], [0.05762431398034096, 0.13263319432735443, -0.12470349669456482, -0.06538434326648712, -0.17623843252658844, 0.10967281460762024, 0.1639692187309265, -0.012461393140256405, -0.07114429771900177, -0.07353463768959045], [-0.025635946542024612, 0.08995513617992401, 0.05250916630029678, -0.11236579716205597, 0.19225990772247314, 0.03559867665171623, 0.07979272305965424, -0.09457246959209442, -0.14478281140327454, -0.27084046602249146], [-0.035234689712524414, 0.22621724009513855, -0.07373177260160446, -0.24638164043426514, 0.2026536911725998, 0.07411769032478333, 0.17752611637115479, 0.03127172216773033, -0.1662471741437912, -0.36039283871650696], [0.14431126415729523, -0.09234382957220078, -0.02156614325940609, -0.05230434238910675, -0.08780686557292938, 0.08017906546592712, -0.1487785130739212, 0.03573238477110863, -0.09848753362894058, 0.17670471966266632], [-0.05681963264942169, 0.20541909337043762, -0.12049392610788345, -0.27314093708992004, 0.21986699104309082, 0.06191971153020859, 0.15340794622898102, -0.3488460183143616, 0.017522886395454407, -0.1853441298007965], [0.06518283486366272, -0.044927965849637985, 0.01985696516931057, 0.09611017256975174, -0.07857610285282135, -0.07544993609189987, -0.15556298196315765, -0.020590057596564293, 0.09841941297054291, 0.14359495043754578], [-0.03460409492254257, 0.00420226389542222, 0.07474667578935623, -0.02108122408390045, 0.0015661148354411125, 0.003409571712836623, 0.0994824543595314, -0.021687226369976997, -0.02972840704023838, -0.17703816294670105], [0.009211679920554161, -0.009281601756811142, 0.09464195370674133, -0.010229583829641342, -0.24902960658073425, -0.01581200771033764, -0.11444591730833054, 0.10920154303312302, -0.05000155046582222, 0.18530194461345673], [-0.06841567903757095, -0.21668696403503418, 0.07753884047269821, -0.034657493233680725, -0.23129525780677795, 0.25420665740966797, 0.036705419421195984, 0.14354906976222992, 0.16806438565254211, -0.010753234848380089], [0.044980112463235855, 0.13841012120246887, -0.140240877866745, -0.15993478894233704, 0.24565550684928894, -0.07636752724647522, 0.19527848064899445, -0.1761341691017151, 0.027678653597831726, -0.012413856573402882], [-0.12957078218460083, 0.021096738055348396, -0.07546240091323853, -0.15333516895771027, -0.030647797510027885, 0.1721520721912384, 0.19812440872192383, 0.12659624218940735, 0.008056924678385258, -0.22645582258701324], [0.010562735609710217, 0.14375708997249603, 0.01350193191319704, -0.1311652660369873, 0.12634046375751495, 0.03193345293402672, 0.04009953513741493, -0.1301604062318802, -0.06793370842933655, -0.19047969579696655], [-0.07349049299955368, 0.12361849099397659, -0.004570338409394026, -0.007555511314421892, 0.1621629148721695, -0.005812641698867083, 0.1938868761062622, -0.024701206013560295, -0.17470967769622803, -0.10931068658828735], [0.05537555739283562, -0.12409807741641998, -0.08517968654632568, -0.05105467885732651, -0.10984136164188385, 0.16479060053825378, -0.1192694678902626, 0.09617254137992859, -0.09650552272796631, 0.08432573080062866], [-0.005832514259964228, 0.25428685545921326, -0.1577533781528473, 0.025339169427752495, 0.3526914715766907, 0.0038736392743885517, 0.15448033809661865, -0.16194511950016022, -0.053703103214502335, -0.2584337294101715], [0.012352664954960346, -0.07772496342658997, -0.041288260370492935, 0.059248462319374084, 0.013186300173401833, -0.026845984160900116, -0.15508605539798737, -0.0927019864320755, 0.12841980159282684, 0.09111757576465607], [-0.14378702640533447, 0.07889605313539505, 0.02217685803771019, -0.10758501291275024, 0.014798274263739586, 0.09396270662546158, 0.12297013401985168, -0.08016836643218994, 0.032041002064943314, -0.20269815623760223], [0.049360811710357666, 0.032482828944921494, 0.045826006680727005, 0.014370578341186047, -0.3475833237171173, -0.008722660131752491, -0.16489075124263763, 0.11328940838575363, -0.009684101678431034, 0.10773742198944092], [-0.11375167965888977, -0.19944974780082703, 0.006608502473682165, -0.18225207924842834, -0.22214093804359436, 0.30320703983306885, 0.13011373579502106, -0.008738297037780285, 0.11360302567481995, 0.07080553472042084], [-0.033838286995887756, 0.20852531492710114, -0.28007635474205017, -0.11671381443738937, 0.21697066724300385, -0.08784648776054382, 0.13901294767856598, -0.048314452171325684, 0.05252925679087639, -0.20961888134479523], [-0.1112104132771492, 0.001291134743951261, -0.12398173660039902, -0.1590471863746643, 0.02161419950425625, 0.2341209053993225, 0.16684746742248535, 0.013450026512145996, -0.13390448689460754, -0.15343433618545532], [-0.1092408150434494, -0.0032447469420731068, 0.05368691310286522, -0.08460201323032379, -0.009330188855528831, 0.018057990819215775, 0.016442369669675827, -0.06985942274332047, 0.016466498374938965, 0.013514641672372818], [-0.05581595003604889, -0.05007689446210861, -0.04905395582318306, -0.02255326695740223, 0.10740238428115845, 0.028398960828781128, 0.06666939705610275, -0.02732091397047043, -0.06168752908706665, -0.0943102240562439], [0.05293767526745796, -0.015938300639390945, -0.17904780805110931, -0.08451435714960098, -0.024386363103985786, 0.21281807124614716, 0.0252390019595623, 0.08210275322198868, -0.06217743083834648, 0.052485693246126175], [-0.010137948207557201, 0.09516607224941254, -0.16405680775642395, 0.016264228150248528, 0.35137948393821716, 0.05175763741135597, 0.10150086879730225, 0.02531658113002777, -0.11388440430164337, -0.2717663645744324], [0.042683281004428864, -0.19758783280849457, -0.029475420713424683, -0.1139821708202362, 0.1343756914138794, 0.08846376091241837, -0.163917675614357, 0.054647114127874374, 0.11230574548244476, -0.05522933229804039], [-0.008228875696659088, 0.00014303403440862894, 0.05618911609053612, -0.0800563395023346, -0.026769280433654785, 0.08608467131853104, 0.16452528536319733, -0.08726873993873596, 0.005027701146900654, -0.023806657642126083], [0.030461201444268227, -0.03832286596298218, -0.036574482917785645, -0.003920762334018946, -0.22351200878620148, -0.049158208072185516, -0.11788316071033478, 0.003831217298284173, -0.03369273990392685, 0.0858704149723053], [-0.21367774903774261, -0.09796174615621567, -0.0015146650839596987, -0.22699765861034393, -0.15166865289211273, 0.2641700804233551, 0.15656778216362, -0.036019451916217804, -0.043966349214315414, -0.018701951950788498], [-0.1021822988986969, 0.044642284512519836, -0.22020064294338226, -0.0992787629365921, 0.3287268280982971, 0.007160338573157787, 0.06093112379312515, -0.09754364937543869, 0.03004494309425354, -0.2968997657299042], [0.0035258394200354815, -0.10170267522335052, -0.017045889049768448, -0.1487254649400711, 0.030340978875756264, 0.19279488921165466, 0.14912822842597961, 0.05543098971247673, -0.0041393921710550785, -0.05252717062830925], [0.038552794605493546, 0.05752488225698471, 0.025035960599780083, -0.026940254494547844, -0.03694295883178711, 0.005272527225315571, 0.10015550255775452, 0.039666540920734406, 