{"conv_1_1": {"kernel": [[[[0.42118367552757263, 0.31970059871673584, -0.43306246399879456, -0.2237100750207901, 0.08123478293418884, -0.35071757435798645, -0.18265943229198456, 0.02158864215016365, -0.3891611397266388, -0.3569573760032654]], [[-0.04284144192934036, 0.38077929615974426, -0.2646106481552124, -0.3236411213874817, 0.2763730585575104, -0.001614027307368815, 0.22167599201202393, 0.10667901486158371, -0.4128519892692566, -0.24012699723243713]], [[-0.23863618075847626, 0.42189788818359375, -0.0687878355383873, 0.08600714802742004, 0.25458621978759766, 0.23742066323757172, 0.08495335280895233, 0.21787971258163452, 0.11290339380502701, -0.05571983754634857]]], [[[0.48742279410362244, 0.3510870337486267, -0.008110642433166504, 0.3332034945487976, 0.13356877863407135, 0.12988483905792236, -0.3880803883075714, 0.17289769649505615, 0.3323911130428314, 0.22762557864189148]], [[0.15675002336502075, -0.12250017374753952, -0.14044658839702606, -0.1052454337477684, 0.34917938709259033, 0.10800441354513168, 0.06596390902996063, 0.07111679017543793, -0.2581934928894043, 0.07687408477067947]], [[-0.2131369262933731, -0.020164187997579575, -0.12698504328727722, 0.020063351839780807, 0.1253349632024765, 0.2478000968694687, 0.14196626842021942, 0.11635783314704895, -0.5119982957839966, 0.014548943378031254]]], [[[0.2436310052871704, -0.19302110373973846, 0.46617403626441956, 0.12748156487941742, -0.20984713733196259, -0.14580591022968292, -0.5033872723579407, 0.10639479011297226, 0.1296372264623642, 0.22741681337356567]], [[0.17692658305168152, 0.07149123400449753, 0.31762003898620605, 0.3507879674434662, 0.15374329686164856, 0.38769465684890747, 0.16826976835727692, -0.04418325424194336, 0.38694262504577637, 0.10171160101890564]], [[0.3010485768318176, -0.15162666141986847, 0.11499705165624619, 0.04550723358988762, 0.16727261245250702, 0.16441422700881958, 0.40614262223243713, 0.1963227540254593, -0.058149032294750214, 0.12690573930740356]]]], "bias": [-0.0031244836281985044, 0.07923024892807007, 0.04751947522163391, -0.0009651363361626863, -0.0007010366534814239, 0.008721540682017803, -0.0024889055639505386, -0.000982841127552092, 0.10408976674079895, -0.0015653338050469756], "kernel_shape": [3, 3, 1, 10], "bias_shape": [10]}, "conv_1_2": {"kernel": [[[[0.001872206456027925, 0.05452607572078705, 0.13437297940254211, -0.07073760032653809, -0.008193371817469597, -0.32417023181915283, -0.5583066940307617, 0.06342621147632599, 0.08055119216442108, 0.21177054941654205], [0.054807260632514954, 0.09587595611810684, -0.20919375121593475, -0.3629533350467682, 0.11669398844242096, -0.538606584072113, 0.14814375340938568, 0.10225324332714081, -0.17443540692329407, 0.15497294068336487], [-0.014320257119834423, -0.14546288549900055, 0.3074337840080261, 0.46580779552459717, 0.05893939360976219, -0.052510373294353485, -0.33084142208099365, -0.29345938563346863, -0.07351641356945038, -0.031787972897291183], [0.09574415534734726, 0.15556424856185913, 0.2344036102294922, 0.20568256080150604, -0.024580495432019234, -0.30742302536964417, -0.17033813893795013, 0.043509341776371, 0.14688889682292938, -0.09284995496273041], [-0.0021378512028604746, 0.10943098366260529, -0.012625247240066528, -0.2284633219242096, -0.015473900362849236, -0.44238704442977905, -0.06202949211001396, -0.05863729491829872, -0.05782157927751541, 0.06298795342445374], [-0.23716165125370026, -0.2325306236743927, -0.019330067560076714, -0.03576812893152237, -0.1324235498905182, -0.1479962170124054, 0.017268838360905647, 0.08294590562582016, 0.17141911387443542, -0.07233060896396637], [-0.37456032633781433, -0.020045248791575432, -0.03912866860628128, -0.21254990994930267, 0.3040961027145386, 0.07376734167337418, 0.2385174036026001, 0.05609901621937752, 0.1426144540309906, -0.09101580083370209], [-0.19261011481285095, 0.15088385343551636, 0.044122811406850815, -0.26362964510917664, 0.14935126900672913, -0.4443763196468353, -0.05860614776611328, -0.11893373727798462, 0.14463216066360474, 0.012672269716858864], [-0.03285014256834984, -0.0004159766249358654, -0.04439602419734001, 0.4092234969139099, -0.17946597933769226, -0.2566533386707306, -0.10497842729091644, -0.22189317643642426, -0.28815531730651855, -0.31763410568237305], [0.02303306944668293, -0.1465655267238617, 0.05193524435162544, 0.20828132331371307, -0.022056816145777702, -0.19295361638069153, -0.5292651057243347, 0.12243766337633133, 0.128191277384758, -0.13693009316921234]], [[0.03335118666291237, 0.0443434938788414, 0.1920173615217209, -0.2319207787513733, 0.13435791432857513, -0.3986428678035736, -0.17184066772460938, 0.07086139172315598, -0.028385445475578308, -0.015326648950576782], [-0.322189599275589, -0.0882636159658432, -0.2912057340145111, -0.15796522796154022, 0.029181120917201042, -0.1627320498228073, 0.1011938527226448, 0.10396387428045273, -0.15568898618221283, 0.1788783222436905], [0.27623552083969116, -0.1802312135696411, 0.31938451528549194, 0.4866524934768677, -0.1743374913930893, -0.169363871216774, -0.6478898525238037, -0.15538518130779266, -0.06987201422452927, -0.1405283659696579], [0.1390131264925003, 0.1482393443584442, 0.1428121030330658, 0.18144121766090393, -0.02614438906311989, 0.005647313315421343, -0.20839551091194153, -0.06802714616060257, 0.14581497013568878, 0.16806064546108246], [-0.07506640255451202, -0.015613664872944355, -0.12329626828432083, -0.1701296865940094, 0.13633793592453003, 0.046057745814323425, 0.2740691900253296, -0.05249958485364914, -0.011764577589929104, -0.09807296097278595], [-0.09725102037191391, -0.14622248709201813, -0.11290024220943451, -0.3380618691444397, -0.19711919128894806, 0.20229332149028778, 0.043579161167144775, 0.038547638803720474, 0.11695712059736252, -0.15080894529819489], [-0.1308380365371704, 0.1352839171886444, -0.20209379494190216, -0.4900599420070648, 0.06362467259168625, 0.06408673524856567, 0.504745364189148, -0.002723169978708029, 0.17221590876579285, 0.1062101349234581], [-0.24315305054187775, -0.09863315522670746, 0.034595146775245667, -0.2864225208759308, 0.11443456262350082, 0.045166581869125366, 0.14786671102046967, 0.19732517004013062, 0.07869554311037064, 0.0005781890358775854], [-0.1590752750635147, -0.1430339813232422, 0.19459772109985352, 0.3160649240016937, 0.05276352912187576, -0.24133147299289703, -0.29378464818000793, -0.29756399989128113, -0.31464433670043945, 0.017707763239741325], [-0.07846494019031525, -0.01493585854768753, 0.24544267356395721, 0.12928032875061035, -0.020547127351164818, 0.0666508823633194, -0.43201273679733276, -0.19817125797271729, -0.2094244658946991, -0.08039052784442902]], [[-0.11856020987033844, -0.16375339031219482, 0.06196608394384384, -0.19655250012874603, 0.1740400642156601, -0.22079648077487946, 0.2687283456325531, 0.03746883571147919, -0.03427363559603691, 0.0011386109981685877], [-0.38395795226097107, -0.2576541006565094, -0.3712425231933594, 0.12298659980297089, 0.11673874408006668, 0.08910852670669556, 0.042673561722040176, -0.10414440929889679, 0.1946893036365509, -0.03947572410106659], [0.3693518340587616, 0.17764420807361603, 0.24277421832084656, 0.18750877678394318, 0.07653506845235825, -0.20824755728244781, -0.6795082688331604, -0.12220387160778046, -0.08124025911092758, -0.17329001426696777], [-0.027201417833566666, 0.02750503458082676, 0.33013665676116943, -0.247034952044487, -0.017106441780924797, 0.11644010990858078, -0.1657465696334839, -0.24794262647628784, -0.049162428826093674, -0.04610107094049454], [-0.2421501874923706, 0.10035943239927292, -0.03683355078101158, -0.30206289887428284, -0.0889604464173317, 0.14426454901695251, 0.027650101110339165, 0.20595522224903107, 0.12983065843582153, 0.15279404819011688], [0.04660793021321297, 0.16314969956874847, 0.17299500107765198, -0.20867852866649628, -0.019433937966823578, 0.3955801725387573, 0.21501056849956512, -0.02919659949839115, -0.0825495719909668, 0.03268849849700928], [-0.2652086615562439, 0.13487911224365234, -0.23486128449440002, -0.46035173535346985, 0.21762800216674805, 0.22454357147216797, 0.576392650604248, 0.09508878737688065, -0.02908371575176716, -0.01832887902855873], [-0.14515794813632965, 0.17721271514892578, 0.16360698640346527, -0.3424552083015442, 0.08521227538585663, 0.2413748800754547, 0.1928248256444931, 0.18322274088859558, 0.09146876633167267, 0.012719554826617241], [0.032249800860881805, -0.2630825340747833, 0.10599510371685028, 0.047048170119524, 0.037516433745622635, -0.4901869595050812, 0.0771283209323883, -0.24236929416656494, -0.427531898021698, -0.17803925275802612], [0.09307532012462616, 0.04510531947016716, 0.1744714081287384, -0.036570969969034195, 0.05406823381781578, 0.21415375173091888, -0.20995602011680603, -0.04013789817690849, -0.03737543150782585, 0.12487722188234329]]], [[[0.10806186497211456, 0.24907246232032776, 0.16657952964305878, 0.21557709574699402, 0.09394674748182297, -0.29008665680885315, -0.39164721965789795, 0.13129876554012299, 0.08063828200101852, -0.12789471447467804], [-0.142412468791008, 0.03257213905453682, -0.06857124716043472, -0.27630913257598877, 0.010910546407103539, -0.4439530670642853, -0.2995007336139679, 0.16961492598056793, -0.09939728677272797, -0.1170458123087883], [0.1736210286617279, 0.0812918096780777, 0.44060754776000977, 0.22788473963737488, -0.02821325697004795, 0.053947750478982925, -0.21764741837978363, -0.02372932992875576, 0.19262148439884186, 0.009237412363290787], [0.22883014380931854, 0.06523348391056061, 0.09931935369968414, 0.19806770980358124, 0.10179048776626587, 0.05472595617175102, -0.28819888830184937, 0.034171633422374725, 0.19206444919109344, 0.050765518099069595], [0.012839923612773418, 0.2129250317811966, 0.21970432996749878, 0.011602361686527729, -0.03275000676512718, -0.1380149871110916, -0.15172672271728516, 0.16592834889888763, -0.10076063871383667, 0.1930428147315979], [0.07655587792396545, -0.1632387638092041, 0.04998786747455597, 0.21189594268798828, -0.11321476846933365, 0.1659734547138214, -0.14752942323684692, -0.09144515544176102, 0.024323562160134315, 0.10345030575990677], [-0.09646541625261307, 0.09209565818309784, -0.1929713636636734, -0.28130078315734863, 0.2682425081729889, 0.3602524697780609, 0.19147418439388275, -0.13323093950748444, -0.24927572906017303, -0.030532168224453926], [-0.11573226004838943, -0.08524081110954285, -0.028131259605288506, 0.07252507656812668, 0.1875501424074173, 0.02796357311308384, -0.003637477522715926, 0.1554071605205536, -0.07514458894729614, 0.10570082813501358], [-0.005379668902605772, 0.13291387259960175, -0.07266763597726822, 0.23488913476467133, -0.18534834682941437, -0.40096431970596313, -0.018657919019460678, 0.06591316312551498, 0.05091654881834984, -0.07517898827791214], [0.254312127828598, -0.07412365823984146, -0.006367088295519352, 0.29159972071647644, -0.0003740392276085913, 0.18716372549533844, -0.43882784247398376, 0.038600001484155655, 0.16738122701644897, 0.13265034556388855]], [[-0.042455680668354034, 0.18249869346618652, 0.04035525023937225, 0.07832270115613937, -0.112183578312397, -0.04899666830897331, -0.48712021112442017, 0.04490171745419502, -0.15513566136360168, -0.019325200468301773], [-0.2384912520647049, -0.16176781058311462, -0.13879430294036865, -0.27030083537101746, -0.06856951117515564, -0.01786530576646328, 0.07531873136758804, -0.11015081405639648, 0.12350235134363174, -0.11702336370944977], [0.38827869296073914, 0.30878132581710815, 0.14881712198257446, 0.42500925064086914, -0.13499657809734344, 0.07076513022184372, -0.642652153968811, -0.046984076499938965, 0.12169093638658524, -0.14697296917438507], [0.2268984466791153, 0.24687783420085907, 0.020619740709662437, 0.31922581791877747, 0.12077678740024567, 0.24178266525268555, -0.09650787711143494, -0.019657328724861145, -0.14390531182289124, 0.07056467235088348], [-0.021634221076965332, -0.037166494876146317, 0.07193588465452194, -0.12540419399738312, 0.1928389072418213, -0.027429794892668724, 0.1863574981689453, 0.20198272168636322, -0.08040343970060349, -0.07681719213724136], [-0.0785924568772316, -0.18869511783123016, 0.11101794987916946, 0.04579057916998863, 0.13534004986286163, 0.20614391565322876, 0.2166089117527008, 0.08322121948003769, 0.053356658667325974, -0.15884459018707275], [-0.19965943694114685, -0.06913488358259201, -0.34367266297340393, -0.4821218252182007, 0.08290162682533264, 0.4085614085197449, 0.42961248755455017, -0.11803822964429855, 0.08256424218416214, -0.16494345664978027], [0.13141052424907684, 0.0033494222443550825, -0.029691660776734352, 0.02932845428586006, 0.005749342031776905, 0.02311345748603344, 0.011383372358977795, 0.12632954120635986, 0.16960574686527252, 0.08650421351194382], [0.03839293494820595, 0.056397248059511185, -0.01658487133681774, 0.4156947731971741, -0.06643008440732956, -0.4185760021209717, -0.1384374052286148, -0.10989466309547424, -0.1815488636493683, -0.06782104074954987], [0.17253178358078003, 0.22773948311805725, 0.27057456970214844, 0.1433502435684204, 0.005482466891407967, 0.22337579727172852, -0.21653132140636444, 0.023346710950136185, -0.008567963726818562, 0.08225123584270477]], [[0.2981615662574768, -0.1652439534664154, -0.1044679507613182, 0.21369777619838715, 0.17800499498844147, 0.04849578067660332, -0.01841532438993454, 0.19076068699359894, -0.002336438512429595, 0.15827122330665588], [-0.07198859751224518, -0.17875082790851593, -0.11547908931970596, -0.010788451880216599, -0.015994811430573463, -0.06089518591761589, 0.23059262335300446, -0.1523222178220749, 0.00974301341921091, -0.13511835038661957], [0.12523764371871948, 0.17049653828144073, 0.05299949273467064, 0.25885939598083496, -0.16082513332366943, 0.07891261577606201, -0.5698972940444946, -0.13658827543258667, -0.20702648162841797, -0.002500970149412751], [0.1437491625547409, 0.16155609488487244, 0.1492445319890976, 0.03167695924639702, -0.02645508013665676, 0.3184579908847809, -0.1318473070859909, -0.11158096790313721, -0.02413351833820343, -0.015305592678487301], [0.21561190485954285, -0.16996237635612488, 0.13325408101081848, -0.3282059133052826, -0.11134743690490723, 0.27012529969215393, 0.3050943911075592, 0.13898725807666779, -0.11750315129756927, 0.14133918285369873], [0.04069305583834648, 0.16063347458839417, 0.031669873744249344, -0.13953188061714172, -0.1608332097530365, 0.2810603976249695, 0.22950626909732819, 0.10872010886669159, -0.17363639175891876, -0.07180511951446533], [-0.14436116814613342, -0.07244440913200378, -0.29011785984039307, -0.5351858139038086, -0.037405356764793396, 0.2691127061843872, 0.5265499353408813, -0.01237239595502615, -0.03542336821556091, -0.021790582686662674], [0.264936625957489, 0.027583062648773193, -0.03612128272652626, -0.18875236809253693, -0.06607496738433838, 0.033541470766067505, -0.011346118524670601, -0.09240241348743439, 0.11443336308002472, -0.02439763955771923], [-0.01676247827708721, -0.213677316904068, -0.012939167208969593, 0.45426222681999207, -0.0057196286506950855, -0.3172607719898224, -0.10862526297569275, -0.2509560286998749, -0.293366402387619, 0.144416943192482], [0.11114625632762909, 0.21136531233787537, 0.2982291877269745, 0.1985415518283844, 0.02410300448536873, 0.25196900963783264, -0.22061312198638916, 0.09658778458833694, -0.10136456042528152, 0.15464915335178375]]], [[[0.13983596861362457, -0.16654090583324432, -0.3015517592430115, 0.31333935260772705, 0.10485375672578812, -0.09571913629770279, -0.30883166193962097, -0.0856996476650238, 0.17977087199687958, -0.1142212525010109], [0.09291496127843857, -0.027710163965821266, 0.2897070646286011, 0.049606967717409134, -0.07870397716760635, -0.33514872193336487, -0.35187748074531555, -0.10540403425693512, 0.0622161366045475, 0.06979291886091232], [0.43654072284698486, 0.08450057357549667, 0.28100523352622986, 0.31190213561058044, -0.07414287328720093, 0.2880752384662628, 0.20977000892162323, 0.14251984655857086, -0.12492197006940842, 0.03934648260474205], [0.06579937785863876, -0.057986415922641754, 0.09262663871049881, -0.030106808990240097, -0.14619597792625427, 0.015530145727097988, -0.1344580501317978, 0.08778699487447739, 0.13125403225421906, -0.13499711453914642], [0.031166037544608116, 0.17657876014709473, -0.019365381449460983, 0.0708005428314209, 0.18445006012916565, 0.0948641374707222, -0.14412176609039307, -0.001029635895974934, -0.07717250287532806, 0.05068161338567734], [0.1202528104186058, -0.22429156303405762, -0.19088326394557953, 0.04550725594162941, -0.04499666765332222, 0.26380953192710876, -0.10086352378129959, 0.2221306413412094, -0.02662983536720276, -0.03076738677918911], [-0.14728446304798126, -0.09562505036592484, -0.2705368995666504, 0.012667663395404816, 0.11678559333086014, 0.46364718675613403, 0.025508973747491837, -0.14162100851535797, 0.07830680906772614, -0.003620283445343375], [0.05576389655470848, 0.15388162434101105, 0.17635220289230347, -0.0005046488367952406, 0.05827631428837776, 0.23020188510417938, -0.0493222214281559, 0.12432581931352615, 0.11332924664020538, 0.029889168217778206], [-0.062436543405056, 0.11416181921958923, 0.21004870533943176, 0.20637120306491852, -0.05059026554226875, -0.051826950162649155, 0.1964455097913742, -0.328268826007843, -0.16060107946395874, 0.0812368094921112], [0.32375282049179077, -0.07859663665294647, 0.18442480266094208, 0.23087863624095917, -0.1729334443807602, 0.28281453251838684, -0.12208530306816101, 0.07161542773246765, 0.06756278872489929, 0.19599473476409912]], [[0.20288628339767456, 0.1070198193192482, -0.2678505778312683, 0.08062340319156647, -0.019550783559679985, 0.03381136432290077, -0.11879205703735352, 0.07516483962535858, 0.1493220180273056, -0.10285836458206177], [0.22013162076473236, 0.0571674220263958, 0.055064812302589417, -0.11920490115880966, 0.0519598163664341, -0.06584625691175461, -0.10777613520622253, 0.20320366322994232, -0.06850570440292358, 0.010713591240346432], [0.275128036737442, 0.13860905170440674, 0.043917760252952576, 0.03824332728981972, -0.13689573109149933, -0.03676963225007057, -0.2615455687046051, -0.14395269751548767, 0.08676435053348541, -0.045779384672641754], [0.23837712407112122, 0.16459834575653076, -0.2807696461677551, 0.19320233166217804, -0.2435303032398224, 0.2762545049190521, 0.06058908998966217, -0.016038844361901283, -0.12358622997999191, -0.1685817986726761], [0.27860862016677856, 0.18731282651424408, 0.13210241496562958, 0.0012051609810441732, -0.11152666062116623, 0.0016573619795963168, -0.05786607787013054, 0.21552518010139465, 0.17771606147289276, 0.1267041712999344], [0.06233501061797142, 0.12351250648498535, -0.1305113285779953, 0.12849655747413635, 0.08017654716968536, 0.21225863695144653, 0.2678816616535187, -0.009277659468352795, 0.09114065021276474, 0.04307185485959053], [0.05718052387237549, -0.13754378259181976, 0.04600672051310539, 0.06555727124214172, 0.2427956461906433, 0.31962937116622925, 0.31035473942756653, -0.08058591932058334, 0.1824435591697693, 0.027745427563786507], [0.1271696239709854, -0.028267620131373405, -0.07436290383338928, -0.059128690510988235, -0.10319625586271286, 0.13390561938285828, 0.10306096822023392, -0.04861805960536003, 0.0016166934510692954, 0.14453065395355225], [-0.18140079081058502, -0.11049363762140274, -0.07768525928258896, 0.17327815294265747, 0.039892811328172684, -0.33382606506347656, -0.01022964809089899, -0.2435392141342163, -0.20515070855617523, 0.13559561967849731], [0.21900345385074615, -0.07332020252943039, 0.09106006473302841, -0.008194970898330212, -0.06496904790401459, 0.028909312561154366, -0.15210190415382385, 0.21565039455890656, 0.041432399302721024, 0.025112047791481018]], [[0.09904027730226517, -0.1420358568429947, 0.04797236621379852, 0.2278101146221161, 0.1132308766245842, 0.15433567762374878, 0.04917677864432335, -0.025561874732375145, 0.15816162526607513, 0.12326779216527939], [0.030094150453805923, 0.20711424946784973, 0.29605385661125183, 0.05084871128201485, -0.17330732941627502, 0.35540616512298584, 0.16815830767154694, 0.16579726338386536, 0.09944158792495728, -0.05746976286172867], [0.37326064705848694, 0.09013236314058304, -0.10379268229007721, 0.3666181266307831, -0.06999707967042923, -0.07424895465373993, -0.3659346103668213, -0.15146416425704956, -0.12402715533971786, 0.10646927356719971], [0.13650445640087128, 0.1286710500717163, -0.2337155044078827, 0.2521839737892151, 0.033925604075193405, 0.06327812373638153, -0.23501279950141907, 0.06664858013391495, 0.057346370071172714, 0.01699502393603325], [0.14606237411499023, 0.08626861870288849, 0.24392729997634888, -0.10741204023361206, -0.12209848314523697, 0.1483071893453598, 0.2823540270328522, 0.04157031700015068, 0.1373956948518753, 0.03677743673324585], [0.19734689593315125, -0.16580159962177277, -0.14718765020370483, 0.06960801035165787, 0.1654098480939865, 0.06125867739319801, 0.3504292964935303, 0.19588541984558105, 0.0986616313457489, 0.08881115913391113], [-0.03039488010108471, 0.045445673167705536, -0.07400064170360565, -0.3726930022239685, -0.06902576237916946, 0.06978479027748108, 0.6782734990119934, 0.05511242523789406, 0.009217468090355396, 0.022685343399643898], [0.11050722002983093, 0.18989984691143036, 0.07413952797651291, -0.002625335706397891, 0.06860848516225815, 0.2589297294616699, 0.18907982110977173, 0.16951248049736023, 0.0812758356332779, -0.04667479172348976], [0.1530073583126068, 0.1308409720659256, -0.2633057236671448, 0.4717438220977783, -0.048528995364904404, -0.2282884418964386, -0.26778721809387207, -0.06380636990070343, 0.026357633993029594, 0.054118022322654724], [0.16211004555225372, 0.05279009789228439, -0.043743427842855453, 0.205022931098938, 0.128453329205513, -0.06245194375514984, -0.3098708987236023, -0.0011811598669737577, -0.01547175645828247, 0.08635794371366501]]]], "bias": [-0.04295113682746887, -0.06143445521593094, -0.054476138204336166, 0.05383237823843956, -0.047189030796289444, 0.05723017081618309, -0.06824900209903717, -0.08833599835634232, -0.05542968958616257, -0.02376498281955719], "kernel_shape": [3, 3, 10, 10], "bias_shape": [10]}, "dense_1": {"kernel": [[0.024367019534111023, 0.18039751052856445, -0.03855448588728905, 0.0915752500295639, -0.12347531318664551, -0.06856025755405426, 0.10161575675010681, -0.046800896525382996, -0.10234112292528152, -0.024694064632058144], [0.013425104320049286, 0.03255179896950722, 0.01778724417090416, 0.11806374788284302, 0.014192525297403336, -0.11703966557979584, 0.026866015046834946, -0.05295320972800255, -0.10290946811437607, -0.06207447499036789], [0.06738260388374329, 0.14688599109649658, -0.09327975660562515, 0.07534217089414597, 0.04381387680768967, -0.06477044522762299, -0.05029918625950813, -0.006772977765649557, -0.04533784091472626, 0.016777504235506058], [0.01963089033961296, 0.07174191623926163, 0.04328024014830589, -0.003975199069827795, 0.024195333942770958, -0.015379204414784908, -0.01800621673464775, 0.08354742079973221, -0.07443275302648544, -0.013141504488885403], [-0.0021052819211035967, 0.0016068372642621398, -0.004408398177474737, 0.056164465844631195, -0.10286995768547058, 0.00819544866681099, 0.04771806299686432, -0.013499065302312374, 0.009072859771549702, -0.003418009728193283], [-0.07622326165437698, 0.022410908713936806, -0.138384148478508, 0.09381331503391266, -0.07013712078332901, -0.09678645431995392, 0.03922678530216217, -0.0845305398106575, -0.11908850073814392, -0.07232236862182617], [-0.0755937397480011, 0.03033393621444702, -0.04022466391324997, -0.0012969552772119641, -0.0015409222105517983, -0.09112899750471115, 0.01198817789554596, 0.06572259962558746, -0.0626642182469368, -0.009927473962306976], [-0.02960236184298992, 0.021186452358961105, -0.07341312617063522, 0.046669941395521164, -0.004016343504190445, -0.07411764562129974, -0.01777973584830761, -0.01390585396438837, -0.059560712426900864, 0.025283735245466232], [-0.08212562650442123, 0.040926493704319, -0.00825873576104641, 0.054641153663396835, -0.02304997108876705, -0.029662685468792915, -0.014999826438724995, -0.06352447718381882, 0.00644262321293354, -0.056470755487680435], [-0.08004417270421982, 0.1419745683670044, -0.06747402250766754, 0.04906946420669556, -0.05962144955992699, -0.1464611142873764, 0.045959893614053726, 0.007588820531964302, -0.06267297267913818, -0.10078378021717072], [-0.04571814462542534, 0.07985124737024307, -0.06493321806192398, -0.014992821030318737, -0.06500742584466934, -0.07659289240837097, 0.06258760392665863, 0.034005504101514816, -0.11608812212944031, -0.1161041185259819], [-0.06342237442731857, -0.04400521516799927, -0.029088281095027924, 0.02291395328938961, -0.015375555492937565, -0.06782487779855728, 0.06171688437461853, 0.04759756103157997, -0.12039206176996231, -0.14377756416797638], [-0.0702294260263443, 0.03258954733610153, -0.051132719963788986, -0.013427617028355598, -0.021214766427874565, -0.08795313537120819, 0.047251034528017044, -0.051591794937849045, 0.0034400431904941797, -0.07040279358625412], [-0.03572039678692818, 0.13889256119728088, -0.015270175412297249, 0.002210394013673067, 0.06730266660451889, -0.06591687351465225, 0.10150489956140518, 0.012829531915485859, -0.09764387458562851, 0.030059386044740677], [-0.07144324481487274, 0.024706050753593445, -0.0949549749493599, -0.03995657339692116, -0.05381321161985397, -0.0331147275865078, 0.09279109537601471, 0.09178377687931061, -0.09094683825969696, -0.010291379876434803], [-0.10536811500787735, -0.06422978639602661, -0.05374597758054733, 0.096734918653965, 0.003987900912761688, -0.10384367406368256, 0.02496517077088356, -0.036568619310855865, -0.16045501828193665, -0.12995514273643494], [-0.10017681121826172, 0.0005424779374152422, 0.01858188398182392, 0.08516623824834824, -0.05779831483960152, -0.10024155676364899, 0.03815265744924545, 0.04876581206917763, 0.03121422976255417, -0.1122632622718811], [-0.10413892567157745, 0.030479691922664642, 0.051105111837387085, -0.02021590992808342, -0.0687127411365509, -0.07859732955694199, 0.11583731323480606, -0.026857400313019753, -0.0023386264219880104, -0.05727025121450424], [-0.10615533590316772, 0.08518505841493607, -0.09207019209861755, 0.008976386860013008, -0.05879460275173187, -0.06789891421794891, 0.06405637413263321, 0.05480388551950455, -0.03919912502169609, -0.11794348806142807], [-0.04898424819111824, 0.041477929800748825, -0.06813281774520874, 0.04538806527853012, 0.04903014004230499, -0.06503346562385559, 0.022802269086241722, 0.052876219153404236, -0.05875371769070625, -0.23088441789150238], [-0.011928470805287361, -0.061236098408699036, 0.016182688996195793, 0.011807847768068314, 0.02774578146636486, -0.10425906628370285, 0.0632580891251564, 0.03623253107070923, -0.05613715946674347, -0.14470794796943665], [-0.07618370652198792, -0.01233337726444006, -0.012983259744942188, 0.06817509979009628, 0.026961270719766617, -0.04623417183756828, 0.0024141608737409115, -0.03789173811674118, 0.007195066660642624, -0.06870479881763458], [-0.11833922564983368, 0.006065180525183678, -0.004876881837844849, 0.0769428163766861, 0.015161426737904549, -0.06606993824243546, 0.10872148722410202, -0.08291242271661758, -0.01624135673046112, -0.06948382407426834], [-0.017956513911485672, 0.15394873917102814, 0.0038823264185339212, -0.05122509226202965, 0.0965675637125969, -0.0160861574113369, -0.058512646704912186, 0.09388536214828491, -0.14788700640201569, -0.01590905711054802], [-0.05069694295525551, -0.0867132768034935, -0.029373373836278915, 0.035366080701351166, -0.09016507118940353, -0.06711407750844955, 0.1710864007472992, -0.11185764521360397, 0.04309706762433052, -0.1483403891324997], [-0.002826317911967635, 0.024587109684944153, -0.015769796445965767, 0.024058442562818527, -0.15690195560455322, -0.1447393149137497, 0.12586085498332977, -0.08823142945766449, 0.04722163453698158, -0.23536045849323273], [-0.08878297358751297, -0.026444358751177788, 0.07617169618606567, 0.045763809233903885, -0.12695598602294922, -0.0017209307989105582, 0.14146187901496887, -0.07887966185808182, 0.055410098284482956, -0.20667573809623718], [-0.04331018775701523, -0.057278502732515335, -0.020095421001315117, 0.03189856559038162, -0.18930993974208832, -0.12041106075048447, 0.08871942013502121, -0.15819714963436127, 0.036894671618938446, -0.23546390235424042], [-0.01796678826212883, -0.03294876217842102, 0.04967528581619263, 0.024011561647057533, -0.09413112699985504, -0.10859400779008865, 0.028382422402501106, -0.0038585688453167677, 0.02636081911623478, -0.10434646159410477], [-0.005195938050746918, -0.029771573841571808, 0.04174426943063736, 0.03815822675824165, -0.07144278287887573, -0.06155795976519585, 0.11819828301668167, 0.015132129192352295, -0.014027251861989498, -0.1660134643316269], [0.020092830061912537, 0.053784869611263275, 0.08208129554986954, 0.08349885791540146, 0.060778602957725525, 0.00553381210193038, -0.019150761887431145, 0.014620683155953884, 0.03625796362757683, -0.12049710005521774], [-0.01659766025841236, -0.034546565264463425, -0.01584981195628643, 0.05044564977288246, -0.10117583721876144, -0.07605069875717163, 0.0892605409026146, -0.05999661237001419, -0.0038054962642490864, -0.09557059407234192], [-0.017429886385798454, -0.10607494413852692, 0.01596345193684101, -0.004330899566411972, -0.135250523686409, -0.053779009729623795, 0.03849410638213158, -0.15811678767204285, 0.0709121897816658, -0.11821230500936508], [-0.019517801702022552, 0.06815128773450851, -0.032798100262880325, 0.031850311905145645, 0.06768662482500076, -0.0594257228076458, -0.0542730875313282, 0.030098503455519676, -0.09166262298822403, -0.12915916740894318], [-0.01880526915192604, 0.04880046471953392, 0.06835006177425385, -0.035171184688806534, -0.18317267298698425, 0.03484436124563217, 0.056125666946172714, -0.05226406082510948, -0.09138492494821548, -0.22633451223373413], [-0.08233773708343506, 0.02592935971915722, 0.032046835869550705, -0.0016532824374735355, -0.17043213546276093, -0.03935316577553749, 0.110140360891819, -0.12174756824970245, -0.04255017638206482, -0.11730188876390457], [-0.019954761490225792, -0.02265225723385811, 0.12377288192510605, 0.07732889801263809, -0.1112750768661499, -0.008034037426114082, 0.05284980311989784, -0.15571604669094086, -0.18527691066265106, -0.016441479325294495], [-0.03849715366959572, -0.0752219408750534, 0.0576939731836319, 0.009690416045486927, -0.18288502097129822, -0.09525127708911896, 0.08827261626720428, -0.09793888032436371, 0.055940620601177216, -0.11414438486099243], [-0.026135804131627083, -0.006669463124126196, 0.039468392729759216, -0.03166993334889412, -0.09541240334510803, 0.0040945918299257755, 0.014994954690337181, 0.02871103771030903, -0.04041675850749016, -0.030558614060282707], [0.006429420318454504, 0.04252469539642334, 0.08885108679533005, 0.005553869530558586, -0.01935119740664959, -0.08145472407341003, -0.007768183946609497, -0.10645269602537155, -0.0711275264620781, 0.0034558058250695467], [-0.05759478732943535, -0.06859870254993439, -0.01878775656223297, 0.015189522877335548, -0.12419404089450836, -0.06688378006219864, -0.002575076650828123, 0.0463821217417717, -0.012428012676537037, 0.05788007006049156], [-0.07986362278461456, -0.03000044636428356, 0.04239409789443016, 0.07681319862604141, -0.07876651734113693, -0.07880642265081406, 0.02292216755449772, -0.05945419892668724, -0.01123920176178217, -0.010285943746566772], [-0.01962169259786606, -0.0646096020936966, 0.01120652724057436, 0.009305034764111042, -0.091858871281147, -0.09555651992559433, 0.06094278395175934, -0.09112884104251862, -0.002574239857494831, -0.15167585015296936], [-0.023744141682982445, 0.04228341206908226, 0.0779825896024704, -0.005908549297600985, 0.06214456260204315, -0.0521346852183342, -0.0942254588007927, -0.014919672161340714, 0.0025945929810404778, -0.0032263281755149364], [-0.10139869898557663, -0.08419013023376465, 0.026343433186411858, -0.0004981185193173587, -0.16289031505584717, 0.05653872340917587, 0.07591591775417328, -0.06227102875709534, -0.007295512594282627, 0.03543713316321373], [-0.0634765699505806, 0.01630024053156376, 0.02011893503367901, 0.05979655683040619, -0.14366905391216278, 0.029741616919636726, -0.016169890761375427, -0.06908886879682541, -0.014306259341537952, 0.07072882354259491], [-0.04669129103422165, 0.04060737416148186, 0.024118317291140556, 0.049710795283317566, -0.13186928629875183, -0.12439698725938797, 0.07555215060710907, -0.07539057731628418, -0.01854599080979824, 0.050149742513895035], [-0.05575452372431755, -0.06355537474155426, 0.029645880684256554, 0.03947420418262482, -0.1985694169998169, -0.004100724123418331, 0.08019538223743439, -0.1778685748577118, 0.030001649633049965, -0.006898775231093168], [0.004487515427172184, -0.003861940698698163, -0.012919814325869083, 0.009782052598893642, -0.16963499784469604, -0.06844165921211243, 0.013886849395930767, 0.003916821908205748, -0.036677416414022446, 0.005235352087765932], [-0.08531209826469421, -0.05573205649852753, 0.009721199050545692, 0.016648979857563972, -0.13377292454242706, -0.09512422233819962, 0.0054770163260400295, -0.02037634700536728, -0.02204202674329281, 0.06154035031795502], [0.048464711755514145, -0.044833455234766006, 0.07584337145090103, 0.02506166696548462, -0.10048019886016846, -0.018085399642586708, -0.12880297005176544, -0.006919230334460735, 0.08616839349269867, 0.04319632425904274], [0.001386238494887948, -0.04244961589574814, -0.012701974250376225, 0.09762859344482422, -0.0485401414334774, 0.021920468658208847, 0.00912463665008545, -0.08724398910999298, 0.010581131093204021, -0.016365274786949158], [-0.04102945327758789, -0.07189895212650299, 0.02770068682730198, 0.11492263525724411, -0.07298195362091064, -0.023488879203796387, -0.004754744935780764, -0.016984891146421432, 0.0750877633690834, -0.08797530084848404], [-0.029629116877913475, 0.0035033132880926132, 0.039198342710733414, 0.07524796575307846, 0.007561605889350176, -0.06001405045390129, -0.12680552899837494, 0.015478558838367462, -0.045633651316165924, 0.0796530619263649], [-0.029604779556393623, 0.08585686981678009, 0.07319988310337067, 0.08334493637084961, -0.1576833426952362, -0.09648607671260834, 0.04021057114005089, -0.06836382299661636, 0.0011651732493191957, -0.20376509428024292], [0.00028958398615941405, -0.0363159142434597, 0.021158406510949135, -0.008120962418615818, -0.02085786871612072, 0.01104904804378748, 0.03467997536063194, -0.026673827320337296, 0.10060206800699234, 0.03727423772215843], [0.002336498349905014, 0.03829636424779892, -0.05468897521495819, -0.006735984236001968, 0.05273597314953804, -0.07173414528369904, 0.053111299872398376, -0.034262120723724365, -0.04048614203929901, -0.12008368223905563], [-0.06998209655284882, -0.038703203201293945, -0.03854380175471306, 0.053419411182403564, -0.08113306760787964, 0.01791512966156006, -0.01256387960165739, -0.11117912828922272, 0.03474494069814682, 0.026445502415299416], [-0.04036344960331917, 0.015023501589894295, 0.021153228357434273, 0.0786348432302475, -0.06933209300041199, -0.0273909792304039, -0.047858696430921555, -0.024557773023843765, -0.00506554776802659, -0.002078539691865444], [0.027219880372285843, 0.015605097636580467, 0.05147046968340874, -0.013211345300078392, -0.14286360144615173, -0.07388091832399368, 0.06489603966474533, 0.02538927085697651, -0.03904914855957031, -0.029990922659635544], [0.008474452421069145, -0.018301043659448624, 0.08410294353961945, 0.11447060108184814, -0.003985647112131119, -0.03923696652054787, -0.04043246805667877, 0.06076181307435036, -0.008922009728848934, 0.06438662856817245], [-0.015861118212342262, -0.0591084361076355, 0.040296319872140884, -0.01196922268718481, -0.07433898001909256, -0.016010699793696404, -0.006355310790240765, 0.016834881156682968, -0.026704847812652588, 0.06484758853912354], [-0.009751923382282257, -0.0948958694934845, 0.0655086562037468, 0.0613793283700943, -0.11875887960195541, -0.018521882593631744, 0.015543196350336075, -0.10989710688591003, 0.01952262409031391, -0.07188153266906738], [0.041538167744874954, 0.050663575530052185, 0.017396675422787666, 0.05390132591128349, -0.05099133029580116, -0.023494288325309753, -0.04518088698387146, 0.025392957031726837, 0.03992633521556854, 0.03440621867775917], [-0.07855787128210068, 0.005283053033053875, -0.03557826206088066, 0.11118164658546448, -0.15842708945274353, 0.022626951336860657, -0.011218155734241009, -0.08672194182872772, -0.03782946243882179, -0.14665138721466064], [-0.04887111485004425, 0.06156836822628975, 0.022106323391199112, 0.039197590202093124, -0.022819770500063896, -0.00011499652464408427, -0.059469714760780334, -0.040903668850660324, -0.004838450811803341, 0.023190496489405632], [0.09064969420433044, 0.054105471819639206, 0.0674566701054573, -0.06479862332344055, -0.12079251557588577, -0.0345323383808136, 0.07242966443300247, -0.05095344036817551, 0.11298848688602448, -0.2033347636461258], [-0.09368602931499481, -0.01836385950446129, 0.0017157448455691338, 0.03706274554133415, -0.049670733511447906, 0.050721049308776855, 0.03157436102628708, -0.10627783834934235, 0.01795482076704502, 0.0009444118477404118], [-0.04183042421936989, 0.07739962637424469, -0.04307308420538902, 0.004745360463857651, -0.05924239009618759, 0.04304003342986107, -0.025789182633161545, 0.008966589346528053, 0.008284947834908962, 0.04573536291718483], [0.059417326003313065, 0.03966131433844566, 0.03498139604926109, 0.04217856004834175, -0.09026528149843216, -0.017391391098499298, 0.007949689403176308, 0.021406402811408043, 0.01865317113697529, -0.0026133544743061066], [-0.01878853514790535, -0.031038660556077957, -0.010301809757947922, -0.026774808764457703, -0.11858487874269485, 0.10060172528028488, -0.0344717875123024, -0.07756395637989044, 0.0031047144439071417, -0.0421069860458374], [0.04264796897768974, -0.06108618155121803, 0.019684208557009697, -0.00770306633785367, -0.08950214833021164, 0.022512683644890785, -0.02857131138443947, -0.033971287310123444, 0.02265329845249653, -0.030596286058425903], [0.0072063906118273735, -0.13830767571926117, -0.013434670865535736, 0.07046273350715637, -0.09226629137992859, -0.004508891608566046, -0.06565671414136887, -0.08286479115486145, 0.01621050201356411, -0.015389909967780113], [-0.01988193206489086, -0.08409049361944199, 0.027083564549684525, 0.008755464106798172, -0.06686411052942276, 0.030603677034378052, -0.0346015989780426, 0.04138548672199249, 0.042207591235637665, 0.0580112487077713], [-0.06841140985488892, -0.09792431443929672, 0.015747131779789925, 0.04450663924217224, -0.1524241417646408, 0.04372279718518257, 0.008424322120845318, -0.057947248220443726, -0.0052366964519023895, -0.1949194073677063], [0.012923394329845905, -0.025595245882868767, -0.031019339337944984, 0.02281562238931656, -0.08817353844642639, 0.13950029015541077, 0.07963130623102188, -0.13755272328853607, 0.060096289962530136, 0.0329628624022007], [0.04410497471690178, 0.027191393077373505, -0.07559733092784882, -0.046055663377046585, -0.08734025061130524, 0.08027572184801102, 0.16531601548194885, -0.09314703196287155, 0.044741544872522354, -0.14638927578926086], [0.0010785802733153105, -0.060793187469244, -0.03401957079768181, 0.06479146331548691, -0.15201202034950256, 0.06618709862232208, 0.030734969303011894, -0.05421645566821098, 0.027692561969161034, -0.07054518163204193], [-0.0016984771937131882, -0.0476418174803257, 0.04329574480652809, 0.05973736196756363, -0.06369190663099289, 0.06329642236232758, 0.029615037143230438, -0.10669754445552826, 0.03551501780748367, -0.028227437287569046], [0.008996733464300632, -0.023141292855143547, 0.044873472303152084, -0.038344740867614746, -0.10362523049116135, 0.026709046214818954, 0.02600298449397087, -0.15275751054286957, -0.046623460948467255, -0.02219891920685768], [0.007094824220985174, -0.09009160846471786, -0.03638668358325958, -0.045909781008958817, -0.1212911605834961, 0.10487868636846542, 0.03310328349471092, -0.1062229573726654, 0.030019177123904228, 0.05158085748553276], [0.08808649331331253, -0.08665210008621216, 0.0724511370062828, 0.01426734495908022, -0.0801253542304039, 0.031107205897569656, 0.026347601786255836, -0.05400148779153824, -0.08121863007545471, -0.006057828664779663], [0.040947191417217255, -0.10262198746204376, 0.042999301105737686, 0.09417394548654556, -0.0850619301199913, -0.01786980777978897, 0.06638533622026443, -0.03187387436628342, -0.0037676531355828047, -0.042711127549409866], [0.015582663007080555, -0.0858503207564354, -0.024769216775894165, 0.029881684109568596, -0.09027990698814392, 0.06417667865753174, -0.024050550535321236, -0.011550229042768478, 0.00823534931987524, -0.05400872230529785], [-0.05554073676466942, -0.06500080227851868, -0.07953675091266632, 0.041348639875650406, -0.0810493677854538, 0.05838903784751892, 0.07117915898561478, -0.07986372709274292, -0.12674863636493683, -0.10222902148962021], [-0.043538279831409454, 0.08223240077495575, -0.09415747225284576, -0.0036355555057525635, 0.021434152498841286, 0.11624079197645187, 0.09040980041027069, -0.10057935863733292, -0.046783868223428726, -0.015037511475384235], [-0.08565658330917358, 0.12385241687297821, -0.20740535855293274, -0.08315101265907288, 0.09294816106557846, 0.13186004757881165, 0.02585282176733017, -0.09409422427415848, 0.05467643216252327, -0.09005212038755417], [-0.08298763632774353, -0.058355119079351425, -0.03006824105978012, 0.04510674998164177, -0.015942655503749847, 0.060602836310863495, 0.13200844824314117, -0.06482433527708054, 0.015227963216602802, -0.03386810049414635], [0.007325327023863792, -0.019587822258472443, 0.03261373192071915, 0.027939241379499435, 0.0057246447540819645, 0.04916753992438316, 0.06538230180740356, -0.07667217403650284, -0.038823164999485016, -0.012432566843926907], [0.009522226639091969, -0.05731556564569473, -0.03491886705160141, -0.027837267145514488, -0.03575710952281952, 0.07259192317724228, 0.054141607135534286, -0.13844941556453705, -0.009290264919400215, -0.08698154240846634], [0.02703077159821987, -0.03336983546614647, 0.03730647265911102, -0.036155298352241516, 0.004777207970619202, 0.040721409022808075, 0.02334289252758026, -0.19517135620117188, 0.007638088893145323, -0.05609826371073723], [-0.024724839255213737, -0.04471264034509659, -0.048018913716077805, -0.032416436821222305, -0.07514386624097824, 0.032003194093704224, 0.028773944824934006, -0.016938725486397743, 0.004851092584431171, -0.012436536140739918], [-0.0014885262353345752, -0.034268539398908615, -0.11848517507314682, -0.007732516620308161, -0.003900124691426754, 0.06643906980752945, 0.019145052880048752, -0.12980438768863678, 0.023418674245476723, -0.015473131090402603], [-0.010438533499836922, 0.04976416751742363, 0.006444872822612524, -0.062302201986312866, 0.021634364500641823, 0.022912221029400826, 0.06347528845071793, -0.0624346062541008, 0.0497187077999115, -0.060088228434324265], [-0.05207715928554535, -0.12527798116207123, -0.0818590596318245, -0.04147448018193245, -0.03201103210449219, -0.023901622742414474, 0.1016581729054451, -0.043079596012830734, 0.01532957423478365, -0.1285891979932785], [0.03632614016532898, -0.050487540662288666, -0.05508331209421158, -0.029494624584913254, 0.049150463193655014, -0.014497344382107258, 0.12610787153244019, -0.08236895501613617, -0.0009309889283031225, -0.04504501819610596], [0.059473130851984024, 0.14152146875858307, -0.14405235648155212, -0.13906803727149963, 0.05115566402673721, 0.10015734285116196, 0.04014488682150841, -0.005762824788689613, 0.007165243383497, -0.032430555671453476], [-0.12118376046419144, -0.0002571824297774583, -0.08514367043972015, -0.0648331567645073, -0.039153002202510834, -0.06453481316566467, 0.13794516026973724, -0.019560696557164192, 0.025165751576423645, -0.06283008307218552], [0.014793327078223228, 0.02269916981458664, -0.002223848830908537, -0.03301660344004631, -0.0007492961594834924, 0.008627369068562984, 0.10461238771677017, -0.11538919806480408, 0.004552882630378008, -0.06771884113550186], [-0.0025890956167131662, 0.04870624095201492, -0.07690120488405228, -0.08376799523830414, 0.005733540281653404, 0.025073908269405365, 0.07333073019981384, -0.11263879388570786, -0.01330883800983429, -0.08546478301286697], [0.032812200486660004, -0.03980470821261406, -0.07516717165708542, 0.028389636427164078, -0.0028145723044872284, 0.05817440524697304, 0.005609178449958563, -0.14354002475738525, -0.029603546485304832, -0.10024679452180862], [-0.05662429705262184, -0.05093047395348549, -0.061527252197265625, 0.0012673689052462578, -0.008053221739828587, 0.04374745115637779, 0.1012924313545227, -0.09124491363763809, -0.007259772624820471, -0.17213933169841766], [-0.029534656554460526, -0.012354743666946888, -0.002359447069466114, -0.048585932701826096, -0.08276639133691788, -0.027704525738954544, 0.026282140985131264, -0.14672988653182983, 0.028915930539369583, -0.028883347287774086], [0.06365989148616791, 0.01504052896052599, 0.03893955796957016, -0.07822797447443008, 0.010701394639909267, 0.044679418206214905, -0.007946887984871864, 0.023007674142718315, -0.07682434469461441, -0.03406563773751259], [-0.11636395007371902, -0.12098070234060287, -0.016703814268112183, -0.025377348065376282, -0.00035094411578029394, 0.015694068744778633, 0.05414130166172981, -0.019587477669119835, 0.034423135221004486, -0.11913631111383438], [0.059792909771203995, -0.04891205579042435, -0.044068679213523865, -0.06851743906736374, 0.05961202457547188, 0.12166416645050049, -0.033811695873737335, -0.09532172232866287, -0.03438607230782509, -0.12274888157844543], [-0.11229535192251205, -0.00467215571552515, -0.03708113357424736, -0.14682626724243164, 0.1215050220489502, 0.014691004529595375, 0.025514615699648857, -0.11373595893383026, -0.0424782931804657, -0.05856122449040413], [-0.08432381600141525, -0.11463125795125961, -0.021522577852010727, -0.1199788972735405, 0.030689459294080734, 0.02625197172164917, 0.053912632167339325, -0.040183600038290024, -0.02386554703116417, -0.12845921516418457], [-0.02649259753525257, 0.045865703374147415, -0.0434638075530529, 0.03823406994342804, 0.05943106859922409, -0.04871244356036186, 0.054443322122097015, -0.030025506392121315, -0.06210998445749283, -0.07360264658927917], [-0.007694014813750982, -0.041336722671985626, -0.06120866909623146, -0.08959604799747467, 0.024493709206581116, -0.018699953332543373, 0.06138889119029045, -0.10049854218959808, -0.0029959690291434526, -0.13477756083011627], [-0.010415074415504932, -0.14238592982292175, -0.03579738363623619, -0.0028652274049818516, 0.07808803766965866, 0.08175666630268097, 0.04759806767106056, -0.11699698865413666, -0.07802453637123108, -0.19535747170448303], [-0.05017131194472313, -0.03976265341043472, -0.1463203877210617, -0.10324637591838837, 0.04805004224181175, 0.0402776375412941, 0.04219532757997513, -0.05710291862487793, -0.012323187664151192, -0.05574268475174904], [0.027219654992222786, -0.018105976283550262, -0.05124508589506149, -0.09643518924713135, -0.009760948829352856, 0.044665731489658356, 0.057864345610141754, -0.07808610796928406, 0.0020885986741632223, -0.21632122993469238], [-0.04748249426484108, 0.0014012876199558377, -0.001244847197085619, -0.08714603632688522, 0.029174398630857468, 0.04926944524049759, 0.07574976235628128, -0.01771043799817562, -0.08301548659801483, -0.0393880233168602], [-0.017114359885454178, -0.08092775195837021, 0.0045351446606218815, -0.16380321979522705, 0.0017290195683017373, -0.03407523036003113, 0.038518115878105164, 0.04185105115175247, 0.04890060797333717, -0.09597820788621902], [-0.135914146900177, -0.046125054359436035, 0.021458644419908524, -0.12200893461704254, -0.01960381492972374, 0.06970245391130447, -0.06097001954913139, -0.05790704861283302, 0.026030076667666435, -0.14223825931549072], [-0.0656408965587616, -0.02170940302312374, -0.019031478092074394, -0.07177090644836426, 0.036274027079343796, 0.07463167607784271, -0.0041070920415222645, -0.040643360465765, 0.003247126005589962, -0.0725434347987175], [-0.10783888399600983, -0.09597201645374298, -0.05939512327313423, -0.13576067984104156, -0.0466722697019577, 0.011046758852899075, 0.014150360599160194, -0.08509273827075958, -0.05101140961050987, -0.09051348268985748], [0.023927491158246994, -0.05626843869686127, -0.05711434409022331, -0.09708709269762039, -0.017514219507575035, 0.043976396322250366, 0.04487977176904678, -0.10769732296466827, -0.018574537709355354, -0.14050579071044922], [-0.04246694967150688, -0.05606845021247864, -0.002168792299926281, -0.12389785796403885, -0.02036377415060997, 0.051058944314718246, 0.1023905947804451, -0.05590023100376129, -0.06623459607362747, -0.13519246876239777], [-0.02757725492119789, 0.13591806590557098, 0.03055121749639511, 0.03487330302596092, 0.08868254721164703, -0.10047242045402527, 0.07207147032022476, -0.052764102816581726, -0.012341244146227837, -0.11924328655004501], [-0.013319062069058418, 0.005588590633124113, 0.04317538067698479, -0.0031423773616552353, 0.031070178374648094, -0.02430867962539196, 0.05529976263642311, 0.034797243773937225, -0.11158394068479538, -0.09709496051073074], [-0.055714938789606094, 0.1141517385840416, -0.027919942513108253, 0.04457871988415718, -0.00978872086852789, -0.12893855571746826, 0.053893689066171646, 0.015522729605436325, -0.06956744194030762, -0.1556861698627472], [0.0418490469455719, 0.061718594282865524, -0.05256611481308937, -0.052760325372219086, -0.02030814066529274, -0.053049348294734955, 0.028657132759690285, 0.10315791517496109, -0.143360435962677, 0.005926830228418112], [-0.010509801097214222, 0.07957980036735535, 0.03885113075375557, 0.05387208238244057, 0.050173915922641754, -0.06603293120861053, 0.08018522709608078, -0.00026369866100139916, -0.012973441742360592, -0.11825281381607056], [-0.06807711720466614, 0.06177622452378273, -0.02413303218781948, -0.02335513010621071, -0.0031399482395499945, -0.08238580077886581, 0.09215196222066879, -0.06581734865903854, -0.07345335185527802, -0.29489412903785706], [-0.10178246349096298, 0.11159279942512512, 0.03876876085996628, 0.05584186315536499, -0.058829985558986664, -0.07750450819730759, 0.12649871408939362, 0.03116246499121189, -0.024762285873293877, -0.15429848432540894], [-0.1295238733291626, 0.0880415290594101, -0.06135779991745949, 0.10611215978860855, 0.017052844166755676, -0.10072269290685654, 0.1180705651640892, 0.00023020818480290473, -0.023626895621418953, -0.20803219079971313], [-0.0667792484164238, -0.01874922774732113, 0.07847470045089722, 0.08171103894710541, 0.02876320295035839, -0.08678863942623138, 0.09203968942165375, -0.021829674020409584, -0.027271388098597527, -0.08181530237197876], [-0.10754930227994919, -0.010272616520524025, 0.08138617873191833, 0.019675569608807564, 0.0012791546760126948, -0.10317409783601761, -0.0009624545928090811, 0.016411254182457924, -0.08673609793186188, -0.14755889773368835], [-0.04327848553657532, 0.020258838310837746, 0.028550637885928154, -0.002726981183513999, 0.02849377691745758, -0.060058943927288055, 0.009312109090387821, 0.07590016722679138, -0.06984226405620575, -0.005992487072944641], [0.016805456951260567, -0.020258363336324692, 0.048216041177511215, 0.06158755347132683, -0.024532638490200043, -0.025120357051491737, 0.043129321187734604, -0.01072074193507433, -0.01109412219375372, -0.08889729529619217], [-0.01725825108587742, 0.09620609879493713, -0.01430751197040081, 0.02615746110677719, 0.01812390238046646, -0.010352174751460552, 0.045150674879550934, 0.08463059365749359, -0.09815546125173569, -0.08757302165031433], [-0.03733319044113159, 0.1367066204547882, -0.04650719836354256, -0.07086309045553207, -0.01968975178897381, -0.05983687564730644, 0.05991370603442192, 0.10891983658075333, -0.07935597002506256, -0.026963956654071808], [-0.01766214333474636, 0.0036389699671417475, -0.11017782241106033, -0.02916821837425232, 0.012259767390787601, 0.02531873807311058, 0.08869319409132004, 0.08081720024347305, -0.15726318955421448, -0.2026805281639099], [-0.030982332304120064, 0.011221411637961864, 0.03606962785124779, 0.03291374072432518, 0.013752203434705734, -0.03285587951540947, 0.039556603878736496, -0.1045767068862915, -0.04318869858980179, -0.09524048119783401], [-0.04011271148920059, -0.01703604683279991, -0.014361708424985409, 0.018131252378225327, -0.050719331949949265, -0.03544032201170921, 0.04659642279148102, 0.11379256844520569, 0.045907534658908844, -0.11026283353567123], [0.060666345059871674, 0.018764536827802658, -0.06347454339265823, 0.07715462148189545, -0.05122355371713638, 0.005624348297715187, -0.029283631592988968, 0.022292308509349823, -0.004082502797245979, -0.13806821405887604], [-0.01825316995382309, -0.005724345799535513, -0.04156837984919548, 0.09061234444379807, 0.00769605441018939, -0.01522982120513916, 0.035089410841464996, 0.0621362179517746, -0.034286364912986755, -0.11567651480436325], [0.009007511660456657, 0.041432321071624756, 0.061572808772325516, -0.028497012332081795, 0.0018872470827773213, 0.010935752652585506, 0.04072021692991257, -0.015311503782868385, 0.017706170678138733, -0.10686115175485611], [-0.06363179534673691, -0.06261326372623444, -0.018560055643320084, -0.022169005125761032, 0.004835135769098997, -0.04280842840671539, -0.1282467395067215, 0.041889168322086334, -0.023934435099363327, -0.047079309821128845], [-0.019884655252099037, -0.009312034584581852, 0.08140423148870468, -0.006023112218827009, 0.05991460755467415, -0.012469111010432243, 0.011560334824025631, 0.06265367567539215, -0.029915375635027885, 0.013084251433610916], [0.030978597700595856, -0.07341337203979492, -0.01733299344778061, 0.07347157597541809, 0.01823556050658226, -0.0891314297914505, 0.007656154688447714, 0.037555135786533356, 0.034538306295871735, -0.061642952263355255], [-0.04800349101424217, 0.18053220212459564, 0.006468614097684622, 0.016424264758825302, 0.0037583934608846903, -0.061616044491529465, -0.06455074995756149, 0.14049257338047028, -0.09026364237070084, -0.06256114691495895], [-0.09851940721273422, -0.03814421594142914, -0.0028607635758817196, -0.004733897279947996, 0.06287601590156555, -0.044301219284534454, 0.09796284139156342, 0.06658169627189636, -0.053837813436985016, -0.08790988475084305], [-0.03366130217909813, -0.12296883016824722, -0.009935363195836544, -0.023017609491944313, 0.008322345092892647, 0.006783005315810442, 0.032364219427108765, -0.08421552181243896, -0.01457326952368021, -0.028329266235232353], [-0.031800735741853714, -0.02621939219534397, -0.025836719200015068, -0.00923856534063816, 0.023031463846564293, 0.02676018513739109, 0.14369697868824005, 0.012492665089666843, -0.03699694201350212, -0.11857057362794876], [0.011737143620848656, 0.007920823059976101, -0.0318719707429409, 0.046629320830106735, 0.030083512887358665, 0.03142649680376053, -0.00800672173500061, -0.023227084428071976, 0.014813372865319252, 0.01131179928779602], [-0.0396258607506752, -0.01536730770021677, -0.04321885108947754, 0.05985061451792717, -0.005457723513245583, 0.031235365197062492, 0.09086275100708008, 0.02712063118815422, 0.05202232301235199, -0.025616340339183807], [0.017643475905060768, -0.02231987938284874, -0.04119044169783592, 0.006437061820179224, 0.07916495949029922, 0.037054020911455154, 0.02608317695558071, 0.07162786275148392, -0.07389770448207855, -0.06676139682531357], [-0.015158909372985363, 0.006836134474724531, 0.03134601190686226, 0.10746351629495621, -0.01538690272718668, -0.044699378311634064, -0.047203995287418365, 0.07765992730855942, 0.04519720375537872, 0.015937553718686104], [-0.07350605726242065, 0.015211310237646103, 0.002710144966840744, 0.06058504432439804, -0.030146639794111252, -0.001614334061741829, -0.007680217735469341, -0.03403368592262268, 0.030897116288542747, 0.001980658620595932], [-0.018451550975441933, -0.07659215480089188, 0.03933748975396156, 0.0640581026673317, 0.07824365794658661, 0.005693248473107815, -0.07615280151367188, 0.05068272352218628, 0.008821914903819561, -0.05912226065993309], [-0.03867195174098015, 0.10169169306755066, 0.0008594313403591514, 0.0604509636759758, 0.15807266533374786, -0.03284260630607605, -0.09031715989112854, 0.12354768067598343, -0.10328388959169388, -0.09829813987016678], [-0.03557710349559784, 0.002903480315580964, 0.02514234557747841, 0.033722661435604095, 0.012623721733689308, -0.050092004239559174, 0.050575774163007736, 0.07152735441923141, 0.02853275276720524, -0.10453633219003677], [-0.05605190619826317, 0.0054964181035757065, 0.05421235412359238, 0.05064930394291878, -0.11535490304231644, 0.028587106615304947, 0.026403697207570076, -0.046602364629507065, 0.05951397120952606, 0.08761607110500336], [-0.0164352897554636, 0.17214946448802948, -0.04588701203465462, -0.010878154076635838, 0.05687735229730606, 0.0660393163561821, 0.06572046875953674, 0.03629016503691673, -0.16335749626159668, -0.17329685389995575], [-0.016190292313694954, -0.04481057450175285, 0.03111102059483528, 0.036499593406915665, -0.036563675850629807, 0.039893604815006256, 0.06482668220996857, -0.03762068226933479, -0.052866533398628235, 0.08981004357337952], [0.029007673263549805, -0.026160724461078644, -0.014271494001150131, -0.04897485300898552, -0.0012241038493812084, -0.016666673123836517, 0.011645160615444183, 0.047795370221138, 0.04444662481546402, 0.0026884290855377913], [-0.06890522688627243, 0.026442188769578934, 0.07449398189783096, 0.027126532047986984, -0.03877854347229004, -0.06280626356601715, 0.008029373362660408, -0.004294595681130886, -0.00809186790138483, -0.05508992820978165], [0.02345583215355873, -0.03401397913694382, -0.026271270588040352, 0.13899651169776917, -0.07363905757665634, -0.062410496175289154, -0.1408194899559021, 0.05524289980530739, -0.008797822520136833, 0.07535400986671448], [0.00833454541862011, -0.06796231865882874, 0.024942999705672264, 0.02680307999253273, -0.03107079118490219, 0.019708599895238876, -0.07943040132522583, 0.0440988689661026, 0.04267704486846924, -0.061003997921943665], [-0.0777328759431839, -0.04580571874976158, 0.052880529314279556, -0.010420105420053005, -0.09690637141466141, -0.012934944592416286, -0.1585082709789276, -0.020031839609146118, 0.009959296323359013, 0.062165580689907074], [-0.06974071264266968, 0.13027454912662506, -0.0548061728477478, -8.944364526541904e-05, 0.0726366713643074, 0.01239481195807457, -0.15856747329235077, 0.09506719559431076, -0.08014169335365295, -0.08081229776144028], [-0.00971212238073349, 0.10551594942808151, -0.013179585337638855, -0.03517777472734451, -0.00690070865675807, 0.03482567518949509, 0.041226357221603394, 0.04121553525328636, -0.01790931262075901, -0.10325146466493607], [-0.018886344507336617, 0.030001159757375717, -0.032575998455286026, 0.0708824023604393, -0.06076415628194809, 0.02540922723710537, -0.04721996188163757, -0.03363647684454918, 0.008719153702259064, 0.015206081792712212], [-0.09301343560218811, 0.13816751539707184, -0.03314688801765442, -0.024430178105831146, 0.17711670696735382, 0.09613195061683655, -0.038187600672245026, -0.023421496152877808, 0.015001016668975353, -0.15010865032672882], [0.048225656151771545, 0.0022554020397365093, 0.01657797023653984, 0.07062511146068573, -0.052015408873558044, -0.03319742530584335, -0.008387143723666668, -0.043398167937994, -0.06302561610937119, 0.013023457489907742], [-0.06763657182455063, 0.04995046183466911, 0.024220861494541168, -0.010457495227456093, -0.030172457918524742, 0.027103444561362267, -0.07023338973522186, -0.028150632977485657, -0.0025253789499402046, -0.005167823284864426], [0.049268338829278946, -0.029708608984947205, 0.08050219714641571, 0.016897626221179962, 0.015546188689768314, -0.03354627639055252, 0.01927809976041317, 0.07873284816741943, -0.04164229705929756, -0.036211226135492325], [0.014151320792734623, -0.10669063031673431, -0.035658176988363266, 0.07979503273963928, -0.10998689383268356, 0.003086530137807131, -0.08392727375030518, 0.017830001190304756, -0.046624209731817245, 0.01726660132408142], [-0.03585424646735191, 0.0017189198406413198, -0.03422221913933754, 0.09142404794692993, -0.09467429667711258, -0.04024917259812355, -0.05884264409542084, 0.04816211760044098, -0.0012761428952217102, 0.042898599058389664], [0.07603845745325089, -0.12559129297733307, 0.058562200516462326, 0.0702553540468216, -0.043460432440042496, -0.08145486563444138, -0.13497427105903625, 0.07923102378845215, 0.0708174929022789, 0.011684808880090714], [-0.06290314346551895, -0.052960705012083054, -0.015291092917323112, 0.09001163393259048, -0.019718559458851814, -0.08460155874490738, -0.18297632038593292, 0.15144282579421997, -0.011060657911002636, 0.036633748561143875], [0.01697022281587124, 0.036470964550971985, 0.04876409098505974, 0.03455092012882233, 0.036031655967235565, -0.0663803368806839, 0.019590793177485466, -0.05951572209596634, -0.04450417309999466, -0.04461291432380676], [-0.035445138812065125, 0.033020105212926865, -0.059742990881204605, -0.03925137221813202, -0.037250541150569916, 0.03201235830783844, 0.003940389957278967, -0.06522541493177414, 0.013794741593301296, 0.006297513376921415], [-0.06978759169578552, 0.1054147258400917, -0.0430876798927784, -0.09450002759695053, 0.23263302445411682, 0.04827626049518585, 0.05687437579035759, -0.12408751249313354, -0.10491040349006653, -0.1582810878753662], [-0.049347154796123505, 0.00344860996119678, 0.0839150995016098, -0.00457300990819931, -0.07669064402580261, 0.02277679741382599, -0.0204178299754858, -0.06649763882160187, 0.023447202518582344, -0.011091926135122776], [0.0239968653768301, 0.05332311987876892, 0.07404477894306183, 0.00033220299519598484, -0.05050109699368477, 0.030409537255764008, -0.029905706644058228, -0.02350054681301117, -0.07444261014461517, -0.00804806686937809], [0.024114664644002914, -0.039021093398332596, 0.06637497991323471, 0.029312508180737495, -0.07821204513311386, -0.0002197444555349648, -0.10739507526159286, 0.0364999882876873, 0.03184475004673004, -0.02975287474691868], [-0.027945227921009064, -0.14571937918663025, 0.005065012723207474, -0.02638971619307995, -0.12054131925106049, 0.06563851982355118, -0.13152997195720673, 0.07125604897737503, 0.06534963101148605, 0.056761980056762695], [-0.0316600576043129, -0.05420819669961929, 0.06914055347442627, 0.054014258086681366, -0.1320427805185318, 0.02234172262251377, -0.10273893177509308, -0.06055665388703346, 0.011310073547065258, 0.06163877621293068], [0.057041749358177185, -0.09996189177036285, -0.03553277254104614, 0.08984130620956421, -0.06764436513185501, 0.03208237141370773, -0.028245223686099052, 0.09455695003271103, 0.022913433611392975, -0.01177791878581047], [-0.008773932233452797, -0.05622881278395653, 0.00678254896774888, 0.0657726600766182, -0.04716289043426514, -0.012644311413168907, -0.22967952489852905, 0.018759271129965782, -0.06048746034502983, 0.025712119415402412], [-0.05414288863539696, -0.005644914694130421, 0.027029002085328102, 0.01378451194614172, 0.06168607622385025, -0.05891925096511841, 0.010724487714469433, 0.031668491661548615, 0.03693769872188568, -0.021561946719884872], [-0.08443111926317215, 0.06936542689800262, -0.07795794308185577, -0.01674891635775566, 0.011959433555603027, 0.11438899487257004, 0.015299317426979542, -0.09247476607561111, 0.06682746857404709, 0.029409661889076233], [0.030562041327357292, 0.026842376217246056, 0.09264787286520004, 0.051705650985240936, 0.13579539954662323, -0.0535043329000473, -0.004325028043240309, -0.163454070687294, -0.06627289950847626, -0.17086614668369293], [-0.011550742201507092, 0.012093326076865196, 0.07306793332099915, -0.006546406541019678, -0.10671529918909073, 0.04740319401025772, 0.007454430218786001, -0.07750283181667328, 0.032057423144578934, -0.022657208144664764], [0.05010885372757912, 0.03991719335317612, 0.05687696114182472, -0.026819895952939987, -0.07785990834236145, 0.00287997187115252, -0.039902880787849426, -0.06617432832717896, -0.018137603998184204, 0.02224978432059288], [0.05522949993610382, 0.012248115614056587, -0.009422770701348782, 0.054576072841882706, -0.01382832694798708, 0.038016535341739655, 0.02368127554655075, 0.025413980707526207, -0.013936338946223259, -0.03256862238049507], [-0.06805149465799332, -0.0909537822008133, -0.04482782632112503, 0.03227480128407478, -0.11419427394866943, 0.012474952265620232, -0.023771321401000023, 0.10958235710859299, -0.02327744849026203, 0.08213139325380325], [0.03222738578915596, -0.034010373055934906, 0.06713485717773438, 0.02636895142495632, -0.13305702805519104, -0.005739814136177301, -0.07909911870956421, 0.012034798972308636, 0.06168802082538605, 0.037759024649858475], [0.0013777134008705616, -0.14736998081207275, 0.07309091836214066, 0.03043559193611145, -0.16333293914794922, 0.09387977421283722, -0.06716553121805191, 0.033423952758312225, 0.010515057481825352, -0.008804650977253914], [0.048865824937820435, -0.09157875925302505, -0.009841649793088436, 0.023753497749567032, -0.11987075209617615, -0.04089165851473808, -0.044427525252103806, 0.032541707158088684, 0.06523150205612183, 0.10036835074424744], [0.0788666233420372, -0.012111667543649673, 0.06279520690441132, 0.04288840666413307, 0.009056337177753448, 0.052539028227329254, 0.026232514530420303, 0.004733632318675518, -0.03098098374903202, -0.029758162796497345], [-0.044960394501686096, -0.017975429072976112, -0.04455171898007393, -0.10766027122735977, -0.017178624868392944, 0.03960790857672691, -0.00020142478751949966, -0.04317525029182434, 0.06339588761329651, 0.004279790911823511], [0.08809997141361237, 0.10730615258216858, -0.11867985129356384, 0.055074453353881836, 0.08815094083547592, -0.15577302873134613, -0.0579339936375618, -0.13336655497550964, -0.134700208902359, -0.2296455204486847], [-0.04373341053724289, -0.03246776759624481, 0.010425973683595657, 0.06431274861097336, -0.13409925997257233, 0.08710261434316635, 0.035167284309864044, -0.06747286021709442, 0.023466745391488075, 0.06656358391046524], [0.013836835511028767, 0.04197224602103233, 0.0688793733716011, -0.035862602293491364, -0.07475464791059494, 0.017837010324001312, 0.03465684503316879, 0.01942836493253708, 0.06210239604115486, -0.022548098117113113], [0.0696432963013649, -0.040404144674539566, 0.03969010338187218, 0.006121679674834013, -0.0014989322517067194, 0.09333519637584686, 0.04593076556921005, -0.024967383593320847, 0.03243508189916611, -0.05291030928492546], [-0.011927548795938492, -0.11657151579856873, -0.013692767359316349, 0.006649122107774019, -0.10187821090221405, 0.0656023919582367, -0.049229420721530914, 0.048401933163404465, 0.04914519190788269, 0.055430490523576736], [0.038130104541778564, -0.011919885873794556, 0.015195254236459732, 0.015898343175649643, -0.04692215099930763, 0.11612976342439651, -0.045384928584098816, -0.03196234256029129, 0.05520957335829735, -0.01871403306722641], [0.03815831243991852, -0.12872472405433655, 0.03924577683210373, -0.06030452623963356, -0.08708636462688446, 0.05243882164359093, -0.009658362716436386, -0.015222270973026752, 0.06095532700419426, 0.1224072128534317], [-0.001701809698715806, -0.016009770333766937, 0.06758428364992142, 0.03253201022744179, -0.11714448034763336, 0.03604729846119881, -0.13359582424163818, 0.07054127007722855, -0.01135304942727089, 0.08796807378530502], [-0.019734900444746017, 0.006076118443161249, -0.011457410641014576, 0.042148057371377945, -0.00711142597720027, 0.04721089452505112, -0.016028977930545807, -0.10498140752315521, -0.018047237768769264, -0.05108366161584854], [-0.09914575517177582, 0.11573836207389832, -0.11333297938108444, -0.11351899057626724, -0.0013177967630326748, 0.1533757895231247, 0.0783190131187439, -0.07369189709424973, 0.12825815379619598, -0.060685109347105026], [-0.11732479184865952, 0.18440353870391846, -0.1819348782300949, 0.05888860672712326, 0.15210098028182983, -0.11906740069389343, -0.06954018771648407, -0.0052399286068975925, 0.009901599027216434, -0.1064741238951683], [0.04944601655006409, -0.033042021095752716, 0.025997430086135864, -0.029481204226613045, -0.0687732994556427, 0.047285862267017365, -0.011842356063425541, -0.03836529701948166, 0.0360373854637146, 0.02710741013288498], [-0.048297446221113205, -0.046066541224718094, 0.00502281729131937, -0.015246954746544361, -0.11264114826917648, 0.10673807561397552, 0.059258751571178436, -0.09235072880983353, 0.05073864012956619, 0.050125978887081146], [-0.021499961614608765, -0.027667736634612083, -0.04805212840437889, 0.033678337931632996, -0.07157158851623535, 0.06453917175531387, 0.038206662982702255, -0.0054247728548944, 0.07966436445713043, -0.04120112210512161], [-0.019695326685905457, -0.08528932183980942, -0.07071708142757416, -0.014661057852208614, -0.14400437474250793, 0.1316644698381424, 0.05026514455676079, -0.04760165885090828, 0.059770870953798294, 0.09080535918474197], [0.01431071013212204, -0.0337381549179554, -0.018318094313144684, -0.012028148397803307, 0.012335496954619884, 0.06546474248170853, 0.03351850435137749, -0.06963144242763519, 0.015987178310751915, 0.060060035437345505], [0.057068679481744766, -0.04043954983353615, -0.011342563666403294, -0.06738085299730301, -0.07846684008836746, 0.07024599611759186, -0.04370216280221939, -0.06172264739871025, 0.01079984288662672, 0.00037306611193343997], [0.010289506055414677, -0.04723471775650978, -0.01372611802071333, -0.0027093463577330112, -0.07601480185985565, -0.00932413712143898, -0.02017909102141857, 0.07354293018579483, 0.014957194216549397, -0.005945535842329264], [0.06620625406503677, 0.05147290974855423, -0.049292806535959244, -0.0514635294675827, 0.006591702811419964, -0.012637280859053135, 0.07580489665269852, -0.08997724205255508, 0.002705575432628393, 0.04401982203125954], [-0.03696785122156143, 0.05437476560473442, -0.025700643658638, -0.11104027926921844, 0.029441583901643753, 0.11283737421035767, 2.2301217541098595e-05, -0.00023516698274761438, 0.0007304878090508282, -0.08759137988090515], [-0.03683099523186684, 0.11470901966094971, -0.18424092233181, -0.1291748732328415, 0.11215564608573914, 0.04186246544122696, -0.15770943462848663, 0.12576717138290405, 0.06153693422675133, -0.06590926647186279], [-0.009293737821280956, 0.028738584369421005, -0.024103978648781776, -0.025577951222658157, -0.07381444424390793, 0.01938534341752529, 0.042428433895111084, -0.12625786662101746, 0.0036798547953367233, -0.016987403854727745], [0.04591122269630432, -0.056276433169841766, 0.05630287528038025, -0.011193378828465939, -0.08239325135946274, 0.05601203814148903, 0.009859119541943073, -0.10174012929201126, 0.042350850999355316, 0.026933660730719566], [-0.010135379619896412, -0.01492846105247736, -0.028835900127887726, -0.09771689772605896, 0.03580693155527115, -0.0013755194377154112, 0.0062750293873250484, -0.09807508438825607, 0.06936827301979065, -0.0019428528612479568], [0.033960066735744476, -0.00188363844063133, -0.01758594997227192, -0.11379408836364746, 0.029598597437143326, -0.03985147923231125, 0.06003280729055405, -0.020657585933804512, 0.029516106471419334, 0.019567091017961502], [0.01878603920340538, -0.030360955744981766, 0.018933702260255814, -0.05484173074364662, 0.04329925775527954, 0.0644865408539772, -0.02625148743391037, -0.08916202187538147, -0.003869373584166169, 0.011394763365387917], [-0.03319966793060303, 0.024560848250985146, -0.03524702787399292, 0.030210282653570175, 0.03622210770845413, 0.05119113624095917, 0.07618708908557892, -0.12394408881664276, 0.04874036833643913, -0.0738377794623375], [0.12019579857587814, 0.020017530769109726, 0.04317845404148102, -0.019105901941657066, 0.002408096566796303, 0.009427478536963463, 0.05589528754353523, 0.03151007369160652, -0.009057018905878067, 0.05087092146277428], [-0.07862428575754166, 0.018757496029138565, -0.033814311027526855, 0.037346623837947845, 0.06507941335439682, 0.005704945418983698, -0.010359611362218857, -0.060270924121141434, -0.0026226909831166267, -0.0901484563946724], [0.009545878507196903, 0.0874212384223938, -0.10525818914175034, -0.09895285964012146, 0.045012280344963074, 0.12101767957210541, -0.009476936422288418, -0.16238734126091003, -0.002863238099962473, -0.027112603187561035], [-0.09355536103248596, -0.05247025191783905, -0.03353266790509224, -0.10628105700016022, 0.18819154798984528, -0.06031801179051399, -0.0429784432053566, -0.08195346593856812, 0.1718437671661377, -0.061670899391174316], [0.03865905851125717, 0.02629929408431053, -0.029448049142956734, -0.002400491386651993, -0.0019055039156228304, 0.06304410099983215, -0.00017957012460101396, -0.03414469212293625, -0.0779605582356453, -0.0687793493270874], [0.017707400023937225, -0.001895800232887268, 0.041658081114292145, -0.007770516909658909, -0.053430285304784775, 0.04404542222619057, 0.06536664068698883, -0.00835697166621685, 0.0736735388636589, 0.05152963474392891], [0.0122795095667243, -0.021477550268173218, -0.08400265127420425, -0.05300172418355942, 0.07861751317977905, 0.038092512637376785, 0.1016603410243988, -0.037013135850429535, -0.014731320552527905, -0.041686441749334335], [0.0060317241586744785, -0.10107813030481339, -0.04727036878466606, -0.09070120006799698, 0.07606340199708939, 0.10182314366102219, 0.009275522083044052, -0.08291201293468475, 0.03309863433241844, -0.11453376710414886], [-0.029893213883042336, -0.09940527379512787, -0.1056763231754303, -0.009777411818504333, 0.0642351433634758, -0.0023616438265889883, 0.04218079522252083, -0.12541112303733826, 0.029819967225193977, -0.15642933547496796], [-0.043747272342443466, -0.12374095618724823, -0.02478213794529438, 0.004562749993056059, 0.1106662005186081, 0.1340785026550293, 0.02815159037709236, -0.0785285159945488, 0.008493066765367985, -0.09852775931358337], [-0.024943945929408073, 0.07665591686964035, -0.05898885801434517, -0.05915024131536484, 0.07477543503046036, -0.013527808710932732, 0.05298998951911926, -0.0005819586222060025, -0.01625453680753708, -0.08669479191303253], [-0.04933157190680504, -0.06217898800969124, -0.06845305860042572, -0.0535089373588562, 0.10987207293510437, 0.0862603560090065, 0.104047492146492, -0.06852952390909195, -0.0015868691261857748, -0.1029515415430069], [-0.0995820090174675, -0.10088681429624557, -0.03011777065694332, -0.1339084804058075, -0.020867981016635895, 0.09592913836240768, -0.06685619056224823, -0.1786019653081894, 0.05646597966551781, -0.04604411870241165], [-0.07071158289909363, -0.08440524339675903, -0.03466227278113365, -0.09017013013362885, -0.03430979326367378, 0.07492917031049728, 0.0016952961450442672, -0.059357501566410065, 0.040268488228321075, -0.02941208891570568], [-0.1028815358877182, -0.09905297309160233, -0.08536476641893387, -0.11273198574781418, 0.018973277881741524, 0.06815091520547867, 0.04245488718152046, -0.2205471396446228, -0.04513976350426674, -0.1973501294851303], [0.05959053337574005, -0.06277251243591309, -0.021746385842561722, 0.03278743475675583, -0.03294758126139641, -0.014957624487578869, -0.0341695100069046, -0.13099871575832367, 0.01264174934476614, -0.06823436170816422], [-0.1169184222817421, -0.008087821304798126, -0.06535984575748444, -0.14274930953979492, 0.05609845370054245, 0.02257082611322403, 0.0212788674980402, -0.10455453395843506, -0.03706107661128044, -0.1556904911994934], [-0.03522058203816414, -0.04371189326047897, -0.0026449300348758698, 0.049332793802022934, 0.0930561050772667, -0.13283686339855194, -0.01744590327143669, -0.006369767244905233, 0.05898800119757652, -0.02525763027369976], [0.0009324931888841093, 0.0004122912650927901, 0.027004225179553032, 0.056287966668605804, 0.020702101290225983, -0.10290688276290894, 0.06465810537338257, -0.023455940186977386, -0.03671349957585335, -0.12507519125938416], [0.03252313658595085, 0.022295355796813965, 0.05486282333731651, -0.040132783353328705, 0.15929503738880157, -0.11056359857320786, -0.059834353625774384, -0.019800862297415733, -0.027151478454470634, -0.12088828533887863], [-0.013274375349283218, 0.060484398156404495, 0.015108189545571804, -0.09611355513334274, -0.017144475132226944, -0.08469051122665405, 0.031100362539291382, 0.1094919890165329, -0.11559777706861496, -0.007568249013274908], [-0.06784376502037048, 0.08774299919605255, -0.017396803945302963, -0.01975231245160103, 0.060706689953804016, -0.19911514222621918, 0.07728197425603867, 0.035092417150735855, -0.07779567688703537, -0.09880828857421875], [-0.11819712072610855, 0.07481206953525543, 0.030377095565199852, -0.05095131695270538, 0.04748651385307312, -0.01273973286151886, 0.048624761402606964, -0.10288113355636597, 0.011313936673104763, -0.047323647886514664], [-0.04703722894191742, 0.05764126777648926, 0.0006119963363744318, -0.028136225417256355, 0.020872265100479126, -0.0008899556705728173, 0.041538167744874954, 0.0029850034043192863, -0.005536623299121857, -0.19661062955856323], [-0.12966080009937286, -0.024280674755573273, 0.02464175410568714, -0.02739524468779564, -0.010077064856886864, -0.07681220769882202, 0.08970236033201218, -0.08638028800487518, 0.014287248253822327, -0.05577994883060455], [-0.06497343629598618, -0.060888756066560745, 0.04309562221169472, 0.005834565963596106, 0.03898892551660538, -0.16624553501605988, -0.0027220018673688173, -0.0647321417927742, 0.028975702822208405, -0.1369147151708603], [-0.03427325189113617, -0.014005742967128754, 0.03003976307809353, 0.002558181993663311, 0.057292480021715164, -0.16374430060386658, -0.05642447993159294, -0.026973186060786247, -0.006653662770986557, -0.07800286263227463], [0.022087031975388527, -0.1177685335278511, 0.07261297106742859, -0.027319662272930145, 0.030242353677749634, -0.05806761980056763, -0.04507419094443321, -0.03901396691799164, 0.018310869112610817, 0.034646935760974884], [-0.018932927399873734, -0.08009763807058334, 0.0374758243560791, 0.015072977170348167, 0.033716730773448944, -0.13639362156391144, 0.033548273146152496, 0.051775574684143066, 0.033800844103097916, 0.0004955519689247012], [-0.041592054069042206, -0.07120339572429657, 0.01136796921491623, -0.002101117977872491, 0.10664729028940201, -0.047369491308927536, -0.10979504138231277, -0.033917851746082306, -0.03824097663164139, -0.04588744044303894], [0.004064465407282114, 0.030358070507645607, 0.066941037774086, 0.01707727648317814, 0.14029560983181, 0.022248104214668274, -0.049968283623456955, 0.08100935816764832, -0.15456007421016693, -0.14549237489700317], [0.022117624059319496, 0.03765276074409485, -0.008685988374054432, 0.05836733803153038, 0.0036149900406599045, -0.0928577184677124, 0.0328216478228569, -0.007544329855591059, 0.04583228379487991, -0.04890183359384537], [0.07225397229194641, -0.0410197451710701, -0.00044988689478486776, -0.03849243372678757, -0.07695840299129486, -0.0878838524222374, -0.04869253188371658, -0.056059032678604126, 0.017309725284576416, 0.010027933865785599], [-0.020418116822838783, 0.008216779679059982, -0.07914949953556061, 0.028940822929143906, -0.03893023729324341, 0.026573117822408676, 0.010227463208138943, 0.04550369083881378, 0.01120765320956707, -0.08152985572814941], [-0.013313747011125088, -0.01728714443743229, -0.04682009667158127, 0.07194826006889343, 0.0060073696076869965, 0.01665470562875271, 0.023979006335139275, 0.060073353350162506, 0.04047685116529465, -0.0302075557410717], [-0.032760895788669586, -0.00930706039071083, 0.039063818752765656, -0.011445451527833939, -0.029062846675515175, 0.020516643300652504, -0.06719797849655151, 0.026179557666182518, -0.045563679188489914, 0.026813490316271782], [0.0115019166842103, -0.019305726513266563, 0.018013790249824524, -0.00811388436704874, 0.006106777116656303, -0.07204452157020569, 0.035991981625556946, 0.0801890417933464, 0.025254787877202034, -0.022640740498900414], [-0.0037384959869086742, -0.0426415279507637, 0.02947908639907837, 0.05042571201920509, 0.006902084685862064, -0.09162051230669022, -0.1376839131116867, 0.07583674043416977, -0.06658200919628143, -0.04009411111474037], [0.015937896445393562, -0.10106828808784485, -0.02234247699379921, 0.0038740294985473156, -0.06467297673225403, -0.02251400053501129, 0.04120852053165436, 0.0867241621017456, -0.008440596051514149, 0.059991251677274704], [-0.021720897406339645, -0.026041561737656593, 0.0061739347875118256, 0.009983915835618973, -0.00671683344990015, -0.02987128496170044, -0.08087597787380219, 0.03359341248869896, -0.04262634366750717, 0.03357686102390289], [-0.08408354967832565, 0.08492948859930038, -0.0491633266210556, -0.03158169984817505, -0.01797930710017681, -0.060354530811309814, -0.12555722892284393, 0.13078084588050842, -0.1603230983018875, -0.21661339700222015], [-0.001619234448298812, 0.03784520924091339, 0.027868259698152542, -0.02028392069041729, -0.037793662399053574, -0.019775742664933205, 0.07023637741804123, 0.05225970223546028, 0.05324042961001396, -0.12091652303934097], [0.04191199690103531, -0.04228394106030464, 0.012215553782880306, -0.05743739381432533, -0.07094822078943253, 0.00301207578741014, -0.0034659062512218952, -0.09509427845478058, -0.024169467389583588, -0.0037080931942909956], [0.01538080908358097, 0.032273709774017334, -0.034880295395851135, 0.021684009581804276, 0.0573425367474556, 0.05801475793123245, 0.050851430743932724, 0.16434942185878754, -0.03664609044790268, -0.03412110358476639], [-0.05109144002199173, -0.0982387512922287, -0.026061246171593666, 0.06209395080804825, -0.07830116897821426, 0.037221238017082214, 0.035381123423576355, 0.008280718699097633, 0.037018243223428726, 0.039114173501729965], [0.01770683191716671, 0.007703190203756094, 0.047659046947956085, -0.02202320285141468, 0.03353673219680786, -0.014364956878125668, -0.017952363938093185, -0.038424331694841385, 0.02933889627456665, 0.0458642914891243], [0.02064305730164051, -0.05681101605296135, -0.028307683765888214, -0.03477481007575989, 0.04769899696111679, 0.0025139173958450556, 0.0023637814447283745, 0.0761437863111496, 0.053792357444763184, -0.0905553475022316], [0.0240107960999012, -0.0851496011018753, 0.04321715980768204, 0.028940116986632347, -0.08850059658288956, -0.1426427811384201, -0.06851302832365036, 0.10623230785131454, -0.026692740619182587, 0.035055771470069885], [-0.011213901452720165, 0.029171351343393326, 0.029451820999383926, 0.08099957555532455, -0.048471372574567795, -0.005331588443368673, -0.06099309027194977, -0.013344026170670986, -0.04006703570485115, -0.055496640503406525], [-0.07047741860151291, -0.06600307673215866, 0.04281162843108177, 0.09021151065826416, -0.02897491864860058, -0.017105767503380775, -0.04974004253745079, 0.02275031991302967, -0.015692543238401413, 0.04980262741446495], [-0.003492371877655387, 0.19595155119895935, 0.024367567151784897, 0.12981359660625458, -0.008352930657565594, -0.0022318263072520494, -0.16491356492042542, 0.1762266457080841, -0.10545637458562851, -0.2109975516796112], [0.008679072372615337, -0.024515828117728233, 0.03475341200828552, 0.005341501906514168, 0.004412343725562096, 0.06961467117071152, 0.02824150212109089, 0.09800022840499878, 0.044693123549222946, -0.11224289983510971], [-0.028736311942338943, 0.03644094616174698, -0.015387107618153095, 0.037059132009744644, 0.0017455569468438625, 0.02142448164522648, 0.07605906575918198, -0.029972665011882782, 0.021205846220254898, 0.04978545382618904], [-0.0037980577908456326, 0.06724642962217331, -0.05996739864349365, -0.0820867121219635, 0.18596237897872925, 0.09756885468959808, 0.06363222002983093, 0.11432322859764099, -0.010048996657133102, -0.1723036915063858], [0.058074284344911575, -0.06376903504133224, 0.09539365023374557, 0.032629188150167465, 0.03465328738093376, -0.04875827208161354, 0.004523724317550659, 0.07432097941637039, -0.005190910771489143, -0.035212770104408264], [0.029368814080953598, -0.04407191276550293, -0.01068197749555111, -0.005481752101331949, 0.023254049941897392, -0.024736987426877022, -0.06637142598628998, 0.034092776477336884, -0.04400194436311722, -0.015389496460556984], [-0.037281159311532974, -0.04993247985839844, 0.03754837065935135, 0.006786871235817671, -0.024127071723341942, -0.03550107404589653, -0.0010135539341717958, -0.0006111416732892394, 0.00740142771974206, -0.08803978562355042], [-0.006526784971356392, -0.09902722388505936, 0.06525208801031113, 0.05334095284342766, -0.08913659304380417, -0.12255609780550003, -0.17637071013450623, 0.05589069053530693, -0.028897138312458992, 0.021284908056259155], [0.029235178604722023, -0.03249778226017952, -0.03742271289229393, 0.08544362336397171, -0.022481707856059074, -0.04594585672020912, -0.046479132026433945, 0.0674246996641159, 0.04515630751848221, -0.01300942525267601], [-0.07827312499284744, -0.06451520323753357, 0.01484494749456644, 0.013924450613558292, -0.07628759741783142, -0.055261556059122086, -0.06534595042467117, 0.14344318211078644, 0.03416571021080017, -0.004705888219177723], [-0.11370207369327545, 0.042397476732730865, 0.04333694651722908, 0.15596336126327515, 0.056427422910928726, -0.013053875416517258, -0.25350597500801086, 0.14553497731685638, -0.1256786733865738, -0.21362760663032532], [-0.028207827359437943, -0.034332964569330215, 0.09198728948831558, 0.04634340479969978, 0.010399472899734974, -0.004735611379146576, 0.039697010070085526, 0.049580030143260956, 0.02059159427881241, -0.11242814362049103], [-0.06394954025745392, 0.1053740382194519, 0.02849091961979866, -0.00912164431065321, -0.004136187955737114, -0.030207617208361626, 0.007389843463897705, 0.001684845658019185, 0.07173646986484528, 0.0047347270883619785], [-0.11407153308391571, 0.08297532051801682, 0.007611901964992285, -0.08555790781974792, 0.2754440903663635, 0.017470112070441246, -0.008802118711173534, 0.14403121173381805, -0.027218973264098167, -0.1748395711183548], [-0.020936252549290657, 0.07930271327495575, 0.10471178591251373, 0.08152991533279419, -0.0797801986336708, -0.06282748281955719, -0.04486095532774925, -0.01986350119113922, -0.03270893171429634, -0.06932446360588074], [-0.015092742629349232, -0.004040982108563185, 0.07447031140327454, -0.029125064611434937, -0.026337262243032455, 0.04646332561969757, 0.024261120706796646, 0.044442035257816315, -0.05881080776453018, -0.08430017530918121], [-0.006426656153053045, -0.03226293995976448, 0.07315347343683243, -0.00912823062390089, 0.01110037975013256, 0.026496028527617455, -0.05317414179444313, -0.004498956259340048, -0.0046941000036895275, 0.0006697396165691316], [0.037405628710985184, -0.02843153104186058, 0.12056737393140793, 0.10953132808208466, -0.15575605630874634, -0.10917937755584717, -0.13362529873847961, 0.07165157049894333, 0.0013195169158279896, -0.020809955894947052], [-0.03106670081615448, -0.035846512764692307, 0.056838780641555786, 0.013396430760622025, -0.13607148826122284, -0.0016797947464510798, -0.09134972840547562, 0.05622794106602669, 0.058236125856637955, 0.08684059232473373], [-0.0748598650097847, -0.09130184352397919, 0.02554527297616005, 0.11284005641937256, -0.20357871055603027, -0.019115129485726357, -0.12575051188468933, 0.08173301070928574, -0.00040373572846874595, 0.0839235708117485], [-0.030215373262763023, -0.1000688374042511, 0.0628863126039505, 0.15247510373592377, -0.07012301683425903, -0.0495389960706234, -0.31845206022262573, 0.10808371752500534, -0.05210689827799797, -0.08873271942138672], [-0.03658932447433472, -0.04331066086888313, 0.004281979985535145, 0.06717934459447861, -0.014003279618918896, 0.013235128484666348, -0.00941172894090414, -0.0005666972720064223, 0.0419582799077034, -0.01598733849823475], [-0.031094523146748543, 0.02887900546193123, -0.020976310595870018, -0.037551671266555786, 0.0176724623888731, -0.050348103046417236, 0.048553094267845154, 0.011547259986400604, 0.01263339538127184, 0.008667532354593277], [-0.030023960396647453, 0.015085521154105663, -0.023746071383357048, 0.0015705563127994537, 0.21727342903614044, -0.049883197993040085, -0.0644272193312645, 0.05143699422478676, -0.01010837871581316, -0.218355193734169], [-0.0575878769159317, -0.029274817556142807, 0.0012725504348054528, 0.04214618727564812, 0.011272895149886608, -0.024476781487464905, -0.051411692053079605, 0.04660458862781525, 0.0107021015137434, -0.04548446834087372], [-0.03243812173604965, 0.08327444642782211, 0.02133573219180107, -0.051815327256917953, -0.03297724947333336, 0.023612530902028084, -0.007857074961066246, 0.05921030044555664, -0.011584640480577946, -0.03927570581436157], [-0.018140926957130432, -0.044997941702604294, -0.03180846944451332, 0.04124775156378746, -0.0466386079788208, 0.008323726244270802, -0.09755940735340118, 0.0647215023636818, -0.035006336867809296, 0.047442223876714706], [0.050058767199516296, -0.09636132419109344, 0.1237306073307991, 0.05572887510061264, -0.20432940125465393, 0.02374991774559021, -0.18845580518245697, 0.06057291105389595, 0.004387891851365566, 0.0986599549651146], [-0.04268363118171692, -0.009791933000087738, -0.00793480034917593, -0.011239590123295784, -0.13718053698539734, -0.0452197827398777, -0.041541047394275665, 0.02349003218114376, -0.022328685969114304, 0.0663304552435875], [-0.04166730120778084, -0.16767260432243347, 0.055969297885894775, 0.08829402178525925, -0.2755735516548157, 0.019887462258338928, -0.10428733378648758, 0.004395350813865662, 0.007193537894636393, 0.12733153998851776], [0.067936010658741, -0.2513482868671417, 0.16468161344528198, 0.07436368614435196, -0.06526979804039001, -0.035007331520318985, -0.30839434266090393, 0.07409518957138062, 0.01461064349859953, 0.0698247179389], [-0.017659494653344154, 0.03763763606548309, -0.019390102475881577, 0.07219497859477997, -0.031565435230731964, 0.01396011933684349, -0.030736122280359268, -0.01573716290295124, -0.030479013919830322, -0.01731523871421814], [-0.027334630489349365, 0.061761729419231415, -0.07546533644199371, -0.13630947470664978, 0.12383292615413666, -0.04902206361293793, 0.10004552453756332, -0.06856938451528549, -0.05470263585448265, 0.0004429147229529917], [-0.004310409538447857, -0.02652706205844879, 0.08867505192756653, 0.01551442127674818, 0.28944116830825806, -0.08874429017305374, -0.10275997221469879, -0.029356863349676132, -0.05624355003237724, -0.1187521293759346], [-0.03695472702383995, 0.09777609258890152, -0.022395020350813866, 0.0352005735039711, -0.060574937611818314, -0.03474346920847893, 0.007911673747003078, -0.012370219454169273, -0.07715342193841934, 0.04254196956753731], [-0.046731896698474884, 0.07222288101911545, -0.033573731780052185, 0.0424950011074543, -0.07944400608539581, 0.021777022629976273, -0.07997457683086395, 0.05431385338306427, 0.0374031588435173, 0.0862807035446167], [0.06412513554096222, -0.0495295375585556, 0.030586352571845055, -0.030156701803207397, -0.10581909865140915, -0.009118607267737389, -0.10262545198202133, -0.016442840918898582, -0.008098863996565342, 0.05592576041817665], [-0.0023990285117179155, -0.06915239244699478, -0.04999313876032829, 0.0032428528647869825, -0.16456596553325653, 0.04937683790922165, -0.021921180188655853, 0.0040992614813148975, -0.04703250154852867, 0.06076003611087799], [0.02390291541814804, 0.007432405836880207, 0.020369891077280045, 0.029907910153269768, -0.09513148665428162, 0.016328424215316772, -0.11951569467782974, 0.02648201957345009, -0.019889825955033302, 0.10857421159744263], [0.045353420078754425, -0.11137040704488754, -0.009112176485359669, 0.018054621294140816, -0.18333783745765686, 0.10320530086755753, -0.0914226770401001, 0.023850446566939354, 0.05550840497016907, 0.14369866251945496], [0.09454069286584854, -0.2241462618112564, 0.1124773845076561, 0.0457935594022274, -0.22178258001804352, -0.03417404741048813, -0.18078872561454773, 0.059686362743377686, 0.07029835879802704, 0.10894018411636353], [0.05320539325475693, 0.008127636276185513, -0.01129122544080019, -0.013718076050281525, -0.02046697959303856, -0.0448588952422142, -0.01194025482982397, -0.06786104291677475, 0.0663505271077156, -0.0033377220388501883], [-0.04649566113948822, 0.06310336291790009, -0.15930278599262238, -0.08249365538358688, 0.24113070964813232, 0.11926596611738205, 0.014407290145754814, -0.01264652144163847, -0.07509975135326385, -0.01791047677397728], [0.07299172133207321, 0.06201895326375961, 0.0929722785949707, 0.0014815571485087276, 0.1710999608039856, -0.255799800157547, -0.15977385640144348, 0.0060548498295247555, 0.057316407561302185, -0.03966901823878288], [0.029463283717632294, 0.05575753003358841, -0.0020533071365207434, -0.02378149889409542, -0.13841690123081207, 0.08987996727228165, -0.035503119230270386, -0.021216925233602524, 0.04173183813691139, -0.022293392568826675], [-0.022705573588609695, 0.061900533735752106, -0.053279340267181396, 0.02044432796537876, -0.05413127318024635, 0.017320899292826653, -0.06708534061908722, 0.10052207857370377, 0.04203011468052864, -0.004525826778262854], [0.0814715027809143, -0.06307845562696457, 0.035956013947725296, 0.057112544775009155, -0.08068162947893143, -0.004386009182780981, -0.054014332592487335, 0.04237143322825432, -0.032376728951931, 0.035208310931921005], [-0.03628949820995331, -0.125858873128891, -0.03224195912480354, -0.09470535814762115, -0.0763503834605217, 0.16229192912578583, -0.016917357221245766, 0.09533429145812988, 0.08821827918291092, 0.019995741546154022], [0.025770999491214752, -0.10482756048440933, -0.01856144890189171, 0.033649154007434845, -0.08316471427679062, 0.06954187154769897, -0.07231827080249786, 0.010143539868295193, 0.05120493099093437, 0.03505858778953552], [-0.026292426511645317, -0.17107072472572327, -0.056480612605810165, -0.0716635063290596, -0.18258027732372284, 0.18172532320022583, 0.022610118612647057, 0.08666831254959106, 0.005995757412165403, 0.03211134672164917], [0.06176147237420082, -0.22351685166358948, -0.07329993695020676, 0.009251220151782036, -0.1603194773197174, 0.11328515410423279, -0.0839410349726677, 0.013387198559939861, -0.03119518980383873, 0.03280854970216751], [0.004678827244788408, -0.03994680568575859, -0.05748322233557701, 0.006632509175688028, -0.008441712707281113, 0.02552403323352337, 0.034592729061841965, -0.010455460287630558, 0.04717492312192917, 0.06235850229859352], [-0.12867815792560577, 0.10376791656017303, -0.2370501309633255, -0.05945325642824173, 0.15458033978939056, 0.15308739244937897, -0.030271530151367188, -0.013427609577775002, -0.05335194617509842, -0.1334395408630371], [0.08726364374160767, -0.06314150243997574, 0.08450836688280106, -0.008968789130449295, 0.18504132330417633, -0.36742153763771057, -0.07437717914581299, -0.09285493940114975, 0.012657610699534416, -0.0214253980666399], [0.07006599754095078, -0.04771862179040909, -0.004431223031133413, -0.03206978365778923, -0.031407974660396576, 0.06249379366636276, -0.0493934266269207, -0.05042152851819992, -0.016138127073645592, 0.04311434552073479], [0.04570959135890007, -0.04177682846784592, -0.05617627128958702, -0.01556241512298584, 0.0019678454846143723, 0.0713236927986145, -0.045331865549087524, 0.06536278128623962, 0.03843612223863602, 0.01076090894639492], [0.0033533014357089996, -0.028197119012475014, -0.003500907914713025, 0.0014732895651832223, -0.03925012797117233, -0.016748670488595963, -0.06064143776893616, 0.03882848098874092, 0.04187567159533501, -0.017813121899962425], [-0.06250932812690735, -0.0157149750739336, -0.10251181572675705, -0.05751635879278183, -0.0435948483645916, 0.12930923700332642, 0.14677414298057556, 0.04738491028547287, 0.03374406322836876, 0.05382133275270462], [0.03600957244634628, -0.06792089343070984, -0.0712817907333374, -0.05988165736198425, -0.04879152774810791, 0.019215984269976616, -0.03865049034357071, 0.021738367155194283, 0.08174000680446625, 0.02040192112326622], [-0.06406814604997635, -0.012430981732904911, -0.07775779068470001, -0.13173983991146088, -0.11325199902057648, 0.1351771354675293, 0.07550683617591858, 0.07410228252410889, -0.007097878959029913, 0.08548342436552048], [0.0375247485935688, -0.07350031286478043, -0.046124931424856186, -0.05201328173279762, -0.105213962495327, 0.10520987212657928, 0.0690523087978363, -0.0023397328332066536, 0.02308736927807331, 0.07320017367601395], [0.034731633961200714, 0.06811414659023285, -0.03676464036107063, 0.03397917002439499, -0.08898236602544785, 0.023532694205641747, 0.07412538677453995, 0.04066998139023781, -0.028732003644108772, -0.030895095318555832], [-0.048358287662267685, 0.18678224086761475, -0.16370849311351776, -0.2080923616886139, 0.19606180489063263, 0.21751615405082703, -0.06820817291736603, 0.005704342387616634, -0.05623689293861389, -0.1113625168800354], [0.034454695880413055, 0.0531463697552681, 0.2159581482410431, 0.12548412382602692, 0.04284723103046417, -0.2722139358520508, -0.1399008333683014, 0.08960066735744476, 0.07167279720306396, -0.08213391155004501], [0.009711471386253834, -0.07308471202850342, 0.000626113498583436, -0.011642204597592354, 0.026270823553204536, 0.03502829372882843, 0.07002617418766022, 0.0027450439520180225, -0.051522351801395416, -0.02402222529053688], [0.03207860887050629, -0.0148099884390831, -0.0005324874655343592, 0.027795033529400826, -0.06455984711647034, 0.008309132419526577, 0.002725014230236411, 0.018783802166581154, 0.04490888863801956, 0.01112790871411562], [-0.025129234418272972, -0.028814485296607018, -0.0500914566218853, 0.021921804174780846, -0.004825814161449671, 0.10093444585800171, -0.039375096559524536, -0.04064666107296944, 0.05538661777973175, 0.011676707305014133], [-0.02651839703321457, -0.11075987666845322, -0.06340056657791138, -0.06528587639331818, -0.010366917587816715, 0.084658682346344, 0.03227023780345917, 0.008858347311615944, 0.07323251664638519, -0.04292318969964981], [-0.006399331148713827, -0.059650443494319916, 0.007900732569396496, -0.016494981944561005, 0.046791668981313705, 0.003105524694547057, 0.028246136382222176, -0.06058996543288231, 0.018799740821123123, 0.0420636385679245], [-0.015094106085598469, -0.01268664188683033, -0.012684963643550873, -0.05373058468103409, -0.03418102115392685, 0.13014154136180878, 0.06116560846567154, -0.0616329200565815, 0.06927340477705002, -0.026746664196252823], [0.04664797708392143, -0.0699138343334198, -0.09904597699642181, -0.031979601830244064, -0.07815033197402954, 0.034735701978206635, 0.07289482653141022, 0.08439852297306061, 0.046982645988464355, -0.0023710844106972218], [0.018427705392241478, -0.006255463231354952, -0.011071006767451763, 0.011487772688269615, -0.035208094865083694, -0.023208020254969597, -0.007484334986656904, 0.016543477773666382, 0.03318323940038681, 0.01720341667532921], [-0.18782079219818115, 0.056212663650512695, -0.14346317946910858, -0.1444755643606186, 0.16504980623722076, 0.1994880735874176, -0.10101790726184845, 0.0298638753592968, -0.01640287972986698, -0.08089690655469894], [-0.0035240459255874157, -0.11464086920022964, 0.020129399374127388, 0.02248021773993969, 0.15671728551387787, -0.1787743866443634, 0.03299056366086006, -0.10260304063558578, 0.056634802371263504, -0.3166749179363251], [-0.019924761727452278, 0.043507110327482224, -0.0038086611311882734, -0.01344287022948265, -0.01700996235013008, 0.023212477564811707, -0.003966100979596376, -0.009191697463393211, 0.0004659515689127147, -0.002078545279800892], [-0.013190135359764099, -0.003991737496107817, 0.0066453819163143635, 0.010549401864409447, -0.06588849425315857, 0.019386116415262222, -0.04571632295846939, -0.028078243136405945, 0.013426283374428749, -0.06011074408888817], [0.056746210902929306, -0.07842494547367096, -0.05820784345269203, -0.007426058407872915, -0.01517526339739561, 0.04233027249574661, -0.01108742505311966, -0.025983519852161407, 0.015078607946634293, -0.03634985536336899], [-0.017263291403651237, -0.10457953065633774, -0.12390850484371185, -0.07610826194286346, -0.009270342998206615, 0.15677510201931, -0.07802539318799973, -0.10514329373836517, 0.06190517544746399, -0.022448062896728516], [-0.03698357939720154, -0.03049660287797451, -0.10049078613519669, -0.11532435566186905, 0.0002106402680510655, 0.10784665495157242, -0.09761513769626617, -0.11626286059617996, 0.03333858773112297, -0.09530366212129593], [0.03728611767292023, -0.058332838118076324, -0.042214568704366684, -0.048302214592695236, 0.0021581584587693214, 0.11877826601266861, 0.0620000921189785, -0.0141133489087224, -0.005087373778223991, 